[[-0.04174046963453293,-0.07344526797533035,-0.0017778589390218258,-0.0486316904425621,0.044437605887651443,-0.05070646107196808,0.07648995518684387,-0.055507395416498184,0.07598142325878143,-0.02952381782233715,-0.10063185542821884,-0.14933530986309052,0.16174252331256866,0.14712560176849365,0.07760807126760483,-0.06442692130804062,0.1130407303571701,-0.19722528755664825,0.02408580854535103,0.032882869243621826,0.05227584391832352,0.11462318897247314,0.010593429207801819,0.1042577400803566,0.2272578626871109,-0.03440307825803757,-0.17085395753383636,0.04217486083507538,-0.18635402619838715,-0.040939681231975555,-0.11783064156770706,0.2281738966703415,-0.04479710012674332,0.2675137221813202,0.0721808597445488,0.21279530227184296,-0.18827758729457855,-0.1626572161912918,-0.05706648528575897,-0.07235991209745407,0.07808331400156021,-0.30793553590774536,-0.05951668694615364,0.10150818526744843,0.03797256946563721,-0.01526170875877142,0.10240636765956879,0.015615010634064674,0.15387561917304993,0.10305847227573395,-0.12476392090320587,-0.14463096857070923,0.03648407384753227,-0.673392653465271,-0.1725945621728897,0.1110730990767479,-0.15271726250648499,-0.19007088243961334,-0.007526051718741655,0.12120933830738068,-0.08254483342170715,0.03217017650604248,0.017095912247896194,0.10818503051996231],[0.2691137194633484,-0.1502610594034195,-0.054475750774145126,0.11143126338720322,-0.08205953240394592,0.07871345430612564,-0.04016127809882164,0.1793198585510254,0.009408068843185902,0.2105221450328827,-0.0731082409620285,0.01301211304962635,-0.03187646344304085,-0.00015451649960596114,0.13075941801071167,-0.14016950130462646,-0.3729753792285919,0.09134390205144882,-0.2948988676071167,-0.009908465668559074,-0.10799087584018707,0.07051663100719452,0.22341744601726532,-0.0046750823967158794,-0.02926263026893139,0.14795853197574615,0.041528359055519104,0.06616605073213577,0.01387177873402834,-0.3489108979701996,-0.20092593133449554,-0.1423734575510025,0.03331417217850685,0.11389537155628204,0.24436673521995544,-0.08817912638187408,-0.07107582688331604,0.22947245836257935,-0.0777730718255043,0.014221438206732273,0.041918735951185226,-0.18967145681381226,0.09955258667469025,0.016412265598773956,-0.10755454003810883,-0.17257705330848694,0.05332382768392563,0.12133459746837616,0.03587248548865318,-0.11497965455055237,-0.13721507787704468,-0.09121169149875641,-0.17867209017276764,0.21710051596164703,0.02112259529531002,-0.06295154988765717,-0.08214245736598969,-0.020212819799780846,-0.39382198452949524,-0.18206876516342163,-0.31028035283088684,0.1615433394908905,-0.0025677101220935583,0.19589300453662872],[-0.04745233431458473,0.07296029478311539,-0.007017015479505062,0.27849382162094116,0.08744792640209198,-0.11975199729204178,-0.04399462044239044,0.2567945122718811,0.013019431382417679,0.10672014951705933,-0.16811883449554443,0.07210784405469894,0.03573824465274811,0.1871463805437088,0.034579355269670486,0.028649233281612396,0.04337667301297188,0.22201097011566162,-0.2387550324201584,-0.062478408217430115,-0.006194509100168943,0.016208849847316742,0.0037227694410830736,-0.04080234095454216,-0.2780396342277527,0.18100273609161377,-0.1109505221247673,-0.04143383353948593,0.06768983602523804,0.1665981262922287,0.18918433785438538,-0.14895790815353394,0.11919744312763214,0.02052944153547287,-0.07341885566711426,-0.08223623782396317,0.10956444591283798,-0.07797668129205704,-0.0044116247445344925,0.01228538528084755,0.03608621656894684,0.10387735813856125,-0.01437351480126381,-0.15395355224609375,0.08442693948745728,0.00760240713134408,-0.2544577717781067,0.023282727226614952,0.12013091146945953,-0.1257258802652359,0.11885683238506317,0.11098122596740723,-0.09772904962301254,0.26012617349624634,-0.27239060401916504,0.07776512205600739,0.011368302628397942,-0.1877823770046234,-0.007748156785964966,-0.18333818018436432,-0.2617145776748657,-0.07493996620178223,0.01717899926006794,-0.017129605636000633],[-0.037802040576934814,0.0016553844325244427,-0.16669988632202148,-0.0929819718003273,-0.077992282807827,-0.05905177444219589,0.0680033341050148,-0.04301358759403229,0.018317334353923798,0.044553615152835846,-0.03353225439786911,0.11328186839818954,-0.1398584395647049,-0.040950823575258255,-0.06359858065843582,0.032856352627277374,-0.05602261424064636,-0.08555742353200912,-0.24408015608787537,-0.2824323773384094,-0.05491919070482254,0.0687684714794159,0.12296151369810104,-0.16028949618339539,0.1530468761920929,-0.15647995471954346,0.05410274118185043,0.0015544614288955927,-0.24160535633563995,-0.11592117697000504,0.197374165058136,-0.007291276473551989,-0.13457101583480835,-0.062446996569633484,-0.006253927014768124,-0.010891837999224663,-0.21464411914348602,0.042009830474853516,0.04972492903470993,0.0067052035592496395,-0.13098470866680145,-0.1463194489479065,-0.24379628896713257,-0.23034696280956268,0.00003683521208586171,0.02411649562418461,-0.3337058126926422,0.007935489527881145,-0.22191199660301208,0.042828015983104706,0.2868043780326843,-0.011622761376202106,-0.15278950333595276,-0.3274420499801636,0.10405223816633224,-0.03508204594254494,-0.057192880660295486,-0.26201558113098145,-0.3172815442085266,-0.1648271530866623,0.10251772403717041,-0.02923772670328617,-0.031653404235839844,-0.06904949247837067],[-0.06267710775136948,-0.04706517606973648,0.036684103310108185,-0.034822627902030945,0.23512296378612518,-0.04958077520132065,-0.19230890274047852,-0.35169240832328796,-0.23330989480018616,-0.004584461450576782,-0.06712372601032257,0.045747265219688416,0.04618244245648384,-0.0073361387476325035,-0.15474022924900055,0.16580890119075775,0.014301137067377567,-0.23571166396141052,0.007884767837822437,-0.008796719834208488,-0.1680421382188797,-0.012838926166296005,-0.030874138697981834,0.09778357297182083,-0.07926981896162033,-0.06019153818488121,-0.006108743138611317,0.1682695895433426,-0.10064909607172012,-0.09857647866010666,0.06965839862823486,-0.3102210760116577,0.01762113720178604,0.05179503560066223,0.05754059553146362,0.003807267639786005,-0.2875075340270996,-0.23122771084308624,-0.03856131434440613,-0.028890103101730347,-0.04160139337182045,-0.058431193232536316,-0.13186457753181458,0.1128760278224945,0.006320537067949772,0.08922524005174637,-0.1097172200679779,-0.3447706997394562,-0.23239074647426605,-0.10285255312919617,-0.014202653430402279,0.02539558708667755,0.0931863784790039,-0.1512080878019333,0.018080545589327812,0.004049266222864389,-0.0895274356007576,-0.17262504994869232,0.17106932401657104,-0.02850482240319252,-0.21458880603313446,0.10930024832487106,-0.20326527953147888,-0.12112084031105042],[0.014990375377237797,-0.07964665442705154,0.012932450510561466,-0.028856663033366203,0.009277889505028725,-0.2994374632835388,0.09365565329790115,-0.08518467843532562,-0.19552284479141235,-0.01928485743701458,0.20892591774463654,-0.14996333420276642,-0.06472974270582199,0.07234720885753632,0.09108173102140427,-0.0013639363460242748,-0.0634920597076416,-0.06290004402399063,-0.1233961284160614,-0.1922636479139328,-0.13323602080345154,-0.034712452441453934,-0.006509922444820404,0.09529783576726913,-0.04887040704488754,0.10862308740615845,0.0782114639878273,-0.10325179249048233,0.11401297152042389,0.10997581481933594,0.044823452830314636,-0.07680335640907288,-0.27154263854026794,0.03300415724515915,-0.1382119357585907,0.008029035292565823,-0.1598712056875229,-0.160282164812088,0.06900852173566818,0.17163287103176117,-0.10489163547754288,-0.05639109015464783,-0.13963405787944794,0.1195269227027893,-0.16347567737102509,-0.04899429902434349,-0.16431725025177002,-0.23317553102970123,-0.17416471242904663,-0.03292587399482727,0.029392059892416,-0.05949900299310684,-0.02926076576113701,-0.2712623178958893,-0.08069148659706116,0.08343491703271866,0.12255030870437622,0.14835302531719208,-0.12466592341661453,0.0425385907292366,-0.016620036214590073,-0.047507837414741516,-0.1382988691329956,-0.04711594060063362],[0.030524926260113716,0.10141975432634354,-0.03306538611650467,-0.2929607033729553,-0.22587233781814575,0.15638165175914764,-0.09798398613929749,-0.25252506136894226,0.06128207966685295,-0.04620138183236122,-0.1468178927898407,-0.24574938416481018,0.00802296306937933,0.06380931288003922,-0.14909325540065765,0.15185533463954926,0.009775718674063683,0.1952354609966278,0.037500713020563126,-0.10772889852523804,-0.024357888847589493,-0.09611181914806366,-0.11331076920032501,-0.2490590214729309,0.07332812249660492,0.033379487693309784,-0.08711507171392441,0.02880520187318325,-0.12648704648017883,-0.03452179953455925,-0.1671544760465622,0.08433724194765091,-0.12766888737678528,-0.13208501040935516,-0.07707951962947845,0.03515623137354851,-0.11133021861314774,-0.21526901423931122,0.016776002943515778,-0.09646264463663101,0.2171616107225418,0.16592350602149963,-0.13920475542545319,-0.4215165376663208,-0.19178171455860138,-0.2288760244846344,0.07434307783842087,-0.2827181816101074,-0.05898670479655266,0.11656371504068375,0.06916084885597229,0.05450129508972168,-0.14597187936306,-0.15299910306930542,0.06751243025064468,0.018245453014969826,0.01687614433467388,-0.20757509768009186,-0.37907275557518005,-0.18003767728805542,-0.13509874045848846,0.0770147442817688,0.2141065150499344,0.08486772328615189],[0.16798323392868042,0.04393758252263069,0.1787777543067932,-0.14703252911567688,0.02185245230793953,0.3923865258693695,0.0885147750377655,-0.08099664747714996,-0.06948252022266388,0.26612475514411926,0.2544260323047638,-0.03383868932723999,-0.14157886803150177,0.10589539259672165,0.3806523084640503,0.16791465878486633,-0.032235778868198395,0.09880028665065765,-0.0058349138125777245,0.020657967776060104,0.07575485855340958,0.050077978521585464,0.054454583674669266,0.04596657305955887,-0.0580386146903038,-0.010236401110887527,-0.19825194776058197,-0.03786129504442215,0.15565605461597443,0.06447456777095795,0.11012262105941772,-0.10373768210411072,0.003638752968981862,0.015433275140821934,-0.13478900492191315,-0.10247984528541565,0.10154914855957031,0.19807635247707367,-0.19327481091022491,0.4532981216907501,0.18379393219947815,0.024899927899241447,0.06073736026883125,0.24374565482139587,0.04224178567528725,0.17379160225391388,0.16017656028270721,-0.004054083954542875,0.1586950421333313,0.17798365652561188,-0.11334013938903809,0.13086119294166565,0.20922404527664185,0.4732205867767334,0.005400185007601976,0.16123688220977783,0.06397182494401932,0.17200914025306702,0.3942798674106598,0.2382868379354477,0.008631793782114983,0.1815062165260315,0.03485981374979019,0.10618755221366882],[-0.04936244711279869,-0.09239277988672256,-0.18584203720092773,-0.1729997992515564,0.11909719556570053,-0.09240489453077316,-0.119570292532444,-0.036601074039936066,-0.0051267994567751884,-0.2851567566394806,-0.054215721786022186,0.09686041623353958,0.0642530620098114,-0.06377198547124863,-0.23061423003673553,0.16410377621650696,0.19805607199668884,-0.1671912521123886,-0.06630828976631165,0.12123389542102814,-0.25591903924942017,0.02552025392651558,0.018274281173944473,-0.008772335015237331,0.16370804607868195,-0.08643530309200287,0.039307527244091034,0.04251943156123161,-0.10766652971506119,-0.19441841542720795,-0.115738146007061,0.23268282413482666,-0.08107408136129379,0.26294365525245667,0.058604005724191666,0.07425720244646072,-0.21946550905704498,-0.03823579102754593,0.011809743009507656,-0.1428837925195694,-0.050459593534469604,-0.15135599672794342,-0.16153304278850555,0.01360731665045023,-0.058681849390268326,-0.09212613105773926,0.0754380077123642,-0.13382208347320557,-0.16425137221813202,-0.029452446848154068,-0.15729336440563202,-0.0081179803237319,-0.11833779513835907,-0.18780656158924103,-0.16828769445419312,-0.21684274077415466,0.15442508459091187,-0.11017844080924988,-0.06553280353546143,0.019551360979676247,0.11652262508869171,-0.01951712742447853,0.03410332649946213,0.08744928985834122],[-0.0010896011954173446,-0.21193332970142365,0.1451864242553711,0.0672607272863388,-0.2812196910381317,-0.1718592345714569,-0.25160646438598633,0.07533590495586395,0.17843680083751678,0.025950374081730843,0.03322741389274597,-0.15700243413448334,-0.07863195985555649,0.05023800581693649,-0.04063032567501068,0.1438312530517578,-0.13844263553619385,0.10154218226671219,-0.3180737793445587,-0.19258323311805725,0.13124726712703705,0.2576521933078766,0.03665197268128395,-0.0492728091776371,-0.08056886494159698,0.1160203069448471,-0.18343225121498108,0.08132772147655487,0.19090336561203003,-0.13535606861114502,-0.12118801474571228,0.024607473984360695,0.07231765240430832,0.01213175430893898,-0.05822669714689255,-0.15843026340007782,-0.03716026619076729,-0.21413813531398773,0.03605222702026367,0.1263781487941742,0.2647703289985657,-0.06437192112207413,0.12552319467067719,-0.07544448226690292,-0.33393630385398865,-0.07444535195827484,0.15495705604553223,-0.20309294760227203,0.1430688351392746,-0.058512959629297256,0.1449490785598755,0.01056575682014227,0.19151809811592102,-0.22899402678012848,0.09670032560825348,0.020327873528003693,-0.042632244527339935,0.038745325058698654,0.1324622929096222,0.08604902029037476,-0.16944046318531036,-0.2865050137042999,0.014270343817770481,0.03685612976551056],[-0.17292706668376923,0.11561737209558487,-0.06642405688762665,-0.04605511575937271,0.07033021748065948,-0.1291259080171585,-0.17031417787075043,-0.10860279202461243,0.09468135982751846,0.1373085379600525,-0.014693996869027615,-0.2974977195262909,-0.25311726331710815,0.19668352603912354,0.3405340015888214,-0.04169632866978645,-0.11927812546491623,-0.01586306095123291,-0.18738485872745514,-0.11787459999322891,-0.11232148855924606,-0.032668597996234894,-0.07685485482215881,0.22056204080581665,-0.001001705415546894,-0.08914964646100998,0.0900515466928482,-0.11171809583902359,0.01972265914082527,0.26175442337989807,-0.27455970644950867,0.022870708256959915,-0.07209806889295578,0.12795652449131012,0.13514494895935059,-0.13715507090091705,-0.18698827922344208,-0.29618555307388306,0.14239874482154846,0.1268792450428009,-0.18506862223148346,-0.012325409799814224,-0.06586500257253647,-0.22245022654533386,-0.01917857676744461,0.31821319460868835,0.0992828831076622,0.10888241976499557,0.015036174096167088,0.18652716279029846,-0.043135784566402435,-0.21302258968353271,-0.010017731226980686,-0.0021295789629220963,-0.07745054364204407,-0.23604927957057953,-0.10580179840326309,0.09952186793088913,0.11253994703292847,0.02676950767636299,0.1647994965314865,-0.1631801575422287,-0.004390492103993893,-0.11048169434070587],[-0.01378993783146143,0.09124857932329178,-0.20460738241672516,-0.11750791221857071,-0.047237321734428406,-0.013546139001846313,0.2564949691295624,-0.10898241400718689,-0.09573011100292206,0.10151233524084091,0.2563559412956238,-0.09962953627109528,-0.2045787274837494,-0.005749514792114496,0.14735156297683716,-0.02036316506564617,-0.03340679034590721,0.10818767547607422,0.08712052553892136,-0.26171159744262695,-0.09794463217258453,0.0046844775788486,0.02075103111565113,-0.1993812620639801,0.05733984708786011,-0.15052343904972076,0.058788273483514786,-0.021281035616993904,-0.07619994133710861,-0.060610800981521606,-0.17982500791549683,0.06375082582235336,-0.023810923099517822,-0.022255364805459976,-0.10742916166782379,0.08011315762996674,0.009565087966620922,0.019982393831014633,0.03625040501356125,-0.13369877636432648,-0.050298940390348434,0.14219847321510315,0.2698667049407959,0.19431710243225098,-0.11010314524173737,-0.32897070050239563,-0.07095175981521606,-0.08526182174682617,0.1757950633764267,0.1740395724773407,0.12826822698116302,0.0219759289175272,-0.0813150703907013,0.1588802933692932,0.03409894183278084,-0.1914706528186798,0.03265155106782913,0.009478827938437462,-0.05152079835534096,0.0037524753715842962,-0.1499508023262024,-0.05370515212416649,0.03507761284708977,0.14552320539951324],[0.01584826409816742,-0.052039843052625656,0.0586283802986145,-0.009502223692834377,0.11481624841690063,0.1227836161851883,-0.2609379291534424,-0.020315494388341904,0.0879218727350235,0.2386988252401352,-0.008952879346907139,-0.04510892555117607,-0.10839652270078659,-0.123654805123806,0.032271333038806915,0.1493876874446869,0.07622687518596649,-0.09798917919397354,0.25639450550079346,0.06441760808229446,-0.044199828058481216,0.1527162343263626,-0.24033178389072418,-0.039312634617090225,-0.12228462845087051,0.07753091305494308,0.07236038148403168,0.22408178448677063,-0.046304959803819656,-0.10397695004940033,-0.005530876107513905,-0.06326252967119217,0.19905325770378113,0.05054460093379021,0.08035262674093246,0.03861925005912781,0.0225920882076025,0.21597503125667572,-0.13174574077129364,0.10404926538467407,0.2207101285457611,-0.1719394326210022,0.1989574283361435,0.2188326120376587,0.01362266018986702,0.09414380043745041,0.06545848399400711,-0.21095795929431915,0.02540101297199726,-0.028188297525048256,0.05236668884754181,0.047493938356637955,-0.2392646223306656,0.0005503137363120914,-0.07258087396621704,-0.03795793280005455,0.11231330782175064,0.01141892559826374,-0.09672683477401733,-0.03730303421616554,-0.10265247523784637,0.20496045053005219,0.21825292706489563,0.023387139663100243],[-0.15422303974628448,-0.18054787814617157,-0.064193494617939,0.0657133236527443,0.07101225107908249,-0.004663406405597925,-0.20307879149913788,0.1020931750535965,0.0006163586513139307,-0.1310362070798874,0.10682640224695206,0.03819921240210533,-0.3045460283756256,-0.08361276984214783,-0.13774341344833374,-0.014950104989111423,0.18306709825992584,-0.32969987392425537,0.12369944155216217,0.00930662453174591,0.14395098388195038,0.08833038806915283,0.07503710687160492,0.14473974704742432,0.037000756710767746,0.10765165090560913,-0.12167605757713318,0.06925307959318161,0.11901509761810303,0.3668738305568695,0.15985848009586334,-0.01856578141450882,-0.329387903213501,0.1355920284986496,0.09626544266939163,-0.14622081816196442,0.059021830558776855,-0.37630796432495117,-0.0494869127869606,-0.1262720227241516,0.17343465983867645,-0.07031144201755524,0.1391812562942505,0.05969114229083061,-0.08300171047449112,-0.20529510080814362,0.10359618812799454,-0.13135042786598206,0.20225846767425537,-0.0729437917470932,-0.14241677522659302,-0.1399775743484497,-0.09605161100625992,-0.16037818789482117,-0.16663451492786407,-0.16328513622283936,-0.14135965704917908,-0.14351922273635864,0.08373434096574783,-0.28533872961997986,0.1319185495376587,-0.00914092268794775,0.1407388299703598,0.01969018578529358],[0.0012375330552458763,0.02813836559653282,0.0574856698513031,0.014236525632441044,-0.14178089797496796,-0.17398756742477417,-0.03465406224131584,-0.18898873031139374,0.16709177196025848,-0.06161946803331375,-0.12066518515348434,-0.05777506157755852,-0.026432380080223083,-0.317081093788147,-0.0726308599114418,-0.11394599825143814,-0.09223747253417969,-0.3025793135166168,-0.04268315061926842,-0.1740427017211914,0.037189025431871414,0.06719160079956055,0.02842959575355053,-0.023612765595316887,-0.26891180872917175,0.06790270656347275,-0.1826191246509552,0.07377588748931885,-0.12319411337375641,-0.009645870886743069,0.03609825670719147,0.11054173856973648,-0.007357652764767408,-0.005366004537791014,-0.07247521728277206,0.02119232527911663,-0.028132645413279533,-0.027856746688485146,-0.19132877886295319,0.10560353100299835,-0.15704189240932465,-0.07984213531017303,-0.07783196121454239,0.04310138523578644,-0.10862351953983307,0.1625235676765442,-0.025156468152999878,0.03409788757562637,-0.009216979146003723,-0.11622350662946701,0.12599952518939972,-0.19163480401039124,-0.04725416377186775,-0.11989380419254303,0.04292610287666321,-0.12277689576148987,0.1130945011973381,0.2483571171760559,0.11137036234140396,-0.015855573117733,0.042449843138456345,0.3192317485809326,-0.2145940661430359,-0.37902119755744934],[-0.12023554742336273,-0.14832089841365814,0.0803603082895279,-0.03380455821752548,-0.08738734573125839,-0.082869753241539,0.047005701810121536,-0.13754022121429443,-0.0767895057797432,0.16625940799713135,0.058528270572423935,-0.05181880667805672,-0.04044092446565628,-0.023157045245170593,-0.022691084071993828,-0.040101341903209686,-0.004422410856932402,0.04824328422546387,0.045994874089956284,0.12369993329048157,0.1455075889825821,0.07137516885995865,-0.22992712259292603,0.10775478184223175,0.20222049951553345,-0.060473136603832245,-0.02306566759943962,0.30737441778182983,-0.2360408753156662,-0.0597204752266407,0.05527878552675247,0.0240766778588295,-0.19015158712863922,0.048895493149757385,-0.014802051708102226,-0.01686885766685009,-0.027539599686861038,0.06442539393901825,0.1652536690235138,-0.2766925096511841,-0.042565640062093735,-0.3376224637031555,0.011061792261898518,0.02504480443894863,0.10045428574085236,-0.283507764339447,0.11095866560935974,0.033840592950582504,0.11005028337240219,-0.08854763209819794,0.1562703549861908,-0.04042654111981392,0.16321688890457153,-0.1691674143075943,-0.04825714975595474,-0.10244475305080414,0.08921729028224945,-0.16449710726737976,0.1136079728603363,0.12687072157859802,-0.14680062234401703,-0.05313651263713837,-0.045114606618881226,-0.02205882966518402],[0.03226495534181595,0.07297831773757935,0.12020605802536011,0.136149600148201,0.10761979967355728,-0.13298512995243073,-0.13383600115776062,0.12858104705810547,-0.08380930870771408,-0.17052914202213287,0.14469675719738007,-0.17028604447841644,0.18425847589969635,0.07494565844535828,-0.09202214330434799,0.11442050337791443,-0.10675355792045593,-0.06499196588993073,-0.13403081893920898,-0.07867920398712158,-0.20660649240016937,-0.20504188537597656,-0.23388569056987762,-0.07677815109491348,0.08121275156736374,-0.031218254938721657,0.11488372087478638,-0.05749903619289398,0.2217286378145218,-0.19077672064304352,0.09088345617055893,0.045776329934597015,0.07288681715726852,-0.08130230754613876,-0.09579792618751526,0.046020008623600006,-0.27183273434638977,-0.2466677576303482,0.3757438659667969,0.1774761974811554,0.2777624726295471,-0.13184881210327148,-0.14537228643894196,-0.23461562395095825,-0.20392927527427673,-0.20019520819187164,-0.035996194928884506,-0.14267146587371826,-0.05438954383134842,0.09777279198169708,-0.04704711586236954,0.13193279504776,-0.08405181765556335,-0.3266068398952484,0.07665576040744781,0.08030302077531815,-0.1529441773891449,-0.07375522702932358,-0.1225418671965599,-0.11960721015930176,0.013212917372584343,-0.06839262694120407,0.07143708318471909,0.0175359807908535],[-0.07161970436573029,-0.03868969902396202,0.09410887956619263,0.1859496831893921,0.12546314299106598,0.12991484999656677,-0.055970918387174606,-0.0006846914766356349,0.044426869601011276,0.06602109223604202,0.10880839079618454,0.1590418666601181,0.16270677745342255,0.019386393949389458,-0.13140060007572174,-0.18657231330871582,0.21655386686325073,0.10751800984144211,-0.02412637509405613,0.10398916155099869,-0.03144622594118118,-0.1370551735162735,-0.05555901676416397,0.18119317293167114,-0.16976290941238403,-0.12424305826425552,-0.10015730559825897,-0.12358108162879944,0.12418545037508011,-0.0020202172454446554,-0.16838334500789642,-0.1118902638554573,0.08668863773345947,-0.04704665020108223,-0.00926116481423378,0.14114990830421448,0.010103343985974789,0.13451124727725983,0.10641153156757355,0.0028276490047574043,0.08616970479488373,-0.14255380630493164,0.05766618251800537,-0.014295954257249832,-0.10734263062477112,-0.19955185055732727,-0.03814181312918663,-0.1716429740190506,0.1898283064365387,-0.05001843348145485,-0.1253584623336792,-0.19502843916416168,-0.11480863392353058,-0.31569164991378784,0.039426859468221664,0.11494983732700348,-0.22470928728580475,-0.15769393742084503,-0.34960269927978516,0.1633838713169098,0.012912090867757797,-0.19105970859527588,0.09370751678943634,0.17857001721858978],[0.2364998608827591,-0.08427654951810837,-0.0376693494617939,-0.0821729302406311,0.18099889159202576,-0.27763161063194275,-0.09155961871147156,0.010569717735052109,-0.15537545084953308,-0.03108890913426876,-0.151327446103096,0.20136608183383942,-0.15019866824150085,0.21433646976947784,0.027769578620791435,-0.10544274002313614,0.08881890028715134,-0.04352385923266411,-0.10802094638347626,-0.12117555737495422,-0.14766179025173187,0.030218245461583138,-0.13777366280555725,0.15608364343643188,0.05541437491774559,0.0826687142252922,-0.00026080786483362317,-0.1359797567129135,0.13382484018802643,0.053418975323438644,0.173483744263649,0.022864971309900284,-0.16728997230529785,-0.27468860149383545,0.007145409472286701,-0.15987007319927216,0.08506625145673752,-0.1581272929906845,-0.11823639273643494,-0.08164545893669128,-0.15345510840415955,0.11450018733739853,-0.276361346244812,0.07039929181337357,0.052207957953214645,-0.023400848731398582,0.054843589663505554,-0.05534564331173897,-0.12839026749134064,0.14078889787197113,0.07738989591598511,-0.0011735794832929969,-0.14901193976402283,0.10977166891098022,0.018757248297333717,-0.13951177895069122,-0.02576524391770363,-0.025418821722269058,0.030506165698170662,-0.11776897311210632,0.07047438621520996,-0.15980695188045502,0.11773000657558441,-0.09682472050189972],[0.03402798995375633,-0.14346520602703094,-0.13541701436042786,-0.03869566321372986,0.009324588812887669,-0.014328819699585438,-0.3054262697696686,0.19304701685905457,-0.07279007136821747,0.1594533771276474,0.12482339888811111,-0.08146170526742935,-0.1260983794927597,0.002798139350488782,-0.19068866968154907,0.07303149253129959,0.01579025387763977,-0.1828256994485855,0.07937651872634888,0.1710977405309677,0.07815071195363998,-0.07582502067089081,-0.06601087003946304,0.0759408250451088,-0.1774313598871231,0.15006759762763977,0.321441650390625,0.03397431597113609,-0.03345135226845741,-0.11278413981199265,-0.16211546957492828,-0.11046142876148224,0.12005799263715744,0.03746657446026802,-0.08745720982551575,0.030114389955997467,0.015510356985032558,-0.10399526357650757,-0.03281792998313904,0.03225333243608475,0.023632394149899483,0.017065493389964104,0.019791562110185623,-0.18238994479179382,-0.06313358247280121,-0.0632719174027443,0.008714678697288036,0.08869247138500214,-0.17659011483192444,-0.10404964536428452,-0.030167795717716217,-0.09437493234872818,0.06786996871232986,0.14157027006149292,-0.016019724309444427,0.038437750190496445,-0.1732315570116043,0.13067156076431274,-0.05646424740552902,-0.2099103033542633,-0.007486010901629925,-0.1237163320183754,0.021989690139889717,0.09462550282478333],[-0.14758573472499847,-0.12343540787696838,0.008952896110713482,0.04090995341539383,-0.025906017050147057,0.10420829802751541,-0.024596109986305237,-0.08851980417966843,0.08318625390529633,0.04007088020443916,-0.2219976931810379,-0.06555823981761932,0.17997688055038452,-0.31312692165374756,0.10838914662599564,0.051788330078125,0.11507254093885422,-0.08022168278694153,-0.11142222583293915,-0.1505580097436905,0.06025247648358345,-0.15261918306350708,-0.03495639190077782,-0.15477889776229858,-0.05418694019317627,-0.30872002243995667,-0.07169390469789505,0.06670801341533661,0.02651619166135788,-0.10619798302650452,0.01046678051352501,-0.05260257422924042,-0.1176571175456047,-0.2140355259180069,-0.18888193368911743,-0.1404830515384674,-0.019639145582914352,0.23862451314926147,-0.3182638883590698,-0.09811030328273773,-0.06372066587209702,-0.010887250304222107,-0.15011152625083923,-0.17674730718135834,-0.04596089571714401,0.1053096279501915,-0.15387175977230072,0.04255789518356323,-0.02075006440281868,-0.043091632425785065,-0.06134098395705223,-0.0077950116246938705,0.03274493291974068,-0.0034908978268504143,-0.16159604489803314,0.0792035236954689,-0.020509246736764908,-0.10055793821811676,-0.26948082447052,-0.179843470454216,-0.1192299872636795,0.0023021544329822063,-0.177852600812912,-0.20513851940631866],[0.00227393489331007,0.050173863768577576,0.2646065354347229,-0.19879308342933655,0.0564928837120533,0.34241825342178345,-0.009470467455685139,0.17005881667137146,0.05293765664100647,-0.08623906970024109,0.0030042121652513742,0.056536637246608734,-0.21913142502307892,-0.006429692730307579,0.31868964433670044,0.21289169788360596,0.07165154814720154,0.05991602689027786,0.04511740431189537,0.19744934141635895,-0.012190381065011024,0.0694693773984909,0.047608572989702225,-0.14470991492271423,0.06100878864526749,-0.15708687901496887,0.14019523561000824,0.20378971099853516,-0.005801831837743521,0.012176258489489555,-0.06657437235116959,-0.14432267844676971,-0.13679228723049164,0.06111912429332733,0.012815610505640507,0.15219125151634216,-0.13944092392921448,0.1900455206632614,0.1616332232952118,0.21009932458400726,-0.17644041776657104,0.1733950674533844,-0.30669474601745605,-0.027046531438827515,0.07720296084880829,-0.17235347628593445,-0.187440887093544,-0.011531203985214233,0.2661340832710266,-0.031322136521339417,0.19279566407203674,0.04838194325566292,0.12569211423397064,-0.0056213210336863995,-0.18103145062923431,-0.034289874136447906,0.1546391248703003,-0.11166442185640335,0.1233915388584137,-0.14193055033683777,-0.1392502784729004,-0.013930220156908035,-0.20742633938789368,0.1544499397277832],[0.10185346007347107,0.02144446410238743,0.018490087240934372,-0.05614468455314636,0.0596005953848362,-0.06905757635831833,-0.1126178428530693,-0.04393966495990753,0.07994048297405243,-0.00929904542863369,0.0632624700665474,-0.0897141769528389,-0.08369646966457367,-0.27591779828071594,-0.23259128630161285,-0.16528815031051636,-0.09564493596553802,-0.16019822657108307,0.0583258755505085,0.06576244533061981,-0.02954232320189476,0.07303834706544876,0.16655586659908295,-0.01406251359730959,-0.20519964396953583,0.26452261209487915,-0.2957416772842407,0.25077909231185913,-0.05655541270971298,0.08162698149681091,-0.047441575676202774,-0.000020652825696743093,-0.03171391412615776,0.09484241157770157,0.06778206676244736,0.0676300972700119,-0.048871517181396484,-0.018390296027064323,-0.23536676168441772,-0.18225881457328796,-0.11723197251558304,-0.06215321645140648,0.06733354926109314,0.01290209125727415,0.00586393428966403,0.03936191275715828,-0.13692229986190796,0.1361859291791916,-0.3679827153682709,-0.030189018696546555,-0.14280231297016144,-0.21248701214790344,-0.029095785692334175,-0.34873485565185547,-0.18617147207260132,0.012821965850889683,-0.009080838412046432,-0.05874060094356537,-0.0234941728413105,0.047776538878679276,0.1472061276435852,0.10661233216524124,0.10467761754989624,0.09053990244865417],[0.19680409133434296,-0.10346852988004684,0.004278579726815224,-0.20126783847808838,-0.1504414975643158,-0.10650292038917542,-0.028295906260609627,0.08543567359447479,0.00004782647010870278,-0.08130297064781189,-0.011205479502677917,0.08611658215522766,0.014839309267699718,-0.16270816326141357,-0.06662968546152115,0.10027517378330231,0.09170016646385193,-0.19455619156360626,-0.3755120635032654,-0.09574386477470398,0.06056433916091919,0.38079363107681274,0.05812884494662285,0.07319780439138412,0.16837915778160095,-0.10513202846050262,-0.14234842360019684,0.08056730777025223,-0.05155983567237854,0.016464896500110626,0.12225853651762009,0.22987030446529388,0.1531088501214981,-0.06147925183176994,0.13707926869392395,0.1098075807094574,-0.02975120209157467,-0.12558451294898987,-0.09307838976383209,0.13903334736824036,-0.07081805169582367,0.17341947555541992,-0.2134169042110443,-0.027040371671319008,0.05369408428668976,0.18444451689720154,-0.0784209594130516,0.06787529587745667,0.1298416703939438,-0.01534052100032568,-0.09790855646133423,-0.13502109050750732,0.05638890340924263,-0.1607198566198349,0.04247409477829933,-0.18505486845970154,-0.013961688615381718,-0.007956745103001595,-0.01589370332658291,0.19036854803562164,0.06893153488636017,-0.08188118040561676,-0.0265154130756855,0.02840922586619854],[0.19078068435192108,0.11903894692659378,-0.050908979028463364,-0.10364759713411331,0.05676180496811867,-0.3000136613845825,0.073604054749012,0.017686007544398308,0.1805732548236847,0.05237771198153496,-0.07277684658765793,0.020917218178510666,-0.04727087914943695,-0.004570912104099989,0.002551425714045763,0.10808257758617401,0.0755574107170105,0.047588564455509186,0.12024857848882675,-0.008091711439192295,-0.034403715282678604,0.1694134920835495,0.13569147884845734,-0.1482013612985611,-0.002212841995060444,0.06397797912359238,-0.10598065704107285,-0.10544879734516144,-0.06375548243522644,0.13708052039146423,-0.15834559500217438,-0.07515567541122437,0.1887209564447403,-0.10988360643386841,0.05149546638131142,-0.04369394853711128,-0.026926031336188316,-0.1470048874616623,-0.10716502368450165,0.11180632561445236,0.2514757812023163,-0.052031587809324265,0.0642416924238205,0.11039776355028152,-0.19461728632450104,0.0902705043554306,-0.11050420999526978,-0.10787295550107956,0.07973577082157135,0.008958078920841217,-0.11523199826478958,-0.018825484439730644,-0.014435549266636372,0.04947466775774956,-0.16735118627548218,-0.17391012609004974,-0.07140795886516571,0.07587114721536636,0.02334856055676937,0.12832562625408173,0.05654333904385567,-0.11507313698530197,0.06096076965332031,0.06053102761507034],[-0.18049533665180206,0.06361570209264755,0.14060182869434357,-0.1997869312763214,0.09633980691432953,-0.27427685260772705,-0.0618269108235836,-0.14855611324310303,0.17074862122535706,-0.08293846994638443,0.10410638898611069,-0.2644297480583191,-0.03344444930553436,-0.0558028481900692,-0.008803194388747215,-0.08257866650819778,0.0085081672295928,0.07282119244337082,-0.009087025187909603,0.014985552988946438,-0.025591354817152023,-0.10818947106599808,-0.17226821184158325,-0.06409549713134766,-0.139242485165596,0.02081543207168579,0.019765811040997505,0.08436117321252823,0.09677183628082275,-0.03125085309147835,0.05979059264063835,-0.2591056823730469,-0.07274883985519409,-0.20173756778240204,-0.08580493181943893,0.04533868655562401,0.11465924233198166,-0.12969209253787994,0.052761733531951904,0.04302775487303734,-0.03404330089688301,-0.07331520318984985,-0.13738150894641876,-0.0016199816018342972,-0.04113445803523064,0.036477018147706985,-0.042341336607933044,0.015073544345796108,-0.1475096046924591,-0.2650891840457916,-0.2637081742286682,-0.1012602373957634,-0.07434088736772537,-0.05814208462834358,0.2010556012392044,-0.010606521740555763,-0.17511104047298431,-0.09122449904680252,-0.2128244787454605,0.1650121510028839,-0.11794694513082504,-0.2669930160045624,-0.024348463863134384,-0.10442321002483368],[-0.043445490300655365,0.024436132982373238,-0.07351263612508774,-0.0405832901597023,-0.11901270598173141,-0.13557566702365875,-0.1583368331193924,0.10336298495531082,-0.21586312353610992,0.04932403936982155,0.15427923202514648,-0.13895826041698456,-0.11003334075212479,0.0002575079270172864,-0.024658044800162315,0.17063376307487488,-0.001852154266089201,0.16148872673511505,0.10456870496273041,-0.0155504634603858,-0.17205943167209625,0.1264338493347168,-0.02804279327392578,-0.026540139690041542,-0.09030214697122574,0.01048608124256134,-0.0881536528468132,0.17664925754070282,0.03671610727906227,-0.07282182574272156,-0.15534143149852753,0.3559587895870209,-0.034400731325149536,-0.07052839547395706,0.10364740341901779,-0.38624876737594604,-0.3262018859386444,-0.07799190282821655,-0.029578298330307007,-0.0631224513053894,-0.11464168131351471,-0.2951512038707733,-0.22783607244491577,0.07748588174581528,-0.16163967549800873,-0.07227138429880142,-0.3592489957809448,-0.1269942671060562,-0.07819826900959015,0.178115114569664,-0.19819624722003937,-0.06203330680727959,-0.11336804181337357,-0.063994400203228,-0.0752975344657898,-0.11136896163225174,-0.04152539372444153,0.2839907705783844,-0.15702597796916962,-0.19381405413150787,-0.09796089679002762,0.006353955715894699,-0.033057551831007004,-0.13810020685195923],[-0.09347755461931229,-0.04429953917860985,-0.07979712635278702,0.17899589240550995,-0.15375931560993195,-0.04620349779725075,-0.10439997166395187,-0.24553975462913513,0.1520732343196869,0.07276182621717453,-0.12009236961603165,0.24293756484985352,0.11627528071403503,-0.08291690796613693,0.16607064008712769,-0.12180064618587494,0.00822239089757204,0.0609285831451416,0.010002427734434605,0.11506414413452148,-0.3399253785610199,0.26259997487068176,0.025882123038172722,0.009229128248989582,0.2558946907520294,0.12121091037988663,0.02124241553246975,0.07166972011327744,0.07550966739654541,-0.05901029706001282,0.059558626264333725,0.09342813491821289,-0.040583621710538864,0.14183659851551056,-0.01874353364109993,-0.05402839183807373,-0.15273751318454742,0.15313518047332764,-0.2263972908258438,0.0731237381696701,0.005785156972706318,0.15672288835048676,-0.2052110880613327,0.279506117105484,0.04098629951477051,-0.1463889479637146,-0.29937744140625,0.2106306403875351,-0.16771484911441803,0.04328075796365738,-0.04878517612814903,0.009642230346798897,-0.11753422766923904,-0.033466968685388565,-0.24240271747112274,-0.07807501405477524,-0.16099141538143158,-0.014835463836789131,0.15723669528961182,-0.09930186718702316,0.10416196286678314,-0.27307283878326416,0.1614440232515335,-0.11079267412424088],[0.14774975180625916,-0.11509531736373901,0.08085794001817703,0.1499602049589157,-0.05008789524435997,0.32010042667388916,0.3868134915828705,0.28272294998168945,-0.10599838197231293,-0.2406201958656311,0.05359107255935669,0.04498732462525368,0.252411425113678,0.10676702857017517,0.28745144605636597,0.01546104159206152,0.007851721718907356,0.21032355725765228,-0.04014136269688606,-0.06563705205917358,-0.04351390153169632,0.05992855504155159,-0.23159314692020416,0.28838855028152466,0.023515772074460983,0.0005454791244119406,-0.1370345950126648,-0.06483390927314758,0.058206796646118164,0.10924022644758224,0.08097332715988159,0.007735142018646002,0.020453305914998055,0.05692959949374199,0.10402903705835342,-0.01786898262798786,0.05347525700926781,0.39994728565216064,-0.038277413696050644,0.23556432127952576,0.13995248079299927,0.3038962185382843,0.17967912554740906,0.16122397780418396,0.19947046041488647,0.06944211572408676,0.21087011694908142,0.05859475955367088,-0.049315549433231354,-0.019170358777046204,0.05505342781543732,0.09814672917127609,-0.2520485520362854,0.2749280631542206,0.13029830157756805,-0.2154841423034668,-0.16829505562782288,0.1214720830321312,-0.19595719873905182,0.031223610043525696,0.08908993005752563,0.1469070315361023,-0.08956347405910492,0.06480126082897186],[-0.07871133089065552,0.12202118337154388,-0.05979864299297333,0.018432825803756714,0.15386883914470673,-0.20862159132957458,0.06330470740795135,0.20376482605934143,-0.09630314260721207,0.029061000794172287,-0.14289109408855438,-0.194740891456604,-0.24177980422973633,0.18426591157913208,-0.04794079065322876,0.16523754596710205,-0.016746921464800835,-0.13878411054611206,-0.14527413249015808,-0.12640811502933502,-0.15395861864089966,-0.13540086150169373,-0.2182946503162384,-0.038125667721033096,-0.0680108368396759,-0.2108156830072403,-0.044539567083120346,-0.10218415409326553,0.0021096505224704742,-0.1428130567073822,0.1309339553117752,-0.14827300608158112,0.04930352047085762,0.05621586740016937,-0.0821581780910492,0.07204464823007584,-0.023053383454680443,-0.2964286208152771,0.27371183037757874,-0.09169228374958038,-0.23892392218112946,-0.02454259805381298,-0.009089105762541294,-0.05427492782473564,-0.21646343171596527,0.03482276201248169,-0.2004767507314682,0.03931422904133797,0.14621974527835846,-0.1494457721710205,-0.1679549515247345,0.06075282767415047,-0.052811864763498306,-0.10064313560724258,0.23293626308441162,-0.11187808215618134,-0.04642762616276741,-0.11034530401229858,0.13752800226211548,0.035099856555461884,0.11014578491449356,0.21783679723739624,0.2139875441789627,-0.040344107896089554],[-0.009563250467181206,-0.05745217949151993,-0.023296108469367027,-0.21878637373447418,-0.03846687078475952,0.12948539853096008,0.28535816073417664,-0.0876937210559845,-0.0027691705618053675,0.09614847600460052,-0.07470135390758514,-0.15132738649845123,0.029077470302581787,0.2576395273208618,-0.24743755161762238,-0.07881533354520798,-0.08317042887210846,0.1940383017063141,0.43718117475509644,0.09828449040651321,0.032300401479005814,-0.21602565050125122,-0.037707582116127014,0.17515328526496887,0.04918592795729637,-0.17574362456798553,0.14514964818954468,-0.15077100694179535,-0.14399376511573792,-0.009962042793631554,0.021516302600502968,0.10180594772100449,0.11569801717996597,0.1616136133670807,0.05180930718779564,0.012693666853010654,-0.07850407809019089,0.09353697299957275,0.17868679761886597,0.2438695877790451,-0.021704252809286118,0.16172613203525543,0.017349686473608017,-0.3051898181438446,0.2175760418176651,0.19248729944229126,-0.027309957891702652,-0.020414743572473526,0.1047263890504837,0.054552994668483734,-0.11193658411502838,0.0011111708590760827,0.03225814923644066,-0.1059064045548439,0.11153695732355118,0.159189373254776,0.029993947595357895,-0.006189416628330946,-0.09366746246814728,-0.06334874033927917,-0.0017792610451579094,0.01979226805269718,0.05509264022111893,-0.05501340702176094],[-0.11094995588064194,-0.2615160346031189,0.022165019065141678,-0.2315647006034851,-0.02791309729218483,-0.040226928889751434,-0.150176540017128,0.1975337117910385,0.0074220928363502026,-0.04544132202863693,-0.0034968736581504345,-0.2224724143743515,-0.15292806923389435,-0.21489572525024414,0.18867015838623047,-0.051484569907188416,0.02625477872788906,0.06131140887737274,-0.20379024744033813,0.04801151156425476,-0.2847766876220703,0.1073378250002861,-0.0689714327454567,-0.06947645545005798,-0.21185164153575897,-0.1780594140291214,-0.07132843136787415,-0.033989883959293365,0.014153414405882359,-0.09957295656204224,0.10802048444747925,-0.2501055598258972,-0.19258514046669006,0.02705112285912037,-0.0916522964835167,0.12394571304321289,0.043705716729164124,0.1804530918598175,0.10888642817735672,0.20753683149814606,-0.009283624589443207,-0.16887910664081573,0.023849761113524437,-0.028636693954467773,-0.22913043200969696,-0.028462989255785942,-0.08202171325683594,-0.023597784340381622,0.002733862493187189,0.20185422897338867,-0.18625637888908386,-0.10684841871261597,0.012063149362802505,0.29189541935920715,0.10081078112125397,-0.0710037350654602,-0.26938679814338684,-0.22303594648838043,0.2010953426361084,-0.16285336017608643,-0.342187762260437,0.07995065301656723,0.15992635488510132,-0.16005271673202515],[-0.00571565143764019,0.0682157650589943,0.0019372053211554885,-0.17211072146892548,0.022025754675269127,-0.04990662261843681,-0.002501619514077902,0.0008722958737052977,0.11287461966276169,-0.04815597087144852,-0.025930039584636688,0.023924125358462334,-0.18392880260944366,0.06160532683134079,0.20573750138282776,0.012066822499036789,0.08545713871717453,0.13657599687576294,-0.11955510079860687,-0.07655928283929825,-0.13647916913032532,0.06611450761556625,-0.24312584102153778,-0.08259766548871994,0.11674193292856216,-0.05464042350649834,0.1282874345779419,-0.12693224847316742,0.22421994805335999,-0.07100019603967667,-0.14399249851703644,0.09375951439142227,-0.23549674451351166,0.1100548654794693,0.05828056111931801,-0.0703907310962677,-0.2663293778896332,0.18642359972000122,-0.05742717906832695,-0.11807169020175934,0.12941357493400574,0.3546348810195923,-0.030700303614139557,0.05131659656763077,0.08559753745794296,0.10935860127210617,0.20063458383083344,-0.302347332239151,-0.1036117747426033,-0.07626141607761383,0.07576436549425125,-0.028694329783320427,0.08738289773464203,0.10983658581972122,0.10829583555459976,0.0043315705843269825,-0.05134641379117966,0.19392932951450348,-0.07898736745119095,-0.2293245494365692,-0.14594751596450806,0.10489058494567871,0.23049019277095795,0.12147657573223114],[0.16065727174282074,-0.00005650113962474279,-0.0954473540186882,-0.19610051810741425,-0.0015531834214925766,-0.0876118540763855,0.059442900121212006,0.12599684298038483,0.24968333542346954,-0.10050173848867416,0.26195070147514343,0.12837554514408112,0.005168921314179897,0.08692946285009384,0.297413170337677,-0.06826484948396683,0.11725513637065887,0.007142823189496994,0.06921802461147308,-0.035433080047369,-0.148404061794281,0.10398920625448227,0.05111858993768692,0.06241104006767273,-0.18411533534526825,0.0480002723634243,-0.14820414781570435,-0.03964132070541382,0.05563204735517502,-0.1049722209572792,0.2404046207666397,0.0389476902782917,0.09328897297382355,0.0330929197371006,-0.09258467704057693,0.09391064941883087,0.07000136375427246,0.0567176528275013,0.08118227869272232,-0.16243378818035126,-0.048335663974285126,0.015160903334617615,-0.18083712458610535,-0.09782951325178146,-0.0862569510936737,-0.3020716905593872,0.019035344943404198,0.08368134498596191,-0.013121395371854305,-0.16362124681472778,0.18165279924869537,-0.10800036787986755,0.0865383967757225,-0.02485341578722,0.0011474841739982367,-0.19824428856372833,-0.0005364207900129259,0.22325925529003143,-0.006996312644332647,0.12901829183101654,-0.1412699669599533,0.04383508116006851,-0.09437558799982071,-0.20312738418579102],[-0.08958878368139267,-0.06101281940937042,-0.05842465162277222,-0.05890457332134247,-0.008547407574951649,0.11629469692707062,-0.3299146592617035,0.22949254512786865,0.004844636656343937,-0.0772395059466362,0.1356600672006607,0.28249630331993103,0.1620999276638031,0.003153607016429305,-0.19389469921588898,-0.06751946359872818,-0.06437156349420547,0.1531807780265808,-0.1686834990978241,-0.0945921242237091,-0.21211177110671997,-0.19758927822113037,-0.18260546028614044,-0.09905558079481125,0.053217776119709015,-0.005851707886904478,0.008947874419391155,0.09988051652908325,-0.015391966328024864,0.07191251963376999,-0.013076583854854107,-0.053533174097537994,-0.32301998138427734,-0.14609993994235992,0.008891335688531399,0.360401451587677,0.14329947531223297,0.1926528364419937,-0.03746327757835388,-0.09477614611387253,0.33490559458732605,0.01927638240158558,-0.18331590294837952,0.24852107465267181,-0.09058836847543716,0.2686469256877899,0.010713568888604641,-0.16343103349208832,-0.17900677025318146,0.1644640415906906,-0.047102879732847214,-0.08491192013025284,-0.02457907237112522,-0.06062495708465576,-0.2599618434906006,-0.10543588548898697,0.05829637125134468,-0.09056123346090317,-0.023145204409956932,-0.08176126331090927,-0.07620004564523697,-0.12884743511676788,0.022513119503855705,0.08648821711540222],[0.11943788081407547,-0.10594548285007477,-0.1810447722673416,-0.033603016287088394,-0.08055752515792847,0.0017746614757925272,-0.2753416895866394,-0.10568840801715851,-0.015424255281686783,-0.08509834110736847,0.172981858253479,0.16975434124469757,-0.039342526346445084,-0.22804158926010132,-0.16386692225933075,-0.05879949405789375,-0.03179287537932396,-0.17335103452205658,-0.1288970410823822,0.047128062695264816,0.1210670992732048,0.1281636506319046,-0.05605520308017731,-0.04068054258823395,0.009157354943454266,-0.12433300912380219,-0.007481392007321119,0.1650194525718689,0.016322042793035507,0.023117994889616966,-0.18138450384140015,-0.006003759801387787,-0.2354244887828827,0.16648384928703308,-0.1928611546754837,-0.0686112716794014,-0.1771048754453659,-0.11045919358730316,-0.07101652026176453,-0.08271084725856781,0.03493097797036171,-0.33475232124328613,-0.06612496823072433,-0.1590433567762375,-0.06522586196660995,-0.2434026151895523,-0.024805832654237747,0.32067689299583435,-0.028095480054616928,-0.0069442568346858025,-0.09916239231824875,-0.10636395961046219,-0.27341553568840027,0.10875453799962997,-0.1264457255601883,0.31128790974617004,-0.22685033082962036,0.0803220123052597,-0.09517326951026917,-0.08100114017724991,0.03156815469264984,-0.003374445019289851,-0.06081707775592804,0.16823115944862366],[-0.21038247644901276,-0.1247468963265419,-0.07637760043144226,0.1957463026046753,0.2983908951282501,0.09684550017118454,-0.11240886151790619,-0.27803948521614075,0.1498723328113556,0.14740893244743347,-0.017969658598303795,-0.09027911722660065,0.02599933184683323,-0.03144846856594086,-0.38649365305900574,-0.007264914456754923,-0.0463864803314209,0.07154901325702667,0.10389568656682968,-0.04085765406489372,0.048715800046920776,0.029537539929151535,-0.288531631231308,-0.17150864005088806,0.0382915735244751,0.07758966088294983,-0.13143254816532135,-0.16192786395549774,-0.02559848129749298,0.06752315908670425,-0.10853442549705505,0.020983446389436722,-0.10844331979751587,0.08545584976673126,-0.010641207918524742,-0.16934354603290558,-0.11204531043767929,-0.0873614102602005,0.07756628841161728,-0.3596961200237274,-0.23327642679214478,-0.07061273604631424,0.11028141528367996,-0.2631400227546692,0.2352956235408783,0.10543087869882584,-0.03863757476210594,0.06065751239657402,0.08550145477056503,-0.1391192227602005,-0.006389657501131296,0.0017449220176786184,-0.32650500535964966,0.037177957594394684,0.05775635689496994,0.07515057921409607,0.11668798327445984,-0.23083336651325226,-0.13936936855316162,0.04699467495083809,0.3303152024745941,-0.13438212871551514,-0.10376295447349548,0.09493299573659897],[-0.03142435848712921,0.13971206545829773,-0.2127707302570343,0.06220005825161934,0.13698798418045044,-0.09605458378791809,-0.015738029032945633,-0.03298560529947281,0.09894805401563644,-0.1964709460735321,-0.003908777143806219,0.12942759692668915,0.007707481272518635,-0.014886409975588322,-0.06140847131609917,-0.08779536932706833,-0.024807149544358253,-0.3033199608325958,-0.07153365761041641,0.05503608658909798,0.06888841837644577,-0.08998344093561172,-0.07968756556510925,-0.15395396947860718,-0.13726280629634857,0.09896949678659439,-0.28583940863609314,-0.19060009717941284,0.008017655462026596,-0.07565593719482422,-0.14157763123512268,-0.0635949894785881,-0.07674246281385422,0.15543429553508759,-0.07675772905349731,-0.04952014982700348,-0.02449570782482624,0.004433928057551384,-0.09077529609203339,-0.03696747496724129,-0.16671504080295563,0.025998463854193687,-0.02737109363079071,-0.0037473738193511963,-0.14841124415397644,-0.09352392703294754,-0.040509577840566635,0.029695188626646996,-0.13574065268039703,0.0197046659886837,-0.03305651620030403,-0.11108210682868958,-0.10796887427568436,-0.26655256748199463,0.16853290796279907,-0.09441560506820679,-0.04166341945528984,0.06770353019237518,0.13461855053901672,0.22754353284835815,0.09241508692502975,0.03596442937850952,0.08206498622894287,0.0003318831732030958],[-0.13922926783561707,-0.11323124915361404,-0.0770842507481575,0.12371350824832916,-0.0018664345843717456,-0.058170828968286514,-0.018851228058338165,-0.08995439112186432,-0.18655821681022644,-0.047571130096912384,0.05176575481891632,-0.053786490112543106,0.03545568138360977,-0.20514529943466187,0.051430169492959976,0.010218714363873005,0.0032456007320433855,-0.14658546447753906,-0.22618801891803741,-0.05931420624256134,0.015804700553417206,0.030532516539096832,-0.023822849616408348,0.21859033405780792,-0.04342149570584297,0.04658062011003494,0.03898333013057709,-0.0857713371515274,-0.014063754118978977,-0.12229752540588379,0.09068340808153152,-0.10417133569717407,0.03679649159312248,-0.05166400969028473,0.08028820902109146,-0.03963755816221237,0.08010455220937729,-0.11314079910516739,-0.18579718470573425,0.05881759151816368,-0.33083149790763855,-0.1794581413269043,-0.061505772173404694,0.1349952518939972,-0.2192230373620987,-0.0417587049305439,0.01865430735051632,-0.1441892385482788,0.08602909743785858,-0.06941267102956772,-0.15314102172851562,-0.019491273909807205,-0.2596023380756378,-0.15485936403274536,-0.1509561538696289,-0.0043280841782689095,-0.34146660566329956,0.04043992608785629,-0.08791177719831467,-0.05514770746231079,-0.1076747328042984,0.007808844558894634,-0.11073973774909973,-0.09563324600458145],[0.08492443710565567,-0.0016607490833848715,0.13785633444786072,-0.012764929793775082,0.08579807728528976,0.12320070713758469,0.007180639076977968,0.211738720536232,0.10026490688323975,-0.007351136300712824,-0.013061684556305408,0.08489838987588882,0.02411533147096634,-0.06628856062889099,-0.40909382700920105,-0.03958788886666298,-0.05747959390282631,0.1385662704706192,0.2901090085506439,-0.14176051318645477,-0.045395638793706894,0.03804722800850868,0.08044102042913437,0.17781071364879608,-0.015244719572365284,-0.0045990413054823875,0.04830188676714897,-0.030542299151420593,0.03360893204808235,-0.028549054637551308,0.01034145150333643,-0.04299457371234894,0.06794130057096481,0.07244114577770233,-0.02749807946383953,0.003457618411630392,-0.10981485247612,0.08390617370605469,0.028278516605496407,0.025981321930885315,-0.09768619388341904,0.04744791239500046,0.07356896996498108,0.08396045118570328,0.1758538782596588,0.11929246038198471,0.1188235804438591,-0.18966645002365112,-0.10522957146167755,-0.11569458246231079,0.0819014310836792,-0.29009875655174255,-0.22829149663448334,-0.13469889760017395,0.057264965027570724,0.0808640643954277,-0.16950400173664093,-0.20572593808174133,-0.22257037460803986,0.05634383484721184,-0.22087456285953522,0.04975098744034767,0.07581071555614471,-0.0705711767077446],[0.23109738528728485,-0.03824159502983093,0.060509711503982544,-0.07919833064079285,0.016608096659183502,0.24937747418880463,0.01499851606786251,0.3333525061607361,0.09282868355512619,-0.03102973662316799,-0.0807415172457695,0.1269223392009735,-0.1627981960773468,0.13235177099704742,0.36052852869033813,-0.08178392052650452,0.06707189232110977,0.26665225625038147,-0.11801138520240784,0.16647812724113464,0.22831803560256958,0.06384589523077011,-0.054881930351257324,0.18465489149093628,-0.01793583855032921,0.005374773871153593,-0.14583845436573029,0.15887552499771118,0.28553009033203125,0.19998270273208618,-0.058952655643224716,-0.03179776668548584,0.04344889521598816,-0.08881457149982452,0.2950226664543152,0.09856195002794266,-0.08332066237926483,0.20033714175224304,0.0718742087483406,-0.10466595739126205,0.5076339840888977,0.23045632243156433,0.153301402926445,0.13988298177719116,0.21549582481384277,-0.09055603295564651,0.2940930426120758,-0.094915010035038,-0.09717074036598206,0.22861826419830322,0.028299499303102493,-0.18270130455493927,0.13498455286026,0.4017317593097687,-0.018153194338083267,0.19264161586761475,0.1473531723022461,0.001046375255100429,0.34920117259025574,-0.07388464361429214,0.09507456421852112,-0.0883784294128418,-0.019183194264769554,-0.07787219434976578],[0.061694756150245667,0.19493164122104645,0.1189962774515152,0.12459054589271545,0.07655840367078781,-0.18434640765190125,0.03125804662704468,0.0010332645615562797,0.08308222889900208,0.19128690659999847,-0.054663438349962234,-0.1328946202993393,0.07477856427431107,-0.1973242163658142,-0.21402260661125183,0.046903856098651886,0.06237543746829033,-0.22146102786064148,-0.1050046905875206,0.15570805966854095,0.06989829242229462,-0.015243947505950928,-0.17640823125839233,-0.02019278146326542,-0.17656125128269196,0.053565431386232376,0.04086577147245407,-0.20875807106494904,-0.17359644174575806,0.04435253515839577,0.1600341945886612,0.0006602433859370649,-0.01946532353758812,0.04931826889514923,-0.026341760531067848,-0.3630600869655609,-0.06135803088545799,-0.10063674300909042,-0.09319110959768295,0.09048259258270264,-0.3186022937297821,-0.12097703665494919,0.09651297330856323,0.038166821002960205,0.08168451488018036,-0.04857714846730232,0.0918678417801857,0.2680525481700897,-0.03824720159173012,-0.1260261833667755,0.029056919738650322,0.16085952520370483,-0.11994758993387222,-0.04045116901397705,-0.1012749895453453,-0.014878691174089909,-0.008822474628686905,0.08210714161396027,-0.1515689343214035,-0.02815767377614975,-0.06830711662769318,-0.1004134938120842,0.08707331866025925,-0.01480174157768488],[0.021695731207728386,0.037450987845659256,-0.1296224296092987,-0.018527189269661903,0.09823305159807205,0.08062411844730377,-0.14564864337444305,0.17065763473510742,0.07224904745817184,-0.12348262220621109,-0.15120892226696014,0.11963000893592834,0.13803765177726746,-0.13083557784557343,-0.09585298597812653,-0.10422364622354507,0.013711920939385891,-0.3700500726699829,0.07643462717533112,-0.1682852804660797,-0.07469505816698074,0.1314435750246048,-0.18652412295341492,0.2039766162633896,0.2122741937637329,0.03891849145293236,-0.1876036375761032,-0.01854216866195202,0.15919044613838196,-0.10475606471300125,-0.15958665311336517,-0.07723255455493927,0.00041030236752703786,-0.0973753035068512,0.08385653793811798,-0.18547044694423676,-0.21945640444755554,-0.19126196205615997,-0.35391560196876526,-0.08499100059270859,0.22536000609397888,-0.12105906754732132,0.002766708377748728,0.24468080699443817,0.25785934925079346,0.04635826125741005,0.04581670090556145,0.20595574378967285,0.07285838574171066,0.16185224056243896,0.0008653807453811169,-0.13296277821063995,-0.1971524953842163,-0.12121008336544037,0.08994851261377335,0.053704679012298584,-0.07076773047447205,0.050453584641218185,0.09549187868833542,-0.03766276314854622,0.08091489225625992,-0.17558157444000244,-0.23022852838039398,-0.13313011825084686],[-0.09571605920791626,-0.07031583040952682,-0.06259588897228241,-0.08827082812786102,0.19884543120861053,-0.14014862477779388,-0.23625291883945465,0.13099700212478638,-0.23737043142318726,0.05431000888347626,0.12418070435523987,-0.08887133747339249,0.1270536333322525,-0.12659615278244019,-0.2723259925842285,0.08232628554105759,0.1916954219341278,-0.24688725173473358,-0.0005843863473273814,-0.2781078815460205,-0.017181117087602615,0.15010669827461243,0.009993699379265308,0.10253319144248962,-0.0745336189866066,-0.2944560647010803,-0.14527656137943268,-0.19268114864826202,-0.13635917007923126,-0.2949346601963043,0.0030291308648884296,0.1215297281742096,-0.06423239409923553,-0.0745575949549675,0.26298394799232483,0.2267901599407196,-0.16884790360927582,-0.0638212263584137,0.0427984781563282,-0.0029669003561139107,0.0204927921295166,0.022711634635925293,0.03481025621294975,0.00383009877987206,0.15871351957321167,-0.00006738581578247249,-0.05087735876441002,-0.02741498313844204,0.32649990916252136,-0.1926601231098175,0.10668180882930756,-0.20859576761722565,-0.17314116656780243,0.0736287459731102,-0.09327073395252228,0.05463303253054619,0.12661215662956238,-0.08321665227413177,-0.019942397251725197,-0.10666508972644806,0.000566066475585103,-0.07488080859184265,-0.02106470800936222,0.054177477955818176],[0.25185367465019226,-0.09410443902015686,0.07845687121152878,0.17256969213485718,0.33633890748023987,0.14425019919872284,0.06950497627258301,0.14406085014343262,0.15443193912506104,0.12464997917413712,0.024744227528572083,0.023269781842827797,0.10761162638664246,0.052801910787820816,-0.13362976908683777,-0.1930989921092987,0.11087200790643692,-0.08441651612520218,-0.027068352326750755,0.02203511819243431,0.10423631966114044,0.01012992300093174,-0.07272429764270782,0.024418313056230545,0.17234380543231964,-0.05148051306605339,-0.017971977591514587,0.20794343948364258,0.05830060690641403,0.16077156364917755,-0.14735431969165802,0.047536373138427734,-0.0016525016399100423,0.16854719817638397,0.2199142724275589,0.007169606164097786,0.25609803199768066,0.08667456358671188,-0.2656286656856537,0.07818916440010071,-0.01247834786772728,0.022242365404963493,-0.013045285828411579,0.3360403776168823,0.007575054652988911,0.07006016373634338,0.1360892653465271,0.38184478878974915,0.14163008332252502,0.017831318080425262,-0.19780589640140533,0.09764926135540009,0.10193268209695816,-0.0031843995675444603,0.0824604257941246,0.019749846309423447,0.28800728917121887,-0.24524377286434174,0.23006774485111237,0.06302472203969955,0.08054204285144806,0.23051197826862335,-0.007447403855621815,-0.3054597079753876],[0.12044525891542435,0.03015141561627388,-0.14421287178993225,0.02410249598324299,-0.18487797677516937,-0.2854066789150238,-0.13356913626194,-0.15195128321647644,-0.14111247658729553,0.2047732025384903,0.004305658861994743,-0.25230294466018677,0.10010728985071182,-0.10979040712118149,-0.11480578035116196,-0.04360640421509743,0.12272241711616516,-0.1623471975326538,0.12314110994338989,-0.2779359519481659,0.18012061715126038,-0.34131914377212524,-0.20474059879779816,0.03482136130332947,0.0030163892079144716,0.06233799830079079,0.010413706302642822,-0.2170654535293579,0.06771605461835861,-0.06688883155584335,-0.2303338497877121,0.0753374844789505,0.1541127860546112,0.055051594972610474,0.03168389946222305,0.13099290430545807,-0.1728585809469223,0.03058086521923542,-0.21104437112808228,-0.07239481806755066,0.15640071034431458,0.28971993923187256,-0.10836489498615265,-0.29551172256469727,0.07295236736536026,-0.05110454186797142,0.08345475047826767,-0.11257167160511017,-0.10634869337081909,-0.11954838782548904,-0.04965778440237045,-0.13586650788784027,0.02193431369960308,0.020372554659843445,-0.11779502034187317,0.11424314230680466,-0.027958732098340988,0.2732543647289276,-0.38710036873817444,-0.13621695339679718,0.09194082021713257,-0.21004734933376312,-0.2496098279953003,0.011249914765357971],[0.1801619827747345,-0.20927686989307404,-0.20432402193546295,0.027738433331251144,-0.011887933127582073,-0.11517675220966339,0.08292802423238754,-0.06307194381952286,0.1319292038679123,0.024828562512993813,-0.05894559621810913,0.1334175020456314,0.18402259051799774,-0.15571774542331696,-0.026289891451597214,0.03638901934027672,-0.08648442476987839,-0.015959016978740692,0.15034009516239166,0.09215980023145676,0.020428353920578957,0.2858150899410248,-0.15045639872550964,0.034924931824207306,-0.04614975303411484,0.09912973642349243,0.016788329929113388,-0.26403483748435974,-0.12540660798549652,-0.1984194964170456,0.04635214805603027,0.10724063217639923,0.11452648788690567,0.04147767275571823,-0.04640030488371849,-0.289634108543396,0.0021452992223203182,-0.20667915046215057,0.034170594066381454,-0.04061492159962654,-0.040663935244083405,-0.1044762060046196,-0.08499738574028015,-0.35440438985824585,-0.08133756369352341,-0.08610421419143677,-0.03735747188329697,0.1241874173283577,0.18373435735702515,0.1078924611210823,0.07249389588832855,0.08411864936351776,-0.288485050201416,-0.25394657254219055,-0.11093306541442871,-0.2040444016456604,0.025641895830631256,-0.2582690119743347,0.08547273278236389,0.09073007851839066,-0.07702934741973877,-0.09154954552650452,-0.17648901045322418,0.11953456699848175],[0.10090487450361252,-0.05724528059363365,-0.0470442958176136,-0.17072413861751556,0.0115319499745965,0.23345082998275757,-0.030637580901384354,0.07690306007862091,-0.06414751708507538,-0.09423071146011353,-0.11659082025289536,-0.006298787891864777,-0.16056835651397705,-0.07019387185573578,0.2606916129589081,-0.02461175248026848,0.14055411517620087,0.016136204823851585,0.045864976942539215,0.22047558426856995,0.03080318309366703,0.24642251431941986,-0.054332803934812546,-0.01267032790929079,-0.20448079705238342,0.07506660372018814,-0.0894039198756218,0.21443261206150055,0.09778528660535812,-0.028210990130901337,0.13066093623638153,0.14194928109645844,-0.10341139882802963,-0.09536805748939514,0.08235754072666168,0.15436454117298126,0.140594482421875,0.053592756390571594,-0.13177479803562164,-0.04236852750182152,0.3288145363330841,0.04355455935001373,0.1509196162223816,0.14163869619369507,0.07884330302476883,-0.0371762253344059,-0.07357299327850342,-0.03569091111421585,0.04339197650551796,0.1470746099948883,0.11052587628364563,-0.037334032356739044,-0.05701592192053795,0.1726006716489792,-0.05419819802045822,-0.0747518315911293,0.028548792004585266,-0.09557686001062393,0.09166214615106583,0.18316008150577545,-0.03943190723657608,0.08866383880376816,-0.03453845530748367,-0.020270541310310364],[-0.20628073811531067,0.031530991196632385,0.08412878215312958,0.20500853657722473,-0.07413570582866669,-0.28084394335746765,-0.009987792000174522,-0.18250954151153564,0.026291031390428543,0.0002625321503728628,0.13480046391487122,-0.03137107565999031,0.11581084877252579,-0.07220353931188583,-0.0027557453140616417,0.0042799366638064384,-0.1078711673617363,-0.10515356063842773,0.016543986275792122,-0.23454467952251434,0.12248621881008148,-0.16896435618400574,-0.28851932287216187,-0.007491780444979668,-0.10025008022785187,0.04170842096209526,0.09255620837211609,0.20170439779758453,0.16344796121120453,-0.12861646711826324,-0.24048586189746857,-0.06075208634138107,-0.13995231688022614,0.1581086963415146,0.2229246199131012,-0.005785495508462191,-0.26872941851615906,-0.19700612127780914,-0.21690016984939575,-0.33389395475387573,-0.09243851900100708,-0.06297868490219116,0.06736674904823303,0.11608122289180756,0.03365585580468178,-0.017560726031661034,0.021090412512421608,0.1607091724872589,-0.09908606857061386,-0.004740869626402855,0.0952826738357544,-0.0627896785736084,-0.15289412438869476,-0.13846933841705322,-0.01506020501255989,-0.04725964367389679,-0.011285478249192238,-0.10531838238239288,-0.050170380622148514,-0.03202346712350845,-0.02944897674024105,-0.17784316837787628,0.04868948459625244,0.033595215529203415],[0.186682790517807,-0.11666104942560196,0.1484467089176178,-0.08324013650417328,-0.06273239105939865,-0.15530672669410706,-0.044711388647556305,0.1506030261516571,-0.10754401236772537,0.0023135056253522635,0.35410115122795105,-0.28419625759124756,-0.019303496927022934,-0.3621898889541626,-0.29030755162239075,-0.2222263067960739,-0.15299107134342194,-0.061165113002061844,0.23877857625484467,-0.038093216717243195,-0.08494257181882858,0.002261498011648655,0.05729584023356438,0.08111552149057388,0.018531400710344315,-0.01706593856215477,-0.05164261534810066,-0.034610942006111145,0.15545330941677094,0.16604608297348022,-0.02123124711215496,-0.10625491291284561,0.11352501809597015,-0.07674302160739899,-0.1326795220375061,0.1044318899512291,0.15790709853172302,-0.21361973881721497,-0.050580959767103195,0.15716123580932617,-0.38297975063323975,-0.17484360933303833,-0.12164916098117828,-0.13892069458961487,0.018756113946437836,-0.21849872171878815,0.010483646765351295,0.10404030233621597,0.006288547068834305,0.10165384411811829,0.12569162249565125,0.13082733750343323,-0.1042751893401146,-0.3635914623737335,0.1904589980840683,-0.13096709549427032,-0.16655251383781433,-0.2511215806007385,-0.0031125994864851236,-0.2095811814069748,-0.0038466029800474644,-0.04196138307452202,0.23559831082820892,0.08379137516021729],[0.09416736662387848,-0.05690038204193115,-0.13314273953437805,-0.12239202111959457,0.19341202080249786,0.21552346646785736,0.07916280627250671,-0.053121984004974365,-0.06591159105300903,0.048449281603097916,-0.014270159415900707,-0.02817976102232933,0.1167180985212326,-0.02781279757618904,-0.0035982702393084764,-0.1918533742427826,0.1857122927904129,0.2929620146751404,0.043459609150886536,-0.028389863669872284,0.004072662442922592,0.0855732187628746,-0.18464751541614532,0.09079823642969131,0.01113200280815363,-0.0958237573504448,0.21670874953269958,-0.11874546855688095,0.13918140530586243,-0.22182048857212067,-0.15308409929275513,-0.012253263033926487,-0.029766077175736427,0.02476803958415985,-0.17263218760490417,0.07966410368680954,0.04147975891828537,0.015668192878365517,0.16436515748500824,0.11420304328203201,-0.15496580302715302,0.06879644840955734,0.13952642679214478,0.08110083639621735,-0.08317643404006958,0.03353415057063103,-0.025671938434243202,0.009575744159519672,0.08636102080345154,0.12235771864652634,-0.030480986461043358,-0.1259060800075531,0.09130828082561493,0.30726510286331177,-0.10418122261762619,0.05143330991268158,0.12320385128259659,0.012201369740068913,0.1780501753091812,-0.16058911383152008,0.07786449790000916,0.10402149707078934,-0.12356584519147873,-0.0013002080377191305],[-0.08816637843847275,-0.1514875888824463,-0.05868249386548996,0.10849224776029587,0.12122107297182083,0.03490497171878815,0.16954083740711212,-0.11431615054607391,0.06379882991313934,-0.27711525559425354,-0.25812309980392456,0.03441431745886803,-0.10735224932432175,0.21261104941368103,0.053138647228479385,0.2338220775127411,-0.08935411274433136,0.1501632034778595,0.08639168739318848,-0.1016828864812851,0.04500817507505417,0.1412542164325714,0.134653240442276,0.09961818158626556,-0.12352300435304642,0.1096382588148117,0.047455884516239166,0.035249315202236176,0.025734219700098038,-0.09498921036720276,0.11469384282827377,0.21532107889652252,0.11983133107423782,-0.027501719072461128,0.1976720690727234,0.12623070180416107,0.09708140790462494,0.03559056669473648,0.016891540959477425,-0.03281111270189285,-0.19285571575164795,-0.1385134756565094,-0.028639359399676323,0.10911284387111664,-0.03738603740930557,-0.0793459564447403,0.062272924929857254,0.11820083856582642,-0.2307872623205185,-0.12435290962457657,0.11967896670103073,-0.1649285852909088,-0.3537597060203552,0.0036931796930730343,0.06456981599330902,-0.18198014795780182,0.09883128106594086,0.14082218706607819,0.1006866842508316,-0.030081186443567276,-0.09436246752738953,0.15940377116203308,-0.034649740904569626,-0.224295973777771],[0.06348959356546402,-0.0022549733985215425,-0.14059728384017944,0.08096403628587723,0.06227284297347069,-0.27654168009757996,0.12144973874092102,-0.04672262817621231,0.0026451789308339357,0.12913762032985687,0.06386371701955795,-0.1162802129983902,-0.11346117407083511,-0.027848683297634125,0.11742915213108063,0.03860599920153618,0.1767987608909607,0.3683840334415436,-0.09980156272649765,-0.2615519165992737,-0.2635348439216614,0.1900060772895813,0.07096260786056519,-0.02950608730316162,-0.02974453754723072,0.11718542873859406,-0.05040892958641052,-0.0049878694117069244,-0.11575058847665787,-0.13692906498908997,-0.11333281546831131,0.256028950214386,0.04384366050362587,0.15195009112358093,0.021155264228582382,-0.09971790760755539,0.08329502493143082,0.11352255195379257,-0.022746428847312927,0.09177082031965256,0.22238609194755554,0.058177851140499115,0.018640588968992233,0.1359182447195053,-0.03836290165781975,-0.12936343252658844,-0.3446640074253082,-0.2419806271791458,0.06664563715457916,-0.10364577919244766,-0.07937924563884735,-0.14806638658046722,0.0014300087932497263,0.1673794388771057,0.024631209671497345,-0.1457286775112152,-0.2706539034843445,-0.005502940621227026,-0.017469709739089012,0.059197477996349335,0.024695271626114845,-0.09898553043603897,-0.21321018040180206,-0.008550748229026794],[-0.007776017300784588,-0.0032702770549803972,0.0023036780767142773,-0.2140635997056961,-0.2638688087463379,-0.08410995453596115,0.14204199612140656,0.20427381992340088,0.14488151669502258,0.0667542889714241,0.08887699991464615,-0.2749072313308716,0.12526865303516388,0.047755930572748184,0.13915430009365082,0.17211583256721497,-0.0015158646274358034,-0.10606448352336884,0.17671971023082733,-0.04747125506401062,0.0005515029770322144,0.08342068642377853,0.01579206809401512,0.13020960986614227,0.10507760941982269,-0.039643295109272,-0.17281055450439453,0.03356783464550972,0.15845760703086853,0.028578389436006546,0.35389116406440735,-0.11324775218963623,-0.20411597192287445,0.2487926483154297,0.1319652795791626,0.028016366064548492,-0.022432975471019745,-0.15091641247272491,0.08900849521160126,-0.05094345659017563,0.47625458240509033,-0.03828990086913109,0.052819930016994476,-0.050950225442647934,-0.031148690730333328,0.09077102690935135,0.17540092766284943,-0.012325296178460121,-0.11251331865787506,0.2557101249694824,0.008200172334909439,-0.024129586294293404,-0.03839346021413803,-0.05774006247520447,0.10183808952569962,0.14628949761390686,-0.44379836320877075,0.02180658094584942,0.2228662222623825,0.21172547340393066,0.02314714528620243,0.2647877633571625,-0.08045747876167297,-0.09497590363025665],[0.003431519493460655,-0.10585271567106247,0.04142830893397331,-0.07278651744127274,0.1049497127532959,-0.20995937287807465,-0.04768848046660423,0.06763758510351181,-0.1601511389017105,-0.11262162774801254,0.199820876121521,-0.05839596316218376,0.13851818442344666,0.33979639410972595,0.04708561301231384,-0.1463746726512909,0.02195838838815689,-0.12843447923660278,0.2441689521074295,0.22926627099514008,-0.024899475276470184,0.08816292136907578,-0.09972695261240005,-0.15660744905471802,0.012108275666832924,-0.060086168348789215,0.034601472318172455,0.44533175230026245,-0.20426584780216217,-0.059255313128232956,-0.2820739448070526,-0.37919843196868896,-0.06192999705672264,0.08757243305444717,-0.18015912175178528,0.012535358779132366,-0.025511542335152626,0.15780913829803467,-0.02368069440126419,-0.10659155249595642,-0.10058309137821198,-0.021916914731264114,-0.11691243946552277,-0.12854553759098053,-0.05291283503174782,-0.0610126256942749,-0.03803002089262009,0.10107608884572983,-0.002554713049903512,-0.1120053082704544,0.05636138096451759,0.04147791489958763,0.1942533254623413,-0.1300339698791504,-0.17115680873394012,-0.14390859007835388,0.07150297611951828,0.06394143402576447,-0.013242220506072044,-0.1813446283340454,-0.1386995166540146,-0.21027188003063202,-0.22170883417129517,-0.1361558735370636],[-0.05849505960941315,0.013047417625784874,0.049735382199287415,0.2278272658586502,-0.19065934419631958,0.18509021401405334,-0.22173097729682922,0.16253073513507843,0.12730318307876587,-0.06294173002243042,0.06993548572063446,-0.02564004808664322,0.12688808143138885,-0.14866599440574646,0.10379992425441742,0.08667579293251038,-0.015936560928821564,-0.24323295056819916,-0.14392225444316864,-0.19167587161064148,-0.05866093188524246,-0.04174480587244034,0.18531763553619385,-0.11278404295444489,-0.1907484233379364,0.08893043547868729,0.256313681602478,-0.21048231422901154,-0.054599642753601074,0.09991732239723206,-0.23392929136753082,-0.03969837352633476,-0.15883837640285492,-0.06800135970115662,0.1323031187057495,-0.08826986700296402,0.148760125041008,-0.4460643529891968,-0.051213786005973816,-0.09101225435733795,-0.08934608101844788,-0.007497326470911503,0.17560015618801117,0.19075214862823486,0.276045560836792,0.10207225382328033,0.19037911295890808,-0.045406680554151535,-0.29006582498550415,-0.19442524015903473,0.09854785352945328,-0.10942283272743225,0.16111382842063904,0.20281429588794708,-0.11673106253147125,-0.053867463022470474,0.11163367331027985,-0.29691752791404724,0.09366275370121002,0.07752645760774612,-0.11180872470140457,-0.21691499650478363,0.028886398300528526,-0.13466952741146088],[-0.01894090697169304,0.13751906156539917,-0.008415340445935726,-0.15231306850910187,-0.06897716969251633,-0.08994972705841064,-0.1212369054555893,-0.24705225229263306,-0.025728754699230194,-0.21149320900440216,0.05212782695889473,-0.01071095559746027,0.1941038966178894,0.023029770702123642,0.013593525625765324,-0.17313891649246216,-0.1752312332391739,-0.10575436055660248,-0.27249476313591003,0.13887165486812592,-0.050489503890275955,0.11549346148967743,-0.0655498281121254,-0.025391748175024986,-0.06567898392677307,0.03090197779238224,-0.15639692544937134,-0.12652148306369781,-0.14223319292068481,-0.08585169166326523,-0.38572266697883606,-0.12385618686676025,0.0588044710457325,-0.14441953599452972,0.161647766828537,0.008246448822319508,-0.12667323648929596,-0.044115111231803894,-0.0702829584479332,0.06681506335735321,-0.13303585350513458,0.10045308619737625,-0.1742534041404724,0.07889759540557861,0.04876793175935745,0.23340237140655518,0.04686042293906212,-0.022673262283205986,-0.006371823605149984,-0.019730690866708755,0.03726008161902428,-0.1267823874950409,-0.043982185423374176,-0.3517514169216156,0.047896403819322586,0.2006000429391861,-0.06537453085184097,-0.13832643628120422,-0.17143744230270386,-0.10211832076311111,-0.16364139318466187,0.15960097312927246,0.14416702091693878,-0.06528662890195847],[0.23340970277786255,-0.16556116938591003,-0.0916331559419632,0.24241802096366882,0.01848088763654232,-0.07445693016052246,0.1200435608625412,-0.13462281227111816,-0.1341148316860199,-0.06574072688817978,-0.12100319564342499,0.07314109802246094,-0.053101859986782074,-0.2923273742198944,-0.30553707480430603,0.023372314870357513,-0.06139787659049034,0.05882351100444794,0.1590653657913208,-0.036010876297950745,-0.1710824966430664,-0.09876339882612228,-0.0024723850656300783,0.05831664428114891,0.12130255997180939,-0.0062821730971336365,0.0880565419793129,0.26659440994262695,-0.308941125869751,-0.3267400562763214,0.12667573988437653,0.009746710769832134,-0.012429757975041866,0.03377699851989746,-0.1043950691819191,0.16183766722679138,-0.08197128772735596,0.1076006293296814,-0.05628688260912895,-0.040530797094106674,-0.18102720379829407,0.04765777662396431,0.202536940574646,0.10390966385602951,0.009693421423435211,0.1789107471704483,-0.13448885083198547,-0.1689375340938568,0.13310310244560242,-0.00261579267680645,-0.17975273728370667,-0.2691725194454193,-0.1640734076499939,-0.16485123336315155,0.20073795318603516,-0.052881378680467606,0.04005582258105278,-0.07389649748802185,-0.04893147572875023,-0.04400770738720894,0.15142667293548584,0.039245106279850006,-0.06594815850257874,0.008458547294139862],[0.06109161674976349,-0.057134777307510376,0.12197760492563248,0.12157697975635529,0.09822124987840652,0.11885082721710205,-0.12810207903385162,-0.14070533215999603,0.16464367508888245,-0.010299738496541977,-0.024182002991437912,-0.18247604370117188,-0.025244908407330513,-0.16955608129501343,0.049046631902456284,-0.03192511200904846,0.029220158234238625,-0.121503084897995,0.02699453756213188,-0.10623741149902344,-0.11896354705095291,-0.10678010433912277,0.18566501140594482,-0.08868193626403809,-0.09551486372947693,0.11542321741580963,-0.12592487037181854,0.14734293520450592,-0.065150186419487,-0.014362984336912632,0.0900963842868805,-0.07459982484579086,-0.14598378539085388,-0.036107826977968216,0.015066191554069519,-0.10559190809726715,-0.15694144368171692,-0.22187553346157074,0.106708824634552,0.01280607096850872,-0.050376858562231064,0.09937231987714767,-0.008985940366983414,-0.24675653874874115,-0.1787174493074417,-0.2015567570924759,-0.09355179220438004,-0.13695310056209564,0.03675132989883423,-0.07254236191511154,0.16346792876720428,-0.017982471734285355,-0.29617926478385925,-0.16247497498989105,-0.02773899957537651,-0.01428289245814085,-0.08124004304409027,-0.0484970398247242,-0.00024102489987853914,0.21531519293785095,0.10611534118652344,-0.12406278401613235,0.05280855670571327,0.005332955624908209],[-0.09878814220428467,-0.08261927217245102,-0.015728488564491272,0.01569508947432041,-0.04649842530488968,-0.09662560373544693,-0.10877962410449982,-0.10610098391771317,-0.19718265533447266,-0.18396857380867004,0.035216644406318665,-0.014157658442854881,0.008941369131207466,-0.3327047526836395,-0.1512811928987503,0.05847249925136566,0.011465830728411674,-0.13677752017974854,0.1640492081642151,-0.12450180947780609,0.011425148695707321,-0.19279642403125763,-0.12289617210626602,-0.0850876197218895,0.08620621263980865,-0.13266855478286743,-0.22822067141532898,-0.2150905430316925,-0.09518544375896454,-0.10207212716341019,-0.2519139051437378,0.18950295448303223,-0.04381270706653595,-0.051242895424366,-0.09068890661001205,0.22571074962615967,-0.14470787346363068,-0.009138409979641438,-0.11113635450601578,-0.11655306816101074,0.025979332625865936,-0.26517486572265625,0.004133111331611872,-0.10290087759494781,0.03194672241806984,0.11920390278100967,-0.16063162684440613,0.15266214311122894,0.003987665753811598,-0.0047342414036393166,0.14108958840370178,-0.0693579688668251,0.05589694902300835,-0.22340816259384155,0.00355314533226192,-0.05044231563806534,0.02556537091732025,-0.11169937252998352,-0.12894991040229797,-0.03706638142466545,0.09248238801956177,0.024684924632310867,0.11635756492614746,-0.023242760449647903],[-0.2343730926513672,-0.0304307471960783,0.06796402484178543,0.1911957710981369,-0.010263639502227306,-0.020053423941135406,-0.23390328884124756,-0.027147838845849037,-0.002150327432900667,-0.013698591850697994,0.12106188386678696,0.02119048684835434,-0.008517421782016754,-0.10098227858543396,-0.027674475684762,0.08435024321079254,-0.17421603202819824,0.1675458699464798,-0.047336775809526443,-0.041445292532444,-0.24270911514759064,0.019919151440262794,-0.009200152941048145,-0.07627764344215393,0.2533683180809021,-0.08171012252569199,-0.23296204209327698,0.031166458502411842,-0.20019260048866272,-0.08381792902946472,-0.04621420428156853,0.007170676253736019,0.10569428652524948,-0.1767330765724182,-0.09171117097139359,-0.1369093805551529,-0.09783748537302017,-0.03779473528265953,-0.083411805331707,0.07469986379146576,0.01684863120317459,0.046790603548288345,-0.037923503667116165,-0.1452399343252182,-0.13092119991779327,-0.04100719094276428,0.015397375449538231,-0.29189223051071167,0.10477776825428009,-0.37935420870780945,-0.019006136804819107,0.20283739268779755,-0.013971192762255669,-0.025105280801653862,0.09703005850315094,-0.14459219574928284,-0.06024788320064545,0.14469772577285767,0.1100325733423233,-0.09515956044197083,0.028307119384407997,-0.2261740267276764,-0.10302501916885376,0.03622213378548622],[0.2013145089149475,0.08113807439804077,0.2765701115131378,0.084420345723629,-0.11009131371974945,-0.1973065286874771,0.31102603673934937,-0.024598615244030952,0.054441675543785095,0.15506018698215485,-0.03502964228391647,-0.13757821917533875,0.02230779454112053,-0.07780512422323227,0.06634917110204697,0.07736649364233017,0.06269427388906479,0.013399528339505196,0.056070223450660706,0.08633539825677872,-0.18910729885101318,-0.1441871076822281,0.0021664616651833057,-0.19038623571395874,-0.11486147344112396,0.08809886872768402,-0.17570911347866058,-0.04124658927321434,-0.06931424885988235,-0.12592162191867828,-0.3235606253147125,0.054743893444538116,0.05732153728604317,-0.023310307413339615,0.19332046806812286,0.0991535633802414,-0.07811056077480316,0.049721479415893555,0.05140555277466774,0.1957162767648697,-0.017162228003144264,0.3320138156414032,-0.02185976132750511,-0.08489697426557541,0.30573388934135437,-0.046755462884902954,0.07084545493125916,0.2365528643131256,0.21082189679145813,-0.13637438416481018,0.2190130203962326,-0.05082790181040764,0.2854117453098297,0.2088741809129715,0.22602887451648712,0.05375460535287857,0.10208358615636826,0.1766108125448227,0.2877046465873718,-0.25412416458129883,-0.056242212653160095,0.09602406620979309,-0.012675915844738483,-0.1960485279560089],[-0.24323788285255432,-0.01869794726371765,-0.039991285651922226,-0.00625954195857048,-0.06931373476982117,0.16097325086593628,0.14588138461112976,0.08550936728715897,-0.17133739590644836,-0.12853263318538666,0.08301089704036713,-0.18596795201301575,0.092737577855587,0.002468366641551256,0.2795999348163605,-0.04178460314869881,-0.01971697248518467,-0.226051464676857,-0.10919013619422913,0.11424533277750015,-0.012186800129711628,0.17434044182300568,0.02805865742266178,0.0929231196641922,0.20079374313354492,-0.14291170239448547,-0.18201690912246704,-0.04699243977665901,0.07803097367286682,0.006660276558250189,0.003222940256819129,0.1393003612756729,-0.03154052793979645,-0.014179905876517296,-0.029897132888436317,0.08551768213510513,0.01071307435631752,0.2008136659860611,-0.014883603900671005,-0.27886533737182617,0.12951816618442535,0.43843498826026917,-0.03137814253568649,0.11682844161987305,-0.05746044963598251,0.20773988962173462,0.044492822140455246,-0.12961383163928986,0.2145613133907318,-0.10665272176265717,-0.16146062314510345,-0.06047971919178963,-0.1798728108406067,0.17684756219387054,0.09303069114685059,0.26143503189086914,0.09206926077604294,0.05429999530315399,0.17442858219146729,-0.09390471130609512,-0.0601370632648468,0.01265859603881836,-0.15161557495594025,0.12447593361139297],[0.15515053272247314,-0.10016211122274399,0.07249682396650314,0.06495846807956696,0.04272998496890068,-0.05086415633559227,0.21401570737361908,0.0019106268882751465,-0.12279403954744339,0.13038359582424164,0.08962830901145935,-0.09781278669834137,0.06973645091056824,0.046451255679130554,-0.336458683013916,-0.058964941650629044,-0.10396430641412735,0.1489810347557068,-0.20717588067054749,-0.180608332157135,-0.25273793935775757,0.012232162989675999,0.15693636238574982,-0.148421049118042,0.03368912637233734,-0.09673251956701279,0.08467257767915726,-0.03800555691123009,-0.08766545355319977,0.20397670567035675,-0.08447860926389694,0.1037856787443161,-0.013584297150373459,-0.10344581305980682,0.16675670444965363,-0.22677522897720337,0.09808741509914398,0.057380057871341705,0.18137820065021515,0.09509909898042679,0.06523696333169937,-0.03216131776571274,0.10262094438076019,-0.06592199206352234,-0.301082581281662,-0.04814038425683975,0.12932349741458893,0.0009375041699968278,0.13982237875461578,0.06100058928132057,-0.3278229832649231,-0.0079818619415164,-0.29501640796661377,-0.11871111392974854,0.0621374137699604,-0.2582291066646576,-0.13864102959632874,-0.31404826045036316,-0.03708279877901077,0.09301777184009552,0.015194104053080082,0.07310432940721512,0.12379615753889084,0.30647730827331543],[-0.2887766361236572,-0.12465130537748337,-0.27194148302078247,-0.07036415487527847,0.2456188201904297,0.0443134605884552,-0.14660389721393585,0.11224265396595001,-0.15672558546066284,0.14529205858707428,0.02780289202928543,0.1049606204032898,0.02699807658791542,0.07267063856124878,-0.19634050130844116,-0.0400850810110569,0.02328174002468586,0.05459284409880638,-0.0910874530673027,-0.11424217373132706,-0.128748819231987,-0.10448005050420761,-0.055291034281253815,-0.13251861929893494,-0.14617498219013214,-0.06869952380657196,-0.17434310913085938,-0.17678765952587128,-0.06087246909737587,-0.09300673753023148,0.107118159532547,-0.12470392137765884,0.13754238188266754,0.13224473595619202,-0.16881999373435974,0.03610524162650108,-0.058929044753313065,0.03472396358847618,-0.040299296379089355,-0.2751569151878357,0.19955527782440186,0.2168218344449997,0.09044197201728821,-0.0018306856509298086,0.08587761223316193,-0.11659106612205505,0.020593419671058655,-0.09686178714036942,-0.05473146215081215,0.03687505051493645,-0.1833290159702301,-0.08513889461755753,-0.20977579057216644,-0.07349754869937897,-0.11833234876394272,-0.21366889774799347,-0.15148136019706726,0.04733850806951523,-0.028015054762363434,-0.023267170414328575,0.15558165311813354,0.02383853681385517,-0.1768796145915985,0.21510306000709534],[-0.13069650530815125,0.031687431037425995,-0.15212370455265045,0.01577921025454998,-0.13245363533496857,-0.20743604004383087,-0.2777625322341919,-0.3356633484363556,-0.007046777755022049,-0.25285354256629944,0.07340481132268906,0.1426216959953308,-0.06316106021404266,0.2780647575855255,-0.2279798537492752,-0.0628981664776802,-0.010749745182693005,-0.021631358191370964,-0.09870073199272156,0.009384635835886002,0.06581652909517288,0.05343583971261978,0.10625152289867401,0.05161077901721001,0.019568070769309998,-0.11063596606254578,0.054165441542863846,-0.12671975791454315,-0.015113594010472298,-0.2190491259098053,-0.39569011330604553,-0.010869365185499191,-0.2211700677871704,0.07786916196346283,-0.13266126811504364,0.05350537970662117,-0.1896672397851944,-0.03662041202187538,-0.05354536697268486,-0.0677071213722229,-0.17222784459590912,-0.27671220898628235,-0.21863050758838654,-0.08921298384666443,0.07813891023397446,-0.24530236423015594,-0.0866701751947403,-0.1389639526605606,0.007981754839420319,0.038312748074531555,0.14813926815986633,-0.05387790501117706,0.06965462863445282,-0.14495067298412323,-0.05314929410815239,-0.042737483978271484,-0.24782831966876984,-0.2525922954082489,-0.11703062802553177,0.19713753461837769,0.01193362195044756,0.11316650360822678,-0.0819617211818695,-0.10686185210943222],[-0.1784987449645996,-0.054580286145210266,-0.10090497136116028,0.11592650413513184,-0.19505251944065094,-0.196760356426239,0.0708904042840004,0.019085848703980446,-0.052590660750865936,0.14274904131889343,-0.24131718277931213,0.21435001492500305,-0.002425439190119505,-0.02055327780544758,-0.04666256904602051,-0.05843053385615349,0.09214138239622116,-0.1678791493177414,0.12684030830860138,-0.2374666929244995,-0.18678061664104462,0.0917937234044075,-0.16761216521263123,-0.02914123795926571,-0.0009028927888721228,0.14756660163402557,0.13355118036270142,-0.13686463236808777,-0.05097655579447746,0.10936827957630157,0.1317216008901596,-0.10641569644212723,-0.060603346675634384,-0.06929535418748856,-0.29950863122940063,0.046617452055215836,-0.005890827160328627,-0.2824470102787018,0.1841084510087967,-0.10108036547899246,0.1435392051935196,0.046688273549079895,-0.07918956875801086,0.19011561572551727,0.020439162850379944,-0.14565043151378632,0.0696963220834732,0.05548917129635811,-0.08387541025876999,-0.13132059574127197,-0.02314096875488758,-0.04277028515934944,-0.021915417164564133,-0.31399768590927124,-0.04467863589525223,-0.31479188799858093,-0.11948279291391373,-0.004290526267141104,-0.03287535533308983,0.2125096321105957,0.0710877925157547,0.0803159549832344,-0.11094386875629425,-0.1198858693242073],[-0.13421641290187836,0.13852877914905548,0.011660545133054256,0.07839272171258926,0.1077929362654686,-0.14679746329784393,-0.09616286307573318,0.19418686628341675,0.06609403342008591,-0.1173258051276207,-0.033058926463127136,-0.028914961963891983,-0.05312616378068924,0.0366397462785244,-0.16176123917102814,-0.18550336360931396,-0.16271153092384338,-0.015316825360059738,-0.01837548427283764,-0.21158315241336823,-0.017320046201348305,-0.056486278772354126,-0.10810446739196777,0.18339519202709198,0.17084787786006927,0.1299913078546524,-0.13162827491760254,0.1622404307126999,0.025707991793751717,-0.24514351785182953,0.1564691662788391,-0.1576252579689026,-0.04495656490325928,-0.1589256078004837,-0.10717588663101196,0.1699625849723816,0.16527172923088074,-0.12321065366268158,-0.13223546743392944,-0.2673555314540863,-0.09621284902095795,-0.1879669576883316,0.11021047830581665,-0.11131056398153305,0.028711944818496704,-0.26038727164268494,0.047484904527664185,0.12595012784004211,-0.07095593959093094,-0.20164643228054047,0.22276076674461365,0.16265971958637238,-0.05844080448150635,0.08991840481758118,0.04801459610462189,-0.09061996638774872,-0.11614134907722473,0.14159747958183289,0.21095684170722961,-0.11033564805984497,-0.19790713489055634,0.14801223576068878,0.0008516451343894005,0.05058329179883003],[0.004448161460459232,0.002889933530241251,0.054289232939481735,0.3105882704257965,0.024338437244296074,0.20000874996185303,0.01965666562318802,0.03363814577460289,0.05186863988637924,-0.11826605349779129,0.19162671267986298,0.04574758559465408,0.004474768415093422,-0.21925441920757294,-0.39403530955314636,0.13837824761867523,0.02265026606619358,0.11448393017053604,-0.05359603464603424,0.03521221876144409,0.14453455805778503,0.1593782603740692,0.10169779509305954,-0.07833366841077805,0.08792062103748322,-0.07835628092288971,-0.1078106090426445,-0.07405214756727219,-0.17065846920013428,-0.04029085114598274,0.08214585483074188,-0.18775711953639984,-0.031062182039022446,-0.1504233479499817,-0.1632767766714096,0.2917933464050293,-0.11396411061286926,0.11078987270593643,0.07547322660684586,0.08674376457929611,-0.07551167905330658,0.2335551530122757,-0.1595487892627716,0.19740810990333557,-0.05993533879518509,0.4137726128101349,-0.09211486577987671,-0.14947737753391266,0.08343315124511719,-0.13580642640590668,0.11016836762428284,-0.09380766749382019,0.04311995580792427,0.1075485572218895,-0.02878805622458458,-0.028160035610198975,-0.10984794795513153,-0.15080034732818604,0.11937335878610611,-0.04543400928378105,0.006119310390204191,-0.16261178255081177,-0.13121917843818665,-0.014584303833544254],[-0.023302456364035606,0.0013562776148319244,-0.09554820507764816,-0.07058339565992355,0.14934228360652924,0.1330178678035736,-0.11771038919687271,-0.07661799341440201,-0.0641644150018692,-0.018432501703500748,-0.20839720964431763,0.10305271297693253,-0.04934048280119896,-0.11583442986011505,-0.10425207763910294,-0.15586479008197784,-0.19346019625663757,0.03586651384830475,0.2935565710067749,-0.1585617959499359,-0.07505680620670319,-0.21176157891750336,-0.01028536818921566,-0.02450246922671795,0.06778483092784882,0.04873596504330635,-0.10309724509716034,0.019077438861131668,0.09663364291191101,-0.10601408034563065,-0.07684570550918579,-0.1682937741279602,0.028712235391139984,-0.0024506147019565105,-0.10529010742902756,0.004972077906131744,-0.13246673345565796,-0.2616441547870636,0.12131992727518082,0.2347724735736847,-0.3150500953197479,-0.0730147734284401,0.08970121294260025,-0.1423395574092865,0.04919065162539482,-0.05814191699028015,0.16183225810527802,0.15266281366348267,-0.13372577726840973,-0.061563193798065186,0.0228631179779768,0.0004535232437774539,0.24041488766670227,-0.36088910698890686,-0.2304171323776245,-0.07806900143623352,0.1606856882572174,-0.035855840891599655,-0.262286514043808,0.08958062529563904,-0.16891834139823914,0.003735140897333622,-0.06674499809741974,-0.16703133285045624],[0.12603162229061127,-0.0077313329093158245,0.11904393136501312,0.2236877828836441,0.0028888320084661245,-0.08198262006044388,0.1033986285328865,-0.06522670388221741,-0.19465701282024384,-0.10851140320301056,0.049406860023736954,-0.16833852231502533,-0.08900763094425201,-0.28470945358276367,-0.19510231912136078,0.15265239775180817,0.07925406843423843,-0.0618676133453846,-0.02810017019510269,-0.019656093791127205,-0.13424310088157654,-0.05580458417534828,-0.06177898868918419,0.022772282361984253,0.037629783153533936,-0.3059920072555542,0.01829475164413452,-0.11680333316326141,0.0879315435886383,0.09130822122097015,0.0814862847328186,0.20850040018558502,-0.14099812507629395,-0.09717646986246109,0.11219222843647003,-0.08287854492664337,-0.026763344183564186,-0.00972946360707283,-0.029614299535751343,-0.45510220527648926,-0.06698340177536011,0.037448205053806305,-0.03036767616868019,0.04485931992530823,0.1187334954738617,-0.13954965770244598,-0.11932417005300522,0.12935665249824524,0.029035938903689384,-0.006942040752619505,-0.13339336216449738,0.095345638692379,-0.04216666892170906,0.020258234813809395,-0.2240847498178482,-0.28595492243766785,0.11030375212430954,0.11798213422298431,-0.10011984407901764,-0.17528070509433746,-0.17592540383338928,-0.1103869155049324,-0.05196034163236618,-0.04281234368681908],[-0.13914772868156433,-0.019820857793092728,-0.12697547674179077,-0.00502940034493804,0.1527998298406601,-0.0034342515282332897,-0.17280937731266022,0.08999813348054886,-0.14712703227996826,-0.09472928941249847,-0.2985557019710541,-0.02503151074051857,0.127946138381958,-0.05096106976270676,-0.020327970385551453,-0.2213388830423355,-0.030449658632278442,-0.0020538028329610825,-0.040448013693094254,-0.08020133525133133,-0.14033474028110504,0.005208200309425592,-0.2209615409374237,0.08718106895685196,0.10037562251091003,-0.1046842634677887,0.09568364918231964,-0.1798129677772522,-0.19189013540744781,0.1824071705341339,0.15811671316623688,0.14083755016326904,0.052116863429546356,-0.06778861582279205,0.0022824867628514767,0.03837701305747032,-0.020732568576931953,0.1453668624162674,-0.08338730782270432,-0.09501078724861145,-0.28595247864723206,-0.10612870007753372,0.05853431299328804,0.09279568493366241,0.013151440769433975,-0.0590699203312397,0.12872323393821716,0.28541621565818787,0.1615932434797287,0.1251969188451767,0.0404643751680851,-0.057873357087373734,0.3209594786167145,-0.19538775086402893,0.11000603437423706,-0.08950480818748474,0.04412739351391792,-0.12373928725719452,-0.006899971514940262,-0.026264935731887817,-0.032901469618082047,0.08015361428260803,0.2346256524324417,-0.06027551740407944],[-0.17900148034095764,0.005220890510827303,0.09265738725662231,-0.19652846455574036,0.00967731885612011,0.00970158725976944,-0.007494390942156315,-0.00817108154296875,0.011654524132609367,0.2609974443912506,0.057377174496650696,0.08306053280830383,-0.2052629292011261,0.046897727996110916,-0.24157702922821045,0.12592454254627228,0.18343336880207062,-0.2890724241733551,0.1800171136856079,-0.010372396558523178,-0.0715034008026123,-0.2388809472322464,-0.31377625465393066,-0.09088652580976486,-0.0017620426369830966,-0.10578925907611847,-0.10341085493564606,-0.26562437415122986,-0.041550762951374054,-0.18552714586257935,0.05437299236655235,0.19198879599571228,0.055242571979761124,-0.06339113414287567,0.017794499173760414,-0.005917977076023817,0.10332602262496948,0.05704375356435776,0.14861933887004852,0.16634728014469147,0.11656390130519867,0.09140490740537643,-0.057953257113695145,0.20676252245903015,-0.04951166734099388,0.3575393855571747,-0.004370815586298704,-0.05493507161736488,-0.19634635746479034,-0.03120623528957367,-0.04876299202442169,0.024099111557006836,-0.10537461191415787,0.1869596242904663,0.31003230810165405,-0.18549704551696777,0.1228875145316124,0.053321439772844315,-0.07103418558835983,-0.012012194842100143,-0.09744453430175781,-0.051728252321481705,-0.5017349720001221,-0.034255772829055786],[0.0963011085987091,0.1925826370716095,0.0541226752102375,0.17400847375392914,-0.016645770519971848,0.0937725380063057,-0.14530974626541138,-0.006962774787098169,0.07736373692750931,-0.31618112325668335,0.05203777551651001,0.005800272338092327,0.07829480618238449,-0.12871675193309784,-0.5154944658279419,-0.0010505858808755875,0.25722336769104004,-0.010512137785553932,-0.059543315321207047,0.0666770190000534,-0.15496432781219482,-0.2270680069923401,0.026197524741292,-0.07411639392375946,0.015020731836557388,-0.0802009329199791,0.04737558588385582,0.015113594941794872,-0.08691535890102386,0.04783348739147186,-0.31414881348609924,-0.05977980047464371,-0.005912503693252802,0.13251347839832306,-0.045212522149086,0.015097345225512981,-0.09619810432195663,-0.22734412550926208,-0.20727220177650452,0.1108512133359909,-0.018763942644000053,0.05701102316379547,0.0636642649769783,-0.09778763353824615,-0.07056228071451187,-0.050665028393268585,0.06177134066820145,0.051908597350120544,-0.40279126167297363,0.15381479263305664,0.10593998432159424,-0.005131800193339586,0.12560077011585236,-0.0947544202208519,0.09948740154504776,-0.06451115012168884,0.15487991273403168,0.03717511147260666,0.08766205608844757,0.18538355827331543,-0.04382351413369179,-0.2523285746574402,-0.029388805851340294,0.17171484231948853],[0.10692466050386429,-0.07828651368618011,0.182719424366951,0.04707135260105133,0.1321437805891037,-0.004489366430789232,0.09832831472158432,-0.003466618014499545,-0.11970176547765732,0.06681787222623825,-0.04314519837498665,-0.22742405533790588,-0.0256374292075634,-0.045222118496894836,0.20911896228790283,0.302217960357666,0.01954830065369606,0.1264612227678299,-0.16525588929653168,0.23684364557266235,0.08217234909534454,-0.05149651691317558,0.08939038217067719,0.19501104950904846,0.16280090808868408,-0.2897387146949768,-0.12165085226297379,-0.0338640958070755,0.08708738535642624,-0.17205192148685455,0.1619090735912323,-0.010552244260907173,-0.12096156924962997,-0.17902587354183197,0.3076709508895874,-0.017653152346611023,0.04849493131041527,0.07788512110710144,-0.30513665080070496,0.31699803471565247,-0.26285886764526367,0.13323476910591125,0.02316907048225403,-0.0719505026936531,0.021398307755589485,0.19184502959251404,-0.13140948116779327,-0.020021405071020126,-0.02666238695383072,0.14113149046897888,-0.04684945195913315,-0.15417645871639252,-0.0773165225982666,0.20142841339111328,-0.07417924702167511,-0.1920543760061264,-0.1539672464132309,0.025620892643928528,-0.018989279866218567,-0.42360422015190125,0.2191431075334549,-0.19166727364063263,-0.07880105823278427,0.15160506963729858],[0.07800585776567459,0.07915135473012924,-0.2138061374425888,-0.33692172169685364,0.08840890228748322,0.20400473475456238,0.26248258352279663,0.24857677519321442,0.06074985861778259,0.06485448777675629,0.05528644099831581,0.037685319781303406,-0.2748991847038269,0.07219919562339783,0.31201842427253723,0.12767432630062103,0.09207025915384293,0.057043205946683884,0.1707412302494049,0.13007842004299164,0.06982964277267456,-0.24175287783145905,0.052819471806287766,-0.21365419030189514,0.11296147108078003,0.3418491780757904,-0.07555370777845383,0.18844959139823914,0.19081825017929077,0.15750327706336975,0.1762547641992569,-0.09406603872776031,0.0007323811878450215,-0.0098836999386549,0.026644255965948105,0.07026404142379761,0.10702923685312271,0.11416300386190414,0.25958487391471863,-0.004665127024054527,0.32228004932403564,0.21165992319583893,-0.17982012033462524,0.1610327959060669,0.21935494244098663,-0.04312038794159889,0.16231608390808105,0.03296070918440819,0.0301106795668602,0.10509485006332397,-0.08491292595863342,0.2205638587474823,0.013538191094994545,0.23482368886470795,-0.09203359484672546,0.19107380509376526,-0.03022630698978901,-0.13067726790905,0.12521012127399445,