[[-0.08914449065923691],[0.36480778455734253],[0.22543387115001678],[-0.31828880310058594],[0.23398564755916595],[-0.12694835662841797],[-0.3164754807949066],[0.5693017244338989],[-0.17969302833080292],[0.1305205225944519],[0.03616423159837723],[0.018604502081871033],[-0.44331222772598267],[-0.23009106516838074],[-0.08939853310585022],[-0.13005073368549347],[-0.004372987896203995],[-0.4863359332084656],[-0.023058196529746056],[-0.007557151839137077],[-0.015656251460313797],[0.24219952523708344],[-0.15273386240005493],[-0.19562143087387085],[-0.12800033390522003],[-0.2313951551914215],[-0.08896981924772263],[-0.0773237869143486],[0.387341171503067],[-0.0060830083675682545],[-0.1282835304737091],[-0.13145308196544647],[0.2240625023841858],[-0.15965595841407776],[0.14402896165847778],[0.3300771117210388],[-0.04781584069132805],[-0.13950760662555695],[0.24011409282684326],[-0.06461017578840256],[0.6497422456741333],[-0.2894149124622345],[-0.06158905848860741],[-0.08592122048139572],[0.724016547203064],[0.2505868077278137],[-0.3187287151813507],[0.22092141211032867],[-0.1586976796388626],[-0.10861619561910629],[0.23773327469825745],[0.19568921625614166],[0.10018239915370941],[0.21458376944065094],[-0.3401297926902771],[-0.06318580359220505],[-0.1194843202829361],[0.01729537546634674],[-0.12915079295635223],[-0.20610982179641724],[0.06400123983621597],[0.312330961227417],[-0.3259541988372803],[-0.06038516387343407],[0.2617000937461853],[0.04322054982185364],[-0.2262953668832779],[0.032420121133327484],[-0.0020302007906138897],[-0.22337637841701508],[0.202546164393425],[-0.0145101984962821],[-0.6441226005554199],[-0.0002500831615179777],[-0.20354239642620087],[0.20552869141101837],[0.16601359844207764],[-0.07400527596473694],[-0.23479901254177094],[-0.18030720949172974],[0.11915349960327148],[0.12293245643377304],[-0.05095421150326729],[0.1195443645119667],[-0.3135303556919098],[0.1390852928161621],[0.6101783514022827],[-0.02540809102356434],[0.03366156294941902],[-0.4403145909309387],[-0.12352515012025833],[-0.27321335673332214],[0.3385748863220215],[0.1742999404668808],[0.1277497112751007],[-0.21207505464553833],[-0.11820477992296219],[-0.34606340527534485],[-0.13987216353416443],[-0.23047858476638794],[0.0056397090665996075],[-0.2637810707092285],[0.11488845944404602],[0.048385798931121826],[0.26593145728111267],[-0.23727160692214966],[-0.5684336423873901],[0.32777366042137146],[-0.07786833494901657],[0.6418625712394714],[-0.16115516424179077],[-0.08745808899402618],[0.21531324088573456],[-0.2899136543273926],[-0.07219693064689636],[-0.1493551880121231],[-0.18291416764259338],[-0.14846603572368622],[-0.0653717964887619],[-0.06395592540502548],[0.3946567177772522],[-0.1369657963514328],[0.22719526290893555],[-0.0760035440325737],[-0.1510949283838272],[0.5833268761634827],[-0.10595586150884628],[-0.31174522638320923]]