[[-0.2986268103122711],[0.15761634707450867],[-0.14741301536560059],[-0.5159555077552795],[-0.1141909509897232],[0.026925697922706604],[-0.25088897347450256],[0.06643757224082947],[-0.0843919888138771],[0.25091931223869324],[-0.35837629437446594],[-0.32208284735679626],[0.016261687502264977],[-0.30456608533859253],[-0.10421762615442276],[0.06580983102321625],[-0.29224926233291626],[-0.20024709403514862],[-0.2445163130760193],[0.11730114370584488],[-0.1536071002483368],[0.046171218156814575],[-0.501362144947052],[-0.30360954999923706],[0.11045096069574356],[-0.07064272463321686],[-0.0061731780879199505],[-0.39346468448638916],[-0.04599767178297043],[0.06836117058992386],[-0.45604345202445984],[-0.24122044444084167],[-0.28424572944641113],[-0.2299092561006546],[-0.39491283893585205],[-0.2781645357608795],[-0.10835281759500504],[0.14186900854110718],[0.027979878708720207],[0.03543373942375183],[-0.1474895477294922],[-0.39673325419425964],[0.01695871353149414],[-0.08737179636955261],[0.18104225397109985],[-0.1142403706908226],[-0.22006049752235413],[-0.09836531430482864],[-0.28706222772598267],[-0.3574538826942444],[-0.051513880491256714],[-0.06541050225496292],[-0.19161741435527802],[0.23908686637878418],[-0.2373782992362976],[-0.0880281999707222],[-0.06466592848300934],[0.16919636726379395],[0.08377425372600555],[-0.3518940210342407],[0.11371967196464539],[-0.25310444831848145],[0.1352551430463791],[-0.22065044939517975]]