[[-0.1590065211057663],[-0.07218432426452637],[0.2093767523765564],[0.12515763938426971],[0.0749097540974617],[-0.1697603464126587],[0.18886879086494446],[-0.0342465415596962],[0.029575111344456673],[-0.13363824784755707],[-0.2672308087348938],[-0.08384869992733002],[0.18710985779762268],[-0.10678113996982574],[-0.027350377291440964],[-0.06906422227621078],[-0.2272111475467682],[-0.06300701946020126],[0.1524062305688858],[0.08117581903934479],[0.10935951769351959],[-0.15732277929782867],[-0.15581893920898438],[-0.050115104764699936],[0.17223359644412994],[-0.3238457143306732],[0.18997710943222046],[0.2421574741601944],[-0.18072617053985596],[-0.1540135145187378],[0.08420650660991669],[0.023185960948467255],[0.14618994295597076],[0.16076970100402832],[-0.00479491800069809],[-0.13224168121814728],[0.1130637526512146],[-0.022611740976572037],[-0.23115988075733185],[-0.10926326364278793],[-0.0584576390683651],[-0.08839065581560135],[-0.094173364341259],[0.1834256947040558],[-0.09562595188617706],[-0.10253068059682846],[-0.11060548573732376],[0.14820322394371033],[0.02391660585999489],[0.008925698697566986],[-0.046612128615379333],[-0.15518984198570251],[0.0792911946773529],[0.015935327857732773],[-0.08931797742843628],[0.013193018734455109],[0.03653819486498833],[-0.10419787466526031],[-0.035627372562885284],[0.026943085715174675],[-0.012853770516812801],[-0.05902019888162613],[-0.21238471567630768],[-0.1277918964624405],[-0.18284855782985687],[-0.3038560152053833],[-0.15701135993003845],[0.31710803508758545],[-0.14409835636615753],[-0.1899968832731247],[-0.10518292337656021],[-0.12708905339241028],[-0.1639097034931183],[0.0240434892475605],[0.03346159681677818],[-0.16066138446331024],[-0.0758679062128067],[-0.2295413762331009],[0.0480024553835392],[-0.07243652641773224],[-0.09757588803768158],[-0.038909800350666046],[0.10186471045017242],[-0.10726720839738846],[-0.09335742890834808],[-0.03206793963909149],[-0.13425113260746002],[-0.008283915929496288],[0.10700956732034683],[0.0023715533316135406],[0.06816833466291428],[-0.0852125957608223],[-0.05579822510480881],[0.13869716227054596],[-0.27302780747413635],[-0.24709360301494598],[-0.1298256665468216],[0.08360755443572998],[-0.0721704512834549],[-0.008211719803512096],[-0.04984941706061363],[-0.18440191447734833],[-0.040908332914114],[-0.13985489308834076],[0.0323263444006443],[0.12590160965919495],[0.10285478085279465],[-0.09862838685512543],[0.00930878147482872],[-0.17481917142868042],[-0.21402360498905182],[0.012356111779808998],[0.19663050770759583],[0.05403635650873184],[0.02623947337269783],[0.11499855667352676],[0.13658379018306732],[0.09021062403917313],[-0.0322280116379261],[0.14469124376773834],[-0.05834108963608742],[0.0807015672326088],[-0.1387004256248474],[-0.12119352072477341],[-0.09463329613208771],[0.0246739499270916],[-0.2533591389656067],[-0.2845848500728607],[0.09503282606601715],[0.19901199638843536],[-0.12997692823410034],[0.13438481092453003],[-0.1383870244026184],[0.11546590179204941],[-0.1261611133813858],[0.05402204021811485],[0.00528029864653945],[0.1019914373755455],[-0.02691929042339325],[-0.12676209211349487],[-0.07518357783555984],[0.16283127665519714],[-0.13494199514389038],[0.07568373531103134],[0.014280104078352451],[-0.15966874361038208],[-0.2686240077018738],[0.12732040882110596],[-0.03078562580049038],[0.0946563333272934],[-0.05715388432145119],[0.1559375524520874],[-0.05855174735188484],[-0.107573501765728],[-0.1251799762248993],[0.22549660503864288],[-0.2571263313293457],[-0.08747845143079758],[0.055680982768535614],[-0.22826087474822998],[0.019820522516965866],[-0.0627053752541542],[-0.07701030373573303],[-0.2258252650499344],[0.06966926902532578],[-0.18666024506092072],[-0.013706072233617306],[-0.1054510548710823],[0.1336890161037445],[0.10680052638053894],[0.14108723402023315],[0.12208926677703857],[-0.0455683134496212],[0.0301149170845747],[-0.36321601271629333],[0.07627503573894501],[-0.007346991915255785],[-0.08302082121372223],[-0.02553343027830124],[0.19237284362316132],[-0.0853024274110794],[-0.1189347580075264],[-0.08708680421113968],[-0.03252395614981651],[0.04032488167285919],[-0.15858867764472961],[-0.08514503389596939],[0.04327540472149849],[0.07146745920181274],[0.046465467661619186],[-0.2733508050441742],[0.234371155500412],[0.10280989855527878],[0.00291261519305408],[-0.08472303301095963],[-0.11589830368757248],[-0.12109995633363724],[0.007826486602425575],[0.21167397499084473],[-0.019908834248781204],[-0.18893243372440338],[-0.04829321429133415],[0.11198031157255173],[-0.11736709624528885],[0.034921519458293915],[-0.34174439311027527],[-0.011059499345719814],[0.03987971320748329],[-0.099308542907238],[-0.10491955280303955],[-0.16919010877609253],[-0.06936078518629074],[-0.23985251784324646],[0.09705378860235214],[-0.27498817443847656],[-0.018451636657118797],[0.11877739429473877],[-0.07271630316972733],[-0.06250913441181183],[0.18990065157413483],[-0.05602999031543732],[-0.03101298399269581],[-0.06080649420619011],[-0.1534534990787506],[0.028224050998687744],[-0.145864799618721],[-0.14578290283679962],[0.0010693400399759412],[-0.0075894189067184925],[-0.22562366724014282],[-0.1026955395936966],[0.1722181737422943],[-0.15757745504379272],[-0.049610771238803864],[-0.06948432326316833],[0.22205811738967896],[0.16631926596164703],[-0.09095916897058487],[-0.01802966743707657],[0.08870827406644821],[-0.018753571435809135],[-0.2149629443883896],[-0.0957900658249855],[0.0043271249160170555],[-0.23733434081077576],[-0.008214011788368225],[-0.10593268275260925],[0.209778293967247],[-0.09287286549806595],[0.03755899891257286],[0.0838475301861763],[-0.05270523950457573],[-0.19095151126384735],[0.14869250357151031],[-0.07411863654851913],[-0.07128991931676865]]