[[0.05400175601243973],[-0.011899404227733612],[-0.0010239691473543644],[-0.1830601841211319],[-0.26607078313827515],[-0.14050056040287018],[-0.07146551460027695],[0.3243943452835083],[-0.17969302833080292],[0.00024304445832967758],[-0.18971793353557587],[-0.18718689680099487],[-0.2719479203224182],[-0.23160623013973236],[-0.12888842821121216],[-0.20259563624858856],[0.13088494539260864],[-0.3405473530292511],[0.09262202680110931],[0.0485670268535614],[-0.13998551666736603],[0.11092790216207504],[-0.09790102392435074],[-0.1238938644528389],[-0.02329311892390251],[-0.09756200760602951],[-0.08511101454496384],[0.025525851175189018],[0.02680494263768196],[0.06056855246424675],[0.11429198831319809],[-0.0750633031129837],[0.26046672463417053],[0.01642599143087864],[0.27031561732292175],[0.13462620973587036],[-0.0010378493461757898],[-0.061997830867767334],[0.05731304734945297],[-0.04640939086675644],[0.29030904173851013],[-0.02243916504085064],[-0.15413787961006165],[0.09307514876127243],[0.3968402147293091],[0.1962895691394806],[-0.18693943321704865],[0.301114946603775],[-0.15854616463184357],[-0.03941934555768967],[0.08108986914157867],[0.04845668375492096],[0.052560802549123764],[0.04961959272623062],[-0.10182301700115204],[0.06522557884454727],[-0.1194843202829361],[0.02759530581533909],[-0.023789530619978905],[-0.20610982179641724],[0.09582935273647308],[-0.012193980626761913],[-0.1409623920917511],[0.07160083204507828],[-0.13938693702220917],[0.04325253888964653],[-0.0844634473323822],[0.07772693037986755],[0.000689255422912538],[-0.0876006931066513],[0.05235587805509567],[-0.19566407799720764],[-0.34864822030067444],[-0.07285097241401672],[-0.2197425812482834],[0.015404505655169487],[-0.07369984686374664],[-0.07400147616863251],[-0.10798493027687073],[-0.04760422930121422],[0.1640959233045578],[-0.03892747312784195],[-0.06898427754640579],[0.048915572464466095],[-0.18809743225574493],[-0.23848937451839447],[0.43699848651885986],[0.21753183007240295],[0.03366394713521004],[-0.2670619785785675],[0.09700647741556168],[-0.27236849069595337],[0.14139339327812195],[0.04046817868947983],[0.01582951657474041],[-0.0200104508548975],[-0.24809759855270386],[-0.21379226446151733],[-0.027609478682279587],[-0.09440857917070389],[0.1334783285856247],[-0.13124385476112366],[0.1454014629125595],[-0.018368860706686974],[0.2419368326663971],[-0.06516385078430176],[-0.33496156334877014],[0.01433655247092247],[-0.2083171308040619],[0.38556110858917236],[-0.23779259622097015],[-0.07860496640205383],[0.12983626127243042],[-0.11646191775798798],[-0.044236920773983],[-0.11663524061441422],[-0.05064614862203598],[-0.14846603572368622],[-0.12993839383125305],[0.2028210163116455],[0.002309923991560936],[-0.11688084900379181],[0.0404454730451107],[-0.2082572877407074],[-0.06797061860561371],[0.11735354363918304],[-0.08884765952825546],[-0.11615303158760071]]