[[-0.03268646448850632],[-0.12094736844301224],[-0.05592658743262291],[-0.24959036707878113],[0.014263518154621124],[-0.04499509930610657],[0.17437656223773956],[0.12677474319934845],[-0.008598536252975464],[-0.20211292803287506],[-0.17497755587100983],[-0.3860343098640442],[-0.06846780329942703],[-0.12050092220306396],[-0.09027909487485886],[-0.31573188304901123],[-0.05915907025337219],[-0.04949794337153435],[0.06698586046695709],[0.03221571072936058],[0.09029287844896317],[0.016024312004446983],[-0.3987823724746704],[-0.2843201756477356],[-0.08579442650079727],[0.31558576226234436],[-0.31777557730674744],[0.27137476205825806],[0.09843090176582336],[0.09495081752538681],[-0.43539366126060486],[-0.23841235041618347],[0.07335931062698364],[-0.12428963929414749],[-0.30051153898239136],[-0.12332410365343094],[-0.2378416210412979],[0.18345798552036285],[0.0588347390294075],[-0.1934441179037094],[0.19942991435527802],[0.01718842424452305],[0.28828123211860657],[-0.05888942629098892],[0.08590570837259293],[-0.30731678009033203],[-0.13082371652126312],[-0.20362482964992523],[-0.3397223949432373],[-0.07260608673095703],[-0.03859052062034607],[-0.06410914659500122],[-0.046528421342372894],[0.28376850485801697],[-0.2795654535293579],[-0.049813561141490936],[-0.11622751504182816],[0.1607624590396881],[0.24759215116500854],[-0.4407399594783783],[-0.19459861516952515],[-0.14610394835472107],[-0.33142295479774475],[0.04032668471336365]]