[[-0.09162209182977676],[0.36407357454299927],[0.09757182747125626],[-0.31354254484176636],[0.09419003874063492],[-0.19457723200321198],[-0.31263184547424316],[0.5669606328010559],[-0.17969302833080292],[0.1305205225944519],[0.032594215124845505],[0.027876315638422966],[-0.44097092747688293],[-0.23009106516838074],[-0.08939853310585022],[-0.13004887104034424],[0.00037336896639317274],[-0.48626604676246643],[0.10733926296234131],[-0.007557151839137077],[-0.015484167262911797],[0.2902924120426178],[-0.15273386240005493],[-0.062374453991651535],[-0.12800033390522003],[-0.226658895611763],[-0.08896981924772263],[-0.07622213661670685],[0.38556569814682007],[-0.005288232117891312],[-0.1245596632361412],[-0.018693823367357254],[0.22376279532909393],[-0.07348638027906418],[0.1440342515707016],[0.3309594988822937],[-0.0483325831592083],[-0.13950738310813904],[0.10053219646215439],[-0.06456435471773148],[0.6487501263618469],[-0.2846868634223938],[-0.06277459114789963],[-0.08592122048139572],[0.6063179969787598],[0.25066080689430237],[-0.3187287151813507],[0.22086866199970245],[-0.1586976796388626],[-0.10861619561910629],[0.2376922369003296],[0.1944400668144226],[0.21118924021720886],[0.21453537046909332],[-0.3401296138763428],[-0.06029545143246651],[-0.1194843202829361],[0.022015802562236786],[-0.1284182369709015],[-0.20610982179641724],[0.06400338560342789],[0.19538526237010956],[-0.19315922260284424],[-0.060384899377822876],[0.12448912858963013],[0.04322054982185364],[-0.22155550122261047],[0.03242012485861778],[-0.002008503070101142],[-0.2195279747247696],[0.20183821022510529],[-0.014296936802566051],[-0.6403169631958008],[-0.0008876689826138318],[-0.33012253046035767],[0.3100069463253021],[0.162631556391716],[-0.07400527596473694],[-0.23452889919281006],[-0.18030698597431183],[0.25221914052963257],[0.1223512589931488],[-0.05068085715174675],[0.11999865621328354],[-0.3135303556919098],[0.137289360165596],[0.7361950874328613],[0.11109030246734619],[0.03366156294941902],[-0.4403144121170044],[-0.11992429196834564],[-0.27321335673332214],[0.294047087430954],[0.17420372366905212],[0.12793409824371338],[-0.21145464479923248],[-0.11820503324270248],[-0.34606340527534485],[-0.13987194001674652],[-0.23047858476638794],[0.005639764945954084],[-0.2633213400840759],[0.11488845944404602],[0.048385560512542725],[0.13094717264175415],[-0.23727160692214966],[-0.5677937865257263],[0.19296714663505554],[-0.07786836475133896],[0.6431165933609009],[-0.295906126499176],[-0.08672256767749786],[0.21220505237579346],[-0.28751006722450256],[-0.07219693064689636],[-0.14935541152954102],[-0.18291416764259338],[-0.14846603572368622],[-0.0653717964887619],[0.06801735609769821],[0.2588995397090912],[-0.25879913568496704],[0.22817137837409973],[-0.076003797352314],[-0.1510949283838272],[0.44447603821754456],[-0.10595586150884628],[-0.3075293004512787]]