[[-0.4255867898464203],[-0.25171852111816406],[0.19402571022510529],[-0.16381622850894928],[0.10827694833278656],[-0.21142907440662384],[0.05629706382751465],[-0.11870875209569931],[-0.36644434928894043],[-0.05328831076622009],[-0.14010004699230194],[-0.2546844482421875],[0.3067733943462372],[-0.034337613731622696],[-0.16658130288124084],[-0.30751705169677734],[-0.42364293336868286],[0.15100382268428802],[0.15000827610492706],[-0.07082317024469376],[-0.08384774625301361],[-0.02003868669271469],[-0.23846884071826935],[-0.03676500916481018],[0.11603081971406937],[-0.4417704939842224],[0.5069498419761658],[0.2836770713329315],[-0.18262125551700592],[-0.4625890254974365],[-0.1663714051246643],[0.1233595758676529],[0.4270032048225403],[-0.06826514005661011],[-0.14372220635414124],[-0.423503577709198],[0.047308675944805145],[0.018048912286758423],[-0.2655893862247467],[-0.4405283033847809],[-0.34058064222335815],[-0.19325333833694458],[-0.36950957775115967],[-0.06898922473192215],[-0.034988075494766235],[-0.2027921974658966],[0.012390927411615849],[-0.07672538608312607],[0.01681850478053093],[-0.03417150676250458],[-0.27999410033226013],[-0.11923367530107498],[-0.13978971540927887],[-0.025221597403287888],[-0.09693771600723267],[-0.09472072124481201],[-0.03071405552327633],[-0.20570242404937744],[-0.29205289483070374],[0.27449989318847656],[0.035431720316410065],[-0.13911235332489014],[-0.475239098072052],[-0.3109922409057617],[-0.5544959306716919],[-0.48078787326812744],[-0.167591392993927],[0.21686866879463196],[-0.16402728855609894],[-0.3427577018737793],[-0.02866595983505249],[-0.27153629064559937],[-0.42163142561912537],[0.18126609921455383],[0.1034107431769371],[0.13561131060123444],[0.032080356031656265],[-0.4479916989803314],[0.2664998471736908],[0.0698108822107315],[-0.3199121356010437],[-0.027129288762807846],[0.0780334398150444],[-0.1393013298511505],[-0.20769180357456207],[-0.17919543385505676],[-0.07497505843639374],[0.17676401138305664],[-0.053075261414051056],[0.08466003090143204],[-0.09095384925603867],[0.0936933159828186],[-0.03229698911309242],[0.46986454725265503],[-0.32794201374053955],[-0.3621806204319],[-0.08563124388456345],[0.2581254839897156],[-0.1307758241891861],[-0.2606922388076782],[0.1390780806541443],[-0.39161473512649536],[-0.12665651738643646],[-0.2763904631137848],[0.11881295591592789],[0.093534916639328],[0.04927301034331322],[-0.21215368807315826],[-0.0896335318684578],[-0.4667387008666992],[-0.08999555557966232],[-0.3627661168575287],[0.3852308392524719],[0.12898863852024078],[-0.08733905106782913],[0.002384853083640337],[-0.06519409269094467],[0.3986390233039856],[-0.07278814166784286],[0.23896697163581848],[-0.16878566145896912],[0.032051850110292435],[-0.07213383913040161],[-0.3186270594596863],[-0.1804535835981369],[0.06535568833351135],[-0.35225623846054077],[-0.08179052174091339],[0.01594853773713112],[0.24334284663200378],[-0.11251452565193176],[0.35880041122436523],[-0.2494957447052002],[0.14065402746200562],[-0.35709232091903687],[0.17312577366828918],[-0.11918652802705765],[-0.11513813585042953],[-0.13975542783737183],[-0.07520128041505814],[-0.31025347113609314],[-0.014043980278074741],[-0.07549431174993515],[-0.15170560777187347],[0.23937605321407318],[-0.22955091297626495],[-0.47408533096313477],[0.08272767066955566],[-0.009261490777134895],[0.1485397070646286],[-0.26063621044158936],[-0.07263433188199997],[-0.0072801378555595875],[-0.07361847907304764],[-0.1842951774597168],[0.5189735293388367],[-0.4876578152179718],[0.024262256920337677],[0.06422154605388641],[-0.18321140110492706],[0.49997276067733765],[-0.2864380180835724],[0.03244222700595856],[-0.4032057523727417],[0.19955159723758698],[-0.33744877576828003],[-0.12692709267139435],[0.038607776165008545],[0.2861654758453369],[0.2371135652065277],[0.04567824676632881],[-0.15728825330734253],[-0.19336631894111633],[-0.27095675468444824],[-0.3485226631164551],[0.12485440820455551],[0.3122030794620514],[0.0715426355600357],[0.055470459163188934],[0.22082513570785522],[-0.33302563428878784],[-0.18696679174900055],[-0.5188642740249634],[-0.05753231421113014],[0.11088390648365021],[-0.14848469197750092],[-0.15097957849502563],[-0.1185271292924881],[0.1258881539106369],[-0.14691583812236786],[-0.5065109133720398],[0.3641171157360077],[0.18478277325630188],[0.0465623140335083],[-0.43752527236938477],[-0.24332772195339203],[-0.17069101333618164],[0.25491854548454285],[0.3445708155632019],[-0.15797972679138184],[-0.1889571100473404],[-0.10630238801240921],[-0.14998337626457214],[0.09802756458520889],[0.07253435999155045],[-0.4042021334171295],[-0.20682215690612793],[-0.13066616654396057],[-0.2603946030139923],[-0.1417899876832962],[-0.500798225402832],[0.11894526332616806],[-0.5178151726722717],[-0.14302754402160645],[-0.36989426612854004],[0.1034613624215126],[0.023167353123426437],[0.08088341355323792],[-0.07186543941497803],[0.496173232793808],[-0.22746844589710236],[0.12505023181438446],[-0.22599640488624573],[0.05576586723327637],[0.15283478796482086],[-0.20873399078845978],[-0.32475847005844116],[-0.03174476698040962],[-0.05283840000629425],[-0.12458950281143188],[-0.5534536838531494],[0.1503167450428009],[-0.27395540475845337],[-0.2917376756668091],[-0.23100900650024414],[-0.09536411613225937],[-0.07901298999786377],[-0.35331133008003235],[-0.04531041905283928],[0.1494477093219757],[0.21030393242835999],[-0.2028171718120575],[-0.09789188206195831],[0.07744220644235611],[-0.5324769020080566],[-0.3403276205062866],[-0.14939260482788086],[0.10033664852380753],[-0.33174511790275574],[0.07623347640037537],[0.20991568267345428],[0.05289794132113457],[-0.07492045313119888],[0.03771763667464256],[-0.21095921099185944],[0.000033939009881578386]]