[[-0.4255884885787964],[-0.2517417371273041],[0.3333389461040497],[-0.16434410214424133],[0.10821453481912613],[-0.21178099513053894],[0.0566808357834816],[-0.12271460145711899],[-0.3698299825191498],[-0.053257789462804794],[-0.0034092096611857414],[-0.2567080855369568],[0.26866427063941956],[-0.16080397367477417],[-0.040999867022037506],[-0.3074882924556732],[-0.42842647433280945],[0.1489109843969345],[0.1510135382413864],[-0.07115986943244934],[-0.08332647383213043],[-0.020371994003653526],[-0.2382269650697708],[-0.03658970072865486],[-0.016686223447322845],[-0.44181686639785767],[0.3713234066963196],[0.28288570046424866],[-0.047279227524995804],[-0.46285659074783325],[-0.16633948683738708],[0.12383855134248734],[0.5504222512245178],[-0.0691266804933548],[-0.004790498409420252],[-0.42355871200561523],[0.09596338868141174],[0.15506868064403534],[-0.1333814263343811],[-0.4426270127296448],[-0.3400009870529175],[-0.19232392311096191],[-0.36963266134262085],[-0.06919632107019424],[0.07389701157808304],[-0.309556782245636],[-0.12430329620838165],[-0.20710711181163788],[0.016766324639320374],[-0.16648751497268677],[-0.279961496591568],[0.020403511822223663],[-0.14286646246910095],[0.08029279857873917],[-0.22841757535934448],[0.043191783130168915],[-0.16691546142101288],[-0.20588944852352142],[-0.2922227382659912],[0.13835963606834412],[0.038523804396390915],[-0.13932810723781586],[-0.4755306541919708],[-0.17280106246471405],[-0.5514636039733887],[-0.4807722568511963],[-0.1008908674120903],[0.21743236482143402],[-0.16414077579975128],[-0.21585461497306824],[-0.1614190936088562],[-0.27156129479408264],[-0.4238935112953186],[0.1811547428369522],[0.10336025804281235],[0.005319047719240189],[-0.1019367128610611],[-0.44853174686431885],[0.26985183358192444],[0.20696108043193817],[-0.3199121356010437],[-0.15854452550411224],[0.07805254310369492],[-0.139570951461792],[-0.08289553970098495],[-0.17919638752937317],[-0.07837989926338196],[0.040370531380176544],[-0.052976854145526886],[0.0824570506811142],[0.03596924617886543],[-0.031195981428027153],[-0.03495645150542259],[0.3344772458076477],[-0.4598717987537384],[-0.22654424607753754],[-0.08604646474123001],[0.12559308111667633],[-0.1310572624206543],[-0.2592652142047882],[0.13931553065776825],[-0.39228615164756775],[-0.2626259922981262],[-0.27924731373786926],[-0.01162682007998228],[0.09134000539779663],[-0.08567462116479874],[-0.2159653902053833],[-0.08658955246210098],[-0.4708380699157715],[-0.0858895406126976],[-0.3630504310131073],[0.5224004983901978],[0.1287660151720047],[-0.08724983036518097],[0.0023796050809323788],[0.05494069680571556],[0.27551335096359253],[-0.07260752469301224],[0.2392793893814087],[-0.30513879656791687],[0.0331580825150013],[-0.07328876107931137],[-0.3187422752380371],[-0.1804891675710678],[0.06559759378433228],[-0.2165282815694809],[-0.0892869383096695],[0.012042887508869171],[0.24400876462459564],[-0.2474127858877182],[0.22358481585979462],[-0.37829309701919556],[0.14042876660823822],[-0.355558842420578],[0.17300698161125183],[-0.11786963045597076],[-0.11514017730951309],[-0.13989010453224182],[-0.07573740929365158],[-0.17051275074481964],[0.12155486643314362],[-0.07573201507329941],[-0.15139874815940857],[0.10317342728376389],[-0.10275141894817352],[-0.47551703453063965],[0.21728301048278809],[-0.006767876446247101],[0.14849893748760223],[-0.26099956035614014],[-0.0723666101694107],[-0.007351135369390249],[0.06237432733178139],[-0.18475991487503052],[0.6011466979980469],[-0.4874202311038971],[0.026257000863552094],[0.06385364383459091],[-0.18413932621479034],[0.5044159293174744],[-0.28716257214546204],[0.03575892746448517],[-0.5326836109161377],[0.19911199808120728],[-0.3813982903957367],[-0.12692709267139435],[0.0389665812253952],[0.14909398555755615],[0.23595738410949707],[0.12261201441287994],[-0.15911760926246643],[-0.19086787104606628],[-0.27110326290130615],[-0.3483092188835144],[0.12481439113616943],[0.4499635100364685],[0.07163906842470169],[0.19309628009796143],[0.0938706174492836],[-0.33447471261024475],[-0.14556095004081726],[-0.5228697657585144],[-0.19746586680412292],[0.11101216077804565],[-0.2821334898471832],[-0.1520618200302124],[-0.11980816721916199],[0.12570782005786896],[-0.1468825489282608],[-0.5066890716552734],[0.49976491928100586],[0.18491815030574799],[0.1808028370141983],[-0.43770986795425415],[-0.24365711212158203],[-0.1707586944103241],[0.2589772045612335],[0.3474629819393158],[-0.1586845964193344],[-0.19064171612262726],[-0.24285969138145447],[-0.05379922688007355],[-0.0381600446999073],[0.07234593480825424],[-0.30439436435699463],[-0.30658453702926636],[-0.13007454574108124],[-0.397062212228775],[-0.2651030421257019],[-0.501114010810852],[0.11895683407783508],[-0.5167108178138733],[-0.14590181410312653],[-0.36998727917671204],[0.10270513594150543],[0.022365402430295944],[-0.03307599946856499],[-0.2061387002468109],[0.3765604794025421],[-0.09074000269174576],[0.2633909285068512],[-0.2259623259305954],[0.05671263858675957],[0.15157286822795868],[-0.2084932029247284],[-0.18848828971385956],[-0.16819779574871063],[-0.05270984023809433],[0.011241469532251358],[-0.5565792918205261],[0.1501397341489792],[-0.4080226719379425],[-0.29207247495651245],[-0.09471184760332108],[0.03966684639453888],[-0.08276864141225815],[-0.3568028509616852],[-0.045303668826818466],[0.19740037620067596],[0.3087240755558014],[-0.20359019935131073],[-0.0971129983663559],[-0.0491516999900341],[-0.5351281762123108],[-0.3401721715927124],[-0.1523798555135727],[-0.032505303621292114],[-0.33221304416656494],[0.07550695538520813],[0.34704074263572693],[-0.08069127798080444],[-0.20751577615737915],[0.037611570209264755],[-0.21106579899787903],[-0.13467666506767273]]