[[0.057715438306331635],[0.49993056058883667],[0.1640855371952057],[-0.31828880310058594],[0.23328441381454468],[-0.27497902512550354],[-0.3164754807949066],[0.5723571181297302],[-0.17969302833080292],[0.1305205225944519],[0.14210495352745056],[0.05471837520599365],[-0.44331222772598267],[-0.23009106516838074],[-0.08939853310585022],[-0.13005073368549347],[-0.004372987896203995],[-0.4863359332084656],[-0.02087624929845333],[-0.007557151839137077],[-0.02053845487535],[0.23290851712226868],[-0.15273386240005493],[-0.19562143087387085],[-0.12800033390522003],[-0.2313951551914215],[-0.08896981924772263],[-0.0773237869143486],[0.3994828462600708],[-0.0060830083675682545],[-0.1282835304737091],[-0.12722568213939667],[0.23966483771800995],[-0.15811169147491455],[0.14402896165847778],[0.3300771117210388],[-0.04781584069132805],[-0.13950760662555695],[0.1259128898382187],[-0.06461017578840256],[0.6528387069702148],[-0.2894149124622345],[-0.06158905848860741],[-0.08592122048139572],[0.7544368505477905],[0.24205009639263153],[-0.3187287151813507],[0.17427599430084229],[-0.1586976796388626],[-0.10861619561910629],[0.22729897499084473],[0.13832086324691772],[0.0999692976474762],[0.2116049975156784],[-0.3401297926902771],[-0.06318580359220505],[-0.1194843202829361],[0.01729537546634674],[-0.12915079295635223],[-0.20610982179641724],[0.06400123983621597],[0.3125879466533661],[-0.2474757730960846],[-0.06038516387343407],[0.26290157437324524],[0.04322054982185364],[-0.2262953668832779],[0.032420121133327484],[-0.005086683668196201],[-0.22337637841701508],[0.23412124812602997],[-0.014242108911275864],[-0.6441226005554199],[-0.0002500831615179777],[-0.21223315596580505],[0.29938188195228577],[0.16601359844207764],[-0.07400527596473694],[-0.23479901254177094],[-0.18030720949172974],[0.11902207881212234],[0.12293245643377304],[-0.1697377860546112],[0.10606849938631058],[-0.3135303556919098],[-0.0013080539647489786],[0.6110377907752991],[-0.02540809102356434],[0.03366156294941902],[-0.4403145909309387],[-0.12352515012025833],[-0.27321335673332214],[0.351412832736969],[0.3014942407608032],[0.1277497112751007],[-0.21207505464553833],[-0.11820477992296219],[-0.34606340527534485],[-0.13987216353416443],[-0.23047858476638794],[0.0056397090665996075],[-0.19342561066150665],[0.11488845944404602],[-0.007846861146390438],[0.2653101086616516],[-0.23727160692214966],[-0.5684336423873901],[0.3000396490097046],[-0.07786833494901657],[0.7786563038825989],[-0.16039931774139404],[-0.08261828869581223],[0.36652928590774536],[-0.3637324273586273],[-0.033866867423057556],[-0.1493551880121231],[-0.18291416764259338],[-0.14846603572368622],[-0.0653717964887619],[-0.08156131207942963],[0.3946567177772522],[-0.1343006193637848],[0.3978624641895294],[-0.1987723857164383],[-0.1510949283838272],[0.5587726831436157],[-0.10595586150884628],[-0.31174522638320923]]