[[-0.09449949860572815,-0.33457836508750916,0.35002630949020386,0.28975754976272583,-0.21201089024543762,0.046145301312208176,-0.10699605941772461,-0.14279216527938843,-0.06573814898729324,-0.1865609586238861,0.3426065444946289,-0.40905916690826416,0.2529207766056061,-0.0035174221266061068,-0.20780497789382935,0.460997611284256,0.1619974970817566,-0.4408385455608368,0.07169314473867416,-0.10160110145807266,-0.131765678524971,-0.09721856564283371,-0.09916214644908905,-0.03961432725191116,-0.04901782050728798,0.045733269304037094,0.03028264455497265,-0.07424145936965942,0.02484116330742836,0.010626976378262043,-0.21987460553646088,0.02637399733066559,-0.4073352515697479,0.14537671208381653,0.3468315005302429,-0.2736879587173462,0.10782982409000397,-0.17099228501319885,-0.21618150174617767,-0.033236317336559296,0.3183569312095642,-0.16741131246089935,0.23076538741588593,-0.20589926838874817,-0.13170377910137177,-0.23597702383995056,0.03196876868605614,0.17469251155853271,-0.03953457623720169,0.21880961954593658,-0.20035448670387268,0.1345929503440857,0.24740754067897797,-0.09992805868387222,0.13687731325626373,-0.26257291436195374,0.34155285358428955,0.18400424718856812,-0.2270953208208084,-0.08895692229270935,-0.2282998114824295,0.16105420887470245,-0.04971599951386452,-0.19678883254528046,-0.020376503467559814,-0.02620202861726284,0.03790098428726196,-0.26006510853767395,0.05967838689684868,-0.04370223730802536,-0.28123733401298523,0.019726622849702835,0.08002204447984695,-0.17424970865249634,-0.18274466693401337,0.1854362189769745,-0.1677248775959015,-0.09647662937641144,-0.2605530619621277,0.18890756368637085,-0.023418953642249107,-0.03575781732797623,-0.09713991731405258,0.11246276646852493,-0.215168759226799,0.1952802836894989,-0.13368606567382812,-0.004054184537380934,-0.3365306556224823,0.026250721886754036,0.05606938526034355,-0.3976074755191803,0.26221054792404175,-0.1342424601316452,0.2609318494796753,-0.008777099661529064,-0.07451540231704712,0.04616235941648483,-0.01883937604725361,-0.16991163790225983,0.09374963492155075,0.18250051140785217,-0.006547989789396524,-0.1859605461359024,-0.14650364220142365,0.011573907919228077,0.00859768409281969,0.14992789924144745,0.024710258468985558,0.26646924018859863,0.008963651023805141,0.13342571258544922,0.19787535071372986,-0.10645740479230881,0.10727820545434952,0.2817411720752716,0.2189824879169464,0.17253179848194122,-0.22678202390670776,-0.05566505342721939,-0.05057753250002861,-0.02894059382379055,-0.03501591831445694,-0.015395458787679672,-0.16455747187137604,0.08662339299917221,-0.281240314245224,0.12314526736736298,0.07332050055265427,0.025399398058652878,0.020930403843522072,-0.22791054844856262,0.1161678358912468,0.06510131806135178,0.09588080644607544,-0.051738373935222626,0.10735901445150375,0.050023917108774185],[-0.09510298073291779,-0.3798058331012726,-0.12221887707710266,0.08656295388936996,0.1482831984758377,0.1485082507133484,-0.19775143265724182,-0.22734147310256958,0.04889994114637375,0.000037783956940984353,0.048852577805519104,-0.1467081606388092,0.010242631658911705,0.02405804581940174,-0.31984061002731323,-0.19950295984745026,0.1526802033185959,-0.05483094975352287,0.19729731976985931,0.0034809045027941465,0.3655751049518585,0.03633487969636917,-0.466898649930954,-0.16231811046600342,-0.01707298494875431,0.117563895881176,-0.17455194890499115,-0.022993063554167747,-0.32333067059516907,-0.07536403834819794,0.12362010031938553,0.2035835087299347,0.2171071469783783,0.12548300623893738,0.020682889968156815,0.07179560512304306,0.20750121772289276,-0.03294849395751953,-0.02087121084332466,-0.04137137159705162,0.19602517783641815,-0.06251344829797745,-0.12616509199142456,0.2246295064687729,-0.09033703804016113,-0.10502322018146515,-0.17019346356391907,-0.04908420145511627,-0.11771602928638458,0.07564596086740494,-0.2938944697380066,0.19949091970920563,0.054689064621925354,-0.12700042128562927,-0.1696537435054779,-0.21403461694717407,0.07410863786935806,-0.07904002070426941,0.07992054522037506,-0.08235807716846466,0.02295934408903122,0.17188018560409546,-0.15001943707466125,-0.04756295680999756,0.03635937720537186,0.04243740811944008,0.22760090231895447,-0.2580104470252991,0.20669960975646973,-0.15228404104709625,-0.06762705743312836,0.034403007477521896,-0.3022524416446686,-0.07860337197780609,-0.02826509438455105,0.2324981391429901,-0.3053218722343445,-0.03530089557170868,-0.33181899785995483,0.052387986332178116,0.04431126266717911,-0.06754596531391144,-0.39657270908355713,0.03953234478831291,0.1858942061662674,-0.07755058258771896,0.0697496235370636,-0.14171521365642548,0.035291820764541626,-0.30921995639801025,0.07691420614719391,0.05966506898403168,-0.261244535446167,0.011535105295479298,0.11055559664964676,0.2840639352798462,0.07334800809621811,0.34560829401016235,-0.06510879844427109,0.006928741000592709,0.10895926505327225,0.052473463118076324,0.29895874857902527,-0.18854086101055145,-0.3057284355163574,0.2207236886024475,0.27941596508026123,-0.1536351889371872,0.023888999596238136,0.17531000077724457,-0.146739199757576,-0.1069071888923645,0.17576634883880615,0.005365925375372171,0.1979188621044159,0.136272132396698,0.05442694574594498,-0.35618850588798523,-0.052388064563274384,-0.1992790251970291,0.04426468536257744,0.13928449153900146,-0.025939637795090675,-0.003584429854527116,-0.15107540786266327,0.023026101291179657,-0.09363192319869995,0.039761848747730255,0.07811728119850159,0.08635970205068588,0.11215417832136154,0.31272414326667786,0.08521206676959991,-0.0666666105389595,-0.5202040076255798,-0.06342726200819016,-0.007899211719632149,0.18571268022060394],[-0.05834784358739853,-0.14878690242767334,-0.1993417888879776,0.06380567699670792,0.47272729873657227,0.3350752592086792,-0.28418368101119995,-0.1711670309305191,0.24660712480545044,-0.032700370997190475,-0.18584886193275452,0.24582339823246002,-0.2950934171676636,0.28905314207077026,0.09468452632427216,0.38380834460258484,-0.04876389726996422,-0.040986884385347366,-0.5051042437553406,0.24151015281677246,-0.16332589089870453,-0.0318838469684124,0.2635064423084259,0.4120021164417267,0.13047361373901367,-0.29226741194725037,0.14478248357772827,0.15382154285907745,0.10819242894649506,-0.2810783386230469,-0.24133768677711487,-0.2847908139228821,-0.10211782157421112,0.04667120426893234,0.11807416379451752,-0.005759811494499445,0.08555172383785248,-0.03969757258892059,-0.02439822070300579,-0.1755506843328476,-0.052355170249938965,-0.03809119388461113,-0.23828159272670746,0.06321878731250763,-0.0025606260169297457,-0.2789471447467804,0.05650043860077858,-0.1297873556613922,0.1496535688638687,-0.010047264397144318,0.1644340604543686,0.022468339651823044,-0.21128229796886444,-0.29128000140190125,0.2518070340156555,0.03453880548477173,0.22220303118228912,0.24335382878780365,0.3163517415523529,-0.14391487836837769,-0.27663081884384155,0.2820569574832916,-0.027312511578202248,0.0998193770647049,0.01850387267768383,0.107908234000206,0.1926327645778656,0.09354984015226364,0.2538553774356842,0.09324614703655243,-0.0862901508808136,0.4922277331352234,0.13079464435577393,-0.2410677969455719,0.07988516241312027,-0.35506895184516907,-0.01006186194717884,0.0036236648447811604,0.10984551906585693,-0.10244744271039963,0.06643027812242508,-0.23735928535461426,-0.1737600415945053,0.5103247165679932,0.22048412263393402,-0.29669657349586487,-0.32160478830337524,0.03341037407517433,0.189616397023201,-0.10970662534236908,-0.40553879737854004,-0.17006264626979828,0.02338801510632038,-0.16546650230884552,0.1454392671585083,0.03871572017669678,-0.22729773819446564,-0.06525436043739319,0.0838795155286789,0.3770054280757904,-0.05514782294631004,-0.12921832501888275,0.15551775693893433,0.5119861960411072,0.035762280225753784,-0.028696248307824135,-0.021522490307688713,-0.032370008528232574,0.07169929146766663,0.08747508376836777,0.09553586691617966,-0.5381317138671875,-0.06352691352367401,-0.10938254743814468,-0.47636163234710693,-0.032981231808662415,-0.2522296905517578,0.09795764833688736,0.10896232724189758,-0.268511027097702,0.2468622773885727,0.05316729098558426,0.012724801898002625,0.09959753602743149,0.0015374552458524704,-0.05728898569941521,-0.12002161890268326,0.12190631031990051,-0.25832805037498474,0.1839209645986557,0.29420843720436096,-0.09297552704811096,0.184287428855896,0.2504907250404358,-0.17398899793624878,-0.06192678213119507,0.0847882330417633,0.15730729699134827],[0.033022113144397736,-0.006638549268245697,0.20414426922798157,-0.17440852522850037,-0.2676483392715454,0.14553916454315186,-0.1541435271501541,-0.08295703679323196,-0.20410823822021484,-0.07644318789243698,-0.24658961594104767,0.054127227514982224,0.17701640725135803,-0.15826669335365295,0.2300129532814026,-0.14314089715480804,-0.05667274817824364,0.1530257910490036,0.37168049812316895,0.14241835474967957,-0.3693913221359253,0.11942072957754135,-0.2659611999988556,-0.030278505757451057,-0.20379425585269928,-0.0219813771545887,-0.20395991206169128,0.043904032558202744,0.13688679039478302,0.3750348389148712,-0.05026903748512268,0.22390355169773102,0.12509280443191528,-0.09348834306001663,0.3555300831794739,0.1819337159395218,0.3491012156009674,-0.18344028294086456,0.26693350076675415,0.360308438539505,0.12498036026954651,-0.1884211003780365,-0.015744434669613838,0.030893400311470032,0.28153616189956665,-0.2398090809583664,0.02608524262905121,-0.3453833758831024,0.2823924124240875,0.07980146259069443,-0.4250015318393707,-0.0106069790199399,0.17647987604141235,-0.3642023801803589,-0.36958688497543335,-0.1282002478837967,0.07624160498380661,0.027360927313566208,-0.07293908298015594,-0.15735146403312683,0.4377106726169586,0.507451593875885,0.1722555309534073,0.20497284829616547,0.07896733283996582,0.3472949266433716,0.025385290384292603,0.1781054437160492,-0.275810569524765,0.06136765703558922,0.06834493577480316,-0.2703534960746765,-0.3191598653793335,-0.016182783991098404,0.15466085076332092,0.1953902691602707,-0.09587211906909943,0.007383952848613262,-0.30805444717407227,0.1241268664598465,0.15481694042682648,-0.18959182500839233,0.09551344066858292,0.1877693235874176,-0.013268813490867615,0.03708711639046669,0.01721971295773983,0.192768394947052,-0.6090107560157776,-0.06283117830753326,-0.04680945351719856,-0.08200279623270035,0.1355389505624771,-0.08616183698177338,-0.004713072907179594,-0.025826094672083855,-0.06460035592317581,-0.30656614899635315,0.16206221282482147,0.3392754793167114,0.19052548706531525,-0.06895606219768524,0.3145066201686859,-0.19632068276405334,0.28452572226524353,0.258757084608078,-0.17422693967819214,-0.10773243755102158,-0.18674594163894653,0.11259657889604568,0.16930954158306122,-0.10239919275045395,0.26681822538375854,0.16701190173625946,-0.1592031568288803,-0.4028664529323578,0.007498022168874741,0.04164237901568413,-0.03173504024744034,-0.2879928648471832,-0.14740687608718872,0.18652406334877014,-0.13082189857959747,0.056389614939689636,0.2671670615673065,0.30535319447517395,0.20316049456596375,-0.05602877587080002,0.22633621096611023,0.16694222390651703,0.0907304510474205,0.2978791892528534,-0.25191420316696167,-0.030137013643980026,-0.07555698603391647,-0.513469934463501,-0.17904727160930634,-0.028553131967782974],[-0.1760721504688263,0.14225763082504272,0.2664136290550232,0.047105640172958374,-0.01565767452120781,0.4011686146259308,0.03591834753751755,-0.3064882457256317,-0.23389501869678497,-0.21248571574687958,0.28484317660331726,-0.0922248363494873,0.2868213951587677,0.08100645989179611,-0.0046948655508458614,0.01130949892103672,-0.16538645327091217,-0.21722973883152008,0.14267049729824066,-0.27658358216285706,0.07834108918905258,-0.1399058848619461,-0.10094870626926422,0.11226382851600647,0.11519864946603775,0.322212278842926,-0.33752161264419556,-0.18289610743522644,-0.06974277645349503,-0.31735751032829285,-0.009473634883761406,0.09058850258588791,0.07309761643409729,0.15799061954021454,-0.1581152379512787,-0.2598137855529785,-0.042844176292419434,0.3712932765483856,-0.02589503303170204,0.07805133610963821,0.2127487063407898,0.15872417390346527,-0.0013571373419836164,0.13682971894741058,-0.3753025531768799,-0.017705166712403297,-0.1500297486782074,0.07811468094587326,0.004473317414522171,0.18875743448734283,-0.16220805048942566,-0.20590633153915405,0.3193446099758148,-0.33871403336524963,0.0017824037931859493,0.2086048275232315,-0.11642034351825714,-0.1808314025402069,-0.025764213874936104,0.0006496735149994493,0.18334384262561798,-0.07413499057292938,-0.16374565660953522,0.2059769332408905,-0.026191070675849915,0.3074328899383545,-0.48277896642684937,0.03112756833434105,-0.23699899017810822,0.3754952549934387,-0.027919840067625046,0.34442442655563354,-0.12003490328788757,-0.12831662595272064,0.07512467354536057,-0.052867818623781204,0.39441046118736267,0.11591967940330505,0.10467012226581573,0.14214284718036652,-0.13608820736408234,0.16461512446403503,-0.016406001523137093,-0.017241058871150017,-0.1687982678413391,-0.2284005880355835,-0.025465356186032295,-0.15978562831878662,-0.15665461122989655,0.21546295285224915,-0.061820656061172485,-0.07141721993684769,0.1467517763376236,0.04988966882228851,-0.22036004066467285,-0.09759652614593506,0.09256386011838913,0.13669048249721527,0.19267334043979645,-0.16758455336093903,0.13934588432312012,0.3835832178592682,-0.021741550415754318,-0.21314916014671326,0.027458755299448967,-0.13355803489685059,-0.1311497837305069,0.1301673948764801,0.13638897240161896,0.09359930455684662,-0.062233008444309235,0.34108373522758484,0.24936988949775696,-0.34054481983184814,0.11577372997999191,0.18274347484111786,0.12264019250869751,-0.029412023723125458,0.13324891030788422,0.07413429021835327,0.015946723520755768,0.08688826858997345,-0.12539492547512054,0.23897486925125122,-0.32195019721984863,-0.23939500749111176,-0.0458805188536644,-0.04307006672024727,0.3036077618598938,0.12716230750083923,0.11957922577857971,-0.010165599174797535,0.04802399128675461,0.04201079159975052,-0.054912857711315155,-0.2684427499771118,0.11639642715454102,0.2328149527311325],[-0.4338412284851074,0.29980596899986267,-0.1029476448893547,0.023680178448557854,0.13694609701633453,0.13238169252872467,0.23553064465522766,-0.006015097722411156,-0.3060004711151123,-0.18619641661643982,0.20140890777111053,0.0827096551656723,0.26798146963119507,0.2731081545352936,-0.450790137052536,-0.3877394199371338,-0.2847687304019928,-0.19164042174816132,0.011019816622138023,-0.19962455332279205,-0.022824468091130257,0.3349435329437256,0.06760495901107788,-0.3369402289390564,-0.03697868436574936,0.3649463653564453,-0.1197870597243309,-0.2282336950302124,0.01615322008728981,0.274244487285614,0.13989967107772827,0.11472204327583313,0.00005815302938572131,0.07412441819906235,-0.03682674840092659,-0.4210461676120758,-0.4208984673023224,0.15994155406951904,-0.21049509942531586,-0.19026143848896027,0.011075062677264214,0.0816211998462677,0.22487497329711914,0.19622595608234406,0.010445855557918549,0.2729536294937134,-0.3021678924560547,0.02790740691125393,-0.4677290618419647,0.11599524319171906,-0.13718533515930176,0.1636401265859604,0.3050297200679779,0.0004728991480078548,-0.14963611960411072,0.28278088569641113,-0.16568104922771454,-0.037018999457359314,0.1108294203877449,0.1341015249490738,0.28658172488212585,0.0959678366780281,-0.007705399300903082,-0.03206714987754822,-0.02948743849992752,-0.1447152942419052,-0.15247349441051483,-0.02985985577106476,-0.03808028995990753,0.18758408725261688,-0.04762032628059387,0.20235013961791992,0.017563166096806526,0.04183642938733101,0.13195250928401947,-0.11658331006765366,0.22784005105495453,0.02364729531109333,-0.14497998356819153,0.1600031703710556,0.1624562293291092,0.0759039968252182,0.25296685099601746,-0.20275986194610596,-0.025587251409888268,0.2320815771818161,-0.15212859213352203,-0.17520080506801605,0.23320914804935455,0.06728634238243103,-0.26600268483161926,-0.07297181338071823,0.05869099125266075,-0.018210692331194878,-0.28039634227752686,0.1894780695438385,-0.001530331908725202,-0.19067546725273132,-0.38498905301094055,-0.07289281487464905,-0.23769719898700714,-0.17342014610767365,-0.12440712004899979,-0.21180278062820435,0.36769378185272217,0.11680090427398682,0.21799121797084808,0.26528796553611755,-0.1607418656349182,-0.29867032170295715,0.05118677020072937,0.13835673034191132,0.21661782264709473,-0.2356703281402588,-0.15969112515449524,0.4202292263507843,-0.047455452382564545,0.0028905514627695084,-0.023321302607655525,-0.03524705395102501,-0.07905419170856476,-0.2668980062007904,0.025737125426530838,0.07553543895483017,-0.3878450095653534,-0.3452107310295105,0.03734036907553673,-0.2406359165906906,0.09022487699985504,-0.27300146222114563,0.16907359659671783,-0.029676148667931557,-0.024313529953360558,-0.3048585057258606,0.397793173789978,0.10524491220712662,0.02464532107114792,0.11866161972284317],[0.015199522487819195,-0.3873523473739624,0.0893542617559433,0.1925668865442276,-0.21369241178035736,0.049050748348236084,-0.11998946964740753,-0.244625523686409,0.2785027325153351,0.2973424196243286,0.11225168406963348,0.26891955733299255,-0.2877327501773834,-0.06598737835884094,0.26399263739585876,0.22903218865394592,0.36508211493492126,0.10431896895170212,0.3447989821434021,-0.2511475682258606,0.26223596930503845,-0.23975646495819092,-0.4767216145992279,0.21880853176116943,0.09512263536453247,-0.1464569866657257,-0.10216443985700607,0.1989937126636505,0.10499819368124008,-0.14445188641548157,-0.23418793082237244,0.03392832353711128,0.06216932460665703,0.1710713654756546,-0.36329689621925354,-0.07302434742450714,-0.01877598464488983,0.003184904344379902,-0.048166800290346146,0.07272709906101227,-0.20876146852970123,-0.14980608224868774,-0.20995907485485077,-0.3334800899028778,0.11933775246143341,-0.19530141353607178,0.0005279433680698276,0.04647620767354965,0.18794339895248413,0.0005462191184051335,0.026880618184804916,0.1440371572971344,-0.03499111533164978,-0.1385282576084137,0.40756529569625854,-0.021047251299023628,0.14711032807826996,-0.04961572587490082,0.3170236051082611,-0.08598421514034271,-0.11825590580701828,0.11823777854442596,-0.20104056596755981,-0.30471527576446533,-0.1515256017446518,-0.0929945707321167,-0.08413390070199966,-0.09361568093299866,0.25199320912361145,-0.2743503451347351,0.1492759734392166,-0.3190324306488037,-0.09068533778190613,-0.0568595789372921,-0.14654752612113953,-0.23094357550144196,-0.056749261915683746,0.026915377005934715,0.30726927518844604,-0.06343184411525726,0.09860323369503021,-0.11789342015981674,-0.3321908414363861,0.29670968651771545,-0.416233092546463,-0.06416012346744537,0.024523986503481865,0.15182077884674072,-0.08928555995225906,-0.19064617156982422,0.32457271218299866,0.1776011884212494,-0.047588594257831573,0.11631949990987778,0.3835402727127075,-0.2597910165786743,0.1429501622915268,-0.11537907272577286,0.11586989462375641,0.1954437494277954,-0.11132539063692093,-0.2586032450199127,-0.38982638716697693,0.4385640621185303,-0.35121089220046997,0.2770153284072876,-0.2925780415534973,0.26721566915512085,0.16051794588565826,0.01353408768773079,-0.00035176932578906417,-0.36277273297309875,0.03876079246401787,0.1746751070022583,-0.042246319353580475,0.045884083956480026,-0.402743399143219,0.18178941309452057,-0.20247359573841095,0.1931648552417755,0.15361300110816956,-0.21203982830047607,0.09046535938978195,0.12529434263706207,0.058425016701221466,0.4153236746788025,-0.2681240439414978,0.12330465018749237,-0.006824942771345377,-0.10345889627933502,0.05409998819231987,0.10071992129087448,0.16098806262016296,-0.13617239892482758,0.023610245436429977,-0.19939030706882477,0.2740902006626129,-0.05456733703613281],[-0.05905021354556084,0.09375309199094772,0.21173277497291565,0.18883466720581055,-0.07493264973163605,0.06634586304426193,-0.13374193012714386,0.056700244545936584,0.18220965564250946,-0.33622342348098755,0.042676929384469986,-0.15394043922424316,-0.14674332737922668,0.07042434811592102,-0.11083714663982391,-0.07871436327695847,-0.018985064700245857,-0.18155397474765778,0.12247510254383087,-0.16452676057815552,-0.05926113948225975,0.03751390427350998,-0.03475797921419144,-0.08944579213857651,0.08545302599668503,0.0626293495297432,-0.11426887661218643,0.22506918013095856,-0.07134535908699036,0.12300873547792435,0.23025649785995483,0.20874352753162384,0.12236768752336502,-0.14465217292308807,-0.07134175300598145,0.0431547574698925,-0.010054445825517178,-0.028747253119945526,0.039787352085113525,-0.012654109857976437,0.288017600774765,-0.12490012496709824,0.13131210207939148,0.1109514832496643,-0.1519562005996704,-0.09005492180585861,0.30884256958961487,0.2729966938495636,-0.26796576380729675,-0.2386179268360138,0.34273990988731384,-0.01813547872006893,0.2862357199192047,-0.14994482696056366,-0.2280610352754593,0.26782435178756714,-0.06913049519062042,0.11545770615339279,-0.1409716159105301,0.040954481810331345,-0.06400740891695023,-0.048540662974119186,-0.1542336344718933,0.25283148884773254,0.11180353164672852,-0.05736234411597252,0.21388442814350128,-0.01719272881746292,-0.03545393794775009,0.11343124508857727,0.09951695799827576,-0.00545661523938179,0.06043258681893349,0.08535394817590714,-0.16672497987747192,0.16287828981876373,-0.08069481700658798,-0.10856986790895462,0.2589768171310425,-0.1369694173336029,0.088840052485466,-0.10091003775596619,-0.05658850818872452,0.0766713097691536,0.1261681169271469,0.10002326220273972,0.03233690932393074,0.01971728727221489,-0.09104577451944351,-0.020266663283109665,-0.06903567165136337,0.2756575644016266,0.024964215233922005,-0.20150572061538696,0.04192584007978439,0.13206107914447784,-0.028305819258093834,0.08205729722976685,0.1908029466867447,-0.11249852925539017,0.16276788711547852,0.17545175552368164,-0.17588426172733307,0.13271301984786987,-0.21466486155986786,-0.014105047099292278,-0.2601492702960968,-0.18290314078330994,0.15197937190532684,0.18325388431549072,0.133992537856102,0.19260938465595245,-0.3688569962978363,-0.1570747345685959,0.27031460404396057,-0.20006047189235687,-0.13942430913448334,0.2628863751888275,-0.29406625032424927,-0.01676972582936287,0.09726934880018234,0.2367759495973587,-0.2290797084569931,0.15340958535671234,0.02702675759792328,-0.28180602192878723,0.25053319334983826,-0.09784939140081406,-0.08636664599180222,-0.17925627529621124,-0.006444710306823254,0.08482984453439713,0.09864777326583862,0.058903999626636505,-0.2902345657348633,-0.09477309882640839,0.32593807578086853,0.16349045932292938],[-0.0299180019646883,-0.19638581573963165,0.06048932299017906,-0.1360519528388977,-0.13885866105556488,-0.11269047111272812,-0.26397907733917236,0.0889681950211525,0.0426032692193985,0.028575550764799118,0.09438826143741608,0.30820029973983765,-0.39105224609375,0.044846680015325546,-0.08446474373340607,-0.04224560037255287,-0.050787895917892456,-0.05382372438907623,-0.12863388657569885,-0.10911062359809875,-0.06893885135650635,0.05826041102409363,-0.07571274042129517,0.4403247833251953,0.23544134199619293,-0.18394450843334198,-0.29864588379859924,-0.10542654246091843,-0.06265489012002945,-0.1962803453207016,0.029631473124027252,-0.09975171089172363,0.15541456639766693,-0.05275362730026245,-0.0595395602285862,0.02332860231399536,0.2481926679611206,0.07159829884767532,-0.40949758887290955,-0.12696300446987152,-0.24151116609573364,-0.011814280413091183,-0.0585770457983017,-0.04074232652783394,0.2786508798599243,-0.24966871738433838,-0.07095075398683548,-0.0329861044883728,-0.01072231400758028,0.1024014800786972,-0.06177100911736488,0.09811916202306747,-0.10504207760095596,-0.35914039611816406,0.17318907380104065,-0.05725514143705368,0.06172119081020355,0.02044736221432686,-0.1853485405445099,0.1926918625831604,0.22691115736961365,-0.06588012725114822,-0.34291917085647583,0.052528806030750275,0.07864505797624588,0.14865820109844208,0.03717629238963127,-0.19123081862926483,0.1433732658624649,-0.21435989439487457,-0.08455280214548111,0.007525998167693615,0.10704567283391953,0.1988646388053894,0.28162795305252075,0.24010156095027924,-0.23228490352630615,0.01799534633755684,-0.19152714312076569,-0.1111927404999733,0.003793188836425543,-0.06263694912195206,-0.26464614272117615,0.08967865258455276,0.28860631585121155,0.2730424404144287,-0.0954810157418251,-0.15575215220451355,0.1560947448015213,0.057238005101680756,0.26155588030815125,-0.18902955949306488,-0.27869564294815063,-0.19499826431274414,0.17015999555587769,0.008781684562563896,-0.04074231907725334,0.003900716546922922,-0.16534049808979034,0.0765594094991684,0.13282865285873413,0.2288568913936615,-0.004357699304819107,0.04955946281552315,-0.35970422625541687,0.4520304501056671,-0.03237522020936012,0.44746485352516174,-0.12380214780569077,0.06889042258262634,0.421265572309494,0.30859264731407166,-0.08535262942314148,0.06909049302339554,-0.037450335919857025,0.04446745663881302,-0.11335044354200363,-0.09185648709535599,-0.07104784995317459,0.11294352263212204,-0.02020474337041378,-0.05170326307415962,0.08910758048295975,-0.04028203338384628,-0.03595859557390213,0.096650630235672,-0.004935611039400101,-0.03574641793966293,0.21271225810050964,-0.17662900686264038,-0.27514591813087463,0.20710116624832153,0.013631511479616165,-0.2615458369255066,0.24636851251125336,0.1646585762500763,0.458170086145401,-0.3087981641292572],[-0.0808890238404274,-0.08202680945396423,-0.19425810873508453,-0.23678334057331085,-0.042394254356622696,0.27612239122390747,-0.20196430385112762,0.2982436716556549,0.230227530002594,0.12642350792884827,-0.09987643361091614,-0.10775598138570786,-0.08171750605106354,-0.153822124004364,0.27160051465034485,-0.15818148851394653,0.007957635447382927,0.15182724595069885,0.2218787968158722,0.21872980892658234,-0.2752024531364441,-0.05049155279994011,-0.4282885193824768,0.015957260504364967,-0.05820260941982269,0.10965987294912338,-0.345400869846344,0.19654162228107452,0.2585733234882355,0.09659941494464874,-0.1950841248035431,0.015568560920655727,0.21618741750717163,0.08026253432035446,-0.0774654895067215,0.33899760246276855,0.11672333627939224,-0.3366434574127197,0.010616148822009563,0.2163291573524475,-0.0245687086135149,-0.10895092040300369,0.12256382405757904,0.03298182785511017,-0.010066228918731213,-0.0006387619650922716,-0.012559439055621624,-0.09104205667972565,0.10977522283792496,-0.18744602799415588,0.028031567111611366,0.0473630391061306,0.22067667543888092,-0.18908362090587616,-0.3651934266090393,-0.09624884277582169,0.05202774330973625,-0.1144934818148613,-0.1313004493713379,-0.14633025228977203,0.30832427740097046,0.1751166582107544,0.43656980991363525,0.08776850253343582,0.23343227803707123,0.08801069110631943,0.19750098884105682,-0.22811172902584076,0.1615789234638214,0.03895548731088638,0.055751729756593704,-0.5460004806518555,0.2683326303958893,0.18701577186584473,0.09418294578790665,0.046014826744794846,-0.4189382791519165,-0.025388455018401146,-0.24079062044620514,0.06661894917488098,-0.11733094602823257,-0.39713454246520996,0.03744405508041382,-0.08827328681945801,-0.1895018219947815,-0.021509839221835136,-0.02335667796432972,0.23703601956367493,-0.39248067140579224,-0.20679418742656708,-0.20673315227031708,0.24066798388957977,0.11596003919839859,0.07315151393413544,0.011929653584957123,-0.08670519292354584,0.006472067441791296,0.004638755694031715,0.01837238110601902,0.11541973799467087,0.23625637590885162,-0.1823524832725525,0.12183790653944016,0.45812109112739563,0.1439574956893921,-0.032530397176742554,-0.2847006916999817,0.08799242973327637,-0.08838064968585968,-0.13979512453079224,0.0830761194229126,-0.3486708700656891,0.22760368883609772,-0.09004970639944077,-0.10571009665727615,-0.3673864006996155,-0.09011960029602051,-0.1378115713596344,-0.0941288098692894,-0.09387201070785522,-0.10628441721200943,0.20478442311286926,-0.19043724238872528,-0.16913704574108124,-0.0475204735994339,0.23670202493667603,-0.18363623321056366,0.17299149930477142,-0.29150721430778503,0.019087670370936394,0.1260647475719452,-0.16312262415885925,-0.4248109757900238,-0.36710086464881897,0.08560572564601898,-0.5247424244880676,-0.12315180897712708,-0.06515365839004517],[0.141830176115036,0.07285506278276443,-0.06435886770486832,-0.0748765617609024,0.1833227276802063,-0.1833459883928299,0.059531111270189285,0.17553871870040894,-0.09945851564407349,-0.010021044872701168,-0.1339278370141983,0.10236535221338272,-0.23200592398643494,-0.08033506572246552,-0.1288232058286667,0.10123933106660843,-0.10099747031927109,0.0816931501030922,0.07553797215223312,0.018306978046894073,-0.1767595261335373,-0.0991651639342308,0.2600872814655304,0.037578705698251724,0.3737543821334839,-0.043099094182252884,-0.08856536448001862,-0.06555552035570145,0.10199884325265884,0.13504040241241455,-0.07271306216716766,0.14173422753810883,0.08617576956748962,-0.2426801472902298,0.028813453391194344,-0.20462748408317566,0.19667591154575348,-0.14542049169540405,-0.045441240072250366,0.036556441336870193,-0.04020930081605911,0.07109463959932327,-0.11685647815465927,0.07279059290885925,0.010340292006731033,0.053205084055662155,0.06857355684041977,-0.09319417178630829,-0.08242536336183548,0.010662173852324486,-0.22183893620967865,0.170638769865036,-0.08221729099750519,0.134856715798378,0.11162763088941574,0.15432529151439667,-0.04355217143893242,-0.08500023931264877,0.08999829739332199,-0.2387508749961853,0.002105221152305603,0.2829177677631378,0.015528295189142227,0.0843234732747078,0.14920608699321747,0.016441265121102333,0.04090535640716553,0.0716436356306076,-0.34382569789886475,-0.10336857289075851,0.018083427101373672,0.18517115712165833,-0.10705112665891647,-0.09690836817026138,0.17230646312236786,-0.27448663115501404,0.2344885766506195,-0.028407588601112366,0.08490386605262756,-0.07753164321184158,0.1055477038025856,0.10379458218812943,0.5107365846633911,0.1113496944308281,0.06496554613113403,-0.19740962982177734,-0.0783475860953331,0.04158254712820053,-0.2255096435546875,-0.04054316133260727,0.009388144128024578,-0.1706937998533249,-0.03602387756109238,-0.024211708456277847,0.015635011717677116,-0.09478471428155899,0.06498294323682785,0.00942696537822485,0.15420536696910858,-0.09220799803733826,0.03366309031844139,0.1805923879146576,-0.11800063401460648,0.26765915751457214,-0.1458284705877304,0.2894512116909027,-0.039164554327726364,-0.06165659800171852,-0.06938929110765457,0.25592240691185,0.02545216493308544,-0.026111923158168793,0.2729497253894806,0.13083089888095856,-0.09410690516233444,-0.02100086584687233,-0.42856931686401367,-0.19292351603507996,-0.2655249536037445,0.05857165902853012,-0.04427332803606987,-0.14277005195617676,0.09510388225317001,0.10459629446268082,-0.07292132824659348,0.030588436871767044,0.03487721085548401,0.09701049327850342,0.14420875906944275,-0.08115267753601074,0.15649935603141785,-0.003435300663113594,-0.002581467153504491,-0.19791674613952637,0.02446822077035904,0.23266878724098206,-0.07005377113819122,-0.1309628188610077],[-0.1358044594526291,-0.19379200041294098,0.010458540171384811,-0.30954137444496155,-0.31312718987464905,0.04573763161897659,0.002223338931798935,0.4249981939792633,0.10250645875930786,-0.17675386369228363,-0.27310630679130554,0.1811353713274002,-0.2048996537923813,0.08214650303125381,0.13750684261322021,-0.06913750618696213,-0.21774621307849884,-0.11882466077804565,-0.03921462967991829,0.24944280087947845,0.04059293121099472,-0.06261376291513443,0.006045565474778414,-0.17327602207660675,-0.34151992201805115,-0.08400296419858932,0.40336018800735474,0.08793322741985321,0.057914771139621735,-0.12230808287858963,-0.07609283179044724,-0.12297876179218292,-0.2492901086807251,-0.2722758948802948,0.17169103026390076,0.03451209515333176,0.1854306012392044,0.05461619794368744,0.08828140050172806,0.0456245057284832,0.05405458062887192,0.006287558004260063,0.144878551363945,0.15837208926677704,0.2871866226196289,-0.10104987025260925,-0.11030754446983337,-0.03477977216243744,-0.025783304125070572,-0.22173583507537842,0.27758803963661194,0.2699658274650574,0.027487849816679955,0.03136416897177696,-0.025968126952648163,0.06147570163011551,0.18711546063423157,0.24885691702365875,0.172703355550766,0.16969960927963257,0.5839173793792725,0.29606059193611145,0.24394798278808594,0.40783172845840454,0.3516766130924225,0.3605518043041229,0.41577795147895813,-0.2769466042518616,0.28360024094581604,0.15750807523727417,-0.1330159455537796,-0.10417724400758743,-0.12074221670627594,0.21046462655067444,-0.16888360679149628,0.08369269967079163,-0.18506371974945068,0.07538159191608429,-0.020806575194001198,0.016897957772016525,0.3621625602245331,-0.4575646221637726,0.17999669909477234,-0.2546025514602661,0.1805732101202011,0.03702262043952942,-0.03674248978495598,0.21782687306404114,-0.08348815143108368,-0.2123688906431198,-0.19491620361804962,-0.09318003803491592,0.1845017671585083,-0.21891018748283386,0.2851731479167938,0.2897583544254303,0.07336705178022385,0.17680519819259644,0.11138646304607391,0.30603790283203125,0.0563550740480423,0.02505931816995144,0.24423401057720184,-0.14238561689853668,-0.026807012036442757,0.343336820602417,-0.15123724937438965,0.012466677464544773,-0.15879060328006744,-0.05360168218612671,-0.07198270410299301,-0.07441232353448868,-0.06312354654073715,-0.036526136100292206,0.06778816133737564,-0.18482375144958496,-0.14210666716098785,0.1998000591993332,-0.10185150057077408,-0.22400958836078644,-0.003997924271970987,0.18387964367866516,-0.0903451219201088,0.03339160606265068,-0.1589963287115097,-0.25986844301223755,-0.009413888677954674,-0.22582250833511353,0.0001836516457842663,0.0038700602017343044,-0.2036156803369522,0.18600961565971375,0.2061193436384201,0.13726387917995453,0.07918209582567215,0.07341798394918442,-0.2820773720741272,0.12159757316112518],[-0.08075180649757385,-0.13783080875873566,-0.4237339496612549,-0.06015409156680107,-0.29124560952186584,-0.062214095145463943,-0.1778659075498581,-0.038677189499139786,0.077410489320755,-0.1373545080423355,0.07017052173614502,-0.07759366929531097,-0.1490071713924408,-0.029329823330044746,-0.04360731691122055,0.03456524759531021,0.0687883272767067,0.08948779106140137,0.13682320713996887,-0.02933420240879059,0.017930861562490463,0.09068182110786438,0.10941223800182343,0.29466888308525085,0.11288044601678848,-0.1363004893064499,0.042182449251413345,-0.2669403851032257,0.06146831810474396,-0.06998149305582047,0.2422347068786621,-0.05311707407236099,-0.09411418437957764,0.2162255197763443,-0.14926069974899292,0.01477534044533968,-0.2032598853111267,0.10193490236997604,-0.0743044912815094,-0.18046456575393677,0.2898622453212738,0.3859163224697113,0.4115346670150757,-0.12573818862438202,0.0470837727189064,0.12175875902175903,-0.27288389205932617,0.4131135642528534,-0.2562468647956848,-0.07884722948074341,0.05757785961031914,0.010428201407194138,0.22287213802337646,-0.07143349945545197,-0.1186709776520729,-0.3139350414276123,0.031679801642894745,-0.13571995496749878,-0.20302264392375946,-0.19137710332870483,-0.172888845205307,0.1700150966644287,-0.1793321818113327,0.04167616739869118,0.29531797766685486,-0.34157124161720276,0.4622884690761566,-0.21396540105342865,0.11555682867765427,-0.1668137013912201,0.21118886768817902,0.09883248060941696,0.01828949712216854,0.20142912864685059,-0.2524144649505615,0.01716858707368374,-0.06755618005990982,-0.09984976798295975,0.3977767527103424,0.04573081433773041,0.17703057825565338,0.23469394445419312,-0.36752113699913025,0.30453047156333923,-0.24456322193145752,-0.2275848388671875,0.19501103460788727,-0.16649764776229858,-0.029132695868611336,-0.259715735912323,-0.37102484703063965,-0.26679712533950806,0.41858971118927,0.2709800601005554,-0.04272252693772316,0.0044913142919540405,-0.024486152455210686,-0.08228519558906555,0.13616032898426056,-0.05379344895482063,0.028525983914732933,-0.02138124220073223,0.06461621820926666,-0.19295556843280792,-0.41945695877075195,0.43917006254196167,0.1809094250202179,-0.01813165470957756,0.02613002061843872,0.4668036699295044,-0.31355398893356323,0.016157833859324455,0.2927127480506897,0.09000173956155777,0.24719806015491486,0.44085395336151123,-0.18657667934894562,-0.006177971139550209,-0.16691838204860687,0.4111020267009735,-0.1926780790090561,-0.07192301005125046,0.19893494248390198,0.14270958304405212,-0.2784191071987152,-0.3842064440250397,0.062429312616586685,-0.20975245535373688,0.110362209379673,-0.0051491595804691315,0.28912073373794556,0.13838860392570496,0.1326030194759369,0.05283259227871895,-0.15086762607097626,-0.13353921473026276,0.18995222449302673,0.1943216323852539],[-0.04571305215358734,-0.3170040547847748,0.025594573467969894,0.12499091774225235,0.13330775499343872,0.08452498912811279,-0.15353310108184814,0.019986286759376526,0.10363014787435532,0.5038467049598694,0.0509137399494648,0.10472746193408966,0.38592931628227234,0.18190672993659973,-0.15589484572410583,-0.12020639330148697,-0.001221347600221634,-0.06063280254602432,0.18197792768478394,-0.1558101326227188,-0.1382617950439453,0.020807836204767227,-0.4358873665332794,-0.07543151080608368,-0.3875053822994232,-0.031934596598148346,-0.005780278239399195,0.11126283556222916,0.27252987027168274,-0.09830448031425476,-0.09653418511152267,0.16469275951385498,-0.03977971896529198,-0.2083464413881302,-0.1436873823404312,0.14098584651947021,-0.34124305844306946,-0.104986272752285,-0.18003696203231812,-0.021071763709187508,-0.17739860713481903,-0.04954972490668297,-0.22242102026939392,-0.20706807076931,-0.02329717017710209,-0.03343242034316063,0.0718836635351181,0.14426766335964203,0.12265025079250336,0.06240110844373703,-0.10861071944236755,0.06880433857440948,0.23488475382328033,0.28679177165031433,0.08475781977176666,0.21108105778694153,-0.014695573598146439,-0.0004203359130769968,0.18994532525539398,0.2589799165725708,0.0339261032640934,0.009437885135412216,-0.14639343321323395,-0.10269753634929657,0.0817146748304367,-0.10241083055734634,0.11565974354743958,-0.1243554949760437,0.21719832718372345,-0.22325338423252106,-0.1918778419494629,-0.057411421090364456,-0.3541868329048157,-0.18807530403137207,-0.027404962107539177,-0.221971794962883,-0.33406856656074524,0.4078782796859741,0.11952103674411774,-0.18967248499393463,0.12557262182235718,0.5300315022468567,0.03348619118332863,0.059409648180007935,0.17933447659015656,-0.06571929156780243,0.08351507037878036,-0.39645111560821533,-0.06608404219150543,0.27847927808761597,-0.48129111528396606,0.15261699259281158,0.34004658460617065,0.00878329947590828,-0.00031873254920355976,0.03663412109017372,0.07002744823694229,0.1472429782152176,0.31343919038772583,-0.04309887811541557,-0.3746844232082367,0.004224945325404406,0.1609104573726654,-0.18042278289794922,-0.0379200354218483,-0.3518483638763428,0.04366893321275711,0.16480380296707153,0.2825404405593872,0.16629783809185028,-0.006960517726838589,0.2052442729473114,-0.011173677630722523,-0.10983484238386154,0.169599711894989,-0.039359815418720245,0.04728977754712105,0.39327532052993774,0.31245318055152893,0.3038311004638672,-0.05869995057582855,-0.19362863898277283,0.005745121277868748,0.05221983417868614,0.06315550208091736,0.18734847009181976,0.2702776789665222,0.03310961648821831,-0.32623910903930664,-0.3288324177265167,0.3258107602596283,0.4903109073638916,0.13717757165431976,0.1639072448015213,-0.06154605373740196,0.1454501897096634,0.22140899300575256,0.17063918709754944],[-0.05116991698741913,-0.060106243938207626,-0.2638939321041107,-0.2968929708003998,0.15997478365898132,-0.051743052899837494,-0.261818528175354,-0.3172622323036194,0.24037207663059235,-0.2804260849952698,0.09151919931173325,0.239577516913414,-0.05596858635544777,0.2179112583398819,-0.2542273998260498,-0.02437552437186241,-0.17791716754436493,-0.08692138642072678,0.328255832195282,0.04268397390842438,-0.19023765623569489,0.09257449209690094,-0.22868870198726654,0.08354780822992325,-0.12488386034965515,0.03461434319615364,-0.20961035788059235,-0.23693129420280457,0.0676608458161354,0.1359054297208786,-0.18408453464508057,0.0503321997821331,0.09062431007623672,-0.2276911586523056,-0.12274102121591568,0.1032310426235199,0.2555314004421234,-0.36355477571487427,-0.238712877035141,0.3289411664009094,0.10536149889230728,0.05406218022108078,0.07418274879455566,0.10120522230863571,-0.07226728647947311,-0.0461248978972435,-0.2420363873243332,0.1664724200963974,-0.09396931529045105,0.018358254805207253,0.12103451043367386,0.1923888921737671,0.255794882774353,-0.043003953993320465,-0.19533146917819977,0.02632049098610878,-0.1668798178434372,-0.13516072928905487,-0.33774611353874207,0.008649763651192188,-0.3966999650001526,0.14214110374450684,-0.13420778512954712,0.05693070590496063,0.2098301500082016,0.13444511592388153,0.3966379463672638,-0.051486410200595856,-0.26684334874153137,-0.007090759463608265,-0.10949267446994781,0.1117769330739975,-0.15728959441184998,-0.3047419488430023,0.01448481623083353,-0.23810406029224396,-0.25779715180397034,-0.034190528094768524,-0.2950443625450134,0.1410319209098816,0.23532506823539734,-0.06857258081436157,-0.23649786412715912,-0.33934876322746277,-0.04531996324658394,0.2245786190032959,-0.1331762969493866,-0.11029735207557678,0.0020337700843811035,-0.09935496747493744,0.011981571093201637,-0.2675952613353729,-0.025161588564515114,-0.0416104681789875,0.18713131546974182,0.019327489659190178,0.05436952784657478,-0.0720733255147934,-0.13394390046596527,0.11981162428855896,0.07396022975444794,0.2350684106349945,0.0694245770573616,0.3275601267814636,-0.2695883810520172,0.0935881957411766,0.034897591918706894,0.02853616327047348,0.0012683209497481585,0.3198493421077728,0.11033513396978378,0.016045494005084038,0.11998225003480911,-0.2839999496936798,0.28767114877700806,-0.18958480656147003,0.1496286541223526,0.043578267097473145,-0.05207083374261856,0.049515195190906525,-0.11604578793048859,0.3405793607234955,-0.049844320863485336,0.006291311699897051,-0.40396153926849365,-0.2028794288635254,0.022333212196826935,-0.10522997379302979,0.11927015334367752,0.004677910357713699,-0.004229511134326458,-0.0789683535695076,0.127798929810524,-0.2907307744026184,0.21187439560890198,0.07277420163154602,-0.048489492386579514,0.18688267469406128],[0.1355367749929428,0.2572610378265381,0.09056950360536575,0.3391278088092804,-0.2751155197620392,0.001741102896630764,0.0738152489066124,-0.19997842609882355,-0.020536618307232857,-0.20571021735668182,0.11711874604225159,-0.1645737886428833,0.3374987244606018,0.2549956738948822,-0.3364120125770569,-0.045511141419410706,-0.3374522030353546,-0.1146283969283104,-0.07325252890586853,-0.12622006237506866,-0.06414905190467834,0.04820520430803299,-0.13392262160778046,0.17333213984966278,0.044966645538806915,0.07418740540742874,-0.051155462861061096,-0.24055634438991547,0.07254425436258316,-0.01874679885804653,0.0748947411775589,0.32672223448753357,-0.10467267781496048,-0.01921895332634449,-0.16887253522872925,0.1135639175772667,-0.14388392865657806,0.20378433167934418,-0.01392651628702879,0.18739400804042816,-0.031063176691532135,-0.01497042365372181,-0.08184324204921722,0.29541897773742676,0.1341191828250885,-0.013343953527510166,0.05782117322087288,-0.28684133291244507,-0.2164837121963501,0.035025935620069504,0.1904912143945694,0.18202535808086395,0.16030573844909668,-0.14354656636714935,-0.5273945927619934,0.059519894421100616,-0.2552086114883423,-0.32608360052108765,-0.023962147533893585,0.12385901808738708,0.14182916283607483,0.16459910571575165,-0.14119017124176025,-0.2877975404262543,0.0961226299405098,0.1987888365983963,0.1486571878194809,-0.269766628742218,0.00590633787214756,0.19836078584194183,-0.17956581711769104,0.11449149996042252,0.067562036216259,0.14940042793750763,-0.060135409235954285,-0.06560950726270676,0.22539909183979034,0.21857768297195435,-0.4243946075439453,0.2140728235244751,-0.03834085166454315,-0.10954130440950394,0.012236748822033405,-0.20345446467399597,-0.060381319373846054,0.08467245101928711,0.12756864726543427,-0.2841165363788605,-0.11057230085134506,-0.08711938560009003,-0.08050884306430817,-0.10832671821117401,0.2724405527114868,-0.11026730388402939,0.06291654706001282,0.0027608301024883986,-0.12870296835899353,-0.0022401900496333838,-0.07129615545272827,-0.010066132992506027,0.021763447672128677,0.4204867482185364,0.16501739621162415,-0.09798388928174973,-0.09999818354845047,0.17588095366954803,0.16009005904197693,0.12498357146978378,-0.00911592599004507,0.18855848908424377,-0.09805438667535782,0.09704655408859253,0.043861664831638336,-0.3090590536594391,0.08276338875293732,0.10226382315158844,0.3744427561759949,-0.08926381170749664,0.04071421176195145,0.10279897600412369,-0.1524965763092041,0.15949392318725586,0.02095734514296055,-0.19636259973049164,-0.29993078112602234,-0.11021993309259415,-0.2459050714969635,0.23146477341651917,0.1098516583442688,0.05457886680960655,0.22300806641578674,-0.37635642290115356,-0.08040545880794525,-0.20655351877212524,0.03401506319642067,0.03900311514735222,0.039301902055740356,0.18718072772026062],[-0.12074816972017288,-0.42516690492630005,0.28869572281837463,0.09667423367500305,-0.07185918092727661,0.1464756727218628,-0.24025334417819977,-0.1183142140507698,0.05800097808241844,-0.26269182562828064,-0.01703186146914959,-0.2053202986717224,-0.1850065290927887,0.09972205013036728,-0.3091931939125061,0.07511462271213531,-0.13564033806324005,-0.10695227235555649,0.28108060359954834,0.05762983113527298,-0.37810808420181274,-0.09896035492420197,-0.0747344121336937,0.0565309002995491,0.26945871114730835,0.09498099237680435,-0.00997929461300373,0.0016055417945608497,-0.24528610706329346,-0.04979487881064415,0.07385831326246262,-0.052802011370658875,0.19251154363155365,0.11595002561807632,0.08113981783390045,0.04837465286254883,0.14030525088310242,0.053945399820804596,0.20711809396743774,0.02550741285085678,0.1521756649017334,-0.3230125308036804,0.055343564599752426,0.20630308985710144,0.11131986975669861,0.13699054718017578,-0.32099923491477966,-0.06747289001941681,0.018778905272483826,-0.13374628126621246,-0.15117403864860535,-0.1919543594121933,0.1637885719537735,-0.24903544783592224,-0.04683797433972359,0.021272098645567894,0.25485286116600037,0.04190275818109512,-0.16852885484695435,0.10901179164648056,-0.07193748652935028,-0.162763312458992,0.29063880443573,0.35714244842529297,0.08228231221437454,-0.003632649313658476,0.10165450721979141,-0.20468036830425262,0.00018859033298213035,0.08248850703239441,-0.04527099058032036,0.05761495977640152,-0.16208229959011078,0.15371839702129364,0.009438500739634037,0.06458567082881927,-0.26597633957862854,-0.14522305130958557,-0.016981985419988632,0.06223030760884285,0.29929041862487793,0.06811947375535965,-0.1984580010175705,-0.07252126932144165,-0.03281671553850174,0.3384579122066498,0.033823784440755844,-0.021173322573304176,-0.05978832393884659,-0.07197905331850052,0.3287026882171631,0.14776162803173065,-0.31183624267578125,-0.08419720083475113,-0.015628978610038757,0.1583879441022873,-0.1921507567167282,0.04396089166402817,0.013380968011915684,-0.11005160957574844,0.04668830707669258,0.005503278225660324,0.01980709470808506,-0.027997231110930443,-0.1266430765390396,0.23120848834514618,-0.3012554347515106,-0.29536622762680054,0.014091701246798038,0.14918504655361176,-0.2780243456363678,0.15820281207561493,0.014905211515724659,-0.31389448046684265,-0.05232619866728783,0.20654553174972534,0.052981842309236526,-0.014439782127737999,-0.29717838764190674,-0.06314757466316223,-0.1400306224822998,-0.07474340498447418,0.16384191811084747,-0.057333916425704956,0.161335289478302,-0.09044567495584488,-0.017718307673931122,-0.10841399431228638,0.2704083025455475,0.1304883509874344,-0.0026881799567490816,0.04673032462596893,-0.05672476440668106,-0.0030550039373338223,0.328297883272171,-0.17667482793331146,0.03957875818014145,-0.04935739189386368],[-0.16350972652435303,0.12626977264881134,-0.06033565104007721,0.034907303750514984,0.060254067182540894,-0.05046796053647995,0.2640876770019531,0.01969190500676632,-0.0713096633553505,0.0486198291182518,-0.1823815554380417,0.4644835889339447,0.2685387134552002,-0.018716223537921906,-0.18756622076034546,-0.15928928554058075,0.1770717054605484,0.10922741889953613,-0.5961450934410095,-0.2590267062187195,0.333466112613678,0.3368213474750519,0.3313489258289337,-0.24491377174854279,0.1190280094742775,-0.21290656924247742,0.04806667938828468,0.29117777943611145,-0.15382833778858185,0.19781866669654846,0.31571391224861145,-0.23860135674476624,0.4609288275241852,-0.0730193704366684,-0.253109872341156,-0.025652924552559853,-0.12913745641708374,-0.1524423509836197,-0.07128609716892242,0.22446830570697784,-0.21116018295288086,0.32909446954727173,0.10409197211265564,0.1086113229393959,-0.20014390349388123,-0.09065171331167221,0.04969896376132965,0.16615957021713257,-0.11894693970680237,0.2660132050514221,-0.08836713433265686,-0.19758090376853943,0.2577723562717438,0.03165639191865921,-0.2038968801498413,0.08644130080938339,-0.1316898763179779,0.03129272535443306,0.23768721520900726,0.20713156461715698,0.36974674463272095,-0.019779164344072342,-0.07457594573497772,-0.02732103131711483,0.4277508854866028,-0.1782095730304718,-0.1806613951921463,-0.5772427320480347,-0.387312650680542,0.3889492154121399,-0.15077030658721924,0.1293332278728485,0.07285751402378082,0.13921979069709778,-0.201272115111351,-0.33818429708480835,-0.11470064520835876,0.07630147784948349,0.3302808105945587,-0.08162569999694824,0.0762224793434143,0.005720049608498812,0.2848373055458069,0.012184680439531803,0.2458977848291397,-0.3154156506061554,0.14460933208465576,-0.23760445415973663,-0.05444871634244919,-0.1447387933731079,-0.1667872667312622,0.2276952862739563,0.2448323518037796,0.30832090973854065,0.02997085265815258,0.046521302312612534,-0.029117438942193985,0.02541123330593109,-0.10894067585468292,0.1998843103647232,-0.16924405097961426,-0.036657389253377914,-0.035895343869924545,0.3773016035556793,0.0017667855136096478,0.09801674634218216,-0.35695430636405945,0.17204579710960388,-0.06514198333024979,0.07083199918270111,-0.27205970883369446,0.23113717138767242,0.11182308942079544,-0.11702948063611984,-0.38135620951652527,0.22932778298854828,0.13236498832702637,0.01570820063352585,-0.02632373943924904,-0.33654454350471497,0.18383656442165375,0.0036613745614886284,0.2843642234802246,-0.092230424284935,-0.3340422213077545,-0.04906037822365761,0.1205810084939003,-0.12872347235679626,-0.22726069390773773,-0.19048400223255157,0.15859538316726685,0.39689287543296814,-0.20563559234142303,-0.001042243791744113,0.257845014333725,-0.23200811445713043,0.12917649745941162,-0.20549222826957703],[-0.011333469301462173,-0.03124254010617733,-0.13750045001506805,0.13952918350696564,0.5107591152191162,0.004061672370880842,-0.0010904427617788315,-0.23796327412128448,-0.1552278697490692,-0.15435470640659332,0.22968092560768127,0.2940431237220764,-0.023371119052171707,-0.06142042204737663,0.19664792716503143,-0.03981833904981613,0.24916227161884308,0.19149473309516907,-0.29888495802879333,-0.21662436425685883,0.006192642264068127,0.17189815640449524,-0.2512310743331909,-0.0066895210184156895,0.2538655996322632,-0.12625016272068024,-0.0708957314491272,0.28147685527801514,0.16477054357528687,0.06232788413763046,-0.2711976170539856,-0.40886324644088745,-0.15159641206264496,-0.004168039187788963,0.15435580909252167,-0.20648254454135895,0.5232616066932678,-0.10821554064750671,-0.08027322590351105,-0.1623777449131012,-0.23432950675487518,0.1230546310544014,-0.28150704503059387,0.021611301228404045,0.13197919726371765,0.21891839802265167,-0.13641099631786346,-0.05428968742489815,-0.2952113449573517,0.11489484459161758,-0.06323716789484024,-0.26025161147117615,-0.05299949645996094,-0.3195965588092804,-0.04911615699529648,0.10385362803936005,-0.3602813482284546,0.0840495377779007,0.09989161789417267,-0.021691109985113144,-0.2756659984588623,0.05369534343481064,-0.03146050125360489,-0.05092044174671173,-0.3191525340080261,-0.1740659922361374,0.08154807239770889,0.18245384097099304,-0.14081703126430511,0.23767222464084625,0.07597571611404419,0.04686528816819191,0.18616466224193573,-0.2779849171638489,-0.22312718629837036,-0.19736149907112122,0.21782226860523224,-0.05642959102988243,0.12370272725820541,0.06583283841609955,-0.15436697006225586,0.10519654303789139,-0.3467647433280945,0.0986766442656517,0.11761964112520218,-0.28329554200172424,-0.027329223230481148,0.19018356502056122,-0.03762982040643692,0.1171707883477211,-0.19912727177143097,-0.14441952109336853,-0.11952932924032211,-0.2182571440935135,-0.05204635486006737,0.008641167543828487,-0.1610763818025589,-0.20623475313186646,-0.2781541645526886,0.11048664152622223,-0.020649690181016922,-0.001215868629515171,0.017133621498942375,-0.06526216119527817,0.004170843865722418,-0.05553318187594414,0.05054616183042526,0.20249836146831512,0.07852117717266083,0.09172903001308441,0.027329569682478905,-0.35795798897743225,-0.41206908226013184,-0.14263464510440826,0.20567207038402557,0.11274512112140656,-0.0005924947327002883,-0.15326254069805145,-0.022742316126823425,-0.15769541263580322,-0.07513052225112915,0.004507554229348898,0.0002119793207384646,0.011356237344443798,-0.1117134690284729,-0.016148101538419724,-0.15589824318885803,-0.058116305619478226,0.17899495363235474,0.23852618038654327,-0.11602697521448135,-0.09377529472112656,-0.2028714418411255,0.0719393938779831,-0.06868347525596619,-0.1504727005958557,0.04131684824824333,0.07140442728996277],[-0.09984814375638962,0.05691302567720413,0.10792314261198044,0.26514896750450134,-0.30053821206092834,-0.27439889311790466,-0.12404787540435791,-0.1456909030675888,0.19735312461853027,0.2972300350666046,0.19153688848018646,-0.22046193480491638,0.10877138376235962,0.13294465839862823,0.033201541751623154,0.023984260857105255,-0.1713370680809021,-0.18602408468723297,0.3251536190509796,-0.1755472719669342,-0.26026642322540283,-0.17692428827285767,0.1690797507762909,0.08457383513450623,-0.0033076682593673468,0.2901321351528168,-0.26877373456954956,0.08165650069713593,-0.09086009860038757,-0.021718546748161316,-0.21410250663757324,0.43500006198883057,0.10728111118078232,0.03928759694099426,-0.1806408017873764,0.07936728745698929,-0.10263501852750778,0.12623320519924164,-0.24041444063186646,0.20204034447669983,0.2888087332248688,0.170359805226326,-0.07199808210134506,-0.0711628869175911,0.08740287274122238,-0.2855726480484009,-0.04298483952879906,-0.04876619204878807,-0.3187498152256012,-0.06480307132005692,-0.15636488795280457,-0.18064381182193756,-0.045052818953990936,0.06310568749904633,0.525474488735199,-0.4239997863769531,0.28106993436813354,-0.17425471544265747,-0.047146450728178024,0.07285040616989136,-0.04818332940340042,0.47938162088394165,-0.025850774720311165,-0.42177608609199524,0.11650461703538895,-0.20254872739315033,0.338879257440567,0.04939759522676468,0.1160927340388298,-0.05370938777923584,-0.2150694876909256,0.2703602910041809,-0.1880941540002823,0.12171794474124908,-0.08662745356559753,0.0909111499786377,-0.2168506383895874,0.047528885304927826,-0.20029737055301666,0.028363201767206192,-0.00045813940232619643,0.01396858785301447,-0.13626396656036377,0.2047683447599411,-0.16354458034038544,0.14181005954742432,0.04449901357293129,0.03296654298901558,0.0631285309791565,-0.2626406252384186,-0.05813467502593994,-0.1918516904115677,-0.03051943890750408,-0.06144304573535919,0.11002815514802933,-0.03691855072975159,-0.09789551794528961,0.10255349427461624,0.2975047826766968,-0.03374010697007179,0.0868840143084526,0.044865094125270844,0.2400914430618286,0.036964092403650284,-0.32934650778770447,0.31297558546066284,-0.2055148333311081,0.13570107519626617,-0.0576254203915596,0.005773935467004776,-0.06388132274150848,0.2527786195278168,0.07567411661148071,0.15519948303699493,0.4004743695259094,0.12372075766324997,-0.17926092445850372,-0.0332990363240242,0.09696761518716812,-0.04779498651623726,-0.13392387330532074,-0.01849941536784172,-0.11822125315666199,-0.022554172202944756,-0.04990362003445625,-0.027951957657933235,0.2319091111421585,0.21390242874622345,0.03700197860598564,-0.02973940595984459,0.1866651475429535,-0.11462371051311493,0.3396792709827423,0.032504044473171234,-0.1944429874420166,-0.023505687713623047,-0.11705327033996582,0.12333624809980392],[0.10567989200353622,-0.19463621079921722,-0.12215317785739899,0.11702035367488861,0.14366845786571503,-0.1674206256866455,-0.14127343893051147,-0.07288913428783417,0.15849612653255463,0.40418827533721924,-0.004582608584314585,0.17254048585891724,0.03154712915420532,0.19803272187709808,0.08569503575563431,0.03502829000353813,-0.06359510123729706,0.1134071797132492,0.12655828893184662,0.331887423992157,-0.13252140581607819,0.15440858900547028,-0.047551047056913376,0.017205264419317245,-0.03689402714371681,-0.02005065232515335,-0.007266731467097998,0.17156893014907837,0.31802183389663696,-0.21615660190582275,0.022744126617908478,-0.22078660130500793,0.0529186949133873,0.06699877232313156,-0.2609921991825104,-0.07991109788417816,0.35314470529556274,-0.015013156458735466,-0.15300247073173523,0.032375313341617584,-0.26476576924324036,-0.04169466346502304,-0.02733682096004486,-0.25663432478904724,0.32022684812545776,-0.19734111428260803,0.21479807794094086,-0.18715344369411469,0.02783610299229622,-0.022606177255511284,0.15445995330810547,0.29977327585220337,-0.15408587455749512,-0.12043560296297073,0.3267495632171631,-0.0641046091914177,-0.12643547356128693,0.16040156781673431,0.2982156276702881,-0.007608949672430754,0.3597448766231537,0.25831499695777893,-0.019517509266734123,-0.4156818985939026,0.16450135409832,-0.13398568332195282,0.000022387666831491515,0.14968319237232208,-0.11681625247001648,-0.5326699018478394,-0.04696052521467209,-0.11337513476610184,0.12880726158618927,-0.1455552726984024,-0.11447913199663162,0.21991808712482452,-0.0288377795368433,0.20166602730751038,-0.07718976587057114,-0.028713408857584,0.10276561230421066,-0.13743290305137634,0.10841597616672516,0.31012415885925293,-0.039830442517995834,0.17989496886730194,0.04795750975608826,0.03585898503661156,0.005604173988103867,0.10198564827442169,0.0603015199303627,0.08888252824544907,0.10145219415426254,0.18318989872932434,-0.19324633479118347,-0.230323925614357,-0.139651358127594,0.059769321233034134,0.2756660282611847,0.3463977575302124,-0.08624987304210663,-0.10796735435724258,-0.10650089383125305,-0.007865773513913155,-0.08340930193662643,0.25331398844718933,0.025405587628483772,0.2918888032436371,0.12160487473011017,-0.0585365891456604,0.24016208946704865,-0.22955159842967987,-0.23567232489585876,0.23542755842208862,0.07400880753993988,-0.1900555044412613,-0.5826932787895203,0.42188820242881775,-0.21923938393592834,0.13669723272323608,-0.17743562161922455,-0.03603830188512802,-0.13878707587718964,-0.13516943156719208,0.26121053099632263,0.07209444791078568,0.10142318904399872,0.10228364914655685,0.045605264604091644,-0.12234184145927429,-0.02014431357383728,0.10909226536750793,-0.113089919090271,0.1628894805908203,-0.17336565256118774,-0.15598028898239136,0.13078652322292328,0.05036526545882225],[0.08670420944690704,0.37425845861434937,-0.15068888664245605,-0.6072928309440613,0.1275535225868225,-0.1122107207775116,0.1856248676776886,-0.43858760595321655,-0.4832278788089752,-0.19125521183013916,-0.027651319280266762,0.0850427970290184,0.3044666349887848,0.06480592489242554,-0.2217046320438385,-0.1945098340511322,-0.30052095651626587,-0.024202225729823112,0.05643076449632645,-0.06145603209733963,-0.19309033453464508,0.19174963235855103,0.3653941750526428,-0.22601699829101562,0.1647185981273651,0.005866108927875757,0.22651764750480652,-0.1675359159708023,0.06954699009656906,0.10483542084693909,0.36240455508232117,0.059676237404346466,-0.010998285375535488,-0.03166196867823601,-0.30718404054641724,-0.35691216588020325,-0.31206414103507996,-0.21180029213428497,-0.1257421374320984,-0.12495321780443192,0.018692268058657646,0.02036893181502819,0.00442966353148222,0.11983068287372589,-0.08300469070672989,0.09237481653690338,0.12925012409687042,0.2248132824897766,-0.5092437863349915,0.1436282843351364,0.1699688732624054,-0.25052398443222046,0.06669502705335617,-0.17629557847976685,-0.37172630429267883,0.23350346088409424,-0.35398241877555847,0.05485500395298004,-0.08162785321474075,-0.03580838814377785,0.6748617887496948,0.145318865776062,0.06474079191684723,-0.02987200953066349,0.031147928908467293,0.09196265786886215,-0.25243666768074036,-0.2365810126066208,-0.3718397915363312,0.28759410977363586,-0.008980578742921352,0.026897452771663666,0.0867074653506279,0.07071585208177567,-0.19767281413078308,-0.1984620839357376,0.34640318155288696,0.17716695368289948,-0.22182266414165497,0.34402942657470703,0.08601077646017075,-0.09383139759302139,0.09472925215959549,-0.6205849051475525,-0.03226755931973457,0.36523422598838806,-0.2188144028186798,-0.16648435592651367,0.16834789514541626,0.08381734788417816,-0.2504161596298218,0.05499366298317909,0.2495126873254776,-0.03432166576385498,-0.04685124754905701,-0.09930327534675598,0.07670822739601135,0.07035805284976959,0.034030731767416,-0.057082511484622955,0.13294628262519836,0.16608862578868866,0.23023547232151031,-0.3019786477088928,0.2904733717441559,-0.02922779694199562,-0.07915148138999939,-0.2845463752746582,0.028183383867144585,-0.29808375239372253,0.2503058910369873,-0.13408835232257843,0.07396068423986435,-0.12472967058420181,0.06880532950162888,0.20651447772979736,-0.005885375197976828,0.1746971756219864,0.03265528753399849,-0.024780649691820145,0.04406742379069328,0.31595322489738464,-0.03316839411854744,0.19171468913555145,-0.28731539845466614,0.008199370466172695,-0.18640495836734772,-0.2903768718242645,0.11278528720140457,0.07469967752695084,0.12384872138500214,-0.08945798873901367,0.09007793664932251,-0.16733267903327942,0.17649713158607483,0.05089741200208664,0.10598021745681763,-0.1220768541097641],[0.000013351054803933948,0.15832598507404327,-0.11068029701709747,0.30089449882507324,0.14539487659931183,-0.3495159447193146,-0.1074250265955925,-0.3384456932544708,-0.22523082792758942,0.12295088171958923,0.1865088790655136,0.07510536909103394,0.4937039613723755,0.2198117971420288,-0.4499320685863495,0.0911572054028511,-0.018978483974933624,-0.2309519648551941,0.10290064662694931,0.0004381932958494872,-0.1675345003604889,0.24145925045013428,-0.13473962247371674,-0.3671456575393677,0.18513377010822296,0.19551150500774384,-0.03666403517127037,0.29666954278945923,0.008799400180578232,-0.058488763868808746,0.2704293429851532,0.09017704427242279,0.10234563052654266,0.0009862595470622182,-0.03696056827902794,-0.1839974820613861,-0.4816579520702362,0.1396622359752655,-0.2441214919090271,-0.02058056741952896,0.14709678292274475,0.0764886662364006,0.12619681656360626,-0.09260829538106918,-0.2521098554134369,-0.08904431760311127,0.03271286562085152,0.2611016035079956,-0.2053779810667038,0.13904166221618652,0.08618615567684174,0.09337110072374344,0.30068832635879517,-0.22016629576683044,0.3368529677391052,0.173243910074234,-0.06453115493059158,0.26682010293006897,0.09491954743862152,-0.05826520919799805,-0.15001972019672394,-0.05915045365691185,-0.006615959573537111,-0.2538077235221863,0.2290540188550949,0.14551930129528046,-0.3162647485733032,0.004657129757106304,-0.08023782819509506,-0.10612265020608902,0.08202625066041946,0.027452701702713966,0.3186891973018646,0.19985736906528473,-0.11267025023698807,-0.23445825278759003,0.27662932872772217,-0.10756783932447433,-0.1665542870759964,0.25980931520462036,-0.136943057179451,0.2927992641925812,-0.17475944757461548,0.23775659501552582,0.1728990525007248,0.07898176461458206,-0.06407593935728073,-0.06842981278896332,-0.08730156719684601,-0.24669502675533295,-0.11532913893461227,-0.15181568264961243,0.22934012115001678,0.24040479958057404,-0.19147485494613647,-0.10599386692047119,-0.405707448720932,-0.05239613354206085,0.08168371021747589,-0.2871589958667755,-0.08396153151988983,0.08009564131498337,0.018473057076334953,0.27032148838043213,0.0755532905459404,0.14926859736442566,0.09421368688344955,0.16649550199508667,0.10565529018640518,0.15129870176315308,-0.3313150405883789,0.2827354073524475,0.0472571924328804,-0.14930717647075653,0.03893733024597168,0.15372566878795624,0.3402310311794281,0.12278088182210922,0.16996082663536072,0.056402742862701416,-0.022892434149980545,0.01292902510613203,-0.06178285554051399,-0.00448229443281889,0.011386203579604626,0.505704402923584,-0.28806614875793457,0.22887468338012695,0.15632151067256927,-0.06501616537570953,0.08053446561098099,-0.2395232617855072,0.1958903819322586,-0.13896511495113373,-0.2918962836265564,-0.020424243062734604,-0.04445439204573631,-0.10693702101707458],[-0.044811829924583435,-0.06510874629020691,-0.17339636385440826,0.3189438283443451,-0.038876019418239594,-0.26651430130004883,0.09758888185024261,-0.07347996532917023,-0.23626260459423065,-0.13204896450042725,0.3849002420902252,-0.08943921327590942,-0.04464220628142357,-0.06546421349048615,-0.11598027497529984,-0.09269417077302933,0.3218240737915039,0.0032012055162340403,-0.28469139337539673,0.1775413155555725,-0.03027397021651268,0.04455137997865677,0.04338458925485611,0.17806072533130646,0.19913963973522186,0.011979876086115837,-0.0739518478512764,0.31183111667633057,0.06189705803990364,-0.2587941586971283,0.14301300048828125,-0.32802918553352356,-0.13457529246807098,-0.038076002150774,0.030427005141973495,0.0709519162774086,0.005022306460887194,-0.01703725755214691,-0.014071671292185783,-0.06897943466901779,0.028899723663926125,0.37051376700401306,0.23657912015914917,0.00771747250109911,0.01972593553364277,0.24118268489837646,-0.09700042754411697,-0.30364805459976196,-0.17392347753047943,0.08584627509117126,-0.06530467420816422,-0.08751480281352997,0.0012052867095917463,-0.26817330718040466,-0.08892685174942017,0.007268069311976433,-0.1509522944688797,0.030229121446609497,0.05012230947613716,0.1612107753753662,-0.42549097537994385,0.16526223719120026,-0.053332578390836716,0.20898310840129852,0.0768347829580307,-0.29260286688804626,0.05485249683260918,-0.0009381594136357307,-0.0407816544175148,0.10629014670848846,0.045361217111349106,0.2854921221733093,0.011463470757007599,-0.26132145524024963,-0.08517090976238251,0.0013912473805248737,0.1714203655719757,0.19508664309978485,0.5109075903892517,0.154184952378273,-0.05167504772543907,0.06760703772306442,-0.0013338451972231269,0.15270964801311493,-0.06799621880054474,-0.4693164527416229,-0.1661875694990158,0.15079693496227264,-0.30730608105659485,-0.22874192893505096,-0.31597644090652466,-0.19808267056941986,-0.045505017042160034,-0.07915188372135162,0.13892531394958496,-0.14047852158546448,0.124064140021801,0.3346574306488037,0.19340473413467407,-0.2865777611732483,-0.199405238032341,-0.41678446531295776,-0.2470562756061554,-0.16188359260559082,-0.0013955098111182451,0.05410681292414665,0.20806477963924408,0.2242194563150406,-0.06298168748617172,0.3466340899467468,-0.10503335297107697,0.42080408334732056,0.06102575361728668,0.06274868547916412,0.10491117089986801,0.07104456424713135,-0.13720650970935822,-0.06673622876405716,-0.15933793783187866,-0.008462337777018547,-0.3001479506492615,-0.05102095380425453,0.1641295701265335,0.042725130915641785,-0.021745584905147552,-0.347832590341568,-0.024272751063108444,0.2737170457839966,0.3632420599460602,-0.10015937685966492,0.1500806361436844,0.14145775139331818,0.36004164814949036,-0.2928084433078766,-0.43980732560157776,0.08031018823385239,0.26548880338668823,0.07320386916399002],[0.16789589822292328,-0.167913556098938,0.0246441550552845,0.01502461452037096,0.01284694392234087,0.060140907764434814,-0.0341409295797348,-0.047521647065877914,-0.3351712226867676,-0.1563553363084793,0.1824256032705307,0.017095474526286125,0.6508963108062744,-0.17878733575344086,0.03384232893586159,-0.23284345865249634,-0.38982918858528137,-0.11600396037101746,0.1659604161977768,-0.20996885001659393,0.10370885580778122,0.16599033772945404,0.03223609924316406,-0.20426034927368164,-0.2211163341999054,-0.25626784563064575,0.15920673310756683,-0.2753980755805969,-0.07837215065956116,0.19684924185276031,-0.17091795802116394,0.35432177782058716,-0.09020983427762985,-0.0017450806917622685,-0.017897700890898705,-0.4156983494758606,-0.46873199939727783,-0.03524589538574219,0.20138031244277954,-0.13041867315769196,0.14547321200370789,-0.1349383443593979,-0.09254937618970871,0.010308695025742054,0.1487666666507721,0.18703830242156982,0.06449849158525467,-0.041149262338876724,0.31528332829475403,0.0698266327381134,-0.35851800441741943,-0.2860490083694458,0.03701067343354225,-0.22358356416225433,0.2002159208059311,0.0012256760383024812,-0.12329365313053131,0.06020075082778931,-0.04712832719087601,-0.14831382036209106,0.3619951009750366,-0.18126991391181946,-0.005284065846353769,-0.024001149460673332,-0.10572990030050278,0.28552302718162537,0.12209302932024002,0.2246152013540268,0.2011270821094513,0.09089910238981247,-0.02772308699786663,-0.3840026557445526,0.13815316557884216,-0.10382509976625443,0.042188577353954315,-0.16321605443954468,-0.14454151690006256,-0.1732046902179718,0.09756722301244736,0.11269286274909973,-0.033952295780181885,0.2851123809814453,-0.33496126532554626,0.3417936861515045,0.05586852878332138,0.13773030042648315,0.3281647562980652,-0.00577734736725688,-0.13618212938308716,0.23346805572509766,0.13217267394065857,-0.045973047614097595,0.4587850272655487,-0.04817958176136017,-0.047516923397779465,-0.20602312684059143,-0.041124287992715836,-0.034399330615997314,0.14087578654289246,-0.14840812981128693,-0.2234240174293518,0.04619478061795235,-0.07852192968130112,-0.35547730326652527,-0.0786060094833374,-0.13589149713516235,0.16403897106647491,-0.06882915645837784,-0.09147508442401886,-0.1612522155046463,0.2560897767543793,-0.10342627763748169,0.011481569148600101,-0.26852530241012573,-0.02451171725988388,-0.17876672744750977,-0.19427011907100677,0.09767068177461624,0.1530696600675583,-0.161789208650589,-0.009446081705391407,0.07406389713287354,-0.2645874619483948,-0.11722815781831741,-0.036623697727918625,0.10423959046602249,-0.02797340601682663,0.0850868970155716,-0.013541108928620815,0.0337408185005188,0.024558424949645996,0.1916300654411316,-0.1845870316028595,0.21073539555072784,0.032301612198352814,-0.12097667902708054,-0.2169015109539032,0.09882953763008118],[-0.15064387023448944,-0.2822423279285431,0.35253873467445374,0.031446099281311035,-0.3239605724811554,-0.07517555356025696,-0.07758315652608871,0.05545438453555107,0.09299290180206299,0.146961510181427,0.050522226840257645,-0.11291595548391342,-0.1950429528951645,0.09932821244001389,-0.15390801429748535,0.0801173597574234,0.061874620616436005,-0.185178741812706,0.10143876075744629,-0.02694823034107685,-0.05176817253232002,0.07619912177324295,0.03304830193519592,0.14931127429008484,-0.06427709013223648,0.07956543564796448,-0.259045273065567,-0.20830093324184418,0.20246121287345886,0.005321624223142862,-0.0778188556432724,0.17231236398220062,0.21130724251270294,0.07280859351158142,0.12939943373203278,-0.018965044990181923,0.19514323770999908,-0.28080469369888306,-0.11036307364702225,0.1285606324672699,-0.016015559434890747,0.17131491005420685,-0.20119786262512207,-0.07205670326948166,0.04749605432152748,-0.0416950024664402,-0.27695322036743164,-0.1821160614490509,-0.05897260829806328,0.003491890849545598,-0.18874521553516388,-0.028177127242088318,0.08512510359287262,-0.5486559271812439,0.15214650332927704,0.14374671876430511,0.18683449923992157,-0.06673602014780045,0.08674244582653046,0.049733974039554596,-0.14375294744968414,0.43512704968452454,-0.06852978467941284,0.10982012748718262,0.19606991112232208,0.05952301248908043,0.03215166926383972,-0.23484793305397034,0.14900395274162292,0.043136660009622574,-0.077859066426754,0.11072322726249695,-0.06052279844880104,-0.1414572298526764,0.17566773295402527,0.35797053575515747,-0.07754108309745789,-0.13788536190986633,-0.15688778460025787,-0.1701877862215042,0.1234271451830864,0.170948788523674,-0.0406823605298996,0.09585393965244293,-0.31325387954711914,0.03406703844666481,-0.1185528114438057,-0.07055094838142395,-0.0061502172611653805,-0.09016471356153488,-0.00589348329231143,-0.16400471329689026,0.09325475990772247,-0.18282011151313782,0.01889423467218876,-0.08848322927951813,-0.02676117792725563,0.044888630509376526,0.28005772829055786,-0.19231103360652924,-0.1632539927959442,-0.1821313500404358,-0.09199292957782745,0.1316487193107605,-0.4257132112979889,-0.31462016701698303,-0.16634118556976318,0.40540650486946106,0.1925448477268219,0.3020370900630951,0.09135355800390244,0.17459233105182648,0.14767974615097046,0.07128392904996872,-0.06884545832872391,0.011440674774348736,-0.46637237071990967,-0.07807771861553192,-0.12025640904903412,0.10397829115390778,-0.08116739988327026,-0.05854496359825134,-0.1048421561717987,0.19911722838878632,-0.02786443941295147,0.20009352266788483,0.04778362810611725,-0.03113624081015587,0.09195598214864731,-0.046898532658815384,0.19946008920669556,-0.02619745209813118,0.4179873764514923,-0.0077294763177633286,-0.09166478365659714,-0.09621132165193558,-0.1910875141620636,-0.047967102378606796],[0.43171149492263794,0.056703127920627594,-0.0023833608720451593,0.016018563881516457,0.33334988355636597,-0.0048881652764976025,0.36056727170944214,0.1955621987581253,0.39338207244873047,0.21510107815265656,0.11215539276599884,0.059142883867025375,0.2428850531578064,-0.15578651428222656,-0.22573666274547577,-0.0766100063920021,0.22016431391239166,-0.09530248492956161,0.29628974199295044,-0.20842522382736206,0.13395939767360687,0.1292019784450531,0.2358061671257019,0.10559241473674774,-0.26762494444847107,0.2973426878452301,-0.04392430931329727,-0.346657395362854,-0.1703607738018036,-0.08418450504541397,0.014842450618743896,-0.1196289211511612,0.3010495603084564,-0.3138408660888672,0.2497764229774475,0.06805499643087387,-0.5939030051231384,0.32805272936820984,-0.0769362524151802,-0.08161894977092743,-0.4320480525493622,0.37433353066444397,0.18120387196540833,0.1101958155632019,-0.00596722261980176,0.3769531548023224,-0.035861216485500336,0.11475866287946701,-0.09751643985509872,0.2862955927848816,0.025285866111516953,-0.1582498699426651,0.19991177320480347,0.36283737421035767,0.2480711191892624,0.04254266619682312,-0.021505016833543777,0.19896911084651947,0.06334171444177628,0.187520369887352,0.4782058894634247,-0.33024048805236816,-0.43035614490509033,-0.3423447012901306,-0.15904083847999573,0.11457911133766174,-0.13956084847450256,0.001465721521526575,0.4647807478904724,-0.21929509937763214,-0.2497381716966629,0.07571759819984436,-0.11829792708158493,0.21952266991138458,-0.024812014773488045,-0.4418182075023651,-0.2534352242946625,-0.05867231637239456,0.1494106650352478,0.18282154202461243,-0.10327550023794174,0.11448732763528824,-0.005430346354842186,-0.17240893840789795,0.08991995453834534,0.17443087697029114,0.449651837348938,-0.25348564982414246,-0.08546792715787888,0.2751052975654602,-0.2180977612733841,0.248479425907135,0.3257129490375519,0.3072064518928528,-0.10664933919906616,0.3302818536758423,0.05054156482219696,0.1723688840866089,-0.2163366675376892,-0.033904314041137695,-0.29651376605033875,-0.019467554986476898,-0.07853952795267105,-0.2897161543369293,0.1980694681406021,-0.10737977921962738,0.5183184742927551,0.14402857422828674,0.12118740379810333,-0.16790230572223663,0.02898295596241951,0.36124029755592346,-0.1519935429096222,-0.10421451926231384,-0.3886646032333374,0.20940741896629333,0.12219786643981934,-0.1975996047258377,0.3685202896595001,0.21549765765666962,0.1601371318101883,0.09566053003072739,0.1357087343931198,0.13005003333091736,-0.025418682023882866,-0.08833406865596771,0.03400745615363121,-0.1862981766462326,-0.19282272458076477,-0.2496291548013687,-0.1585962325334549,0.3282262086868286,-0.24807524681091309,0.20435597002506256,-0.13096916675567627,0.1088176965713501,-0.10177478194236755,-0.04862808808684349],[0.1426536738872528,0.0351841002702713,0.06536799669265747,0.10629633069038391,-0.18777517974376678,-0.14100761711597443,-0.06285185366868973,0.10332955420017242,-0.10761737823486328,-0.1555285006761551,0.04663221538066864,-0.10335525125265121,0.04308445379137993,-0.2297239899635315,0.31402480602264404,0.21955382823944092,-0.03678065538406372,-0.021870706230401993,0.24237391352653503,-0.061171095818281174,-0.034848518669605255,0.12388759106397629,0.23670955002307892,-0.03896035626530647,0.09351436048746109,-0.1349658966064453,0.08255589753389359,-0.06349211186170578,0.021296069025993347,-0.10510791838169098,0.1647290289402008,0.002385136904194951,0.1198096051812172,-0.04694076627492905,0.2636812627315521,-0.23851284384727478,-0.05087960883975029,-0.0029146047309041023,0.16977325081825256,-0.4740029573440552,0.27621617913246155,-0.3170064687728882,0.23376628756523132,-0.13210250437259674,-0.02801290713250637,0.14979684352874756,-0.0797206312417984,0.10146558284759521,0.30577969551086426,-0.23340371251106262,-0.07437878847122192,-0.13647599518299103,0.022875765338540077,0.32492363452911377,-0.11428938060998917,0.03017088957130909,-0.006591614801436663,0.008827464655041695,-0.25708264112472534,-0.2656504213809967,0.5408684611320496,-0.08436314761638641,-0.07953397929668427,0.25151538848876953,-0.12214035540819168,0.2113008350133896,-0.03978995978832245,0.3055711090564728,-0.2533106207847595,0.17491814494132996,0.14858020842075348,-0.3110409677028656,-0.08460859954357147,0.16312716901302338,-0.005274597555398941,-0.04604919254779816,0.06169576570391655,-0.1322832703590393,-0.24215950071811676,0.08750422298908234,0.23905804753303528,0.4504604637622833,0.22527483105659485,-0.21301689743995667,0.0715903639793396,0.21970924735069275,-0.3342195451259613,0.22313237190246582,-0.38316816091537476,-0.2615373730659485,0.08453210443258286,-0.20252393186092377,-0.0430159717798233,0.17854277789592743,0.07924274355173111,0.023087235167622566,0.0729106143116951,0.3812163472175598,-0.05841318517923355,-0.11602757126092911,0.13954482972621918,-0.08267243951559067,-0.09880372136831284,-0.333290159702301,0.19433484971523285,0.12106181681156158,-0.06736735999584198,-0.011514225974678993,-0.18059052526950836,-0.1699790507555008,0.23336221277713776,-0.1486266553401947,-0.02863006293773651,0.193548783659935,0.1301826685667038,0.009036182425916195,0.20711344480514526,-0.24140019714832306,-0.07346007227897644,-0.2009178251028061,0.08406375348567963,-0.05607854574918747,0.19988685846328735,-0.1746615618467331,0.19849620759487152,-0.2913331687450409,0.3148592710494995,-0.04505065456032753,0.10043918341398239,0.0171558428555727,0.012667933478951454,0.11598631739616394,-0.25210994482040405,0.08055616170167923,0.009134701453149319,0.36209237575531006,-0.385243684053421,-0.03986936807632446],[-0.11985140293836594,0.12228649109601974,0.2295134961605072,0.18757584691047668,-0.0409029945731163,0.26256701350212097,0.15345506370067596,0.11116483062505722,-0.10267189145088196,-0.06365405023097992,0.1822441667318344,-0.317853718996048,0.2738878130912781,0.04635416343808174,-0.1223682090640068,0.08091671019792557,0.07790403813123703,-0.021682094782590866,0.26565709710121155,-0.28192129731178284,-0.15071415901184082,-0.4775886535644531,0.4009886085987091,0.2827232778072357,-0.05945940688252449,0.4407356381416321,-0.1245718002319336,-0.005170727614313364,0.15308566391468048,-0.1976848840713501,-0.15254946053028107,0.21244406700134277,0.025797706097364426,-0.04160589724779129,-0.05149039626121521,-0.20083796977996826,0.25859007239341736,0.1822361946105957,0.08323828130960464,-0.07618965953588486,0.15161339938640594,0.37730857729911804,0.03981901705265045,0.09810446202754974,-0.0080759571865201,0.053346265107393265,0.1653544008731842,-0.07150590419769287,-0.0023378285113722086,0.12958157062530518,0.2764691710472107,-0.2966502904891968,0.34352102875709534,0.10865644365549088,-0.37339597940444946,0.24345876276493073,0.17890208959579468,-0.19224813580513,0.12411804497241974,0.00896446406841278,-0.016645057126879692,0.2498972862958908,-0.09558624029159546,0.19155806303024292,0.18776512145996094,0.11171852052211761,0.014678451232612133,-0.1846240758895874,-0.6966096758842468,0.06624139845371246,0.19517673552036285,0.48412734270095825,-0.04323357343673706,-0.111213319003582,0.36856961250305176,-0.0685560554265976,0.26030877232551575,0.27679207921028137,-0.0433320589363575,-0.05152880772948265,0.09357118606567383,0.14106178283691406,0.08146259188652039,0.014141551218926907,0.21421591937541962,-0.2089102417230606,0.21320953965187073,-0.16557878255844116,0.20972281694412231,0.32831358909606934,-0.31953832507133484,0.0345720611512661,0.38032129406929016,0.16191676259040833,-0.026842566207051277,-0.22574977576732635,0.20267492532730103,0.2190130650997162,0.13015809655189514,-0.13469330966472626,0.39513832330703735,0.5733965635299683,0.06968457996845245,0.019113760441541672,0.1583278328180313,-0.20416207611560822,-0.3353676199913025,0.059538744390010834,-0.012443176470696926,0.26220962405204773,-0.18329761922359467,0.22851072251796722,0.35632723569869995,-0.2601062059402466,-0.15223044157028198,0.16886208951473236,0.5691503286361694,-0.14762692153453827,0.18013575673103333,0.458534300327301,0.2581438720226288,-0.0841478705406189,-0.24260975420475006,-0.20020152628421783,-0.27296000719070435,-0.045432016253471375,0.26010146737098694,0.3083397448062897,0.004404281731694937,-0.09257287532091141,0.10884369909763336,-0.1254192441701889,-0.05644189193844795,-0.14545658230781555,0.249665766954422,-0.32349780201911926,0.06949397921562195,0.11127500981092453],[-0.01347302831709385,0.02970993146300316,-0.09046725928783417,0.08291087299585342,-0.4794638156890869,-0.19314910471439362,-0.34133318066596985,0.21786420047283173,0.05642635375261307,0.12487035989761353,-0.05545281618833542,-0.07087544351816177,0.16732220351696014,-0.03360371291637421,0.13158373534679413,-0.10268077999353409,-0.0883617103099823,-0.03339105471968651,0.0709601640701294,-0.19036035239696503,-0.13728390634059906,0.049573950469493866,-0.19335712492465973,-0.09058517217636108,-0.540797770023346,0.20317363739013672,0.09213238954544067,-0.28582674264907837,0.051466602832078934,-0.24433261156082153,-0.4584288001060486,0.16657669842243195,-0.40630796551704407,-0.08628621697425842,-0.10898717492818832,0.17600677907466888,0.22467146813869476,0.3707927167415619,0.25648969411849976,0.05056898668408394,0.05992884188890457,0.23626944422721863,-0.06910132616758347,0.2500937283039093,0.19012752175331116,-0.1953108161687851,-0.26073288917541504,-0.08225053548812866,-0.17705975472927094,-0.34085917472839355,-0.08525199443101883,0.058341700583696365,0.2247825413942337,-0.21575722098350525,-0.013787562027573586,-0.13801471889019012,0.05358777940273285,0.2481408268213272,0.14799518883228302,-0.031218215823173523,0.0500837080180645,-0.3882391154766083,0.050043050199747086,0.24902655184268951,-0.02086794376373291,-0.4235706925392151,0.18834345042705536,-0.05697932466864586,0.0610278882086277,0.3170011043548584,-0.08404921740293503,-0.26106908917427063,-0.23173022270202637,0.014325289987027645,-0.053124427795410156,0.2885974943637848,-0.22348108887672424,0.01478187832981348,0.3006700575351715,0.36064547300338745,0.18085744976997375,0.19276735186576843,-0.16319887340068817,0.09400302916765213,0.07419705390930176,-0.21892321109771729,-0.20994196832180023,0.14466646313667297,-0.19542424380779266,-0.16813863813877106,-0.04512135311961174,-0.16483506560325623,0.17447271943092346,-0.08023357391357422,0.06963824480772018,0.2452685683965683,0.00036399485543370247,-0.05106166750192642,-0.115696020424366,0.07595457136631012,0.07239490002393723,-0.30568617582321167,0.2273191660642624,0.40345299243927,0.12695342302322388,-0.35595837235450745,-0.21624183654785156,-0.22827865183353424,-0.03136376664042473,-0.05924637243151665,-0.08422428369522095,-0.2487434595823288,-0.583675742149353,-0.11349276453256607,-0.06249840930104256,-0.09505032002925873,0.25978338718414307,-0.07736050337553024,-0.3231528103351593,-0.4395889341831207,-0.053761258721351624,0.06817968189716339,-0.05140426382422447,-0.009077719412744045,-0.029790980741381645,-0.018189264461398125,0.4078638553619385,-0.13884517550468445,0.04129820317029953,0.12009838223457336,-0.04346264898777008,-0.137311190366745,-0.2706039845943451,0.16845685243606567,-0.2170187532901764,-0.4475261867046356,-0.1569104790687561,-0.05809538811445236],[-0.045973967760801315,0.01701994799077511,-0.0985829159617424,-0.3538248538970947,0.10623826086521149,-0.018747780472040176,-0.25637081265449524,-0.24809491634368896,0.34401246905326843,0.3786401152610779,-0.22776208817958832,0.5364153981208801,0.06392322480678558,0.09454365819692612,-0.1919117122888565,0.059478774666786194,0.1721218377351761,-0.10311565548181534,-0.3784799873828888,0.26828891038894653,-0.20020073652267456,-0.17427965998649597,-0.18800930678844452,0.1503363400697708,0.007660499773919582,0.08376403152942657,0.1949097067117691,0.08175930380821228,-0.3083725869655609,0.023092439398169518,0.18660899996757507,-0.36219510436058044,-0.07475577294826508,0.10544750094413757,-0.11011943221092224,0.07526522874832153,-0.23843973875045776,-0.16017760336399078,0.0052319238893687725,0.17890679836273193,-0.11555879563093185,-0.2811708450317383,0.12571299076080322,0.11641114205121994,-0.02855926938354969,-0.12579968571662903,0.34116318821907043,0.16129924356937408,0.01719466596841812,0.09553774446249008,0.05096828192472458,0.33946654200553894,-0.0030349220614880323,0.14715169370174408,0.03419993445277214,0.2765697240829468,-0.00017934595234692097,-0.10817541182041168,0.20823946595191956,0.09992114454507828,0.5700864791870117,-0.055504895746707916,0.07324055582284927,0.18969416618347168,0.19128477573394775,0.1165059357881546,0.15348221361637115,-0.17681832611560822,0.004040478263050318,0.13191887736320496,-0.22572162747383118,-0.2122620940208435,0.25768980383872986,0.11640097200870514,-0.08572794497013092,-0.5068166255950928,-0.06367652118206024,0.18073083460330963,0.010207565501332283,0.3072492778301239,0.0980011373758316,-0.25547459721565247,-0.25604555010795593,-0.1263832002878189,0.07025347650051117,-0.0009218040504492819,-0.06239108368754387,-0.22175703942775726,0.3539617359638214,-0.31395626068115234,-0.19524000585079193,-0.24960735440254211,0.013619272969663143,-0.19221845269203186,-0.020541923120617867,0.10662589967250824,0.13070280849933624,0.09854310750961304,0.22040188312530518,0.03942105546593666,0.08785638213157654,0.3221029043197632,0.05461348220705986,0.04205985367298126,-0.21349501609802246,0.0418349988758564,0.003410745644941926,0.08314590156078339,0.014675963670015335,0.3280729353427887,-0.011272314935922623,-0.10243336856365204,0.27995505928993225,-0.3119507133960724,-0.08073397725820541,0.1808188110589981,-0.15174366533756256,0.2177126556634903,-0.19826577603816986,-0.012624304741621017,0.12729422748088837,0.2876700162887573,0.22561892867088318,0.053355101495981216,-0.15356267988681793,0.022651130333542824,-0.10505697131156921,0.14711962640285492,-0.2904698848724365,-0.06805960834026337,0.16481155157089233,-0.3903791904449463,0.13610489666461945,0.013073456473648548,0.07788480073213577,0.14522334933280945,0.2463037371635437,0.21503135561943054],[-0.39384257793426514,0.0016126723494380713,0.19589410722255707,-0.13864463567733765,0.45452526211738586,-0.13269421458244324,0.1190594956278801,-0.12501077353954315,0.031249625608325005,-0.11765016615390778,-0.10615608096122742,0.3853149712085724,-0.11245381087064743,-0.003994222264736891,-0.4798237681388855,0.284689337015152,0.08051566034555435,-0.2187894880771637,-0.0880146473646164,-0.023013757541775703,0.21317026019096375,0.0945834368467331,-0.16378164291381836,0.289672315120697,-0.11488763242959976,0.02370546944439411,0.05766681581735611,-0.09213905036449432,0.1861027330160141,0.14815720915794373,0.017501749098300934,-0.12694638967514038,-0.1671006679534912,0.03759090602397919,0.2987578809261322,-0.09610969573259354,-0.1427077203989029,0.21077516674995422,-0.06428037583827972,-0.16386662423610687,-0.08260755985975266,0.2554539740085602,0.21967945992946625,-0.21430425345897675,-0.0963909924030304,-0.07767970114946365,-0.2985572814941406,0.5221496820449829,-0.19129818677902222,-0.1094636544585228,-0.04711568355560303,-0.010954555124044418,0.40292391180992126,0.33214375376701355,-0.07313059270381927,-0.22930309176445007,0.033803168684244156,-0.03615882992744446,-0.10139854997396469,-0.013595285825431347,-0.8034157156944275,0.08927963674068451,-0.06868153065443039,-0.0497741624712944,0.06943301111459732,-0.255808562040329,0.17413382232189178,-0.09291159361600876,0.3024132549762726,-0.05794296786189079,0.007453999947756529,0.24909311532974243,-0.11647513508796692,-0.2474672794342041,0.23555290699005127,-0.6967124342918396,-0.26402413845062256,-0.012050040066242218,0.40903374552726746,0.4669758975505829,0.05177838355302811,0.22658877074718475,-0.13601285219192505,-0.042572420090436935,-0.24529926478862762,-0.013503238558769226,-0.2776884436607361,-0.06013447791337967,0.3786638379096985,-0.10372079163789749,0.060859713703393936,-0.044961169362068176,0.13110926747322083,-0.04755368083715439,-0.18452991545200348,-0.09054269641637802,0.24455444514751434,-0.15137943625450134,-0.3263395428657532,-0.021357553079724312,-0.019983381032943726,-0.11132385581731796,-0.06903295964002609,-0.1834390014410019,-0.20538194477558136,0.13174369931221008,0.14334270358085632,0.20362959802150726,0.030602918937802315,-0.07109207659959793,-0.3080301582813263,0.31160464882850647,0.16173696517944336,-0.027314573526382446,0.2482409030199051,0.07554320245981216,-0.015764685347676277,-0.2366141676902771,0.11595670878887177,0.46808797121047974,-0.02153792977333069,0.12646278738975525,0.08056019246578217,0.12452821433544159,-0.07740438729524612,-0.2861723303794861,-0.0598904974758625,-0.22232650220394135,0.2372795194387436,0.07519853860139847,0.020923040807247162,0.02243243344128132,-0.17749005556106567,-0.11165831238031387,-0.16963504254817963,-0.4080260396003723,0.07999053597450256,0.119477778673172],[0.20561040937900543,-0.1604156643152237,-0.2513605058193207,0.10588543117046356,-0.09501220285892487,-0.33694562315940857,-0.02975419908761978,0.35403767228126526,-0.3146800696849823,0.08459437638521194,0.11343696713447571,-0.38969865441322327,0.11263357847929001,0.12738047540187836,-0.0889873206615448,0.5564026236534119,-0.06330271065235138,0.24219141900539398,0.541390597820282,-0.1183704137802124,0.2046482264995575,0.10573787987232208,-0.05859135463833809,0.13178418576717377,-0.1100306436419487,0.338515967130661,0.04229077696800232,-0.407409131526947,0.17289526760578156,-0.1359717696905136,0.2255609780550003,0.16080766916275024,-0.3494098484516144,-0.37361088395118713,-0.27371251583099365,0.3289441466331482,-0.09990078955888748,0.3172360062599182,0.13499245047569275,-0.1610192209482193,0.2984144985675812,0.23121453821659088,-0.006207305006682873,0.09956808388233185,0.0023229720536619425,0.11480872333049774,-0.14576032757759094,-0.14865031838417053,0.1387055516242981,0.16017605364322662,0.1403193473815918,-0.0020456351339817047,0.09422480314970016,0.5317123532295227,0.3572295010089874,-0.2044219970703125,0.3959512412548065,-0.18647673726081848,0.1205059289932251,-0.0027685808017849922,-0.1893874555826187,0.22282074391841888,0.3735179603099823,-0.4958408772945404,-0.32419782876968384,-0.2848532497882843,0.02208096720278263,0.12195871770381927,0.015473411418497562,-0.18689745664596558,0.12385573238134384,0.20598523318767548,-0.16312584280967712,-0.11499525606632233,0.13069851696491241,-0.24477079510688782,0.04346059635281563,0.31778964400291443,-0.1467551589012146,-0.26726099848747253,-0.1324780434370041,-0.1526186168193817,0.1943913996219635,0.343709260225296,-0.23083744943141937,0.31483280658721924,-0.032250288873910904,-0.2568426728248596,0.17107845842838287,-0.12367040663957596,0.01749339886009693,0.15731319785118103,0.25823143124580383,-0.002968813292682171,-0.2029067873954773,-0.15867522358894348,0.15192851424217224,0.10850715637207031,0.13445554673671722,0.04733480513095856,-0.17827798426151276,0.06509684771299362,-0.2511836588382721,-0.14927993714809418,0.047613658010959625,0.09449736028909683,0.034821223467588425,0.3321412205696106,0.2739916443824768,-0.006974529940634966,-0.22067320346832275,-0.33562931418418884,0.0440894290804863,0.3733097016811371,0.27195680141448975,-0.3313387632369995,-0.03563044220209122,-0.4039204716682434,0.14122362434864044,0.5398502349853516,0.28678271174430847,-0.06385206431150436,0.11753229051828384,-0.28296759724617004,-0.12970393896102905,0.06842160224914551,-0.08121735602617264,0.12130357325077057,-0.36250340938568115,-0.03317262604832649,-0.0005404130206443369,0.13249702751636505,0.0631609857082367,-0.25218498706817627,-0.5274220705032349,-0.11791129410266876,0.011376521550118923,-0.22694236040115356],[-0.0721757560968399,-0.006232961546629667,-0.017994217574596405,-0.36606869101524353,-0.32025375962257385,0.06298179924488068,-0.1562012881040573,-0.29657548666000366,-0.10612574964761734,-0.2444041222333908,-0.13523295521736145,0.0534730963408947,0.23148778080940247,0.058374274522066116,-0.2004891186952591,-0.3503306806087494,-0.26591482758522034,-0.04935584217309952,-0.0654376745223999,0.17176206409931183,0.0705094188451767,0.32284462451934814,0.024062469601631165,-0.12585905194282532,-0.0863654688000679,0.16682644188404083,-0.08236490935087204,-0.4020611643791199,-0.4196174740791321,0.1381872147321701,-0.11045663058757782,0.07210475951433182,-0.13560901582241058,-0.1588558703660965,-0.010625568218529224,0.13004916906356812,0.12914060056209564,-0.06468673050403595,-0.10478569567203522,0.06632070243358612,-0.048375193029642105,0.03288760036230087,-0.21474996209144592,0.40796107053756714,-0.048796772956848145,0.29960355162620544,0.014292287640273571,0.26282164454460144,-0.3609170615673065,0.10865526646375656,0.19797299802303314,0.07928034663200378,0.20188188552856445,-0.021137410774827003,-0.1491805911064148,0.18170079588890076,-0.024194346740841866,0.20390348136425018,-0.060054127126932144,-0.055514682084321976,-0.013729818165302277,-0.002295765560120344,-0.198717400431633,-0.32912176847457886,0.030118083581328392,0.11679090559482574,-0.14610201120376587,-0.3710232675075531,-0.09192818403244019,0.21514472365379333,0.055522117763757706,0.16684985160827637,0.13467270135879517,0.03537493944168091,-0.20278023183345795,-0.09599912166595459,0.017080646008253098,-0.10073521733283997,-0.13724802434444427,-0.04140646383166313,0.055205363780260086,-0.2059536725282669,-0.2144070714712143,-0.3059351444244385,0.0007969866856001318,0.2500384747982025,0.23582789301872253,-0.04751376435160637,-0.10302745550870895,-0.06857934594154358,0.2153603434562683,-0.2813573479652405,0.008422990329563618,-0.33488863706588745,0.15576021373271942,0.05423477664589882,0.00611336063593626,-0.21848832070827484,0.1990172117948532,0.4762757420539856,0.2175358533859253,0.7496238350868225,0.07649469375610352,-0.28892460465431213,0.23878692090511322,-0.24260224401950836,0.11061901599168777,0.017914634197950363,-0.15364597737789154,-0.0033192287664860487,0.02308942936360836,-0.05498873442411423,0.12938641011714935,-0.23811498284339905,0.20811891555786133,0.03152432665228844,0.17644719779491425,-0.10199571400880814,0.12414475530385971,-0.40588653087615967,-0.25884485244750977,0.2622092068195343,0.01773976720869541,0.004065363202244043,-0.19705188274383545,-0.19132736325263977,0.06442733854055405,-0.4154894948005676,0.06555600464344025,-0.04272539168596268,0.0673854872584343,0.10155249387025833,0.04763688147068024,0.2173546701669693,0.16466417908668518,-0.3569974899291992,0.16223664581775665,0.09604246914386749],[0.030834997072815895,0.12452356517314911,0.1671753227710724,0.027361707761883736,0.445016473531723,0.1926289200782776,-0.09242292493581772,-0.2942582070827484,0.24603192508220673,0.05159909278154373,0.017301011830568314,0.33370473980903625,0.09519172459840775,-0.06844200938940048,-0.017740566283464432,0.11009319871664047,-0.17967677116394043,0.1769333779811859,-0.1501709222793579,0.23037970066070557,0.022733192890882492,0.2501979470252991,0.3053262531757355,-0.006087162531912327,-0.16622944176197052,-0.03062167949974537,0.1989297717809677,-0.08047494292259216,-0.2861548364162445,-0.03490141034126282,-0.32920002937316895,-0.17241056263446808,-0.34148338437080383,0.0037102364003658295,-0.38544487953186035,-0.3810912072658539,-0.21943634748458862,0.20923566818237305,0.20733757317066193,-0.3228211998939514,-0.24513566493988037,0.11325610429048538,-0.14903832972049713,-0.13894592225551605,0.09636019915342331,-0.1651688665151596,0.09764067083597183,-0.16404755413532257,0.24985618889331818,-0.021116595715284348,-0.03732171654701233,0.028450120240449905,-0.27306750416755676,0.16579023003578186,0.10382241010665894,-0.0014753310242667794,0.2994146943092346,0.039837416261434555,0.16004586219787598,-0.06284909695386887,-0.2463291585445404,0.26297062635421753,-0.07540557533502579,0.12590661644935608,-0.04865969717502594,0.17304086685180664,0.01979047618806362,0.09307368844747543,-0.11169931292533875,-0.21597592532634735,0.2313772290945053,-0.23529887199401855,0.40686526894569397,-0.35296404361724854,0.3522288501262665,0.056684739887714386,0.013633458875119686,0.14520539343357086,-0.05413469672203064,0.10818113386631012,-0.07559854537248611,-0.11083271354436874,-0.31143075227737427,0.2750473916530609,0.03857248276472092,0.24861778318881989,-0.29764485359191895,-0.07155461609363556,0.5818081498146057,0.23068730533123016,-0.05275882035493851,-0.033538561314344406,-0.09389664977788925,-0.16487206518650055,-0.11687051504850388,-0.09384773671627045,0.328419953584671,-0.20398017764091492,-0.03100706823170185,0.06888587772846222,-0.02415393851697445,0.36370834708213806,-0.0077738710679113865,-0.14636172354221344,0.1409953534603119,-0.3259790241718292,-0.1464681476354599,0.01653939299285412,0.05784846842288971,-0.2250862419605255,-0.08548790961503983,-0.4613471031188965,0.046315837651491165,-0.19339628517627716,-0.17007119953632355,-0.31873854994773865,0.08458878099918365,0.08756233751773834,0.06489800661802292,0.3596278727054596,0.1071244329214096,-0.04599310830235481,0.23707042634487152,-0.33438640832901,-0.06490951031446457,-0.07445723563432693,-0.27368345856666565,-0.0657951608300209,-0.13756141066551208,-0.001936187851242721,0.11312537640333176,-0.43234527111053467,0.05370311066508293,0.061598386615514755,-0.17906588315963745,0.12179765105247498,-0.07254327833652496,0.21581482887268066],[-0.018185945227742195,0.11994792520999908,-0.0002909510221797973,0.03696450591087341,0.12571610510349274,0.09380947798490524,-0.017326081171631813,-0.15941211581230164,0.2442721426486969,0.24314510822296143,0.0016969097778201103,0.14844949543476105,0.14241810142993927,-0.12467172741889954,-0.08883903920650482,-0.23918022215366364,-0.10396777093410492,-0.2173159420490265,-0.5125623941421509,0.3454838991165161,-0.03377009555697441,0.18085971474647522,-0.27202266454696655,-0.18805760145187378,0.013713600113987923,0.41709235310554504,-0.24691340327262878,-0.012594236992299557,-0.3515861928462982,-0.11962445080280304,-0.06995482742786407,-0.1994282603263855,0.2914990484714508,0.03842392563819885,-0.24726106226444244,-0.3782055974006653,-0.022329512983560562,0.18002119660377502,-0.10362787544727325,-0.16426514089107513,-0.3421385884284973,-0.04021124169230461,-0.37094733119010925,0.313404381275177,-0.06245385482907295,-0.14761295914649963,0.22196321189403534,0.2001114785671234,-0.09434136748313904,0.13339290022850037,-0.19005948305130005,0.1856895536184311,0.1488543003797531,0.05564974620938301,-0.09262355417013168,0.3296598792076111,-0.4433469772338867,0.16344501078128815,0.15155074000358582,0.4326187074184418,0.2600468099117279,0.010752854868769646,-0.1326054334640503,0.17776155471801758,0.004528737161308527,0.18223737180233002,-0.437622994184494,-0.42663973569869995,-0.25450241565704346,0.19987760484218597,0.02536112070083618,0.21187596023082733,0.18379469215869904,0.0723591223359108,-0.21682769060134888,0.09578385949134827,0.14055803418159485,