[[-0.15987880527973175],[-0.12628142535686493],[0.23954614996910095],[0.035072896629571915],[0.12449952960014343],[-0.20549504458904266],[0.22611753642559052],[0.030566083267331123],[-0.05321551486849785],[-0.15197227895259857],[-0.22120484709739685],[-0.07674936205148697],[0.3285483419895172],[0.033812448382377625],[-0.02531958371400833],[-0.06900870054960251],[-0.2680770456790924],[-0.015569444745779037],[0.06163693964481354],[0.1471346765756607],[0.21913446485996246],[-0.09749872982501984],[-0.16351528465747833],[-0.0076335095800459385],[0.05966196954250336],[-0.2314404994249344],[0.20869308710098267],[0.1792658418416977],[-0.14457309246063232],[-0.15298472344875336],[0.061580806970596313],[0.07073906064033508],[0.2548525333404541],[0.08160553127527237],[-0.05956755205988884],[-0.2583792805671692],[0.14437389373779297],[-0.06911757588386536],[-0.24764849245548248],[-0.22907747328281403],[-0.10871154814958572],[-0.039442095905542374],[-0.06888973712921143],[0.1280682533979416],[-0.03443489596247673],[-0.14703010022640228],[-0.045997899025678635],[0.04091229662299156],[0.09845595061779022],[-0.058301184326410294],[-0.17070026695728302],[-0.14751937985420227],[-0.028465870767831802],[-0.021960584446787834],[-0.14465561509132385],[0.07131458073854446],[0.11006584018468857],[-0.09935497492551804],[-0.1256037950515747],[0.013133338652551174],[-0.012215573340654373],[-0.11070812493562698],[-0.21247437596321106],[-0.2349013239145279],[-0.2196342647075653],[-0.3874828517436981],[-0.3110308349132538],[0.3145889341831207],[-0.08542826771736145],[-0.21592195332050323],[-0.0495142936706543],[-0.06742310523986816],[-0.22025123238563538],[-0.03181749954819679],[-0.04767812415957451],[0.01019056886434555],[-0.17302855849266052],[-0.2290969341993332],[0.0482136607170105],[-0.07980123162269592],[-0.2561338245868683],[0.00008018268272280693],[0.15231238305568695],[-0.11630283296108246],[-0.14373229444026947],[0.011578011326491833],[-0.09347456693649292],[0.048302724957466125],[0.0833362340927124],[0.08604495227336884],[0.027065258473157883],[-0.08080361038446426],[-0.13226325809955597],[0.22727210819721222],[-0.3313300609588623],[-0.20066341757774353],[-0.20001672208309174],[0.17337332665920258],[0.021256377920508385],[-0.09922964125871658],[0.012161686085164547],[-0.34573960304260254],[-0.06332548707723618],[-0.1559937745332718],[-0.02006564848124981],[0.11403018981218338],[0.0646897479891777],[-0.19297876954078674],[-0.09763307124376297],[-0.29486268758773804],[-0.25568971037864685],[-0.03987801447510719],[0.28030407428741455],[0.0625208169221878],[-0.0399724580347538],[0.1501753032207489],[0.18047015368938446],[0.12102407962083817],[-0.18313460052013397],[0.08450328558683395],[-0.13765142858028412],[0.04408346116542816],[0.02347923442721367],[-0.1732148379087448],[-0.15142059326171875],[0.08714611828327179],[-0.331183522939682],[-0.18897967040538788],[0.19774004817008972],[0.3359706699848175],[-0.23610369861125946],[0.1873602420091629],[-0.2642437517642975],[0.021987013518810272],[-0.12984852492809296],[0.2068607360124588],[-0.0519733801484108],[-0.027058837935328484],[0.026424815878272057],[-0.18428416550159454],[-0.17776383459568024],[0.11682145297527313],[-0.018730975687503815],[0.12772825360298157],[0.09374590218067169],[-0.2450382560491562],[-0.3267053961753845],[0.14622950553894043],[-0.1286105066537857],[0.030615713447332382],[0.008358224295079708],[0.2034137099981308],[-0.11576463282108307],[-0.1647896021604538],[-0.043710317462682724],[0.3304522633552551],[-0.3229295313358307],[-0.16364744305610657],[-0.034238554537296295],[-0.14738929271697998],[0.0329238660633564],[-0.028624091297388077],[-0.18001841008663177],[-0.14588817954063416],[0.09612991660833359],[-0.24539101123809814],[-0.0007401304901577532],[-0.06648215651512146],[0.15432359278202057],[0.1544308364391327],[0.16071490943431854],[0.08393310010433197],[-0.11775853484869003],[-0.12659873068332672],[-0.22929520905017853],[0.13121788203716278],[0.12133577466011047],[-0.023592669516801834],[-0.09158691763877869],[0.3004288375377655],[-0.17035996913909912],[-0.15807144343852997],[-0.19640302658081055],[0.045140720903873444],[0.09452736377716064],[-0.23328572511672974],[-0.13417840003967285],[0.12319803237915039],[0.03652307763695717],[0.04484780877828598],[-0.3264182507991791],[0.25966566801071167],[0.04924560338258743],[0.09750711172819138],[-0.15933266282081604],[-0.11999926716089249],[-0.06205190718173981],[0.10448043793439865],[0.13318762183189392],[-0.060059789568185806],[-0.25295311212539673],[0.028029169887304306],[0.09095820784568787],[-0.03368997201323509],[0.14619086682796478],[-0.23936286568641663],[-0.08086242526769638],[-0.0069721173495054245],[-0.15929631888866425],[-0.05016619712114334],[-0.17363475263118744],[-0.00205198279581964],[-0.21589763462543488],[0.10147476941347122],[-0.27526912093162537],[-0.009747026488184929],[0.16182418167591095],[-0.07310474663972855],[-0.06376756727695465],[0.3188193738460541],[-0.11749377846717834],[0.018305299803614616],[-0.10034233331680298],[-0.09532418847084045],[0.11057926714420319],[-0.24982431530952454],[-0.21567854285240173],[0.02246655710041523],[0.0008383778622373939],[-0.32658013701438904],[-0.1793799102306366],[0.19399727880954742],[-0.07283388823270798],[-0.12071186304092407],[-0.11321312189102173],[0.21689556539058685],[0.049858275800943375],[-0.09146545082330704],[0.024623507633805275],[0.2509843111038208],[0.03880695253610611],[-0.2752312123775482],[-0.1580580174922943],[0.039140116423368454],[-0.14872708916664124],[-0.09104560315608978],[-0.06578042358160019],[0.13200321793556213],[-0.17490309476852417],[-0.04704577103257179],[0.1951756328344345],[0.019182296469807625],[-0.20099397003650665],[0.0932469591498375],[-0.14638592302799225],[-0.12558536231517792]]