[[-0.09162209182977676],[0.042119402438402176],[0.08388875424861908],[-0.1830601841211319],[-0.15710484981536865],[-0.14046157896518707],[-0.15816006064414978],[0.4127180576324463],[-0.17969302833080292],[0.0697777047753334],[-0.09155123680830002],[-0.1572176069021225],[-0.2719014585018158],[-0.23009106516838074],[-0.08939853310585022],[-0.1455840915441513],[0.1308552622795105],[-0.34056952595710754],[-0.052393838763237],[0.061123479157686234],[-0.1399778127670288],[0.16236215829849243],[-0.15273386240005493],[-0.1628204733133316],[-0.121998630464077],[-0.09645543247461319],[-0.08896981924772263],[0.13048787415027618],[0.15674559772014618],[0.07248856872320175],[0.06592661887407303],[-0.042472466826438904],[0.3029181659221649],[-0.03232428431510925],[0.20652265846729279],[0.1179887056350708],[-0.035299185663461685],[-0.008140451274812222],[0.004603701643645763],[-0.047027915716171265],[0.4028802812099457],[-0.02243916504085064],[-0.15914621949195862],[0.0361703559756279],[0.3628580570220947],[0.028424078598618507],[-0.3187287151813507],[0.3421580195426941],[-0.1586976796388626],[-0.0913127064704895],[0.16361862421035767],[0.055979859083890915],[0.13293053209781647],[0.11038804054260254],[-0.10182301700115204],[0.06899518519639969],[-0.1194843202829361],[0.028522582724690437],[-0.08275087177753448],[-0.20610982179641724],[0.05149756371974945],[-0.04192859306931496],[-0.15168794989585876],[0.07231756299734116],[-0.0774843692779541],[0.04322054982185364],[-0.09125115722417831],[0.0778009444475174],[0.02700912579894066],[-0.08819906413555145],[0.05235973000526428],[-0.26353058218955994],[-0.34835395216941833],[-0.13074348866939545],[-0.27628880739212036],[0.18068476021289825],[-0.07365882396697998],[-0.07400527596473694],[-0.17762362957000732],[-0.04760422930121422],[0.11678975075483322],[-0.0010137815261259675],[-0.06654376536607742],[0.09455657005310059],[-0.3135303556919098],[-0.23848600685596466],[0.46572524309158325],[0.1154918447136879],[0.03366156294941902],[-0.30763164162635803],[-0.0008893944323062897],[-0.27321335673332214],[0.16176961362361908],[0.09737902134656906],[0.06558352708816528],[-0.08082511276006699],[-0.24816663563251495],[-0.21379604935646057],[-0.010441816411912441],[-0.09643957018852234],[0.13790607452392578],[-0.15797246992588043],[0.11488845944404602],[-0.0722203180193901],[0.3357299268245697],[-0.14106188714504242],[-0.3164244294166565],[0.07887224853038788],[-0.2083558589220047],[0.4035191237926483],[-0.2377920299768448],[-0.03632478415966034],[0.23288623988628387],[-0.18496601283550262],[-0.12280084937810898],[-0.21132613718509674],[-0.05064614862203598],[-0.14846603572368622],[-0.11416579782962799],[0.13318149745464325],[0.034305356442928314],[-0.1303396373987198],[0.14471422135829926],[-0.20831002295017242],[-0.1510949283838272],[0.15024620294570923],[-0.10595586150884628],[-0.09680774062871933]]