[[[0.06877528131008148,-0.04831841588020325,-0.00018082126916851848,-0.010743771679699421,0.13348977267742157,0.006440017372369766,0.13678474724292755,-0.09153138101100922,0.0707443505525589,-0.14667044579982758,0.08906129002571106,-0.2380043864250183,0.01762823574244976,-0.305398553609848,-0.02803793177008629,-0.08714153617620468,-0.1533326655626297,0.012906213290989399,-0.26663243770599365,0.16290909051895142,0.0074233696796,0.06355617195367813,0.045441869646310806,0.06939251720905304,-0.13807477056980133,0.06929139047861099,0.025206170976161957,0.1590016931295395,0.10173182189464569,0.21407963335514069,0.31674376130104065,-0.1563275009393692,-0.0775945708155632,0.10943616926670074,0.17617523670196533,0.2043771594762802,0.1525217890739441,-0.16339202225208282,0.3132328391075134,0.02962738834321499,-0.1317710131406784,-0.15958891808986664,0.19133882224559784,0.19146089255809784,-0.22416406869888306,0.1624436229467392,0.11887922137975693,-0.05475132167339325,0.19713172316551208,-0.03397342562675476,0.09316065162420273,-0.1955520510673523,-0.08759185671806335,-0.17347577214241028,-0.14937277138233185,-0.039332643151283264,0.21035665273666382,0.17134621739387512,0.046473946422338486,-0.2640380263328552,0.23503431677818298,-0.10758666694164276,0.1805580109357834,0.0711837112903595,0.3744736611843109,-0.18604211509227753,-0.06253284215927124,0.035943154245615005,-0.17228180170059204,-0.10724833607673645,0.09290362149477005,-0.09771017730236053,0.04124413803219795,0.06510934233665466,-0.01806975156068802,-0.1563003957271576,0.11062852293252945,-0.05641615018248558,0.013047781772911549,-0.08335833251476288,-0.03668065369129181,-0.019328007474541664,0.09080414474010468,-0.18383808434009552,-0.06954207271337509,0.0304107703268528,-0.2603103816509247,-0.16594068706035614,0.0838104784488678,0.00590783404186368,0.45174723863601685,0.061610981822013855,-0.2515164613723755,-0.025230558589100838,-0.08989372104406357,0.12340451031923294,0.1387576311826706,0.21074029803276062,-0.06703159213066101,0.001419027685187757,0.06353770196437836,-0.03189410641789436,0.04801120609045029,0.2439812868833542,0.08758065849542618,0.0984048917889595,-0.01991930790245533,-0.03400466963648796,0.027689063921570778,-0.05774702876806259,0.1754055619239807,-0.18607422709465027,0.28616079688072205,-0.15354597568511963,-0.006362636107951403,-0.12478942424058914,-0.10542506724596024,-0.25540122389793396,-0.009470393881201744,0.1250665783882141,0.10886400192975998,-0.0009976383298635483,-0.1334577202796936,0.06447327136993408,0.0017725360812619328,0.19723109900951385,0.1862909346818924,0.08545371145009995,0.007375744171440601,0.07130014896392822,-0.153578981757164,0.03987941890954971,0.15328209102153778,0.14860376715660095,0.046492524445056915,-0.02903738059103489,-0.12241709977388382,-0.04966264218091965],[-0.1193714290857315,0.03883247449994087,0.33095818758010864,-0.02200525440275669,0.021058494225144386,-0.04136959835886955,0.13852205872535706,0.4339381754398346,0.017865359783172607,0.09520097821950912,0.08449020981788635,-0.002956998534500599,-0.16846860945224762,-0.0842101201415062,-0.1510366052389145,-0.015775829553604126,-0.038048047572374344,-0.09588932245969772,-0.054038140922784805,-0.026702042669057846,0.06680794805288315,-0.026712430641055107,0.08231408149003983,-0.21298927068710327,0.04757842421531677,-0.03858973830938339,0.0019070166163146496,-0.00846025813370943,-0.1175704300403595,-0.021648479625582695,-0.1743297576904297,0.029325678944587708,0.1973397582769394,0.003992700017988682,0.13242951035499573,0.15315581858158112,-0.19936157763004303,-0.06395286321640015,0.00403241952881217,0.09030964970588684,0.050340406596660614,-0.14335763454437256,0.1567527949810028,-0.24078388512134552,0.11106354743242264,-0.12492623180150986,0.17751075327396393,0.035404715687036514,-0.08188648521900177,-0.07073836028575897,0.20736682415008545,0.03393784910440445,-0.08654655516147614,0.06010407954454422,0.041009727865457535,0.0708242729306221,-0.005848242901265621,0.038122422993183136,-0.1776607781648636,0.11876872181892395,-0.09730582684278488,0.22585327923297882,0.0628897175192833,-0.14416298270225525,-0.005125097464770079,0.2452489733695984,0.014202036894857883,0.12384899705648422,-0.17989861965179443,0.03272705897688866,-0.11636992543935776,0.13102330267429352,-0.03148411959409714,-0.08504392206668854,-0.20546089112758636,0.1706087291240692,-0.019888121634721756,0.02999820001423359,-0.03934402018785477,0.012953438796103,-0.021267449483275414,0.0809033066034317,0.09020572155714035,0.04468763619661331,0.06405085325241089,0.021191339939832687,-0.015089173801243305,-0.03351075202226639,0.05118599906563759,0.03838249668478966,0.043874695897102356,-0.009270568378269672,0.023636532947421074,-0.05627016723155975,-0.07444066554307938,0.18462136387825012,-0.014449467882514,-0.12998732924461365,-0.12410164624452591,0.2230931520462036,-0.16562016308307648,0.1901259422302246,0.08048508316278458,0.02082371711730957,-0.12648063898086548,-0.06545743346214294,0.10858297348022461,-0.01746789552271366,-0.07550007104873657,0.07480907440185547,-0.06856144964694977,-0.24272510409355164,-0.0075460560619831085,-0.02215496450662613,-0.025749005377292633,-0.1140122264623642,0.12265417724847794,-0.08669993281364441,0.13648375868797302,-0.04601281136274338,0.1266743391752243,0.06028338149189949,-0.20120300352573395,0.1065533384680748,-0.2476397454738617,0.17777656018733978,0.03523770347237587,-0.035664815455675125,0.09972468763589859,0.10088754445314407,-0.0435979925096035,0.20383906364440918,-0.029427284374833107,0.2932247221469879,-0.12309234589338303,0.019397513940930367,-0.029398828744888306,-0.09448151290416718],[0.33067670464515686,-0.1321215182542801,0.1519031971693039,0.04471152275800705,-0.0460246317088604,-0.1675053834915161,0.19404664635658264,0.14369554817676544,0.009721890091896057,-0.06097138300538063,0.003335598623380065,-0.019559668377041817,-0.11603032797574997,0.11059346050024033,-0.16353531181812286,0.07446680963039398,-0.14300522208213806,0.09843288362026215,-0.051889244467020035,0.11386242508888245,-0.12476988881826401,0.16102243959903717,-0.05432747304439545,-0.14753195643424988,-0.04230285435914993,0.13154639303684235,-0.08523459732532501,-0.19534985721111298,-0.17870932817459106,-0.07092948257923126,-0.019496288150548935,-0.08765232563018799,0.1052006259560585,-0.11492707580327988,-0.017859749495983124,0.273040235042572,0.14415259659290314,0.12426795810461044,-0.2654155194759369,-0.036369580775499344,-0.0943199172616005,0.03477771580219269,-0.045504480600357056,0.08490880578756332,-0.10915763676166534,-0.032138727605342865,-0.006322692148387432,0.15275877714157104,-0.062437254935503006,0.05075671896338463,-0.006506428588181734,0.13685663044452667,0.14543502032756805,-0.11045628786087036,0.07314236462116241,-0.09366393089294434,-0.16824695467948914,0.2922011613845825,0.18993107974529266,-0.16161298751831055,-0.08664332330226898,0.006854043807834387,0.1639643758535385,-0.17615066468715668,0.13368426263332367,0.09239782392978668,-0.032717086374759674,-0.19693852961063385,-0.11949038505554199,0.16733407974243164,-0.16135551035404205,-0.1555330455303192,0.21150441467761993,0.020544908940792084,0.20354251563549042,-0.04253554344177246,0.08983330428600311,-0.048351842910051346,0.15576453506946564,0.05277117341756821,0.08922725170850754,0.01677740551531315,-0.020719943568110466,0.08681977540254593,0.03398275747895241,0.18511269986629486,-0.1440107822418213,0.265830934047699,-0.19719280302524567,-0.06276031583547592,-0.07336225360631943,-0.048049889504909515,0.09844206273555756,-0.07678676396608353,0.027992717921733856,-0.0005658530280925333,0.167580246925354,-0.09588473290205002,-0.09253521263599396,0.07890262454748154,-0.14458778500556946,-0.12262947857379913,0.14152733981609344,-0.06858188658952713,0.06193994730710983,-0.0821804404258728,-0.23067499697208405,0.029091717675328255,0.0817529633641243,0.18536683917045593,0.06410375237464905,-0.22336533665657043,0.08303104341030121,-0.09582248330116272,0.17690522968769073,-0.17842935025691986,0.07281255722045898,0.09274230152368546,-0.1519879251718521,0.07742273062467575,0.0018605345394462347,0.027813183143734932,-0.04949240759015083,-0.07586176693439484,-0.10749559104442596,0.3188019096851349,0.09431405365467072,-0.029281770810484886,-0.07345263659954071,-0.10151028633117676,-0.033777955919504166,-0.20860059559345245,0.13302981853485107,0.07492900639772415,0.05732278525829315,-0.1755056083202362,0.05045228451490402,-0.26761677861213684],[-0.16236861050128937,0.11967375874519348,0.11762724816799164,0.14841964840888977,0.03478297218680382,-0.03798048198223114,0.023331418633461,-0.07721737027168274,-0.15152931213378906,-0.05377666652202606,-0.08461003750562668,-0.1961115598678589,-0.01258328277617693,0.0977233424782753,-0.2124318927526474,-0.1983698457479477,0.12864510715007782,0.033789072185754776,0.04205501079559326,0.07015755027532578,0.07251077890396118,0.02846549265086651,0.006530742160975933,0.22042928636074066,0.024400798603892326,0.11018002778291702,0.1305149495601654,-0.10087229311466217,0.04327647387981415,0.10063508152961731,0.032298266887664795,-0.043371737003326416,0.1816735416650772,0.10063085705041885,-0.1063908189535141,0.03368421643972397,-0.11654529720544815,-0.09861476719379425,-0.06327410787343979,-0.05522451549768448,-0.11410551518201828,-0.05143820121884346,0.10102985054254532,-0.08673963695764542,0.0445166751742363,-0.06513392925262451,0.15663300454616547,-0.13570256531238556,-0.03843848407268524,0.18944799900054932,-0.0035463348031044006,0.2272331714630127,-0.03812157362699509,0.09925679117441177,-0.01698574610054493,0.1774197518825531,0.06569168716669083,0.05858100205659866,-0.08352206647396088,0.012553898617625237,-0.015979677438735962,-0.13123910129070282,0.0642358735203743,0.025398198515176773,0.01153089664876461,-0.0504775308072567,0.04217008501291275,-0.2663811445236206,0.10236915200948715,0.33130764961242676,-0.17440736293792725,-0.24217906594276428,-0.006931163836270571,0.03296324610710144,-0.03603021055459976,-0.007916306145489216,0.0547911711037159,-0.07064366340637207,-0.06608359515666962,-0.25484639406204224,-0.061856966465711594,-0.2034197896718979,0.025585655122995377,-0.013583735562860966,-0.07079069316387177,0.1055540069937706,0.05031881853938103,0.07225401699542999,-0.008081410080194473,0.07622981071472168,-0.09710071235895157,-0.12319529801607132,-0.17502336204051971,-0.05945592746138573,0.014305522665381432,-0.08467136323451996,-0.037836600095033646,-0.015514731407165527,0.1873183697462082,-0.0834251195192337,-0.0282873697578907,-0.009550119750201702,-0.09419945627450943,-0.16757473349571228,-0.20720268785953522,-0.05896156653761864,0.1552642285823822,0.10436496138572693,-0.1410619467496872,0.03983549028635025,-0.02421015501022339,0.14106392860412598,-0.16066119074821472,0.008998923003673553,-0.06651488691568375,0.05430181697010994,-0.0617627389729023,-0.053676538169384,-0.11982294917106628,-0.016984164714813232,0.03931869566440582,-0.16437692940235138,0.04917285963892937,0.1588914543390274,0.14165252447128296,-0.07681149244308472,0.025657963007688522,-0.049514252692461014,-0.022893046960234642,0.049383729696273804,0.0045767249539494514,-0.3770096004009247,0.20517869293689728,0.05985075235366821,0.057965852320194244,0.011738738976418972,0.04571499302983284,0.08800354599952698],[0.024286644533276558,-0.04030323028564453,-0.12755583226680756,-0.11758682876825333,0.18627111613750458,0.04692823812365532,-0.028161950409412384,0.021604614332318306,0.13955014944076538,-0.0844341441988945,0.02388071082532406,0.17596739530563354,-0.01145355124026537,-0.038295090198516846,0.04667738825082779,-0.0015637294854968786,-0.1914328932762146,-0.19684825837612152,-0.16625913977622986,-0.03319631516933441,-0.000245659495703876,-0.22848020493984222,-0.18108485639095306,0.04255995899438858,-0.017596367746591568,0.1796235740184784,0.09455648064613342,-0.11684238165616989,0.0933757871389389,0.3052736818790436,-0.12651970982551575,-0.13513733446598053,0.1255555897951126,0.08567196130752563,-0.038166508078575134,-0.1271180957555771,0.27469295263290405,-0.326546311378479,0.01823558658361435,0.21231326460838318,-0.09765782952308655,-0.16842912137508392,0.12689465284347534,-0.12665455043315887,-0.12324870377779007,-0.07999420911073685,0.027628973126411438,0.048781026154756546,0.012084847316145897,-0.10162722319364548,0.06186075508594513,0.027521610260009766,0.23314088582992554,-0.09755296260118484,0.1033569723367691,0.07344350963830948,0.1987343281507492,-0.08512512594461441,0.05945780128240585,-0.014057205989956856,0.17214742302894592,0.16566339135169983,0.2509360611438751,-0.013782825320959091,0.09008513391017914,-0.12933525443077087,-0.07395725697278976,0.132141575217247,-0.03051159158349037,0.09329573065042496,-0.1112029105424881,-0.06751356273889542,-0.03432704880833626,0.026446592062711716,0.23004236817359924,-0.08386343717575073,0.11552184820175171,0.16707874834537506,-0.2196347564458847,-0.04995198920369148,0.04196596518158913,-0.07097064703702927,-0.1906963437795639,0.08242243528366089,0.1368149071931839,0.08659163117408752,0.22041745483875275,0.04659035801887512,-0.10661052912473679,0.07267075777053833,0.12682004272937775,0.0859348252415657,0.10394797474145889,-0.024108361452817917,0.012718971818685532,0.02777109481394291,-0.03241453319787979,-0.029546396806836128,-0.0940256118774414,-0.037781473249197006,0.24545663595199585,-0.021038994193077087,-0.1118658110499382,-0.05743035674095154,-0.17703981697559357,-0.03392927721142769,-0.08081766217947006,-0.06121104583144188,0.07265839725732803,0.10873603075742722,0.07994623482227325,0.01955110765993595,0.06781180948019028,-0.03594214469194412,-0.012844160199165344,-0.050648219883441925,0.12238357216119766,0.0780864730477333,-0.05231046304106712,-0.05749049410223961,0.056269075721502304,-0.07652981579303741,0.08363571763038635,0.04325835034251213,0.04747539386153221,-0.1841486394405365,0.0032650399953126907,0.12042693048715591,0.029377883300185204,-0.039622437208890915,-0.12891434133052826,-0.013291376642882824,-0.0024249027483165264,-0.014978565275669098,-0.08401240408420563,0.03656264394521713,0.16288693249225616,0.19865326583385468],[-0.052531637251377106,0.08365664631128311,0.23399551212787628,-0.09388808906078339,-0.07534102350473404,0.13719020783901215,0.05486945062875748,-0.20996716618537903,0.09404370933771133,0.24624502658843994,-0.035591524094343185,-0.16794835031032562,-0.037284005433321,0.22286859154701233,-0.02747984230518341,0.045381657779216766,0.002667638473212719,0.06359309703111649,-0.007112171035259962,0.11340336501598358,0.14699414372444153,-0.04408647119998932,0.026491375640034676,0.10998057574033737,0.028229927644133568,0.06392831355333328,0.08604247868061066,0.13657212257385254,-0.14348770678043365,0.15643121302127838,0.05639401823282242,0.08907844126224518,-0.05023126304149628,-0.16936953365802765,0.1281200647354126,0.12255384773015976,-0.14971965551376343,0.04305528476834297,-0.09205199778079987,-0.05948325991630554,0.10568536818027496,0.05948052182793617,0.01666390523314476,-0.08093997836112976,0.02556455321609974,-0.021870138123631477,0.04972899705171585,-0.023625634610652924,-0.10141030699014664,-0.0132712721824646,0.25546643137931824,-0.07904565334320068,0.1795399785041809,-0.02153397537767887,0.05430227145552635,-0.05902748927474022,0.13871851563453674,-0.049993354827165604,-0.20333874225616455,-0.025857508182525635,-0.06839331239461899,0.05772178992629051,0.02496923878788948,-0.059444595128297806,-0.036874912679195404,0.040771521627902985,-0.017555730417370796,-0.02514497935771942,0.10292123258113861,-0.03897756710648537,0.009001203812658787,0.1378391832113266,0.01230720803141594,0.0038554437924176455,-0.0892796590924263,0.2058056741952896,-0.08784104138612747,0.13306161761283875,-0.019556131213903427,-0.003371976548805833,-0.1710551232099533,0.07605982571840286,0.09860434383153915,-0.039173007011413574,-0.09175894409418106,0.17771287262439728,-0.09036821126937866,-0.1455368995666504,-0.09002267569303513,0.1532360464334488,0.15607191622257233,-0.07315228134393692,-0.11469528079032898,-0.11403784155845642,-0.035101380199193954,0.19439198076725006,0.1116286888718605,0.005825338885188103,-0.08492553234100342,0.04453938081860542,-0.04784290865063667,-0.021233130246400833,-0.00013385398779064417,0.1017926037311554,0.16753190755844116,-0.08907314389944077,-0.024490391835570335,0.18486514687538147,0.023050371557474136,0.18061062693595886,0.02523518167436123,0.017971040681004524,0.165305495262146,-0.01100969035178423,-0.16288691759109497,0.10209880769252777,-0.0944967046380043,-0.04648289084434509,0.15507982671260834,0.06830400228500366,0.044511690735816956,0.2084115743637085,0.08412746340036392,0.05349363014101982,-0.05549139901995659,-0.10332309454679489,-0.20014473795890808,-0.21774575114250183,-0.15956071019172668,-0.03450703248381615,0.1172310933470726,-0.08228133618831635,-0.04941597208380699,0.13407239317893982,-0.02496129460632801,-0.07656189054250717,0.09225388616323471,-0.20101431012153625],[0.06991956382989883,-0.014908352866768837,0.12811709940433502,-0.05079335719347,-0.16585513949394226,-0.10369277745485306,0.021458281204104424,0.010997582226991653,0.0924515575170517,0.2021702080965042,-0.3066869378089905,0.18761441111564636,0.19237801432609558,0.32921403646469116,-0.14137493073940277,-0.06885423511266708,-0.12909705936908722,0.020255258306860924,0.009387600235641003,-0.11743970215320587,-0.0405796654522419,-0.11482570320367813,0.10161532461643219,0.015113242901861668,-0.028987951576709747,0.16091936826705933,0.05790303274989128,-0.18947263062000275,0.04550568759441376,-0.04579850286245346,0.031060829758644104,-0.04690815135836601,0.03804975375533104,-0.05924830585718155,0.011167231015861034,-0.07039644569158554,-0.16848427057266235,-0.1043599396944046,-0.046775933355093,-0.14734631776809692,0.13990290462970734,-0.10299178212881088,-0.1899242103099823,0.10466214269399643,0.006743560545146465,-0.12870031595230103,-0.2015969455242157,-0.19988775253295898,0.00956264603883028,0.21156825125217438,0.0156763456761837,0.14385318756103516,-0.24077412486076355,-0.21870538592338562,0.025359205901622772,-0.08311078697443008,0.03154486045241356,0.02710760571062565,-0.20649687945842743,-0.08275671303272247,-0.07840002328157425,0.1171075776219368,-0.14074818789958954,0.05637998506426811,-0.12369747459888458,0.22926916182041168,0.1072607934474945,0.01564469374716282,0.0020158104598522186,-0.2087099552154541,0.11423442512750626,0.028645511716604233,0.035392697900533676,-0.0697643831372261,-0.13866417109966278,-0.04234912618994713,-0.04966748505830765,0.050049103796482086,-0.08356758952140808,0.23030923306941986,-0.15538786351680756,-0.12927311658859253,0.05479011684656143,-0.23478582501411438,-0.03183501586318016,-0.07574955374002457,-0.08776913583278656,-0.03437912464141846,-0.13532891869544983,-0.14180809259414673,-0.017669906839728355,0.25730055570602417,-0.021751919761300087,0.03305096551775932,-0.269785076379776,-0.03188801556825638,0.012256389483809471,-0.056389112025499344,-0.08636811375617981,-0.14622391760349274,0.005015149712562561,-0.0354805588722229,0.2668401002883911,0.01621692255139351,-0.046863023191690445,0.08550962805747986,-0.07305252552032471,0.1222955584526062,0.031598370522260666,-0.027199335396289825,0.1442478746175766,0.08118277788162231,0.08061984926462173,0.10123269259929657,0.0863947719335556,-0.09022819250822067,-0.18488842248916626,0.05315256118774414,0.4349886476993561,-0.07796534150838852,0.1514693796634674,0.07529842108488083,0.07082344591617584,-0.0571102574467659,-0.22990307211875916,0.06931951642036438,0.075929656624794,-0.11885295063257217,-0.07275677472352982,-0.027640925720334053,0.07263093441724777,0.10003439337015152,-0.2415308803319931,0.12053640186786652,-0.10505320131778717,-0.11429385840892792,-0.09916873276233673,-0.04871486499905586],[0.1384405642747879,-0.1653161197900772,0.14366453886032104,0.003904670476913452,-0.09749139845371246,-0.007881414145231247,0.12157919257879257,0.06528857350349426,-0.07132497429847717,-0.009517873637378216,-0.18005293607711792,0.18262223899364471,-0.02673806995153427,0.034018948674201965,-0.06293325126171112,0.13956233859062195,-0.17851562798023224,0.22870689630508423,0.11477573961019516,-0.09758928418159485,0.03999748080968857,-0.1622437685728073,-0.11616715788841248,0.15009474754333496,-0.06678659468889236,0.02025775983929634,0.05178150162100792,-0.11942849308252335,-0.15700411796569824,-0.2347709834575653,0.29322701692581177,-0.1878054291009903,-0.07786596566438675,0.011853808537125587,-0.03743080422282219,-0.0026216376572847366,0.031153326854109764,-0.17863869667053223,0.00413505919277668,-0.18104282021522522,-0.00953506026417017,0.12471932917833328,-0.050024326890707016,-0.020015673711895943,0.12662792205810547,-0.07963554561138153,0.08174379169940948,-0.03537391871213913,0.08542219549417496,-0.019445670768618584,0.008586714044213295,0.08555556833744049,0.08277963101863861,-0.1355738639831543,-0.06122352555394173,0.009595083072781563,-0.030759988352656364,-0.2850832939147949,0.32312583923339844,-0.08917892724275589,-0.12668073177337646,-0.14724992215633392,-0.048793140798807144,0.014426462352275848,0.008531679399311543,-0.2340976595878601,-0.1346588432788849,0.13971193134784698,0.09335921704769135,0.10382049530744553,0.04002257063984871,-0.07742045819759369,0.20222721993923187,-0.03359673172235489,-0.025636477395892143,0.09005621820688248,0.1508086919784546,0.15549084544181824,0.12079484760761261,0.3232884109020233,-0.12058418989181519,0.0449797660112381,-0.07517560571432114,-0.012688696384429932,-0.0026365735102444887,0.0771741047501564,0.14027535915374756,-0.11608175933361053,-0.08144418895244598,-0.032238077372312546,-0.03393324464559555,-0.07715208828449249,0.04058888182044029,-0.06055250018835068,0.1833120733499527,-0.212038055062294,0.12037448585033417,0.18216782808303833,0.15991739928722382,-0.005607394501566887,0.013350185938179493,-0.269297331571579,-0.04888909310102463,-0.11740432679653168,-0.13088731467723846,0.18988822400569916,0.07368356734514236,-0.08965829014778137,-0.15615534782409668,0.2079697549343109,0.06483551114797592,-0.04544937238097191,0.04948471859097481,0.00866385642439127,-0.052374646067619324,-0.009381846524775028,0.2044333517551422,-0.07444753497838974,0.027977362275123596,0.12212302535772324,-0.017159661278128624,0.11507640779018402,-0.18028253316879272,0.16482508182525635,0.06128343194723129,0.17830584943294525,-0.13881883025169373,0.04262091964483261,-0.08300735801458359,0.05818136781454086,0.06866803020238876,-0.034579429775476456,0.07123887538909912,0.1288042515516281,-0.03706406429409981,-0.05066028982400894,-0.0321044996380806,-0.05408278480172157],[-0.027219479903578758,0.1759292632341385,0.10918249934911728,-0.1440185010433197,-0.06748659163713455,-0.011007416062057018,0.1002710834145546,-0.012749629095196724,0.09431450814008713,-0.051185183227062225,-0.06099381297826767,-0.1419314295053482,0.07093241810798645,0.0012793318601325154,-0.021384725347161293,0.04034913331270218,-0.03040672466158867,0.1932140588760376,-0.23487746715545654,0.03506850823760033,0.04913315176963806,-0.10555396229028702,-0.017996767535805702,-0.06518185883760452,-0.007834095507860184,0.14314618706703186,-0.17289438843727112,-0.22856013476848602,-0.055161405354738235,-0.04665129631757736,0.0962538793683052,-0.00386258983053267,0.11457060277462006,-0.06092771142721176,-0.2037593573331833,-0.0602450855076313,-0.1122175008058548,0.01840638928115368,-0.08654418587684631,-0.05708424001932144,0.20821410417556763,0.0564701110124588,0.02532423660159111,-0.057956263422966,0.06498107314109802,0.20676694810390472,-0.1383577585220337,-0.22160077095031738,-0.16710412502288818,0.09551867842674255,0.12906435132026672,-0.04756259545683861,0.044657766819000244,0.08621291071176529,-0.055252790451049805,0.19860026240348816,0.07982945442199707,0.08950717002153397,-0.3018651604652405,-0.28194084763526917,0.18947184085845947,-0.03534846007823944,-0.15074515342712402,-0.0005630610976368189,0.08375818282365799,-0.06376684457063675,0.0438026562333107,0.035311296582221985,0.19848135113716125,-0.1214703842997551,-0.05724885314702988,0.23058569431304932,-0.13269047439098358,-0.15337924659252167,-0.0581388920545578,0.035296592861413956,0.032132044434547424,-0.00866859033703804,-0.09462790191173553,-0.03489658236503601,0.1434236466884613,0.00508641405031085,0.008186841383576393,-0.05873921886086464,0.18824607133865356,-0.06659961491823196,-0.094231016933918,-0.10000412911176682,-0.03284221515059471,0.13634496927261353,0.05268323794007301,0.17943105101585388,-0.18614397943019867,-0.02751956880092621,-0.06892036646604538,0.04802750423550606,0.0885307639837265,0.0018104061018675566,-0.027160536497831345,0.2151675522327423,-0.02425026334822178,-0.15885843336582184,-0.019086847081780434,0.0447775200009346,0.039771996438503265,-0.012640567496418953,-0.18642210960388184,0.023521585389971733,0.01379050686955452,-0.0752125084400177,0.07098808884620667,0.009068217128515244,0.028152786195278168,-0.04624413698911667,-0.051403116434812546,0.057782985270023346,0.23999223113059998,-0.06702231615781784,-0.06839526444673538,-0.13724802434444427,-0.041402339935302734,0.18537114560604095,-0.08526290208101273,-0.11064016073942184,0.14506784081459045,-0.03987676650285721,-0.030519630759954453,0.03912101686000824,-0.1650211662054062,-0.057256780564785004,-0.14800728857517242,-0.07015824317932129,-0.2577223777770996,0.048566341400146484,0.009080776013433933,-0.03888101875782013,-0.5189744234085083,0.09535552561283112],[0.1518891155719757,0.06319034844636917,-0.03910999745130539,-0.14716315269470215,0.22635091841220856,0.06325498223304749,-0.09090901166200638,-0.03310122713446617,-0.11217151582241058,0.012778245843946934,-0.39017391204833984,-0.01020786352455616,0.16499514877796173,0.009532819502055645,-0.009161306545138359,0.02992241084575653,-0.2533590793609619,-0.1571577489376068,-0.2867416441440582,-0.11634448915719986,0.061743393540382385,-0.019647954031825066,0.06760882586240768,0.12556801736354828,0.07600632309913635,-0.031222404912114143,-0.014904406853020191,-0.07419144362211227,-0.18729738891124725,-0.046589888632297516,-0.16492129862308502,0.08783205598592758,0.023933300748467445,0.17628872394561768,0.13261355459690094,-0.14349594712257385,0.0921240746974945,-0.24047832190990448,-0.057877521961927414,0.040762659162282944,0.0008506448357366025,0.016252439469099045,-0.07192178070545197,-0.09258991479873657,0.0033629233948886395,0.015355128794908524,0.12408693879842758,0.007489739451557398,0.08082128316164017,-0.05995669588446617,-0.042878132313489914,-0.004059264902025461,0.002343797357752919,-0.03257147595286369,-0.0240621380507946,0.05551840364933014,-0.03233249858021736,-0.16809409856796265,-0.0405881442129612,0.05173955857753754,-0.030416658148169518,0.0402282290160656,0.05559259280562401,-0.1735449731349945,0.03519552946090698,-0.06401588767766953,0.01898832432925701,-0.1988130509853363,-0.11545811593532562,-0.024731064215302467,0.024233097210526466,-0.2511335611343384,-0.05805111676454544,-0.011555482633411884,0.01587444543838501,-0.04449406638741493,0.032240238040685654,0.08958065509796143,0.03430389240384102,-0.15110661089420319,0.04022398218512535,0.02214653417468071,0.03982275724411011,0.025278285145759583,0.2251528650522232,-0.04450491815805435,0.12386669218540192,0.08623473346233368,0.19007261097431183,-0.06369993090629578,0.23255576193332672,-0.2557888329029083,-0.03381379321217537,-0.1322513222694397,0.0720696672797203,0.14272429049015045,-0.1182134822010994,-0.12687835097312927,0.10083862394094467,-0.3227272033691406,0.01090670470148325,0.14982688426971436,-0.025731684640049934,-0.010864165611565113,0.2869132459163666,-0.11178438365459442,-0.13978728652000427,-0.18456074595451355,-0.06558360904455185,0.06288137286901474,0.11123285442590714,-0.09456972777843475,-0.17261679470539093,0.08214324712753296,0.08942456543445587,-0.08707503974437714,0.11325671523809433,0.06721319258213043,0.26268941164016724,-0.055228348821401596,-0.08174260705709457,0.05234038084745407,0.20592938363552094,-0.11062043905258179,0.22720813751220703,-0.04352274164557457,-0.193439781665802,0.1418742686510086,0.057725273072719574,0.06844789534807205,0.025293586775660515,0.059337835758924484,0.08192659914493561,0.09565038233995438,0.07649185508489609,0.10208147764205933,0.012540253810584545,0.05454379320144653],[0.24694190919399261,0.16471347212791443,0.00019994884496554732,-0.26063165068626404,0.02461041323840618,-0.07462006062269211,0.10985495895147324,-0.03943001851439476,-0.054848216474056244,-0.12826275825500488,-0.20248520374298096,-0.16947047412395477,0.0565967783331871,-0.002989957109093666,-0.017113255336880684,-0.01419807318598032,0.0778663158416748,0.13625502586364746,-0.023684941232204437,-0.12767815589904785,-0.14421945810317993,0.057619962841272354,-0.013191893696784973,0.16437894105911255,0.11210742592811584,-0.12020472437143326,0.04377419874072075,0.031205467879772186,0.01905987598001957,0.03965111821889877,-0.14861708879470825,0.15857309103012085,0.03230633959174156,-0.04877551645040512,0.1073998510837555,0.20255181193351746,0.17346873879432678,-0.009159446693956852,-0.22011816501617432,0.20703428983688354,-0.17801284790039062,0.09585115313529968,0.0016181139508262277,-0.08895252645015717,-0.020316893234848976,-0.06009410321712494,-0.022314006462693214,0.030828015878796577,-0.07561188191175461,-0.2942776679992676,0.044700153172016144,-0.010682208463549614,-0.07421749830245972,0.15446242690086365,0.08138158917427063,0.007321482058614492,-0.07663649320602417,-0.19937920570373535,0.11821217089891434,0.05335734039545059,-0.05650966987013817,-0.1841042935848236,0.07293873280286789,-0.04297858104109764,-0.013811684213578701,0.016908232122659683,-0.1275617480278015,-0.01233004778623581,0.08185713738203049,-0.09730978310108185,0.25171858072280884,-0.08322326838970184,0.08231011778116226,-0.11052990704774857,-0.007053870242089033,0.09069068729877472,0.15547408163547516,0.11755289137363434,0.15709148347377777,0.0461527556180954,-0.034485720098018646,0.04733125865459442,0.16958963871002197,-0.058196067810058594,0.06897276639938354,0.04954349249601364,0.023531420156359673,0.32826027274131775,0.032657474279403687,0.08800750970840454,-0.31902581453323364,-0.097052201628685,0.1065194234251976,0.06727619469165802,-0.06354375928640366,-0.07879157364368439,-0.09306487441062927,0.03280793875455856,-0.018622471019625664,0.09826894104480743,0.04513878747820854,-0.16889043152332306,0.0663519874215126,0.09439518302679062,-0.022001679986715317,0.10404054075479507,-0.08873286098241806,-0.06740829348564148,-0.06872843950986862,-0.01801835186779499,0.13120758533477783,-0.015178204514086246,-0.02729010581970215,0.12112312763929367,0.08167999237775803,0.09050070494413376,-0.24665310978889465,0.06521742790937424,0.05582012981176376,0.19706298410892487,-0.013056899420917034,-0.08990416675806046,-0.16828608512878418,-0.2212483435869217,-0.001921241288073361,0.2218887060880661,0.03112468495965004,0.1701495498418808,0.0701042115688324,0.20662921667099,0.10037795454263687,0.04239033907651901,-0.17682278156280518,-0.04385228455066681,-0.07443349808454514,-0.12182272970676422,0.04304380342364311,-0.1192830428481102],[0.1509128212928772,-0.19834285974502563,-0.14470893144607544,0.0968129113316536,0.0734846219420433,-0.049484699964523315,-0.07629851251840591,-0.002993001602590084,-0.17222391068935394,-0.030298182740807533,-0.044660575687885284,0.24590261280536652,-0.17231513559818268,0.14744187891483307,-0.11364609748125076,0.005934000015258789,0.08525098115205765,-0.0876448005437851,0.10087250173091888,0.1333971470594406,-0.08905840665102005,-0.018688974902033806,0.043998073786497116,-0.008881661109626293,0.1357526332139969,0.11593959480524063,-0.1985929310321808,-0.10469302535057068,0.12746985256671906,0.08811347186565399,0.024971479550004005,-0.013075035996735096,-0.013107954524457455,0.054943379014730453,0.2542487382888794,0.11255181580781937,-0.0044246092438697815,0.024981774389743805,0.05679906904697418,-0.02706809528172016,-0.224066823720932,-0.08820407837629318,-0.030841950327157974,-0.08397678285837173,-0.14052681624889374,-0.019391171634197235,-0.16645386815071106,-0.006068499758839607,-0.043138399720191956,0.10206817090511322,0.05826221778988838,-0.12028391659259796,0.10935162752866745,0.048305071890354156,-0.18924233317375183,-0.15456663072109222,0.1263229101896286,-0.08914198726415634,-0.0816478580236435,-0.12194231897592545,0.22128669917583466,-0.06197364255785942,-0.011830043978989124,-0.019990846514701843,0.10197079181671143,0.07926724851131439,-0.3115302324295044,0.22940360009670258,-0.01212309394031763,0.05794111639261246,-0.08436351269483566,-0.09792022407054901,-0.06466543674468994,0.06563267856836319,-0.018759600818157196,-0.0653233677148819,0.014382593333721161,0.11647806316614151,0.10218634456396103,-0.0024240247439593077,-0.0630490705370903,0.041541434824466705,-0.03982608765363693,-0.048292376101017,0.09628719836473465,0.15307636559009552,0.02672022022306919,-0.21364402770996094,-0.06378399580717087,-0.023120615631341934,0.05201800912618637,-0.06173880025744438,0.10180021822452545,-0.011502317152917385,-0.043739739805459976,-0.03989163786172867,0.049095820635557175,-0.11115659028291702,0.03279956430196762,0.0832446962594986,0.06164340302348137,0.18057109415531158,0.03537055104970932,0.010945897549390793,-0.14209339022636414,-0.078663669526577,0.1362762302160263,-0.054397277534008026,-0.008880723267793655,0.0764571875333786,0.01687960885465145,-0.20581188797950745,0.0010546923149377108,0.11406133323907852,0.17816634476184845,-0.03319649025797844,-0.03067946434020996,-0.03282030299305916,-0.21249035000801086,0.22369487583637238,0.10137548297643661,0.15579108893871307,-0.06105745956301689,0.22885006666183472,0.0738576129078865,-0.0378573015332222,0.10315743833780289,-0.026736978441476822,-0.25117507576942444,-0.044193629175424576,-0.10249369591474533,0.03254123032093048,0.11127761006355286,-0.1069241613149643,-0.026332123205065727,-0.16056883335113525,-0.10227544605731964,0.09148585796356201],[0.07771584391593933,-0.0908394306898117,0.23066160082817078,-0.01094346959143877,0.25066518783569336,-0.1465579718351364,-0.08991292864084244,-0.04555695131421089,0.07313007861375809,-0.15353254973888397,-0.029075147584080696,0.2546981871128082,0.03168383240699768,0.14755569398403168,0.01344645768404007,-0.2956251800060272,0.10181586444377899,0.13372735679149628,0.22241540253162384,0.05821353569626808,-0.015790989622473717,-0.00034290089388377964,0.14078636467456818,-0.18754638731479645,-0.013078414835035801,0.06526689976453781,0.07729773223400116,-0.1282152682542801,0.07588537782430649,0.0034802041482180357,-0.11297838389873505,-0.002036008518189192,0.07575468719005585,0.07228565216064453,0.13963304460048676,0.09961642324924469,0.005769409704953432,0.00032232326338998973,0.07942070066928864,-0.00855796318501234,-0.138834148645401,0.20242729783058167,-0.12014219909906387,0.01892937906086445,0.16609728336334229,0.04488838464021683,0.10554666817188263,-0.061843227595090866,-0.11969710886478424,0.028648270294070244,-0.1826692670583725,0.3466587960720062,-0.0002552051446400583,0.09733903408050537,0.029291309416294098,0.0635768249630928,0.2282056361436844,-0.13770267367362976,0.10179752856492996,-0.17639948427677155,0.15052524209022522,-0.06912526488304138,-0.14499740302562714,0.15990868210792542,-0.13301506638526917,-0.1723170131444931,0.08169940114021301,0.09748821705579758,0.07776641845703125,0.2855261564254761,0.02952374517917633,0.08077853918075562,-0.32545602321624756,-0.0415242575109005,0.19436392188072205,-0.08548726886510849,-0.08249441534280777,-0.16334837675094604,0.12390047311782837,0.07068706303834915,-0.16682983934879303,0.013336432166397572,-0.18727804720401764,0.023058947175741196,0.14416371285915375,-0.012904745526611805,0.07411408424377441,-0.10821732878684998,0.0695030465722084,-0.05473566800355911,0.12319135665893555,0.07493692636489868,-0.08414094150066376,0.033660802990198135,0.12916980683803558,-0.1323980838060379,0.12601657211780548,0.02705102600157261,-0.0016199188539758325,-0.09864950180053711,-0.05530475452542305,0.22027042508125305,-0.17342697083950043,-0.033511798828840256,-0.2690806984901428,0.048293326050043106,-0.11079130321741104,0.12178538739681244,-0.1883152425289154,0.02245194837450981,0.018670257180929184,-0.03172020986676216,-0.050487324595451355,-0.031083540990948677,0.17419523000717163,-0.07993397116661072,0.015102745033800602,0.19264672696590424,0.16037335991859436,-0.10320031642913818,0.07315700501203537,0.14356660842895508,-0.20028014481067657,0.10788410902023315,0.13625851273536682,-0.07281368225812912,-0.03129458799958229,0.09959347546100616,-0.24689005315303802,-0.012912704609334469,0.024465100839734077,0.2309461385011673,0.025294555351138115,0.07472798973321915,0.06376489996910095,0.2576318085193634,0.04423210397362709,0.07444632053375244],[-0.01721249893307686,0.011671377345919609,-0.21155905723571777,0.10615363717079163,-0.029201453551650047,0.0644097700715065,0.22169847786426544,-0.14466708898544312,0.16623514890670776,0.17927579581737518,0.004364555701613426,0.14207221567630768,-0.1744697391986847,-0.06126327067613602,-0.11987198889255524,0.06105678528547287,-0.019896358251571655,-0.03779713809490204,-0.08489346504211426,0.13120824098587036,-0.04772348701953888,-0.15158936381340027,-0.039848800748586655,-0.18091453611850739,0.06557895243167877,0.1852695792913437,0.1584475338459015,-0.004943273030221462,0.15142269432544708,-0.044949229806661606,-0.06612454354763031,-0.07371223717927933,0.08225321024656296,0.04430750757455826,-0.14742277562618256,-0.23326757550239563,0.0849977433681488,-0.03944556415081024,-0.0014296441804617643,-0.07822485268115997,-0.005413600243628025,-0.16265679895877838,0.15843448042869568,0.1628810167312622,0.010108642280101776,-0.032831549644470215,0.045961130410432816,-0.04349720478057861,0.0062161097303032875,-0.21007777750492096,-0.0014597568660974503,-0.03625554218888283,0.22477295994758606,0.04153710603713989,-0.16185884177684784,0.04517913609743118,0.14180055260658264,0.028907787054777145,0.02279200591146946,-0.043299928307533264,0.09968592971563339,-0.07325374335050583,0.10396585613489151,-0.01859913393855095,0.15561002492904663,-0.15888658165931702,-0.16801157593727112,-0.07453039288520813,-0.033065494149923325,-0.05192970484495163,0.13147573173046112,0.19302816689014435,0.0880865529179573,0.01501671876758337,0.15434281527996063,0.021016914397478104,-0.004270927049219608,0.3894256055355072,0.1890503317117691,-0.04625590890645981,-0.006050010211765766,-0.1827257126569748,-0.14622096717357635,-0.14346358180046082,0.06841260939836502,0.011326019652187824,0.26870089769363403,-0.016968047246336937,0.0030854970682412386,-0.006410281173884869,-0.045463744550943375,-0.24339056015014648,-0.07459980249404907,0.018338143825531006,0.15785013139247894,-0.048207055777311325,-0.10091462731361389,0.11468078941106796,-0.07860518991947174,0.05274954438209534,-0.07497835159301758,0.0016931479331105947,0.025605415925383568,-0.05745023861527443,0.07538896054029465,0.0665416419506073,0.19967566430568695,-0.07201311737298965,0.11009372770786285,-0.15708744525909424,-0.20568066835403442,-0.032436393201351166,0.18788546323776245,-0.0538044273853302,-0.13038021326065063,-0.09497462213039398,0.049647390842437744,-0.5470831394195557,0.028579823672771454,0.009519905783236027,0.1826367974281311,-0.30921658873558044,-0.09489201754331589,0.15638870000839233,0.1044948548078537,0.024832872673869133,0.09473805129528046,0.040581114590168,-0.1680937558412552,0.041889820247888565,0.05171598866581917,-0.04824459180235863,0.1400139033794403,-0.05101967602968216,0.13005106151103973,0.0776418074965477,-0.11360233277082443,-0.24520118534564972],[0.021052870899438858,-0.012278678826987743,0.21903260052204132,-0.027370383962988853,0.11354144662618637,-0.12713907659053802,-0.0747164636850357,0.061517104506492615,-0.30764690041542053,0.015197131782770157,0.031794868409633636,-0.07333909720182419,-0.2131156027317047,-0.02393549494445324,-0.19387361407279968,0.11379890888929367,0.0882219597697258,0.10267005860805511,0.1175631731748581,-0.042265746742486954,0.018428290262818336,0.09057371318340302,-0.02750452235341072,-0.18316681683063507,0.08313202857971191,0.038926444947719574,-0.046609580516815186,-0.03171733394265175,-0.06236957386136055,0.14731812477111816,-0.1565362513065338,0.034948643296957016,-0.1784750372171402,-0.007101009134203196,-0.013200780376791954,-0.03351237252354622,0.07740016281604767,-0.1375097632408142,0.1363065391778946,0.021674789488315582,0.05351809784770012,-0.060637086629867554,-0.17865099012851715,0.03470189496874809,0.06761680543422699,-0.029044846072793007,0.08568983525037766,0.2166215479373932,0.02400778979063034,-0.0035520002711564302,0.05924900248646736,-0.1390448957681656,0.08334671705961227,0.03137392923235893,0.2409767061471939,-0.029193485155701637,0.07116636633872986,0.16787929832935333,-0.14976781606674194,-0.1493295431137085,0.033239781856536865,-0.08017917722463608,0.07942841202020645,0.1469832956790924,-0.14329414069652557,-0.0331062413752079,-0.04746691510081291,-0.031038032844662666,0.13209162652492523,0.056049685925245285,-0.06264226138591766,0.0647401437163353,0.02222931571304798,0.049370188266038895,-0.05926394835114479,-0.1270371526479721,-0.008391149342060089,-0.11447411775588989,0.06704554706811905,0.1030677929520607,-0.07296653836965561,-0.15553990006446838,-0.16248014569282532,-0.15802526473999023,-0.10544827580451965,-0.13171380758285522,0.05367954075336456,0.06558271497488022,0.11397148668766022,-0.002737040864303708,-0.1685568243265152,-0.13023197650909424,-0.08252131193876266,0.016634589061141014,-0.1654239147901535,0.07666365802288055,0.08967167139053345,0.03953618183732033,-0.028337134048342705,0.04669257998466492,0.21036973595619202,-0.014933601021766663,-0.22787737846374512,0.139286607503891,0.08532007783651352,-0.3020150661468506,0.0886455774307251,-0.003156894352287054,0.04726877436041832,0.22004884481430054,0.057292912155389786,0.10292268544435501,0.03419262170791626,0.02228892780840397,-0.1294640600681305,0.004575939383357763,0.1099894642829895,-0.09731222689151764,0.17178316414356232,0.0345972441136837,0.13352452218532562,0.03046843782067299,-0.022094793617725372,0.1254899501800537,0.23794488608837128,0.026477588340640068,0.044933974742889404,0.056653816252946854,0.0755801573395729,-0.13502679765224457,-0.13392938673496246,-0.11625506728887558,0.11509393155574799,0.13415977358818054,-0.039195816963911057,0.012057023122906685,-0.06736178696155548,0.06195783615112305],[-0.18466033041477203,-0.09200111776590347,0.19072596728801727,0.0469401516020298,0.021589964628219604,0.020575299859046936,-0.1367390751838684,-0.19693219661712646,-0.005579802673310041,0.05685203894972801,0.07165182381868362,0.04722839966416359,-0.14416836202144623,-0.030486242845654488,0.03915215656161308,-0.15330691635608673,-0.06483019888401031,0.26484841108322144,0.027464481070637703,0.13349615037441254,-0.17105093598365784,-0.020352443680167198,0.006357293576002121,0.12787875533103943,0.04817577823996544,0.11672384291887283,-0.044979311525821686,-0.10757725685834885,-0.03802572563290596,-0.26544108986854553,-0.13330703973770142,-0.020191706717014313,-0.16336721181869507,-0.17446130514144897,-0.022581512108445168,0.07402048259973526,-0.22423705458641052,-0.07399103045463562,0.017175469547510147,-0.043039076030254364,0.02795238047838211,-0.11306951940059662,-0.09183096140623093,-0.10835978388786316,0.040261946618556976,-0.29625454545021057,0.2586267590522766,-0.0043761273846030235,-0.16745468974113464,-0.022211195901036263,-0.045232560485601425,-0.08361001312732697,-0.18381144106388092,-0.06861325353384018,0.02953055128455162,0.08706670999526978,0.04363987594842911,0.006424416787922382,-0.05358981341123581,0.012357008643448353,-0.07828576862812042,-0.08893442153930664,0.11521638184785843,0.11464899778366089,0.1525651216506958,-0.02778116799890995,-0.13309939205646515,-0.1527087390422821,0.0880509689450264,-0.014211287721991539,-0.035085927695035934,-0.14197494089603424,-0.08877334743738174,0.07040727883577347,-0.016591161489486694,-0.0888967216014862,-0.13611100614070892,0.12116724252700806,-0.010087593458592892,0.060851212590932846,-0.017792100086808205,0.07243308424949646,0.07670115679502487,-0.15122024714946747,-0.0412105917930603,-0.10135859996080399,-0.06066486984491348,0.1572059839963913,-0.038176458328962326,-0.10305154323577881,0.08770938217639923,0.3571530878543854,0.11107844114303589,-0.19598440825939178,-0.007812540046870708,0.05265367776155472,0.15065155923366547,-0.1981743723154068,-0.39593786001205444,0.09275218099355698,0.009434998966753483,0.08791130781173706,-0.15464453399181366,-0.05469684675335884,0.21606327593326569,0.09839819371700287,0.03700610250234604,0.0016631996259093285,0.09433353692293167,-0.03142845258116722,0.08712341636419296,0.0826803594827652,0.1283649504184723,-0.10398887097835541,-0.10183264315128326,0.026441989466547966,-0.0410277433693409,0.043553728610277176,0.12403754144906998,-0.02313929796218872,0.11392010748386383,0.11774390935897827,0.06505633145570755,0.044969018548727036,-0.20780010521411896,0.1251203566789627,0.1907782256603241,-0.13604766130447388,-0.07101978361606598,0.1688382923603058,-0.1037045493721962,0.15792936086654663,0.11447621136903763,0.10650542378425598,-0.08892704546451569,-0.22780007123947144,-0.142701655626297,-0.21465769410133362],[-0.1193632185459137,-0.0004513867315836251,-0.18788878619670868,-0.196138396859169,-0.2670179009437561,-0.18425874412059784,0.21750181913375854,0.12759798765182495,-0.032319359481334686,-0.07238113880157471,-0.041114140301942825,0.00404192041605711,0.009938105940818787,-0.042385347187519073,0.03881435841321945,-0.007728517986834049,0.09410393238067627,0.12434890121221542,-0.04556621238589287,-0.23062437772750854,0.046768464148044586,-0.04967239871621132,-0.04583537578582764,-0.043783582746982574,-0.26282522082328796,0.09371881932020187,-0.04974331706762314,0.08646564185619354,0.17614948749542236,-0.04705532267689705,-0.22599388659000397,0.3092663288116455,-0.00848397333174944,-0.22106888890266418,0.07024611532688141,-0.10022789239883423,0.006476900074630976,0.1057480201125145,-0.04628878831863403,0.1183730959892273,0.06675778329372406,-0.011803998611867428,0.12192440778017044,0.039598431438207626,-0.09144211560487747,-0.07825874537229538,0.27064815163612366,-0.09560093283653259,0.11002513766288757,0.0031321158166974783,-0.15458570420742035,0.08801393210887909,0.006195591762661934,-0.08816363662481308,0.10326973348855972,0.0173399206250906,-0.09408824145793915,0.16362522542476654,-0.020535573363304138,0.08038970828056335,0.0184054896235466,0.14071546494960785,0.08235176652669907,-0.013134332373738289,-0.004779973067343235,0.11995840072631836,-0.0424460768699646,0.03323574364185333,-0.10731786489486694,-0.14478667080402374,-0.07285184413194656,-0.013544628396630287,0.08247904479503632,0.13210910558700562,-0.03470383957028389,0.04892987385392189,-0.0801338404417038,0.12421873956918716,-0.11509504169225693,-0.21167632937431335,-0.014912075363099575,-0.1741151213645935,-0.16597482562065125,-0.027113493531942368,0.2608802914619446,-0.03567204996943474,-0.23258471488952637,0.21125997602939606,-0.12415657937526703,-0.14879770576953888,-0.03115987777709961,-0.07618986070156097,0.041983138769865036,-0.16754531860351562,0.10184977203607559,-0.02346128039062023,-0.051670659333467484,-0.09822166711091995,0.11043821275234222,-0.05899881571531296,0.12456758320331573,-0.018971657380461693,-0.04308405518531799,0.3679192066192627,-0.00808712188154459,-0.0015348702436313033,-0.037435878068208694,0.07468804717063904,-0.22678478062152863,-0.022695858031511307,-0.10553032159805298,-0.01893194578588009,0.034916918724775314,0.05316117778420448,-0.09621325880289078,-0.046062927693128586,0.21518118679523468,-0.03228304162621498,0.12602628767490387,0.11429286003112793,-0.09197193384170532,0.12839066982269287,0.04209330305457115,0.005006343126296997,-0.14537765085697174,0.0007391535327769816,-0.06448975950479507,-0.053711291402578354,-0.07127966731786728,0.09635443985462189,-0.01024780422449112,-0.008776660077273846,0.029988357797265053,0.07042720913887024,-0.0309011060744524,0.010764424689114094,-0.07471856474876404,-0.00815412774682045],[0.13869257271289825,-0.018589457497000694,0.0043538338504731655,-0.06926719844341278,-0.13263067603111267,0.11121538281440735,0.02215990610420704,0.16911114752292633,0.05975966528058052,0.20910292863845825,0.03222803398966789,0.08460372686386108,-0.12299737334251404,-0.1737099587917328,0.07208270579576492,-0.11282561719417572,0.13603776693344116,-0.02372238039970398,0.035911139100790024,0.24165886640548706,-0.06408294290304184,-0.03439736366271973,0.009591025300323963,0.05953815579414368,-0.03007877990603447,0.012936010025441647,0.002096771029755473,0.02165304310619831,0.10201048105955124,-0.05116306617856026,-0.09765655547380447,-0.06413232535123825,-0.06383644789457321,-0.14415353536605835,0.16630464792251587,0.023125721141695976,0.1494869738817215,-0.06753300130367279,-0.06506644189357758,-0.13236230611801147,-0.07801557332277298,0.0029201768338680267,-0.1261521577835083,-0.16710342466831207,0.11642907559871674,0.047525614500045776,-0.250479131937027,-0.052849460393190384,-0.1764424443244934,0.08931588381528854,0.029686573892831802,-0.08336486667394638,-0.19006457924842834,0.04470156505703926,0.07108796387910843,-0.14001433551311493,0.034453462809324265,0.03406549245119095,0.18725605309009552,0.21727246046066284,0.13698536157608032,-0.2566206157207489,0.010822847485542297,0.026181694120168686,-0.058461785316467285,0.20302385091781616,-0.024536678567528725,-0.018120067194104195,0.15196803212165833,0.08643800020217896,-0.07485274225473404,-0.14013876020908356,-0.19692346453666687,0.058034855872392654,-0.09478040039539337,-0.04750614985823631,-0.0904076099395752,0.06621357798576355,0.04369740933179855,-0.3046286106109619,0.06665689498186111,0.22572410106658936,0.05050727725028992,-0.18537651002407074,-0.08147227764129639,0.0632271021604538,-0.0008372730226255953,-0.15143409371376038,0.16556021571159363,-0.023181738331913948,0.08296170830726624,0.011385883204638958,0.1177050843834877,0.05850199609994888,0.014663252048194408,-0.051093969494104385,-0.17304925620555878,0.28804609179496765,0.02354469522833824,-0.07842829078435898,-0.018739381805062294,0.13827373087406158,0.26093360781669617,0.23560090363025665,-0.016732433810830116,0.1519017219543457,-0.022933591157197952,0.024721890687942505,-0.02896805852651596,-0.14671854674816132,0.09391053020954132,0.05429691821336746,-0.06939680874347687,0.10601379722356796,-0.1759553849697113,0.12121427059173584,-0.0568678118288517,-0.1272106170654297,-0.1274002194404602,0.06756474077701569,0.033705636858940125,0.07980288565158844,-0.008173875510692596,0.13269183039665222,-0.05895942822098732,0.014934316277503967,-0.02765490487217903,-0.09730371832847595,-0.06761239469051361,0.03892024606466293,-0.060757242143154144,0.15548217296600342,-0.10712741315364838,-0.008648788556456566,0.022754911333322525,0.18005609512329102,0.11090317368507385,0.15226267278194427],[0.06345932930707932,0.13275516033172607,-0.2891324758529663,0.002477136207744479,0.1841907501220703,0.015518874861299992,0.06222731992602348,-0.09687341004610062,0.1618560403585434,0.18634462356567383,0.06561535596847534,-0.034279171377420425,0.2769809663295746,-0.1459759622812271,-0.03304686024785042,-0.037004705518484116,0.09453919529914856,0.11049927026033401,-0.15401609241962433,0.15116433799266815,-0.09590472280979156,0.17770668864250183,-0.07030845433473587,-0.17080681025981903,0.04629082605242729,-0.07827131450176239,0.05144765228033066,-0.12178656458854675,0.06159190833568573,-0.023048650473356247,-0.020678242668509483,-0.07711905986070633,0.06518332660198212,0.0956755131483078,-0.07568653672933578,0.04721350967884064,0.11658003181219101,-0.02071436122059822,0.28309935331344604,0.10787881165742874,-0.22121717035770416,-0.30928951501846313,0.12388197332620621,0.16332295536994934,-0.09378797560930252,0.08736209571361542,0.036729056388139725,-0.03177639842033386,0.08444690704345703,0.018509015440940857,-0.16848231852054596,0.03141588345170021,0.16069301962852478,0.09225846827030182,-0.3421345353126526,-0.010085414163768291,0.10971608012914658,0.18157073855400085,0.034293558448553085,0.08375325053930283,0.12283387035131454,-0.06622117012739182,0.0435170903801918,0.04555129259824753,-0.047334395349025726,0.15145298838615417,-0.13886375725269318,-0.00216543092392385,0.03869910165667534,0.16138720512390137,-0.09652547538280487,-0.07467305660247803,0.01733512431383133,0.05687747150659561,0.10601487010717392,-0.1118040531873703,-0.006099024787545204,0.093962661921978,0.021432502195239067,0.031171344220638275,0.004728668835014105,-0.03939118981361389,0.0276804156601429,0.16367734968662262,-0.05156000331044197,-0.06762849539518356,-0.0012929673539474607,-0.04145536199212074,0.03874415531754494,-0.06516715884208679,0.08772067725658417,-0.011999811045825481,-0.03443537652492523,0.08287172764539719,-0.31969088315963745,0.021741095930337906,0.1784597933292389,-0.19864793121814728,-0.21326753497123718,0.08717126399278641,-0.20256854593753815,0.10138267278671265,0.06384643912315369,0.0996604785323143,0.12410081177949905,0.07264603674411774,0.030351024121046066,-0.08315643668174744,-0.0279444120824337,-0.024425068870186806,-0.015215402469038963,0.09502944350242615,-0.15204709768295288,-0.245978444814682,-0.15231026709079742,-0.012759736739099026,-0.0003079707094002515,-0.25642815232276917,0.133372962474823,-0.002073948737233877,0.14627908170223236,-0.07664193212985992,0.010100610554218292,0.16556711494922638,0.023554934188723564,-0.10032065957784653,0.057688258588314056,-0.07844997942447662,0.03366975858807564,0.06573762744665146,0.1948048174381256,-0.11103259772062302,0.12381692230701447,-0.12077462673187256,-0.2718888819217682,-0.09787111729383469,0.11617429554462433,-0.09434764832258224],[0.09284216165542603,-0.021542511880397797,-0.006099657621234655,0.10928082466125488,-0.19286003708839417,-0.06451249122619629,-0.09987431764602661,-0.03408787399530411,-0.05445117875933647,0.04273289069533348,-0.10915840417146683,-0.026709524914622307,0.23900145292282104,0.16041973233222961,-0.13906358182430267,-0.16113446652889252,-0.07330142706632614,-0.055221881717443466,-0.12254327535629272,-0.18472164869308472,-0.0657503604888916,-0.0038068254943937063,0.18939974904060364,0.06303565204143524,0.05837741121649742,0.09916534274816513,0.10082946717739105,0.07804276049137115,-0.03214448317885399,0.09592220932245255,-0.0500255711376667,-0.18730154633522034,0.017620094120502472,-0.08217018842697144,0.07700701057910919,0.023069443181157112,0.07484035938978195,-0.03932918980717659,0.01749538816511631,0.2364102303981781,0.033561695367097855,0.041438810527324677,-0.09767221659421921,-0.13956274092197418,0.07517887651920319,0.25421014428138733,0.1443900465965271,-0.021145325154066086,0.33507040143013,-0.1578018218278885,0.1776110827922821,0.058502472937107086,0.028884418308734894,-0.022715307772159576,0.22270168364048004,0.09121837466955185,-0.07553305476903915,-0.19518698751926422,-0.022212330251932144,0.03544916585087776,0.08188623189926147,0.08710353076457977,-0.1445038914680481,-0.14101414382457733,-0.07108455151319504,0.07933530956506729,-0.1326480656862259,0.020326510071754456,-0.010618242435157299,0.06012130156159401,-0.18813765048980713,-0.12159445136785507,0.022153770551085472,0.15239118039608002,-0.08069947361946106,-0.08221270143985748,-0.00862996093928814,0.024022813886404037,-0.000617229554336518,-0.022641580551862717,0.004943649284541607,-0.18294785916805267,-0.06664087623357773,0.08663268387317657,-0.06650763005018234,0.09866344928741455,-0.009728399105370045,0.07776382565498352,0.07357017695903778,-0.087980255484581,-0.11964091658592224,0.1995982974767685,-0.15544787049293518,0.10319624096155167,-0.01287207379937172,0.2991270422935486,-0.11990846693515778,-0.06424742192029953,-0.021415619179606438,0.0696038231253624,0.05766409635543823,0.03796194866299629,-0.08331917971372604,0.06294126808643341,0.03416166082024574,0.04794475436210632,-0.017777210101485252,-0.009206481277942657,0.01888316124677658,-0.006025170441716909,-0.04861801862716675,0.010482541285455227,-0.1627655327320099,0.009701152332127094,0.05089128389954567,-0.06944026798009872,0.09566514194011688,0.0897313803434372,-0.08126018196344376,0.05770087242126465,0.11653605848550797,-0.055051933974027634,0.04887509346008301,0.07172011584043503,-0.027094172313809395,0.29988762736320496,0.0181726161390543,0.18654584884643555,0.04069988802075386,0.1202022060751915,-0.07966072857379913,0.01681068167090416,0.24218739569187164,0.000048902631533565,0.009497673250734806,-0.024648377671837807,-0.19728797674179077,-0.06631243973970413],[0.0564461275935173,-0.17777280509471893,-0.05118342489004135,0.07448592782020569,0.07304183393716812,0.022611236199736595,0.13449199497699738,0.034718383103609085,0.11800818145275116,-0.15004250407218933,0.032702092081308365,0.03614770621061325,-0.2200799286365509,-0.061374109238386154,-0.04176923632621765,-0.1576111614704132,0.08786988258361816,-0.20711968839168549,0.16024604439735413,0.08567702770233154,0.040858495980501175,0.06016284599900246,-0.010612963698804379,-0.05515720695257187,0.05488752946257591,0.03488035500049591,0.019117727875709534,0.033695660531520844,0.05485277995467186,-0.060305725783109665,-0.19468805193901062,-0.09041382372379303,-0.1183839738368988,0.12893323600292206,0.04019724577665329,-0.08981150388717651,0.11171875894069672,-0.09077896177768707,-0.10971470922231674,0.11763383448123932,-0.13192707300186157,-0.1390988826751709,-0.1586354821920395,0.027641959488391876,0.04046560823917389,-0.060219306498765945,0.15066786110401154,0.03142833337187767,0.008690975606441498,0.02801325172185898,-0.11238740384578705,0.00009572650014888495,0.02437906712293625,-0.01957719586789608,0.25195080041885376,-0.16593118011951447,-0.062073204666376114,0.24172942340373993,0.12775065004825592,0.14900055527687073,-0.05675119161605835,-0.044467877596616745,-0.052101582288742065,-0.12941116094589233,-0.008398041129112244,-0.05282951518893242,0.046951327472925186,-0.20135214924812317,-0.03601923584938049,-0.17889174818992615,-0.008612189441919327,-0.1636350452899933,-0.15310709178447723,-0.14858177304267883,0.2003384530544281,0.09190627187490463,0.08669973909854889,-0.17647932469844818,-0.13379159569740295,0.04427497088909149,-0.15159675478935242,0.15810304880142212,-0.11925677955150604,-0.060306988656520844,0.06623876839876175,0.11614125221967697,0.03458738327026367,-0.11989196389913559,-0.040915779769420624,0.07574107497930527,0.057672251015901566,-0.09499981999397278,0.12174748629331589,-0.0681612491607666,-0.2087995409965515,0.014011278748512268,0.10643208026885986,-0.010587072931230068,0.17191767692565918,-0.0764736458659172,-0.04944971948862076,0.07794883102178574,0.05959395691752434,-0.11809450387954712,-0.19658704102039337,0.12449342757463455,0.13234040141105652,-0.17491984367370605,-0.021236035972833633,-0.10244198888540268,-0.14390340447425842,-0.17733484506607056,0.0410245843231678,-0.06363381445407867,0.06428609043359756,0.02966681867837906,0.09806215763092041,-0.21529421210289001,-0.06839218735694885,-0.02168332226574421,-0.14941219985485077,0.039710115641355515,-0.03471960127353668,-0.06206825375556946,-0.031055716797709465,0.20979595184326172,0.11354139447212219,-0.18735238909721375,0.014130755327641964,-0.16593177616596222,0.018163878470659256,-0.05734657123684883,-0.11842633783817291,-0.18280072510242462,0.04702958092093468,-0.01590384542942047,0.07883816957473755,0.14984747767448425],[-0.12248394638299942,0.046326249837875366,0.1052430272102356,0.015102654695510864,0.09474213421344757,-0.011009658686816692,0.08723980188369751,0.007579924538731575,-0.030923478305339813,-0.062101732939481735,0.17172636091709137,0.0035345470532774925,-0.0025639142841100693,0.11887159198522568,-0.042118173092603683,0.06784208863973618,0.01250550802797079,0.04525388404726982,0.1290046125650406,0.14899547398090363,0.2588866353034973,0.11865927278995514,-0.19486063718795776,0.06217172369360924,-0.12314008921384811,-0.06961943209171295,0.09334462136030197,-0.10642915219068527,-0.12743201851844788,-0.03667067363858223,-0.2347886711359024,0.000060362865042407066,-0.12174167484045029,0.21949946880340576,-0.1906551867723465,0.180477112531662,0.08738917857408524,-0.014519106596708298,-0.05230284482240677,-0.11939575523138046,-0.2004871964454651,0.08131539076566696,-0.09931075572967529,0.023190394043922424,0.014940970577299595,0.05103237181901932,-0.11920542269945145,0.04221781715750694,0.029142066836357117,0.05433792993426323,-0.10990850627422333,-0.2021111100912094,0.09103871136903763,-0.017335165292024612,-0.009563133120536804,0.1529664695262909,-0.04411156475543976,-0.15624767541885376,0.10973948240280151,0.021081240847706795,-0.03155573830008507,0.0938335657119751,0.05265999585390091,-0.1422322690486908,-0.03921373188495636,-0.19103248417377472,0.03629743307828903,0.0038738707080483437,-0.13046994805335999,0.05129871144890785,-0.031213238835334778,-0.07047101110219955,-0.049372348934412,0.1292349398136139,0.051083143800497055,0.06869179755449295,0.12934450805187225,0.2935543358325958,-0.0029712470714002848,-0.20036335289478302,0.07210622727870941,-0.07156611233949661,-0.23922300338745117,0.09159000217914581,0.06172487884759903,0.08036184310913086,-0.08032915741205215,0.2869648039340973,0.03330041468143463,-0.07596371322870255,0.16129149496555328,-0.13433420658111572,-0.2145785242319107,0.1682644486427307,0.04445551708340645,0.08194684237241745,-0.1561112403869629,0.00914896372705698,0.10571227967739105,-0.04071517661213875,0.009549254551529884,-0.1772865355014801,-0.05130690336227417,-0.24271491169929504,0.11974727362394333,-0.16749617457389832,-0.1324855238199234,0.025136679410934448,0.03372970595955849,0.03215453028678894,0.06841585040092468,0.1283857822418213,-0.12757457792758942,0.06453154236078262,0.013581112958490849,0.1584862321615219,0.030667534098029137,-0.010845553129911423,-0.15226416289806366,-0.05277818441390991,0.06721232086420059,-0.10652267187833786,0.12652817368507385,-0.10791754722595215,-0.23453855514526367,0.030246738344430923,-0.3849007785320282,0.04729791730642319,0.24460726976394653,0.1694299578666687,-0.1140502393245697,-0.01840895414352417,0.0816403478384018,-0.2002294361591339,-0.017938323318958282,0.08326511085033417,0.15131288766860962,-0.05410461872816086],[0.1571323424577713,-0.003574980655685067,-0.3130320906639099,0.10425614565610886,-0.10978943854570389,-0.09136388450860977,0.1507996767759323,-0.14344729483127594,0.040334783494472504,0.05518290027976036,-0.06353593617677689,0.0746418833732605,-0.11550355702638626,-0.06994933634996414,-0.04710041359066963,0.07967184484004974,-0.11736182123422623,-0.16122183203697205,0.14326214790344238,0.22189326584339142,-0.045636024326086044,-0.12929502129554749,0.16321220993995667,0.11563432216644287,-0.14391081035137177,0.06784912198781967,-0.04617687687277794,0.039028652012348175,-0.05932235345244408,-0.07736963778734207,-0.20086583495140076,-0.009051721543073654,-0.10156672447919846,-0.05222166329622269,-0.051906902343034744,0.13801565766334534,0.07581416517496109,0.07806961238384247,0.04948263242840767,0.2618881165981293,-0.0223873108625412,0.0057341186329722404,0.27164456248283386,0.06397020071744919,-0.0811818540096283,-0.1747869998216629,-0.23171280324459076,0.058055851608514786,0.0077443174086511135,-0.06168689951300621,0.2003173828125,0.09265874326229095,0.1553012579679489,-0.04817533865571022,0.16210991144180298,0.04093368723988533,0.014183923602104187,0.0665498897433281,0.1366913914680481,0.03367486596107483,-0.1839447319507599,0.07459479570388794,0.13784359395503998,-0.1454252451658249,-0.10082174092531204,0.05857333913445473,-0.1284550279378891,-0.1267676055431366,-0.05979372560977936,-0.0690542608499527,-0.2607516646385193,0.04809549078345299,-0.10129355639219284,0.05834319815039635,0.08584468811750412,-0.04838011786341667,-0.18641267716884613,0.07805157452821732,0.09823203086853027,-0.010654386132955551,-0.0006858306587673724,0.18747340142726898,0.001771272742189467,0.06780840456485748,0.02366708219051361,-0.05874280259013176,-0.21821992099285126,0.030190614983439445,-0.19046540558338165,0.09730017930269241,-0.14865535497665405,-0.018733525648713112,0.013842056505382061,-0.10053080320358276,-0.20787149667739868,-0.07305695861577988,0.07095029950141907,0.1639465093612671,-0.058701518923044205,0.12938882410526276,0.09064831584692001,-0.07292310148477554,-0.11495775729417801,-0.24382157623767853,0.19377844035625458,0.21521787345409393,0.10463877022266388,0.09926332533359528,-0.017734169960021973,0.027875574305653572,0.1218603327870369,0.05937414616346359,0.15532928705215454,0.19824615120887756,0.002762245712801814,-0.0017995521193370223,0.0921211689710617,-0.10861235857009888,0.057672955095767975,0.0789482370018959,-0.0010936280013993382,0.031232425943017006,0.04920509085059166,-0.059973832219839096,-0.09707698971033096,0.19816738367080688,-0.05520403012633324,-0.13135194778442383,0.05363975837826729,0.11005657911300659,-0.012113459408283234,-0.06558529287576675,-0.16624385118484497,-0.17930151522159576,0.15835829079151154,0.03380474075675011,0.0856601893901825,0.05841797962784767],[0.03236467018723488,0.09111271798610687,0.0766785591840744,-0.18182916939258575,-0.05609771981835365,-0.34661737084388733,0.016168134286999702,-0.16555903851985931,0.21399074792861938,-0.1534034162759781,0.1305161714553833,0.16945451498031616,0.29903993010520935,-0.061545636504888535,0.09407219290733337,0.06248818710446358,-0.06336427479982376,0.12227217853069305,0.050652459263801575,-0.025846103206276894,-0.09462933987379074,0.06667163223028183,0.34666907787323,-0.08150920271873474,0.25823935866355896,0.1129278913140297,0.13583189249038696,-0.15078242123126984,-0.006069442257285118,0.02329380251467228,0.12601572275161743,-0.07580014318227768,0.11885352432727814,-0.12060954421758652,0.24387091398239136,-0.057800810784101486,0.11491474509239197,0.07522745430469513,-0.052332911640405655,0.10627203434705734,-0.17265036702156067,0.0955757349729538,0.010252471081912518,0.30317145586013794,0.04448673874139786,-0.03559936210513115,-0.08390070497989655,-0.005089280661195517,0.07377056777477264,-0.09634166955947876,-0.06306877732276917,0.1664213389158249,-0.07603620737791061,0.12225957959890366,0.22108328342437744,-0.082890585064888,-0.0877012312412262,-0.028166335076093674,0.10569263994693756,0.037624672055244446,0.10090245306491852,-0.09428621828556061,-0.06538357585668564,-0.13657647371292114,0.08282449096441269,0.041160907596349716,-0.18319180607795715,-0.20819619297981262,0.07616820931434631,-0.01366840023547411,-0.043136343359947205,-0.10631442815065384,-0.0056994277983903885,-0.10127195715904236,-0.15612861514091492,0.26821523904800415,-0.06899672746658325,-0.012765197083353996,-0.048969097435474396,0.008608897216618061,-0.18816208839416504,0.028065567836165428,0.10520651936531067,0.10003424435853958,0.07407140731811523,0.18611007928848267,0.09085509926080704,0.11312238872051239,-0.13210217654705048,-0.15287169814109802,-0.1960800737142563,0.05927545577287674,0.02880508080124855,0.08366801589727402,0.21002022922039032,0.0923137217760086,-0.07522889226675034,-0.001364101655781269,0.17662794888019562,0.014726218767464161,-0.11149930208921432,0.09844231605529785,0.013215232640504837,0.023474527522921562,-0.1261846423149109,0.09399136900901794,0.24235618114471436,-0.12251636385917664,-0.12861986458301544,-0.16391485929489136,-0.137875497341156,-0.1069328710436821,-0.1251050978899002,0.06819619983434677,-0.1418381631374359,-0.10567033290863037,-0.05605899170041084,0.03611181303858757,0.02330464869737625,-0.16585403680801392,-0.048289697617292404,0.011826299130916595,0.01776811107993126,-0.1540500372648239,0.08820100128650665,-0.22254343330860138,0.04068536311388016,0.0960378646850586,0.1312679499387741,0.13121622800827026,-0.004658989142626524,0.03102240525186062,-0.010394653305411339,0.14820502698421478,0.20831333100795746,0.04939218610525131,0.11033182591199875,0.12996990978717804],[-0.062077637761831284,-0.13606271147727966,0.09812670201063156,0.1061234399676323,0.07039389759302139,0.21855324506759644,-0.047782134264707565,0.11400247365236282,-0.189793661236763,0.0018813263159245253,0.027549980208277702,0.2826133966445923,0.0065225656144320965,-0.04622726887464523,-0.17658579349517822,0.04830391705036163,-0.14159652590751648,0.010100815445184708,-0.0898168757557869,0.058627817779779434,0.15675924718379974,0.028622115030884743,0.029652995988726616,0.05428193509578705,0.04884713888168335,0.09533655643463135,0.25528693199157715,-0.08099763095378876,0.22940529882907867,0.21742203831672668,0.002172940643504262,-0.0906524732708931,-0.09885168820619583,0.008093619719147682,-0.08119911700487137,-0.20922639966011047,0.10151036083698273,-0.09948419779539108,0.18057169020175934,0.13450506329536438,0.06700468063354492,-0.16536684334278107,0.11435694247484207,0.10844594985246658,0.16888363659381866,-0.04414888098835945,-0.10590625554323196,0.04985162988305092,-0.1790650635957718,-0.032525986433029175,0.22172704339027405,0.10717887431383133,0.11768961697816849,0.14002686738967896,0.06914537400007248,0.07054831832647324,0.04577638581395149,-0.2227938324213028,-0.11768120527267456,-0.05717487260699272,0.13782690465450287,-0.23166009783744812,-0.21337105333805084,0.05806611850857735,0.16442614793777466,-0.12053786218166351,-0.0319170318543911,0.10920646786689758,-0.22344988584518433,-0.02582317776978016,0.1459580808877945,0.03154236823320389,0.04986794292926788,-0.11459062993526459,-0.0046443636529147625,0.23246705532073975,0.07570800930261612,0.010600550100207329,0.013625563122332096,0.1010391116142273,0.051493000239133835,0.04837764427065849,0.0662280023097992,0.38930368423461914,-0.002935510827228427,-0.11695546656847,-0.020065831020474434,0.11319394409656525,0.08591431379318237,0.3010585904121399,0.08759196102619171,0.05552605912089348,0.02111845463514328,-0.12578582763671875,-0.06012050062417984,-0.016590289771556854,-0.14617201685905457,-0.1453452706336975,0.24870099127292633,-0.008638479746878147,0.03432399407029152,0.03131195530295372,0.02149493433535099,-0.010905835777521133,-0.017557207494974136,0.033175766468048096,-0.08519314974546432,0.0432879701256752,-0.010953640565276146,0.03948398679494858,0.041201356798410416,-0.08040689677000046,-0.07775943726301193,0.0877770185470581,-0.1671978235244751,0.0589013509452343,-0.06406699866056442,-0.03933899849653244,-0.12667906284332275,0.011330773122608662,-0.15864436328411102,-0.060363318771123886,0.04347880557179451,0.023447643965482712,-0.04753671586513519,0.0038741878233850002,0.16721580922603607,0.11195263266563416,0.007432640064507723,0.11754638701677322,-0.007906735874712467,0.03483564779162407,-0.10204989463090897,0.2214728444814682,0.14431104063987732,0.196308895945549,-0.16113266348838806,-0.00024151896650437266],[-0.000027523430617293343,-0.05825633928179741,0.14114844799041748,-0.002141036093235016,0.09019785374403,0.10762501507997513,0.2267972081899643,-0.18893611431121826,0.13004234433174133,-0.09929701685905457,-0.13353918492794037,-0.049728840589523315,0.09328589588403702,0.16646192967891693,-0.20211847126483917,0.12173263728618622,0.1078922227025032,-0.006482419092208147,-0.08820109069347382,-0.07641364634037018,-0.2260877788066864,-0.0010426195804029703,0.05316475033760071,0.1535346359014511,0.0604899525642395,-0.029277602210640907,-0.05538076162338257,-0.0896485224366188,0.06069696694612503,-0.052158962935209274,-0.20371416211128235,0.3022869825363159,0.028972189873456955,-0.020717427134513855,0.12809301912784576,-0.09591888636350632,-0.017510605975985527,-0.214158296585083,-0.012613280676305294,-0.046825286000967026,-0.2030951827764511,0.17066414654254913,-0.09945742785930634,-0.016592981293797493,0.13203562796115875,-0.15098270773887634,0.019366076216101646,0.10422403365373611,-0.12917335331439972,0.009120446629822254,0.14782103896141052,0.04348120838403702,0.22887340188026428,0.05000631883740425,-0.06805704534053802,-0.04909243807196617,0.03461439907550812,-0.03964879363775253,0.015763266012072563,-0.07781819254159927,-0.17659787833690643,0.08056005835533142,-0.06501980870962143,0.21740543842315674,0.16881076991558075,0.007462923415005207,0.25966253876686096,0.04854334518313408,-0.09089416265487671,-0.037857651710510254,0.017223164439201355,0.07412135601043701,0.09893319010734558,-0.24151742458343506,-0.0419723242521286,-0.21554984152317047,0.09384404122829437,-0.014866647310554981,-0.20870670676231384,0.23765067756175995,0.07965317368507385,0.2241370975971222,0.0669957846403122,-0.089608334004879,-0.11944832652807236,-0.006150923203676939,-0.14388559758663177,-0.07039719074964523,0.25994405150413513,0.07242747396230698,-0.0765346884727478,0.02555978111922741,0.03299741819500923,0.045745112001895905,0.09158749133348465,0.17975446581840515,0.05356931686401367,0.040462102741003036,0.04807750880718231,0.07432796061038971,0.05478518456220627,-0.05592433735728264,0.0552099384367466,-0.043544650077819824,0.07463248819112778,0.008649736642837524,0.11462929099798203,-0.034673914313316345,-0.023545866832137108,0.13968470692634583,0.04186364635825157,-0.08843499422073364,-0.203095480799675,-0.2145446091890335,-0.021936751902103424,0.05961262434720993,0.13025689125061035,-0.058966998010873795,-0.10647749900817871,-0.22251804172992706,0.3465883731842041,0.04773098602890968,-0.24343881011009216,0.01742827706038952,-0.04427773505449295,-0.31815290451049805,-0.033860042691230774,-0.033260080963373184,0.14148075878620148,0.0780310183763504,0.09343744814395905,0.17537829279899597,-0.046533700078725815,-0.19921045005321503,0.05299388989806175,0.03701043501496315,0.02936490997672081,-0.05537673830986023],[0.1841060221195221,-0.06780574470758438,-0.2321517914533615,0.11271782964468002,0.24665291607379913,-0.035896141082048416,0.16685271263122559,0.13068097829818726,0.08041912317276001,-0.04604493826627731,-0.003208223497495055,-0.12960027158260345,0.005211927462369204,0.08880527317523956,0.05982286483049393,0.012747028842568398,-0.090806744992733,0.00942320842295885,0.13429300487041473,-0.020922310650348663,0.08363910019397736,-0.01944495365023613,0.10084325820207596,0.022917700931429863,-0.05762653425335884,-0.06458638608455658,-0.06712404638528824,0.15270307660102844,-0.03593776375055313,-0.20036301016807556,0.029229750856757164,-0.09898963570594788,-0.10382194817066193,0.02240283042192459,-0.0516783632338047,0.07142475247383118,-0.04173270985484123,0.005401587579399347,-0.11541196703910828,-0.10489127039909363,0.02437121979892254,-0.20073023438453674,0.05834079906344414,0.03200516104698181,0.13989034295082092,0.09587743133306503,-0.13968659937381744,0.01707000471651554,-0.10539985448122025,0.2387864887714386,-0.027822110801935196,0.11402908712625504,-0.1547010987997055,-0.11592043936252594,-0.293311208486557,0.1271558254957199,0.0013191697653383017,-0.22315731644630432,0.007447980809956789,-0.1022585928440094,0.060461100190877914,0.0852608010172844,0.017291901633143425,0.10216481983661652,-0.1172434538602829,-0.07627559453248978,-0.04388697072863579,0.05949358642101288,0.027790647000074387,0.07057031989097595,0.09097135812044144,0.18087385594844818,-0.2011643350124359,0.04644548520445824,0.022774161770939827,-0.08795322477817535,-0.02321593463420868,0.07636190205812454,0.0047171940095722675,-0.11175303906202316,0.09025046974420547,0.020496957004070282,-0.24035625159740448,0.2078680843114853,-0.06626131385564804,-0.10483098030090332,0.04030032828450203,-0.05168760195374489,0.18376827239990234,0.16794230043888092,0.010091835632920265,-0.15729288756847382,-0.016865557059645653,-0.21335986256599426,-0.21162226796150208,-0.11887482553720474,0.0797278881072998,-0.30289337038993835,0.050006598234176636,-0.14298978447914124,0.05752510204911232,0.075057253241539,-0.037113726139068604,0.027787692844867706,-0.052998222410678864,0.0791834220290184,-0.17015957832336426,-0.1125730350613594,0.21736295521259308,0.03255302459001541,-0.04958435148000717,0.17612579464912415,-0.06658067554235458,-0.009294256567955017,0.006192218977957964,-0.04716455563902855,0.12455686181783676,0.008454863913357258,0.1467767357826233,0.031075526028871536,-0.17491041123867035,-0.048964645713567734,-0.15421700477600098,0.16669459640979767,0.07773011922836304,-0.07915885001420975,-0.03962329402565956,0.04463911056518555,-0.05652826279401779,0.06857963651418686,-0.07323609292507172,-0.02968544326722622,0.007414352148771286,0.03670415282249451,-0.004879407584667206,-0.09490825980901718,0.13374614715576172,-0.10171013325452805],[0.15663376450538635,0.07506050914525986,-0.006442185491323471,0.0479564443230629,-0.03842601925134659,-0.0007217300008051097,-0.09815619885921478,-0.14892415702342987,-0.11295793205499649,0.03665776178240776,-0.07357358187437057,-0.0413062609732151,0.17797517776489258,-0.15327933430671692,-0.23890724778175354,-0.14427602291107178,0.008199574425816536,-0.07527532428503036,0.026898769661784172,0.25945034623146057,0.005773487966507673,0.11354540288448334,0.12492145597934723,0.1863497942686081,-0.2205047756433487,-0.038964126259088516,-0.06087561696767807,0.03771878406405449,-0.12960673868656158,-0.05090954899787903,0.09385107457637787,0.019810805097222328,-0.19903865456581116,-0.02185213565826416,0.32383283972740173,-0.06701409071683884,0.13794907927513123,0.09983913600444794,-0.14117339253425598,0.09498782455921173,0.07311198860406876,0.11684970557689667,-0.16602128744125366,-0.03262370824813843,0.03325657919049263,0.045110251754522324,0.25930121541023254,0.02143460512161255,0.06564395129680634,0.00812315009534359,-0.0008628674549981952,-0.11425728350877762,-0.13405416905879974,0.0837659016251564,-0.06941232830286026,-0.10087043792009354,-0.041237667202949524,-0.06551050394773483,-0.18766941130161285,-0.07459946721792221,-0.08181330561637878,0.027816299349069595,-0.02896524965763092,-0.09084589034318924,-0.0036554106045514345,-0.10118050128221512,-0.10410153865814209,0.14534877240657806,-0.05466437712311745,0.22758892178535461,0.018920574337244034,-0.13763384521007538,-0.1676234006881714,0.0899142175912857,-0.2956095039844513,0.13820526003837585,0.05021366849541664,-0.15461911261081696,0.30787393450737,0.08555641770362854,-0.0251905657351017,-0.11083757132291794,0.10986697673797607,-0.13901405036449432,0.05596834421157837,0.12038850784301758,0.14075995981693268,0.0039005789440125227,0.2279307246208191,0.011338630691170692,-0.09427537769079208,0.07539024204015732,-0.04236827418208122,-0.003818793222308159,0.07449311763048172,-0.0852247104048729,-0.23299045860767365,-0.03589697554707527,-0.2724078893661499,-0.014215771108865738,-0.013475539162755013,-0.02237631008028984,-0.19411645829677582,0.10572563856840134,-0.09248419851064682,0.08854510635137558,-0.2065272331237793,0.08254397660493851,-0.1347404420375824,0.09816845506429672,0.010987862944602966,-0.15853577852249146,0.046136390417814255,0.158001109957695,0.04239325970411301,-0.1596367210149765,-0.14298123121261597,-0.12821389734745026,-0.04279681295156479,0.2650023400783539,0.05049704387784004,-0.23569540679454803,0.03677321970462799,0.0064569758251309395,0.21373172104358673,-0.0568208172917366,0.02928825095295906,-0.006838787812739611,-0.03744140639901161,-0.03027775138616562,0.20099332928657532,0.06656171381473541,-0.02902781032025814,-0.037676889449357986,-0.05455458536744118,0.0824335366487503,-0.19262270629405975,0.17511290311813354],[0.03713906183838844,-0.03199978172779083,0.014371555298566818,0.09351810812950134,-0.03302739933133125,-0.08002918213605881,0.12181407958269119,0.008880977518856525,0.02157413586974144,-0.10473830997943878,0.046734996140003204,0.19336912035942078,-0.15393774211406708,0.06963082402944565,-0.13228166103363037,0.05730032920837402,-0.02771139144897461,-0.07929721474647522,0.200088769197464,0.16962118446826935,-0.008891653269529343,-0.19737406075000763,0.04283786192536354,-0.16788819432258606,-0.12152539193630219,0.08047349005937576,0.0930180773139,0.02665306255221367,-0.1332329362630844,0.040600426495075226,0.027344871312379837,0.13901568949222565,-0.24202272295951843,-0.0163596048951149,0.057292480021715164,-0.15898844599723816,-0.021025121212005615,0.07903428375720978,-0.029583055526018143,0.03645957633852959,-0.025511791929602623,-0.1060061901807785,0.09745187312364578,0.0023802402429282665,-0.1744544357061386,0.06630383431911469,0.03125814348459244,0.08522256463766098,-0.06396269798278809,0.03552505001425743,-0.05666783079504967,0.010470684617757797,-0.06546486914157867,-0.17267102003097534,0.33578893542289734,-0.03733320161700249,-0.1889597773551941,-0.008528404869139194,-0.17177504301071167,0.01623389683663845,0.020870249718427658,-0.011468913406133652,0.03572198003530502,0.2478327751159668,-0.02769787423312664,0.12707968056201935,-0.025856712833046913,-0.19524841010570526,-0.10679640620946884,0.16064651310443878,0.07255980372428894,0.010165323503315449,-0.20890335738658905,-0.02437952533364296,-0.06652246415615082,0.13569460809230804,0.1121230274438858,-0.22643406689167023,0.03260265290737152,0.09919372946023941,-0.051720865070819855,-0.013766936957836151,-0.0859697163105011,0.03693397343158722,0.06426720321178436,0.02080308459699154,0.05656835809350014,0.051546934992074966,-0.009265085682272911,-0.06794876605272293,-0.036973658949136734,-0.08052276074886322,0.11206583678722382,0.013981940224766731,0.12495477497577667,-0.11018664389848709,0.0293620303273201,0.0354686863720417,0.02168114297091961,-0.005107679404318333,0.09038200974464417,0.2700871527194977,-0.0679343119263649,-0.037745214998722076,-0.07110287249088287,-0.12441062182188034,0.023644715547561646,-0.16247862577438354,-0.0669424757361412,0.04707535356283188,0.22901947796344757,-0.0171499066054821,0.049403849989175797,-0.04478202015161514,0.22142280638217926,-0.23417970538139343,0.26734188199043274,0.04132382199168205,0.11863680928945541,0.004758236929774284,-0.08590458333492279,-0.26993101835250854,0.1271265745162964,0.007241502869874239,0.1612340807914734,-0.008641929365694523,-0.06511633843183517,0.02474764548242092,0.030635671690106392,-0.014064597897231579,0.10684659332036972,-0.0012025776086375117,0.12852294743061066,0.011708528734743595,0.04517819732427597,0.2502569854259491,0.15585434436798096,0.2925766706466675],[0.03617645427584648,-0.15116851031780243,0.07492102682590485,0.13340070843696594,0.11502031981945038,0.2680569291114807,-0.014165828935801983,-0.0056645371951162815,0.003359410213306546,-0.12880373001098633,0.08677615225315094,0.0506599135696888,0.09451469779014587,-0.051285918802022934,-0.10795772075653076,-0.14292050898075104,0.06550874561071396,-0.029010243713855743,0.05636534094810486,-0.038660213351249695,0.1002332791686058,-0.2388746291399002,-0.002152138389647007,-0.08801202476024628,0.2254689633846283,-0.10894749313592911,0.004616607911884785,-0.39471369981765747,-0.08762899786233902,0.0018818441312760115,0.1334308683872223,0.03897854685783386,0.2630501091480255,-0.22059792280197144,-0.26023298501968384,-0.28241369128227234,-0.21588478982448578,-0.031912218779325485,0.05995981767773628,-0.12446286529302597,0.09245861321687698,-0.04942640662193298,0.08548003435134888,-0.27662530541419983,0.18511848151683807,0.15359178185462952,-0.004782077390700579,0.10089170932769775,0.11256738752126694,-0.15530553460121155,0.003334508743137121,0.05802334100008011,0.046334411948919296,-0.040890153497457504,0.021129393950104713,-0.09484093636274338,0.1453184336423874,-0.24072131514549255,-0.05526052787899971,0.00759102450683713,0.17416903376579285,0.10899541527032852,0.02851243130862713,0.0804663598537445,-0.10452055931091309,0.005946517921984196,-0.09694751352071762,-0.0192225631326437,-0.0006596752209588885,-0.03684663400053978,-0.19015619158744812,-0.11923202872276306,0.06821630895137787,0.0908437967300415,0.1815769076347351,-0.02416030876338482,0.08393446356058121,0.07179448008537292,-0.15106867253780365,0.034847624599933624,0.04850137233734131,-0.041211843490600586,0.002181291114538908,0.2521853744983673,0.04465281590819359,-0.09364660829305649,-0.12538863718509674,-0.008179775439202785,0.06186765059828758,0.061899345368146896,0.033155251294374466,-0.1758013665676117,-0.25307369232177734,0.2551833689212799,0.07078821957111359,-0.10757634043693542,-0.13537676632404327,0.06101483851671219,-0.056793760508298874,0.11079223453998566,-0.01654128171503544,-0.02972368896007538,0.1319933831691742,-0.08074294030666351,0.17404702305793762,0.1167273297905922,-0.04929891228675842,-0.048304907977581024,-0.03056369721889496,0.039825666695833206,-0.1563873291015625,0.1188402771949768,0.019492393359541893,-0.0026188332121819258,-0.0742839127779007,0.12437945604324341,0.06144880875945091,0.281622976064682,0.017244437709450722,-0.010624120011925697,-0.17898093163967133,-0.045478545129299164,-0.07548312097787857,0.023284483700990677,-0.06513603031635284,0.05016098544001579,-0.03421109914779663,-0.04006170853972435,0.25413045287132263,0.06792255491018295,0.017508499324321747,-0.1206856220960617,0.06788437068462372,0.152144655585289,0.05550133064389229,0.017886938527226448,0.18698158860206604,0.11896812170743942],[0.1417086273431778,-0.07559993863105774,0.12620246410369873,0.08889387547969818,-0.018174393102526665,-0.25237569212913513,-0.0037121293134987354,0.16027778387069702,0.23307329416275024,-0.04723276570439339,0.04096929728984833,0.09393135458230972,-0.0033495549578219652,0.0440036840736866,-0.06119437888264656,-0.030023368075489998,0.01999078132212162,-0.051211364567279816,0.07171989232301712,0.0734698623418808,0.13261286914348602,0.08191192895174026,0.18443803489208221,-0.35548433661460876,0.0378301665186882,0.03781062364578247,0.001128504634834826,0.10454445332288742,-0.03620317950844765,0.06891965866088867,0.185037299990654,-0.04609963670372963,0.14552880823612213,-0.18159855902194977,-0.02010485716164112,0.24268761277198792,0.21321119368076324,0.03626013919711113,0.16149787604808807,0.03275125101208687,-0.10302355885505676,-0.06421027332544327,0.029650993645191193,0.05006145313382149,-0.2306601107120514,0.06758154928684235,-0.17764194309711456,-0.24475105106830597,0.0053258491680026054,-0.14674510061740875,0.14705036580562592,-0.0370415635406971,0.10015371441841125,0.1293226182460785,-0.11076605319976807,0.014574198983609676,0.12633994221687317,0.14841705560684204,-0.008051984012126923,-0.01900164783000946,0.08837534487247467,0.05235445499420166,-0.13508836925029755,0.18888112902641296,0.30768492817878723,-0.01767912320792675,-0.03980143740773201,0.10500799119472504,-0.08832983672618866,0.05784190446138382,0.08447962254285812,-0.18467114865779877,-0.040091656148433685,0.020128104835748672,-0.025384683161973953,-0.1675584316253662,0.10603074729442596,0.08815635740756989,0.22367069125175476,-0.21176554262638092,-0.04704585298895836,0.00005753997538704425,0.010989231988787651,-0.16331858932971954,0.09009261429309845,0.12965668737888336,-0.04848945513367653,-0.14087720215320587,-0.032629746943712234,0.10897684097290039,0.132188081741333,-0.09483703970909119,0.02446768246591091,0.22335752844810486,0.023367205634713173,0.016159258782863617,0.09903647005558014,-0.11442407965660095,0.20805545151233673,0.055009908974170685,0.03316590562462807,0.011383824050426483,0.046404849737882614,0.10386203229427338,0.038370825350284576,-0.28745198249816895,-0.004259995184838772,-0.10705637186765671,-0.0304649006575346,-0.08777239918708801,-0.05791506916284561,-0.07535088062286377,-0.31308606266975403,0.17907099425792694,-0.11929940432310104,0.09067515283823013,-0.07100554555654526,0.04545939341187477,0.13639912009239197,0.16147099435329437,-0.041634537279605865,-0.009879405610263348,-0.0710400864481926,-0.10208304971456528,0.0998820886015892,0.02197941578924656,-0.14661552011966705,0.14238929748535156,0.026026565581560135,-0.035902295261621475,-0.16110889613628387,-0.14267127215862274,0.03502998128533363,-0.016517633572220802,0.15593232214450836,0.052632372826337814,-0.20963571965694427,-0.013566483743488789],[0.04952992871403694,0.15452556312084198,0.05433078482747078,0.035543229430913925,0.17696602642536163,0.1885080188512802,0.09720176458358765,-0.06440773606300354,0.0627640038728714,0.141744002699852,0.0720420777797699,0.13535237312316895,-0.2420283555984497,-0.028638534247875214,-0.04408210888504982,0.2047637701034546,-0.24049760401248932,-0.15593907237052917,0.02452727034687996,0.09751798957586288,-0.06875668466091156,0.022556772455573082,-0.1581752896308899,0.24139061570167542,0.0976288914680481,-0.027969930320978165,-0.12086004763841629,0.07411349564790726,-0.04734988510608673,-0.02300744690001011,0.013989862985908985,0.13619959354400635,0.049686249345541,0.1344873309135437,0.01682293601334095,-0.0740424320101738,0.024587787687778473,-0.16241011023521423,0.025400588288903236,-0.0547122061252594,0.08683892339468002,0.09421197324991226,-0.2809751033782959,-0.0225693266838789,-0.21710017323493958,0.027068261057138443,0.08327490836381912,0.03429276496171951,-0.06915752589702606,-0.14419551193714142,-0.13977530598640442,-0.18543019890785217,-0.05350456386804581,-0.12084748595952988,-0.10545395314693451,-0.12388554960489273,-0.12264283746480942,-0.14148128032684326,0.03301941975951195,-0.035788461565971375,-0.11187094449996948,0.01994604989886284,-0.09286292642354965,0.09646552056074142,-0.20084728300571442,-0.01965784840285778,0.2145930528640747,0.009783041663467884,-0.16583481431007385,0.06431098282337189,0.12454934418201447,-0.1622660756111145,-0.1775473654270172,0.015984436497092247,0.01304696500301361,-0.1345345377922058,-0.018566321581602097,-0.21189601719379425,0.01701214537024498,0.304515540599823,0.1456364095211029,-0.15531723201274872,0.0570233128964901,0.059250425547361374,-0.07707230746746063,0.023139160126447678,0.05708625167608261,0.016625219956040382,-0.20508702099323273,0.0819176733493805,0.055157896131277084,0.12636296451091766,0.04501574859023094,-0.14047011733055115,0.20353654026985168,0.12472984939813614,0.15640000998973846,-0.03174634650349617,0.08674760907888412,-0.03555859252810478,-0.023281514644622803,-0.1208791434764862,0.10714341700077057,0.12203104048967361,-0.023550041019916534,0.032885532826185226,0.08098189532756805,-0.024611469358205795,0.19713373482227325,0.09943747520446777,0.22807183861732483,0.06324302405118942,0.24166472256183624,0.10561949014663696,0.04146045818924904,-0.26286813616752625,-0.026987064629793167,-0.16782768070697784,-0.2390015870332718,0.03305964171886444,-0.07986224442720413,-0.23245322704315186,0.036368414759635925,-0.16478119790554047,-0.04749373719096184,0.05779126659035683,0.00031759683042764664,0.1790725439786911,-0.09603749960660934,-0.0702458843588829,0.029033327475190163,0.005884355865418911,-0.08468232303857803,0.04234173521399498,0.19585804641246796,-0.020418042317032814,-0.2349482923746109,-0.19062542915344238],[-0.12297326326370239,-0.013377123512327671,-0.03134841471910477,0.1072920560836792,-0.07512187957763672,-0.14553944766521454,0.054818294942379,-0.2963341176509857,0.010280773974955082,-0.05221012979745865,0.08016651123762131,-0.07036172598600388,-0.05735461413860321,0.13129250705242157,0.11840204894542694,0.20344102382659912,-0.0457351878285408,-0.0010463809594511986,0.34113454818725586,0.01851540245115757,-0.0017928286688402295,-0.2941809892654419,0.04549483582377434,-0.21153885126113892,-0.1483072191476822,0.08061323314905167,0.06627945601940155,-0.04787261411547661,0.08691901713609695,-0.14643511176109314,0.05691971257328987,0.028183022513985634,-0.08077356219291687,-0.07827560603618622,-0.036677051335573196,-0.07496713846921921,-0.13953471183776855,0.07222013920545578,-0.051062554121017456,0.04274718835949898,0.06967832893133163,0.07883229851722717,0.027068812400102615,-0.03488479554653168,0.10188063234090805,0.10768955945968628,-0.0725700706243515,-0.05131613463163376,-0.3643944561481476,0.05236059054732323,-0.015627488493919373,-0.006933706346899271,0.03446601703763008,0.20853249728679657,-0.02820432372391224,0.037501584738492966,-0.04681231454014778,0.1743927299976349,0.19777120649814606,0.007535102777183056,0.15124943852424622,0.16662046313285828,0.11347702145576477,0.011432449333369732,0.15119925141334534,0.1441982239484787,-0.04024604707956314,0.17067140340805054,0.04790942370891571,0.0867646187543869,-0.1099197044968605,-0.0544561930000782,-0.04300274699926376,0.11632228642702103,-0.042047083377838135,0.10434029996395111,-0.01304081454873085,0.04848402738571167,0.0401398204267025,-0.12635233998298645,-0.05885603651404381,-0.12711986899375916,-0.03968752175569534,-0.10737629979848862,-0.09138719737529755,0.2501332759857178,-0.1136738657951355,-0.08939879387617111,-0.0806671679019928,0.131001278758049,0.026191387325525284,-0.15868471562862396,0.07311646640300751,0.05508408322930336,-0.09893209487199783,-0.024979369714856148,0.05086798220872879,-0.06583130359649658,-0.018886486068367958,0.05741848424077034,-0.019588693976402283,0.06127858906984329,0.09176350384950638,0.09230413287878036,-0.16348911821842194,0.13372986018657684,-0.07407932728528976,-0.11405116319656372,-0.034111931920051575,0.1430651694536209,-0.0004322050663176924,0.008502840995788574,-0.055242203176021576,0.023425500839948654,-0.03483520448207855,0.11287786811590195,-0.028430279344320297,-0.05554836615920067,0.060886431485414505,0.2545197010040283,0.013860001228749752,-0.005707821808755398,-0.2711292803287506,-0.034398261457681656,0.02004869095981121,0.020727580413222313,-0.012422067113220692,-0.11483795940876007,-0.1132911741733551,-0.1316511034965515,-0.06539198756217957,0.024540062993764877,-0.10281335562467575,-0.005383106879889965,-0.14683829247951508,0.23202113807201385,0.18959206342697144,-0.038109682500362396],[0.12656141817569733,-0.012171662412583828,-0.0031415026169270277,-0.20260345935821533,-0.2085362821817398,-0.04247327148914337,0.05425173044204712,-0.04700259491801262,-0.08789294958114624,-0.1269838958978653,0.13380734622478485,-0.16650819778442383,0.027527086436748505,-0.2359583079814911,-0.20550547540187836,-0.021768566220998764,0.03359677270054817,0.15135274827480316,-0.10532962530851364,0.021666547283530235,-0.0729966014623642,-0.004825275857001543,-0.07066180557012558,-0.24730689823627472,0.13075576722621918,-0.2003096491098404,-0.04903760179877281,0.05292607471346855,0.008351745083928108,-0.16740335524082184,-0.36049869656562805,-0.0970294252038002,0.2133137285709381,-0.04819465056061745,0.003024099161848426,-0.01120784878730774,0.12919871509075165,0.11152622103691101,0.04874185845255852,-0.13036265969276428,-0.34678915143013,0.07578735798597336,0.11159572005271912,-0.1814115047454834,-0.031797293573617935,0.062155283987522125,-0.17508935928344727,-0.07529754191637039,-0.2892656624317169,0.019801849499344826,-0.032062724232673645,-0.06482487916946411,-0.11956041306257248,-0.051899608224630356,-0.15957222878932953,-0.21670101583003998,-0.14887064695358276,0.0127657325938344,-0.13059577345848083,0.026294199749827385,0.03835976868867874,-0.010996685363352299,-0.02431923896074295,0.023239003494381905,0.06617829948663712,0.11750975996255875,-0.09968288987874985,0.0014223637990653515,0.15424445271492004,-0.04045220836997032,-0.050778817385435104,-0.0004396940639708191,0.016944069415330887,-0.002937098266556859,-0.025332188233733177,-0.012843101285398006,0.14060212671756744,0.030384482815861702,0.06318485736846924,0.058420997112989426,-0.04920905455946922,-0.07777944952249527,0.011732122860848904,0.3019672632217407,-0.06755225360393524,0.24009208381175995,0.17356766760349274,0.045396409928798676,-0.11925361305475235,-0.025324635207653046,0.0022688237950205803,0.004218826070427895,-0.1644197702407837,0.041611216962337494,0.2663304805755615,0.10648304224014282,0.027005713433027267,0.06902077049016953,-0.15627305209636688,-0.11555104702711105,0.2838357090950012,-0.051780588924884796,-0.09256120026111603,-0.2742459774017334,0.14051760733127594,-0.09041627496480942,0.08448150008916855,-0.1502167135477066,0.1476314663887024,-0.11774365603923798,0.11423756927251816,-0.2906979024410248,0.031984634697437286,-0.014818196184933186,0.05518976226449013,0.03368388116359711,0.01566663198173046,-0.01989424042403698,-0.3282984793186188,0.09490951895713806,-0.05885723605751991,-0.06332536041736603,-0.08379516750574112,-0.009826882742345333,-0.021679449826478958,0.19371150434017181,-0.009805024601519108,-0.15602439641952515,-0.05876006558537483,-0.10732394456863403,0.26701799035072327,0.1254393458366394,-0.11059799790382385,0.004419651813805103,0.024544181302189827,0.2388889640569687,-0.15632003545761108,0.19883166253566742],[0.36076217889785767,-0.052723925560712814,0.1378803253173828,0.12566795945167542,0.06707202643156052,0.01612376794219017,-0.13796032965183258,-0.19364362955093384,0.10274836421012878,0.022115325555205345,-0.11370770633220673,0.05960172414779663,-0.12720154225826263,0.19035136699676514,-0.05206121504306793,-0.031948938965797424,0.06695371866226196,-0.07723243534564972,0.035654813051223755,-0.032724376767873764,-0.031962472945451736,-0.004818770103156567,-0.14517083764076233,-0.13525648415088654,0.045233193784952164,-0.039328183978796005,-0.0008002885151654482,0.15200276672840118,0.1265001744031906,-0.056811537593603134,0.2005329579114914,-0.1293536126613617,0.0728464350104332,-0.01978369802236557,0.028171543031930923,0.11251654475927353,0.18500621616840363,-0.1282084882259369,-0.20141470432281494,0.11395221948623657,0.04713890701532364,-0.02583525888621807,-0.2811070382595062,0.13556255400180817,0.09299707412719727,-0.20993369817733765,0.02303118258714676,-0.0634981319308281,-0.10124321281909943,0.17552638053894043,-0.07835520058870316,-0.13531742990016937,-0.07383444905281067,0.07937448471784592,0.08585816621780396,-0.08855302631855011,-0.0359487347304821,-0.17907029390335083,-0.1558656543493271,0.03625653311610222,0.027904104441404343,0.08279474079608917,0.07593473792076111,-0.06700504571199417,-0.03932805359363556,0.15664605796337128,-0.13304340839385986,0.05595588684082031,-0.009118609130382538,0.03832202032208443,0.09905090183019638,0.11166930198669434,-0.05945725366473198,0.1316032111644745,-0.14602693915367126,-0.04608443006873131,0.012573650106787682,-0.1574641615152359,-0.031159181147813797,-0.36965879797935486,-0.08501681685447693,0.030186137184500694,0.09661687910556793,0.006521654315292835,0.032072313129901886,0.024397606030106544,0.055659376084804535,0.06224842369556427,-0.04868340864777565,-0.17208141088485718,0.07251767069101334,0.02048642188310623,0.0566844716668129,0.07698041200637817,0.04353288188576698,0.059881649911403656,0.02607409842312336,0.15401601791381836,0.01342024840414524,0.06289009749889374,0.18708035349845886,0.03834378719329834,-0.01273929513990879,-0.14750248193740845,0.21550598740577698,-0.14285944402217865,-0.0636269822716713,-0.05347055941820145,0.059354063123464584,0.11578372120857239,0.01323486678302288,0.01328355260193348,0.061316583305597305,-0.04044210538268089,0.04943852871656418,0.10840824246406555,-0.012492355890572071,-0.044732265174388885,-0.05994065850973129,-0.03688547760248184,-0.1557861566543579,-0.14075151085853577,-0.020766030997037888,0.10029111057519913,-0.06781210750341415,-0.09977685660123825,0.0042121149599552155,0.015242253430187702,0.017871642485260963,-0.030300801619887352,-0.059060826897621155,-0.08649035543203354,0.04756142944097519,0.11578459292650223,0.09423936158418655,-0.09854524582624435,-0.07697747647762299,0.10339783132076263],[0.07250475883483887,-0.11141214519739151,-0.020223021507263184,0.16421858966350555,-0.009868087247014046,0.24865268170833588,0.015795934945344925,0.14434480667114258,0.12978355586528778,0.19988207519054413,-0.009549038484692574,0.03893868625164032,-0.08098916709423065,0.11992162466049194,-0.0453873872756958,0.1197766661643982,0.0843110978603363,0.1151723638176918,0.08365106582641602,-0.056281108409166336,-0.1416866034269333,-0.06443159282207489,-0.09084388613700867,-0.22444553673267365,-0.23799557983875275,-0.1489667296409607,0.1393546313047409,0.037644077092409134,-0.140138640999794,