[[-0.2054048478603363,-0.004874923266470432,-0.2905162572860718,0.07223494350910187,0.1303321272134781,-0.09343761205673218,0.15814591944217682,-0.0514911450445652,0.028958112001419067,-0.1623041033744812,0.19088108837604523,-0.5125834941864014,0.45189833641052246,-0.23844173550605774,-0.07271800935268402,-0.1905602663755417,-0.06458685547113419,-0.007287946064025164,-0.2068231850862503,0.061324749141931534,-0.18506403267383575,0.07705200463533401,0.2502889633178711,0.0026352680288255215,-0.053008124232292175,-0.060367949306964874,0.133162260055542,-0.08050436526536942,-0.3123140335083008,0.10810527205467224,-0.15850500762462616,0.03827865421772003,-0.09327494353055954,-0.30068376660346985,-0.27337104082107544,-0.013973438180983067,-0.09396122395992279,0.0032349401153624058,0.08278012275695801,-0.021096402779221535,-0.44900843501091003,-0.018840547651052475,-0.002736144931986928,-0.09452387690544128,-0.2996130883693695,-0.1138230636715889,0.1287781000137329,-0.19675754010677338,0.15681932866573334,0.1855880469083786,-0.18762685358524323,0.17638356983661652,0.2988309860229492,-0.39956775307655334,-0.14197665452957153,-0.44097471237182617,-0.025694040581583977,0.06443825364112854,0.16356831789016724,0.03929377347230911,0.17326965928077698,-0.08525464683771133,0.1600922793149948,0.054265305399894714,-0.055261120200157166,0.07732541114091873,0.04580207169055939,-0.11213795095682144,0.14809268712997437,0.24460893869400024,-0.16700677573680878,-0.18976011872291565,0.1327776312828064,-0.08870559930801392,-0.5746055841445923,-0.19063527882099152,-0.14133307337760925,-0.25138145685195923,-0.2786182463169098,0.00789189524948597,0.03284185007214546,-0.026730027049779892,-0.23290544748306274,0.14386220276355743,-0.06007613241672516,0.1848103106021881,-0.22925670444965363,-0.1794719099998474,-0.06738372147083282,0.01699061505496502,0.030412698164582253,-0.03965066000819206,-0.05668710172176361,0.005354937165975571,-0.23792217671871185,0.03869784250855446,0.10285583883523941,0.01201606635004282,-0.2075572907924652,-0.3476344645023346,-0.013453982770442963,-0.1171301007270813,0.19175921380519867,-0.13497024774551392,-0.2394808530807495,0.2874537408351898,-0.14503560960292816,-0.2231486588716507,-0.27488917112350464,-0.32422980666160583,-0.12412585318088531,-0.2677961587905884,-0.11866990476846695,0.056788552552461624,-0.1908484399318695,-0.043002840131521225,-0.23566986620426178,0.37073490023612976,0.04311716556549072,-0.2567058801651001,-0.1661854237318039,-0.19013603031635284,-0.2703646421432495,-0.07276922464370728,-0.20899835228919983,-0.11328379809856415,0.3721379041671753,-0.09659779816865921],[0.2418053299188614,-0.295126348733902,-0.030300075188279152,-0.006345106288790703,-0.43571075797080994,-0.12213344871997833,0.026611970737576485,-0.10618029534816742,0.01555916853249073,-0.1617092788219452,0.028564151376485825,0.06333088874816895,-0.26697733998298645,0.125243678689003,0.12454872578382492,0.3867488205432892,0.22629082202911377,0.1357792317867279,0.048248156905174255,0.07478552311658859,0.07375889271497726,-0.31720152497291565,-0.1021396592259407,0.058437734842300415,-0.11741583794355392,-0.17412401735782623,-0.20427998900413513,-0.2404954731464386,-0.14198245108127594,0.004035166464745998,-0.3181881904602051,0.006098270881921053,-0.024335743859410286,-0.3348880708217621,0.20882581174373627,-0.39360031485557556,-0.1671484112739563,0.33532053232192993,0.05542823299765587,-0.34831735491752625,-0.3200269341468811,-0.3531428277492523,0.195903018116951,-0.19873860478401184,-0.32471370697021484,0.15205709636211395,0.18929679691791534,0.007416395004838705,0.15486858785152435,-0.1065821424126625,-0.06771957129240036,-0.38396239280700684,-0.09752591699361801,-0.11641914397478104,0.08064712584018707,0.04426322504878044,0.046351052820682526,-0.10688062012195587,0.09410624951124191,0.13155323266983032,0.09952790290117264,-0.35794857144355774,-0.1831921637058258,0.052988264709711075,-0.12132708728313446,-0.2673824727535248,0.014219094067811966,0.13710671663284302,-0.08985904604196548,0.19473840296268463,0.0865476131439209,0.0036420030519366264,-0.4534597396850586,0.03386496379971504,-0.00353468325920403,-0.1796044111251831,0.027617458254098892,0.18344378471374512,-0.018428459763526917,-0.07273826748132706,0.18249481916427612,-0.1690054088830948,0.17447195947170258,-0.2497129887342453,0.045414336025714874,-0.10768677294254303,-0.3505898714065552,0.05686374008655548,-0.00561341131106019,-0.11117742955684662,-0.06443477421998978,0.04570915177464485,-0.11309666186571121,-0.14778389036655426,-0.29530656337738037,-0.30128541588783264,-0.05985947698354721,-0.15207311511039734,0.10821198672056198,0.15029406547546387,0.043470170348882675,-0.4278363585472107,0.10158409178256989,-0.16102486848831177,-0.1918664127588272,-0.051320936530828476,-0.10365921258926392,-0.29673558473587036,-0.24897265434265137,0.17798832058906555,0.26590868830680847,-0.12171967327594757,-0.13087595999240875,0.20142726600170135,-0.30018240213394165,0.08268088102340698,-0.15608654916286469,0.025370053946971893,-0.36805203557014465,-0.0933215469121933,-0.15706028044223785,0.04113367572426796,-0.22140982747077942,0.007673278450965881,0.17612463235855103,-0.03769247233867645,-0.07616093009710312,-0.23721127212047577],[0.06171648949384689,-0.13338227570056915,-0.3010094463825226,0.1534300595521927,-0.22351178526878357,-0.0729214996099472,0.027504127472639084,-0.22779454290866852,0.09981346875429153,-0.20279572904109955,-0.1355220377445221,0.16279546916484833,0.02564121037721634,0.12419389933347702,0.05851401761174202,-0.012286785989999771,-0.27650225162506104,0.001989534590393305,-0.02469516731798649,-0.1306830495595932,-0.09060925990343094,-0.33616113662719727,-0.28952035307884216,-0.1165117472410202,-0.5997722148895264,-0.03940602391958237,0.005650631617754698,-0.41068702936172485,-0.04496132954955101,-0.3076170086860657,-0.05947208032011986,-0.2854819893836975,-0.25342002511024475,0.0783185288310051,0.1521306186914444,-0.11794485151767731,0.0397191159427166,-0.33684206008911133,-0.24840842187404633,0.007665599230676889,-0.13462111353874207,0.22090032696723938,0.058115553110837936,0.04589112475514412,0.23717191815376282,-0.22476503252983093,0.054866112768650055,-0.043088335543870926,-0.005405687261372805,0.28480833768844604,-0.021274195984005928,-0.12512682378292084,0.21767400205135345,-0.3206219971179962,-0.15346519649028778,-0.22961969673633575,0.005675863940268755,-0.042396485805511475,-0.4101311266422272,-0.18039704859256744,0.07529817521572113,-0.14038094878196716,-0.10438570380210876,-0.26303014159202576,-0.15442398190498352,-0.33318743109703064,-0.1088528037071228,-0.20861709117889404,-0.2587684988975525,0.018855176866054535,-0.010523352771997452,-0.007981723174452782,-0.2318962663412094,-0.059932272881269455,0.02767394296824932,-0.1390663981437683,-0.03405847027897835,-0.10073543339967728,0.08520275354385376,-0.13787482678890228,-0.11940248310565948,0.31418633460998535,-0.4517121911048889,-0.15347659587860107,0.0765216201543808,0.014834830537438393,0.029602747410535812,-0.21491390466690063,-0.18031640350818634,-0.057130586355924606,-0.10266397893428802,0.022037101909518242,-0.2253563553094864,0.06097894161939621,-0.23781603574752808,-0.14193692803382874,0.08154736459255219,0.2127981334924698,-0.2831706702709198,0.10224572569131851,-0.09450075030326843,0.07277560234069824,0.03955583646893501,-0.22440683841705322,-0.1488630622625351,0.18467216193675995,-0.35066813230514526,0.03278373181819916,-0.34687289595603943,-0.0915929526090622,0.12989646196365356,-0.2840503752231598,0.049404457211494446,-0.1418103128671646,0.3060847818851471,-0.03030361421406269,0.08070963621139526,-0.26677459478378296,-0.05043143779039383,0.10932949930429459,-0.1981542557477951,-0.1631917953491211,-0.13965749740600586,0.00038054693141020834,0.09516169875860214,0.07389482110738754,0.3768457770347595,-0.05418233945965767],[0.09702227264642715,-0.14417442679405212,-0.08975351601839066,-0.07089485228061676,0.00020450845477171242,-0.1705770492553711,-0.23439007997512817,-0.19569618999958038,0.03306805342435837,0.13985879719257355,0.03807328641414642,0.0026777631137520075,-0.5231343507766724,0.12782613933086395,-0.03239275887608528,-0.1427936553955078,0.08561547845602036,-0.12181614339351654,-0.2105548083782196,-0.4017736613750458,-0.0620618499815464,-0.1426219344139099,0.015404664911329746,0.14355234801769257,-0.18324026465415955,-0.05251075699925423,0.1924489289522171,0.1996905654668808,-0.19464628398418427,0.08276277035474777,0.0000044014304876327515,-0.06151639670133591,0.09997949004173279,-0.231303870677948,-0.1118716150522232,-0.012384302914142609,0.26115837693214417,-0.15368635952472687,0.06000185385346413,-0.10698670893907547,-0.06723642349243164,0.20635846257209778,-0.09888675063848495,-0.3420064151287079,-0.07148448377847672,-0.15203197300434113,-0.17219248414039612,0.13652123510837555,-0.08319666236639023,-0.510167121887207,-0.10689125955104828,-0.004692906979471445,-0.14795340597629547,-0.01678752899169922,0.22115233540534973,-0.13004745543003082,0.10545980930328369,0.194212406873703,-0.15484748780727386,0.36661291122436523,0.13238604366779327,-0.16911983489990234,-0.014662845991551876,-0.3042335510253906,-0.23103049397468567,-0.2932274639606476,0.11643124371767044,0.014980747364461422,-0.25503459572792053,-0.11021517962217331,-0.05757554993033409,-0.20373909175395966,-0.11492358893156052,-0.01453784666955471,-0.07350528240203857,-0.2010750025510788,0.05236548185348511,-0.20848888158798218,-0.024403076618909836,-0.1404966413974762,-0.44282105565071106,-0.054418496787548065,0.09315349161624908,-0.2274225354194641,-0.3520269989967346,-0.4616142809391022,-0.058648236095905304,0.012351627461612225,-0.11418548226356506,-0.03420349955558777,0.00045149517245590687,-0.33337464928627014,-0.4661285877227783,0.025199290364980698,-0.09972875565290451,-0.18465664982795715,0.005875634495168924,0.0853802040219307,-0.2738224267959595,-0.22845584154129028,0.15380723774433136,-0.26225724816322327,-0.09707161039113998,-0.056138262152671814,0.05573246628046036,-0.21093842387199402,-0.21473948657512665,0.16876676678657532,0.20702525973320007,0.2538321912288666,-0.15934216976165771,-0.104720838367939,-0.2624848186969757,-0.095238097012043,-0.12294556200504303,0.016004938632249832,-0.24178029596805573,0.021209200844168663,-0.08476511389017105,-0.11546069383621216,-0.04486177861690521,-0.22073973715305328,0.07423561811447144,-0.04764978215098381,-0.1289048045873642,0.06239677965641022,0.028007302433252335,0.18112020194530487],[-0.07376638799905777,-0.44898414611816406,-0.005368223413825035,-0.07560659199953079,-0.11447369307279587,-0.0816233903169632,0.014508511871099472,-0.040274932980537415,0.1354815661907196,-0.40524980425834656,-0.17381416261196136,-0.001989620039239526,0.4129442274570465,-0.32543063163757324,-0.3074115216732025,0.11197882890701294,-0.09160754084587097,-0.13354624807834625,-0.11475188285112381,0.23288245499134064,-0.11417385190725327,0.050962358713150024,0.17526917159557343,-0.14457015693187714,0.16987667977809906,-0.014930370263755322,0.43664127588272095,0.10808662325143814,0.009053708054125309,0.13603901863098145,-0.010765903629362583,0.03184618055820465,0.018065625801682472,-0.0946313813328743,-0.09234171360731125,-0.05687829479575157,-0.16948802769184113,-0.06349014490842819,0.0027080841828137636,0.03923119232058525,0.012147151865065098,-0.1931043267250061,-0.038925524801015854,0.1903071403503418,-0.39479148387908936,-0.025906167924404144,-0.02915615774691105,-0.19738726317882538,-0.056262075901031494,0.0024620413314551115,-0.22012896835803986,-0.3451926112174988,0.1999053955078125,-0.582137405872345,0.06465601176023483,-0.12768986821174622,0.25276979804039,-0.10864732414484024,-0.16826261579990387,-0.17353206872940063,0.12206068634986877,-0.1370958387851715,-0.14121587574481964,0.07916044443845749,0.16649316251277924,0.2056509405374527,-0.3233131766319275,-0.022197231650352478,-0.10542557388544083,0.24733339250087738,0.16624705493450165,0.23809203505516052,-0.445160835981369,-0.2119726687669754,-0.18489466607570648,-0.10632918030023575,-0.01086460892111063,-0.011403247714042664,0.13860803842544556,-0.14261457324028015,-0.22693049907684326,-0.19791901111602783,-0.016001923009753227,0.002839867491275072,-0.15104137361049652,-0.042814951390028,-0.04775799810886383,-0.18609724938869476,-0.502101719379425,-0.18096986413002014,0.09163426607847214,0.03130099177360535,0.10851123183965683,-0.4477818012237549,0.02292444370687008,-0.021433057263493538,0.23757757246494293,-0.03148665279150009,0.02598792314529419,-0.19348187744617462,0.03008291684091091,-0.011541297659277916,-0.21773511171340942,-0.301958829164505,-0.2505878806114197,0.1533585488796234,-0.014436464756727219,-0.2889506220817566,-0.3266197443008423,-0.30875468254089355,-0.07131173461675644,0.17123204469680786,0.22955453395843506,-0.1673068106174469,0.012193994596600533,-0.08242415636777878,0.17753146588802338,0.2604146897792816,-0.35985052585601807,-0.44508904218673706,-0.2639138996601105,-0.28753548860549927,0.022211113944649696,0.10815779119729996,-0.009086028672754765,-0.2790314257144928,0.03380662947893143,-0.028865383937954903],[-0.1307145357131958,-0.02359119802713394,-0.09595224261283875,0.2830617129802704,-0.10297821462154388,0.1450784057378769,-0.16472332179546356,-0.3972710072994232,-0.10102276504039764,-0.1977909505367279,-0.26507294178009033,0.02971598133444786,0.16159869730472565,-0.1350502222776413,-0.3384671211242676,-0.3900845944881439,-0.19014446437358856,0.25694000720977783,0.25709450244903564,-0.10389258712530136,-0.2330714464187622,-0.09563063830137253,0.29291772842407227,0.08338195830583572,0.005133450031280518,-0.34881314635276794,0.2615918219089508,-0.05555497854948044,-0.2800160348415375,-0.18513816595077515,0.16521260142326355,-0.042298831045627594,0.23293448984622955,-0.0907539576292038,0.11926175653934479,-0.026073718443512917,-0.19864106178283691,0.07794781774282455,-0.05404079705476761,0.007497733924537897,0.0845838263630867,-0.19630709290504456,-0.05692170187830925,-0.2726893126964569,-0.09701351076364517,-0.10705404728651047,-0.2593016028404236,-0.12031909823417664,0.0726962760090828,-0.17859753966331482,0.04332050308585167,0.004116484895348549,-0.32707342505455017,-0.24903088808059692,-0.4995284080505371,-0.23941214382648468,0.010006527416408062,-0.26691535115242004,0.10202911496162415,-0.07365530729293823,0.05066366493701935,0.06039804220199585,-0.10294324159622192,0.2176000326871872,-0.16234156489372253,0.036552973091602325,-0.25428327918052673,0.3226455748081207,-0.01735035330057144,0.05333257466554642,-0.1783856600522995,0.2324231117963791,-0.05893484130501747,-0.19155466556549072,-0.2165016531944275,-0.13015668094158173,0.0008190214284695685,-0.002393013797700405,0.031605951488018036,0.2413737028837204,-0.0784330666065216,-0.08632034808397293,-0.0585930310189724,-0.14125768840312958,-0.17187060415744781,0.07342037558555603,0.02884332463145256,-0.13214577734470367,-0.25407907366752625,-0.22215914726257324,0.04656260833144188,-0.19910046458244324,-0.08313101530075073,-0.046644434332847595,-0.20351159572601318,-0.25290992856025696,-0.06015663221478462,-0.1312100887298584,0.06978664547204971,-0.062482137233018875,0.024441566318273544,-0.25842687487602234,-0.12909089028835297,-0.1626182645559311,-0.004802105017006397,0.06581798940896988,-0.0003060816670767963,-0.3261885643005371,-0.11694345623254776,0.07052341848611832,0.04328339546918869,0.1288345754146576,-0.20206378400325775,0.27969422936439514,-0.12487679719924927,-0.2640863060951233,0.29212477803230286,0.005460832733660936,-0.010593509301543236,-0.3901382088661194,0.05579289793968201,-0.36460912227630615,-0.41907379031181335,-0.091021329164505,-0.2439877986907959,-0.11437591165304184,-0.06350021064281464,-0.10433010011911392],[-0.1257290095090866,-0.144089013338089,-0.15785057842731476,0.13986645638942719,0.03272690996527672,-0.04385964199900627,0.25961336493492126,-0.05822344124317169,-0.2664235234260559,0.3990127444267273,0.28961479663848877,-0.18256281316280365,-0.23508016765117645,0.11629190295934677,-0.062016408890485764,0.019284626469016075,-0.49459126591682434,0.19558782875537872,-0.25060322880744934,0.009956123307347298,-0.1886618286371231,-0.13731694221496582,0.22220739722251892,0.0363599993288517,0.03241391107439995,0.4027039110660553,0.0996415913105011,-0.39766377210617065,0.0679229125380516,-0.23613722622394562,0.042409006506204605,-0.011422891169786453,-0.03829630836844444,-0.0852927714586258,-0.16432541608810425,0.020726710557937622,-0.24854373931884766,-0.08513417840003967,-0.12812364101409912,-0.2031920701265335,-0.2459334433078766,0.0674237310886383,-0.04813285544514656,-0.015649236738681793,0.0038839131593704224,-0.06698323041200638,-0.3137601315975189,0.0035254647955298424,0.024115940555930138,0.00894424319267273,-0.07331052422523499,0.2380097359418869,-0.08369085192680359,0.1099923774600029,-0.1683049350976944,0.1872844099998474,-0.015511872246861458,-0.2596859335899353,-0.3767908811569214,0.11952618509531021,-0.27636250853538513,0.018355926498770714,0.10048094391822815,-0.021808812394738197,-0.016221588477492332,-0.4161112606525421,-0.1767703741788864,-0.17510125041007996,-0.2963438630104065,-0.1641819179058075,0.042434435337781906,0.03971046209335327,-0.15880823135375977,-0.13215979933738708,0.18018071353435516,-0.21199508011341095,0.2863888144493103,-0.1069275513291359,-0.09211432188749313,0.21453548967838287,-0.3537476062774658,-0.14274999499320984,-0.24386955797672272,0.1419481635093689,-0.23107175529003143,0.016532475128769875,-0.05242118984460831,-0.1505359262228012,-0.02085687592625618,-0.11712970584630966,-0.06344708055257797,-0.4914521276950836,-0.39298081398010254,-0.2038220763206482,-0.006272768601775169,-0.08806448429822922,0.19398100674152374,0.07643231004476547,0.06275604665279388,0.09772764146327972,-0.008923470042645931,-0.020707476884126663,-0.003998722415417433,-0.15474620461463928,0.12891075015068054,-0.02816108986735344,-0.3688240647315979,-0.12824296951293945,-0.25957635045051575,-0.08966857939958572,0.027152113616466522,-0.36597639322280884,-0.08531811088323593,0.03545625880360603,0.04020127281546593,-0.0196725782006979,0.08757489174604416,-0.31681838631629944,-0.13889504969120026,0.04153851792216301,-0.21565857529640198,-0.2759678363800049,-0.12199050188064575,-0.0784841999411583,0.0449230931699276,0.0769854336977005,-0.2702493667602539,0.10768593102693558],[0.04157852753996849,-0.04867219552397728,-0.16822127997875214,0.15010331571102142,-0.06379495561122894,0.31661126017570496,-0.10238328576087952,-0.0814252495765686,0.13742570579051971,-0.09999873489141464,-0.04112468659877777,-0.130739226937294,-0.07542276382446289,-0.028328321874141693,0.152069553732872,0.28886744379997253,-0.005339024122804403,-0.2764263153076172,0.15609252452850342,0.059825122356414795,0.0024585190694779158,-0.26399821043014526,-0.33422306180000305,-0.4393227994441986,0.07500665634870529,-0.4397422671318054,-0.03989514335989952,-0.3149493932723999,0.03995669260621071,-0.1304163932800293,0.12102619558572769,-0.0830283835530281,-0.06072419509291649,-0.29395797848701477,-0.25936514139175415,-0.3154917359352112,0.20799390971660614,0.0334763303399086,-0.23516903817653656,0.003667485434561968,-0.0969267338514328,0.23119577765464783,0.03698550909757614,0.05079192668199539,-0.26086145639419556,0.1610247790813446,-0.05396666377782822,-0.3399682939052582,0.23571254312992096,-0.02334962785243988,0.28768062591552734,0.14871832728385925,-0.1869720220565796,0.03339426591992378,0.13025042414665222,0.08897776901721954,0.2565927803516388,0.039947256445884705,0.055535320192575455,-0.06474151462316513,0.02196546271443367,-0.48574361205101013,-0.07218466699123383,-0.08207802474498749,-0.3485252261161804,-0.05608155205845833,-0.06773421168327332,-0.49304038286209106,-0.38556045293807983,0.11151331663131714,0.124445341527462,-0.008041982538998127,-0.16187092661857605,0.2729419767856598,-0.18386873602867126,-0.17932727932929993,-0.22052189707756042,-0.11252608150243759,-0.11266331374645233,-0.0009803748689591885,0.3161291480064392,-0.0006552903214469552,-0.016505222767591476,-0.31409069895744324,-0.03620194271206856,-0.13599449396133423,-0.01784186251461506,0.06881506741046906,0.19262844324111938,-0.007237145211547613,0.04581037908792496,0.08262302726507187,-0.013169316574931145,-0.12277468293905258,-0.0099272970110178,-0.05470322072505951,0.06802575290203094,0.019415991380810738,0.01086900383234024,-0.23204562067985535,0.15620140731334686,0.061628323048353195,-0.1293146014213562,-0.3024462163448334,-0.08776846528053284,-0.09383215010166168,0.19226233661174774,0.013353821821510792,-0.15765056014060974,-0.14641205966472626,0.48433369398117065,0.06372315436601639,-0.13339324295520782,0.09932975471019745,-0.12848612666130066,-0.1342332512140274,-0.1783292144536972,-0.17732177674770355,-0.13990847766399384,-0.18213538825511932,-0.2177659273147583,-0.31375980377197266,-0.02282942458987236,0.012396157719194889,-0.0768643170595169,-0.31292957067489624,-0.2645825445652008,-0.3567274212837219],[0.07134173065423965,-0.03918973356485367,-0.39774397015571594,-0.008475687354803085,0.017307637259364128,0.09660189598798752,-0.031051985919475555,-0.5255515575408936,0.07624354213476181,-0.19208687543869019,-0.24958772957324982,0.06933747231960297,-0.23253773152828217,0.18623577058315277,-0.1886318176984787,0.1035073846578598,-0.5908347964286804,-0.06920058280229568,0.15773190557956696,-0.403543621301651,-0.15448099374771118,0.02469548210501671,-0.04202518239617348,0.05365084484219551,0.09282451868057251,0.05451306700706482,-0.12160774320363998,0.11521133780479431,-0.003973588813096285,-0.12192848324775696,-0.3111797273159027,-0.020807631313800812,-0.30455660820007324,-0.4491213858127594,-0.22302693128585815,-0.05851324647665024,0.05766594409942627,0.07041988521814346,-0.4206559956073761,-0.35271328687667847,-0.017452549189329147,0.10923974215984344,-0.03192705661058426,-0.15400268137454987,-0.3707735538482666,-0.24663421511650085,0.17328621447086334,-0.15456770360469818,0.09676568955183029,-0.3204619586467743,-0.2558295428752899,0.07934962958097458,-0.008193187415599823,-0.450676292181015,0.12215069681406021,-0.08482798933982849,-0.2692623734474182,0.19232071936130524,-0.5104407668113708,-0.0203180480748415,-0.0999063029885292,-0.2063669115304947,-0.0689939334988594,-0.1099381297826767,-0.264035165309906,-0.08893200755119324,0.0205119289457798,-0.16952252388000488,-0.2056766301393509,0.12077774107456207,-0.08661813288927078,0.16766765713691711,-0.0009537243167869747,-0.08054611086845398,-0.23278217017650604,0.23134487867355347,-0.03280075639486313,0.11523378640413284,-0.11721578240394592,-0.11108195781707764,-0.17426680028438568,0.3378097414970398,0.30652981996536255,-0.22439172863960266,0.026111038401722908,-0.0750085711479187,-0.3234138488769531,0.046058475971221924,-0.35550087690353394,-0.04596174880862236,-0.028877582401037216,-0.25538790225982666,0.0437452457845211,0.028844276443123817,-0.10939179360866547,-0.04449521377682686,0.2290189415216446,-0.07592209428548813,-0.15713290870189667,0.043020714074373245,-0.4426642656326294,0.1483335942029953,0.3567048907279968,-0.45378410816192627,-0.16184711456298828,-0.06750226765871048,0.2562258839607239,-0.14439693093299866,-0.07304828613996506,-0.2341766357421875,-0.05187605321407318,-0.10941606014966965,-0.690941333770752,0.008659790270030499,-0.12099326401948929,-0.20880886912345886,-0.12845750153064728,-0.012627637013792992,-0.42004501819610596,0.14448992908000946,-0.00331505062058568,0.0005774417659267783,0.23989208042621613,-0.21409836411476135,-0.011597536504268646,-0.18871790170669556,-0.07629012316465378,-0.0026606996543705463],[-0.18453742563724518,-0.10424304008483887,0.08047138154506683,-0.054726310074329376,-0.009607009589672089,-0.01753818243741989,-0.03229108825325966,-0.1838296502828598,-0.1822453886270523,-0.07012989372015,-0.12912721931934357,-0.12937259674072266,-0.18871667981147766,-0.05389353632926941,-0.06060479208827019,-0.13292376697063446,-0.07430337369441986,-0.1375206559896469,-0.3048246502876282,0.3094084560871124,0.02558276616036892,0.09428234398365021,0.23355522751808167,-0.1019200012087822,0.00531747005879879,-0.07588331401348114,-0.07771734893321991,-0.21201816201210022,-0.010106789879500866,0.17260707914829254,-0.11955723911523819,-0.03747568652033806,-0.16119907796382904,-0.22962449491024017,-0.06527895480394363,-0.06954973936080933,0.09224943816661835,0.09232193231582642,0.34159335494041443,-0.161692813038826,-0.32730600237846375,-0.03272997587919235,0.06747201830148697,-0.2550453245639801,-0.2223372459411621,-0.09440582990646362,-0.21532507240772247,0.1543787121772766,0.09494557976722717,0.16770479083061218,0.024814121425151825,0.17227493226528168,0.012616891413927078,-0.3824252188205719,-0.22492189705371857,-0.3459673225879669,0.17482522130012512,-0.1718614250421524,-0.22020858526229858,0.010293831117451191,0.001751041505485773,-0.24479438364505768,-0.3218310475349426,-0.12218277901411057,-0.015214028768241405,-0.16375906765460968,-0.11726053059101105,-0.21796898543834686,-0.03638436645269394,-0.15868481993675232,-0.13946928083896637,-0.00009542104817228392,-0.16370123624801636,0.001744019566103816,0.060643747448921204,-0.18670929968357086,0.13259385526180267,-0.18672774732112885,-0.06486562639474869,0.045341771095991135,-0.16173027455806732,-0.03685598075389862,0.19797128438949585,0.18643207848072052,-0.04525960609316826,0.10761979967355728,-0.3917783498764038,-0.24486702680587769,-0.166940838098526,-0.17355836927890778,0.1890060007572174,-0.04891838878393173,-0.07997264713048935,-0.19839420914649963,-0.13878975808620453,-0.11146562546491623,-0.17071911692619324,-0.03647156432271004,-0.27622154355049133,0.28599420189857483,-0.07950091361999512,-0.29522860050201416,0.04891170561313629,0.1365010142326355,-0.1825094223022461,0.23319242894649506,0.09156500548124313,0.0989384800195694,-0.040294062346220016,-0.19555732607841492,-0.0028989340644329786,-0.05909835919737816,-0.1503477245569229,0.06806974858045578,-0.10249702632427216,0.014572705142199993,-0.02570785954594612,0.07389017939567566,-0.171379953622818,0.047772858291864395,0.09813961386680603,-0.03152403607964516,-0.1823718249797821,0.2310856431722641,-0.4655303359031677,0.15930534899234772,-0.04917354881763458,-0.032370224595069885],[0.35261809825897217,-0.044068630784749985,-0.16324608027935028,0.22466149926185608,-0.09150764346122742,-0.04775846004486084,-0.0734999030828476,0.17600126564502716,-0.46114879846572876,0.12427109479904175,0.04984789341688156,-0.08518847823143005,-0.2216353863477707,0.3566649854183197,-0.33011043071746826,0.22918501496315002,0.12355588376522064,-0.18942536413669586,-0.176814004778862,0.025912679731845856,-0.11557471752166748,-0.20542533695697784,-0.0578683577477932,-0.2947068512439728,0.0038172099739313126,0.09845184534788132,-0.012123986147344112,0.01600066013634205,-0.4514944553375244,-0.20971110463142395,0.09583055973052979,0.16743206977844238,-0.35493406653404236,0.09680753946304321,0.2689061164855957,0.29222264885902405,-0.39194923639297485,-0.2670930325984955,-0.02999853901565075,-0.20117299258708954,-0.18972118198871613,0.3670507073402405,-0.19516372680664062,0.019491154700517654,-0.07900717109441757,-0.07737124711275101,-0.06345880776643753,-0.4493260979652405,0.1655365526676178,-0.20950348675251007,-0.07587844133377075,-0.17176787555217743,0.023104891180992126,0.0374770313501358,-0.14826467633247375,-0.0962781235575676,-0.024937979876995087,0.2619873285293579,-0.1641574501991272,0.07824490964412689,-0.0014665845083072782,-0.12040409445762634,0.02455497533082962,-0.13132114708423615,0.2536028027534485,-0.07268445938825607,0.14556312561035156,0.07742203027009964,-0.20156092941761017,-0.1678110808134079,-0.06191572546958923,0.1203426718711853,-0.09672655165195465,0.10106801986694336,0.0533362440764904,-0.45534366369247437,0.24317321181297302,0.1146102100610733,-0.24229958653450012,0.021219780668616295,-0.24324186146259308,-0.2665099799633026,-0.19488736987113953,-0.13659094274044037,-0.1784985363483429,0.11371060460805893,-0.23537102341651917,0.1901572048664093,-0.018225179985165596,0.11199919879436493,-0.04097438231110573,-0.24972613155841827,0.1751406490802765,0.05272136256098747,-0.4000822603702545,0.04732917994260788,-0.31877148151397705,-0.12645116448402405,0.0520884208381176,-0.2647642493247986,0.10547436028718948,-0.16131560504436493,-0.16695326566696167,0.0032754098065197468,-0.17639009654521942,-0.3182211220264435,0.3206736445426941,0.04581909626722336,0.11381036788225174,-0.05428697168827057,-0.27115243673324585,-0.1821095049381256,-0.0672326385974884,-0.0897556021809578,0.08200827240943909,-0.07533350586891174,-0.3625958561897278,-0.13347207009792328,-0.24143682420253754,-0.2696695029735565,-0.16501261293888092,-0.4126546382904053,0.05636464059352875,0.021821117028594017,-0.13487939536571503,-0.07796358317136765,-0.17806918919086456,-0.08408557623624802],[0.08831445872783661,-0.141350656747818,-0.10662487894296646,-0.02022874355316162,0.39395633339881897,0.09647481143474579,-0.09622785449028015,-0.12268219888210297,0.10855912417173386,0.0743708461523056,0.06431266665458679,0.24215084314346313,0.344753623008728,0.24022430181503296,-0.15800485014915466,-0.18904805183410645,-0.4038548767566681,-0.020506726577878,-0.14124731719493866,-0.20094691216945648,-0.03401155769824982,-0.15248017013072968,-0.1761864274740219,0.02869182825088501,-0.20802025496959686,0.07007183134555817,-0.19902923703193665,0.1538543552160263,0.046600621193647385,0.2719314992427826,-0.2177799940109253,-0.07273263484239578,0.06826804578304291,-0.005740167107433081,-0.359458863735199,-0.03561825305223465,-0.06373953819274902,0.2598380744457245,-0.07754004746675491,-0.0003808754263445735,-0.3341110050678253,-0.040502600371837616,0.14287474751472473,-0.037032175809144974,-0.2606338858604431,0.08168431371450424,0.18651507794857025,0.09344344586133957,-0.13005417585372925,-0.25399428606033325,-0.2193981260061264,-0.13998360931873322,-0.004161874298006296,-0.2059583216905594,-0.09087422490119934,0.006754792761057615,0.06201832741498947,0.10419177263975143,0.2918894588947296,0.09024807065725327,-0.1199621632695198,0.06214877590537071,-0.3179352283477783,0.06548597663640976,0.18448147177696228,0.4870575964450836,-0.11182519793510437,-0.013751390390098095,-0.18738491833209991,0.02174452878534794,-0.2507993280887604,0.050821200013160706,0.18256543576717377,0.0193716362118721,0.11772842705249786,-0.3006717562675476,-0.023144766688346863,-0.06974323093891144,0.05294611304998398,0.03813640773296356,0.24579516053199768,0.07987797260284424,0.0937199667096138,0.02525533363223076,0.17370228469371796,-0.06434839218854904,-0.300244003534317,-0.010401886887848377,-0.2188188135623932,-0.026591362431645393,-0.24270154535770416,-0.0632995218038559,-0.296347051858902,-0.2666890025138855,-0.11814548075199127,-0.22972659766674042,0.04759208485484123,0.17259865999221802,0.13314993679523468,0.09350740909576416,-0.05871505290269852,-0.2306021898984909,-0.05208709090948105,0.06588666886091232,-0.03899902477860451,0.03694231063127518,-0.11276587843894958,0.1339000016450882,0.05004831776022911,0.012611312791705132,-0.11453989893198013,-0.25610271096229553,-0.04678179696202278,-0.018438836559653282,-0.204708531498909,-0.13728682696819305,0.08745891600847244,0.40575718879699707,0.14528405666351318,0.07431671768426895,-0.0566989928483963,0.03933510556817055,-0.1047157496213913,0.12272129207849503,0.027694465592503548,-0.023769279941916466,-0.07355868071317673,-0.020244374871253967],[0.2836630642414093,-0.060647305101156235,-0.3524669110774994,-0.04245377331972122,-0.011822250671684742,-0.03942368924617767,0.22112102806568146,-0.5016659498214722,0.08941031992435455,-0.19201543927192688,-0.016967831179499626,0.20446965098381042,-0.14767226576805115,-0.12587220966815948,-0.12943528592586517,0.08076200634241104,-0.2744864821434021,0.33756664395332336,-0.049209367483854294,-0.3653873801231384,-0.14460334181785583,-0.17321716248989105,-0.027842456474900246,0.1353853940963745,0.13106758892536163,0.2896629869937897,-0.051278650760650635,0.026405343785881996,-0.36197373270988464,-0.054285500198602676,-0.015598319470882416,0.19761964678764343,-0.08172423392534256,-0.22707822918891907,0.032247357070446014,-0.05643243342638016,-0.29904496669769287,-0.1538192182779312,-0.06087837740778923,-0.03116246871650219,-0.2699473798274994,0.03319064527750015,-0.1266900897026062,0.14640402793884277,-0.12520115077495575,-0.1265476495027542,0.0613357275724411,-0.15706992149353027,-0.02493712119758129,0.0020254768896847963,-0.5358405113220215,-0.12345481663942337,-0.21954822540283203,-0.19512586295604706,0.147864431142807,0.027758747339248657,-0.020954497158527374,0.04067807272076607,-0.07501117140054703,-0.04032914340496063,-0.31634649634361267,-0.2108517438173294,-0.09701035916805267,-0.11584372073411942,-0.20776617527008057,-0.3319174349308014,0.08201685547828674,-0.011663134209811687,-0.07723864912986755,0.09044284373521805,0.226613387465477,0.005065807607024908,-0.07298965007066727,-0.09386271238327026,-0.1748874932527542,-0.2878352999687195,0.23555085062980652,-0.018999986350536346,-0.1642029881477356,-0.1581791788339615,-0.3088715672492981,-0.14031530916690826,0.012510299682617188,0.11626259237527847,0.154490128159523,0.04402775317430496,-0.1710255742073059,-0.10383836179971695,0.0849544107913971,0.07606098800897598,0.37547579407691956,0.5041823387145996,-0.1815233826637268,-0.35028648376464844,-0.05222534388303757,-0.18077237904071808,-0.281880259513855,0.13294193148612976,-0.2712613046169281,0.2559455335140228,-0.49556827545166016,-0.021938830614089966,-0.02069365605711937,-0.08259891718626022,-0.028596995398402214,-0.061291202902793884,0.10259155184030533,-0.02354557067155838,-0.14957472681999207,-0.3030415177345276,-0.025034388527274132,0.04031572490930557,0.0031599770300090313,-0.07840224355459213,-0.09109765291213989,-0.061677027493715286,-0.07007379084825516,0.0835278332233429,0.14099356532096863,-0.24966956675052643,-0.2661006450653076,-0.16129936277866364,-0.26325109601020813,0.14064732193946838,-0.27242687344551086,-0.16375552117824554,-0.12573406100273132,0.27230536937713623],[0.046887222677469254,-0.5855767130851746,-0.4976080060005188,-0.13956041634082794,-0.038193393498659134,-0.07858321815729141,0.08795774728059769,-0.2954089939594269,0.09527812898159027,0.03983627259731293,0.21972526609897614,-0.008361367508769035,0.29662108421325684,0.16914810240268707,0.16877885162830353,-0.15266303718090057,-0.19196642935276031,-0.17674945294857025,-0.32920774817466736,-0.22684161365032196,-0.0035244529135525227,-0.21508577466011047,-0.1644965410232544,-0.08614969998598099,-0.06981842964887619,-0.06016484275460243,-0.09920727461576462,0.09112575650215149,0.2141902595758438,-0.034057799726724625,-0.0357157327234745,0.24432040750980377,-0.14295241236686707,-0.07521189749240875,-0.3883461654186249,-0.24844954907894135,-0.046152565628290176,-0.038574930280447006,-0.14282356202602386,-0.16790418326854706,-0.0038777696900069714,-0.3256000578403473,0.004216521978378296,0.012333721853792667,-0.45078548789024353,0.026113908737897873,0.1181718036532402,-0.19505684077739716,0.10954125970602036,0.030910002067685127,-0.17728222906589508,-0.27400535345077515,-0.17760653793811798,0.006846575532108545,-0.16461007297039032,0.059754014015197754,-0.016816457733511925,0.03727525472640991,-0.21278145909309387,0.7478016018867493,-0.15355446934700012,0.16076792776584625,0.10952947288751602,-0.1779458373785019,-0.12441235035657883,0.1243220865726471,0.08837471157312393,0.05955318361520767,0.1073056161403656,-0.023220449686050415,0.00973170530050993,-0.06407364457845688,0.03935675695538521,-0.33306074142456055,-0.27362650632858276,0.010043575428426266,-0.027927173301577568,-0.05931588262319565,0.15028224885463715,0.24086187779903412,0.06656919419765472,-0.14636100828647614,-0.08632639795541763,0.02736497111618519,0.00215729558840394,-0.21787934005260468,-0.10619865357875824,-0.023242300376296043,0.13917838037014008,-0.03459734469652176,-0.5763148069381714,0.24702668190002441,-0.10890867561101913,-0.15892083942890167,-0.04187149554491043,0.34873631596565247,0.005076617933809757,0.34354424476623535,0.1254420280456543,0.027817796915769577,-0.22492505609989166,-0.06659748405218124,-0.16292902827262878,-0.5375397205352783,-0.39088714122772217,0.016185427084565163,0.22333146631717682,-0.17149952054023743,0.16753269731998444,-0.28210896253585815,0.07977360486984253,-0.14172905683517456,0.2389238029718399,-0.4461265206336975,0.14110903441905975,-0.18051458895206451,-0.3371583819389343,-0.2547470033168793,0.02461126446723938,0.2765848934650421,-0.06885872036218643,-0.22952473163604736,-0.31367677450180054,0.2616187036037445,-0.3281628489494324,-0.14324767887592316,-0.055013787001371384,-0.032425880432128906],[0.28241604566574097,-0.428475946187973,-0.3278231918811798,0.16773061454296112,-0.1267612725496292,-0.032419491559267044,-0.2881440818309784,-0.1420474350452423,-0.24851249158382416,-0.03218986839056015,-0.19572216272354126,-0.2816266715526581,-0.08814389258623123,0.09834057092666626,-0.19250643253326416,-0.3385932147502899,-0.1251852959394455,-0.1236673891544342,-0.09731859713792801,-0.06739058345556259,0.22265216708183289,0.04417400062084198,0.09377400577068329,-0.24346940219402313,-0.09562952071428299,-0.13653142750263214,0.06865337491035461,-0.3026789426803589,-0.17336836457252502,-0.15738801658153534,-0.008946250192821026,-0.09996845573186874,-0.16266751289367676,-0.3562779128551483,-0.1672745943069458,-0.042673397809267044,-0.0446808896958828,0.005595925264060497,0.16429638862609863,0.009820837527513504,-0.003368933452293277,-0.10818236321210861,-0.24841736257076263,-0.15395739674568176,0.07867538928985596,-0.2737514078617096,0.00046099009341560304,0.07773120701313019,-0.2322109043598175,0.1338418424129486,0.2266230434179306,-0.013558274134993553,-0.13755789399147034,-0.3365992307662964,-0.11051823198795319,0.11170950531959534,-0.09734171628952026,0.09243498742580414,0.3747948706150055,0.003943240735679865,-0.10303547233343124,0.1485966444015503,0.09485750645399094,-0.4341733157634735,-0.03451519459486008,0.06097732111811638,-0.10368790477514267,0.031821202486753464,-0.42444106936454773,0.07748296111822128,0.13871310651302338,0.1988433599472046,-0.32846423983573914,-0.06374166905879974,0.049642205238342285,-0.16342660784721375,0.07310494780540466,-0.5489060282707214,0.09872622787952423,-0.050072599202394485,-0.3128824234008789,-0.08345474302768707,-0.22649216651916504,-0.5102613568305969,-0.14600832760334015,-0.01245942059904337,-0.11333732306957245,-0.096028171479702,0.11730580776929855,0.03952846676111221,0.05463939160108566,0.07274223119020462,-0.1329539269208908,-0.09434161335229874,-0.3843460977077484,0.15930193662643433,-0.07735254615545273,0.2212987095117569,0.23415564000606537,-0.3190491199493408,0.15905655920505524,-0.02972365915775299,-0.01050968375056982,0.04662960395216942,-0.10497049242258072,-0.2519235908985138,-0.35423704981803894,-0.2950488030910492,0.1274193376302719,0.08709970861673355,-0.11127651482820511,-0.20129142701625824,-0.14624665677547455,-0.03089878335595131,0.11630818247795105,-0.1588681936264038,0.12577909231185913,-0.03999677300453186,-0.10317455232143402,-0.02920224331319332,0.07436472922563553,-0.0627787858247757,-0.4434241056442261,-0.026649998500943184,-0.05948460474610329,0.014196940697729588,-0.05622665956616402,-0.19157207012176514],[-0.20908230543136597,-0.21258333325386047,-0.2400536984205246,0.18426033854484558,0.1298932433128357,0.1468440592288971,-0.35153210163116455,-0.3744666576385498,-0.20810149610042572,0.0838131234049797,0.04130087420344353,-0.026209518313407898,0.042792752385139465,-0.39691710472106934,-0.02924087457358837,-0.04659247025847435,0.025685470551252365,-0.10906347632408142,-0.011961854062974453,0.003137461142614484,-0.18670520186424255,-0.0005075710359960794,0.34163472056388855,0.021435841917991638,0.19305911660194397,-0.06503022462129593,-0.3543146848678589,-0.38776475191116333,-0.3629440665245056,-0.13196800649166107,-0.16903775930404663,-0.23513734340667725,-0.3149954676628113,-0.018311195075511932,-0.2953074872493744,-0.4592321217060089,-0.5022563934326172,-0.10170411318540573,0.16217085719108582,-0.14772248268127441,-0.054929960519075394,0.05117133632302284,-0.1697656661272049,0.20570002496242523,-0.21844054758548737,0.045560553669929504,-0.1804443746805191,-0.20521274209022522,-0.03798048943281174,-0.2668665051460266,-0.26443907618522644,-0.10725841671228409,0.07576718926429749,0.23806273937225342,-0.23829783499240875,0.038630589842796326,-0.43485692143440247,-0.015679579228162766,0.0662749707698822,-0.09738903492689133,-0.044477734714746475,-0.026280729100108147,-0.09050501137971878,0.04566958546638489,-0.2307465523481369,-0.10257267206907272,0.0541941374540329,-0.11305788904428482,-0.11668527126312256,-0.12342885136604309,-0.27142900228500366,-0.16542762517929077,-0.07771875709295273,-0.3169739842414856,-0.3544151782989502,-0.2395819127559662,-0.20138680934906006,-0.12122856825590134,-0.06294659525156021,-0.015676146373152733,0.006827163510024548,-0.3855955898761749,0.16603219509124756,-0.023801518604159355,0.0946141928434372,-0.37664932012557983,-0.17932334542274475,-0.1288711428642273,-0.02385891228914261,0.3315613269805908,-0.1616705060005188,-0.453890323638916,0.2175999879837036,-0.2696537375450134,-0.06321368366479874,0.05014675110578537,-0.20009425282478333,0.07245034724473953,-0.08643560856580734,-0.31362974643707275,-0.17560017108917236,-0.3470148742198944,-0.045605406165122986,-0.1879047006368637,-0.22472143173217773,-0.26079240441322327,-0.0016272040084004402,-0.2645016312599182,0.04499807581305504,-0.07780924439430237,-0.07514631748199463,-0.26012760400772095,0.1392839401960373,-0.3150929808616638,-0.09216970950365067,-0.09672031551599503,-0.14101184904575348,0.06492672115564346,-0.38459283113479614,0.039971038699150085,0.11291246116161346,0.1739359050989151,-0.42733344435691833,0.30099257826805115,-0.21617290377616882,-0.15076011419296265,0.11710595339536667,-0.22441071271896362],[0.2200169414281845,-0.08662019670009613,-0.28546231985092163,-0.0903642326593399,-0.21730747818946838,0.22765780985355377,0.3303063213825226,-0.11908580362796783,0.052081745117902756,0.2755971848964691,-0.1671360731124878,0.10413257032632828,0.08293108642101288,0.034383565187454224,-0.049854762852191925,0.07507972419261932,-0.21408160030841827,-0.08613859862089157,-0.16080982983112335,0.09760203212499619,-0.14457866549491882,-0.4373635947704315,-0.11639843136072159,-0.07242012768983841,-0.03921196982264519,0.49023181200027466,0.21824702620506287,-0.3245748281478882,-0.5109120607376099,0.14475055038928986,-0.1870708018541336,-0.45420387387275696,0.23729194700717926,-0.021378016099333763,-0.03548939526081085,-0.25313976407051086,-0.07244036346673965,0.15421633422374725,0.24392278492450714,-0.028920384123921394,-0.052961934357881546,0.3317553400993347,0.12448497116565704,0.37793421745300293,-0.15036936104297638,-0.225865438580513,-0.2587716281414032,-0.16956603527069092,0.031984224915504456,-0.15529818832874298,-0.4627579152584076,0.06250665336847305,-0.14811474084854126,-0.44945985078811646,0.09439454227685928,0.010912597179412842,-0.07549053430557251,0.12269598990678787,0.04779119789600372,0.06833834946155548,0.1544802188873291,-0.1605285406112671,-0.12402162700891495,-0.5051934719085693,-0.019320104271173477,-0.2871658205986023,-0.17162634432315826,-0.042767301201820374,-0.03728991746902466,0.24621672928333282,-0.35732629895210266,0.1794184446334839,0.24048645794391632,0.2708728015422821,-0.28661802411079407,-0.2223968207836151,-0.17023995518684387,0.07862874865531921,-0.2440708577632904,-0.3141995072364807,-0.21469661593437195,0.028069473803043365,-0.18444421887397766,-0.0023949670139700174,-0.33272337913513184,-0.1594107449054718,-0.3197135031223297,-0.2165929675102234,0.02402864769101143,-0.10016410797834396,-0.18696154654026031,0.14143244922161102,-0.16394808888435364,-0.4304194450378418,-0.31925931572914124,-0.18051105737686157,-0.2047303169965744,0.2955589294433594,-0.12257029116153717,-0.1814335733652115,0.06736423075199127,-0.10928142815828323,-0.0315968282520771,0.11391975730657578,-0.19610591232776642,0.31167006492614746,-0.1947651207447052,-0.4739445447921753,-0.008693186566233635,-0.2610926032066345,-0.023899773135781288,-0.13642661273479462,0.10438504815101624,-0.1948298066854477,-0.028356129303574562,-0.09850509464740753,-0.17705568671226501,-0.17109860479831696,0.0444621741771698,-0.04506006836891174,-0.03402644768357277,0.014845321886241436,-0.14382915198802948,-0.21257387101650238,0.041497863829135895,-0.09707572311162949,-0.052808307111263275,0.0021882480941712856],[0.22831468284130096,0.05089855566620827,-0.3908258080482483,-0.05935901775956154,0.00006421131547540426,-0.024503296241164207,-0.31390970945358276,0.026631608605384827,0.07645753771066666,-0.26476961374282837,0.06004386767745018,-0.11527495831251144,-0.0007677462417632341,0.10086293518543243,0.018546774983406067,0.18961837887763977,-0.20028434693813324,0.06033629924058914,-0.34768858551979065,-0.19612328708171844,-0.12472273409366608,-0.2654721140861511,-0.14868970215320587,-0.3983391523361206,-0.1958506852388382,-0.016450826078653336,-0.02743050456047058,0.16064521670341492,-0.21696600317955017,0.05841286852955818,-0.31299856305122375,-0.4393162429332733,-0.10113499313592911,-0.02588288113474846,-0.27707651257514954,0.015262835659086704,0.24324920773506165,-0.018527887761592865,-0.1272902637720108,0.42594805359840393,-0.14141058921813965,-0.20347370207309723,-0.14806987345218658,-0.33136114478111267,-0.21467506885528564,-0.09817387163639069,-0.02480027638375759,0.2204211801290512,-0.20020243525505066,-0.19410698115825653,-0.1661590039730072,-0.10702833533287048,-0.03039887174963951,0.04871031269431114,-0.26596859097480774,-0.09270942211151123,-0.1438177525997162,-0.3287031948566437,0.41203993558883667,0.04302942007780075,0.028130993247032166,-0.01846640184521675,-0.021074365824460983,0.14410161972045898,-0.15916572511196136,0.24456879496574402,0.21157076954841614,-0.044986575841903687,0.2109271138906479,0.061732593923807144,-0.22538995742797852,-0.10313240438699722,0.10048776119947433,-0.11906670778989792,-0.07439744472503662,-0.18764789402484894,-0.24948309361934662,0.0379515178501606,-0.09515420347452164,-0.1902705430984497,-0.3610406816005707,-0.31806814670562744,0.03837497532367706,0.004133300390094519,0.12108754366636276,-0.27356377243995667,-0.32627132534980774,-0.22305816411972046,-0.1435248851776123,0.3214098811149597,-0.13765861093997955,0.029691489413380623,-0.38300621509552,-0.09960118681192398,-0.28587695956230164,0.01262611523270607,-0.15756286680698395,-0.17621566355228424,0.1983981728553772,-0.008254469372332096,-0.05899733677506447,0.2187148779630661,0.16220207512378693,0.03873569518327713,0.006970811635255814,0.3318041265010834,-0.0911518856883049,-0.2823416292667389,0.28290480375289917,-0.035126183182001114,-0.053360775113105774,-0.14357510209083557,-0.02889789082109928,0.13019540905952454,0.003430119017139077,-0.11706136912107468,0.12724179029464722,0.35777658224105835,0.032557591795921326,-0.2048330456018448,-0.01374390721321106,0.10112283378839493,0.2671569585800171,-0.03951515257358551,0.4149063229560852,0.034821391105651855,0.07059981673955917,-0.2903897166252136],[-0.0886165127158165,0.005650757811963558,-0.2119991034269333,-0.02332448586821556,0.18001869320869446,-0.1151757687330246,-0.15152111649513245,-0.3099753260612488,0.10350550711154938,-0.09021057933568954,0.028205551207065582,-0.07491324096918106,-0.194571852684021,0.07458037883043289,-0.24200303852558136,-0.44767096638679504,-0.0816490575671196,0.006686015520244837,-0.13157078623771667,0.03235837072134018,-0.007667717523872852,-0.32561102509498596,0.13590477406978607,0.0533357635140419,-0.0054810321889817715,-0.0322670079767704,0.14327144622802734,-0.06039457768201828,-0.22119523584842682,-0.21432608366012573,-0.2642003297805786,-0.39137762784957886,-0.04038763791322708,-0.2788459062576294,-0.11227551847696304,-0.058067686855793,-0.004255969543009996,0.10261349380016327,-0.17497815191745758,0.34531036019325256,-0.2391604334115982,0.11843519657850266,0.03864606097340584,0.14518199861049652,-0.47128862142562866,-0.236169695854187,0.04349134862422943,-0.13320039212703705,-0.11508072167634964,-0.14682874083518982,-0.21470817923545837,0.025249740108847618,-0.19805127382278442,0.023185689002275467,0.0071236733347177505,-0.09592542797327042,0.07016638666391373,-0.14129608869552612,0.33816173672676086,0.2787077724933624,-0.2443016767501831,0.012652238830924034,0.06478139758110046,0.019551623612642288,-0.109929159283638,0.060982514172792435,-0.06678187847137451,-0.34713494777679443,0.19102966785430908,-0.16104692220687866,-0.019188031554222107,-0.3536646068096161,-0.3093121349811554,-0.2500879168510437,-0.15127812325954437,-0.24723036587238312,0.03140237182378769,0.05231522396206856,0.023930706083774567,0.002651007380336523,-0.023797614499926567,-0.07582713663578033,-0.06555734574794769,-0.5407004952430725,-0.0708344578742981,-0.12275975942611694,0.08974668383598328,-0.07828116416931152,-0.23094867169857025,0.05194365233182907,-0.12090519815683365,0.29670971632003784,-0.04609820991754532,-0.12415225803852081,-0.24127115309238434,-0.17476879060268402,-0.3291865885257721,-0.12543511390686035,0.12759031355381012,0.10774804651737213,-0.3255283236503601,0.03944160044193268,-0.1906297653913498,-0.2218725085258484,0.0012348778545856476,0.21110837161540985,-0.11028005927801132,-0.2502400875091553,-0.0683075487613678,-0.13773716986179352,0.3502075672149658,-0.10308008641004562,-0.15059763193130493,0.04077065363526344,0.1456693559885025,-0.6030435562133789,0.05243166536092758,-0.11448473483324051,0.06974556297063828,0.13374461233615875,-0.17163439095020294,-0.1419738531112671,-0.26938486099243164,-0.256519079208374,0.005152236204594374,-0.30320021510124207,0.1393767148256302,0.017650576308369637],[0.20187267661094666,-0.2406998723745346,-0.2223065197467804,0.2550649344921112,0.06039990857243538,0.024006545543670654,-0.204316645860672,-0.2001727819442749,0.11585575342178345,-0.20259909331798553,0.2854067385196686,0.05009595304727554,-0.06403420120477676,-0.1448412984609604,-0.047621943056583405,-0.03573475405573845,-0.34894463419914246,-0.17869365215301514,-0.47638604044914246,-0.17751994729042053,0.07092273235321045,-0.0388907790184021,-0.0053634196519851685,0.023622335866093636,-0.3847794532775879,-0.11063971370458603,0.13582120835781097,-0.32991352677345276,-0.0940379798412323,0.3263145983219147,-0.07783690840005875,0.12260400503873825,-0.27618464827537537,-0.31103718280792236,-0.1930113136768341,-0.38725823163986206,-0.07058622688055038,0.2287387102842331,0.2502273619174957,-0.24613505601882935,0.15787284076213837,-0.026348644867539406,-0.022671634331345558,-0.03250791132450104,-0.2881461977958679,0.1656343787908554,0.023738574236631393,0.09413615614175797,-0.3318946957588196,0.2410992532968521,-0.1907016634941101,-0.1988779604434967,-0.022541683167219162,-0.20876693725585938,0.24360698461532593,0.28382426500320435,-0.20351682603359222,-0.3350467085838318,0.14706268906593323,-0.18139949440956116,0.12339288741350174,0.09687472879886627,-0.13026875257492065,-0.03243450075387955,-0.22600379586219788,-0.2824805676937103,0.07237304747104645,-0.11999254673719406,-0.05910614877939224,-0.25616738200187683,-0.29782795906066895,0.11734390258789062,-0.32474473118782043,-0.20029696822166443,-0.1829090714454651,-0.1040465459227562,0.018819941207766533,-0.10704122483730316,0.049638859927654266,-0.04843735694885254,0.20135906338691711,-0.22239920496940613,-0.16730932891368866,-0.13066941499710083,-0.04554534703493118,0.07135600596666336,-0.21815519034862518,0.01828349567949772,0.2145339697599411,0.05876404419541359,0.03100844845175743,-0.3007166087627411,0.2607073485851288,-0.060438372194767,-0.3595907688140869,-0.032262030988931656,0.038870781660079956,0.28053027391433716,-0.19247667491436005,-0.1899019330739975,-0.17386001348495483,-0.03811055049300194,0.07274904102087021,-0.12219709903001785,0.10434785485267639,-0.25322845578193665,0.13893938064575195,-0.3314815163612366,-0.14098240435123444,0.026056604459881783,-0.02581249549984932,-0.0756303146481514,-0.1049131527543068,0.014274503104388714,-0.008135378360748291,0.1859424114227295,-0.13491390645503998,0.1442001461982727,0.002008013194426894,-0.3494923412799835,-0.2990576922893524,-0.021852679550647736,-0.17388558387756348,-0.3172712028026581,0.06238296627998352,-0.4696711003780365,0.09951034188270569,-0.07966191321611404],[-0.33493250608444214,-0.20822115242481232,-0.2531154751777649,0.255290687084198,0.2777290940284729,0.03938408941030502,0.1975744068622589,-0.29018861055374146,0.24822086095809937,-0.22619444131851196,-0.047161027789115906,-0.13475361466407776,-0.1514679491519928,0.062324199825525284,0.16221275925636292,0.07340142130851746,0.14328651130199432,-0.22464509308338165,-0.13919846713542938,0.1497652530670166,0.12408222258090973,0.04807007685303688,0.09306544810533524,-0.11971098184585571,-0.3062560558319092,-0.32122883200645447,-0.26580876111984253,0.018312005326151848,-0.1722155511379242,0.022522438317537308,-0.0175850298255682,0.18770542740821838,0.035937029868364334,-0.11336752027273178,-0.17329348623752594,0.2795219421386719,0.09032353013753891,0.18379002809524536,0.009027639403939247,-0.05005047097802162,-0.26152440905570984,0.07658089697360992,-0.33366960287094116,-0.011390581727027893,-0.1332363337278366,-0.10656819492578506,-0.17498351633548737,-0.36550143361091614,-0.03996846079826355,0.02673349902033806,0.24881818890571594,-0.002618318423628807,0.06223229318857193,0.2310033142566681,-0.018319575116038322,0.00571887381374836,0.03904808685183525,-0.2517024278640747,0.18681572377681732,-0.20046016573905945,0.09542718529701233,-0.11811906099319458,-0.19692488014698029,-0.23801791667938232,-0.0315592996776104,0.1519002914428711,0.2399897575378418,-0.012149571441113949,0.015884479507803917,-0.11601323634386063,-0.2642306685447693,-0.17601504921913147,-0.04894717410206795,-0.04366938769817352,-0.4544380307197571,-0.11053454130887985,-0.05981659144163132,0.2995237112045288,0.33232372999191284,-0.1927150934934616,-0.041310545057058334,0.00693175382912159,-0.06708014011383057,-0.094528928399086,-0.1883031725883484,0.0627083033323288,-0.24773260951042175,-0.26145362854003906,-0.20368805527687073,0.23177453875541687,-0.07911430299282074,0.20032261312007904,-0.2686918377876282,-0.01896163634955883,-0.02357117459177971,-0.36094650626182556,0.30124613642692566,0.010196165181696415,0.05657436326146126,-0.13531635701656342,0.15873506665229797,0.036628954112529755,-0.3872932493686676,-0.2148643136024475,0.009790715761482716,0.18185411393642426,0.07418058067560196,-0.11255545914173126,-0.21626731753349304,-0.2865934669971466,0.02442375011742115,-0.15113095939159393,-0.17200367152690887,-0.2762339413166046,-0.07273677736520767,0.05981617048382759,0.24306714534759521,0.017472004517912865,0.15339931845664978,0.13464315235614777,0.12101626396179199,-0.288040429353714,0.05378182232379913,-0.10660791397094727,-0.019806789234280586,-0.092729851603508,-0.10187917947769165,0.005104712676256895],[-0.1977766454219818,-0.06650567054748535,-0.09243421256542206,0.07972963899374008,-0.027657292783260345,-0.12371247261762619,-0.1900825947523117,-0.011356697417795658,-0.13878490030765533,-0.07361344248056412,-0.07671483606100082,0.42102888226509094,-0.0218465905636549,-0.036227673292160034,-0.2945232391357422,-0.05816227197647095,-0.1368628740310669,-0.16310729086399078,-0.12402486056089401,-0.10631108283996582,-0.1875084936618805,0.019089350476861,0.1737683117389679,-0.03010472096502781,0.1399282068014145,0.18137884140014648,-0.06812898814678192,-0.14991538226604462,0.24906860291957855,0.14487946033477783,-0.07832116633653641,-0.024366356432437897,-0.24719080328941345,-0.2828352153301239,-0.308139443397522,-0.13084745407104492,0.16598950326442719,0.1862180083990097,-0.20420554280281067,0.09750358760356903,-0.1293606460094452,0.005589817650616169,-0.005628691520541906,-0.038541581481695175,0.0444587878882885,0.11496451497077942,-0.01284049917012453,-0.20271848142147064,-0.07804600894451141,0.0593828484416008,-0.17433179914951324,0.015398514457046986,0.04858902469277382,0.16227371990680695,-0.015770845115184784,-0.3012310266494751,0.10250558704137802,-0.059591859579086304,0.07066968828439713,-0.046603020280599594,-0.29011234641075134,-0.03393440693616867,-0.35405710339546204,0.0353601910173893,-0.2687362730503082,0.17646606266498566,0.1037631407380104,-0.009882691316306591,0.16403554379940033,0.1979176253080368,-0.1155632883310318,-0.07835223525762558,0.25043535232543945,0.08014404028654099,0.21672989428043365,-0.39196261763572693,-0.1401745229959488,0.09315063059329987,-0.22002893686294556,-0.40196263790130615,0.04947191849350929,0.3099491000175476,0.016822215169668198,-0.022943004965782166,-0.08078517764806747,-0.1491871178150177,-0.17958664894104004,-0.01341372262686491,0.12355923652648926,-0.2786444127559662,-0.10704690217971802,-0.019483352079987526,-0.1267014592885971,-0.3054763674736023,-0.17585431039333344,-0.18754486739635468,-0.07571437209844589,-0.1052096039056778,0.16616114974021912,0.08172477781772614,0.08167427033185959,0.010334627702832222,-0.17561225593090057,-0.21017569303512573,-0.165391743183136,0.10521160066127777,0.23062872886657715,-0.4303046762943268,0.06214238330721855,-0.18736352026462555,0.004943303298205137,-0.1663123518228531,-0.06742917001247406,0.07397951930761337,-0.3599570393562317,0.09406589716672897,0.1562858670949936,-0.02075345814228058,-0.061630334705114365,-0.2250184267759323,-0.30841559171676636,0.07338999211788177,0.13571549952030182,-0.09118330478668213,0.23655664920806885,-0.1782539188861847,-0.2518577575683594,0.39471471309661865],[0.10370393842458725,0.0022141672670841217,-0.35269516706466675,0.09090911597013474,-0.26502034068107605,0.10541872680187225,0.03854462504386902,-0.255764901638031,0.22008004784584045,-0.10725905746221542,-0.1551734358072281,-0.11064856499433517,0.031226005405187607,-0.19598375260829926,-0.2342105656862259,-0.04101347550749779,-0.037168413400650024,-0.19320301711559296,-0.2759430408477783,0.10819895565509796,-0.05649962276220322,0.03950841352343559,0.16451451182365417,-0.23920556902885437,-0.40750738978385925,-0.03319597244262695,-0.05185479670763016,0.024157458916306496,-0.41433119773864746,-0.04554833099246025,-0.05749744176864624,-0.09515883773565292,-0.27812957763671875,0.2406267672777176,-0.08229714632034302,-0.312226802110672,-0.2942569851875305,0.3151249289512634,-0.40248778462409973,0.02352188713848591,-0.2936299741268158,-0.06544328480958939,-0.06248711049556732,0.06091861426830292,-0.37478888034820557,-0.3565283715724945,0.04193251579999924,-0.5171898603439331,-0.26154136657714844,0.12078258395195007,-0.3003369867801666,0.012398292310535908,-0.13122586905956268,-0.39764609932899475,-0.1115516722202301,-0.15572810173034668,-0.13780464231967926,0.12963515520095825,-0.5248029232025146,-0.029079895466566086,-0.25061410665512085,-0.17730295658111572,0.20321840047836304,-0.09495184570550919,-0.26193469762802124,-0.03546612337231636,-0.09664405137300491,-0.20470136404037476,-0.3387106657028198,0.3314570188522339,-0.31932058930397034,0.02815280854701996,0.02185339666903019,0.020054040476679802,-0.08692779392004013,-0.21599018573760986,0.2293904423713684,0.09363912791013718,0.3022824227809906,0.20479951798915863,0.10624676942825317,-0.29532358050346375,0.011487984098494053,-0.1420363485813141,0.051382191479206085,0.14221008121967316,-0.03701695054769516,-0.09288684278726578,-0.024370165541768074,-0.220131516456604,0.1193404346704483,0.15732479095458984,0.060970794409513474,-0.23519431054592133,-0.4172515273094177,0.2533929646015167,-0.01179832499474287,0.12234887480735779,-0.20776784420013428,0.08421387523412704,-0.19886106252670288,-0.05890224874019623,-0.19027471542358398,-0.287592351436615,0.13134650886058807,-0.17153950035572052,-0.06463717669248581,-0.3427489995956421,0.18005938827991486,-0.0940471962094307,0.26260074973106384,-0.3292480409145355,-0.23950521647930145,-0.1987370252609253,0.16992871463298798,-0.050880201160907745,0.009743217378854752,0.038803260773420334,0.02549903839826584,-0.3727675676345825,0.07616336643695831,0.12343160808086395,-0.07489048689603806,-0.09428808093070984,0.054869458079338074,-0.43066176772117615,-0.047299399971961975,0.07899045944213867],[-0.07347016781568527,-0.14515013992786407,0.06449579447507858,-0.27949777245521545,0.11583908647298813,0.0811840072274208,-0.12810416519641876,-0.10522071272134781,-0.007433895952999592,0.12714476883411407,0.13869622349739075,0.12013674527406693,0.06736786663532257,-0.044413480907678604,0.3181978762149811,-0.05655640736222267,0.3295292258262634,0.1714007407426834,-0.1770239919424057,-0.22574040293693542,-0.24487027525901794,-0.24694766104221344,-0.020915089175105095,-0.13274958729743958,-0.3965471684932709,0.12709958851337433,-0.12154570966959,0.042410291731357574,-0.020170854404568672,-0.17822720110416412,-0.07509583979845047,-0.08834622800350189,0.02008584700524807,-0.1834750771522522,-0.3337710201740265,-0.010558093897998333,-0.2186451107263565,-0.0016577120404690504,-0.4813023805618286,0.12057903409004211,-0.45780298113822937,0.10893609374761581,0.14696136116981506,-0.12465552240610123,-0.16129709780216217,0.22590982913970947,0.18091511726379395,-0.21802933514118195,-0.18674828112125397,-0.03742742910981178,-0.2354530245065689,-0.20709750056266785,-0.11211129277944565,-0.0793810486793518,-0.08916458487510681,0.00845540314912796,0.11631547659635544,0.02415202371776104,0.19032418727874756,-0.1693619191646576,-0.2013409435749054,-0.2639719247817993,-0.0988549068570137,-0.20857670903205872,-0.05591415986418724,-0.20285849273204803,-0.23582741618156433,0.014786792919039726,-0.049945443868637085,-0.039331451058387756,-0.20540188252925873,-0.049630410969257355,-0.09775545448064804,0.06498383730649948,-0.13837534189224243,-0.12092357128858566,0.03765034303069115,0.3108760416507721,-0.03742361068725586,-0.029648220166563988,0.03318559378385544,-0.17061470448970795,0.1548762172460556,0.07117651402950287,-0.059914860874414444,-0.1894075870513916,-0.2385510951280594,-0.15631869435310364,-0.2136310189962387,0.23914144933223724,-0.07972867786884308,0.04501184821128845,-0.12764239311218262,-0.5056017637252808,-0.17993155121803284,0.035180963575839996,-0.1862030327320099,-0.29896485805511475,0.16068688035011292,-0.0783010944724083,-0.35529187321662903,-0.05020301043987274,0.15204933285713196,-0.1290314942598343,-0.054491981863975525,0.05904028192162514,0.6012605428695679,0.07375460118055344,-0.2118903398513794,-0.23480139672756195,-0.028993673622608185,-0.05710824951529503,-0.12181834876537323,-0.049934547394514084,-0.19618473947048187,-0.008354021236300468,0.22780458629131317,0.05503695085644722,-0.29221415519714355,-0.03280307725071907,0.3477373421192169,0.25901302695274353,-0.4241575002670288,-0.17546413838863373,-0.15944340825080872,-0.02347586117684841,0.017211049795150757,-0.33832046389579773],[-0.22547830641269684,-0.2390550971031189,-0.269502729177475,-0.13704991340637207,-0.018544839695096016,0.2845648527145386,0.17842602729797363,-0.3410142958164215,-0.32044053077697754,0.2681367099285126,-0.04347316548228264,0.044865768402814865,-0.0691768154501915,0.1478051245212555,-0.17904463410377502,0.33251893520355225,-0.25474676489830017,-0.0311394352465868,-0.3439001441001892,-0.169545516371727,0.1536606103181839,-0.10019364953041077,-0.17056770622730255,0.18531043827533722,-0.029316987842321396,-0.025747869163751602,-0.11873286962509155,-0.09042797982692719,-0.2043968141078949,-0.08658953011035919,0.09152131527662277,0.2150583565235138,-0.3163304626941681,0.10671447962522507,0.10169478505849838,0.29242321848869324,-0.2532038688659668,0.4051642417907715,0.16166430711746216,-0.13343805074691772,-0.18711480498313904,0.04605131223797798,-0.03279270604252815,0.13979631662368774,-0.18999122083187103,0.051822464913129807,-0.056659895926713943,-0.09035568684339523,0.1316690891981125,-0.45352697372436523,-0.05362916365265846,-0.26577502489089966,0.16533266007900238,-0.16772235929965973,-0.3800591230392456,-0.003704316448420286,0.06158958747982979,-0.13376514613628387,-0.04430011659860611,0.2051725685596466,0.0014412730233743787,-0.06590725481510162,-0.13790442049503326,-0.14385166764259338,0.07091691344976425,0.176466703414917,-0.008326859213411808,0.028546547517180443,-0.1427588313817978,-0.14471419155597687,0.1667311191558838,-0.02271919697523117,-0.13139595091342926,-0.004878242500126362,-0.055745068937540054,-0.023497479036450386,-0.04404035583138466,-0.06889071315526962,-0.34049156308174133,0.09885285794734955,-0.07481564581394196,-0.1373032182455063,-0.027436450123786926,0.09017372876405716,0.19228732585906982,0.09935744851827621,-0.07166020572185516,-0.43866825103759766,0.24778404831886292,0.06723447889089584,-0.008266783319413662,0.004495837725698948,-0.31957727670669556,0.17165113985538483,-0.1319115310907364,-0.051507048308849335,0.031534068286418915,-0.13763447105884552,-0.1581113189458847,-0.24401353299617767,-0.026509800925850868,-0.1534903198480606,0.0672561451792717,-0.2760424315929413,0.11734841763973236,-0.04519023001194,-0.07945329695940018,-0.1338658183813095,0.14228634536266327,-0.07226136326789856,-0.13191744685173035,-0.18842938542366028,-0.015259676612913609,0.2664105296134949,-0.16170534491539001,-0.06260855495929718,-0.1119661033153534,-0.07525374740362167,-0.22275997698307037,-0.25200939178466797,0.14002296328544617,0.12267185002565384,-0.23590382933616638,-0.05001898854970932,0.18066497147083282,-0.09093396365642548,0.0050982399843633175,0.16332697868347168],[-0.1931602507829666,-0.01011283602565527,-0.16468526422977448,-0.13704653084278107,-0.16046841442584991,0.059052206575870514,0.2238817662000656,-0.12940631806850433,-0.17306263744831085,0.0673006996512413,0.09680008143186569,-0.12928853929042816,0.030176334083080292,-0.054449740797281265,0.047176048159599304,0.12618809938430786,0.2664068043231964,-0.05459986999630928,0.04765750840306282,-0.030098579823970795,0.039232976734638214,-0.04027847945690155,0.007091275416314602,-0.0026658582501113415,-0.2609930634498596,0.10986793041229248,-0.16712380945682526,-0.11816050857305527,0.1441592127084732,-0.07944077998399734,-0.07203225046396255,0.06080106645822525,-0.18603594601154327,-0.11594455689191818,0.22448822855949402,-0.1363154947757721,0.22444292902946472,-0.26065757870674133,-0.1958881914615631,0.10966368019580841,-0.1726466864347458,0.06119060888886452,-0.11147452890872955,0.14653325080871582,-0.32323333621025085,-0.13312050700187683,-0.1716850847005844,-0.2871231138706207,-0.031244531273841858,0.22965233027935028,-0.10839898139238358,-0.15250985324382782,-0.02416885457932949,-0.14641332626342773,-0.11900405585765839,-0.3746572732925415,0.04480103403329849,-0.2603090703487396,-0.3135845363140106,-0.1771869659423828,-0.14880603551864624,-0.3427472412586212,-0.036182746291160583,-0.05811402201652527,-0.5317127704620361,-0.16697880625724792,0.34877070784568787,-0.3489089608192444,0.004865928553044796,-0.0407552532851696,-0.12018279731273651,0.1920831799507141,-0.07010624557733536,-0.45658552646636963,-0.36920902132987976,-0.0998605415225029,-0.3131822645664215,-0.16098231077194214,0.020567668601870537,0.3042316734790802,0.08602910488843918,0.0902877002954483,-0.19211603701114655,-0.44575998187065125,-0.04914480075240135,0.14469973742961884,0.106317438185215,0.11713907122612,-0.22660818696022034,-0.24453309178352356,-0.2514631450176239,-0.2574717700481415,-0.19880804419517517,-0.18541786074638367,-0.07655934989452362,-0.2343423217535019,-0.04585466533899307,0.0038820321206003428,-0.06633234769105911,0.1999204158782959,-0.07681529223918915,-0.022039690986275673,-0.02665567956864834,-0.00034100774792023003,-0.3765218257904053,-0.18031258881092072,-0.3687865734100342,-0.23744206130504608,0.051342278718948364,-0.36290454864501953,-0.30582183599472046,-0.260223388671875,-0.26542800664901733,0.06926796585321426,-0.2830849587917328,0.12398408353328705,-0.36730045080184937,0.44905129075050354,0.007531108800321817,-0.058932770043611526,-0.4245107173919678,-0.4106907844543457,-0.15461954474449158,-0.223735049366951,-0.28475576639175415,-0.32647448778152466,0.024145275354385376,-0.316022664308548],[0.18176336586475372,-0.05060287564992905,-0.38141438364982605,0.01321135088801384,0.3228580355644226,0.1863926202058792,-0.030086059123277664,-0.24114586412906647,-0.20091864466667175,-0.1148591935634613,0.0037148033734411,-0.04692681506276131,-0.3760950565338135,-0.12206228077411652,-0.06136931851506233,-0.1539795696735382,-0.1730627417564392,0.06887266784906387,-0.10699980705976486,-0.29531338810920715,0.25890815258026123,-0.14472633600234985,-0.06329455226659775,-0.274219274520874,0.014999555423855782,-0.20255927741527557,-0.1474314033985138,0.09388455748558044,-0.3634265959262848,0.12305790185928345,0.2733543813228607,0.20027925074100494,0.05428547039628029,-0.22086940705776215,0.2672731876373291,-0.0006780378753319383,-0.30369654297828674,0.08326797932386398,0.33451583981513977,-0.032856956124305725,-0.07811532914638519,-0.019847849383950233,-0.02140703983604908,0.3183738887310028,-0.013430154882371426,0.09853877127170563,-0.12181969732046127,-0.09644967317581177,-0.308980792760849,0.1299450695514679,0.011730688624083996,-0.1659379005432129,-0.18730513751506805,-0.24021916091442108,0.33007577061653137,-0.05542098358273506,0.05835156887769699,-0.26843804121017456,0.04106412082910538,-0.34631356596946716,-0.13569015264511108,0.17749370634555817,-0.16839323937892914,0.47946128249168396,0.09700171649456024,-0.09141144901514053,0.02637290395796299,-0.12670108675956726,-0.40288016200065613,-0.12240753322839737,-0.3256572484970093,-0.09242808818817139,-0.11386176943778992,-0.0603034533560276,-0.1292635202407837,-0.22224211692810059,-0.3669604957103729,-0.19058732688426971,0.08983035385608673,-0.08559111505746841,-0.13699603080749512,-0.005570745095610619,-0.11573842912912369,-0.3484816253185272,-0.3186683654785156,0.00541963754221797,-0.27393588423728943,0.004858093336224556,0.09833156317472458,-0.16735327243804932,0.08420679718255997,-0.3007267117500305,-0.16446813941001892,-0.20020028948783875,0.08072857558727264,-0.07830951362848282,-0.23886266350746155,0.14320743083953857,0.05466378852725029,0.13479740917682648,-0.2846844792366028,0.0742572471499443,-0.45746615529060364,-0.046803489327430725,-0.5943055748939514,-0.03980834782123566,0.017288964241743088,-0.12649144232273102,0.15737459063529968,-0.028207983821630478,0.17165732383728027,-0.00798515323549509,0.08876119554042816,-0.07480846345424652,0.10143889486789703,-0.07577928155660629,-0.2433353215456009,0.1435939222574234,-0.03835541382431984,-0.09075181186199188,-0.2766557037830353,-0.25497931241989136,0.04094436392188072,-0.2632712721824646,-0.0582546666264534,-0.03455531969666481,0.2713160514831543,-0.12580060958862305],[-0.08807595074176788,-0.2612048089504242,-0.004346782807260752,-0.21623750030994415,0.08929581195116043,-0.19335074722766876,-0.19484947621822357,-0.43757298588752747,-0.1888868510723114,0.19217437505722046,-0.021350417286157608,0.027198774740099907,-0.10565724968910217,-0.1269148886203766,-0.0007393958512693644,-0.0013399138115346432,0.15172740817070007,-0.045501284301280975,0.17866350710391998,0.2423429638147354,-0.0333692729473114,-0.08092690259218216,-0.06589624285697937,-0.11508418619632721,0.1392308473587036,0.1114334836602211,-0.1625368744134903,-0.10870172828435898,-0.15587955713272095,0.1080513596534729,-0.24827970564365387,-0.15535974502563477,-0.34110936522483826,-0.013017901219427586,-0.19522081315517426,-0.39395079016685486,-0.19064494967460632,-0.057253044098615646,-0.038687530905008316,0.007135600782930851,-0.5191217660903931,0.05122220516204834,-0.10074907541275024,-0.36300355195999146,-0.334673672914505,-0.23266872763633728,-0.2708636522293091,-0.21962326765060425,-0.11351049691438675,-0.04990444332361221,-0.12410249561071396,0.19947564601898193,0.020228644832968712,-0.02584843337535858,-0.24115882813930511,0.01626979000866413,0.36964210867881775,-0.21349115669727325,-0.059300947934389114,-0.11792837828397751,-0.10999281704425812,-0.096351258456707,-0.19119584560394287,0.2076764553785324,-0.2847675383090973,0.18818683922290802,-0.3606995642185211,-0.30326664447784424,0.37398964166641235,-0.03454913944005966,-0.13766299188137054,-0.5194386839866638,-0.02830987423658371,-0.19193607568740845,-0.2186477929353714,-0.21815824508666992,-0.15966910123825073,-0.5132005214691162,-0.06359142065048218,-0.08493570983409882,-0.41145119071006775,0.23028086125850677,-0.12002617865800858,0.04145984351634979,0.005312609951943159,-0.07961905747652054,-0.1755378097295761,-0.004662386607378721,0.2084832489490509,-0.3186025023460388,0.33331432938575745,-0.19649796187877655,-0.18553458154201508,-0.035875722765922546,-0.07746604830026627,0.09695655107498169,0.135572150349617,0.034024596214294434,-0.15819546580314636,0.019213946536183357,-0.19929328560829163,-0.33081579208374023,-0.10051148384809494,-0.2526719570159912,-0.2832641005516052,0.42592307925224304,-0.1493692398071289,-0.07904770970344543,0.06158798933029175,-0.13863347470760345,-0.23300442099571228,0.0032338949386030436,-0.21081358194351196,0.1990678906440735,-0.15359973907470703,0.11155381798744202,0.04837818443775177,-0.014298936352133751,-0.23376695811748505,0.0910460576415062,-0.1806465983390808,-0.175625741481781,0.080887071788311,0.030158337205648422,0.2350318878889084,-0.17699095606803894,-0.1486576497554779,-0.11144036799669266],[0.3663608133792877,-0.20704029500484467,0.17163175344467163,-0.35401907563209534,0.37116530537605286,-0.06687309592962265,-0.10099490731954575,-0.23081181943416595,-0.006164346821606159,-0.1337120085954666,-0.06900215893983841,-0.19108805060386658,0.36094930768013,0.2699119448661804,-0.06808916479349136,-0.04617016389966011,-0.14100898802280426,0.05666322261095047,-0.31593024730682373,-0.10798013210296631,0.07200803607702255,-0.26752036809921265,0.13721604645252228,-0.3842880427837372,0.10910771787166595,-0.20309482514858246,0.07215035706758499,0.0009115898283198476,-0.5055822730064392,0.05491192638874054,-0.371993750333786,-0.20434905588626862,-0.37921664118766785,-0.0900462344288826,-0.02348668873310089,0.09412888437509537,0.187015563249588,0.08672063797712326,-0.011962884105741978,-0.1465228945016861,-0.23142102360725403,-0.2801162302494049,0.13015630841255188,-0.28740131855010986,-0.21775616705417633,-0.08667268604040146,0.3745221793651581,-0.11890570819377899,-0.13631020486354828,0.03709175065159798,-0.1286887228488922,0.1636084020137787,-0.29030463099479675,-0.15060774981975555,-0.24831397831439972,-0.026083780452609062,-0.0910777747631073,0.06087581068277359,0.05835793539881706,-0.14415885508060455,0.15422286093235016,-0.16571594774723053,0.03585129976272583,0.1381969004869461,-0.3368387818336487,-0.25166836380958557,0.0160627793520689,-0.030148185789585114,0.37575867772102356,0.09535828977823257,0.2573510706424713,-0.1547144055366516,-0.31340423226356506,0.01502663642168045,-0.002817230299115181,-0.16340886056423187,0.21201559901237488,0.11779854446649551,0.0449848547577858,-0.036976415663957596,-0.1643322855234146,-0.18961600959300995,-0.0956740528345108,-0.08598625659942627,-0.06916695833206177,0.06420883536338806,0.0454150028526783,-0.12584958970546722,-0.20005643367767334,0.004178851842880249,-0.3977389335632324,-0.05376442149281502,-0.3689272701740265,-0.21946145594120026,0.25090649724006653,0.2727679908275604,0.13849055767059326,0.017619485035538673,-0.4534267783164978,0.2005780041217804,-0.08773550391197205,-0.2577512562274933,-0.004150890279561281,0.05075894296169281,-0.31488722562789917,0.1310877948999405,-0.08757709711790085,0.035001784563064575,-0.13899610936641693,0.10512688010931015,-0.0986081063747406,0.0416032075881958,-0.09687040746212006,-0.0039648981764912605,0.2918018698692322,-0.04229414463043213,-0.044734492897987366,-0.3344061076641083,0.018945474177598953,-0.11460640281438828,-0.11145205050706863,-0.11047599464654922,0.07126913964748383,0.09331198036670685,-0.02920384518802166,-0.2789481580257416,0.05292239040136337,-0.05357258394360542],[-0.03924199193716049,-0.3190833628177643,0.1479932814836502,-0.1899007260799408,-0.2712958753108978,-0.11266651749610901,-0.13671480119228363,-0.278804749250412,0.24607279896736145,0.05357098579406738,0.12295284122228622,-0.29979613423347473,0.06516054272651672,-0.36838817596435547,0.1387299746274948,0.20206758379936218,-0.3915208876132965,0.0011528062168508768,-0.2674963176250458,-0.06901104748249054,0.0504322275519371,-0.11387466639280319,0.09462699294090271,-0.01150437630712986,-0.1775127351284027,-0.05103520676493645,0.07671602070331573,-0.04075096175074577,0.08568491041660309,-0.1984967291355133,-0.08508212864398956,-0.021548885852098465,-0.0562029592692852,-0.009212702512741089,-0.3211582601070404,0.11468154937028885,0.21742743253707886,0.03573837876319885,-0.1192142590880394,0.0542212650179863,-0.19668251276016235,0.0979907363653183,-0.05617552995681763,-0.16622349619865417,-0.13400091230869293,-0.21445728838443756,-0.13361862301826477,0.14818920195102692,0.06404586881399155,-0.21729527413845062,0.03047184832394123,-0.1533789336681366,-0.24567566812038422,-0.09063579887151718,-0.039322469383478165,-0.12083172798156738,0.40819501876831055,-0.21040813624858856,-0.1661442369222641,-0.10792145878076553,-0.09984635561704636,-0.17426909506320953,0.13030461966991425,-0.15576227009296417,-0.06756772100925446,0.14650027453899384,-0.24546533823013306,-0.11706395447254181,0.05764276906847954,0.12961463630199432,0.027320988476276398,0.08202321082353592,-0.11597947776317596,-0.10985653102397919,-0.00950746238231659,-0.03132687509059906,-0.029478559270501137,0.2226271778345108,0.14689649641513824,-0.01582060568034649,-0.2847398519515991,-0.027785098180174828,-0.04318409040570259,0.10330668091773987,-0.015455526299774647,0.010608147829771042,0.06603728979825974,-0.21555879712104797,-0.33621537685394287,0.25712400674819946,0.29534435272216797,-0.18984106183052063,-0.29324185848236084,-0.15524204075336456,-0.29900944232940674,0.12313470244407654,0.110775426030159,0.03967400640249252,0.027986567467451096,0.21123464405536652,-0.3691119849681854,0.17760822176933289,0.1351122111082077,-0.10710008442401886,0.07504692673683167,0.05767505243420601,-0.05214643105864525,-0.23030436038970947,0.0446956604719162,-0.29142439365386963,-0.22455386817455292,-0.1102181151509285,-0.12378399074077606,0.05706930160522461,0.12227855622768402,-0.04223470389842987,-0.2947772145271301,0.132849782705307,0.03957903012633324,0.00117745460011065,-0.20185111463069916,-0.01056236494332552,0.1332280933856964,0.18615469336509705,0.033911027014255524,-0.2422805279493332,-0.30827876925468445,-0.3597683608531952],[-0.23638160526752472,0.08751671761274338,-0.012509172782301903,-0.01763935014605522,-0.05052182078361511,-0.26533135771751404,-0.01225824374705553,0.19806095957756042,0.003977767191827297,-0.44755834341049194,-0.2391035109758377,0.2810429632663727,-0.10213562101125717,-0.04725552722811699,-0.0802595391869545,0.0836043432354927,0.1865297555923462,0.1008324921131134,-0.19558094441890717,-0.02022266946732998,-0.04254288226366043,-0.07727843523025513,0.08118446171283722,0.18859657645225525,-0.27250489592552185,0.03011162392795086,0.3490523099899292,-0.17188672721385956,0.0069863079115748405,0.08140648901462555,-0.04338054731488228,-0.1284584254026413,0.14727573096752167,-0.10322455316781998,-0.3483213782310486,0.062206439673900604,-0.16461214423179626,-0.0787530466914177,-0.17669925093650818,-0.26959916949272156,-0.08471602946519852,-0.3211658298969269,-0.16605792939662933,-0.23252278566360474,-0.23525284230709076,-0.7356133460998535,-0.1432172656059265,-0.11025126278400421,-0.05951227992773056,0.17482417821884155,-0.23368722200393677,-0.1619306355714798,-0.22214385867118835,0.36610791087150574,0.14458860456943512,0.040814369916915894,-0.21117186546325684,-0.013284675776958466,-0.3021373748779297,-0.12195431441068649,-0.4366711974143982,-0.15910221636295319,-0.046854667365550995,-0.07440177351236343,-0.051989514380693436,-0.009997555054724216,-0.06419391930103302,-0.1524503082036972,-0.35329437255859375,-0.17421936988830566,-0.08152742683887482,-0.18359799683094025,0.05406133830547333,-0.01741989329457283,-0.269992858171463,-0.04975932091474533,-0.04506804794073105,-0.06554670631885529,-0.02309294231235981,0.18089264631271362,-0.15285460650920868,-0.2299380600452423,0.06596839427947998,-0.03164492920041084,-0.1633310616016388,-0.1376449465751648,-0.04966204613447189,-0.26739388704299927,0.14102426171302795,0.31310778856277466,-0.11818902939558029,0.13149313628673553,-0.26829463243484497,-0.1362529993057251,-0.22079306840896606,0.15289443731307983,0.056062012910842896,-0.31156638264656067,-0.041834160685539246,-0.039615657180547714,-0.08576666563749313,-0.20097334682941437,-0.14894026517868042,-0.20907023549079895,-0.0027933556120842695,0.09244267642498016,-0.2208700031042099,0.06253747642040253,0.11136303842067719,-0.21375511586666107,0.12456169724464417,-0.24603435397148132,-0.06978006660938263,-0.4787636697292328,0.01413729041814804,0.031321246176958084,-0.16602207720279694,-0.3633336126804352,0.01440445240586996,0.0946328192949295,-0.20380115509033203,-0.034162502735853195,0.18274128437042236,-0.3003983497619629,-0.03108302876353264,-0.12117671221494675,-0.24274396896362305,0.007993224076926708],[-0.24615444242954254,0.26607242226600647,-0.1706678867340088,-0.013767021708190441,0.1300668716430664,0.23479826748371124,-0.024824555963277817,-0.1559649258852005,0.04778725653886795,0.041192810982465744,-0.35934099555015564,-0.7236602902412415,0.061572447419166565,-0.07774926722049713,-0.07541214674711227,-0.22622007131576538,-0.05207664147019386,0.1301194727420807,-0.15766440331935883,-0.08965715765953064,0.15000900626182556,-0.10240605473518372,0.006492214277386665,0.23311740159988403,-0.10832300037145615,-0.015696806833148003,0.04458404332399368,-0.29979264736175537,-0.1597246676683426,0.3044103682041168,0.008937464095652103,-0.3069606423377991,-0.16158844530582428,-0.1699923574924469,-0.2546404302120209,-0.3119519352912903,0.04202480986714363,-0.15410448610782623,0.16082708537578583,0.2322434037923813,-0.3639093041419983,0.14535880088806152,0.03891619294881821,-0.15127253532409668,-0.11400040239095688,0.02363027259707451,0.17106136679649353,-0.0862140953540802,-0.19652831554412842,-0.08918406814336777,-0.19843922555446625,0.05875090882182121,-0.2535729706287384,0.0849088579416275,0.272625207901001,-0.35580572485923767,0.044660720974206924,0.0916379913687706,-0.16598093509674072,-0.22463466227054596,-0.18929725885391235,-0.3315889835357666,-0.05083795636892319,-0.14296293258666992,-0.20376178622245789,0.14132119715213776,-0.1221015676856041,-0.16460683941841125,-0.4319239854812622,0.27170002460479736,0.11826107650995255,-0.0191683117300272,-0.10163518786430359,0.2622229754924774,-0.23573480546474457,0.25633081793785095,0.03669708967208862,-0.08799035847187042,-0.21714231371879578,0.007612487766891718,0.10032592713832855,-0.0009885246399790049,0.053119100630283356,-0.036140166223049164,0.15603752434253693,-0.19941316545009613,0.04702459275722504,-0.088053397834301,-0.1326473355293274,0.0004519039357546717,-0.18335404992103577,0.3699690103530884,0.04766157642006874,0.04335899278521538,0.04207732155919075,0.14418549835681915,-0.3801877796649933,0.2356175184249878,-0.20886026322841644,-0.06748934090137482,-0.22569437325000763,-0.27946048974990845,0.20490090548992157,-0.22407037019729614,-0.4002296030521393,0.2144150584936142,0.022831527516245842,-0.07805221527814865,0.15712742507457733,-0.07682263106107712,0.11531896144151688,0.20032507181167603,-0.06526206433773041,-0.3196103572845459,-0.4346391260623932,0.1340128630399704,0.04451463371515274,0.23193731904029846,-0.2351735383272171,-0.22159574925899506,-0.025005755946040154,-0.2731616497039795,0.20340782403945923,-0.09459666162729263,0.003406386822462082,0.10122065246105194,-0.032418251037597656,-0.09003652632236481],[-0.022758763283491135,0.1640075147151947,0.10359441488981247,-0.23715561628341675,0.2128809541463852,0.09693712741136551,0.07985495775938034,0.07400934398174286,0.13109925389289856,-0.043322015553712845,-0.04055151343345642,-0.04775296151638031,-0.2953270673751831,-0.04234810173511505,-0.02677205763757229,-0.13861851394176483,-0.1870732605457306,-0.016148865222930908,-0.0808199793100357,0.06525316834449768,0.04683951288461685,0.004870250355452299,0.5946248769760132,-0.04530399665236473,-0.09070425480604172,0.19105827808380127,-0.30609428882598877,-0.01317070797085762,-0.23037385940551758,0.027170570567250252,-0.38978177309036255,-0.1969231516122818,0.09563218802213669,0.07219667732715607,-0.3601122796535492,-0.012517420575022697,-0.33171284198760986,-0.5371870994567871,-0.01786928065121174,0.03992965444922447,-0.09033767879009247,-0.0687548965215683,-0.29355159401893616,-0.00419373344630003,-0.1062803789973259,0.01879923790693283,-0.06544588506221771,-0.3391933739185333,-0.1673029065132141,0.34186890721321106,-0.11041280627250671,0.10510817170143127,0.04020213335752487,-0.27296605706214905,0.1744736135005951,-0.0732167661190033,0.3571424186229706,-0.3243069052696228,-0.11740972101688385,-0.1629365235567093,-0.19902868568897247,-0.05143752321600914,0.03947440907359123,-0.03570276126265526,0.011242842301726341,-0.05586864426732063,-0.11210285872220993,-0.10568968206644058,-0.4079016149044037,-0.02021305449306965,-0.1725165843963623,-0.10296870768070221,-0.05228620022535324,-0.12493767589330673,-0.07848253101110458,-0.041709739714860916,0.005259849596768618,-0.1553080976009369,0.16540972888469696,0.1806417852640152,-0.23476587235927582,-0.16904307901859283,-0.19436243176460266,0.18422134220600128,-0.13056208193302155,-0.21141226589679718,-0.21482734382152557,0.3736431300640106,-0.17242513597011566,-0.19136692583560944,0.26390790939331055,-0.12996327877044678,0.17269299924373627,-0.1573009043931961,-0.09133488684892654,0.008081603795289993,-0.12612693011760712,-0.03249675780534744,0.03865467384457588,0.08848239481449127,-0.14160282909870148,-0.22536420822143555,-0.2016865611076355,-0.09376848489046097,-0.3207237422466278,0.17207105457782745,-0.20552179217338562,-0.27593886852264404,-0.11551781743764877,-0.019484439864754677,-0.2170282006263733,0.1681203693151474,-0.0865027979016304,0.015208850614726543,-0.28300315141677856,0.029121115803718567,0.02975352481007576,0.18283073604106903,-0.045613717287778854,-0.10463526844978333,-0.11596177518367767,0.015336583368480206,0.005028863437473774,0.13282746076583862,-0.07218813896179199,-0.2936019003391266,-0.15196186304092407,0.02385084703564644],[0.1775415688753128,-0.3845764994621277,-0.23144018650054932,-0.15409022569656372,-0.08696046471595764,-0.18228338658809662,0.028474634513258934,-0.24332065880298615,0.4227491021156311,-0.4609012305736542,-0.08348917961120605,-0.01688227243721485,0.16720859706401825,-0.01315642986446619,0.030433686450123787,0.4028654098510742,0.08503182977437973,-0.14197683334350586,-0.09203788638114929,0.08346505463123322,0.005577940493822098,-0.13468414545059204,-0.33594000339508057,-0.3102980852127075,-0.22892475128173828,-0.01921713910996914,-0.11820341646671295,-0.009041308425366879,0.09220116585493088,0.1778048425912857,0.042699914425611496,-0.3701847195625305,-0.5888639688491821,0.006625190377235413,-0.3182990550994873,0.11937037110328674,-0.21027003228664398,-0.10978100448846817,0.06485628336668015,-0.3395726680755615,-0.11091510206460953,0.06444990634918213,-0.41133517026901245,-0.27841201424598694,-0.09224851429462433,-0.5068414807319641,-0.25813204050064087,-0.20538759231567383,0.1723591834306717,-0.2003990113735199,-0.0976116731762886,0.0989881157875061,-0.19287502765655518,-0.3401191234588623,0.10265745222568512,-0.17702676355838776,-0.28002026677131653,0.1926499605178833,0.17421598732471466,-0.15936842560768127,0.01936037838459015,-0.09167999774217606,-0.3397004306316376,-0.19002331793308258,-0.08097082376480103,0.463026225566864,0.20788238942623138,-0.2227119654417038,-0.10180498659610748,-0.011623230762779713,-0.2718331217765808,-0.25740450620651245,-0.06633388996124268,-0.3308834135532379,-0.06417935341596603,-0.23410126566886902,-0.07354214787483215,0.09822964668273926,0.29330483078956604,-0.1968103051185608,-0.06158893182873726,-0.17738717794418335,-0.08827835321426392,-0.4019986391067505,-0.1975814253091812,-0.5320127010345459,-0.11147591471672058,-0.18201150000095367,-0.0596010722219944,0.27020591497421265,-0.10957760363817215,-0.0036244799848645926,-0.1826157122850418,-0.2713489532470703,0.15784677863121033,-0.05756063386797905,-0.18810968101024628,0.04739110916852951,-0.23593001067638397,0.18836461007595062,0.11946909874677658,-0.21326781809329987,-0.26326248049736023,0.04730652645230293,-0.148411825299263,0.03303583338856697,-0.14501501619815826,-0.21658335626125336,0.046219922602176666,-0.150020033121109,0.07173369824886322,0.01401987299323082,-0.007705054245889187,-0.1651831865310669,-0.3866589367389679,0.044770896434783936,-0.10739896446466446,-0.2016356736421585,0.2778286635875702,0.10145337134599686,0.07581102102994919,-0.19656765460968018,-0.1592743843793869,-0.09605509042739868,0.1287011057138443,-0.1127743050456047,-0.0005438370280899107,-0.20957589149475098],[-0.13247612118721008,-0.3924030065536499,0.3212851881980896,-0.24037668108940125,0.2014191746711731,0.16168072819709778,-0.10381732136011124,-0.1438228040933609,-0.07206208258867264,-0.0023088897578418255,0.15220490097999573,0.010027728043496609,-0.1519765406847,0.1171484962105751,0.01437939889729023,0.031113695353269577,-0.46500545740127563,-0.21633708477020264,0.042911577969789505,-0.3942992687225342,0.20225585997104645,-0.3674032986164093,-0.18334820866584778,0.06928516924381256,-0.06144161894917488,0.13020789623260498,0.3386574685573578,-0.07088687270879745,-0.26890265941619873,-0.036450762301683426,-0.005011666100472212,-0.11476310342550278,-0.19807583093643188,-0.04701780155301094,-0.13438326120376587,-0.09034726768732071,0.07454375177621841,-0.11656881123781204,0.12246257066726685,-0.3477555513381958,-0.12224090099334717,0.06813078373670578,-0.33979541063308716,-0.009109132923185825,-0.2090638428926468,0.10864226520061493,0.035341545939445496,-0.3842489421367645,0.0014774546725675464,0.0033263270743191242,-0.23435674607753754,-0.2946929931640625,-0.21755385398864746,-0.2268993854522705,-0.3541441559791565,-0.3453856110572815,0.129556804895401,-0.3214010000228882,-0.08023049682378769,0.20237405598163605,-0.20275868475437164,-0.5602588057518005,-0.19490593671798706,-0.19923895597457886,0.06985225528478622,-0.22436217963695526,0.2006799727678299,0.017919447273015976,-0.5484893918037415,0.17196428775787354,0.1308426707983017,-0.003022978315129876,0.04180483892560005,-0.14715465903282166,-0.34610480070114136,-0.11453793942928314,0.17472928762435913,-0.09634128212928772,-0.13079844415187836,-0.4679185748100281,-0.1452116221189499,-0.11143479496240616,-0.31957218050956726,-0.1521662324666977,0.14210274815559387,-0.3414703607559204,-0.22992002964019775,-0.28102314472198486,-0.13877132534980774,0.2117246836423874,0.17419254779815674,0.09296543896198273,-0.042012255638837814,-0.06865986436605453,0.19881968200206757,-0.00656018266454339,-0.022271858528256416,-0.228179931640625,-0.04161515831947327,-0.035018257796764374,0.038280099630355835,-0.12422262132167816,-0.06237700209021568,0.035180360078811646,-0.1378493756055832,-0.39466795325279236,0.005330102518200874,-0.05376226454973221,-0.12518678605556488,-0.06487252563238144,-0.05083323270082474,-0.1651657372713089,-0.08020845055580139,0.20024612545967102,-0.05753057077527046,0.12051113694906235,-0.09418728947639465,-0.090255968272686,-0.13314032554626465,-0.026197517290711403,-0.27971622347831726,-0.18375271558761597,-0.06989482045173645,-0.03437725082039833,0.04982446879148483,-0.23027172684669495,-0.1071280837059021,-0.10755903273820877],[0.002418756252154708,-0.20029136538505554,-0.022484835237264633,0.168294295668602,-0.09640011936426163,-0.04196710139513016,-0.008644348941743374,0.07166281342506409,0.036475833505392075,-0.13926340639591217,0.12513341009616852,0.05514221638441086,-0.2537308633327484,-0.008357912302017212,-0.27068132162094116,0.027433263137936592,-0.07208988070487976,-0.28460749983787537,0.08579138666391373,-0.18866179883480072,0.039473071694374084,-0.13796724379062653,0.16121689975261688,-0.09390654414892197,-0.05843823403120041,0.0025861328467726707,0.17025616765022278,-0.08674225956201553,-0.2076786309480667,0.23067830502986908,-0.12245026230812073,-0.08054292947053909,0.031172648072242737,-0.328606516122818,0.2822200059890747,-0.07431472837924957,0.09735377877950668,-0.02588033117353916,0.035223450511693954,0.14965377748012543,-0.3053981065750122,0.3328233063220978,0.06260969489812851,-0.07019490003585815,-0.2929864227771759,-0.12622520327568054,0.05143554508686066,-0.14492620527744293,0.10279902815818787,-0.3623780608177185,-0.40447384119033813,-0.20526066422462463,-0.17444972693920135,0.13306154310703278,0.06066293641924858,-0.12139267474412918,-0.2530558705329895,-0.09646932035684586,0.23066458106040955,-0.4014148712158203,-0.16964106261730194,-0.1038561761379242,-0.005308107938617468,0.19380880892276764,0.13605402410030365,0.13667914271354675,0.0434018149971962,-0.009947330690920353,-0.11727159470319748,-0.16986370086669922,-0.09513095021247864,-0.15299151837825775,-0.023732345551252365,0.16440001130104065,-0.08737705647945404,-0.09281792491674423,-0.1429930180311203,0.015831679105758667,-0.04896114394068718,-0.079717256128788,-0.13350164890289307,0.13138262927532196,0.04994284734129906,0.009084227494895458,0.45171821117401123,0.1447921246290207,-0.17927610874176025,-0.18600766360759735,-0.21085233986377716,-0.194744274020195,-0.19874034821987152,0.007616010494530201,-0.12915776669979095,0.0661383643746376,-0.03174475580453873,-0.11359043419361115,-0.5353062152862549,-0.2547147274017334,-0.49759939312934875,0.0708136036992073,-0.21320925652980804,-0.17847061157226562,-0.02335304580628872,0.019798487424850464,-0.02862275019288063,-0.005363268777728081,-0.037502508610486984,-0.11463514715433121,-0.3391679525375366,0.166076198220253,0.09700722247362137,0.2459326833486557,-0.2486182153224945,-0.03537256643176079,-0.22725194692611694,-0.11394670605659485,0.08631192147731781,0.07203640043735504,0.001163141685537994,0.08117466419935226,0.1353227198123932,0.043927062302827835,0.0129508376121521,-0.27348238229751587,-0.26504334807395935,-0.0846748948097229,-0.35413187742233276,0.09079944342374802],[-0.007888502441346645,-0.041195936501026154,-0.23275697231292725,-0.06703709810972214,0.08329638838768005,-0.3702334761619568,0.03621978685259819,-0.20613086223602295,0.02222573757171631,0.16605333983898163,-0.27961671352386475,0.09215389937162399,-0.14649812877178192,0.0533006377518177,-0.12519942224025726,-0.10342393070459366,-0.3436461389064789,0.1671055406332016,0.09773329645395279,-0.13693125545978546,0.06773648411035538,-0.1231815293431282,-0.03940657526254654,-0.15546970069408417,-0.3550220727920532,-0.18187835812568665,-0.1821337193250656,-0.037454113364219666,-0.17819440364837646,-0.05686007812619209,-0.15416914224624634,-0.3393305540084839,-0.29674071073532104,-0.14485995471477509,-0.017802737653255463,0.25348010659217834,-0.020771624520421028,-0.22042064368724823,-0.04308110848069191,-0.030035223811864853,0.11764345318078995,0.06410060822963715,-0.023767845705151558,-0.2100115716457367,-0.1698392778635025,-0.12449072301387787,-0.16129671037197113,-0.1391952484846115,0.30751410126686096,0.022204384207725525,-0.1975179761648178,-0.0777255967259407,0.010588421486318111,-0.17852579057216644,-0.025173021480441093,0.022925807163119316,0.18737675249576569,-0.2822684347629547,-0.020838454365730286,0.0065482682548463345,-0.23374170064926147,0.0751093327999115,-0.12259095162153244,-0.3298279941082001,0.1707930564880371,-0.15641586482524872,0.005043520592153072,-0.001641316106542945,-0.03899558261036873,0.026490574702620506,0.15943075716495514,-0.10535110533237457,0.15353581309318542,0.06397730112075806,-0.3359902799129486,-0.21420949697494507,-0.12937165796756744,-0.1029212698340416,-0.22560714185237885,-0.13423413038253784,-0.06536883860826492,-0.16076208651065826,-0.1329105645418167,-0.20756278932094574,-0.38579341769218445,-0.03458693251013756,-0.1760464608669281,0.12200497090816498,-0.0425323024392128,-0.1980607509613037,0.09542100131511688,0.07258686423301697,-0.3118065595626831,-0.272342711687088,-0.13018947839736938,0.19619102776050568,-0.07353175431489944,0.05765761062502861,-0.3544329106807709,-0.14694960415363312,0.10229545086622238,-0.15727375447750092,-0.08068631589412689,0.19881266355514526,-0.21275673806667328,-0.32663148641586304,0.05027807876467705,0.18252477049827576,-0.2746196687221527,-0.05830281972885132,0.2530345618724823,-0.16584710776805878,-0.017101744189858437,-0.3116943836212158,-0.09295359998941422,-0.12227791547775269,0.03180866688489914,-0.12996122241020203,-0.16182230412960052,-0.11846336722373962,-0.256776362657547,0.13818885385990143,-0.18637946248054504,-0.0033314393367618322,-0.004026927053928375,0.06869204342365265,-0.06568868458271027,0.04431537911295891],[-0.2459266632795334,-0.22692552208900452,-0.29265162348747253,-0.02018042281270027,-0.15302835404872894,-0.04209265485405922,-0.007897892966866493,0.24659575521945953,0.2577574551105499,-0.15478388965129852,-0.502890944480896,-0.17209982872009277,0.01208064891397953,-0.046079862862825394,-0.05863175913691521,-0.18359430134296417,0.1429082751274109,0.057973239570856094,-0.08549162745475769,-0.15966466069221497,0.030292479321360588,-0.31401365995407104,-0.1432490199804306,-0.04584409296512604,-0.08105143904685974,-0.0286623015999794,0.034797217696905136,0.03055529296398163,-0.18716703355312347,0.05297281965613365,0.31791049242019653,-0.36655205488204956,-0.15415890514850616,-0.3067905008792877,-0.20106159150600433,-0.1364467889070511,-0.04718156158924103,0.09855040162801743,0.016762835904955864,-0.14942511916160583,-0.16560089588165283,-0.035619091242551804,-0.07988046854734421,-0.41080954670906067,-0.23318080604076385,-0.4166896343231201,-0.3280068337917328,-0.19475266337394714,0.17341098189353943,-0.1342431753873825,-0.012904450297355652,-0.23314164578914642,-0.08482691645622253,0.14258448779582977,0.019169293344020844,-0.31237444281578064,-0.14612257480621338,-0.015607981011271477,-0.07861816883087158,0.057113081216812134,0.41609811782836914,-0.2957914471626282,-0.2280430793762207,-0.24611781537532806,-0.18720588088035583,-0.14799794554710388,0.19515468180179596,-0.020775219425559044,-0.4202154278755188,-0.023637598380446434,0.10949739813804626,-0.2955796718597412,0.029442772269248962,0.04013877362012863,-0.1772565245628357,-0.0998326912522316,-0.19022895395755768,0.19672752916812897,-0.36443033814430237,0.07163573056459427,-0.11576791852712631,0.217211052775383,-0.03677499666810036,-0.44135409593582153,0.05637119710445404,-0.2253744751214981,-0.5253021717071533,-0.2927507162094116,-0.31568199396133423,-0.1074848398566246,-0.05779532715678215,-0.19789065420627594,-0.278595894575119,0.1689903736114502,-0.21779580414295197,-0.2218804508447647,-0.1488400101661682,-0.11058834195137024,-0.21065035462379456,-0.07671770453453064,-0.2113826721906662,-0.4006707966327667,-0.005217702593654394,-0.0339827835559845,-0.037317994982004166,-0.11160920560359955,-0.024315660819411278,-0.2577569782733917,-0.06916294991970062,-0.05372991785407066,0.5200072526931763,-0.2656777799129486,-0.09562676399946213,-0.06070621311664581,0.23208141326904297,0.130970761179924,0.11785562336444855,-0.01127699762582779,0.19840455055236816,-0.2311757504940033,-0.18536561727523804,-0.14693182706832886,-0.36337530612945557,-0.039992064237594604,-0.2168564349412918,-0.05652400478720665,-0.08401401340961456,-0.15883009135723114],[-0.03913162648677826,-0.01766696758568287,-0.09936781972646713,