[[0.024680810049176216],[-0.041492026299238205],[-0.06209380552172661],[-0.18300244212150574],[-0.25976917147636414],[-0.1444755494594574],[-0.05578005313873291],[0.26507729291915894],[-0.17953963577747345],[-0.031991105526685715],[-0.10667604953050613],[-0.17291374504566193],[-0.23113271594047546],[-0.16717498004436493],[-0.11916881054639816],[-0.1985456347465515],[0.22529563307762146],[-0.3178442120552063],[0.02980806678533554],[-0.0520390160381794],[-0.11234156042337418],[0.05738428235054016],[-0.09789980202913284],[-0.0894605964422226],[-0.004740078467875719],[-0.04607352614402771],[-0.18001331388950348],[0.027462603524327278],[0.042211588472127914],[0.04286275431513786],[0.13733364641666412],[-0.13098950684070587],[0.2697710692882538],[-0.03604592755436897],[0.21683211624622345],[0.051311902701854706],[-0.017834004014730453],[-0.07159451395273209],[0.017460986971855164],[-0.06188793480396271],[0.2622295022010803],[-0.0035127406008541584],[-0.15366928279399872],[0.10139614343643188],[0.3419562876224518],[0.19615663588047028],[-0.09351857006549835],[0.33735358715057373],[-0.11621800810098648],[-0.04172782227396965],[0.01146889477968216],[0.019221633672714233],[-0.017777573317289352],[-0.06556779146194458],[-0.09595988690853119],[0.05465616285800934],[-0.12673284113407135],[-0.027653111144900322],[0.013915461488068104],[-0.20609483122825623],[0.02450617402791977],[-0.022889917716383934],[-0.06993541121482849],[0.07638274133205414],[-0.15536034107208252],[0.10709993541240692],[-0.0560622364282608],[0.06092572212219238],[0.0122776934877038],[-0.10074290633201599],[0.026019396260380745],[-0.2019539773464203],[-0.308065801858902],[-0.05746093764901161],[-0.24005267024040222],[0.11096666008234024],[-0.10649821162223816],[-0.05863429605960846],[-0.1507185697555542],[-0.047620538622140884],[0.19006389379501343],[-0.034803152084350586],[-0.11678405851125717],[0.0281289741396904],[-0.15199777483940125],[-0.2719043493270874],[0.366118460893631],[0.17761196196079254],[0.07085640728473663],[-0.23630265891551971],[-0.015490971505641937],[-0.24422670900821686],[0.0016345148906111717],[0.04494887590408325],[0.08630787581205368],[0.05719437077641487],[-0.21587347984313965],[-0.18774724006652832],[-0.015966488048434258],[-0.07657508552074432],[0.1827113777399063],[-0.20305891335010529],[0.15099301934242249],[-0.0852356031537056],[0.25129687786102295],[-0.0554020032286644],[-0.30185484886169434],[0.08141090720891953],[-0.12468333542346954],[0.30223822593688965],[-0.2608020305633545],[-0.0576927550137043],[0.1379452347755432],[-0.16785316169261932],[-0.1459227055311203],[-0.04654397815465927],[-0.050663892179727554],[-0.1482698917388916],[-0.15307952463626862],[0.09012351930141449],[-0.04540868476033211],[-0.09360992908477783],[0.016536390408873558],[-0.21947242319583893],[-0.0695667713880539],[0.09252818673849106],[-0.128199964761734],[-0.1157628670334816]]