[[-0.14018546044826508],[-0.005353595595806837],[0.17582224309444427],[0.037883441895246506],[0.13120022416114807],[-0.14879858493804932],[0.07458142936229706],[-0.016190920025110245],[0.09601510316133499],[-0.09179050475358963],[-0.24203374981880188],[-0.022171135991811752],[0.15268148481845856],[-0.06499285250902176],[-0.030910549685359],[-0.03025471605360508],[-0.17236468195915222],[-0.06092331185936928],[0.12036821246147156],[0.05819489806890488],[0.05622423440217972],[-0.12098463624715805],[-0.045603472739458084],[-0.018493831157684326],[0.11285416036844254],[-0.25430694222450256],[0.18243800103664398],[0.21259205043315887],[-0.15621349215507507],[-0.13818567991256714],[-0.09097635000944138],[0.14057330787181854],[0.08498983830213547],[0.09293897449970245],[-0.02526542730629444],[-0.09222232550382614],[0.12932603061199188],[-0.06999427080154419],[-0.19943396747112274],[-0.12847475707530975],[-0.08792972564697266],[-0.14126120507717133],[-0.10455834865570068],[0.1475980579853058],[-0.08515235781669617],[-0.09385025501251221],[-0.12724176049232483],[0.12327378243207932],[0.03228989988565445],[-0.06841576844453812],[-0.10145201534032822],[-0.09739761054515839],[0.02965391054749489],[0.045722346752882004],[-0.1327820122241974],[-0.002942452672868967],[-0.014854855835437775],[-0.16802504658699036],[-0.008287567645311356],[0.07677872478961945],[-0.013542029075324535],[-0.1180049479007721],[-0.11419152468442917],[-0.16135941445827484],[-0.1528777927160263],[-0.2371615320444107],[-0.13872070610523224],[0.29542267322540283],[-0.21727381646633148],[-0.07439212501049042],[-0.09037090092897415],[-0.032416995614767075],[-0.07889997214078903],[0.02796720713376999],[0.030713550746440887],[-0.08127446472644806],[-0.02389964647591114],[-0.15837259590625763],[0.0895366296172142],[-0.04767352342605591],[-0.0760350450873375],[-0.040857747197151184],[0.12135036289691925],[0.0002739901246968657],[-0.05342835932970047],[0.0041222651489079],[-0.17461852729320526],[0.07078078389167786],[0.1236777976155281],[0.038715850561857224],[0.15220771729946136],[-0.08809623122215271],[-0.061845578253269196],[0.15847711265087128],[-0.2094511240720749],[-0.29383549094200134],[-0.15548041462898254],[0.13367721438407898],[-0.06043276935815811],[-0.008016495034098625],[-0.03495822474360466],[-0.12618078291416168],[-0.03011874482035637],[-0.1403004676103592],[0.04817437380552292],[0.05646883696317673],[0.08373121172189713],[-0.03630286455154419],[0.019907446578145027],[-0.1793866604566574],[-0.14889411628246307],[-0.01966777630150318],[0.2575920820236206],[0.060412369668483734],[0.007884635590016842],[0.11626797914505005],[0.0372808538377285],[0.07915817201137543],[0.0362490676343441],[0.03643924742937088],[-0.08491381257772446],[-0.010951874777674675],[-0.09997689723968506],[-0.132785826921463],[-0.09604346752166748],[0.06080365553498268],[-0.10921255499124527],[-0.2616373896598816],[0.020579082891345024],[0.08314958214759827],[-0.13091914355754852],[0.17804495990276337],[-0.03698907420039177],[0.14930161833763123],[-0.08359840512275696],[0.022575024515390396],[-0.036515314131975174],[-0.011139395646750927],[-0.012367449700832367],[-0.15054874122142792],[-0.053363021463155746],[0.15496090054512024],[-0.15761010348796844],[0.06496495753526688],[0.05208955332636833],[-0.09753850102424622],[-0.15839362144470215],[0.11737129837274551],[-0.015943769365549088],[0.030782584100961685],[-0.05800824984908104],[0.11783859133720398],[-0.07026826590299606],[-0.0462847538292408],[-0.09784639626741409],[0.11991371214389801],[-0.17521342635154724],[-0.03206814453005791],[-0.0410681888461113],[-0.1953907310962677],[0.0022523116786032915],[0.008301041088998318],[-0.07529626041650772],[-0.2072320282459259],[0.06688373535871506],[-0.15967674553394318],[0.04628007858991623],[-0.11391964554786682],[0.17164908349514008],[0.09196349233388901],[0.12445317953824997],[0.09275110810995102],[-0.026506388559937477],[0.04120177403092384],[-0.34919366240501404],[0.09872115403413773],[0.03979845345020294],[-0.06766559928655624],[-0.08194592595100403],[0.1413084715604782],[-0.0920119509100914],[-0.0887565016746521],[-0.10426796972751617],[0.00880848616361618],[0.0516207255423069],[-0.1363491714000702],[-0.05746134743094444],[0.04014535993337631],[0.05935196951031685],[-0.005853131879121065],[-0.22262094914913177],[0.1471482217311859],[0.04564530402421951],[0.02332219108939171],[-0.12028754502534866],[-0.15052692592144012],[-0.17135459184646606],[0.04730471223592758],[0.150287464261055],[-0.06440998613834381],[-0.22804999351501465],[-0.1336716264486313],[0.07089440524578094],[-0.1590045988559723],[0.03568757697939873],[-0.3580980896949768],[-0.01865330897271633],[0.10512038320302963],[-0.10103080421686172],[-0.1374996304512024],[-0.18339143693447113],[-0.048161350190639496],[-0.18081754446029663],[-0.03719548135995865],[-0.26675182580947876],[-0.027673183009028435],[0.06358512490987778],[-0.029889244586229324],[-0.021642019972205162],[0.19628237187862396],[-0.08342093974351883],[0.0025177260395139456],[-0.03517172113060951],[-0.1833876520395279],[0.02385573461651802],[-0.19195353984832764],[-0.06898601353168488],[0.03561840206384659],[0.007412774488329887],[-0.26996687054634094],[-0.08114588260650635],[0.15311303734779358],[-0.14714421331882477],[-0.07485848665237427],[-0.17465840280056],[0.11778849363327026],[0.14787349104881287],[-0.03093106672167778],[0.07184203714132309],[0.03891747072339058],[0.024360889568924904],[-0.21121980249881744],[-0.00907577108591795],[0.07441427558660507],[-0.18453682959079742],[-0.021875878795981407],[-0.02249932289123535],[0.15340274572372437],[-0.08926033228635788],[0.054018549621105194],[0.11276805400848389],[-0.030961060896515846],[-0.20974886417388916],[0.17425990104675293],[-0.0340975821018219],[-0.04791576415300369]]