[[-0.29861584305763245],[0.15761782228946686],[-0.13754050433635712],[-0.5142808556556702],[-0.09076306223869324],[0.026934511959552765],[-0.21092736721038818],[0.06643757224082947],[-0.032863929867744446],[0.25091931223869324],[-0.35524359345436096],[-0.32182496786117554],[0.016263505443930626],[-0.25618210434913635],[-0.09940846264362335],[0.06639307737350464],[-0.27970460057258606],[-0.19423125684261322],[-0.24014019966125488],[0.11730114370584488],[-0.15353380143642426],[0.04617220163345337],[-0.5013562440872192],[-0.25905096530914307],[0.11046119034290314],[-0.0706322118639946],[-0.006163181271404028],[-0.39346468448638916],[-0.04599767178297043],[0.06839712709188461],[-0.45603883266448975],[-0.24082539975643158],[-0.28424572944641113],[-0.22582614421844482],[-0.3604361116886139],[-0.2781645357608795],[-0.10169623047113419],[0.1418745517730713],[0.027979692444205284],[0.057433705776929855],[-0.15091508626937866],[-0.3967318534851074],[0.04475417733192444],[-0.08131641894578934],[0.18108999729156494],[-0.11423536390066147],[-0.219981387257576],[-0.09836531430482864],[-0.28705894947052],[-0.34328487515449524],[-0.006826160009950399],[-0.06530766934156418],[-0.16511772572994232],[0.20611144602298737],[-0.23737619817256927],[-0.06208857148885727],[-0.06465833634138107],[0.16922415792942047],[0.08377425372600555],[-0.35186249017715454],[0.12066394835710526],[-0.19338370859622955],[0.14593707025051117],[-0.22062136232852936]]