[[0.0047556813806295395],[-0.12094736844301224],[-0.0015637666219845414],[-0.24894651770591736],[0.014263518154621124],[-0.018301352858543396],[0.14739100635051727],[0.0877889096736908],[-0.008596433326601982],[-0.20211175084114075],[-0.17491160333156586],[-0.38588085770606995],[-0.06846780329942703],[-0.12047427892684937],[-0.1300623118877411],[-0.3157068192958832],[-0.059158433228731155],[-0.01442442461848259],[0.0674581378698349],[0.03221571072936058],[0.09034893661737442],[0.016026083379983902],[-0.3987821042537689],[-0.28430649638175964],[-0.08579131960868835],[0.31558576226234436],[-0.31777557730674744],[0.27137476205825806],[0.12425186485052109],[0.14312033355236053],[-0.44400644302368164],[-0.23839546740055084],[0.07673107087612152],[-0.12428963929414749],[-0.3005105257034302],[-0.12332410365343094],[-0.23784014582633972],[0.14223334193229675],[0.05883607268333435],[-0.17574602365493774],[0.18925605714321136],[0.03221263363957405],[0.28833043575286865],[-0.05876811966300011],[0.12021014839410782],[-0.3072686493396759],[-0.13081315159797668],[-0.15113554894924164],[-0.3099859356880188],[-0.07172841578722],[-0.03856702521443367],[-0.09630771726369858],[-0.03917825594544411],[0.2539859712123871],[-0.27924787998199463],[-0.06880171597003937],[-0.11621665954589844],[0.20060941576957703],[0.18367111682891846],[-0.4407399594783783],[-0.22037336230278015],[-0.14607343077659607],[-0.33142295479774475],[0.04032668471336365]]