[[0.5316752195358276,1.7138888835906982,0.6221227645874023,0.7700520753860474,1.225328803062439,-0.528114914894104,0.7142722010612488,3.5768299102783203,-0.612617015838623,-2.13191819190979,-0.3456123173236847,1.6366032361984253,1.391766905784607,-0.6336517333984375,-0.6645482182502747,1.025911808013916,-2.2981011867523193,2.094669818878174,2.344836473464966,-0.7444693446159363,3.1399383544921875,-0.3194899260997772,-1.6716605424880981,-0.4627998471260071,-0.5101293325424194,2.487703323364258,-1.2045830488204956,-1.3515100479125977,1.1616698503494263,0.990727961063385,-0.7557891011238098,-1.4966355562210083,1.8373150825500488,-0.37925809621810913,-0.0080652367323637,-0.39149054884910583,0.3863014578819275,-2.3416779041290283,0.9819009900093079,-0.22544151544570923,-0.42768046259880066,1.2235221862792969,-1.0182989835739136,-0.1094617247581482,1.3851220607757568,1.1923389434814453,0.9030696153640747,1.0796033143997192,-1.0115844011306763,-1.792576789855957,0.007167700678110123,-1.4239076375961304,0.5972697734832764,0.061634764075279236,0.09121290594339371,0.2676957845687866,-0.5795354247093201,-1.181838035583496,2.2570648193359375,-0.48001882433891296,-2.138958692550659,-1.4164612293243408,0.04325244203209877,-0.8042746782302856]]