[[0.06886973232030869,-0.26606088876724243,-0.039261382073163986,0.06681916117668152,-0.1458149403333664,0.19724123179912567,0.04550250619649887,-0.0614660307765007,-0.2087053805589676,0.20663532614707947,-0.06960872560739517,0.15414048731327057,-0.05693506821990013,0.09694001823663712,0.09064647555351257,-0.26286736130714417,-0.10271069407463074,-0.20126713812351227,-0.007048898376524448,-0.23139436542987823,-0.27260705828666687,0.2208838015794754,-0.1209409311413765,-0.029536720365285873,0.05645201355218887,-0.18714872002601624,-0.15141752362251282,-0.23860178887844086,0.0556679330766201,-0.04896125942468643,-0.03441936522722244,0.18214786052703857,0.08221620321273804,-0.08067720383405685,0.01324754860252142,-0.3138540983200073,0.37185588479042053,-0.09344378858804703,0.10825279355049133,0.05356656759977341,0.32212549448013306,0.08824019879102707,0.19762103259563446,-0.30290862917900085,-0.13867227733135223,0.2924952805042267,-0.04719968140125275,-0.2123614102602005,-0.1743556261062622,0.023403026163578033,-0.34769320487976074,0.10651928931474686,0.1554972529411316,0.09098160266876221,0.15648406744003296,0.007591606583446264,0.21868464350700378,-0.39110898971557617,-0.15982060134410858,0.17187215387821198,0.002334440127015114,-0.11297277361154556,-0.09750375896692276,-0.10868345201015472,-0.2500811219215393,0.1967490017414093,-0.18276384472846985,-0.125731959939003,-0.2827264070510864,-0.034119728952646255,-0.20369888842105865,-0.057041194289922714,-0.15979456901550293,-0.27618709206581116,0.1060146912932396,0.19012241065502167,-0.29130417108535767,0.057705603539943695,-0.1355518400669098,-0.05133908614516258,0.10917919874191284,0.10534203797578812,-0.5180073976516724,0.3510044813156128,-0.07335425168275833,0.03174208477139473,0.12990731000900269,-0.06214805692434311,0.07474371045827866,-0.03849642723798752,-0.2217128872871399,-0.07850145548582077,-0.02785591408610344,-0.1135079637169838,0.4456416964530945,-0.06422818452119827,-0.28368446230888367,0.12550368905067444,0.2699887752532959,0.0623825266957283,0.026106568053364754,-0.23737788200378418,-0.023653652518987656,0.2170315980911255,-0.267531156539917,-0.09520946443080902,-0.16419021785259247,0.196669802069664,-0.20756842195987701,-0.05253135785460472,-0.0838027074933052,0.12956717610359192,-0.17154410481452942,-0.13385044038295746,-0.3188553750514984,-0.11802767962217331,0.41662725806236267,0.1029161661863327,-0.14220485091209412,-0.12961943447589874,0.0029784454964101315,0.10015230625867844,0.16463488340377808,-0.0390075221657753,-0.24643775820732117,0.07062205672264099,0.1455686092376709,-0.27262476086616516,-0.3096764087677002,0.07249872386455536,-0.22876790165901184,0.11341185867786407,0.007739119231700897,-0.10029458999633789,-0.15334928035736084,-0.06712962687015533,-0.011197649873793125,-0.09504417330026627,-0.02711540274322033,0.01464849803596735,-0.18629954755306244,-0.37637796998023987,-0.04594321921467781,-0.30680230259895325,-0.12640108168125153,0.09120246022939682,0.14132769405841827,-0.1237148568034172,-0.11265227943658829,-0.039518773555755615,-0.15804815292358398,-0.18442708253860474,-0.3880990445613861,-0.02881409227848053,-0.20682162046432495,-0.23920544981956482,0.24478045105934143,-0.21900467574596405,-0.07660381495952606,0.02832081913948059,0.05407598614692688,0.02488834038376808,0.08229239284992218,-0.22120444476604462,0.03940330818295479,0.1738700270652771,-0.04573195055127144,-0.15175169706344604,-0.45514002442359924,-0.24135904014110565,-0.29166680574417114,-0.20602993667125702,-0.023814691230654716,-0.07039119303226471,-0.08481892198324203,-0.3060585856437683,-0.004417864605784416,0.11250056326389313,-0.07097822427749634,-0.13649168610572815,-0.06644760817289352,0.04393862187862396,-0.041108131408691406,-0.026244817301630974,-0.20994706451892853,-0.007220678497105837,0.032765332609415054,0.14956897497177124,0.07661709189414978,-0.420638769865036,-0.10113003104925156,-0.22958751022815704,0.15553779900074005,-0.04222964495420456,0.041232068091630936,0.13812747597694397,-0.2042950689792633,-0.26455923914909363,-0.05287347733974457,-0.27405494451522827,-0.15598438680171967,-0.01090218685567379,0.2648679316043854,-0.20439231395721436,-0.15795718133449554,0.2637137472629547,0.09294892102479935,-0.26633015275001526,0.07989919185638428,-0.2282552272081375,0.046811673790216446,-0.05558274686336517,-0.05931074917316437,-0.12966351211071014,-0.036045871675014496,-0.06354883313179016,0.044947005808353424,-0.2671672999858856,-0.20154106616973877,0.11803709715604782,0.04553649574518204,-0.18644487857818604,0.5171895623207092,-0.19391174614429474,-0.032497964799404144,0.15518160164356232,-0.21487034857273102,-0.08104518800973892,-0.11487475037574768,0.24597837030887604,0.03501757234334946,0.1213490217924118,-0.013160185888409615,0.0983465164899826,0.060122136026620865,-0.1789364069700241,-0.22887377440929413,-0.21327149868011475,-0.2124451845884323,0.08496196568012238,0.13594327867031097,-0.02075415477156639,-0.2259170114994049,0.12558385729789734,-0.25754109025001526,0.14193572103977203,-0.5267673134803772,-0.19473659992218018,-0.15428069233894348,0.10587941855192184,0.02122761867940426,-0.11062435805797577,0.180781751871109,-0.1828499734401703,-0.5337262153625488,0.1524377465248108],[-0.011762703768908978,-0.25083044171333313,-0.1179010346531868,0.11363070458173752,0.037030234932899475,-0.03561050444841385,-0.11120961606502533,-0.13725896179676056,-0.03780566155910492,0.08449695259332657,-0.22534549236297607,-0.20223639905452728,-0.08371614664793015,-0.2884059548377991,-0.44178417325019836,-0.1085907593369484,-0.03273474797606468,-0.029488245025277138,0.09691185504198074,-0.38333046436309814,0.0737631693482399,-0.06971985846757889,0.05521269515156746,-0.3918909728527069,-0.11717522889375687,-0.02526671253144741,-0.1487428843975067,-0.11900509893894196,0.09366442263126373,-0.21407610177993774,-0.12453937530517578,-0.27414581179618835,0.12211786955595016,-0.08947337418794632,0.1607525497674942,-0.29356327652931213,-0.007029885891824961,-0.04856320843100548,-0.15131869912147522,-0.24148991703987122,-0.14439018070697784,-0.10184033960103989,-0.2731681168079376,-0.07504885643720627,0.005784950219094753,-0.022261641919612885,-0.25229787826538086,-0.08554814010858536,-0.3220590353012085,-0.05593189597129822,-0.4106716513633728,0.05264176428318024,-0.22002005577087402,0.15925246477127075,-0.09613686054944992,-0.32097259163856506,-0.11413315683603287,-0.04319708049297333,-0.18971483409404755,-0.2742873728275299,-0.286308616399765,-0.33498871326446533,-0.11490809917449951,0.17948129773139954,-0.009551198221743107,-0.2098509669303894,0.04615051671862602,-0.23082752525806427,-0.17382864654064178,-0.3108871877193451,0.2171824723482132,0.22883139550685883,0.05164799839258194,-0.24263538420200348,-0.17202796041965485,-0.14828452467918396,0.10507231205701828,-0.27565574645996094,-0.1787126660346985,0.3703436851501465,0.1240580826997757,-0.22179576754570007,-0.47656407952308655,-0.30190929770469666,0.3164495825767517,-0.3878350853919983,0.17087815701961517,-0.17872194945812225,-0.13508252799510956,-0.1895865947008133,-0.019293058663606644,0.045839570462703705,0.21720583736896515,0.26317039132118225,0.22167058289051056,-0.2727613151073456,0.19798335433006287,0.20955049991607666,-0.1646069437265396,0.008943464607000351,-0.1685730367898941,-0.0139345433562994,0.07636844366788864,0.05353187024593353,-0.2747170627117157,0.20801405608654022,-0.3036426305770874,-0.07979526370763779,0.06391147524118423,0.09430945664644241,-0.0047974856570363045,-0.011286627501249313,0.10727483034133911,0.1578608751296997,0.15869204699993134,0.23637373745441437,-0.18979957699775696,-0.18338945508003235,-0.11551431566476822,0.25684449076652527,-0.07004809379577637,-0.21550796926021576,-0.02814588136970997,-0.1847737729549408,-0.3071516156196594,0.4006311297416687,-0.018181990832090378,0.07880660146474838,0.05080131068825722,-0.11700791865587234,-0.025514919310808182,-0.25429946184158325,-0.021482210606336594,0.03069338947534561,0.05566757172346115,0.1308407485485077,-0.013959810137748718,-0.020215049386024475,-0.016344569623470306,-0.123162642121315,-0.24845056235790253,0.08063802123069763,0.1751737743616104,-0.0959613025188446,-0.011423655785620213,0.3166063129901886,-0.07745359092950821,-0.18237073719501495,0.11541189253330231,-0.2300424724817276,-0.25296318531036377,0.13050508499145508,-0.059534914791584015,-0.19114166498184204,-0.097394660115242,0.11812480539083481,-0.2875653803348541,-0.1638135015964508,0.15486474335193634,0.05056039243936539,-0.03405744209885597,0.10829957574605942,-0.054101236164569855,0.16843262314796448,0.2010379433631897,-0.5712096095085144,0.02035350538790226,-0.2198636680841446,-0.05961588770151138,-0.00028802597080357373,-0.14693716168403625,-0.012267796322703362,-0.1818550080060959,0.0034677465446293354,-0.11458604782819748,0.03261643275618553,-0.2078963816165924,-0.1204279214143753,0.20052361488342285,0.21225325763225555,-0.05632442235946655,-0.2561262845993042,0.2107182741165161,-0.019464975222945213,0.2540287673473358,0.07274378091096878,-0.11450289934873581,0.07566677033901215,0.03598663583397865,-0.0814877450466156,0.11050108075141907,-0.1536286175251007,0.207823246717453,-0.09213806688785553,0.2132272869348526,0.3663609027862549,-0.018141034990549088,-0.2531438171863556,-0.4499471187591553,0.26196983456611633,-0.05627335608005524,-0.12079097330570221,0.10240316390991211,-0.12963806092739105,0.1510060876607895,-0.0015357669908553362,-0.12444140017032623,0.033133987337350845,0.21730132400989532,-0.08313016593456268,0.060250237584114075,-0.14882928133010864,-0.06039533391594887,0.04679284617304802,0.04138641059398651,-0.009063787758350372,0.16503843665122986,-0.0765102356672287,-0.15475264191627502,-0.15233856439590454,-0.060435790568590164,0.03462716192007065,-0.3065272271633148,-0.004544557072222233,-0.09987650066614151,-0.3562750518321991,-0.017150113359093666,0.0317750945687294,-0.2457389533519745,0.15200947225093842,0.336201548576355,0.1257607638835907,-0.015390710905194283,-0.07801803201436996,-0.3131721019744873,0.1714257150888443,-0.03308548405766487,0.15811596810817719,-0.1954985111951828,-0.10615328699350357,-0.08283352851867676,0.22408746182918549,-0.03982146829366684,-0.006796007510274649,0.14120906591415405,-0.009558347053825855,0.016081443056464195,0.11538869887590408,-0.593754231929779,0.26904356479644775,-0.09416435658931732,0.15643933415412903,-0.2890446186065674,0.08046620339155197,-0.122237429022789,-0.2726181447505951],[0.006773482542484999,-0.25316178798675537,-0.2934248149394989,-0.02506205253303051,0.2242841273546219,-0.22223155200481415,-0.23216575384140015,-0.2326716184616089,-0.16418801248073578,-0.24415583908557892,-0.03170214220881462,-0.1929844170808792,-0.1724207103252411,0.10123870521783829,0.2087218016386032,0.17425839602947235,0.0722997710108757,-0.14908456802368164,-0.042620547115802765,-0.05012969672679901,-0.13720494508743286,0.07710663229227066,-0.04134982079267502,-0.047390297055244446,-0.12151388823986053,-0.10937980562448502,0.2499149739742279,-0.4173199534416199,-0.2334756702184677,-0.2102486789226532,-0.2893119752407074,-0.49793556332588196,0.05987410992383957,-0.06512314081192017,-0.19830617308616638,-0.11974488198757172,-0.1951603889465332,0.12682543694972992,0.2503810226917267,-0.13060373067855835,-0.19111981987953186,0.0982949510216713,-0.2054382562637329,-0.24204741418361664,0.24883577227592468,0.06735910475254059,-0.04475097730755806,0.09534220397472382,0.04866653308272362,-0.11187712848186493,-0.1626044064760208,-0.1312774419784546,0.11749748885631561,0.052603743970394135,0.04780232906341553,-0.1846114844083786,0.19513313472270966,-0.26858067512512207,-0.386639267206192,0.05680357292294502,0.2208261340856552,-0.030829034745693207,-0.06237838789820671,-0.08672358095645905,-0.19579055905342102,-0.1789516657590866,-0.11316877603530884,-0.21291285753250122,0.04241681843996048,0.08747465908527374,-0.018768692389130592,-0.06474342197179794,-0.2339605838060379,0.08648993819952011,0.07260710746049881,-0.08253835886716843,0.12067388743162155,0.3897305130958557,-0.15655985474586487,-0.07280254364013672,0.024522243067622185,0.13401830196380615,-0.04454948008060455,-0.11645519733428955,-0.09601004421710968,0.10516003519296646,0.30323800444602966,-0.1244984120130539,-0.03056839108467102,-0.17544236779212952,0.021321294829249382,0.23302902281284332,-0.03414642810821533,-0.18702752888202667,-0.09148406982421875,-0.10920479893684387,0.28143200278282166,-0.09321277588605881,-0.13759146630764008,-0.10056227445602417,-0.39047762751579285,-0.16132961213588715,-0.2850574553012848,-0.16018645465373993,0.01355716958642006,0.012783807702362537,-0.33326947689056396,0.006246300879865885,0.007636144291609526,-0.013459255918860435,-0.02096700668334961,0.21265627443790436,0.17465537786483765,0.03277355805039406,0.06982296705245972,-0.24685829877853394,-0.163563534617424,-0.012217270210385323,-0.13607139885425568,0.12322864681482315,-0.2303187996149063,-0.15511618554592133,0.011377401649951935,-0.007358462084084749,0.17812755703926086,-0.2900458574295044,-0.09554903954267502,0.01969408243894577,0.10270988196134567,-0.07583928853273392,0.036269329488277435,0.31784486770629883,0.28988856077194214,0.07720720022916794,-0.3734569251537323,0.04537762328982353,-0.0925716683268547,0.14489583671092987,0.23504109680652618,0.02252381108701229,-0.0003533047274686396,-0.14270170032978058,0.10133996605873108,-0.08865230530500412,-0.22048640251159668,0.06561279296875,-0.28851503133773804,0.04776043817400932,-0.294000506401062,-0.12603580951690674,0.03580806031823158,0.1286289393901825,-0.2438768595457077,-0.27185407280921936,-0.02392493188381195,0.02547800913453102,-0.44765129685401917,0.06797035038471222,-0.19610902667045593,-0.30654019117355347,-0.03557553514838219,-0.1975332647562027,-0.24372994899749756,-0.08492601662874222,-0.22673045098781586,-0.031246546655893326,-0.08235999941825867,0.0005814196774736047,0.013918556272983551,-0.20134595036506653,-0.17086204886436462,0.22011055052280426,0.09585123509168625,0.07273796945810318,0.04253222793340683,-0.013351521454751492,-0.08206789195537567,0.3331557512283325,-0.08276887983083725,-0.27554160356521606,0.0831693708896637,0.009614648297429085,0.046954330056905746,0.27098312973976135,-0.3379218280315399,-0.2975064218044281,-0.12755833566188812,-0.03923185169696808,0.10881461203098297,-0.14066657423973083,0.2515285611152649,-0.04371485114097595,0.21012349426746368,0.2474399358034134,0.054655857384204865,-0.27299264073371887,-0.18514719605445862,-0.03558337688446045,-0.10585563629865646,0.04484826698899269,-0.18534773588180542,-0.12596358358860016,-0.2561775743961334,-0.18192020058631897,0.05721385404467583,0.01520544197410345,-0.02708955854177475,-0.12080773711204529,0.16014549136161804,0.0735975056886673,-0.5988206267356873,0.0272217970341444,0.02063741907477379,0.0967521145939827,0.00818973034620285,-0.06210863217711449,0.05206131562590599,0.050901900976896286,0.026710566133260727,0.10334055870771408,-0.23608483374118805,0.25895220041275024,-0.09899574518203735,0.016380684450268745,-0.25094643235206604,-0.10666491091251373,0.2510492205619812,-0.2166576236486435,-0.34359005093574524,0.0076563372276723385,0.12058907747268677,0.002483654534444213,0.04483739659190178,-0.2753771245479584,0.06908842921257019,-0.08873938769102097,-0.09910590201616287,-0.029514960944652557,-0.22502411901950836,0.05158188194036484,0.07163287699222565,-0.22820372879505157,-0.2672523260116577,0.13585889339447021,-0.21429026126861572,-0.2390633523464203,-0.06274478882551193,-0.013724206946790218,-0.290959894657135,-0.017555762082338333,-0.021763768047094345,0.14102910459041595,0.08540881425142288,0.08205971866846085,0.28035879135131836,0.10980183631181717],[0.22049549221992493,-0.2768997251987457,-0.08431166410446167,0.26853394508361816,0.045311909168958664,0.08262331038713455,-0.41367366909980774,-0.29898831248283386,-0.030622221529483795,-0.1883813440799713,-0.3964470624923706,-0.0071555511094629765,0.1710771918296814,-0.08742743730545044,0.0607403889298439,0.02693178504705429,0.15267141163349152,-0.14219768345355988,-0.06296812742948532,-0.22455917298793793,-0.26004907488822937,-0.0574464313685894,-0.28819504380226135,-0.36849644780158997,-0.04458622261881828,-0.07703004032373428,0.022332660853862762,-0.1651189625263214,-0.024101343005895615,0.06576821208000183,0.02136389911174774,0.07683005183935165,-0.046920254826545715,0.15871849656105042,0.0673586055636406,-0.11767535656690598,0.1409534364938736,-0.20011121034622192,-0.11349933594465256,-0.08675897866487503,0.06721453368663788,0.26775941252708435,-0.00923413410782814,-0.08526766300201416,0.15841883420944214,-0.28412723541259766,-0.25314033031463623,-0.06796256452798843,0.00627704756334424,0.1740213930606842,-0.17859962582588196,-0.03898271173238754,-0.2648671567440033,-0.19791334867477417,0.146409809589386,-0.3440656363964081,-0.20088690519332886,-0.06073174253106117,0.11760516464710236,-0.0029058358632028103,0.18616440892219543,0.14694547653198242,-0.30025380849838257,-0.31412380933761597,0.07989529520273209,-0.03282686695456505,-0.09779869019985199,-0.11502807587385178,-0.39174094796180725,-0.12338270246982574,0.19202686846256256,0.07402104139328003,-0.11405991017818451,0.0353429950773716,-0.4946669340133667,-0.2959045469760895,-0.1733590066432953,-0.3828233480453491,0.20346355438232422,0.1593681275844574,0.12177575379610062,-0.1297740489244461,-0.11574859172105789,0.04414887726306915,0.03331252187490463,-0.39856383204460144,0.07517305016517639,-0.34989529848098755,0.2721845209598541,-0.001483570202253759,-0.34539273381233215,-0.226827472448349,0.28427308797836304,0.06342349201440811,-0.17601647973060608,0.12728527188301086,-0.04798058420419693,0.0989248976111412,-0.15133358538150787,-0.25522705912590027,0.1550658643245697,0.11262477934360504,-0.3578629195690155,-0.008523108437657356,-0.4242520034313202,0.2969364821910858,0.02848067134618759,-0.07955412566661835,-0.03356088697910309,0.10491473227739334,-0.067855603992939,-0.11331649124622345,0.19230955839157104,-0.1376669853925705,0.622158944606781,-0.1576930731534958,0.08445827662944794,-0.017789000645279884,0.1248892992734909,-0.0652909129858017,0.0035147888120263815,0.029964150860905647,0.22076590359210968,0.0824817419052124,0.283679336309433,-0.023051491007208824,0.1933227777481079,-0.06974788010120392,-0.0717478096485138,-0.2811313569545746,0.24852566421031952,0.1308097392320633,0.12348964810371399,0.20940659940242767,-0.03886675089597702,-0.04174092411994934,0.18372085690498352,-0.16962483525276184,0.07303576171398163,0.12792831659317017,-0.21921612322330475,-0.21233367919921875,-0.19302153587341309,-0.2523692846298218,0.116659976541996,-0.11410131305456161,0.1356392502784729,0.11816103011369705,0.03237216919660568,-0.0025502238422632217,-0.16511225700378418,0.006737184710800648,0.13576361536979675,0.15720780193805695,-0.1460527777671814,-0.10855809599161148,0.29319125413894653,0.07371820509433746,-0.07335150241851807,-0.1640928089618683,-0.2548273503780365,-0.2128458470106125,-0.047823671251535416,0.2454499900341034,0.05388027802109718,0.03589354082942009,0.058396678417921066,-0.2791471779346466,-0.16089589893817902,-0.1472701132297516,-0.026556041091680527,0.015686513856053352,-0.15012915432453156,-0.3097776770591736,0.0484621562063694,-0.24883338809013367,-0.02636749856173992,-0.15034009516239166,0.03175603598356247,-0.32588741183280945,-0.10584602504968643,0.011869040317833424,-0.2778141498565674,0.012312313541769981,-0.14869676530361176,0.17717348039150238,-0.10415078699588776,0.07991640269756317,-0.11632470786571503,-0.11004045605659485,0.2906246781349182,-0.1616043597459793,-0.2851896584033966,0.1227632462978363,-0.12015628069639206,-0.03274130821228027,0.058891091495752335,-0.1809203326702118,0.1547090709209442,0.05236712843179703,-0.13251227140426636,0.033635713160037994,-0.028400778770446777,-0.06487017869949341,-0.3567323386669159,-0.0030355476774275303,-0.13573774695396423,-0.048873819410800934,-0.10924946516752243,-0.03973200172185898,0.1884184330701828,-0.037538204342126846,-0.05229659378528595,-0.09465444833040237,-0.1250893920660019,0.00649706507101655,-0.38875246047973633,0.012582646682858467,0.12972401082515717,-0.13681575655937195,-0.07548777014017105,-0.039678800851106644,-0.022739684209227562,-0.3427799940109253,-0.34398069977760315,0.18246711790561676,-0.18024608492851257,-0.23369036614894867,-0.024494508281350136,-0.036840811371803284,0.015503461472690105,-0.3335770070552826,-0.009884065017104149,-0.030106229707598686,0.15761543810367584,0.079185850918293,-0.1872187703847885,-0.290093332529068,-0.2051895558834076,-0.20213542878627777,0.03341611847281456,0.1477513313293457,0.25181132555007935,0.11623081564903259,-0.04768941551446915,0.044387008994817734,-0.14719480276107788,-0.15878142416477203,0.039716336876153946,0.1906653344631195,-0.03834579512476921,0.23212777078151703,-0.09785298258066177,0.022842688485980034,-0.06946977227926254,-0.3790507912635803],[-0.0633854791522026,-0.27108773589134216,0.08007413893938065,0.011966106481850147,-0.07828885316848755,-0.2912691831588745,0.12260960787534714,0.2022673487663269,-0.13435707986354828,-0.03305412083864212,0.3492189645767212,-0.17608989775180817,-0.30792883038520813,-0.0503435842692852,-0.2430470734834671,0.31885266304016113,0.014608328230679035,0.108557790517807,-0.18976344168186188,-0.31219980120658875,-0.2544313669204712,0.010678235441446304,-0.1779685914516449,-0.007833028212189674,-0.10440313816070557,-0.14841634035110474,0.07465217262506485,-0.1228502094745636,0.07289453595876694,-0.19178663194179535,-0.1403239667415619,-0.17147302627563477,-0.17353005707263947,0.17108437418937683,0.18850168585777283,-0.09530578553676605,-0.4385913908481598,-0.1907433271408081,-0.024232996627688408,0.11266788095235825,0.07254140824079514,-0.14358510076999664,0.1693742275238037,-0.3456100523471832,0.07961442321538925,-0.04973795637488365,-0.2986697852611542,0.04733837768435478,-0.0588066466152668,0.038132425397634506,-0.1363549530506134,-0.016553739085793495,-0.060882698744535446,-0.022700179368257523,-0.2666405439376831,-0.3707464635372162,0.20652282238006592,0.01587141491472721,-0.07860930263996124,-0.2480880320072174,-0.15511514246463776,0.07836315035820007,0.16002897918224335,-0.06364217400550842,-0.21543025970458984,-0.20977181196212769,-0.05454035475850105,-0.042455121874809265,0.13256245851516724,0.005618094466626644,-0.045897841453552246,0.012233924120664597,0.09215723723173141,-0.0037064244970679283,0.04967040941119194,-0.006299780216068029,0.1673874855041504,0.09874248504638672,0.07070764899253845,-0.24759721755981445,-0.20650772750377655,0.07953774929046631,-0.09584754705429077,-0.17129556834697723,0.0658898875117302,-0.11696898192167282,-0.09951939433813095,0.14463771879673004,-0.2283620685338974,-0.092684805393219,-0.13737797737121582,-0.13338033854961395,0.023981565609574318,-0.05484865978360176,-0.23367659747600555,0.11860603094100952,-0.14952754974365234,0.13471731543540955,-0.28278350830078125,-0.23020708560943604,0.08171075582504272,-0.09191063046455383,-0.08921115845441818,0.10218128561973572,0.4006512463092804,-0.04440072923898697,-0.10187481343746185,-0.2188531756401062,-0.033059656620025635,0.08532668650150299,-0.15353542566299438,-0.196389839053154,-0.32879671454429626,0.048039909452199936,-0.14256030321121216,0.1763961762189865,-0.15738056600093842,0.19051265716552734,-0.2818703353404999,0.07565466314554214,-0.27528735995292664,-0.0839788019657135,-0.010153382085263729,0.0801314115524292,0.22970736026763916,0.4955485463142395,0.2118746042251587,-0.3370726406574249,-0.2715626657009125,0.053787168115377426,-0.38409727811813354,-0.26062914729118347,0.09379255771636963,-0.0621565580368042,-0.03142964467406273,0.25251680612564087,0.11688188463449478,-0.052305519580841064,0.15982384979724884,0.0726117342710495,0.053009241819381714,0.1164090558886528,-0.09767639636993408,-0.3037860691547394,-0.1922735571861267,-0.004438410978764296,0.15617746114730835,-0.15489423274993896,-0.21011386811733246,-0.018961085006594658,-0.22949764132499695,-0.2732146382331848,-0.26007023453712463,-0.03810037672519684,-0.2708247900009155,-0.12096589803695679,-0.3402443528175354,-0.0020052785985171795,0.12232626974582672,0.4482461214065552,-0.22251929342746735,-0.11764340102672577,0.09650234878063202,0.05001264810562134,-0.18396958708763123,-0.30628740787506104,0.07688423991203308,0.2280264049768448,0.019524743780493736,0.009483184665441513,0.08625901490449905,0.1207881048321724,-0.2935287654399872,0.0661126971244812,0.010628513991832733,0.09996625036001205,-0.2759462296962738,-0.11678670346736908,-0.04047808423638344,-0.24539458751678467,-0.06093854829668999,-0.01933117024600506,0.24635939300060272,0.10787403583526611,0.14474469423294067,0.048733506351709366,0.029779793694615364,-0.23239478468894958,-0.23209713399410248,-0.012485777027904987,0.005890061613172293,-0.26700636744499207,-0.07684830576181412,0.08156254887580872,0.2400674819946289,0.09421439468860626,-0.08145884424448013,-0.11040009558200836,0.02353871427476406,-0.09763772785663605,0.22130288183689117,-0.200302392244339,-0.20287610590457916,-0.11607180535793304,-0.11767730861902237,-0.07685596495866776,-0.03621191531419754,-0.07776622474193573,0.3797512650489807,-0.061240047216415405,0.2405931055545807,0.002151426626369357,0.22624267637729645,0.03538274019956589,-0.3228311836719513,-0.10409329831600189,-0.1749327927827835,-0.2283679097890854,-0.4911206066608429,0.20969291031360626,-0.13424348831176758,-0.08548849076032639,-0.23651237785816193,-0.15281935036182404,-0.30315470695495605,0.016083836555480957,-0.25976598262786865,-0.15364600718021393,0.07221432030200958,-0.295585572719574,0.03663897141814232,0.26406651735305786,0.10115626454353333,-0.16310977935791016,0.15600521862506866,0.1840641051530838,-0.16521602869033813,-0.19148392975330353,-0.1550886034965515,0.12459681928157806,0.02209693007171154,0.16664621233940125,0.09134858101606369,-0.21966592967510223,-0.043251506984233856,-0.3470006585121155,-0.23953840136528015,0.0007518416969105601,-0.11662699282169342,-0.19613422453403473,0.0765044167637825,-0.1666174829006195,0.12809975445270538,-0.08829725533723831,-0.19208215177059174,0.14863047003746033],[-0.11376576125621796,-0.04358386620879173,-0.003970359452068806,-0.44277438521385193,-0.04339149594306946,0.2341485321521759,0.1404157280921936,0.34272301197052,0.2802218198776245,0.12455452233552933,-0.29999440908432007,0.10017723590135574,0.2350589781999588,-0.1439097672700882,-0.02549569681286812,-0.086992546916008,0.23077109456062317,0.27187106013298035,0.22468778491020203,0.005603013094514608,-0.1072036623954773,0.4446984529495239,-0.05931021645665169,-0.06198546290397644,-0.3621402978897095,-0.3773568272590637,-0.17561157047748566,-0.0067589557729661465,-0.08185139298439026,0.11457816511392593,0.20649345219135284,0.07752152532339096,-0.18539418280124664,-0.07918395847082138,0.2886757552623749,0.3251497447490692,-0.046012818813323975,-0.10273443162441254,-0.17040884494781494,-0.11550047993659973,-0.18531063199043274,-0.16322962939739227,-0.26781824231147766,0.07820357382297516,0.2240859568119049,0.26631635427474976,-0.24326084554195404,-0.342178076505661,0.32064396142959595,-0.25866374373435974,-0.328906387090683,-0.06505050510168076,0.0822581946849823,0.023548275232315063,0.23832355439662933,-0.13561074435710907,-0.4456113278865814,-0.3503551185131073,-0.2677423059940338,0.124875009059906,0.06319531798362732,-0.025677906349301338,0.20136937499046326,0.14458857476711273,-0.10789016634225845,-0.11766451597213745,-0.14179657399654388,0.10759808123111725,0.0918937623500824,0.150479257106781,-0.07478457689285278,0.30084460973739624,0.05683785304427147,0.059085261076688766,-0.09683118760585785,0.13214950263500214,-0.14387954771518707,0.042123645544052124,0.2969639301300049,-0.2543158531188965,-0.25256451964378357,0.20707011222839355,-0.032416727393865585,-0.36491328477859497,-0.28195270895957947,-0.12342679500579834,0.05023197457194328,0.030148062855005264,-0.18441174924373627,0.1357107311487198,-0.06303967535495758,-0.18696491420269012,0.0010922583751380444,0.11000584810972214,-0.1925944685935974,-0.3039908707141876,-0.005109564866870642,0.017255770042538643,-0.30353933572769165,-0.10497186332941055,-0.24737584590911865,-0.03932947292923927,0.1876235455274582,0.21759119629859924,0.03548487275838852,-0.11875972896814346,0.1825924664735794,0.21406689286231995,0.25859251618385315,0.13231715559959412,0.06276407837867737,-0.17204755544662476,0.17629949748516083,0.18664300441741943,0.10142268240451813,-0.16241750121116638,0.434180349111557,-0.18445493280887604,-0.13447631895542145,0.07507401704788208,0.20473505556583405,-0.08530870825052261,-0.0057564424350857735,-0.010782749392092228,0.001679282053373754,0.3497985303401947,-0.09591149538755417,0.1552221029996872,-0.027300341054797173,-0.3429262340068817,-0.20209886133670807,0.021416427567601204,-0.11408907920122147,-0.2452174425125122,0.043831463903188705,0.0733867734670639,-0.17629869282245636,-0.042228005826473236,0.20936377346515656,-0.18265001475811005,0.11026693135499954,0.11417946964502335,-0.017559334635734558,-0.1442631036043167,0.21236392855644226,0.09253918379545212,-0.028849774971604347,0.15772122144699097,0.0018487137276679277,0.04992072284221649,-0.09859908372163773,0.09674578160047531,0.03202393651008606,0.00015421846183016896,0.2925894260406494,-0.11559392511844635,-0.20041325688362122,-0.2818300426006317,0.18005815148353577,0.11586447805166245,0.15403692424297333,-0.08341401070356369,-0.10124745965003967,0.1282321661710739,0.08044227212667465,-0.2999849319458008,-0.3178984224796295,0.08434826880693436,0.17734886705875397,-0.07925373315811157,0.08761751651763916,-0.08061978220939636,-0.057078633457422256,-0.1546444594860077,-0.11407026648521423,-0.0648917555809021,-0.306208997964859,-0.056760791689157486,-0.1747770607471466,0.1317390650510788,0.0018297713249921799,0.16079558432102203,0.23421920835971832,-0.05346085876226425,0.11019811034202576,-0.07023996859788895,0.13501213490962982,-0.02822813019156456,0.07247079163789749,-0.0635812059044838,-0.2750290334224701,-0.2808883488178253,-0.15287882089614868,-0.12455090880393982,0.104545958340168,-0.572089433670044,0.24145722389221191,-0.028546910732984543,-0.1701042354106903,-0.25318750739097595,-0.18996332585811615,-0.10822051763534546,-0.011751932092010975,0.16161221265792847,-0.05143029987812042,0.05833170562982559,-0.2575714886188507,0.15037360787391663,0.04896675795316696,0.02680138498544693,-0.17985664308071136,-0.08835713565349579,0.18032583594322205,-0.04325536638498306,0.0010223742574453354,-0.10457850247621536,0.1361990123987198,-0.024239450693130493,0.07156586647033691,0.20494866371154785,-0.19711650907993317,0.11458698660135269,0.11423864960670471,-0.14451465010643005,0.2139490395784378,-0.029346033930778503,0.05714002996683121,-0.1648680418729782,-0.025432882830500603,0.16719430685043335,0.14958453178405762,0.127957284450531,0.17838259041309357,0.09113941341638565,0.2956048548221588,-0.18771205842494965,0.05100961774587631,-0.008451051078736782,0.11469268053770065,-0.11762057989835739,-0.24652263522148132,-0.07936108857393265,0.04973287507891655,-0.6307601928710938,0.034526001662015915,0.08785458654165268,0.265125036239624,0.013621525838971138,-0.18135711550712585,0.11652976274490356,-0.09427135437726974,0.33719930052757263,-0.10708628594875336,-0.0894351601600647,-0.07981305569410324,0.04963880777359009],[0.10644358396530151,0.16270212829113007,-0.21803738176822662,-0.14889654517173767,0.22378958761692047,-0.007350770290941,-0.049519870430231094,0.3081457316875458,-0.13538439571857452,0.049967069178819656,-0.004789038095623255,-0.08449313044548035,0.14666642248630524,0.25691670179367065,-0.032624535262584686,0.09044491499662399,0.20691552758216858,0.30818602442741394,-0.14443442225456238,-0.09501957893371582,-0.20760400593280792,-0.24965651333332062,0.10064294934272766,-0.14340806007385254,0.13494034111499786,-0.010140546597540379,0.043728068470954895,0.018998492509126663,0.08471974730491638,-0.05920611694455147,-0.27596282958984375,0.1284267157316208,-0.2005579173564911,0.24604532122612,-0.08888010680675507,0.1197863221168518,-0.052024148404598236,-0.09111444652080536,0.21345926821231842,-0.11676079034805298,0.017955614253878593,0.006665342021733522,0.22464220225811005,-0.1595306396484375,-0.009258611127734184,0.059898700565099716,0.024380484595894814,-0.22562597692012787,-0.11503297835588455,-0.13287635147571564,0.40722891688346863,0.2680259943008423,0.061104003340005875,-0.09709648042917252,0.007246088702231646,-0.09405376017093658,-0.15895825624465942,0.18524810671806335,0.4440101087093353,-0.12252256274223328,-0.23266461491584778,-0.33385637402534485,0.15282019972801208,-0.18295277655124664,-0.021075768396258354,-0.05213223397731781,0.13691449165344238,-0.27918288111686707,-0.16651947796344757,-0.03975493088364601,0.13722753524780273,-0.023879176005721092,-0.28789252042770386,-0.04536664858460426,0.17454157769680023,0.1434956043958664,0.3460004925727844,0.2917400300502777,0.022228799760341644,-0.015228443779051304,-0.0674305409193039,-0.1248323991894722,0.08618342131376266,-0.20579993724822998,-0.1452581137418747,0.03845137357711792,-0.1370435655117035,-0.05083994194865227,-0.2619510293006897,0.04401341825723648,0.25207117199897766,0.05853637307882309,-0.07764551788568497,-0.16174612939357758,-0.12765763700008392,0.011596357449889183,0.0641094222664833,-0.08657971769571304,0.06528163701295853,-0.21463541686534882,0.08566708117723465,-0.030079014599323273,0.07270784676074982,-0.2776167690753937,-0.21132385730743408,-0.06855956465005875,0.23444117605686188,0.04725164920091629,0.31917107105255127,0.1742245852947235,-0.03385118767619133,-0.09476716071367264,-0.2177991271018982,-0.10008588433265686,0.05742615833878517,-0.013014652766287327,-0.002281715627759695,-0.035764019936323166,-0.07627304643392563,-0.1546296775341034,-0.35795658826828003,-0.05584314465522766,0.01960250549018383,0.01563377119600773,-0.39083096385002136,0.07714321464300156,-0.06826471537351608,0.42914971709251404,-0.007033198606222868,0.18817031383514404,-0.11103977262973785,0.04329898953437805,0.04490134119987488,0.14141982793807983,0.1947607547044754,0.10329374670982361,-0.07303512841463089,-0.509991466999054,0.1300257444381714,-0.025669381022453308,0.02303905040025711,-0.07820961624383926,0.07757310569286346,-0.17683258652687073,-0.07179735600948334,-0.0032108109444379807,0.075640968978405,-0.24273449182510376,0.05319744721055031,-0.02031560428440571,0.012427612207829952,-0.10194435715675354,-0.24235618114471436,-0.015401937998831272,0.27082014083862305,-0.11524122953414917,0.28516626358032227,-0.15028566122055054,-0.19917947053909302,0.16264241933822632,-0.11360298097133636,-0.05486772581934929,0.2715425193309784,0.01634867861866951,0.11910061538219452,0.161352276802063,0.30820220708847046,0.05634148791432381,-0.39412373304367065,-0.11378679424524307,-0.16797803342342377,-0.03959053009748459,0.11907739192247391,0.010191408917307854,-0.19828620553016663,0.11020421981811523,-0.4935237467288971,0.153534933924675,0.005215361248701811,-0.16947665810585022,0.06706084311008453,-0.11327286809682846,0.2111133635044098,-0.06772708892822266,-0.06548652052879333,-0.16522516310214996,0.07939941436052322,-0.05035668984055519,-0.17693302035331726,-0.31821775436401367,-0.0003848837804980576,-0.28026995062828064,-0.07624756544828415,0.11661417782306671,-0.5260152220726013,-0.17479166388511658,-0.28942862153053284,0.0757947713136673,-0.22978171706199646,-0.31863918900489807,-0.025353901088237762,-0.3262794017791748,-0.008294695056974888,0.014686780981719494,-0.06247695907950401,-0.2477637082338333,-0.008510913699865341,0.1410922110080719,0.3189113438129425,-0.15455882251262665,0.05814608931541443,0.0586063489317894,0.028122834861278534,-0.08610644191503525,0.12703756988048553,0.1349407583475113,-0.18883953988552094,-0.02561282366514206,-0.1549178659915924,-0.19917170703411102,-0.07513798028230667,-0.2033567726612091,0.27244579792022705,-0.08134326338768005,0.10267206281423569,-0.06457045674324036,-0.36049678921699524,0.2088986337184906,-0.42967233061790466,0.03581666201353073,-0.019073866307735443,-0.23976962268352509,0.19155429303646088,0.012381241656839848,0.19520273804664612,-0.23513032495975494,0.05499012768268585,-0.10346624255180359,-0.12493228912353516,0.015830865129828453,0.18617883324623108,-0.33947351574897766,0.07774817943572998,-0.08914908766746521,0.1463254690170288,0.014377848245203495,0.24318775534629822,-0.042722079902887344,-0.34322497248649597,-0.28139492869377136,-0.16972218453884125,-0.15001191198825836,-0.23143157362937927,-0.04345640912652016,-0.13517963886260986,0.028681587427854538],[-0.255826860666275,0.05524435639381409,-0.05339273810386658,0.14439697563648224,0.047947127372026443,0.06256420165300369,0.17437510192394257,0.06693760305643082,-0.11810027807950974,-0.14055457711219788,0.21099767088890076,-0.3071976900100708,-0.20570191740989685,-0.03294919803738594,0.055590078234672546,0.43049630522727966,0.28956013917922974,-0.006765845697373152,-0.09302616864442825,0.00032695053960196674,0.4953586161136627,0.07911144942045212,-0.1525060087442398,0.02859511785209179,0.23977552354335785,0.15672869980335236,-0.15494556725025177,0.27877873182296753,-0.057006724178791046,-0.009949801489710808,-0.0715148076415062,-0.08759752660989761,0.14548876881599426,-0.24869154393672943,0.32939985394477844,-0.196247860789299,-0.19150172173976898,-0.19851720333099365,-0.06759076565504074,0.14286519587039948,0.02991429530084133,-0.3753637671470642,-0.4479510188102722,-0.09745495021343231,-0.3779185712337494,-0.08175194263458252,-0.20525701344013214,-0.012323989532887936,-0.016125617548823357,0.28102725744247437,-0.0933087170124054,-0.1370079666376114,0.19627434015274048,-0.12246103584766388,0.22038643062114716,-0.13183574378490448,-0.11358703672885895,0.113721564412117,-0.14058327674865723,0.052238427102565765,-0.22724539041519165,0.36239272356033325,0.17810368537902832,-0.3869474232196808,0.2194923758506775,-0.2061595767736435,-0.08864188194274902,-0.16390319168567657,-0.07433665543794632,0.06267629563808441,-0.17235423624515533,-0.16623780131340027,-0.036748867481946945,-0.10590840131044388,-0.005770106799900532,-0.20362553000450134,0.13485494256019592,-0.14124569296836853,-0.23188191652297974,-0.1797478199005127,0.257450133562088,0.27669763565063477,-0.5245099663734436,-0.21252493560314178,-0.4016609489917755,0.061644621193408966,-0.030816946178674698,0.03844985365867615,-0.035895418375730515,-0.030848434194922447,-0.4127647578716278,-0.1932373344898224,-0.18882973492145538,-0.33299490809440613,-0.16618332266807556,-0.19740083813667297,-0.16181622445583344,-0.06467155367136002,0.11588451266288757,-0.03903854638338089,-0.15557962656021118,0.18267551064491272,-0.22529608011245728,0.15430274605751038,-0.00008038158557610586,0.012392801232635975,0.1474745124578476,0.04937819018959999,0.06372871994972229,-0.2873147428035736,0.043632786720991135,0.03543813154101372,-0.12155503779649734,0.14779599010944366,-0.13200736045837402,-0.05745440721511841,-0.2248641401529312,-0.183310404419899,0.3287826478481293,0.48394036293029785,0.21378260850906372,-0.03423682600259781,0.062038592994213104,-0.053876228630542755,0.19855576753616333,-0.17902915179729462,0.3236134350299835,0.039639703929424286,0.06455879658460617,-0.11912546306848526,-0.34992197155952454,-0.03220939263701439,0.24049268662929535,-0.34166523814201355,0.3348318934440613,-0.5023342967033386,0.20126433670520782,-0.19612158834934235,-0.27804306149482727,0.010139446705579758,-0.24427716434001923,0.1415734887123108,-0.006222591735422611,-0.0925859659910202,-0.12316200137138367,-0.21270248293876648,-0.02578519470989704,0.266397088766098,0.015501840971410275,-0.13332991302013397,-0.11924353986978531,-0.43402692675590515,0.17223042249679565,-0.07932694256305695,0.0281935166567564,-0.027588210999965668,-0.10725352168083191,0.02146405540406704,0.22820691764354706,0.23945733904838562,-0.13750283420085907,-0.04884937405586243,0.09762568026781082,0.10245794802904129,0.19780197739601135,-0.35153329372406006,-0.1393027901649475,-0.020870422944426537,-0.012891731224954128,-0.011182363145053387,-0.14256417751312256,0.24891412258148193,-0.360012412071228,0.08340450376272202,-0.1285363882780075,0.05099207162857056,-0.19786123931407928,0.10829650610685349,-0.15263579785823822,-0.050154659897089005,0.18563145399093628,-0.03694953769445419,0.0875173807144165,0.1235552579164505,0.10838284343481064,0.06686743348836899,-0.04237675294280052,0.10459493845701218,0.14081212878227234,0.18097400665283203,-0.03600384294986725,-0.22523212432861328,0.30441972613334656,0.3577653169631958,-0.02704498916864395,0.013820372521877289,-0.2042529135942459,-0.17422418296337128,-0.1929759532213211,-0.007661656476557255,-0.099706269800663,-0.2913680672645569,-0.19002948701381683,-0.2765467166900635,0.034125808626413345,-0.13235071301460266,-0.16434739530086517,-0.1764734536409378,-0.2661396861076355,0.15804845094680786,-0.07338113337755203,-0.05927300453186035,0.2615589499473572,-0.029186589643359184,-0.006682103034108877,-0.2163591831922531,0.15827453136444092,-0.4223654568195343,-0.041928019374608994,-0.19859375059604645,0.060067977756261826,-0.10997327417135239,-0.06525268405675888,-0.042521048337221146,0.2879241406917572,0.1397179663181305,0.03158232197165489,0.12803125381469727,0.16756372153759003,-0.08403659611940384,-0.3150857090950012,0.2802659869194031,-0.054040540009737015,0.029578328132629395,0.09610669314861298,-0.32462310791015625,0.342978835105896,-0.09431707859039307,-0.229528546333313,-0.04028354212641716,-0.23422788083553314,-0.05563558265566826,0.12870797514915466,-0.094301737844944,0.25305068492889404,-0.07341302186250687,0.18851839005947113,0.4083915650844574,0.11226888746023178,0.08897189050912857,-0.110856793820858,0.11749719083309174,-0.11749861389398575,-0.33006951212882996,-0.08893713355064392,0.17903122305870056],[-0.1917964071035385,-0.0872880220413208,-0.21916867792606354,-0.05994608253240585,-0.2520851492881775,-0.11551398038864136,-0.0069653638638556,-0.3315819799900055,-0.24276965856552124,-0.15825043618679047,0.07518480718135834,-0.12867854535579681,0.29890015721321106,-0.13795894384384155,-0.2669125199317932,0.02613029256463051,-0.1788768321275711,-0.3118746280670166,-0.21895161271095276,0.16809974610805511,-0.005317036062479019,0.15591806173324585,-0.18999013304710388,0.06696519255638123,-0.3646104633808136,0.23504523932933807,-0.1595267802476883,-0.07140947133302689,0.1559007614850998,0.055809907615184784,0.03669312596321106,-0.000712917244527489,-0.3433481752872467,-0.000297871301881969,-0.0372098833322525,-0.10544098168611526,-0.0864240750670433,0.12121184915304184,-0.31435951590538025,0.15273159742355347,-0.19378773868083954,-0.15089251101016998,-0.0552155002951622,-0.08364471793174744,0.29624930024147034,-0.2053210437297821,0.06738617271184921,-0.20275652408599854,-0.17778311669826508,-0.29437148571014404,-0.13163967430591583,-0.11596178263425827,0.020619701594114304,-0.027001336216926575,-0.28518757224082947,-0.010334236547350883,-0.3307856023311615,0.013669949024915695,-0.2617718577384949,-0.001065785065293312,0.39789170026779175,0.1588900089263916,0.213188037276268,-0.03108176775276661,0.340641051530838,-0.05132071301341057,0.1089307889342308,0.007077147718518972,-0.08203162997961044,0.1411629319190979,-0.413431316614151,-0.434207946062088,0.06819859892129898,0.3649008572101593,-0.011993959546089172,0.1400735080242157,0.3673150837421417,0.3377026617527008,-0.27740469574928284,0.05309851095080376,0.14227260649204254,0.08225010335445404,0.09774284064769745,0.006286191754043102,0.11769288778305054,-0.1929180771112442,0.18726098537445068,-0.16018448770046234,0.09681163728237152,-0.10146390646696091,-0.025532890111207962,-0.23501458764076233,-0.1318041831254959,-0.015761539340019226,0.19555209577083588,0.1780097335577011,-0.09891220182180405,0.15799397230148315,-0.22264359891414642,0.009667791426181793,-0.0736861601471901,0.17882560193538666,-0.1103457435965538,-0.07443813234567642,0.053842801600694656,0.1631350815296173,0.2773768901824951,0.10301662981510162,-0.30872830748558044,0.11647160351276398,0.00425950950011611,0.055722273886203766,-0.06907939910888672,-0.34657278656959534,-0.1983921378850937,0.024850718677043915,-0.03733895719051361,-0.08044388145208359,0.07817329466342926,-0.25062087178230286,-0.16220563650131226,-0.17508535087108612,0.2815625071525574,0.024819156154990196,-0.0938812717795372,-0.08804129809141159,-0.10071328282356262,-0.020246952772140503,0.2607051730155945,-0.042932309210300446,0.0041406420059502125,0.18025875091552734,0.38230323791503906,-0.2583118975162506,0.011340155266225338,-0.08039730787277222,0.05795137584209442,-0.3426487445831299,-0.15725956857204437,-0.08701770007610321,-0.029259199276566505,-0.12515026330947876,0.08708151429891586,-0.17508350312709808,0.006996413227170706,-0.10485181957483292,0.12582314014434814,-0.3819730877876282,0.2977723181247711,0.01264524832367897,-0.055840350687503815,-0.6319051384925842,-0.2508235275745392,0.09093467891216278,0.1796409636735916,-0.272869735956192,0.25983259081840515,-0.3099832534790039,0.13308903574943542,-0.11632329225540161,0.06855694204568863,0.021734770387411118,-0.054653871804475784,0.3463006019592285,0.19697199761867523,-0.4222774803638458,0.14418748021125793,-0.10812250524759293,0.04631335660815239,-0.2457304298877716,0.10933239758014679,0.24941371381282806,-0.25013434886932373,0.010693184100091457,0.16649718582630157,-0.23628073930740356,-0.12685488164424896,-0.23257863521575928,-0.04971197620034218,-0.08059794455766678,0.17144182324409485,-0.12592121958732605,-0.04939800873398781,0.28723353147506714,-0.18706685304641724,0.03314938768744469,0.007882959209382534,-0.1669861227273941,0.017482701689004898,-0.02644479088485241,0.28914859890937805,-0.05420931428670883,0.1563667207956314,0.17281578481197357,-0.30580538511276245,0.17663182318210602,0.06115864962339401,-0.13414016366004944,-0.29297196865081787,-0.05017175152897835,-0.06178414821624756,-0.19240917265415192,0.0636422336101532,0.005635987967252731,0.012303474359214306,-0.04374602809548378,-0.06146128103137016,0.17441421747207642,0.17283658683300018,0.07489019632339478,0.13309620320796967,0.14502237737178802,-0.05302084609866142,0.03155970945954323,0.046036213636398315,-0.16585171222686768,0.06306128203868866,-0.18667368590831757,0.0019881059415638447,-0.0677637904882431,-0.04574846848845482,-0.15046662092208862,-0.05544935539364815,0.14569243788719177,0.040030013769865036,0.18697696924209595,0.0827786922454834,-0.27888932824134827,-0.2560081481933594,-0.07788436114788055,-0.01936088688671589,-0.1941448599100113,0.1654760092496872,-0.04891098290681839,-0.11567914485931396,-0.1425044685602188,-0.28098854422569275,0.21948924660682678,0.012829614803195,0.09001065790653229,-0.2064702808856964,-0.04404355213046074,-0.07949923723936081,-0.1991366147994995,-0.09633508324623108,-0.14852002263069153,-0.06990230828523636,-0.23652486503124237,-0.21249248087406158,0.08686162531375885,-0.34007683396339417,0.09833404421806335,0.04444323852658272,-0.1690646857023239,0.4196988344192505,-0.1930999755859375],[0.24404776096343994,0.08017799258232117,0.1766280233860016,-0.2530415654182434,0.0411531925201416,0.01511080376803875,-0.31582510471343994,0.12518076598644257,-0.023187531158328056,-0.1699555218219757,0.10692612826824188,0.10185696929693222,0.20418572425842285,0.11914468556642532,-0.3400562107563019,-0.19461014866828918,0.014722585678100586,-0.41218042373657227,-0.07757078111171722,-0.547281801700592,0.18483512103557587,0.05549539625644684,0.13451871275901794,-0.4422879219055176,-0.23361307382583618,-0.1318795382976532,-0.28007715940475464,0.04919041693210602,0.30070871114730835,-0.12294632196426392,-0.22264674305915833,-0.18035972118377686,0.24591495096683502,0.039581701159477234,-0.1846875250339508,0.19935277104377747,-0.25693267583847046,-0.13512520492076874,-0.12286805361509323,0.04253820702433586,-0.1363014578819275,0.214866042137146,-0.17285902798175812,0.09478096663951874,0.20327837765216827,0.06683298200368881,-0.010994231328368187,-0.0558866485953331,0.28288882970809937,-0.10433587431907654,-0.17923800647258759,-0.21313096582889557,-0.1779457926750183,0.028242506086826324,0.013685430400073528,0.028120514005422592,-0.298350989818573,-0.15245585143566132,0.36137688159942627,-0.05615318939089775,0.13616135716438293,-0.24324467778205872,-0.25973784923553467,-0.16232377290725708,-0.12055839598178864,-0.0388520173728466,0.237213134765625,-0.02911978028714657,-0.26188090443611145,-0.09953570365905762,-0.31863901019096375,-0.3556100130081177,-0.17977987229824066,0.0476820133626461,-0.04626651108264923,0.022415658459067345,-0.02137177810072899,0.171206533908844,0.12802563607692719,0.11658186465501785,-0.013413653708994389,0.007571662776172161,0.20194011926651,0.05378120392560959,-0.09209882467985153,-0.0907103568315506,0.032752133905887604,0.07733450084924698,-0.04316706582903862,0.24029144644737244,-0.141303151845932,0.14697623252868652,-0.0911388024687767,-0.07564739137887955,0.24967321753501892,-0.4402657151222229,0.023783767595887184,0.13114222884178162,-0.07323073595762253,-0.1620599925518036,0.046259380877017975,-0.034726474434137344,-0.10302876681089401,0.11473208665847778,0.20060646533966064,-0.3853183388710022,-0.1654231995344162,0.07028911262750626,-0.004102583043277264,-0.13839639723300934,-0.2971538305282593,-0.23939992487430573,-0.3816452920436859,0.0826512947678566,-0.1979057490825653,-0.08254708349704742,-0.12347126007080078,0.12049911171197891,-0.1729142963886261,0.08378361165523529,0.006422918755561113,0.2876720428466797,-0.10793919116258621,-0.09925001859664917,0.23042120039463043,0.00855350773781538,-0.11614973843097687,-0.15969543159008026,-0.43389490246772766,-0.20998746156692505,-0.2045733630657196,-0.23028907179832458,-0.4157247245311737,0.13002678751945496,0.1741749346256256,-0.2761087715625763,-0.3166285455226898,0.0369117371737957,-0.021706003695726395,-0.4145061671733856,0.007925601676106453,0.05237981677055359,0.0078476183116436,-0.15471620857715607,0.04674476385116577,0.2732578217983246,-0.14620815217494965,0.019264739006757736,-0.1904269903898239,0.14135925471782684,0.1493743658065796,-0.525127112865448,0.0802764743566513,0.14438578486442566,-0.09863545000553131,-0.0030488474294543266,0.10597939789295197,0.36209580302238464,0.03710822016000748,-0.20568542182445526,0.09821675717830658,-0.027834845706820488,-0.2707185745239258,-0.10361361503601074,0.13790975511074066,0.20489586889743805,-0.07453928142786026,0.032398052513599396,-0.1763797253370285,-0.26972776651382446,-0.272907018661499,-0.09151679277420044,0.01794014312326908,0.036349326372146606,0.09949465841054916,-0.12086443603038788,-0.09458169341087341,0.07468532025814056,-0.007626367267221212,-0.06367529928684235,-0.23411403596401215,0.13271087408065796,-0.12753400206565857,-0.06569518148899078,-0.19614262878894806,0.0019067851826548576,-0.026088319718837738,0.061424147337675095,0.027034172788262367,0.12027227133512497,0.160901740193367,-0.0021549630910158157,-0.1882462054491043,-0.32926398515701294,-0.1847495585680008,0.022941432893276215,-0.24746011197566986,0.11403372138738632,0.1365983784198761,-0.045527614653110504,-0.2245211899280548,-0.01546206884086132,0.01210072822868824,-0.14717800915241241,-0.396669864654541,-0.16401605308055878,-0.0621580071747303,-0.1351647824048996,0.11477396637201309,-0.1877468377351761,0.26864543557167053,-0.4475606381893158,0.11799323558807373,0.09065768122673035,0.08279597759246826,-0.09934891760349274,-0.32241323590278625,0.20831075310707092,-0.10776066035032272,-0.2897239029407501,-0.25175222754478455,-0.07518608868122101,-0.03530716150999069,-0.12503577768802643,-0.08512184768915176,-0.23209510743618011,0.03571983054280281,-0.11810222268104553,0.10719002783298492,0.23406705260276794,-0.025094350799918175,-0.19181038439273834,-0.2047460675239563,0.016054419800639153,0.16891807317733765,-0.30602720379829407,0.2570599615573883,0.043990157544612885,0.0642111599445343,-0.09902700781822205,-0.16670644283294678,-0.15866486728191376,-0.1121952012181282,-0.2235160917043686,0.04753172770142555,-0.24627909064292908,0.014709487557411194,-0.13504387438297272,0.06388473510742188,-0.03919794410467148,-0.03946828842163086,0.2028663605451584,0.1398158073425293,-0.07430915534496307,0.2947683036327362,-0.0118483267724514],[-0.2531111240386963,-0.0146767133846879,-0.05010105296969414,-0.1693587303161621,0.11929761618375778,-0.16844485700130463,-0.07215724140405655,-0.1382664442062378,-0.021629946306347847,0.0698615089058876,-0.20726759731769562,0.061559755355119705,-0.15338484942913055,-0.22648607194423676,0.11137503385543823,-0.2623247802257538,-0.29797568917274475,0.08302252739667892,-0.15010447800159454,0.003567301668226719,-0.39240938425064087,-0.18754459917545319,-0.4704825282096863,-0.0380316898226738,-0.03258441016077995,-0.0788961872458458,0.2560238838195801,-0.0657043308019638,-0.18185776472091675,-0.20266373455524445,0.11419608443975449,0.16023369133472443,0.023999614641070366,-0.10224298387765884,-0.286246657371521,0.024694176390767097,-0.3029574155807495,-0.09399343281984329,-0.05127567797899246,-0.02320115827023983,0.07703699916601181,-0.23351146280765533,-0.10469017177820206,0.11500407010316849,-0.44116300344467163,-0.034302081912755966,-0.09813657402992249,-0.025126691907644272,-0.11815056949853897,-0.06519913673400879,-0.3159325122833252,-0.0733036920428276,-0.3293849527835846,0.1567067801952362,-0.717189371585846,-0.3295040428638458,0.00046666120761074126,-0.021379711106419563,-0.37024158239364624,0.15638577938079834,0.13938984274864197,-0.09460993856191635,0.05346880108118057,-0.14968349039554596,0.06489136815071106,-0.10675131529569626,-0.25088512897491455,0.038054030388593674,0.08060267567634583,0.01890740916132927,-0.03974437341094017,-0.01340858917683363,-0.10891680419445038,0.1584322452545166,-0.1586027890443802,-0.21100041270256042,0.054908230900764465,-0.07364952564239502,-0.07321881502866745,0.11335308104753494,0.21000367403030396,0.005466429051011801,-0.3195019066333771,-0.2511095404624939,0.11003126204013824,0.08987651020288467,-0.1598949283361435,-0.10531724244356155,-0.09385521709918976,-0.1828380525112152,0.24684856832027435,0.0018646635580807924,-0.0914444699883461,-0.025431642308831215,-0.041444987058639526,-0.17312033474445343,0.0652928352355957,-0.027902033179998398,-0.15295939147472382,-0.2404526323080063,-0.27081847190856934,0.14137044548988342,-0.11303623765707016,-0.07870254665613174,-0.08170422166585922,-0.09261589497327805,-0.09222520142793655,-0.09330610930919647,0.01732376217842102,-0.18155597150325775,-0.11397243291139603,-0.31338489055633545,-0.28887033462524414,-0.2178780436515808,-0.08424314111471176,-0.07692267745733261,-0.04646248370409012,-0.15903112292289734,0.05373020097613335,0.2519085109233856,-0.28385311365127563,-0.3479865789413452,0.09998719394207001,-0.017088698223233223,0.07996798306703568,-0.15357477962970734,-0.228114515542984,-0.0423794686794281,-0.21628493070602417,-0.09093436598777771,0.05046252906322479,0.1217653900384903,-0.23029929399490356,-0.06344114989042282,0.062077511101961136,0.039313286542892456,0.12252286821603775,0.12814584374427795,-0.15771566331386566,0.38181349635124207,0.08203208446502686,-0.050837840884923935,0.0807165876030922,-0.05791888013482094,-0.11156705766916275,-0.010570607148110867,0.06818166375160217,-0.16758491098880768,-0.09214793145656586,-0.06227165833115578,-0.06756815314292908,0.007291436195373535,0.1519782841205597,0.15342310070991516,0.03599904850125313,-0.3040045201778412,0.1927911639213562,0.22009308636188507,0.04872534051537514,-0.05407705157995224,0.2390403151512146,-0.17348726093769073,-0.16581253707408905,0.2708149552345276,-0.035131312906742096,-0.30837568640708923,0.16394950449466705,0.1713394969701767,0.0270085446536541,-0.16456519067287445,-0.13096307218074799,0.103200264275074,-0.07533988356590271,0.10558713227510452,-0.2556164264678955,-0.062089890241622925,0.12565793097019196,0.026110734790563583,-0.0798666775226593,-0.14570637047290802,-0.0006400953279808164,-0.05607317015528679,-0.08866682648658752,0.172865629196167,-0.21633273363113403,-0.08092834800481796,-0.2952783703804016,0.20569725334644318,-0.3471510410308838,-0.015530730597674847,-0.10956346243619919,-0.2898240387439728,-0.2546333968639374,-0.24480189383029938,-0.2913081645965576,-0.10351046919822693,0.017017437145113945,0.25436729192733765,0.09640833735466003,0.011196056380867958,0.024936310946941376,0.03654693067073822,-0.22954092919826508,-0.13259300589561462,-0.22467464208602905,-0.039485104382038116,0.040398307144641876,0.007993459701538086,-0.13410384953022003,0.12708930671215057,-0.047712292522192,0.0029300102032721043,0.04953743889927864,-0.2213800549507141,0.24077148735523224,-0.2896581292152405,-0.07682722806930542,-0.01453491486608982,-0.03022427298128605,-0.053608641028404236,0.10633455216884613,-0.22544024884700775,-0.4797452390193939,-0.06648244708776474,-0.272683322429657,-0.18875016272068024,-0.02579241618514061,-0.16561108827590942,-0.40866875648498535,0.13620197772979736,0.1089218482375145,0.2541496455669403,0.3435054421424866,-0.09403112530708313,0.09204238653182983,-0.13441026210784912,-0.2899014949798584,-0.06256482750177383,-0.0847783088684082,0.04826837033033371,-0.17158234119415283,-0.28510546684265137,0.2835022509098053,0.10732029378414154,-0.12315255403518677,-0.243244931101799,0.06168278306722641,-0.37652158737182617,0.33458393812179565,-0.019779950380325317,0.020598888397216797,-0.11327341198921204,-0.0011519136605784297,0.06601101905107498,-0.5145659446716309,-0.28276756405830383],[-0.14558619260787964,-0.011642917059361935,-0.021325653418898582,-0.033058322966098785,0.1863446682691574,0.16857127845287323,0.025032464414834976,0.0042806388810276985,-0.06200241297483444,-0.0651334896683693,0.14448443055152893,0.16405938565731049,-0.5742790102958679,0.012659527361392975,-0.025860531255602837,-0.021459130570292473,0.042330943048000336,-0.02710850164294243,0.20356464385986328,0.21945098042488098,0.06069808453321457,0.0844806581735611,-0.30484738945961,-0.21439562737941742,-0.04067005217075348,-0.3026304841041565,-0.13512597978115082,0.19489680230617523,-0.31535622477531433,-0.19056706130504608,-0.010273277759552002,0.12825053930282593,0.07382787764072418,0.10161010175943375,-0.04338205233216286,0.05479740723967552,-0.10196138918399811,-0.23093582689762115,-0.07721295207738876,-0.0728520080447197,-0.0828779935836792,0.057377010583877563,0.279386043548584,-0.26614564657211304,-0.08710078150033951,-0.026652654632925987,0.07756013423204422,0.10197175294160843,-0.14331671595573425,-0.04724596440792084,-0.021351482719182968,-0.29857343435287476,0.15313789248466492,-0.06735681742429733,0.05461493507027626,0.35400474071502686,0.4404989778995514,0.07515435665845871,-0.19331461191177368,-0.06728622317314148,-0.2471579760313034,-0.11022471636533737,-0.06044238060712814,-0.10414604842662811,-0.20023800432682037,0.18718303740024567,-0.22224116325378418,-0.19106712937355042,0.01722215674817562,0.1962086409330368,0.07736586034297943,-0.07548001408576965,0.11947967112064362,0.035334262996912,0.1503113955259323,-0.007581188343465328,0.027948696166276932,-0.388718843460083,0.12461664527654648,0.1449192315340042,0.02225234918296337,0.14897525310516357,-0.29468899965286255,-0.05214289203286171,-0.12018311023712158,0.20927205681800842,-0.0588151216506958,-0.18594077229499817,-0.08587165176868439,0.08468859642744064,-0.14782407879829407,0.002022502012550831,0.1981981098651886,-0.09352684766054153,-0.022693274542689323,0.1258547008037567,-0.04311281442642212,0.09322400391101837,-0.056815724819898605,0.15072470903396606,0.031002409756183624,0.12405334413051605,0.07101073116064072,-0.2842337191104889,0.34339067339897156,-0.15733522176742554,-0.025813069194555283,-0.20308642089366913,0.1615244448184967,-0.2598491609096527,-0.017717644572257996,-0.046332862228155136,-0.30764704942703247,-0.2634299099445343,0.24965643882751465,-0.17757494747638702,0.03907904773950577,-0.07185645401477814,0.060482148081064224,0.10706105828285217,0.04624955728650093,0.009533064439892769,0.39849647879600525,0.15147356688976288,0.01385076530277729,0.05877212435007095,-0.473605215549469,-0.10043910890817642,-0.2775138318538666,0.07978145778179169,0.18165646493434906,-0.06884554773569107,-0.2904985845088959,0.1299809217453003,0.1078401431441307,0.21338790655136108,-0.043816227465867996,-0.32392385601997375,0.026149502024054527,0.24618415534496307,-0.042977020144462585,-0.13380803167819977,-0.2414826601743698,-0.07385897636413574,0.15357543528079987,-0.10051983594894409,0.25943225622177124,0.08112649619579315,-0.1854124814271927,-0.311987966299057,-0.23889757692813873,0.0645718052983284,-0.4890960156917572,-0.04072030633687973,-0.012849869206547737,-0.08292780816555023,-0.12086296081542969,0.12678003311157227,0.1733711212873459,0.29612547159194946,0.027244575321674347,-0.24707069993019104,0.008409835398197174,-0.37738364934921265,-0.18666377663612366,-0.23329424858093262,0.09438423067331314,-0.24037335813045502,0.041531771421432495,0.06366865336894989,-0.1292564570903778,-0.061654362827539444,0.04447568580508232,-0.034608714282512665,0.3848457336425781,-0.047006167471408844,-0.3031124770641327,-0.20141123235225677,-0.19345909357070923,0.029246073216199875,0.0384548120200634,0.23291273415088654,0.014632671140134335,-0.028271231800317764,0.005583510268479586,0.2783863842487335,0.06431593000888824,-0.07463065534830093,0.13922959566116333,0.057783275842666626,-0.2903766632080078,-0.018961921334266663,-0.13453853130340576,-0.15730607509613037,0.07922820001840591,-0.09100765734910965,-0.11517897993326187,-0.051249146461486816,-0.27272388339042664,-0.10053616762161255,0.011010234244167805,0.045954443514347076,0.13802677392959595,0.24437092244625092,0.07613082975149155,-0.012235350906848907,0.011770680546760559,-0.184808149933815,-0.29030585289001465,-0.15128721296787262,-0.24353525042533875,-0.3057146966457367,0.2051546573638916,0.2646569013595581,-0.03590803220868111,0.040035516023635864,-0.044056642800569534,0.016608571633696556,0.14012692868709564,0.04545146971940994,0.18495941162109375,-0.09607931226491928,0.2225126326084137,0.026720808818936348,-0.16404037177562714,0.36980628967285156,0.060697320848703384,0.062269456684589386,-0.10226164013147354,0.012836449779570103,0.4168911874294281,-0.06858307868242264,-0.34548240900039673,-0.3653349280357361,-0.40492454171180725,0.14151960611343384,-0.14172545075416565,-0.12004075199365616,-0.42191076278686523,-0.23454563319683075,-0.21919430792331696,0.1075541228055954,-0.5640812516212463,-0.09935638308525085,0.04638024419546127,-0.06055382639169693,0.09792108833789825,-0.22690074145793915,0.05659789219498634,-0.034026097506284714,-0.29509854316711426,0.05885075032711029,-0.13523830473423004,-0.0841807872056961,-0.4974631369113922,-0.02723078615963459],[-0.13067497313022614,-0.2913919985294342,0.0008687837980687618,-0.2748342752456665,-0.18652138113975525,-0.17085392773151398,-0.06424707174301147,-0.3031894266605377,0.023739619180560112,0.05300218611955643,0.013065580278635025,0.05269729346036911,-0.013052834197878838,0.2614682912826538,0.16099855303764343,0.013202887028455734,-0.1417623907327652,0.05695251747965813,-0.2133301943540573,-0.09561587870121002,-0.09423153102397919,-0.05791258439421654,0.06364279240369797,-0.06224783882498741,0.184606671333313,-0.33724433183670044,-0.2110886126756668,-0.18932856619358063,-0.006283706985414028,0.3285801112651825,-0.0744723454117775,-0.4275891184806824,-0.033463407307863235,-0.14935456216335297,-0.23955148458480835,-0.146454855799675,-0.06444986164569855,-0.10850316286087036,0.11911377310752869,0.07515254616737366,-0.2935478389263153,-0.09537925571203232,-0.03609500825405121,-0.10548791289329529,-0.15713344514369965,-0.16098493337631226,-0.09674776345491409,0.19035746157169342,-0.19139060378074646,0.13192132115364075,0.06875590980052948,-0.23459020256996155,0.043977849185466766,-0.2446282058954239,0.08944471180438995,-0.0386270172894001,-0.12520831823349,0.09826161712408066,0.062487728893756866,-0.12846127152442932,-0.0027871071361005306,-0.03680180013179779,-0.053910501301288605,0.09635823220014572,0.14349940419197083,-0.24146084487438202,-0.06729599088430405,0.1479024589061737,-0.1479330211877823,-0.21425588428974152,-0.2378854751586914,-0.15787459909915924,-0.37271738052368164,0.10848788172006607,-0.5430783033370972,-0.4700787365436554,0.17038895189762115,-0.16497698426246643,-0.03265096992254257,0.07849662005901337,-0.012133665382862091,-0.25089675188064575,0.06961847096681595,0.15893064439296722,-0.140574112534523,-0.19646307826042175,0.058945432305336,-0.013936420902609825,-0.23661956191062927,-0.2447725087404251,-0.08104775846004486,0.03599253296852112,-0.1352643072605133,-0.027950923889875412,-0.3734627068042755,-0.3335402011871338,-0.22127830982208252,0.1922251582145691,0.06524575501680374,0.08027199655771255,-0.17591746151447296,-0.08119476586580276,-0.14255961775779724,0.1524513065814972,0.03903554379940033,-0.16355310380458832,-0.1539510041475296,-0.1948564201593399,0.081657774746418,-0.18173131346702576,-0.11273573338985443,-0.34938204288482666,-0.12919151782989502,0.05021347850561142,-0.026940613985061646,-0.01014063972979784,0.2917369604110718,-0.4160098731517792,0.11868078261613846,-0.5642648935317993,-0.01103347446769476,0.029754213988780975,-0.3299201726913452,-0.4097258746623993,-0.13109846413135529,-0.1891571283340454,-0.17139649391174316,0.13142508268356323,0.05816769227385521,-0.3830849230289459,0.20511722564697266,0.17122620344161987,-0.2892528772354126,0.03636668995022774,0.09889621287584305,-0.10895692557096481,0.021473491564393044,0.15999165177345276,0.09179221093654633,-0.19449679553508759,-0.08097968250513077,-0.05222456902265549,-0.10039229691028595,-0.08461209386587143,-0.18898522853851318,-0.14442837238311768,0.15101037919521332,-0.32467469573020935,0.0025219800882041454,-0.4956231117248535,0.10881757736206055,0.04014137014746666,0.14210563898086548,-0.012816408649086952,-0.15516333281993866,-0.11250869929790497,0.20279839634895325,0.08680332452058792,0.10108035057783127,-0.18398739397525787,0.04609845578670502,0.12733910977840424,0.21316657960414886,-0.20801953971385956,-0.0013781823217868805,-0.17815423011779785,0.13619683682918549,-0.22957968711853027,0.12755915522575378,0.2562192380428314,-0.2534520626068115,-0.29587388038635254,0.2985824644565582,0.1844492107629776,-0.12595951557159424,-0.004291872959583998,-0.24808789789676666,0.1319236159324646,-0.1521691381931305,0.058908987790346146,-0.08474504947662354,0.08247401565313339,0.11363258212804794,0.15669693052768707,-0.06168268620967865,0.18199540674686432,0.19405075907707214,-0.03373798355460167,-0.061230968683958054,-0.05336781591176987,-0.07220123708248138,-0.3099064230918884,0.004282235633581877,0.07658164203166962,0.2602238059043884,-0.083876833319664,0.24642835557460785,0.09005807340145111,-0.0759766474366188,-0.05929545313119888,-0.12041456997394562,-0.20454201102256775,-0.06002157926559448,-0.305469810962677,0.26067861914634705,0.06136840581893921,-0.1712256222963333,-0.058794617652893066,0.11206021904945374,-0.13961270451545715,-0.06048528105020523,-0.09368841350078583,0.02358355186879635,-0.3722633123397827,-0.06046290323138237,-0.09615400433540344,0.12568025290966034,0.012060103006660938,0.0002964787418022752,0.09494203329086304,-0.38382795453071594,0.000672577356453985,-0.24461279809474945,-0.15828187763690948,-0.39754876494407654,0.05720261111855507,-0.13434264063835144,-0.05132324621081352,0.015304830856621265,-0.24749894440174103,-0.010583091527223587,0.002999264746904373,-0.05069000646471977,0.3269760012626648,0.05153333768248558,-0.178494393825531,0.1964716613292694,-0.2236490249633789,0.13067235052585602,0.009652405977249146,-0.26756995916366577,0.012019452638924122,-0.0487387515604496,-0.06542711704969406,-0.45982229709625244,-0.08681068569421768,-0.023134399205446243,-0.04500550031661987,-0.2177690714597702,-0.3303006887435913,-0.2423734813928604,-0.19023899734020233,0.14085038006305695,-0.10994856804609299,-0.18700580298900604,0.09450055658817291],[0.3069119155406952,0.02680300362408161,0.20830334722995758,0.04905940964818001,-0.2645692527294159,-0.12141486257314682,0.18638283014297485,0.09648136794567108,-0.13665540516376495,0.07551833242177963,0.018836824223399162,0.01814098097383976,-0.1891506314277649,0.1942693144083023,-0.35529977083206177,-0.1119830533862114,-0.31387820839881897,0.14824363589286804,-0.10462716221809387,-0.14108486473560333,0.19417038559913635,-0.09241548925638199,0.0690981075167656,0.002498749876394868,0.21151919662952423,-0.19159641861915588,-0.5222254991531372,-0.1148715689778328,0.05452378839254379,0.06373558938503265,0.048840541392564774,-0.1339278668165207,-0.11177525669336319,-0.08317191153764725,-0.03442037105560303,0.12971602380275726,-0.00416001258417964,-0.2499866932630539,0.12380342185497284,0.13855072855949402,-0.16438762843608856,0.14786750078201294,-0.2741852402687073,0.12209120392799377,0.20267699658870697,0.11260975897312164,0.06515546888113022,0.19169946014881134,-0.1526641696691513,-0.24759428203105927,-0.35750073194503784,0.15842194855213165,-0.3074892461299896,-0.382832407951355,-0.03469268977642059,-0.21341076493263245,-0.289194256067276,-0.16347351670265198,-0.22379517555236816,-0.28117239475250244,0.17913447320461273,-0.11992374062538147,-0.03946308791637421,0.1230091080069542,0.10040099173784256,0.026952486485242844,-0.24461495876312256,0.08593472093343735,0.11259198188781738,-0.05134206637740135,0.056386467069387436,-0.03884916752576828,0.19221578538417816,-0.3952982723712921,0.15063874423503876,-0.02437085099518299,-0.22269155085086823,0.008778099901974201,-0.06343372166156769,0.2008715122938156,-0.2128087878227234,0.03343285247683525,0.10654851049184799,0.08714207261800766,0.07212840020656586,0.08108598738908768,0.10588739812374115,-0.011547556146979332,-0.010678509250283241,0.1776222139596939,0.1287795901298523,-0.2889186441898346,0.0268584992736578,-0.1433609277009964,0.19484835863113403,0.0018004679586738348,-0.13094952702522278,0.06580238044261932,0.40797150135040283,0.3245292901992798,0.03159540519118309,0.005724370013922453,0.3205711245536804,-0.10704009234905243,0.03487147018313408,-0.24315465986728668,-0.14193950593471527,0.17362447082996368,-0.05221061408519745,0.20994922518730164,-0.15552987158298492,0.1662575602531433,-0.24681439995765686,-0.10348188877105713,-0.12315310537815094,-0.17283403873443604,-0.3416474163532257,0.07140576094388962,-0.08838394284248352,-0.07075877487659454,0.042046189308166504,0.10651429742574692,0.0023077346850186586,0.16466587781906128,-0.3998000919818878,-0.02258826047182083,0.050071291625499725,-0.24598567187786102,0.041918352246284485,-0.2657029330730438,-0.19100838899612427,-0.12485097348690033,-0.15032212436199188,0.044197678565979004,-0.03874170780181885,-0.12836560606956482,-0.03085857443511486,-0.024560052901506424,0.1269247978925705,0.07198075205087662,-0.168657124042511,-0.23973149061203003,0.0016270899213850498,0.07960501313209534,-0.15106965601444244,0.05304380878806114,-0.11967430263757706,0.34871575236320496,-0.2297729104757309,0.009939433075487614,0.2578781247138977,0.011579126119613647,-0.15374399721622467,-0.01308199018239975,0.22977152466773987,0.046309493482112885,0.27429068088531494,-0.06539712846279144,-0.02487732656300068,0.09699086844921112,0.012264876626431942,-0.07258947193622589,0.09301090240478516,0.2824317514896393,0.20737120509147644,0.07242129743099213,-0.18209703266620636,0.20035725831985474,-0.08315238356590271,0.01823200099170208,0.11717482656240463,0.3622394800186157,0.13845022022724152,0.1895161271095276,0.11397940665483475,-0.05676767975091934,-0.005438333842903376,-0.09133089333772659,-0.015521879307925701,0.11287973821163177,-0.0717565193772316,-0.07257620245218277,0.21044449508190155,-0.2241944670677185,0.13083168864250183,-0.001424970687367022,-0.07790689170360565,-0.1978413462638855,0.1767948716878891,-0.0821060761809349,-0.07669519633054733,-0.003344002878293395,0.0947342962026596,-0.17145204544067383,0.046878039836883545,0.038257647305727005,-0.018143896013498306,0.027235304936766624,-0.2520836591720581,-0.17589376866817474,-0.1289575695991516,0.26743096113204956,-0.05768387392163277,0.07017922401428223,0.05505223944783211,0.14106586575508118,0.46918565034866333,0.028088033199310303,-0.050261009484529495,-0.17179453372955322,-0.22495368123054504,0.24270829558372498,-0.04952474683523178,-0.04563279449939728,-0.13415008783340454,0.1081734225153923,0.10886335372924805,-0.008829571306705475,0.030202683061361313,-0.3921522796154022,0.2200133204460144,0.2977980971336365,-0.2539018988609314,0.16789045929908752,0.08195747435092926,-0.06329560279846191,-0.04744700342416763,0.026561051607131958,-0.0779673159122467,0.09055355191230774,0.025108577683568,-0.030369125306606293,0.15344108641147614,0.06019751355051994,-0.06579335033893585,-0.14351943135261536,-0.10267697274684906,0.2502439022064209,-0.2839520573616028,-0.5104078054428101,-0.41872912645339966,0.24305546283721924,0.014318649657070637,-0.06502489000558853,0.13923510909080505,-0.09820783883333206,-0.1634180247783661,-0.32573240995407104,-0.4090048670768738,-0.20874062180519104,-0.27882060408592224,0.2409084141254425,-0.2180136889219284,-0.013113465160131454,0.28365054726600647,0.29990720748901367],[0.1395031213760376,0.09361285716295242,0.10390955209732056,0.09018860012292862,-0.12316272407770157,0.029617751017212868,0.264335572719574,-0.1973610818386078,-0.2602340579032898,0.26906952261924744,-0.1793544441461563,0.06305036693811417,0.05096125230193138,0.16564972698688507,-0.10570768266916275,0.15776662528514862,0.10766927152872086,0.007612287998199463,-0.15783537924289703,-0.010446522384881973,0.20364010334014893,-0.0501045361161232,0.3530150055885315,0.15630513429641724,0.2711489200592041,0.1401648074388504,0.14345316588878632,-0.19534793496131897,-0.2759580910205841,-0.19387286901474,0.09239588677883148,0.23386403918266296,0.016750145703554153,-0.2898908257484436,-0.0862206369638443,0.0779995247721672,0.09822575002908707,-0.07296186685562134,-0.08113939315080643,0.02257515676319599,0.1884031444787979,-0.18473517894744873,0.09700106084346771,-0.07733651995658875,-0.15654772520065308,-0.041974373161792755,-0.2459733635187149,-0.27721264958381653,-0.13184282183647156,0.06686229258775711,-0.07964876294136047,0.054906345903873444,-0.20287758111953735,-0.062439218163490295,-0.07286854833364487,0.0020647060591727495,-0.18575534224510193,-0.13251344859600067,0.053228847682476044,-0.22491998970508575,0.09507211297750473,-0.20349746942520142,-0.17067331075668335,0.21720021963119507,-0.18573617935180664,-0.12427503615617752,0.09939716011285782,-0.09793031960725784,0.2285657674074173,-0.16789378225803375,0.16300010681152344,-0.03961506485939026,-0.02432537078857422,-0.35597655177116394,0.04038873314857483,0.4092811048030853,-0.04473579674959183,0.09211227297782898,-0.20861530303955078,0.29890379309654236,0.058794163167476654,-0.11853085458278656,0.07302410900592804,-0.36404159665107727,0.03658192232251167,-0.043182022869586945,-0.1748127043247223,-0.04549940302968025,0.046202585101127625,-0.2162036895751953,0.197086364030838,-0.004565289709717035,-0.11513099074363708,-0.2816058099269867,-0.32346099615097046,0.16963544487953186,0.04188711196184158,0.04532235115766525,-0.18863636255264282,-0.14792099595069885,-0.010018494911491871,-0.2573208510875702,0.11937350779771805,-0.03965398669242859,0.1644277423620224,-0.01475161500275135,0.05887110158801079,-0.2996331453323364,0.1025853231549263,-0.18699750304222107,0.4076070487499237,0.09013679623603821,-0.22132162749767303,0.07910574227571487,0.12468269467353821,-0.27592360973358154,0.06553197652101517,-0.21298757195472717,-0.06120666116476059,0.009182590059936047,-0.2756064534187317,0.2222905457019806,0.09522228688001633,-0.001324099488556385,-0.05395563691854477,0.16668863594532013,0.12604296207427979,0.13261449337005615,-0.31501930952072144,0.16198787093162537,0.17333664000034332,-0.13713306188583374,-0.2681400179862976,0.09425873309373856,0.13104093074798584,0.13521428406238556,0.01833399198949337,-0.004073688760399818,0.07228788733482361,-0.26481541991233826,0.10014863312244415,-0.010563133284449577,-0.3158191740512848,0.26415881514549255,0.007103838957846165,-0.20207947492599487,-0.040120720863342285,0.27688437700271606,-0.1800110787153244,0.016441436484456062,0.05609177425503731,0.23427551984786987,0.04442369192838669,0.12843383848667145,0.01344358455389738,0.03228158503770828,-0.09670773148536682,0.12592151761054993,0.10226291418075562,-0.2728535532951355,0.3676094114780426,0.141568124294281,0.09883850812911987,0.033999912440776825,-0.09764517843723297,0.015504298731684685,-0.1692052036523819,0.15090979635715485,-0.2179492861032486,-0.4333294630050659,0.2853240370750427,-0.0915401354432106,0.14338035881519318,-0.043931473046541214,0.23736047744750977,-0.044776637107133865,-0.42884042859077454,-0.1102505624294281,-0.043210677802562714,0.34512147307395935,0.18797557055950165,0.0994313508272171,-0.17422504723072052,0.03775909170508385,0.06390638649463654,-0.12851883471012115,0.06096004322171211,0.32116809487342834,0.12859012186527252,0.13899919390678406,-0.29511725902557373,0.1000855565071106,0.07918897271156311,0.057163726538419724,0.36644163727760315,-0.1102079227566719,0.27304333448410034,0.34726059436798096,0.08987174183130264,-0.1533184051513672,-0.09214938431978226,-0.10337074100971222,-0.18411199748516083,0.07259368896484375,-0.23926669359207153,0.051744457334280014,0.04725472629070282,0.13234516978263855,-0.2670990526676178,-0.06154327467083931,0.2011871635913849,-0.07310723513364792,0.25523820519447327,0.05256444960832596,0.01880558207631111,0.012399492785334587,0.46205204725265503,0.09302569925785065,-0.1755385547876358,0.11120399832725525,0.2920544147491455,-0.2510756552219391,-0.10004821419715881,0.1837896853685379,0.05633355677127838,0.03805683180689812,-0.02327762171626091,-0.2826690673828125,-0.20098945498466492,0.30351772904396057,0.14999641478061676,0.12002130597829819,0.1058250367641449,0.06208406016230583,0.34701457619667053,0.145882248878479,-0.022001909092068672,0.11269768327474594,-0.24167321622371674,-0.03453938663005829,-0.11231296509504318,-0.39786580204963684,0.0010390758980065584,-0.01667025312781334,0.1436632126569748,0.21159586310386658,-0.11062072217464447,-0.12463337182998657,-0.3410995900630951,-0.1676066517829895,0.1395920068025589,-0.11812123656272888,0.018149659037590027,-0.14560402929782867,-0.1647767573595047,-0.09477708488702774],[-0.1361701786518097,0.05854038894176483,-0.14560933411121368,-0.24467290937900543,0.5156607627868652,-0.14991560578346252,0.10557713359594345,0.032781172543764114,-0.2554226815700531,0.068537637591362,0.18917058408260345,-0.3404804766178131,0.0553998127579689,-0.18897348642349243,0.13721002638339996,-0.08049026131629944,-0.09175773710012436,0.16191844642162323,-0.10407571494579315,-0.1662513017654419,0.06695786118507385,0.17175036668777466,0.03289179876446724,-0.18310803174972534,-0.03826644644141197,0.1987115740776062,-0.2579120695590973,-0.197567418217659,0.3714361786842346,-0.03673506900668144,-0.051375679671764374,-0.07782630622386932,-0.003366099437698722,-0.19388270378112793,0.0017474476480856538,0.010557685047388077,-0.12600338459014893,0.03246046602725983,0.1791609525680542,0.1315802037715912,-0.08373289555311203,0.5208154916763306,0.02332487516105175,-0.11698288470506668,0.205768421292305,-0.15783700346946716,0.2485712617635727,-0.1527903974056244,0.21978169679641724,-0.14943286776542664,-0.056382808834314346,0.13140755891799927,0.16819171607494354,-0.03640550374984741,-0.06147920712828636,-0.14035600423812866,-0.5919297933578491,0.07132554054260254,-0.0436069630086422,0.0712745189666748,-0.20963896811008453,0.006690166890621185,-0.1356283277273178,-0.032437797635793686,-0.16930770874023438,-0.41794508695602417,0.21044838428497314,0.01641235500574112,0.12973757088184357,0.01962929405272007,-0.17543235421180725,-0.18243905901908875,-0.3147484064102173,-0.1046709194779396,-0.23424410820007324,-0.0866742879152298,-0.04680666700005531,0.06722135841846466,-0.04934193938970566,-0.19773830473423004,-0.4709208905696869,-0.02506127394735813,-0.15504679083824158,-0.001647339086048305,-0.004070586059242487,-0.09414119273424149,0.10227874666452408,0.018573535606265068,-0.16784873604774475,-0.14406384527683258,-0.053268399089574814,0.07254356145858765,-0.033194851130247116,-0.09382951259613037,-0.43789437413215637,-0.11728335916996002,-0.006243639159947634,0.0442567802965641,0.026234669610857964,0.07891704887151718,-0.2990349233150482,0.07678813487291336,-0.23686902225017548,-0.25241437554359436,0.10541738569736481,-0.07825879007577896,0.06852910667657852,-0.3263985514640808,-0.09483847767114639,0.022060032933950424,-0.09619458764791489,0.12489891052246094,-0.13952581584453583,0.23327602446079254,0.12033168971538544,0.10695777833461761,0.09108290076255798,0.03524633124470711,-0.12885838747024536,0.30539995431900024,-0.06646741926670074,-0.15876279771327972,-0.21675005555152893,-0.0502607487142086,-0.10854995995759964,-0.38256266713142395,0.025603216141462326,-0.10036327689886093,-0.13004721701145172,0.2631703019142151,0.055719561874866486,0.20891235768795013,0.28200170397758484,-0.5934752821922302,0.2497854232788086,0.23129813373088837,0.05772051587700844,-0.3619322180747986,-0.4151895344257355,-0.3624665141105652,-0.0457865409553051,-0.10340151190757751,0.023350853472948074,-0.03597069904208183,-0.11254075914621353,0.04375734552741051,0.19045713543891907,0.1131168082356453,-0.05596403032541275,-0.07952205836772919,-0.6118517518043518,-0.007888054475188255,0.2034529447555542,-0.05429984629154205,0.038369107991456985,0.047395624220371246,-0.05409865826368332,0.19605590403079987,0.014038149267435074,0.05954528599977493,-0.05990509316325188,-0.11259903013706207,-0.09961066395044327,-0.018323341384530067,0.23337242007255554,0.06779811531305313,-0.17846551537513733,0.23708057403564453,-0.2950613796710968,0.4045476019382477,-0.1689784824848175,-0.22849483788013458,-0.25659874081611633,-0.01826515607535839,0.06145366653800011,0.10429330170154572,-0.05993617698550224,-0.030034206807613373,0.2343704104423523,0.026026099920272827,-0.3022896647453308,-0.22012895345687866,-0.12883764505386353,0.13827131688594818,0.15020501613616943,-0.16969989240169525,-0.1413031667470932,-0.3987094759941101,-0.08905773609876633,-0.12373955547809601,0.12023363262414932,0.3108830153942108,0.13290539383888245,-0.08862194418907166,-0.1816866546869278,-0.18402473628520966,-0.05147223919630051,0.05068366602063179,0.0550212562084198,0.14497870206832886,-0.21641474962234497,0.09677102416753769,0.17967666685581207,-0.04624240845441818,0.07289483398199081,-0.11308606714010239,-0.33113476634025574,-0.4729534387588501,-0.06598454713821411,-0.059478759765625,-0.22735153138637543,-0.19213290512561798,0.07460383325815201,-0.026436785236001015,-0.09520496428012848,-0.2762324810028076,-0.004789669532328844,0.23386269807815552,0.22379791736602783,-0.2698706090450287,0.04085438326001167,0.18061402440071106,0.09055070579051971,0.17214705049991608,-0.12719380855560303,0.23107530176639557,0.18523377180099487,-0.21988101303577423,-0.3205544054508209,-0.03276370093226433,-0.025929873809218407,-0.2974826395511627,-0.020190920680761337,-0.1705305576324463,0.010326419956982136,-0.377615749835968,-0.09563223272562027,-0.025185249745845795,-0.08790729194879532,0.09831394255161285,-0.21939654648303986,-0.12360161542892456,0.07512757927179337,-0.05309514328837395,0.1362926959991455,-0.035092636942863464,0.10782808810472488,-0.2937749922275543,0.06168822944164276,-0.3345247805118561,-0.3598386347293854,-0.11659174412488937,0.22767239809036255,-0.13541613519191742,-0.5172451734542847,-0.16282035410404205],[-0.3374541699886322,-0.17046554386615753,-0.05014023557305336,-0.22434407472610474,0.21521268784999847,-0.05393097177147865,-0.3696311116218567,-0.3780602216720581,0.25394460558891296,-0.12027789652347565,-0.04546220228075981,0.004360153339803219,0.10802119225263596,0.05021779239177704,0.19071026146411896,-0.37781888246536255,-0.09666482359170914,-0.2994128465652466,0.39558905363082886,-0.4205954372882843,-0.04580850899219513,0.16078902781009674,-0.1614478975534439,-0.15040351450443268,-0.19622918963432312,-0.018485363572835922,0.041561342775821686,0.0008562076836824417,-0.1551670879125595,0.034706056118011475,0.014416754245758057,0.1972987949848175,-0.37795066833496094,-0.12120979279279709,0.04020353779196739,-0.378105103969574,0.024687163531780243,-0.15041100978851318,-0.0637105256319046,0.006597002502530813,0.12207573652267456,-0.01066621020436287,-0.2150292545557022,-0.1091129407286644,0.09810508042573929,-0.057517390698194504,-0.097193144261837,-0.25378862023353577,-0.05984266847372055,0.06749438494443893,-0.047010112553834915,-0.02369508519768715,0.11738257855176926,-0.05230128392577171,-0.4823811948299408,-0.10379316657781601,0.05315215513110161,-0.09848476201295853,-0.23243388533592224,0.02999689429998398,-0.009309280663728714,0.020532457157969475,0.02431093528866768,0.03083100914955139,0.027367252856492996,-0.08425521105527878,-0.21967245638370514,0.07186309248209,-0.18237197399139404,0.19284218549728394,0.3750609755516052,-0.0029298027511686087,-0.2818402349948883,-0.16439782083034515,0.054093703627586365,0.012590274214744568,-0.00020139738626312464,0.03058476746082306,-0.1222553476691246,0.09120690822601318,-0.25602343678474426,-0.0007026938255876303,0.12372264266014099,0.0156919714063406,0.006326464936137199,-0.06119735538959503,0.024872928857803345,-0.20621122419834137,-0.2743147611618042,0.21987631916999817,-0.11407162994146347,0.3214440643787384,-0.018607085570693016,0.14242400228977203,0.10815170407295227,0.03155045583844185,-0.050058916211128235,0.08715839684009552,0.2680110037326813,-0.057500388473272324,-0.04754638671875,0.3950113356113434,0.16569432616233826,-0.14103461802005768,0.22410061955451965,-0.2721199691295624,-0.15062743425369263,-0.030074525624513626,0.14671924710273743,0.10743824392557144,-0.11063627898693085,-0.08403434604406357,-0.20912934839725494,-0.015799712389707565,0.21361547708511353,0.11886557191610336,0.0824141800403595,-0.07906637340784073,-0.056513711810112,0.22469618916511536,-0.4488247334957123,-0.1847652643918991,0.04989791661500931,-0.09752744436264038,-0.21100063621997833,-0.32579663395881653,0.05079684779047966,-0.23164069652557373,0.03171112388372421,0.17065809667110443,0.4120060205459595,-0.046544525772333145,-0.0986771434545517,-0.3389338254928589,0.12808582186698914,0.052284881472587585,0.09077615290880203,-0.06844853609800339,-0.3036736845970154,0.19025270640850067,-0.019108081236481667,0.023952050134539604,0.17592968046665192,-0.32756897807121277,-0.23254767060279846,-0.07612813264131546,-0.05928710103034973,-0.0637563019990921,-0.012108178809285164,-0.2284315824508667,-0.12071841955184937,-0.28096264600753784,-0.1954570859670639,0.11238863319158554,-0.39893919229507446,-0.29862797260284424,-0.39718684554100037,0.1379486471414566,0.0729614794254303,0.016832372173666954,0.0688125491142273,0.15435902774333954,-0.06737150996923447,0.19154313206672668,-0.029624713584780693,-0.07631438970565796,-0.058272019028663635,0.04333774000406265,0.1389259397983551,-0.38137978315353394,-0.03955801576375961,-0.3389958143234253,0.03936276212334633,0.10788311064243317,-0.12337958812713623,-0.03068263828754425,-0.011773603036999702,-0.1954466551542282,0.09654409438371658,0.12772314250469208,-0.33424875140190125,0.15146811306476593,0.04530853033065796,-0.2534697353839874,-0.07447408884763718,0.16441206634044647,0.14659494161605835,-0.20380453765392303,0.2242252677679062,0.18596863746643066,-0.06128840148448944,-0.23110748827457428,0.042301375418901443,-0.13135045766830444,0.23663027584552765,0.10437431186437607,-0.019068676978349686,0.01962408982217312,-0.14697928726673126,0.056074511259794235,0.006876710336655378,0.03253306820988655,-0.35082340240478516,0.012632030993700027,0.10542548447847366,0.15135152637958527,-0.018615111708641052,-0.16941289603710175,-0.30065128207206726,0.09424933791160583,-0.40502995252609253,-0.20734012126922607,-0.029936326667666435,0.003951053600758314,0.47225362062454224,-0.14328403770923615,0.013655861839652061,-0.3195846378803253,0.04664142429828644,-0.08943828195333481,0.16860169172286987,0.08328897505998611,-0.16086983680725098,-0.10117965936660767,-0.1586741805076599,-0.15692222118377686,0.056241605430841446,-0.027644550427794456,0.16521382331848145,-0.034311555325984955,0.02287610061466694,0.010084678418934345,-0.21471941471099854,-0.023274611681699753,0.2171338051557541,0.29849985241889954,0.044414713978767395,-0.0964316576719284,0.10757153481245041,0.12881945073604584,-0.2869248390197754,0.09227056801319122,-0.09324444085359573,0.016444500535726547,0.1401674896478653,0.4308158755302429,-0.20940135419368744,-0.27963393926620483,0.049527570605278015,-0.3188938498497009,-0.3065640926361084,0.1497429609298706,0.22432807087898254,-0.3049202859401703,0.15918591618537903,0.16990549862384796],[-0.3997679352760315,-0.20597751438617706,-0.27982455492019653,-0.10300800949335098,-0.022106129676103592,-0.004038095008581877,0.0076448977924883366,-0.26751890778541565,0.0456107035279274,-0.08808844536542892,-0.015632594004273415,0.06670839339494705,0.014970578253269196,-0.3185077905654907,-0.0497034452855587,0.4187496304512024,-0.021506108343601227,-0.27810347080230713,-0.010217873379588127,0.1723337173461914,-0.26725468039512634,0.11716149002313614,0.12662358582019806,0.49234631657600403,-0.19648641347885132,-0.23757304251194,0.04552953690290451,-0.06456158310174942,-0.18894556164741516,-0.09109833091497421,-0.11247911304235458,0.2845557630062103,0.2417658269405365,-0.11937734484672546,-0.13205073773860931,-0.10291610658168793,0.11651620268821716,0.027925623580813408,-0.13459272682666779,0.15354645252227783,-0.058552954345941544,-0.16754019260406494,0.023112384602427483,0.2379099577665329,0.030644187703728676,-0.03405125439167023,-0.4315136671066284,0.1519784778356552,-0.17018598318099976,-0.15620306134223938,0.22503185272216797,-0.21130144596099854,-0.16254451870918274,-0.07930340617895126,-0.07890118658542633,-0.02686683088541031,0.2757554352283478,0.18909497559070587,0.09478070586919785,0.07714056968688965,-0.07304324954748154,0.25136318802833557,0.007296686060726643,-0.03211274743080139,0.08173567801713943,0.11955989897251129,-0.25141429901123047,-0.22035886347293854,0.429166704416275,-0.1528778076171875,0.16644445061683655,0.025673266500234604,-0.2666938900947571,-0.15288862586021423,-0.06912672519683838,0.06741537898778915,-0.46254223585128784,0.0012511301320046186,0.03710513189435005,-0.07897065579891205,-0.09109720587730408,0.3923906981945038,-0.2165963053703308,-0.3346197009086609,-0.3695726692676544,0.06816592067480087,0.2151722013950348,-0.2142387479543686,0.10337561368942261,0.1687130630016327,-0.06769846379756927,-0.12616923451423645,0.1904125213623047,0.08794554322957993,-0.12616172432899475,-0.11145678162574768,-0.22447238862514496,-0.017111575230956078,0.05092274770140648,-0.16463321447372437,0.2767830491065979,0.2487528771162033,0.08734100311994553,0.025463052093982697,-0.0939003974199295,-0.1054430603981018,0.15628913044929504,0.08757393062114716,-0.08115766942501068,0.3873884379863739,-0.003891772823408246,-0.07348982989788055,0.0666976124048233,0.18751074373722076,0.5308511853218079,-0.04829136282205582,0.2993263900279999,0.1302725374698639,0.029385412111878395,0.01584102399647236,-0.1448679268360138,-0.308388888835907,-0.3883592188358307,-0.12801069021224976,0.036400120705366135,0.03180801123380661,0.03441275283694267,0.14867767691612244,-0.17930923402309418,0.012039116583764553,0.010700237937271595,-0.12465575337409973,0.06670896708965302,0.04370149224996567,0.278140127658844,-0.12615305185317993,-0.11030987650156021,-0.5577877759933472,0.028863059356808662,-0.23977190256118774,-0.17603862285614014,-0.07325415313243866,-0.28710249066352844,-0.14897271990776062,-0.08131970465183258,0.15002143383026123,-0.23337115347385406,0.0002604973269626498,0.19798678159713745,0.03897211700677872,-0.22905324399471283,0.2831212282180786,-0.15217527747154236,0.05306505784392357,-0.08602962642908096,0.361680269241333,-0.08199574053287506,-0.005181822460144758,-0.5918368101119995,0.16510900855064392,0.19732965528964996,-0.004143550060689449,-0.03006814606487751,0.11121321469545364,0.09255117923021317,0.03614950180053711,-0.004977044183760881,0.00843606423586607,-0.35552310943603516,0.023330621421337128,0.0946103185415268,0.2841126322746277,-0.24141615629196167,0.34575340151786804,0.028419651091098785,-0.20806437730789185,-0.038586437702178955,-0.10877373069524765,0.22573436796665192,-0.2141706943511963,0.030427297577261925,0.09165922552347183,-0.0858696773648262,-0.3001736104488373,-0.051261499524116516,-0.04352378100156784,-0.5906587243080139,0.09195700287818909,0.043727800250053406,0.3008574843406677,0.05878981947898865,-0.16617897152900696,-0.1231873631477356,-0.044939689338207245,0.13812990486621857,-0.1290530562400818,-0.057781752198934555,0.03569784387946129,-0.14670014381408691,0.09591920673847198,0.20278821885585785,-0.09402959048748016,0.08445251733064651,0.2165268063545227,-0.11218057572841644,-0.24427440762519836,-0.15326319634914398,-0.19148802757263184,0.06351248919963837,-0.23404358327388763,0.08303400129079819,-0.0007740285363979638,-0.2245471477508545,0.31007060408592224,0.12412369251251221,0.2153984159231186,-0.110361248254776,-0.010010214522480965,0.08643128722906113,-0.1953469216823578,-0.07060033828020096,0.09852870553731918,0.0935388058423996,-0.029612641781568527,0.29102107882499695,-0.17192046344280243,-0.20276708900928497,-0.12924863398075104,-0.1901293694972992,-0.03933265432715416,-0.06816581636667252,0.2568262219429016,-0.053619783371686935,-0.08347462117671967,-0.2439824789762497,0.10443820804357529,0.08458245545625687,0.2866283059120178,-0.08985801786184311,0.09853382408618927,-0.469581663608551,0.04717016965150833,-0.18480084836483002,-0.264949232339859,-0.07540866732597351,0.4870370328426361,0.024871278554201126,0.19846601784229279,-0.058181196451187134,0.2585391402244568,-0.2088138908147812,-0.3016142249107361,-0.35533109307289124,0.18329255282878876,0.06174032390117645,-0.0630870833992958],[-0.06507150828838348,0.06900176405906677,-0.011616090312600136,-0.2984680235385895,-0.2197302132844925,-0.00652421684935689,-0.11582741886377335,0.04316031560301781,0.06052630394697189,-0.08446137607097626,0.03080529347062111,-0.015850428491830826,-0.08435933291912079,-0.34989383816719055,0.31454312801361084,0.1709723174571991,-0.4009556770324707,0.3256465792655945,-0.0951896607875824,-0.023576779291033745,-0.21270567178726196,-0.3368990123271942,-0.16350632905960083,0.22188840806484222,-0.013752609491348267,0.09937586635351181,-0.2296481430530548,-0.3634788990020752,0.15452677011489868,-0.21185636520385742,0.05392685532569885,0.047329388558864594,0.23376253247261047,-0.020451288670301437,-0.27620917558670044,-0.04074687510728836,0.002333936048671603,0.1233082190155983,-0.2370208203792572,0.07329490035772324,-0.09150882065296173,0.09262951463460922,-0.23204343020915985,-0.24605627357959747,-0.201593279838562,-0.07077421993017197,0.18420453369617462,-0.2581055164337158,-0.2988314926624298,-0.11206231266260147,0.048272665590047836,-0.15493744611740112,0.07214432209730148,0.1639842391014099,-0.3228551149368286,0.24760748445987701,-0.20211893320083618,0.3108178973197937,-0.14211279153823853,-0.0004332001262810081,-0.09148243069648743,-0.19273358583450317,-0.14719799160957336,0.05367876961827278,-0.060986701399087906,0.01660020649433136,0.2177702784538269,-0.6140068173408508,-0.09881368279457092,0.08319386839866638,-0.18215611577033997,0.17376026511192322,-0.12423815578222275,0.016269583255052567,-0.018756210803985596,0.13578452169895172,-0.3206697404384613,0.325417697429657,0.026746658608317375,-0.06211042031645775,-0.06599850207567215,-0.0927903801202774,-0.1447926014661789,-0.13914355635643005,-0.007315719034522772,-0.20896421372890472,0.02515026368200779,0.10509451478719711,-0.24778364598751068,-0.2581535279750824,0.3182393014431,-0.25537237524986267,0.14466257393360138,-0.37318286299705505,0.025448977947235107,0.05952868610620499,-0.04166601598262787,-0.07904372364282608,-0.20546811819076538,-0.24893422424793243,0.18934330344200134,-0.12060689926147461,0.17867548763751984,-0.09257153421640396,-0.18425795435905457,0.06525228917598724,0.16480815410614014,-0.04994971677660942,0.1108568087220192,-0.02264968678355217,0.1185542419552803,0.022045284509658813,-0.2317369431257248,0.3568771481513977,0.06942077726125717,0.2231767624616623,0.24866777658462524,-0.07202741503715515,-0.02794637158513069,-0.16580729186534882,0.1764107197523117,-0.01896830089390278,-0.18227577209472656,-0.051856108009815216,0.09015624970197678,-0.3641972541809082,-0.13054467737674713,-0.022356001660227776,-0.639607310295105,-0.18552841246128082,-0.05990997329354286,-0.0963033065199852,-0.24768108129501343,0.032117851078510284,0.09723552316427231,0.20261266827583313,-0.14153450727462769,0.33193400502204895,-0.20267972350120544,0.08055891841650009,-0.2774299085140228,0.15238317847251892,-0.27435389161109924,-0.21220523118972778,-0.13976947963237762,-0.15338803827762604,-0.08869718015193939,0.11954007297754288,-0.3082001805305481,0.04406138136982918,-0.09672217816114426,-0.375722199678421,0.03770200163125992,-0.3010616600513458,-0.1786867380142212,-0.04038313776254654,-0.34034889936447144,-0.10007957369089127,-0.017515314742922783,0.6322750449180603,0.057060305029153824,-0.04126184061169624,-0.0993710607290268,0.20140144228935242,0.013086718507111073,-0.19637583196163177,0.05142352357506752,-0.18039530515670776,0.07990550994873047,0.004089031368494034,-0.14009693264961243,-0.21480907499790192,0.28935280442237854,0.1703195571899414,0.1355665624141693,-0.1351950764656067,-0.05407009646296501,0.16885891556739807,-0.2741073668003082,-0.2510581612586975,0.11456692963838577,0.2251734733581543,0.23910456895828247,-0.10726378858089447,-0.07007666677236557,-0.07800234109163284,-0.2923514246940613,0.07471536099910736,0.2989777624607086,-0.1023845449090004,0.14895445108413696,-0.2634565234184265,-0.2666473388671875,-0.30512332916259766,-0.19956840574741364,-0.3565236032009125,0.31347620487213135,0.03546768054366112,-0.21180009841918945,0.018589438870549202,0.1533353477716446,0.09546690434217453,-0.3231687843799591,0.21474294364452362,-0.13432163000106812,0.29340964555740356,0.25734642148017883,-0.06317517161369324,0.5120704174041748,-0.07216954976320267,0.36704179644584656,-0.024756530299782753,-0.24027292430400848,0.33167895674705505,-0.011168294586241245,-0.15343430638313293,0.023617122322320938,-0.1739257276058197,-0.2628391981124878,-0.3664877116680145,-0.09128957986831665,-0.12650589644908905,-0.29684075713157654,0.016637271270155907,-0.2848760187625885,-0.2427983582019806,0.21270281076431274,0.3729907274246216,-0.07882381975650787,0.31799131631851196,0.11381952464580536,0.1901228129863739,-0.038483329117298126,-0.4716789126396179,-0.15942536294460297,0.07690440118312836,0.02633737213909626,-0.015597091056406498,-0.12882891297340393,0.013310468755662441,-0.2381599396467209,-0.3753938376903534,0.0019240840338170528,0.08764079213142395,-0.1286553591489792,-0.15063735842704773,0.02857639268040657,-0.0898108258843422,-0.01088220439851284,-0.1293298304080963,-0.06918371468782425,-0.09988823533058167,0.18067380785942078,-0.2607955038547516,-0.04204002395272255,0.06725350767374039],[0.2192346453666687,-0.007598434574902058,0.11639633029699326,-0.03401245176792145,0.0009501492604613304,-0.2200254499912262,-0.13998417556285858,-0.04046021029353142,0.12270024418830872,-0.14810720086097717,0.16267280280590057,-0.4238722622394562,-0.009664072655141354,0.3117621839046478,0.12155498564243317,-0.07503173500299454,-0.11696536093950272,0.1263994574546814,-0.14978377521038055,0.07169222086668015,