[[-0.0233004130423069,-0.20157478749752045,0.23377245664596558,0.15704327821731567,0.015973186120390892,0.07989704608917236,0.006548488046973944,-0.01675356738269329,-0.07219941169023514,-0.08388791233301163,0.20990782976150513,-0.1690802276134491,0.17349205911159515,-0.10099397599697113,-0.2017681747674942,0.22810620069503784,0.03169206529855728,-0.15542307496070862,-0.009690577164292336,-0.10160161554813385,-0.10005895793437958,-0.11733713746070862,0.05856642127037048,-0.039610475301742554,0.08028119057416916,-0.013851853087544441,0.08184073120355606,-0.07084968686103821,-0.195759117603302,0.061163850128650665,-0.20501387119293213,-0.10268102586269379,-0.15918375551700592,0.02890462428331375,0.20920762419700623,-0.2736920714378357,0.09441189467906952,-0.07627394795417786,-0.004437446594238281,0.08276920765638351,0.05554557964205742,-0.18402372300624847,0.17884407937526703,-0.08930516988039017,-0.16705378890037537,-0.16845083236694336,0.03869437426328659,0.0757206454873085,0.0747409462928772,0.11858254671096802,-0.25097307562828064,-0.0038844773080199957,0.06989424675703049,0.026380984112620354,0.09469926357269287,-0.11002077907323837,0.22401897609233856,0.09774601459503174,-0.0948604941368103,-0.16115052998065948,-0.07433143258094788,-0.026717575266957283,0.08176002651453018,-0.013975643552839756,-0.1464134156703949,0.10603424161672592,-0.06333773583173752,-0.13149265944957733,-0.03587598726153374,0.1155468225479126,-0.08513510227203369,0.04083403944969177,0.08000961691141129,-0.006901090033352375,-0.06327662616968155,0.16320253908634186,-0.25873419642448425,-0.06204604357481003,-0.16863983869552612,0.06286931782960892,-0.02329454943537712,-0.17288713157176971,0.14678508043289185,0.22036181390285492,-0.014571510255336761,-0.10605645924806595,-0.0921330377459526,0.006398376077413559,-0.13440126180648804,0.1286495476961136,0.0025765288155525923,-0.1027812585234642,0.089415043592453,-0.11377716809511185,0.1276347041130066,-0.002732782159000635,-0.0820707455277443,-0.06803257018327713,-0.13544359803199768,0.1139584556221962,0.012146588414907455,0.11494488269090652,-0.09508790820837021,-0.08898486196994781,-0.022667154669761658,-0.20364442467689514,-0.003734014695510268,0.13593529164791107,-0.09539637714624405,0.15790145099163055,0.06190493702888489,0.007452621124684811,0.04059259593486786,0.030323585495352745,-0.036786824464797974,0.25123944878578186,0.2403157353401184,0.13920950889587402,-0.21171648800373077,-0.1395048350095749,0.004575574770569801,0.0284656323492527,0.06562214344739914,-0.07424046099185944,-0.019485551863908768,0.025297874584794044,-0.16170431673526764,0.07618360966444016,-0.05311747267842293,0.06849758327007294,-0.10516064614057541,-0.1843012124300003,0.054513800889253616,-0.018560320138931274,0.12202413380146027,0.0366009920835495,0.024947520345449448,-0.1451921910047531],[0.05356796458363533,-0.25337308645248413,0.0044133635237813,0.21545538306236267,0.17714805901050568,0.04523690417408943,0.011389238759875298,-0.07619252800941467,-0.014165595173835754,-0.12273608893156052,0.0488567017018795,-0.06587423384189606,0.2024611085653305,-0.06718041002750397,-0.19440314173698425,-0.15862344205379486,0.04661053419113159,0.05026749148964882,0.020213747397065163,0.003480428596958518,0.20097434520721436,0.1714547574520111,-0.2646057605743408,-0.2986660301685333,-0.08514395356178284,-0.08075578510761261,0.03539417311549187,0.10377015918493271,-0.18799613416194916,-0.07502593100070953,0.08710780739784241,0.1213691383600235,0.19421596825122833,0.07219474017620087,-0.033068910241127014,-0.05441389977931976,0.10223878920078278,0.05018504709005356,0.10516387969255447,0.09376941621303558,0.06082107499241829,-0.10624214261770248,-0.14187577366828918,0.08780710399150848,-0.16637057065963745,-0.1477895826101303,0.007965348660945892,-0.1911332607269287,0.04043959081172943,-0.05039564147591591,-0.29370588064193726,0.07345268875360489,-0.09507042914628983,-0.19564194977283478,-0.06069224327802658,-0.024970460683107376,-0.07576257735490799,0.023225242272019386,0.17168496549129486,-0.12526749074459076,0.12162389606237411,0.045828498899936676,-0.024036720395088196,-0.0475609116256237,-0.08481857180595398,0.04398546367883682,-0.08239281922578812,-0.08842623233795166,0.08655016124248505,-0.16430673003196716,-0.025266755372285843,-0.010014966130256653,-0.1119103655219078,-0.1414179652929306,-0.14484110474586487,0.3027985990047455,-0.09422479569911957,-0.031008537858724594,-0.24870319664478302,-0.07341054081916809,-0.052128564566373825,-0.06754127889871597,-0.14422574639320374,0.08058637380599976,0.2633821964263916,-0.1846722513437271,0.15006351470947266,-0.015639973804354668,0.05079929530620575,-0.11807030439376831,0.10046067833900452,0.18570254743099213,-0.17854435741901398,0.010962296277284622,0.06376811116933823,0.12314832210540771,0.08874224126338959,0.26159313321113586,0.07270532101392746,0.027627380564808846,0.02500258758664131,-0.07904565334320068,0.08830976486206055,-0.05746060982346535,-0.17444618046283722,0.08495739102363586,0.23682866990566254,-0.1898384839296341,-0.11187594383955002,-0.033769916743040085,-0.16166238486766815,-0.07343851774930954,-0.034165963530540466,0.1170913428068161,-0.011380276642739773,0.04044792801141739,0.060692429542541504,-0.14264245331287384,0.06654918193817139,-0.0631115585565567,0.0710185319185257,0.13981084525585175,-0.1492966264486313,0.1624046266078949,-0.023833848536014557,-0.04934762418270111,-0.085545115172863,0.050870269536972046,-0.04527413472533226,0.0022813668474555016,-0.01443584356456995,0.19927598536014557,-0.040810439735651016,-0.014020055532455444,-0.2980751395225525,0.0684109702706337,-0.1335756927728653,0.059342000633478165],[-0.056205980479717255,-0.07024206966161728,0.04046677052974701,0.03562040254473686,0.03474362939596176,0.24072407186031342,0.02242344804108143,-0.0611962229013443,0.00024897363618947566,-0.05626862123608589,0.03426074981689453,-0.011484436690807343,0.10339919477701187,0.13207010924816132,-0.01860007271170616,0.12596383690834045,-0.23434151709079742,-0.17536962032318115,-0.11073704808950424,0.0947498083114624,-0.017389705404639244,0.04182044044137001,0.2979486882686615,0.19340430200099945,-0.050546687096357346,-0.11646687239408493,-0.012445610947906971,-0.17840920388698578,0.01624923013150692,-0.024574173614382744,-0.09126108884811401,-0.03256906196475029,0.054676953703165054,-0.02646947279572487,0.012198557145893574,-0.0057626282796263695,-0.10025043040513992,0.058351755142211914,-0.10218579322099686,-0.016758231446146965,0.13722433149814606,-0.06293591111898422,-0.1575283408164978,0.2451436072587967,0.03865325078368187,-0.05823003500699997,-0.13766679167747498,-0.08017092943191528,0.020978311076760292,-0.15822364389896393,0.07411300390958786,0.06947622448205948,0.16156670451164246,-0.2561074495315552,0.1927514374256134,0.08571962267160416,0.2494148463010788,-0.003496472956612706,-0.008597956970334053,0.05932517722249031,-0.02921527624130249,0.015464830212295055,-0.02258475311100483,-0.2076895534992218,0.0981515422463417,0.13570944964885712,0.13374921679496765,-0.07448140531778336,0.2162575125694275,0.10156575590372086,0.08679123222827911,0.15588049590587616,0.027790607884526253,-0.040539756417274475,-0.09399746358394623,-0.052754957228899,-0.10853175073862076,0.04552578181028366,-0.05608354136347771,0.017733706161379814,0.1391667276620865,-0.03105255775153637,-0.2300344854593277,0.17323468625545502,0.05010483041405678,-0.08239203691482544,-0.3895251154899597,0.0036780736409127712,-0.12131495773792267,-0.23972272872924805,-0.1293269693851471,-0.15919244289398193,0.25698691606521606,0.0318651981651783,0.015207338146865368,-0.08634555339813232,-0.18107835948467255,-0.15823641419410706,-0.062343381345272064,0.10674894601106644,-0.06655848771333694,-0.009975743480026722,-0.0004994520568288863,0.1454172432422638,0.2230161875486374,0.11177308857440948,-0.07812608778476715,-0.004956340882927179,-0.014100708067417145,0.041355960071086884,0.09649993479251862,-0.18667307496070862,0.0565887913107872,-0.13481192290782928,-0.2667953372001648,0.05263398587703705,-0.03535761684179306,-0.060084156692028046,0.09115467220544815,-0.2754453420639038,0.2836618423461914,-0.033488791435956955,-0.024079836905002594,-0.03843589872121811,-0.055808380246162415,-0.10916058719158173,-0.11089011281728745,0.12482079863548279,-0.10319443792104721,-0.17066004872322083,0.2858369052410126,-0.1010945662856102,0.006444979924708605,0.04562322050333023,-0.14489448070526123,-0.2369762808084488,-0.10273848474025726,0.0679059699177742],[0.07629355788230896,-0.01661907136440277,-0.08161100745201111,0.05683039128780365,0.05309080332517624,0.05112583190202713,-0.055999334901571274,-0.033866770565509796,-0.18911592662334442,0.06018897518515587,-0.23478847742080688,0.255295991897583,0.1794588267803192,-0.1289779245853424,0.09306179732084274,-0.010447735898196697,0.14567095041275024,0.1676083654165268,0.054810747504234314,-0.12441806495189667,-0.08285652101039886,0.09494999051094055,-0.03785102441906929,0.10512805730104446,0.05310799181461334,-0.07996310293674469,-0.03963287174701691,0.05582447722554207,0.09577977657318115,0.16079184412956238,0.062343474477529526,0.0876370444893837,0.26405268907546997,-0.031318578869104385,0.20093128085136414,0.15859781205654144,0.1024416908621788,0.08609756827354431,0.26694008708000183,0.17815741896629333,-0.08875881135463715,0.036979928612709045,-0.09082832932472229,0.03526034578680992,0.1241498664021492,-0.06716743111610413,-0.010466181673109531,-0.10963533818721771,0.13970816135406494,0.2243068665266037,-0.3487861454486847,-0.12202482670545578,0.05017178878188133,-0.06862352043390274,-0.16608057916164398,-0.1652696281671524,0.07579705119132996,0.04040360450744629,0.07808846235275269,0.03340066969394684,0.3091743290424347,0.19817091524600983,0.02494227886199951,0.058205969631671906,-0.18092262744903564,-0.11212299019098282,-0.0413857139647007,0.1698160022497177,-0.23681503534317017,-0.04365810379385948,-0.0032419890630990267,0.240646630525589,-0.2454901486635208,-0.06503191590309143,0.04566415399312973,-0.08283602446317673,-0.12610593438148499,-0.04254645109176636,0.10303311794996262,0.0016074993181973696,-0.04975802078843117,-0.033609069883823395,-0.010232571512460709,0.17472395300865173,0.06099402904510498,-0.1883421093225479,-0.06136536970734596,0.0003642782394308597,-0.09797677397727966,0.05274312198162079,-0.28402313590049744,-0.0439215786755085,0.017712855711579323,-0.08003542572259903,-0.12207843363285065,0.0160067118704319,-0.16366170346736908,-0.194697305560112,0.09581930190324783,0.20608089864253998,0.0043957168236374855,0.04809403419494629,0.20188413560390472,-0.1944778710603714,0.12592557072639465,0.3482353389263153,0.1981772780418396,0.035199735313653946,-0.060348764061927795,0.015765469521284103,0.06139611080288887,0.34419000148773193,0.1507968008518219,0.20036733150482178,-0.10677684843540192,-0.20115926861763,-0.10110878199338913,-0.10626038908958435,0.18287253379821777,-0.10127829760313034,0.06019827723503113,0.12598319351673126,0.08489678800106049,0.08390257507562637,0.09095394611358643,0.14899905025959015,0.14592553675174713,-0.07958769798278809,-0.010877463035285473,-0.057884711772203445,0.09094487875699997,0.1533098667860031,-0.0010338741121813655,-0.004892653785645962,-0.05469854176044464,-0.10335788130760193,-0.005915896035730839,-0.05850188434123993],[-0.0670730397105217,0.06302212923765182,0.13960886001586914,-0.08210181444883347,-0.03373987600207329,0.20851753652095795,0.04640679806470871,-0.27400532364845276,-0.05639387667179108,-0.05580981448292732,0.01749156229197979,0.04278797656297684,-0.016187936067581177,0.01535272877663374,0.13805079460144043,0.015984579920768738,0.08062446117401123,-0.03376709297299385,0.11235442012548447,-0.17460758984088898,0.012377113103866577,-0.1626650094985962,-0.15381300449371338,0.16769970953464508,0.17021335661411285,0.18366600573062897,-0.10782600194215775,-0.10347466915845871,-0.005982482805848122,-0.22369153797626495,-0.0959196537733078,-0.12775693833827972,-0.10821724683046341,0.17144162952899933,0.009970447979867458,-0.050749313086271286,0.04929688572883606,0.16444917023181915,-0.008965941146016121,0.06530198454856873,-0.08899472653865814,-0.1649629920721054,-0.16136282682418823,0.005309885833412409,-0.13643492758274078,-0.06029283255338669,-0.14471933245658875,0.07536210864782333,0.036082230508327484,0.054683297872543335,-0.2239302545785904,-0.05424493923783302,0.13496153056621552,-0.27789148688316345,0.24598060548305511,-0.07834012061357498,0.028333017602562904,-0.14111462235450745,0.10940252989530563,-0.07818721234798431,0.11427700519561768,-0.13844409584999084,-0.02843613736331463,-0.01279571745544672,-0.10477939993143082,0.11660701036453247,-0.17435403168201447,0.09959631413221359,0.031074916943907738,0.28096383810043335,-0.045182645320892334,0.033934466540813446,-0.14663270115852356,0.013183558359742165,-0.07535728067159653,-0.055552754551172256,0.1550016850233078,0.04318634048104286,0.030623575672507286,0.012915377505123615,-0.22960443794727325,0.1360352635383606,-0.04106950759887695,0.05179211124777794,-0.24142873287200928,-0.057969119399785995,-0.09470716118812561,-0.0889197438955307,-0.28636881709098816,0.12233170866966248,0.026125535368919373,-0.06275621056556702,-0.013051736168563366,-0.1636340469121933,-0.05391670763492584,0.05817654728889465,-0.10765000432729721,-0.03540314361453056,-0.05048263445496559,-0.09229232370853424,0.05841383337974548,0.2027970403432846,0.022870363667607307,-0.0995270311832428,0.11222812533378601,-0.03826233372092247,-0.15615305304527283,-0.0536566898226738,0.18428564071655273,0.04173441231250763,0.008631804957985878,0.04471536725759506,0.05161210149526596,-0.14276643097400665,0.18985193967819214,0.05940227955579758,0.03442941978573799,-0.31676360964775085,-0.06045715883374214,0.061925046145915985,-0.06462088972330093,0.05731569230556488,0.02865622192621231,0.15400280058383942,-0.19596345722675323,-0.0897146537899971,-0.2107095867395401,-0.002050259616225958,0.09583961218595505,0.16300895810127258,-0.0005595950642600656,0.08447477966547012,0.0940922349691391,0.09790387749671936,-0.1278611123561859,0.0455278716981411,0.04566023871302605,0.10690949112176895],[-0.20697873830795288,0.09405207633972168,0.10865060240030289,0.08341444283723831,-0.2051314115524292,0.07177703827619553,0.05953969061374664,0.02454710192978382,-0.05486508458852768,-0.02593499980866909,0.0666738972067833,-0.01439929660409689,-0.049679212272167206,-0.0058064088225364685,-0.07752744108438492,-0.09538670629262924,0.1821904480457306,-0.12103380262851715,-0.0043702018447220325,-0.05157871171832085,-0.06381706893444061,0.22667118906974792,0.08097829669713974,-0.15234677493572235,-0.16667187213897705,0.07945799082517624,0.034268856048583984,-0.05237357318401337,0.03313814848661423,0.09102726727724075,0.04132145643234253,-0.07549900561571121,-0.09268262982368469,0.14754138886928558,0.015810612589120865,-0.011879056692123413,-0.27148616313934326,-0.08573155105113983,-0.08445372432470322,-0.034060969948768616,0.016809945926070213,-0.16590408980846405,0.034426555037498474,-0.15428148210048676,0.03111208789050579,-0.03512291610240936,-0.017620736733078957,-0.08565755188465118,-0.1292797178030014,-0.05083831772208214,-0.038113392889499664,0.051536500453948975,0.03928857296705246,-0.08375095576047897,-0.22291365265846252,0.020328257232904434,0.08429071307182312,-0.09402021765708923,0.19094033539295197,-0.17625801265239716,0.06392861157655716,0.03598720580339432,0.06034093350172043,-0.09167934209108353,0.014095904305577278,-0.24339205026626587,0.09040308743715286,0.15806186199188232,0.10322141647338867,0.028003426268696785,0.07863083481788635,-0.10335996747016907,0.08306899666786194,0.04115988686680794,-0.030976563692092896,0.08291081339120865,0.2584995627403259,0.08651794493198395,-0.1091160997748375,-0.12454982101917267,0.088102787733078,-0.03757777810096741,0.2573249638080597,0.07436668872833252,0.037486832588911057,0.18186378479003906,0.036197733134031296,-0.05840659141540527,0.11056499928236008,0.06545364856719971,-0.06828378885984421,-0.08626028150320053,-0.0918705016374588,-0.11791963875293732,-0.1194886565208435,0.007286251988261938,0.10180959850549698,-0.07410532236099243,-0.24563494324684143,-0.0522146038711071,0.0927216112613678,-0.18017052114009857,-0.20259377360343933,0.03557519614696503,0.32933515310287476,0.14947229623794556,-0.061003681272268295,-0.001801762729883194,-0.13457326591014862,-0.034017931669950485,-0.048164330422878265,-0.00646584527567029,0.07270946353673935,-0.13150647282600403,-0.16929511725902557,0.032630082219839096,-0.15586213767528534,-0.07672076672315598,-0.16998539865016937,0.010947581380605698,-0.17548760771751404,-0.17573578655719757,0.06973420828580856,-0.05377984046936035,-0.12002656608819962,-0.07375866919755936,-0.07405143231153488,-0.08842011541128159,0.034440383315086365,-0.1989900916814804,-0.02089092880487442,-0.12591345608234406,-0.21250467002391815,-0.12180209159851074,0.21110419929027557,0.10242650657892227,0.012050138786435127,0.06009484454989433],[0.040378909558057785,-0.16504143178462982,-0.04457990080118179,0.05573980510234833,-0.10047408193349838,0.15529440343379974,0.2373962104320526,-0.12496639788150787,0.032650064677000046,0.11371836811304092,-0.08959802985191345,0.19231905043125153,0.02498691715300083,-0.14156091213226318,0.2400345355272293,0.21434850990772247,0.04019077122211456,0.03594021126627922,0.07816597074270248,0.024103565141558647,0.17615054547786713,-0.1157875582575798,-0.16623269021511078,0.03879639133810997,-0.1917281150817871,-0.04634930193424225,-0.1000804528594017,0.07276328653097153,-0.05360092967748642,-0.1138039380311966,-0.13934408128261566,0.19523684680461884,0.0707777664065361,-0.005773868877440691,-0.16358265280723572,0.08099815994501114,0.00268727308139205,0.04904462397098541,-0.03788966313004494,-0.004866729956120253,-0.007813495583832264,0.10659167915582657,-0.015281306579709053,0.060035474598407745,-0.09050275385379791,-0.024664167314767838,-0.028105825185775757,0.04609997570514679,0.05719659850001335,0.18812277913093567,0.13580748438835144,-0.05103382095694542,0.08249841630458832,0.011754658073186874,0.042718298733234406,0.1428442895412445,0.13547390699386597,0.07787662744522095,0.22845853865146637,0.03867923468351364,0.07310514897108078,0.0782826840877533,0.07576964050531387,0.026425035670399666,-0.137948676943779,0.13684433698654175,-0.03395507112145424,-0.16479161381721497,0.15892444550991058,0.01171267218887806,0.017956264317035675,-0.23010972142219543,0.007586122024804354,0.023004688322544098,0.02405817247927189,-0.21800650656223297,-0.03655587509274483,0.1293700486421585,0.1489911675453186,0.11465734988451004,0.05481350049376488,-0.33783018589019775,-0.1654704213142395,0.05259797349572182,-0.19708740711212158,-0.1010676845908165,0.12746518850326538,0.1517663449048996,0.09740529209375381,-0.19150805473327637,0.11426316201686859,0.14112024009227753,0.09188797324895859,0.06115015596151352,0.20597632229328156,-0.16554781794548035,0.09774864464998245,-0.06881900876760483,0.10123222321271896,0.1437319666147232,-0.12611116468906403,-0.15098631381988525,-0.14131374657154083,0.19220884144306183,-0.10083544254302979,0.1728418469429016,-0.3615952432155609,0.1577765941619873,0.14050033688545227,-0.1435418426990509,0.008365923538804054,-0.35243508219718933,0.055471278727054596,0.10374545305967331,-0.04897240176796913,0.04977373033761978,-0.1894417256116867,-0.05748140811920166,0.007926602847874165,0.03005446493625641,0.19410768151283264,-0.12136210501194,0.08962588757276535,0.0875777006149292,-0.11708258837461472,0.23771819472312927,-0.21941161155700684,-0.01669424958527088,-0.02442907728254795,0.16547177731990814,0.16121622920036316,0.07713756710290909,0.16034726798534393,-0.01749340444803238,0.10480816662311554,-0.15430571138858795,0.0976840928196907,0.06986827403306961],[0.07789745181798935,0.1805431842803955,0.016486547887325287,0.2322889268398285,0.02272743359208107,0.07495584338903427,-0.033265091478824615,-0.001290582586079836,0.0910346508026123,-0.2065325230360031,-0.10408511757850647,-0.018150491639971733,0.022526809945702553,0.16659381985664368,-0.06883593648672104,-0.002843276597559452,0.027359312400221825,0.18634891510009766,0.03431545943021774,0.0857914537191391,0.018170712515711784,0.0627661719918251,-0.05994810536503792,-0.04396619647741318,-0.15378959476947784,0.13724114000797272,-0.24006353318691254,0.15545685589313507,-0.023668203502893448,0.13930031657218933,0.0043023210018873215,0.00392669253051281,-0.004924624226987362,-0.03374236822128296,0.009083257988095284,-0.15291424095630646,-0.17217566072940826,-0.05355336144566536,0.07010265439748764,-0.02227415144443512,0.11266109347343445,-0.17815494537353516,0.013729316182434559,-0.08560725301504135,-0.10386931151151657,0.10436362028121948,0.3408871591091156,0.071804940700531,0.04066675528883934,-0.13382543623447418,0.291227787733078,0.18213975429534912,-0.018991747871041298,0.007390598766505718,-0.053426265716552734,0.17529995739459991,-0.022589052096009254,0.0370061956346035,-0.05750932916998863,0.0398869514465332,-0.08773341029882431,0.08871098607778549,-0.06554853916168213,0.1588880568742752,0.13293707370758057,-0.019109150394797325,0.15665332973003387,0.07261857390403748,0.09732763469219208,-0.006077230907976627,-0.010121606290340424,-0.12797650694847107,0.13040022552013397,-0.06304074823856354,-0.08463414013385773,-0.017436807975172997,0.08588197827339172,-0.1232905462384224,0.140733003616333,-0.011049523949623108,-0.018582945689558983,-0.28362607955932617,-0.1542966216802597,0.10626602917909622,0.05664196237921715,0.0181328933686018,0.05345938354730606,0.05263233557343483,-0.05883556976914406,0.0758359357714653,-0.17457252740859985,0.13355228304862976,0.06309504806995392,-0.0653480514883995,0.02888302691280842,0.09405902773141861,0.01487027108669281,-0.11114135384559631,0.05920064076781273,-0.06282899528741837,0.03056306019425392,0.11889971047639847,-0.24868148565292358,-0.029415011405944824,-0.16411589086055756,-0.11922892928123474,-0.03388195484876633,0.0262758769094944,0.07969239354133606,0.013669183477759361,0.10056896507740021,0.04667409881949425,-0.15108348429203033,-0.07068676501512527,-0.0013278971891850233,-0.2748018503189087,-0.09005598723888397,0.09092841297388077,-0.1618901938199997,0.04615305736660957,0.1712210476398468,0.1890234649181366,-0.20851068198680878,0.14066271483898163,0.10204022377729416,0.013884107582271099,0.0419127456843853,-0.004234994761645794,-0.027349142357707024,-0.1211329773068428,0.05074363946914673,-0.051346711814403534,0.16663819551467896,0.006460585165768862,-0.26271048188209534,-0.105986088514328,0.24465836584568024,0.11120082437992096],[0.13570132851600647,-0.07782594859600067,-0.04212586209177971,-0.1979745328426361,0.11424574255943298,0.0005779986968263984,-0.13694150745868683,0.1086854338645935,-0.11536381393671036,-0.15261627733707428,-0.04634910076856613,0.10760457813739777,-0.05439310520887375,0.05482597276568413,-0.11197185516357422,0.17461079359054565,0.06570327281951904,-0.06039822846651077,-0.1222119852900505,-0.10910896956920624,0.04870643839240074,0.17296402156352997,-0.04032295569777489,0.31032466888427734,0.13228416442871094,-0.05747934430837631,-0.025685423985123634,-0.11035413295030594,0.04576236382126808,-0.14545996487140656,0.08764426410198212,0.035895269364118576,0.08152560144662857,0.010925793088972569,-0.02329050749540329,0.17064523696899414,0.13660451769828796,-0.06944523006677628,-0.16703160107135773,-0.2452084720134735,-0.1946461796760559,-0.009121326729655266,-0.15363340079784393,-0.08702637255191803,0.12945903837680817,-0.06518147140741348,-0.057053692638874054,-0.044376250356435776,0.0033001548144966364,0.03854740411043167,0.0186761561781168,0.16237689554691315,0.04693075269460678,-0.1205013319849968,0.06271202862262726,0.034459177404642105,0.2118985801935196,0.01641707494854927,-0.10366848856210709,0.17260907590389252,0.20482181012630463,-0.043819937855005264,-0.196088969707489,0.05170094221830368,0.014951132237911224,-0.013720248825848103,-0.05053997412323952,-0.18396246433258057,-0.01690162904560566,-0.07416026294231415,-0.19630229473114014,-0.08669444918632507,0.15004698932170868,0.009859421290457249,0.19194945693016052,0.037156857550144196,0.0033458354882895947,0.19480937719345093,-0.035656437277793884,0.02068316377699375,-0.1734020859003067,-0.039651837199926376,-0.08452066034078598,-0.06128430739045143,0.09580960124731064,0.14191801846027374,-0.06593294441699982,-0.08412981778383255,0.08803682029247284,0.10667906701564789,-0.0037832106463611126,-0.1531924605369568,-0.043006159365177155,-0.13234995305538177,-0.04307949170470238,0.07855645567178726,0.13324841856956482,0.042757548391819,-0.0871359184384346,0.07532498985528946,0.10930399596691132,0.10421182215213776,0.07992269843816757,-0.09536895155906677,-0.09251708537340164,0.03424449265003204,-0.000045788819988956675,0.2828928828239441,-0.03926042839884758,-0.3226360082626343,0.27796798944473267,-0.0645943358540535,0.04977506399154663,0.01588510535657406,-0.03744872286915779,-0.0794246718287468,0.04541143774986267,-0.07838941365480423,0.06410501152276993,0.009365749545395374,0.04385968670248985,0.032155368477106094,-0.08473145961761475,-0.06692980229854584,-0.20569072663784027,0.09665112942457199,0.03727717325091362,0.0543690025806427,-0.06407877057790756,-0.05164874717593193,-0.21234360337257385,0.12498677521944046,-0.12204509973526001,-0.17673899233341217,0.03633435070514679,-0.15234217047691345,0.10767988860607147,-0.06997465342283249],[-0.0164701659232378,-0.08158034831285477,-0.09538592398166656,0.006065926048904657,0.17355498671531677,0.12935596704483032,-0.13208085298538208,0.032890163362026215,0.20045106112957,0.046972937881946564,0.07132579386234283,0.03432346135377884,-0.020365865901112556,-0.09712410718202591,0.06041307374835014,-0.06725464761257172,-0.016501713544130325,-0.0643400326371193,0.139094278216362,-0.038351546972990036,-0.06705211848020554,-0.12540003657341003,-0.28246694803237915,0.1517413705587387,0.006328011862933636,0.05821601673960686,-0.13085676729679108,0.01530639361590147,0.04416290670633316,-0.08646771311759949,-0.16861708462238312,0.007743094116449356,0.15582820773124695,0.04314630851149559,0.01542885322123766,0.19095715880393982,0.08488001674413681,-0.10115495324134827,0.009948431514203548,-0.07714161276817322,-0.026684517040848732,-0.023338645696640015,0.20686523616313934,0.07447900623083115,-0.16271279752254486,0.03194816783070564,-0.14109213650226593,-0.06964143365621567,-0.053236283361911774,-0.04122680425643921,0.00742018548771739,-0.1591418832540512,0.14272856712341309,0.014455526135861874,-0.14775030314922333,0.037150222808122635,0.031598519533872604,-0.11448992043733597,-0.08635393530130386,0.004860835149884224,0.18757599592208862,0.015531396493315697,0.28980275988578796,-0.05896473675966263,-0.05150243639945984,0.008231101557612419,0.14119791984558105,-0.040491532534360886,0.1518215388059616,-0.0911145731806755,-0.12615983188152313,-0.13142703473567963,0.09192991256713867,-0.008967055007815361,-0.08540375530719757,-0.0211069006472826,-0.31423795223236084,0.13509614765644073,0.12517881393432617,0.0670558288693428,-0.16972391307353973,-0.06921468675136566,0.0053081694059073925,-0.021913865581154823,0.0356210358440876,-0.10426871478557587,-0.020408811047673225,0.08872225880622864,0.005828564520925283,0.048895612359046936,-0.39514461159706116,0.15678083896636963,0.07137781381607056,-0.025715969502925873,-0.07532772421836853,-0.05577109381556511,0.16368626058101654,0.11014250665903091,0.007478098385035992,0.12845805287361145,0.08192545920610428,0.018936922773718834,-0.11353138089179993,0.3329457640647888,0.14306019246578217,0.11316309124231339,-0.0901111587882042,0.006035017315298319,0.10553031414747238,-0.1639181226491928,-0.0007391917752102017,-0.07723040878772736,0.16928812861442566,-0.0685243159532547,-0.11344592273235321,-0.07347027957439423,-0.19907376170158386,-0.14579224586486816,0.09112566709518433,0.10078945755958557,0.07203835248947144,0.056709837168455124,-0.05524163320660591,-0.17139656841754913,0.061783500015735626,0.030829817056655884,-0.023236867040395737,0.12607574462890625,-0.15901008248329163,-0.1330527812242508,0.11336740106344223,-0.045539066195487976,-0.13714483380317688,-0.35386034846305847,-0.10068763792514801,-0.06322166323661804,0.07031196355819702,-0.07765316963195801],[0.14177650213241577,0.04155430570244789,-0.05925057455897331,-0.07495171576738358,0.14919696748256683,-0.10707973688840866,-0.06975960731506348,0.04804965481162071,-0.09903550893068314,-0.01002351101487875,-0.146186962723732,0.10438110679388046,0.06750887632369995,-0.15918760001659393,-0.07511477172374725,-0.11928284913301468,-0.09998532384634018,0.00040208452264778316,-0.008124114945530891,0.018311278894543648,-0.09999119490385056,-0.04433799162507057,0.05347476527094841,0.03758273646235466,0.2992222309112549,-0.043713055551052094,0.005488280672580004,-0.06767939776182175,0.10185577720403671,0.21471744775772095,0.06425318121910095,0.1418868750333786,0.08620298653841019,-0.24267636239528656,0.019728854298591614,-0.07673713564872742,0.01353235449641943,-0.14432376623153687,-0.04536950960755348,-0.04305329918861389,-0.040207311511039734,-0.03980768099427223,-0.08376432210206985,0.07320104539394379,-0.129150852560997,0.17235784232616425,-0.057751115411520004,0.023745398968458176,-0.08372469246387482,0.010664227418601513,-0.16908493638038635,0.053385790437459946,-0.08060106635093689,0.002739713992923498,0.11112316697835922,0.16873621940612793,-0.0431521050632,0.009952680207788944,0.010074550285935402,-0.047152843326330185,-0.07992682605981827,0.2032688409090042,0.015529129654169083,0.0843251422047615,-0.12434078752994537,0.025845158845186234,0.0023370380513370037,0.10335603356361389,-0.1862955391407013,-0.17252987623214722,0.01982531137764454,-0.03383266180753708,-0.051125410944223404,-0.06371352076530457,0.10393687337636948,-0.09717061370611191,0.15566767752170563,-0.13216961920261383,0.00045679256436415017,0.002155240857973695,0.07415254414081573,0.10534416139125824,0.19542820751667023,0.10513854026794434,0.14393235743045807,-0.11900775134563446,0.0012584945652633905,-0.03372263163328171,-0.2311025857925415,0.0338919460773468,0.04258263483643532,-0.17076937854290009,-0.024958381429314613,-0.06713897734880447,0.015636030584573746,-0.07338932901620865,-0.08254223316907883,0.008562006056308746,0.07365547120571136,-0.0495411641895771,-0.00763083528727293,0.03468180075287819,-0.11765670776367188,0.13093791902065277,-0.037873875349760056,0.1529935598373413,0.020608041435480118,0.059354256838560104,-0.06680426746606827,0.17819295823574066,-0.055114440619945526,0.021809211000800133,-0.0018778672674670815,0.10323092341423035,-0.09410522878170013,-0.00043506553629413247,-0.19710640609264374,-0.03892049193382263,-0.18648028373718262,0.03444425389170647,-0.043901365250349045,-0.14279256761074066,0.09512010216712952,0.06475327908992767,0.06373612582683563,0.02096877247095108,-0.05400552600622177,0.1136414185166359,0.0645318478345871,-0.012088540010154247,0.15650130808353424,-0.002579812193289399,-0.07417211681604385,-0.08017102628946304,0.11016035825014114,0.1309501677751541,-0.07083834707736969,-0.05186369642615318],[-0.1662672907114029,-0.1030447855591774,-0.005274335388094187,-0.03392595797777176,-0.11180003732442856,0.1539274901151657,0.06951634585857391,-0.03501340374350548,0.01687922514975071,-0.1590871512889862,-0.00225965422578156,0.1768525093793869,-0.19552494585514069,-0.030293138697743416,-0.09752154350280762,-0.04681026190519333,0.0068764700554311275,-0.11827420443296432,0.006212939508259296,-0.009039814583957195,0.16876976191997528,-0.0321430079638958,0.09131869673728943,-0.10532256960868835,0.03009488433599472,-0.020688451826572418,0.4227893054485321,0.13152429461479187,0.07483288645744324,-0.18267227709293365,0.02128673531115055,-0.13742609322071075,-0.20297890901565552,-0.04213465005159378,0.0533430241048336,0.025489376857876778,0.03241269290447235,0.0622529461979866,0.01899978704750538,-0.08113791048526764,0.12201522290706635,0.02456524223089218,0.10343282669782639,-0.1140313670039177,0.20091165602207184,-0.0375058650970459,-0.20561198890209198,-0.02122564986348152,0.05594217777252197,-0.1204608753323555,0.02549019269645214,0.0015963142504915595,-0.10587090253829956,-0.05775029584765434,0.016136448830366135,0.09520727396011353,0.04074673727154732,0.036381807178258896,-0.03504776209592819,0.03638031333684921,0.4550290107727051,0.09767892956733704,-0.03068831004202366,0.1057501882314682,0.09805718064308167,0.1738778054714203,0.1363050937652588,-0.07970526069402695,0.14790119230747223,0.03193899989128113,0.011034267954528332,-0.054638657718896866,0.010472934693098068,0.08537543565034866,0.006868815515190363,0.11508917063474655,0.12801240384578705,0.03605014085769653,0.05075925216078758,-0.03302854299545288,0.22839833796024323,0.0854160264134407,0.09620822966098785,-0.09897076338529587,0.11284280568361282,0.04564743861556053,-0.0797174721956253,0.09414807707071304,0.12327256798744202,-0.024583125486969948,0.05946119502186775,0.023774530738592148,0.2033727467060089,0.021086854860186577,0.1896447241306305,0.03251888230443001,0.26667818427085876,0.08032269030809402,-0.008151762187480927,0.1558777093887329,0.03494591638445854,0.03543618693947792,0.13089971244335175,-0.18448852002620697,-0.042648375034332275,0.21081361174583435,0.01984517090022564,-0.0805196613073349,-0.01231264229863882,-0.05778219550848007,-0.13073758780956268,0.02573370188474655,0.19237841665744781,-0.00010898807522607967,-0.034941986203193665,0.18073660135269165,-0.0513019859790802,0.1603141576051712,0.11910973489284515,-0.09474039077758789,-0.06456563621759415,0.03988019749522209,-0.09278518706560135,0.032348234206438065,0.10775618255138397,-0.21037733554840088,-0.028995398432016373,0.09976016730070114,0.1365511566400528,-0.10433635115623474,-0.2103038728237152,0.016977401450276375,0.16125249862670898,0.0035913484171032906,-0.0020709368400275707,0.09909436106681824,-0.18774691224098206,-0.02478150837123394],[0.04713897407054901,0.044457901269197464,-0.23540349304676056,-0.1212528795003891,-0.04065945744514465,-0.06497351080179214,-0.08808192610740662,0.08088167756795883,0.07222527265548706,-0.024932540953159332,-0.20696952939033508,0.13340803980827332,0.04231451824307442,-0.12042555958032608,0.11327575147151947,0.08334344625473022,-0.09600868821144104,0.13921929895877838,0.014608937315642834,0.11738500744104385,0.009520703926682472,0.05267227068543434,0.02400141768157482,0.22733750939369202,0.0501844696700573,-0.18067622184753418,0.02088872529566288,0.0015132008120417595,-0.06543134152889252,0.060178980231285095,-0.0030151528771966696,-0.006472336128354073,-0.002205733209848404,0.08099965751171112,0.025281131267547607,-0.11131049692630768,0.07546399533748627,-0.12004633992910385,-0.03178378567099571,-0.2575775980949402,0.1657247543334961,0.044290971010923386,0.13915188610553741,0.01398414932191372,0.05771663412451744,0.06737100332975388,-0.2538336515426636,0.21133467555046082,-0.21452733874320984,-0.08513171225786209,0.009683746844530106,0.001984708709642291,0.1729556769132614,-0.05647946894168854,0.054097097367048264,-0.10932249575853348,0.06364453583955765,0.0623815581202507,-0.20552627742290497,-0.15837211906909943,-0.04696762561798096,-0.034602437168359756,-0.05165519565343857,0.11389384418725967,0.25894325971603394,-0.10849093645811081,0.2565159201622009,-0.024150768294930458,0.014450266025960445,0.022280549630522728,0.2165566086769104,-0.23427429795265198,0.15215450525283813,0.04849514365196228,-0.3092685043811798,-0.050696149468421936,-0.019256029278039932,-0.05530746653676033,0.1492249220609665,0.006616327445954084,0.04876871407032013,-0.023988816887140274,-0.1758573353290558,0.2273280918598175,-0.16366420686244965,-0.03267892450094223,0.2791248857975006,-0.05429316312074661,-0.02723035030066967,-0.19530226290225983,-0.12155205011367798,-0.1407412439584732,0.2916136384010315,0.13648444414138794,-0.03293702006340027,0.0032920329831540585,-0.07893536984920502,-0.19712914526462555,0.04641062393784523,0.13979773223400116,-0.05088507756590843,0.12169844657182693,-0.03999364748597145,0.06656806915998459,-0.1641179472208023,0.2911551594734192,-0.14910101890563965,-0.07279132306575775,-0.06846712529659271,0.16270455718040466,-0.1809941679239273,-0.2987131178379059,0.13975855708122253,0.08283984661102295,0.03127960488200188,0.17575407028198242,-0.024928966537117958,0.003718437161296606,-0.07818641513586044,0.14544178545475006,-0.0423729233443737,-0.1292218714952469,0.058390796184539795,0.027673548087477684,-0.1944512575864792,-0.18747445940971375,-0.06468906253576279,-0.06966111809015274,-0.03745463490486145,0.20049133896827698,0.16308210790157318,-0.09083578735589981,-0.008273574523627758,0.18439851701259613,-0.021096859127283096,0.008986473083496094,-0.019416136667132378,0.14803668856620789],[-0.040571101009845734,-0.09544683992862701,0.08059407025575638,-0.02221478521823883,0.04755554720759392,0.0714450404047966,-0.047996167093515396,0.115040123462677,-0.0021355331409722567,0.05167340114712715,0.05091090127825737,-0.07193490862846375,0.015730926766991615,-0.01717628538608551,-0.07106763124465942,-0.1996273249387741,-0.07948005199432373,0.019948583096265793,0.1577180176973343,-0.03425443172454834,-0.14047914743423462,0.011571139097213745,-0.24790197610855103,-0.06490065157413483,-0.27931666374206543,-0.07393231987953186,-0.01732257381081581,0.02948681078851223,0.12146954983472824,0.10398081690073013,-0.07490766793489456,0.06359358131885529,-0.15909844636917114,-0.0031113303266465664,-0.0632602870464325,0.28903111815452576,-0.058987993746995926,0.021043919026851654,0.052806202322244644,-0.023547695949673653,-0.14807730913162231,-0.05590897053480148,-0.16441696882247925,-0.10287775844335556,-0.05543912574648857,-0.025481728836894035,0.09559124708175659,0.03445269912481308,0.09850895404815674,-0.07224568724632263,0.061705633997917175,-0.18058614432811737,-0.028667012229561806,0.20841588079929352,-0.2595834732055664,0.27645614743232727,-0.06709111481904984,-0.05479746311903,-0.0030578391160815954,0.13220924139022827,-0.1560417264699936,-0.11424490064382553,-0.02563137374818325,0.23228336870670319,0.059906963258981705,-0.10352376848459244,0.06034812331199646,-0.04157920554280281,-0.05875686556100845,-0.10597026348114014,0.03555193915963173,-0.05371373891830444,-0.1783606857061386,-0.18814392387866974,0.05672096461057663,-0.13839684426784515,-0.19072376191616058,0.08880537748336792,-0.10312869399785995,-0.21094389259815216,0.10066239535808563,0.23022989928722382,0.13128964602947235,-0.1311255693435669,0.09650742262601852,-0.04479512572288513,-0.13076357543468475,-0.18565931916236877,-0.09881717711687088,0.058474790304899216,-0.08695195615291595,0.12786856293678284,0.12447464466094971,-0.15956932306289673,0.1411769837141037,0.02285698801279068,0.002659545047208667,0.20745670795440674,0.266013503074646,-0.05362941697239876,-0.13532306253910065,0.057122211903333664,0.03547222912311554,-0.143722265958786,0.0314539335668087,-0.10085044056177139,-0.1910962164402008,-0.0019237363012507558,0.18508043885231018,0.15898512303829193,0.037701141089200974,0.006099690217524767,0.03292672708630562,-0.013080553151667118,0.2948845326900482,0.06588979810476303,0.1087491512298584,0.17925986647605896,0.08498279750347137,0.16839371621608734,-0.22478732466697693,-0.11980864405632019,-0.004791630432009697,-0.02821221575140953,0.028854850679636,-0.0031031619291752577,0.07246235013008118,0.054564982652664185,-0.1584172546863556,-0.1674780249595642,0.20018835365772247,0.13762837648391724,0.029566822573542595,0.017550744116306305,0.0322096087038517,0.05173076316714287,0.03277410566806793,0.04753490164875984],[0.07306603342294693,-0.05998921021819115,-0.26385071873664856,0.0643603652715683,-0.053200580179691315,-0.05204178765416145,-0.015230203047394753,-0.11214756220579147,0.017942417412996292,-0.2820437252521515,-0.015753481537103653,0.0495976023375988,-0.04553961008787155,-0.006082439795136452,-0.12298616766929626,-0.03806444630026817,0.11818158626556396,-0.02534288726747036,0.16505025327205658,-0.10534869879484177,0.010027281939983368,0.11153735965490341,-0.12093374133110046,0.08355090767145157,0.03702124208211899,-0.013403523713350296,-0.07532202452421188,-0.0954819768667221,0.12826532125473022,0.004112387076020241,0.024554379284381866,-0.07868103682994843,-0.16625802218914032,-0.02957266941666603,-0.10108648985624313,0.0045645106583833694,0.11985123157501221,-0.21539077162742615,-0.23368299007415771,0.08858635276556015,-0.10259704291820526,0.0030782835092395544,-0.03530532121658325,-0.0335022434592247,-0.12246040254831314,0.022659189999103546,-0.26288554072380066,0.02131122723221779,0.00823757704347372,-0.10734984278678894,-0.01873544417321682,0.18120957911014557,0.06367415934801102,-0.17484050989151,0.08296885341405869,-0.107254758477211,0.05695781484246254,-0.30936679244041443,-0.11877956241369247,-0.11738799512386322,-0.26166459918022156,0.015740439295768738,0.13736578822135925,-0.19573864340782166,-0.05139622464776039,-0.14841389656066895,0.02019144780933857,0.07487092912197113,-0.19602635502815247,-0.007134144194424152,-0.09349358826875687,-0.10670363157987595,-0.011388065293431282,-0.17280468344688416,-0.12342370301485062,0.09869900345802307,0.18617600202560425,-0.11352144926786423,-0.14694702625274658,0.007374136708676815,0.033617474138736725,0.1149892583489418,-0.23881657421588898,-0.05914377048611641,-0.05213755741715431,0.0896279513835907,-0.1340124011039734,0.015480133704841137,0.041250940412282944,0.05406542494893074,0.11835378408432007,-0.141624316573143,-0.022658059373497963,-0.009271965362131596,-0.02670476585626602,-0.12006673961877823,-0.024453291669487953,-0.07237139344215393,-0.1329934000968933,0.12051709741353989,0.04305877164006233,0.09529218822717667,-0.05978085473179817,0.1182834729552269,-0.14861710369586945,0.10676569491624832,0.05099911242723465,-0.021068908274173737,-0.002158863004297018,0.10588204860687256,0.10994555056095123,-0.012404149398207664,-0.015322812832891941,-0.15966901183128357,0.02100406400859356,-0.18097814917564392,0.06621583551168442,0.030606534332036972,0.08318132162094116,0.04951748624444008,-0.003974846098572016,0.19286991655826569,-0.0570225864648819,-0.10876881331205368,-0.17255283892154694,0.025864096358418465,-0.11403366178274155,0.019994203001260757,0.10387782007455826,0.1255066692829132,-0.12427933514118195,0.004832535516470671,0.00037809833884239197,-0.29220902919769287,0.0648532584309578,0.1823907345533371,-0.053779058158397675,0.05393476411700249],[0.26162469387054443,0.017165783792734146,-0.0351545587182045,0.3412500321865082,-0.00894165225327015,0.015716399997472763,0.09179449826478958,-0.0710051879286766,0.1395363211631775,0.03516800329089165,-0.015576223842799664,-0.030386120080947876,0.08706939965486526,0.02225680835545063,-0.1661226898431778,-0.09979207068681717,-0.13204966485500336,0.023710966110229492,-0.10527309775352478,-0.2742626965045929,0.08369651436805725,-0.20685192942619324,-0.04397093132138252,0.30332550406455994,0.13899359107017517,-0.05212586000561714,-0.02059798128902912,-0.13008759915828705,-0.06086542829871178,-0.1484285444021225,-0.05318557471036911,0.19392867386341095,0.020360900089144707,-0.019221113994717598,-0.05436025932431221,0.07562899589538574,-0.11094574630260468,0.10835184901952744,0.11229511350393295,0.16733770072460175,-0.1586841493844986,-0.15222279727458954,-0.09364403039216995,0.09489629417657852,-0.0016833714907988906,-0.028328722342848778,-0.09438285231590271,-0.16067059338092804,0.019602200016379356,-0.0914042517542839,-0.043784163892269135,0.1251925528049469,0.0336654894053936,-0.02141757123172283,-0.2436726689338684,-0.027759244665503502,-0.12770138680934906,-0.2910533547401428,-0.02367320843040943,-0.10827802121639252,0.016325173899531364,0.0386025570333004,-0.015151445753872395,-0.20392097532749176,0.06243099272251129,0.08062232285737991,0.162140354514122,-0.1505911648273468,0.11702422052621841,0.04923238977789879,-0.05635744333267212,-0.12643998861312866,0.06543479859828949,0.0014148502377793193,0.06913062930107117,-0.052419811487197876,0.09319713711738586,-0.034881144762039185,-0.028635531663894653,-0.04023855924606323,-0.03825009614229202,-0.09355257451534271,0.23954543471336365,0.07639900594949722,0.07064803689718246,-0.04438677802681923,0.2527990937232971,-0.157339945435524,-0.017781319096684456,-0.1260220855474472,0.06506181508302689,0.12753203511238098,0.09636039286851883,-0.027063947170972824,0.0629146546125412,0.12851345539093018,0.00963633693754673,-0.002278743078932166,-0.07232324033975601,0.03596685081720352,-0.12577109038829803,0.17906248569488525,0.049473583698272705,0.03825230896472931,0.00047324554179795086,0.20645572245121002,-0.10870496928691864,0.0014984875451773405,-0.006289575714617968,0.15249823033809662,-0.09544318169355392,-0.026725467294454575,0.029483167454600334,-0.1824360340833664,-0.15047354996204376,-0.12605935335159302,0.11225868761539459,-0.06588507443666458,-0.09324106574058533,0.018126046285033226,-0.059290479868650436,0.01188612263649702,0.020960116758942604,-0.1270870417356491,-0.1770360767841339,0.010152911767363548,-0.10028177499771118,-0.0016598885413259268,0.10985016822814941,0.1228746771812439,0.09697103500366211,-0.10790174454450607,-0.20627738535404205,-0.16534413397312164,-0.11765972524881363,0.04693543165922165,-0.13581860065460205,0.05785982310771942],[0.02496117539703846,-0.2852659523487091,0.2975175082683563,0.21636907756328583,-0.0008193083922378719,0.09669363498687744,-0.1646723747253418,-0.09324046969413757,0.08594470471143723,-0.09990084916353226,-0.01702231541275978,-0.06371887028217316,0.03698454797267914,0.07728563994169235,-0.1768403947353363,0.1424073874950409,-0.0004090330912731588,-0.1458962857723236,0.011069701984524727,0.1597995162010193,-0.3993895649909973,0.035691894590854645,-0.04452015459537506,-0.08011381328105927,0.05166769400238991,-0.08700453490018845,-0.04419492557644844,-0.10208570212125778,-0.11005981266498566,-0.042838599532842636,-0.08629661053419113,-0.14879059791564941,0.11781247705221176,0.1540953367948532,-0.056357163935899734,0.04837099462747574,-0.09501611441373825,0.14195093512535095,0.25748082995414734,0.1600767970085144,0.016951410099864006,-0.16816669702529907,0.029234910383820534,0.055635690689086914,0.004336858168244362,0.2060842216014862,-0.18560463190078735,-0.2543172240257263,0.19071699678897858,-0.028559468686580658,-0.1574728935956955,-0.05758356302976608,0.017555229365825653,-0.05481661856174469,0.08024947345256805,-0.1177109107375145,0.15154437720775604,-0.10252153873443604,-0.012811947613954544,0.19185522198677063,-0.2073286920785904,-0.09087204933166504,0.1593531370162964,0.2532616853713989,-0.05389631539583206,-0.1304660141468048,-0.10912013798952103,-0.07952854037284851,0.1404234766960144,0.08392619341611862,-0.11672443896532059,0.01442611962556839,-0.011467563919723034,0.018551120534539223,0.033420585095882416,-0.059679437428712845,-0.06815758347511292,0.022088197991251945,0.05540263652801514,0.19741667807102203,0.1731264442205429,0.06720393151044846,-0.08566733449697495,0.06565037369728088,0.05443097651004791,0.12853862345218658,0.10208720713853836,0.11489352583885193,0.06906182318925858,0.011182810179889202,0.07198306918144226,0.1477579027414322,-0.09090525656938553,-0.08349161595106125,-0.07914730161428452,0.028428787365555763,-0.052287887781858444,-0.027836307883262634,0.12445386499166489,-0.10101402550935745,-0.023291494697332382,-0.03658602014183998,-0.0631910115480423,-0.1789218634366989,0.018499555066227913,0.08544349670410156,-0.09103396534919739,-0.04084542766213417,-0.12459603697061539,-0.06387941539287567,-0.26920437812805176,0.09057480096817017,-0.06802267581224442,-0.31606337428092957,-0.21187643706798553,0.0618133544921875,0.1275586187839508,-0.015272527933120728,-0.0651739090681076,0.06714443862438202,-0.1914089173078537,-0.07562706619501114,0.020548352971673012,-0.062276750802993774,0.16739508509635925,-0.0671093761920929,-0.12878914177417755,-0.050778962671756744,0.1603682041168213,0.06771375238895416,-0.000654954113997519,-0.007404513191431761,-0.0465373694896698,0.046254877001047134,0.19747495651245117,-0.0406513474881649,-0.09552609175443649,-0.18598610162734985],[-0.03298627957701683,-0.1747521013021469,-0.18319793045520782,0.11688000708818436,-0.10251260548830032,-0.002209237078204751,-0.005247369408607483,-0.24974945187568665,-0.03812568634748459,0.030872583389282227,-0.18949823081493378,0.19929005205631256,0.05413547903299332,0.17846845090389252,-0.05923672020435333,-0.049420177936553955,0.006489771883934736,-0.05124475434422493,-0.3039061725139618,0.006927424110472202,0.11724111437797546,0.2627524733543396,0.23423652350902557,-0.16908739507198334,-0.005586335435509682,-0.21343445777893066,0.029873978346586227,-0.03317522630095482,-0.06489371508359909,0.1497122198343277,0.02767803519964218,-0.10005050897598267,0.1582861840724945,-0.061826832592487335,-0.1751454621553421,0.14252252876758575,0.005782364867627621,-0.07666251063346863,0.06419391930103302,0.18836575746536255,0.079979307949543,-0.0022877627052366734,0.14655984938144684,0.022788114845752716,-0.035495683550834656,-0.06626664847135544,0.014466351829469204,0.022586453706026077,-0.12450101971626282,0.13723857700824738,0.03596820682287216,-0.0028303773142397404,-0.009528210386633873,-0.009842042811214924,-0.25305694341659546,-0.0946006253361702,0.18914838135242462,0.0367632620036602,0.10609189420938492,0.11191714555025101,-0.07752744853496552,0.03929077088832855,0.07331939786672592,0.06955636292695999,0.03758730739355087,-0.030662674456834793,-0.023288853466510773,-0.24000704288482666,-0.051608938723802567,0.19488772749900818,-0.010865481570363045,-0.033902425318956375,0.017336362972855568,-0.025539254769682884,-0.11850245296955109,-0.1648237556219101,-0.04873991757631302,0.05344478413462639,0.09661649167537689,-0.0864998921751976,0.12491048127412796,0.03558672219514847,-0.1683891862630844,-0.05297142639756203,-0.10609529912471771,-0.09263676404953003,-0.02494950033724308,-0.16568566858768463,0.0006455698166973889,-0.0006755848880857229,-0.12177383154630661,-0.03542955592274666,0.18614543974399567,0.09906981885433197,0.12247255444526672,0.04363524541258812,-0.016980428248643875,-0.18884772062301636,-0.126601904630661,-0.026111707091331482,-0.026839613914489746,-0.19621703028678894,-0.024900119751691818,0.11946901679039001,-0.15588311851024628,0.19048115611076355,-0.12527619302272797,0.18922360241413116,-0.14968585968017578,-0.12037257850170135,-0.1907486915588379,0.08904505521059036,-0.05959692224860191,0.04524318128824234,-0.013876748271286488,0.03645670413970947,0.03284338116645813,-0.10215551406145096,0.006626978982239962,0.020022891461849213,0.026985058560967445,0.04717179387807846,0.2293078750371933,-0.04363540560007095,0.011816073209047318,-0.15890486538410187,0.021639766171574593,0.014338565990328789,-0.13571207225322723,-0.09580381959676743,0.15809132158756256,0.04890529066324234,-0.13273885846138,0.057874131947755814,0.18011051416397095,-0.12005361169576645,0.01797318086028099,-0.03358132392168045],[0.046924836933612823,-0.0903831422328949,-0.09490569680929184,-0.13359464704990387,0.1283106952905655,-0.07680598646402359,-0.07005942612886429,-0.15895028412342072,0.05531314015388489,-0.09429366141557693,0.0949559211730957,0.16547027230262756,0.14351676404476166,-0.01871713064610958,0.17125393450260162,0.05648183822631836,0.17078357934951782,0.22319751977920532,-0.021370714530348778,-0.06857920438051224,-0.22113721072673798,0.11574507504701614,-0.06865064054727554,-0.0495411716401577,-0.11857911199331284,0.027705414220690727,0.0008682829793542624,0.1715095192193985,0.11327609419822693,0.007995746098458767,-0.1085030809044838,-0.21448826789855957,-0.06672245264053345,-0.19292806088924408,0.025450212880969048,-0.011421019211411476,0.30122435092926025,-0.10646307468414307,-0.07202064990997314,0.02406543493270874,-0.039705194532871246,-0.030575057491660118,-0.22874751687049866,-0.1234462633728981,0.14672666788101196,0.09984858334064484,-0.15501247346401215,-0.10509257763624191,-0.2714080810546875,-0.05168525129556656,0.015277707949280739,0.09100773930549622,0.0016305639874190092,-0.0351671501994133,-0.15983116626739502,0.19914662837982178,0.02135433629155159,-0.05044011399149895,0.15928220748901367,0.002601409563794732,0.10783004760742188,0.1621076911687851,0.12646344304084778,-0.09135667234659195,-0.12950505316257477,-0.1351214498281479,0.06740258634090424,0.23261792957782745,-0.16398562490940094,0.06286213546991348,-0.04410792514681816,0.11672113090753555,0.05663406476378441,-0.16073468327522278,-0.19185969233512878,-0.026002362370491028,0.16079939901828766,-0.022059231996536255,0.11438185721635818,-0.043523021042346954,-0.08636228740215302,0.06899730861186981,-0.1911834329366684,0.025076916441321373,0.08778270334005356,-0.18286928534507751,-0.07767029106616974,0.19520041346549988,0.04517015442252159,0.06636611372232437,-0.16878299415111542,-0.03433160111308098,0.02143092080950737,-0.04941815510392189,-0.13471965491771698,0.015294775366783142,-0.026691023260354996,-0.26314210891723633,-0.25909945368766785,0.05700598657131195,0.07301974296569824,0.12176651507616043,0.1374872624874115,-0.1073533222079277,-0.053298383951187134,0.032591596245765686,-0.13327886164188385,0.16645599901676178,-0.0733736902475357,0.20235316455364227,0.02268235944211483,-0.2198825478553772,-0.2507939338684082,-0.08835451304912567,0.14505255222320557,0.02500978671014309,-0.11292121559381485,-0.214983731508255,-0.11536908149719238,-0.05774008482694626,0.016300959512591362,0.12167087942361832,-0.11799395084381104,0.08242102712392807,-0.15251868963241577,0.00489044701680541,0.006372740492224693,-0.14445188641548157,0.19700880348682404,0.09751509875059128,-0.11890409141778946,0.06412433832883835,-0.07976237684488297,0.11276498436927795,-0.1608344465494156,-0.103872150182724,0.23643095791339874,0.05690431967377663],[0.05143946409225464,0.08876144886016846,0.11133068799972534,0.06949370354413986,-0.03264068067073822,-0.16236568987369537,0.01721201278269291,-0.020129062235355377,0.0521170012652874,0.020923715084791183,-0.10250668972730637,-0.14492085576057434,0.00643343199044466,-0.051985546946525574,0.2323119193315506,-0.010075654834508896,-0.16509057581424713,-0.07331395149230957,0.07662205398082733,-0.028792163357138634,-0.041960086673498154,-0.18056829273700714,0.25872623920440674,0.08457273989915848,0.06688747555017471,0.10193797945976257,0.014146162196993828,0.29802772402763367,-0.040434930473566055,0.05854048207402229,-0.12785562872886658,0.1311122477054596,0.09124045073986053,0.03928619623184204,-0.12241506576538086,-0.0019835198763757944,-0.010943170636892319,0.03079492226243019,-0.08552238345146179,0.12180566042661667,0.11857910454273224,0.12429283559322357,0.07200084626674652,0.07327071577310562,0.03810841217637062,-0.1685657650232315,0.08227844536304474,-0.06710628420114517,-0.19647812843322754,-0.23569512367248535,-0.13470248878002167,-0.2869262099266052,-0.15951760113239288,0.15911714732646942,0.2765499949455261,-0.3584471344947815,0.014806766994297504,-0.07308927178382874,-0.11597700417041779,-0.13662637770175934,0.08488726615905762,0.28356602787971497,0.10688246786594391,-0.1550421565771103,-0.003728532465174794,-0.1016298308968544,0.1993277668952942,0.12641246616840363,0.0000933157280087471,-0.018931919708848,-0.11301491409540176,0.0669628381729126,-0.16198354959487915,0.12173092365264893,0.1070193499326706,-0.08440123498439789,-0.04448531195521355,0.09018616378307343,-0.021538052707910538,-0.017125969752669334,-0.09495258331298828,-0.20956730842590332,0.02309567667543888,0.1858392059803009,-0.0803917869925499,0.08640309423208237,0.15503887832164764,-0.00007422934140777215,0.09610825777053833,-0.11527588218450546,-0.11861903965473175,-0.0637543573975563,-0.03763348609209061,-0.1892227977514267,-0.02470763772726059,-0.09931550920009613,-0.23676106333732605,0.18691661953926086,0.1956227421760559,0.040548134595155716,-0.03541496396064758,-0.11896289885044098,0.15779612958431244,0.03828837722539902,-0.14541161060333252,-0.007551651448011398,-0.20635512471199036,-0.022845948114991188,0.021369552239775658,-0.1333736628293991,-0.030240345746278763,0.11147616058588028,-0.11041475087404251,0.25334104895591736,0.2782963514328003,0.00024239002959802747,-0.07067742198705673,0.030538063496351242,0.17741098999977112,-0.2351556420326233,0.011675886809825897,0.05755222216248512,-0.0005515775410458446,-0.08689434826374054,0.09994371980428696,-0.06057358533143997,0.1375504732131958,0.04150117188692093,-0.09391650557518005,0.13967041671276093,0.061266668140888214,0.12371579557657242,0.12319599837064743,0.08867271989583969,-0.023002460598945618,0.017098255455493927,-0.12615962326526642,0.07714509218931198],[0.04147578775882721,-0.06995447725057602,-0.17550455033779144,-0.041785985231399536,0.32084065675735474,-0.018161464482545853,-0.03038930520415306,-0.05636206641793251,0.044926609843969345,0.169748455286026,0.23374508321285248,0.04741917923092842,-0.00170969741884619,0.041855208575725555,0.04582590609788895,0.022342370823025703,-0.12120895087718964,0.11234346777200699,-0.03931625932455063,0.1851292848587036,0.0690520778298378,0.06510645896196365,0.060768973082304,0.15384428203105927,-0.0685129463672638,0.08127309381961823,0.014893271960318089,0.024987351149320602,0.0259381290525198,-0.11539275199174881,0.10993398725986481,-0.10815200954675674,0.07095000892877579,0.04617675393819809,-0.03211851045489311,0.09483912587165833,0.3612891733646393,-0.000276800652500242,-0.11459030956029892,-0.1142200157046318,-0.08338840305805206,0.17514201998710632,0.012966880574822426,-0.022003814578056335,0.13689033687114716,-0.005088432691991329,0.01918969489634037,0.040343236178159714,-0.14838464558124542,0.08756477385759354,0.2352408468723297,-0.01974332332611084,0.02723461203277111,0.08835119009017944,0.14074474573135376,-0.01786135695874691,-0.14830423891544342,0.12437279522418976,0.019541408866643906,0.005809966009110212,0.09842628240585327,0.1754828244447708,0.06622284650802612,-0.20308402180671692,-0.05415778607130051,-0.11104398220777512,0.07245144248008728,0.03394532948732376,-0.21385526657104492,-0.38561558723449707,0.036877136677503586,0.04486523196101189,0.17291013896465302,-0.2061622142791748,0.09431067854166031,-0.044154755771160126,-0.05139083042740822,0.12410011887550354,0.000052552102715708315,0.0422733910381794,0.07370839267969131,-0.13082028925418854,0.0536392405629158,0.061837974935770035,0.12257193773984909,0.07977402955293655,0.04651103913784027,0.11973819136619568,0.20620262622833252,0.10143845528364182,0.06164523959159851,0.04423605650663376,-0.05318812280893326,0.1615341305732727,-0.2527683973312378,-0.10674276947975159,-0.1527637392282486,0.04374692589044571,0.18692095577716827,0.21218247711658478,-0.06630349904298782,-0.080865778028965,-0.15492239594459534,-0.14263823628425598,0.09361999481916428,0.3590378761291504,-0.06459075957536697,0.009905015118420124,0.09749297797679901,-0.129746213555336,0.21457388997077942,-0.07426469773054123,0.0641009658575058,0.15720511972904205,0.0704086497426033,-0.04539172723889351,-0.3846132159233093,0.16909261047840118,-0.0388454832136631,-0.06518462300300598,-0.0967506542801857,-0.09493216127157211,0.0283309668302536,-0.21675339341163635,0.02214321866631508,0.01954839378595352,0.1016359031200409,-0.01289377361536026,0.02781660109758377,0.07268232107162476,0.08466124534606934,-0.08468826860189438,-0.11390808969736099,0.10201817005872726,-0.1318099945783615,-0.07905574142932892,-0.1331496685743332,0.15437637269496918],[0.11209305375814438,0.11284715682268143,-0.18312391638755798,-0.21001841127872467,-0.08905134350061417,-0.19663618505001068,-0.13872148096561432,-0.35120612382888794,-0.23931485414505005,0.044315632432699203,-0.030213065445423126,0.13783320784568787,-0.041689880192279816,-0.008438845165073872,-0.10167963802814484,-0.14241929352283478,0.08244208991527557,0.06587277352809906,-0.16511577367782593,-0.20949406921863556,-0.01008523814380169,0.020320722833275795,0.06799320131540298,-0.08471320569515228,0.19521823525428772,-0.12168559432029724,0.3230779469013214,0.128334179520607,0.12373647093772888,0.07029938697814941,0.08402203023433685,-0.024993782863020897,-0.0023674401454627514,-0.02848704531788826,-0.21965384483337402,-0.16998139023780823,-0.08846213668584824,-0.18827500939369202,-0.12334666401147842,-0.17278195917606354,0.03647783026099205,-0.037507642060518265,-0.03893863409757614,-0.2049001306295395,0.08021379262208939,0.09171079844236374,-0.089659683406353,-0.02339463122189045,-0.1967325359582901,0.015667490661144257,0.011727349832654,-0.0034321730490773916,-0.19076837599277496,-0.10469172894954681,0.027721598744392395,-0.006848175078630447,-0.09500034153461456,0.05485338345170021,0.009970706887543201,-0.016010913997888565,0.12611471116542816,0.18489211797714233,0.16706416010856628,-0.025167668238282204,-0.00764432130381465,-0.18033413589000702,-0.0032491597812622786,-0.2793307602405548,-0.02439839392900467,0.16804181039333344,0.16605590283870697,-0.02629324421286583,0.19410797953605652,-0.07346854358911514,-0.22465379536151886,-0.07044754177331924,0.11681125313043594,0.1706637591123581,-0.08695106953382492,-0.004537031054496765,-0.060361091047525406,0.17218017578125,-0.14296844601631165,-0.0328785665333271,0.022847119718790054,0.1827610731124878,-0.059569522738456726,-0.0886247307062149,0.03589014336466789,0.11731640994548798,-0.054706040769815445,0.047929927706718445,0.09181103110313416,-0.040841180831193924,0.05190412700176239,-0.07057083398103714,0.15384450554847717,0.010290759615600109,-0.055409207940101624,-0.0033822227269411087,0.014512840658426285,0.02690097875893116,0.07813955843448639,-0.04119732230901718,-0.06228836998343468,0.09845788776874542,-0.12390542775392532,-0.08883950859308243,-0.052259236574172974,-0.11646853387355804,0.19291196763515472,-0.014219585806131363,-0.13978029787540436,-0.12049209326505661,0.08289393037557602,0.07881878316402435,-0.08823566883802414,-0.09037251770496368,-0.005391966085880995,0.022788289934396744,-0.0015154739376157522,0.13082480430603027,0.1300806999206543,-0.0928884893655777,-0.24915361404418945,0.07079363614320755,-0.29290148615837097,-0.08949394524097443,0.06349902600049973,0.056940481066703796,0.12535078823566437,-0.06838313490152359,0.16815991699695587,-0.13671907782554626,-0.03950035199522972,-0.11135163903236389,0.1845160722732544,-0.028413088992238045],[0.1283366084098816,0.018630852922797203,-0.11215546727180481,0.12075337767601013,0.10665689408779144,-0.2309882640838623,0.09263797849416733,-0.28778326511383057,-0.21481630206108093,-0.006049904972314835,0.001278335228562355,0.06059078499674797,0.12028166651725769,0.17071004211902618,-0.24150730669498444,0.031153066083788872,-0.0042616152204573154,-0.016843106597661972,0.08144699037075043,0.0004321671440266073,-0.0413026288151741,-0.009605370461940765,-0.0043826354667544365,-0.23050536215305328,-0.005158320534974337,0.005535038188099861,0.14244474470615387,0.1754542738199234,-0.005922404583543539,0.08393093198537827,-0.05584212765097618,0.029270870611071587,-0.03465802222490311,0.03801954165101051,0.07538134604692459,-0.049217842519283295,-0.24454447627067566,-0.02742118388414383,-0.11495040357112885,-0.15721012651920319,0.08573413640260696,0.007623672019690275,0.1360626220703125,0.014821958728134632,-0.11882256716489792,-0.07914749532938004,-0.1447179615497589,0.018661709502339363,-0.0004987900611013174,0.0020092299673706293,0.09990935772657394,-0.027567755430936813,0.18416734039783478,-0.26953357458114624,0.1821679174900055,0.1203608363866806,0.07569567114114761,0.03173649311065674,-0.012185292318463326,-0.3177669048309326,-0.18561632931232452,-0.1834968626499176,0.11814071238040924,-0.10743874311447144,0.1036854237318039,0.05015967786312103,0.06900502741336823,0.1312931627035141,0.028284551575779915,-0.15368518233299255,0.20511789619922638,-0.09229107201099396,0.11636927723884583,0.12450587749481201,0.001059174071997404,-0.06474936753511429,-0.013086932711303234,-0.04062183201313019,-0.044917065650224686,0.10714051872491837,-0.2500103712081909,0.028120316565036774,-0.1436781883239746,0.20741690695285797,0.16677579283714294,-0.009577609598636627,-0.15193553268909454,0.06277310848236084,-0.09375979006290436,-0.028805632144212723,0.07662675529718399,-0.14830882847309113,0.09360126405954361,0.016582094132900238,-0.04723816365003586,0.021186435595154762,-0.09229326993227005,0.09662359207868576,0.07446201890707016,-0.16725894808769226,-0.06421259045600891,-0.04289906844496727,-0.1067243218421936,0.13455866277217865,0.09495289623737335,0.042147282510995865,-0.13439656794071198,0.02627604827284813,0.12876424193382263,-0.09702801704406738,-0.1691175401210785,0.15645338594913483,-0.08232739567756653,-0.022835399955511093,0.05699106678366661,-0.1292138546705246,0.1778753399848938,0.024841640144586563,-0.08659203350543976,-0.15949729084968567,-0.152669757604599,0.007935704663395882,0.09223968535661697,-0.03597090765833855,0.1414954960346222,0.16855020821094513,-0.14828981459140778,0.04842088744044304,0.025712953880429268,0.08556618541479111,-0.055768657475709915,-0.15166786313056946,0.033293597400188446,-0.13569673895835876,-0.3122679591178894,0.06568166613578796,-0.12630389630794525,-0.23198272287845612],[-0.0408041775226593,0.06536772847175598,0.011223919689655304,-0.00403363024815917,0.07632596790790558,-0.2298017144203186,0.06842181831598282,0.07956032454967499,-0.05977019667625427,-0.006324260029941797,0.252198725938797,-0.20241916179656982,0.20204675197601318,-0.15490655601024628,0.03122066706418991,-0.250943124294281,0.06586270779371262,0.08883430808782578,-0.23323632776737213,0.17753374576568604,0.010463635437190533,-0.0681154653429985,-0.12396784871816635,0.04141819849610329,0.19022288918495178,-0.06119673326611519,-0.004958450328558683,-0.002335213590413332,-0.2129223495721817,-0.11712564527988434,0.25823283195495605,-0.3297300934791565,0.0559568889439106,-0.05912410840392113,-0.1621396690607071,-0.06130601465702057,-0.08201098442077637,-0.09824558347463608,-0.009730139747262001,-0.139783576130867,-0.015553918667137623,-0.00740679819136858,-0.03878222778439522,0.0797552615404129,-0.06129863113164902,0.1566189080476761,-0.10503111779689789,-0.1341850310564041,-0.26992297172546387,-0.04646923765540123,-0.2967400550842285,-0.027344603091478348,-0.04421781748533249,-0.26632317900657654,0.02581995353102684,0.17032386362552643,-0.1278439164161682,0.21560028195381165,0.013366012834012508,0.10634828358888626,0.04620680585503578,-0.040377527475357056,0.048788826912641525,0.08805665373802185,-0.02874239906668663,-0.09756220877170563,-0.09156125783920288,0.04423430934548378,-0.10745686292648315,-0.08241010457277298,0.22113332152366638,0.00600739661604166,0.12805332243442535,-0.1734374314546585,-0.081854447722435,0.07679825276136398,0.22205109894275665,0.013741213828325272,0.23725976049900055,0.10884066671133041,-0.16502855718135834,-0.04896129295229912,0.0912071019411087,-0.02783541940152645,-0.0042295330204069614,-0.16290126740932465,-0.13437213003635406,0.20218048989772797,-0.03171627223491669,-0.07809717208147049,-0.04963162913918495,0.051727600395679474,-0.20791693031787872,0.0035377696622163057,0.005626745522022247,-0.06114751100540161,0.07235892117023468,0.20234599709510803,0.07794775068759918,-0.09705424308776855,-0.16628871858119965,-0.038707539439201355,-0.15831662714481354,-0.05514241009950638,0.24974140524864197,-0.12506206333637238,-0.018030675128102303,0.09311632812023163,-0.2451498955488205,0.17380328476428986,-0.07042264193296432,0.10311662405729294,-0.07054347544908524,0.03789907693862915,-0.14443621039390564,-0.13630545139312744,0.004179232753813267,-0.02171940915286541,0.039804089814424515,0.017458871006965637,-0.2004905492067337,-0.04960417002439499,0.055304985493421555,0.015405967831611633,0.05959579721093178,-0.0831112414598465,-0.12672345340251923,0.012506509199738503,0.16741587221622467,-0.16066667437553406,0.08698812872171402,0.21676947176456451,0.13877670466899872,-0.08532636612653732,-0.18838748335838318,0.13607652485370636,0.06237217038869858,0.02659863978624344],[0.006984286475926638,-0.22880657017230988,-0.12304724752902985,-0.13328523933887482,0.05128690227866173,-0.023393886163830757,-0.13135051727294922,0.07501611858606339,-0.15558885037899017,-0.08713033050298691,0.10204769670963287,-0.11720117926597595,0.12895944714546204,-0.09728558361530304,-0.003415902843698859,-0.13622282445430756,-0.06162475422024727,-0.024852916598320007,0.23746459186077118,-0.07963823527097702,-0.01283073890954256,0.03891103342175484,0.05959291011095047,-0.11819420754909515,0.007643644232302904,-0.1251417100429535,0.0982297956943512,-0.1393234133720398,-0.07325130701065063,0.11490941047668457,-0.1718420833349228,0.3542799651622772,-0.007036794442683458,0.0032460945658385754,-0.1445305198431015,0.04767028987407684,-0.0546659380197525,-0.10224257409572601,0.09362251311540604,0.006216397043317556,0.01581958308815956,0.1344364434480667,0.013741642236709595,-0.0014712481060996652,0.17446599900722504,0.14057844877243042,0.09122131019830704,-0.07289322465658188,0.11731468141078949,0.09840879589319229,-0.16054753959178925,-0.1360933929681778,-0.027673745527863503,-0.012010385282337666,-0.048403289169073105,-0.1978325992822647,-0.05837210640311241,-0.014539933763444424,0.030294260010123253,0.08081900328397751,-0.06063545122742653,-0.10357792675495148,0.07652043551206589,-0.10485050082206726,0.019974391907453537,0.06962314248085022,0.08747174590826035,0.014654839411377907,-0.1763806790113449,-0.05166981369256973,0.2173168808221817,0.033077191561460495,0.006731116212904453,-0.00039844593266025186,0.11855924874544144,-0.20314852893352509,-0.08974654227495193,-0.13402484357357025,0.1139429435133934,-0.008218719623982906,0.037611380219459534,0.08164345473051071,-0.2196435183286667,0.24720308184623718,-0.018550844863057137,0.05534592270851135,0.252436101436615,0.04862383380532265,-0.08800426870584488,0.11298944801092148,0.12941645085811615,-0.04174213111400604,0.08701141923666,-0.04830551892518997,-0.18209214508533478,-0.06222072243690491,-0.166818305850029,0.04351126402616501,0.21712684631347656,-0.13293135166168213,-0.019418638199567795,0.1718616783618927,0.11771892011165619,-0.08870448172092438,-0.22914807498455048,0.09500893205404282,0.02720065414905548,-0.027012623846530914,-0.09150807559490204,0.09355591982603073,0.10701971501111984,0.11985435336828232,0.04472743719816208,-0.1414007991552353,-0.022988149896264076,-0.16139701008796692,-0.21573372185230255,-0.13678327202796936,-0.04912813380360603,-0.1532782018184662,-0.1775086373090744,0.2224770039319992,-0.18335646390914917,-0.10269695520401001,-0.21702194213867188,0.08268170058727264,0.04159846529364586,0.07511230558156967,0.03805162012577057,-0.05920831486582756,0.02434719167649746,0.04853469133377075,-0.08349791914224625,0.18676114082336426,0.11367405205965042,0.04661130905151367,0.12103331089019775,0.09460177272558212],[0.05570570379495621,-0.09443110227584839,0.14325527846813202,-0.09217582643032074,-0.00905301421880722,0.012301313690841198,0.1879904568195343,0.10784730315208435,0.006743218284100294,0.018881849944591522,0.04741765186190605,-0.03582054004073143,-0.11587885767221451,-0.05314671993255615,-0.12640786170959473,-0.011030443012714386,0.16362671554088593,-0.10569480806589127,-0.07239419221878052,-0.0269478689879179,0.08852405846118927,0.09224836528301239,0.11293245106935501,0.14931520819664001,-0.037278879433870316,-0.1596175581216812,-0.008565972559154034,-0.1406722515821457,0.1541288048028946,0.08436639606952667,0.060932599008083344,0.004149586893618107,0.220079705119133,0.09683164954185486,0.18123511970043182,0.10725855827331543,-0.014247752726078033,-0.2809141278266907,0.014932313933968544,0.02549004554748535,-0.01601320505142212,-0.018214985728263855,-0.0897919163107872,0.02483174204826355,-0.06168586388230324,0.018489785492420197,-0.20485980808734894,0.04874958097934723,0.03001176193356514,-0.10452258586883545,-0.18715500831604004,-0.15337057411670685,0.03070937842130661,-0.2984235882759094,-0.05100031569600105,0.09860126674175262,0.05746636912226677,0.01294379960745573,0.01123275887221098,-0.13866925239562988,-0.06383422762155533,0.2170797735452652,0.05355172976851463,0.10980968177318573,-0.010898690670728683,0.05295753851532936,0.09360610693693161,-0.16642272472381592,0.13087208569049835,0.16873225569725037,0.09276477992534637,-0.10642916709184647,0.018247226253151894,-0.14146728813648224,0.1863650232553482,-0.012199008837342262,-0.17323406040668488,-0.01558810006827116,-0.07367512583732605,-0.20734336972236633,0.04247435927391052,0.11670529842376709,0.16800567507743835,-0.0294312946498394,-0.11425627768039703,0.021591465920209885,-0.06617556512355804,-0.10533545911312103,0.20720626413822174,-0.043077774345874786,0.05916598439216614,-0.016785232350230217,0.13218794763088226,-0.14760330319404602,-0.047465864568948746,0.06962648779153824,-0.06046129763126373,0.0746484249830246,0.21096855401992798,-0.14588946104049683,-0.24181510508060455,-0.16956856846809387,-0.1335497796535492,0.0055135805159807205,-0.11944088339805603,-0.2730919122695923,-0.17488110065460205,0.17439207434654236,0.2765841782093048,0.1276850551366806,0.0005603534518741071,-0.004987208638340235,-0.01949751377105713,0.1468360275030136,-0.0768558606505394,-0.04500886797904968,-0.2296593189239502,-0.10957535356283188,0.0892966240644455,-0.06601261347532272,0.05160200595855713,0.0260603204369545,0.02295215241611004,0.10037396848201752,0.09225813299417496,0.09245846420526505,-0.06418559700250626,-0.033272337168455124,0.0028727075550705194,0.08929938822984695,0.06709162145853043,-0.060900624841451645,0.24950608611106873,-0.015548051334917545,-0.06268491595983505,0.003954102285206318,-0.23511430621147156,-0.0942879319190979],[0.23573428392410278,-0.07784496247768402,0.08799933642148972,0.1551145613193512,0.19518016278743744,0.15654496848583221,0.06846725195646286,0.08467806130647659,0.18280945718288422,-0.031060732901096344,-0.16932794451713562,-0.03704189881682396,-0.18992529809474945,0.01195748895406723,-0.08734321594238281,0.12632808089256287,0.045513540506362915,0.07740022242069244,0.26183947920799255,-0.16521091759204865,0.13614414632320404,-0.15246202051639557,0.04845602065324783,0.04980563372373581,-0.06616377830505371,0.08457695692777634,0.04044608399271965,-0.15181173384189606,-0.06868194788694382,-0.11271289736032486,-0.09951963275671005,-0.0948333814740181,0.21750260889530182,-0.11918231099843979,0.2470744401216507,0.006742837838828564,0.010231363587081432,0.13453009724617004,0.010161024518311024,-0.10005927830934525,-0.20381112396717072,0.15730459988117218,0.007278825156390667,0.20481538772583008,0.1511920690536499,0.052527789026498795,0.00142373563721776,-0.10777013003826141,0.11287432909011841,0.1473880112171173,0.018397724255919456,-0.08913742005825043,0.12490683794021606,0.023990599438548088,-0.0859893411397934,0.017186051234602928,-0.012084155343472958,0.11459355056285858,0.02408905141055584,0.02812345325946808,0.21339571475982666,0.06002037227153778,-0.15362021327018738,0.030550485476851463,0.17186248302459717,0.20453254878520966,-0.04451528564095497,0.1011742576956749,0.18824642896652222,-0.06760601699352264,-0.1418927162885666,0.0029483488760888577,-0.05302326753735542,0.2116338312625885,0.03349455073475838,-0.17447972297668457,-0.19746319949626923,-0.10761670768260956,0.1545964479446411,0.22900773584842682,-0.16116458177566528,-0.09347755461931229,0.004224475473165512,0.09574730694293976,-0.04314339533448219,-0.02287781983613968,0.33170124888420105,-0.03245781734585762,-0.3651027977466583,0.09976725280284882,0.05642795190215111,0.09153906255960464,-0.006172481458634138,0.11323685944080353,-0.026173416525125504,0.248840793967247,0.03168923407793045,0.26337823271751404,0.05115076154470444,0.21328186988830566,-0.10501318424940109,-0.01287745125591755,0.09592459350824356,-0.018417853862047195,0.06198357790708542,-0.13503094017505646,0.11361357569694519,0.061854224652051926,-0.006141983438283205,0.16588808596134186,0.07170873880386353,-0.08744752407073975,0.0650438740849495,-0.15099866688251495,-0.2817619740962982,0.17125344276428223,0.11507757008075714,-0.1415894776582718,-0.013139653019607067,0.015930671244859695,-0.05776367709040642,0.07853302359580994,-0.024422021582722664,-0.01006816141307354,0.1088050827383995,-0.14966721832752228,-0.039696257561445236,0.07807367295026779,-0.0968230590224266,-0.1294829249382019,-0.018678834661841393,0.11041097342967987,-0.2517150342464447,0.13839106261730194,-0.0026646920014172792,0.016006216406822205,-0.13754238188266754,-0.09419772028923035],[0.09774336963891983,-0.01721944846212864,0.043411798775196075,0.06033695116639137,0.05023666098713875,-0.1583402007818222,-0.03751474618911743,0.00399394566193223,0.032161206007003784,-0.0039039314724504948,-0.11702248454093933,0.1803871989250183,-0.0688677430152893,-0.0036651729606091976,0.22798386216163635,0.13182933628559113,0.09844736754894257,0.01043075043708086,-0.1330215185880661,-0.06116484850645065,-0.028391165658831596,0.14507104456424713,0.15433239936828613,0.14468064904212952,0.11757494509220123,-0.0066937170922756195,0.066689632833004,0.15816394984722137,0.06194794923067093,-0.24037578701972961,-0.06412220746278763,-0.2529847323894501,0.023737797513604164,-0.0032481071539223194,0.10804154723882675,-0.11087162047624588,-0.061003781855106354,0.028292670845985413,0.04504266753792763,-0.2955414950847626,-0.12974272668361664,-0.09139136970043182,0.10124292224645615,-0.2779470682144165,-0.22068534791469574,0.12666523456573486,-0.09989864379167557,-0.02182675525546074,0.2585907280445099,-0.10382184386253357,-0.01945529878139496,-0.010475401766598225,0.15683266520500183,0.25151750445365906,0.0055009182542562485,0.02320021763443947,-0.06782295554876328,0.09934614598751068,-0.04962974414229393,-0.1122899204492569,0.17908483743667603,0.03544497489929199,-0.18353143334388733,0.24296240508556366,0.004582620225846767,0.08643511682748795,-0.06340456753969193,0.18013843894004822,-0.10225550830364227,-0.028268519788980484,-0.04954332485795021,-0.04764942452311516,-0.005797264166176319,0.15433821082115173,0.05921977758407593,0.09543655812740326,-0.005449671298265457,-0.10517334938049316,0.010020253248512745,0.2106262892484665,0.15240883827209473,0.20567582547664642,0.13133469223976135,-0.026810534298419952,0.257324755191803,-0.0729752853512764,-0.22369982302188873,-0.011409087106585503,-0.06462355703115463,-0.024048667401075363,-0.1363573968410492,-0.29443755745887756,-0.16360816359519958,0.06759867817163467,0.13350751996040344,-0.10057519376277924,0.12279938161373138,0.2835110127925873,-0.215597465634346,0.00472316425293684,0.06659052520990372,-0.12877392768859863,-0.09015806764364243,-0.22317859530448914,0.057386454194784164,0.042869288474321365,0.14808203279972076,0.15465928614139557,-0.2482820600271225,-0.030630387365818024,0.12922897934913635,0.0705457329750061,-0.010082723572850227,0.10847777128219604,-0.04353326931595802,0.1041322574019432,0.17055261135101318,0.028195098042488098,-0.01014073844999075,-0.09941858798265457,0.03665173798799515,-0.08008991181850433,0.22865495085716248,-0.029426421970129013,0.0368424728512764,-0.267267107963562,0.2221924364566803,-0.07200314104557037,-0.016787277534604073,0.05978023260831833,0.13885816931724548,0.021807990968227386,-0.11484821140766144,0.14721056818962097,0.05591859668493271,0.2263629138469696,-0.22887088358402252,0.07825140655040741],[0.0014744505751878023,0.09129723161458969,0.10324987769126892,0.017669400200247765,-0.06527639925479889,-0.01946648769080639,0.061609767377376556,0.1965622901916504,0.04565635696053505,0.08616717904806137,0.08477206528186798,0.08607005327939987,0.2563108503818512,-0.0529632605612278,0.05737340822815895,0.0004006946983281523,0.12475214153528214,0.050132885575294495,-0.025160925462841988,-0.1780378669500351,-0.21960671246051788,-0.19373059272766113,0.1582481861114502,0.15272128582000732,0.14435063302516937,0.3707816004753113,0.06260707974433899,0.13005995750427246,0.19465583562850952,0.07779179513454437,-0.09447450190782547,-0.12135683000087738,-0.0027362925466150045,0.03257616609334946,0.13309332728385925,-0.10036817193031311,0.04291496053338051,-0.0428953617811203,0.09806619584560394,-0.0761849656701088,-0.16162796318531036,-0.21588176488876343,0.013525226153433323,0.02908824384212494,0.18147635459899902,-0.08021190762519836,0.16316643357276917,-0.02612767368555069,0.0144523736089468,-0.021989990025758743,0.15396054089069366,-0.19824281334877014,0.17812219262123108,0.024595733731985092,-0.13989292085170746,0.11715180426836014,0.13341790437698364,-0.07456831634044647,0.17060725390911102,-0.03146856650710106,0.04204702004790306,0.19411203265190125,0.014185765758156776,-0.05448282137513161,-0.05354384705424309,0.024877531453967094,0.11409779638051987,-0.08371341228485107,-0.138100728392601,0.14942456781864166,0.23258566856384277,-0.009041150100529194,0.1010737270116806,-0.05491210147738457,0.10493648052215576,-0.0488586463034153,0.044086262583732605,0.017770374193787575,-0.23519481718540192,-0.1468411535024643,0.07049179077148438,0.05880822241306305,-0.0027504877652972937,-0.14941398799419403,0.07857732474803925,-0.08209988474845886,-0.005459242034703493,-0.04059166833758354,-0.029413903132081032,0.04832318425178528,-0.05668903514742851,0.03496397286653519,0.32258284091949463,-0.08964694291353226,0.11550731211900711,-0.015979228541254997,0.03922010213136673,0.10520706325769424,-0.11101150512695312,-0.03064647503197193,0.13166865706443787,0.20328295230865479,-0.08156215399503708,0.032172124832868576,0.09860462695360184,-0.06093979626893997,-0.12993092834949493,-0.15820224583148956,0.0333138145506382,0.15315748751163483,-0.010972433723509312,0.013836078345775604,0.04803790897130966,-0.08700147271156311,-0.06894365698099136,0.15707017481327057,0.4031462073326111,-0.098136767745018,-0.06399859488010406,0.2668045163154602,0.01902802102267742,0.06254101544618607,-0.1091296449303627,0.0016969454009085894,-0.05056124925613403,0.13600867986679077,-0.01562464889138937,0.18061955273151398,-0.11049386113882065,0.05044251307845116,-0.05624992400407791,0.005033431109040976,-0.03995075076818466,-0.039660997688770294,0.1734677404165268,0.0023033753968775272,-0.1083638072013855,-0.014846660196781158],[-0.026561016216874123,-0.03964364901185036,-0.2500949203968048,0.15117989480495453,-0.3210286796092987,-0.0837702751159668,-0.13303568959236145,-0.11152259260416031,0.1288573294878006,0.06817188858985901,0.0217625480145216,-0.14158812165260315,0.10006479918956757,-0.18733231723308563,-0.06786979734897614,0.014342338778078556,-0.08332274109125137,0.09659712016582489,0.13462460041046143,0.05947304144501686,0.016973108053207397,0.07992377132177353,0.10858433693647385,0.03941750153899193,-0.19884905219078064,0.31732243299484253,0.19466684758663177,-0.07565467804670334,0.015633057802915573,-0.14732056856155396,-0.16693297028541565,0.19218483567237854,-0.22148987650871277,0.056792810559272766,-0.07108144462108612,0.03583696112036705,-0.1342637687921524,0.37418267130851746,0.09983949363231659,-0.08854617178440094,0.1394544243812561,0.25592824816703796,0.0708022490143776,-0.013739591464400291,0.1419270783662796,-0.1045418381690979,-0.10564759373664856,0.061508432030677795,-0.1897229552268982,-0.10378938913345337,-0.20301859080791473,-0.09875137358903885,-0.030398862436413765,0.02081264927983284,-0.04185207560658455,-0.0434698760509491,0.08960950374603271,0.01232931949198246,-0.03858187794685364,-0.093678317964077,0.0810944065451622,-0.2975006401538849,0.06635694205760956,0.2877553105354309,0.008250822313129902,-0.287620484828949,-0.035269320011138916,0.1646546870470047,0.03040178306400776,0.1949901282787323,-0.043102215975522995,0.07840614765882492,-0.09246132522821426,0.014333979226648808,0.0012379753170534968,0.07433122396469116,0.03636949136853218,-0.08281823992729187,0.15110421180725098,0.2478555142879486,0.05432074889540672,0.08987230807542801,-0.14785389602184296,0.07160517573356628,0.016615787521004677,-0.19247156381607056,-0.26874521374702454,0.010627508163452148,0.11420174688100815,0.02624884806573391,-0.0848829448223114,-0.037592966109514236,0.16042250394821167,0.17145298421382904,-0.06367064267396927,0.048143573105335236,0.14042802155017853,-0.0664624348282814,-0.17253123223781586,-0.25504621863365173,-0.05376054719090462,0.065904900431633,-0.05918483808636665,0.3094292879104614,0.04024767130613327,-0.029300983995199203,-0.05148646980524063,0.0878911018371582,-0.0664139837026596,0.058540597558021545,0.06082489341497421,0.1611330658197403,-0.15928225219249725,0.025733308866620064,-0.08054687082767487,-0.0076836152002215385,0.08156341314315796,-0.15166130661964417,-0.026733804494142532,-0.2013057917356491,0.03502378985285759,0.06774790585041046,0.06846258044242859,0.0470261350274086,0.13647501170635223,-0.019389698281884193,0.14512261748313904,-0.14760954678058624,0.17650043964385986,-0.06941253691911697,-0.04286202788352966,-0.07901119440793991,-0.1364678144454956,-0.009409792721271515,-0.0968097671866417,-0.1700519323348999,0.003538544988259673,-0.05805540084838867],[0.07232461124658585,-0.1545659452676773,-0.015216561034321785,-0.06509857624769211,-0.16128462553024292,0.022710680961608887,-0.09305602312088013,0.05163842812180519,0.09626308083534241,0.21883897483348846,-0.06544642150402069,0.35657382011413574,0.03463716432452202,-0.13372282683849335,-0.005563081707805395,0.15792180597782135,0.08146965503692627,-0.06499682366847992,-0.2113608717918396,0.016947772353887558,-0.11925027519464493,-0.12083829939365387,0.11171214282512665,0.06380703300237656,0.06391896307468414,0.11583555489778519,0.2305753380060196,0.04104382544755936,-0.2001553475856781,0.010037482716143131,0.17594709992408752,-0.1672869473695755,-0.15338578820228577,-0.03443635627627373,-0.03035849705338478,-0.07264064252376556,-0.02855345793068409,0.07114766538143158,0.23959293961524963,0.15723326802253723,0.020810799673199654,-0.09732424467802048,0.20072810351848602,0.18965771794319153,-0.1416947990655899,-0.010053927078843117,0.18686369061470032,0.061479602009058,0.22033679485321045,-0.10554885864257812,0.035968005657196045,0.08995933085680008,-0.16106058657169342,0.03611872345209122,0.13551102578639984,0.13254612684249878,0.051535531878471375,-0.12205295264720917,0.004800549242645502,-0.04307323694229126,0.2426353394985199,-0.20482532680034637,0.20064786076545715,0.1560671627521515,0.1655154675245285,0.11999446898698807,0.08525636047124863,0.0016254688380286098,-0.06916669011116028,0.13725239038467407,0.02350953035056591,-0.18877661228179932,0.0845479816198349,0.0791967585682869,0.07178816199302673,-0.18994258344173431,0.045321907848119736,0.1196838989853859,0.03727654367685318,0.07038256525993347,0.09696779400110245,-0.06787385046482086,-0.18404275178909302,0.1665828675031662,-0.15650323033332825,-0.14429795742034912,0.1251455396413803,-0.01207334827631712,0.10430359095335007,-0.2668440341949463,-0.04004645720124245,-0.02700391411781311,0.09512438625097275,-0.0876426249742508,0.025827113538980484,-0.004904256202280521,0.043260958045721054,-0.016910742968320847,0.11256512999534607,-0.08974412828683853,-0.047368794679641724,0.08037089556455612,-0.25858867168426514,-0.07900203764438629,-0.08611621707677841,0.1836608648300171,-0.1426558643579483,0.005789636168628931,-0.055038243532180786,0.09155076742172241,0.05630980804562569,-0.04695973917841911,0.16366855800151825,-0.24473705887794495,0.036794744431972504,0.010094287805259228,-0.21479159593582153,0.06079958751797676,-0.1699848771095276,-0.02264581248164177,0.15055789053440094,0.11933573335409164,0.2234019786119461,0.06358285993337631,0.011072305962443352,-0.1819506734609604,-0.03509259223937988,0.1603681594133377,-0.08548019826412201,-0.17037534713745117,0.043575186282396317,-0.16036473214626312,-0.048873040825128555,-0.047989826649427414,-0.05433054640889168,0.04823797568678856,0.03589003160595894,0.06483962386846542],[-0.2960110306739807,0.13400566577911377,0.3055904507637024,-0.07013517618179321,0.09950362890958786,-0.15330791473388672,0.10360906273126602,0.0012059620348736644,0.027282994240522385,-0.04498157650232315,-0.1061522513628006,0.23241481184959412,-0.021108640357851982,-0.04553249478340149,-0.24596747756004333,-0.12424439191818237,0.07572006434202194,-0.1102205216884613,0.011403018608689308,-0.023013433441519737,0.0527496337890625,0.00556714553385973,-0.10713774710893631,0.15966621041297913,0.09716258198022842,-0.10240119695663452,0.011301375925540924,0.0630393773317337,0.04971955716609955,0.11724064499139786,0.0621776282787323,-0.03837551549077034,-0.058180976659059525,0.10882824659347534,0.08990900218486786,-0.20015805959701538,-0.02209501713514328,0.08587447553873062,0.06591103971004486,-0.033408038318157196,-0.019696662202477455,-0.001953603932633996,0.08366508781909943,-0.16266022622585297,0.1151018887758255,-0.12808658182621002,-0.20497484505176544,0.2909882962703705,-0.143529012799263,-0.17214639484882355,-0.10205571353435516,-0.0780741423368454,0.2302173674106598,0.008448760956525803,-0.03546490520238876,-0.18379953503608704,0.13326171040534973,-0.004186886828392744,0.020504571497440338,-0.07723984867334366,-0.17951466143131256,-0.032944172620773315,0.0553397610783577,0.08776559680700302,0.09886585921049118,-0.0796012356877327,0.15128879249095917,0.006021836306899786,0.06490929424762726,0.06301703304052353,0.026622027158737183,0.011505277827382088,0.08164620399475098,-0.09787062555551529,-0.07437293976545334,-0.17211882770061493,-0.1720551997423172,0.08109240978956223,0.13266515731811523,0.2374260574579239,0.09938199073076248,0.1602199673652649,0.10372044891119003,0.04757403954863548,-0.20536528527736664,0.14794032275676727,-0.1181199923157692,0.06416010856628418,-0.08299209177494049,-0.01729387231171131,0.16525541245937347,0.16665467619895935,0.05079448223114014,-0.007842055521905422,-0.0430450402200222,-0.0816374346613884,0.08941887319087982,-0.005106363911181688,-0.12627720832824707,0.1736227124929428,0.10431399941444397,0.10556511580944061,-0.07256467640399933,0.08616849035024643,-0.06750503927469254,-0.02917621284723282,-0.08421396464109421,0.012779195792973042,0.00962044671177864,-0.1401953399181366,-0.19105848670005798,0.06621400266885757,-0.08705887943506241,0.14351603388786316,0.122109055519104,-0.08775854110717773,0.13733288645744324,-0.09281238168478012,-0.019218914210796356,0.09882771223783493,-0.06908787786960602,0.06016511097550392,-0.04628911241889,-0.01798834092915058,0.1062333881855011,-0.16017508506774902,-0.1317264586687088,0.00009619202319299802,0.1733572781085968,0.11907179653644562,-0.12245374917984009,0.10471247881650925,-0.17607372999191284,-0.07496780902147293,-0.03270735964179039,-0.1486443430185318,0.03086075559258461,-0.006562297232449055],[0.07757855951786041,-0.016621461138129234,-0.17284859716892242,0.008476716466248035,-0.0036963471211493015,-0.26656007766723633,-0.1553114503622055,0.15430152416229248,0.039609264582395554,-0.06227777898311615,0.05765889585018158,-0.27290040254592896,0.007731959689408541,-0.07102911919355392,0.0837937444448471,0.1051534116268158,0.017489926889538765,0.18748557567596436,0.1927691251039505,-0.023179303854703903,0.014923418872058392,0.2315857857465744,-0.3699284791946411,0.07765788584947586,-0.07483411580324173,0.06864302605390549,-0.15056097507476807,-0.033022455871105194,-0.055032361298799515,-0.10580004006624222,0.28244075179100037,0.04097738116979599,-0.18931250274181366,-0.2945672571659088,-0.001658801338635385,0.1783667504787445,0.15244653820991516,0.091977559030056,-0.020808598026633263,-0.1617952287197113,0.26502224802970886,-0.041037850081920624,-0.09385522454977036,-0.046905532479286194,-0.0934830904006958,0.029745476320385933,0.03387165069580078,-0.20498345792293549,0.052482970058918,0.10844581574201584,0.18097443878650665,-0.0582474023103714,0.20838400721549988,0.0790737196803093,-0.06728533655405045,-0.01994612067937851,0.04842730239033699,-0.10233128070831299,0.024674901738762856,-0.11391956359148026,0.13303686678409576,0.11775319278240204,0.33577510714530945,-0.3300938010215759,-0.1252293586730957,-0.07299436628818512,0.053801871836185455,0.17741145193576813,-0.007068060804158449,-0.16638052463531494,0.00369069492444396,0.03814679756760597,-0.027233222499489784,0.09046687930822372,0.045305218547582626,0.06439978629350662,0.08095747232437134,0.07354632019996643,-0.03693040460348129,-0.10398491472005844,-0.04930771887302399,-0.3349703550338745,0.03188338503241539,0.3080156743526459,-0.12920162081718445,0.1149180456995964,0.11914345622062683,-0.052286963909864426,0.00641761627048254,0.024291755631566048,0.038270071148872375,0.25696736574172974,-0.04018880054354668,-0.06967747956514359,-0.11786200851202011,-0.21477286517620087,0.03152267634868622,0.17155922949314117,0.1314130574464798,0.2345326542854309,-0.08667231351137161,-0.06143025681376457,0.035806022584438324,-0.02958475798368454,0.052599336951971054,-0.07952059805393219,-0.11395948380231857,0.1474972367286682,0.13064637780189514,0.05737210065126419,-0.06541374325752258,-0.3412303924560547,0.18024250864982605,0.28447604179382324,-0.0233596283942461,-0.0417596809566021,0.03542977571487427,0.047224532812833786,0.04179979860782623,0.15140803158283234,-0.007546809036284685,0.07408804446458817,0.07246808707714081,-0.12851418554782867,0.1599474400281906,0.03522853925824165,-0.09528151154518127,0.05984232947230339,-0.27222689986228943,0.24448591470718384,0.13967129588127136,0.15224924683570862,-0.047324761748313904,-0.17348670959472656,-0.22099119424819946,-0.09564436227083206,-0.020016759634017944,-0.09508798271417618],[0.05977427214384079,-0.12889370322227478,-0.16196390986442566,-0.033534206449985504,-0.21256737411022186,0.03275240585207939,-0.12468963116407394,-0.15971562266349792,0.12570889294147491,-0.14052127301692963,-0.0025261954870074987,0.128790020942688,-0.038259685039520264,0.009893451817333698,-0.14390459656715393,-0.23258008062839508,0.05677569657564163,0.15672436356544495,-0.06581541150808334,0.02371806651353836,0.11661313474178314,0.10714112222194672,0.277207612991333,0.0041420599445700645,0.07020201534032822,-0.03805607557296753,0.18531949818134308,0.004470636136829853,-0.06585011631250381,0.012307743541896343,-0.038042549043893814,0.07896086573600769,-0.1222134381532669,-0.10229301452636719,-0.0856010839343071,0.08746098726987839,0.05400565639138222,0.015691742300987244,0.14228565990924835,0.04646283760666847,-0.04348337650299072,0.07528617233037949,-0.03342213109135628,0.08610738813877106,0.05762210115790367,0.15488578379154205,-0.10762591660022736,0.18001973628997803,-0.08366797119379044,-0.13528475165367126,0.035403501242399216,-0.04739037901163101,-0.05690588802099228,-0.009719260036945343,0.10458788275718689,-0.07505685836076736,0.10187023133039474,0.19074179232120514,0.05708231031894684,0.008740312419831753,-0.10717707127332687,-0.047584742307662964,-0.06955064088106155,-0.2079939991235733,-0.021910207346081734,-0.143036887049675,-0.028692621737718582,-0.2480325549840927,0.05386517196893692,0.08321106433868408,0.040137507021427155,0.09086368978023529,0.09415292739868164,-0.11184528470039368,-0.31714972853660583,-0.0633847713470459,0.07009058445692062,-0.006297353655099869,0.09702285379171371,-0.2743592858314514,0.06985016912221909,0.07909784466028214,-0.045204248279333115,0.0863029956817627,-0.0976502075791359,0.1503082513809204,0.17334847152233124,0.1571798473596573,-0.08427983522415161,-0.05219373479485512,0.239581897854805,-0.045095667243003845,0.03488444164395332,-0.12263870984315872,0.1557588130235672,0.0709092915058136,0.04518148675560951,-0.218526229262352,0.21343070268630981,0.2672421634197235,0.07762227207422256,0.3565142750740051,-0.035756371915340424,-0.027120105922222137,0.1554308533668518,-0.03926495835185051,0.0732019916176796,-0.12446363270282745,-0.1452118456363678,0.11147594451904297,-0.03622932359576225,-0.16805171966552734,-0.059594783931970596,-0.032108429819345474,0.12425629049539566,0.0005709954421035945,-0.03892233595252037,-0.1576451063156128,0.09203937649726868,-0.17751453816890717,-0.17133569717407227,0.11680661141872406,0.017044145613908768,0.06285887956619263,-0.09352261573076248,-0.15193809568881989,0.05289759486913681,-0.2030131220817566,0.12848256528377533,-0.15204405784606934,-0.058650944381952286,0.19765646755695343,0.01266750693321228,0.14086298644542694,-0.009260930120944977,-0.13656415045261383,0.0024551446549594402,-0.11657325178384781],[-0.10305242240428925,0.07200230658054352,0.044648945331573486,0.07634969800710678,0.09687627106904984,0.047664206475019455,0.048732690513134,-0.16707831621170044,0.17903438210487366,0.12960714101791382,0.21788819134235382,0.02571658231317997,0.03269005939364433,-0.3084154725074768,0.07183229178190231,-0.017147084698081017,0.006057322025299072,0.31028252840042114,-0.1033753752708435,0.08365350216627121,-0.032362617552280426,0.28156280517578125,0.12834756076335907,-0.07460783421993256,-0.025154413655400276,0.10578353703022003,0.14190492033958435,0.06093569099903107,-0.2665994167327881,0.0893559679389,0.07461069524288177,0.08640702068805695,-0.15222026407718658,-0.024576794356107712,-0.11768847703933716,-0.2548651397228241,-0.1358156055212021,-0.12089023739099503,0.07220304757356644,-0.19166338443756104,-0.04205247387290001,0.12616902589797974,0.03503117710351944,-0.05632098391652107,0.07110800594091415,-0.07144919037818909,-0.13871978223323822,0.04046446830034256,0.09963902086019516,-0.14350230991840363,0.012909711338579655,0.16114690899848938,0.06972087919712067,0.013584554195404053,-0.12892042100429535,-0.08658158779144287,0.17374137043952942,0.026722246780991554,0.028485694900155067,0.014778442680835724,-0.02175884135067463,0.13102377951145172,-0.013506119139492512,-0.04923320561647415,-0.05132468417286873,0.1490938663482666,0.12976960837841034,-0.1061558797955513,0.04165304824709892,0.05791367590427399,0.2730734944343567,-0.02214548923075199,0.22614455223083496,-0.08146535605192184,0.09512829035520554,0.06396879255771637,-0.06703825294971466,0.08831501007080078,-0.15500570833683014,-0.0841214507818222,0.05931359902024269,0.0419650599360466,-0.09783466905355453,0.0938631147146225,-0.09140212088823318,0.32518085837364197,-0.1776525229215622,-0.13622885942459106,0.03374096751213074,0.0837627500295639,-0.10099665820598602,0.09021279215812683,-0.13398709893226624,0.05486322566866875,-0.06164668872952461,-0.0028028867673128843,0.06021391227841377,-0.06882717460393906,-0.05013861507177353,-0.016564009711146355,0.011014102958142757,0.2198941707611084,-0.13248762488365173,-0.06490633636713028,-0.05064563825726509,-0.20256485044956207,-0.05506591126322746,-0.2447856217622757,0.05810806155204773,-0.17022526264190674,-0.039280910044908524,-0.06563466042280197,-0.09186800569295883,-0.061710987240076065,-0.12526163458824158,-0.020869269967079163,0.05101592093706131,0.007980415597558022,0.018688561394810677,0.0717422366142273,0.11847060173749924,-0.10085880756378174,0.23738786578178406,-0.32872480154037476,-0.08820454776287079,-0.005748164374381304,-0.13090665638446808,-0.10097673535346985,-0.1326117366552353,0.09735744446516037,0.1205330342054367,-0.1757323145866394,-0.14540095627307892,0.1158117726445198,-0.17254944145679474,0.018651429563760757,-0.1302807778120041,0.21705813705921173],[0.13448211550712585,-0.05181276053190231,-0.024132248014211655,0.12043419480323792,-0.13995908200740814,0.05242893099784851,0.16008330881595612,-0.06188099831342697,0.08917286992073059,0.07180840522050858,0.04765821993350983,0.07877947390079498,-0.12343912571668625,-0.18793636560440063,0.07140829414129257,0.028765477240085602,0.02933903969824314,0.02725270949304104,-0.32643747329711914,0.3454831838607788,0.024329112842679024,0.2857024073600769,0.009803528897464275,-0.13262121379375458,-0.027099648490548134,0.19782115519046783,0.02401023730635643,0.027094978839159012,-0.11608877032995224,-0.14705398678779602,-0.037526004016399384,-0.19718389213085175,0.06610686331987381,0.12682797014713287,