[[0.47121042013168335,1.7246049642562866,0.5613821148872375,0.668243408203125,1.1621171236038208,-0.48150330781936646,0.6427075862884521,3.5768299102783203,-0.5351762771606445,-2.079561710357666,-0.3116723299026489,1.5909345149993896,1.3496110439300537,-0.5578974485397339,-0.5870437026023865,0.9495764970779419,-2.2393639087677,2.112541437149048,2.2945075035095215,-0.7417749166488647,3.111335039138794,-0.2837030291557312,-1.695549726486206,-0.3997923731803894,-0.41296371817588806,2.473212242126465,-1.1720095872879028,-1.3455560207366943,1.1621772050857544,0.9065373539924622,-0.7076181769371033,-1.4442718029022217,1.7918955087661743,-0.3958088755607605,-0.01315191201865673,-0.39148882031440735,0.336102157831192,-2.3108415603637695,1.0061284303665161,-0.2029716819524765,-0.3240436315536499,1.196231722831726,-0.9523490071296692,-0.05816159397363663,1.395719289779663,1.1610467433929443,0.8375290632247925,1.07913339138031,-0.9723052978515625,-1.6906105279922485,-0.030663855373859406,-1.393481969833374,0.5690988898277283,0.03258092328906059,0.025469496846199036,0.2784641981124878,-0.5016947984695435,-1.1527786254882812,2.228210687637329,-0.4362674057483673,-2.0584146976470947,-1.3455277681350708,-0.005695834290236235,-0.7769140601158142]]