[[0.35460346937179565,1.5923372507095337,0.517755925655365,0.668243408203125,1.1621171236038208,-0.48150330781936646,0.49396848678588867,3.5768299102783203,-0.5093511939048767,-1.9270268678665161,-0.3116723299026489,1.5909345149993896,1.223388910293579,-0.5578498244285583,-0.5870437026023865,0.8148412704467773,-2.1113243103027344,2.112541437149048,2.1618056297302246,-0.7417749166488647,3.111335039138794,-0.2837030291557312,-1.545324683189392,-0.39827027916908264,-0.2649095058441162,2.3365209102630615,-1.108042597770691,-1.215553641319275,1.1073448657989502,0.9065373539924622,-0.7076181769371033,-1.4442718029022217,1.7918955087661743,-0.2676990330219269,0.12398844212293625,-0.39148882031440735,0.336102157831192,-2.1869583129882812,0.9506912231445312,-0.2029716819524765,-0.19875718653202057,1.0682604312896729,-0.9523487091064453,0.1333913505077362,1.2634515762329102,1.0779200792312622,0.8375290632247925,0.9458351135253906,-0.7896714210510254,-1.6805607080459595,-0.03383518382906914,-1.2588260173797607,0.5432738065719604,0.004741221200674772,0.09652122855186462,0.27846306562423706,-0.5016947984695435,-1.1527786254882812,2.102173328399658,-0.4362674057483673,-2.0584146976470947,-1.3455277681350708,0.0909661129117012,-0.692375123500824]]