[[-0.20679408311843872],[-0.12839531898498535],[0.24073202908039093],[0.008073081262409687],[0.12470483779907227],[-0.17693309485912323],[0.22688855230808258],[0.02919885143637657],[-0.026249203830957413],[-0.15197227895259857],[-0.22800536453723907],[-0.07477693259716034],[0.32807427644729614],[0.03325236216187477],[-0.025650236755609512],[-0.06725657731294632],[-0.26783257722854614],[-0.013617695309221745],[0.06360172480344772],[0.14706090092658997],[0.21918591856956482],[-0.09752146154642105],[-0.1553344875574112],[-0.00702312495559454],[0.056527480483055115],[-0.2313862442970276],[0.20550602674484253],[0.17171300947666168],[-0.19805870950222015],[-0.10591856390237808],[0.060609232634305954],[0.11579001694917679],[0.25482726097106934],[0.0813194215297699],[-0.05956755205988884],[-0.2539864778518677],[0.14448972046375275],[-0.0690859779715538],[-0.2557092308998108],[-0.2298005074262619],[-0.11797191947698593],[-0.039645690470933914],[-0.06882375478744507],[0.12785589694976807],[-0.03367400914430618],[-0.14813806116580963],[-0.059443190693855286],[0.04042978957295418],[0.09814197570085526],[-0.062374718487262726],[-0.17401976883411407],[-0.14749954640865326],[-0.028491059318184853],[-0.022594936192035675],[-0.14468209445476532],[0.07340070605278015],[0.10924620181322098],[-0.12326294928789139],[-0.12520548701286316],[0.06086732819676399],[-0.026036694645881653],[-0.11091435700654984],[-0.2568594813346863],[-0.23491163551807404],[-0.20014213025569916],[-0.3871605396270752],[-0.31147342920303345],[0.3133622705936432],[-0.055086713284254074],[-0.2173137217760086],[-0.049623776227235794],[-0.06743985414505005],[-0.2201918661594391],[-0.031959012150764465],[-0.04767812415957451],[0.00450092600658536],[-0.1729932576417923],[-0.2306280881166458],[0.04826642945408821],[-0.07458629459142685],[-0.25755080580711365],[0.02976592630147934],[0.15273867547512054],[-0.12566347420215607],[-0.1458699107170105],[0.01173599623143673],[-0.10556716471910477],[0.04828992113471031],[0.09419436007738113],[0.08176343142986298],[0.02969249151647091],[-0.08067257702350616],[-0.1401863545179367],[0.2262563407421112],[-0.3369889557361603],[-0.2040395885705948],[-0.19978876411914825],[0.1726897805929184],[0.021266547963023186],[-0.09990768134593964],[0.0174302626401186],[-0.34343674778938293],[-0.06299474835395813],[-0.1571304053068161],[-0.021135468035936356],[0.1124800369143486],[0.06532298028469086],[-0.1939985603094101],[-0.09482438117265701],[-0.297157347202301],[-0.26000475883483887],[-0.03851810470223427],[0.27990350127220154],[0.06894434988498688],[-0.037784185260534286],[0.14899639785289764],[0.17925256490707397],[0.12340341508388519],[-0.1819934993982315],[0.08450328558683395],[-0.1344761699438095],[0.0427851676940918],[0.023633688688278198],[-0.17412050068378448],[-0.1508164405822754],[0.052571266889572144],[-0.34549078345298767],[-0.18875184655189514],[0.19906610250473022],[0.33693528175354004],[-0.2400200366973877],[0.19903579354286194],[-0.25828367471694946],[0.019902238622307777],[-0.11967411637306213],[0.20884467661380768],[-0.04617951810359955],[-0.027297591790556908],[0.026424815878272057],[-0.18436844646930695],[-0.17764908075332642],[0.11369487643241882],[-0.018871720880270004],[0.12435270100831985],[0.0866226851940155],[-0.24520030617713928],[-0.31014272570610046],[0.1334766000509262],[-0.12673014402389526],[0.02426864206790924],[0.006435641553252935],[0.20340536534786224],[-0.11635847389698029],[-0.15631239116191864],[-0.03813925385475159],[0.3304629623889923],[-0.32790178060531616],[-0.17203743755817413],[-0.03473307937383652],[-0.147438183426857],[0.0329238660633564],[-0.04115273803472519],[-0.20112164318561554],[-0.1829511970281601],[0.09564244747161865],[-0.24468441307544708],[-0.000636483367998153],[-0.0641951709985733],[0.17423880100250244],[0.15435157716274261],[0.16455407440662384],[0.0839921236038208],[-0.11725813150405884],[-0.12667237222194672],[-0.2292977273464203],[0.1303173452615738],[0.11925672739744186],[-0.020693350583314896],[-0.08922281116247177],[0.30121874809265137],[-0.17458587884902954],[-0.15435948967933655],[-0.189666748046875],[0.046158481389284134],[0.09728313982486725],[-0.17988121509552002],[-0.10394760221242905],[0.1232341006398201],[0.03683581203222275],[0.045721787959337234],[-0.3272209167480469],[0.25787684321403503],[0.04863033443689346],[0.09823034703731537],[-0.17038843035697937],[-0.11344794183969498],[-0.055359385907649994],[0.10490342229604721],[0.13312990963459015],[-0.059966787695884705],[-0.2531462609767914],[0.02795223891735077],[0.08606163412332535],[-0.03364069387316704],[0.1459173709154129],[-0.2364993393421173],[-0.08087541908025742],[-0.00043068485683761537],[-0.1593722552061081],[-0.050573766231536865],[-0.17429687082767487],[-0.0021612064447253942],[-0.2173636108636856],[0.1020163893699646],[-0.33042463660240173],[-0.010090955533087254],[0.16616889834403992],[-0.06948471069335938],[-0.06374650448560715],[0.3186974823474884],[-0.11656864732503891],[0.01907229796051979],[-0.10281962156295776],[-0.11336851119995117],[0.11059915274381638],[-0.250063419342041],[-0.22033308446407318],[0.021587030962109566],[0.004272575955837965],[-0.32724496722221375],[-0.18073715269565582],[0.1948264241218567],[-0.06205451115965843],[-0.12102997303009033],[-0.11273401230573654],[0.20642200112342834],[0.04945731535553932],[-0.10384660959243774],[0.024077346548438072],[0.25131651759147644],[0.039133474230766296],[-0.2709495425224304],[-0.16002553701400757],[0.0022970587015151978],[-0.14694754779338837],[-0.09687300771474838],[-0.0691591426730156],[0.1333213448524475],[-0.17325778305530548],[-0.04704463481903076],[0.1957624852657318],[0.025841670110821724],[-0.20556579530239105],[0.09059052914381027],[-0.14623451232910156],[-0.12557923793792725]]