[[-0.09162209182977676],[0.036541540175676346],[0.08798130601644516],[-0.1830601841211319],[-0.15710484981536865],[-0.19457723200321198],[-0.15985378623008728],[0.4129852056503296],[-0.17969302833080292],[0.0697777047753334],[-0.09553474932909012],[-0.14903071522712708],[-0.27115440368652344],[-0.23009106516838074],[-0.08939853310585022],[-0.1455840915441513],[0.1308552622795105],[-0.34066712856292725],[-0.05189386382699013],[0.059638600796461105],[-0.13868755102157593],[0.16219544410705566],[-0.15273386240005493],[-0.1628204733133316],[-0.121998630464077],[-0.09645543247461319],[-0.08896981924772263],[0.1299363672733307],[0.1594759225845337],[0.06717230379581451],[0.06566210091114044],[-0.04984942078590393],[0.30267760157585144],[-0.03232629597187042],[0.2065289169549942],[0.10257072001695633],[-0.04600599408149719],[-0.008140451274812222],[0.0014332806458696723],[-0.04811423271894455],[0.40545499324798584],[-0.02243916504085064],[-0.16671018302440643],[0.03620824217796326],[0.3670254945755005],[0.028424078598618507],[-0.3187287151813507],[0.34318843483924866],[-0.1586976796388626],[-0.0913127064704895],[0.16341233253479004],[0.053491659462451935],[0.12780146300792694],[0.11600297689437866],[-0.10182301700115204],[0.10031777620315552],[-0.1194843202829361],[0.01964683085680008],[-0.08281934261322021],[-0.20610982179641724],[0.05149756371974945],[-0.04348047822713852],[-0.154988631606102],[0.07231756299734116],[-0.07746672630310059],[0.04322054982185364],[-0.09125115722417831],[0.07754459232091904],[0.02691545896232128],[-0.08819906413555145],[0.05235973000526428],[-0.26350414752960205],[-0.33957210183143616],[-0.13296592235565186],[-0.2572154104709625],[0.18120987713336945],[-0.07601689547300339],[-0.07400527596473694],[-0.17856964468955994],[-0.04760422930121422],[0.11268879473209381],[-0.0010154303163290024],[-0.0036952102091163397],[0.09332535415887833],[-0.3135303556919098],[-0.23848600685596466],[0.4676631987094879],[0.11543556302785873],[0.03366156294941902],[-0.30763164162635803],[-0.0008893944323062897],[-0.27321335673332214],[0.16228123009204865],[0.09477933496236801],[0.06551588326692581],[-0.08293791860342026],[-0.2508896589279175],[-0.21379604935646057],[-0.010441816411912441],[-0.10419981926679611],[0.13790607452392578],[-0.15741336345672607],[0.11488845944404602],[-0.0722203180193901],[0.3384723961353302],[-0.14106188714504242],[-0.3164244294166565],[0.08064508438110352],[-0.2083558589220047],[0.402302622795105],[-0.135674849152565],[-0.03452121093869209],[0.23245228826999664],[-0.18690498173236847],[-0.12280084937810898],[-0.21132613718509674],[-0.05064614862203598],[-0.14846603572368622],[-0.11416579782962799],[0.13846684992313385],[0.03405414894223213],[-0.13006441295146942],[0.152113676071167],[-0.20831002295017242],[-0.1510949283838272],[0.1501353532075882],[-0.10595586150884628],[-0.09682673215866089]]