[[-0.3325912356376648],[-0.2511867880821228],[0.06094619259238243],[-0.029644081369042397],[0.07751587778329849],[-0.3233167827129364],[0.2056523710489273],[0.01683422364294529],[-0.08273277431726456],[0.049465108662843704],[-0.14014242589473724],[-0.19210395216941833],[0.3102734684944153],[-0.07502663135528564],[-0.15168070793151855],[-0.3087192177772522],[-0.26783257722854614],[0.07714956998825073],[0.0608755461871624],[0.018176201730966568],[0.11836385726928711],[-0.12209288030862808],[-0.2813279628753662],[-0.04627247154712677],[0.053810108453035355],[-0.3571871519088745],[0.39483577013015747],[0.30144065618515015],[-0.2513618767261505],[-0.28779780864715576],[-0.16641446948051453],[0.1063070297241211],[0.3596017360687256],[-0.04709462821483612],[-0.13421957194805145],[-0.4397610127925873],[0.07742798328399658],[-0.10230835527181625],[-0.1357177495956421],[-0.34357544779777527],[-0.18643958866596222],[-0.17651578783988953],[-0.25855615735054016],[-0.01124192588031292],[-0.0390513576567173],[-0.20160004496574402],[0.012882196344435215],[-0.08469025790691376],[-0.012664970941841602],[-0.2796749174594879],[-0.29045456647872925],[-0.3212343454360962],[0.007889057509601116],[-0.030902691185474396],[-0.09694019705057144],[-0.03265649080276489],[-0.01240530889481306],[-0.27034783363342285],[-0.14798091351985931],[0.16459231078624725],[0.05593939870595932],[-0.04742790386080742],[-0.3899756669998169],[-0.2713002562522888],[-0.5026060938835144],[-0.48353880643844604],[-0.1757344752550125],[0.20137204229831696],[-0.17843683063983917],[-0.34726056456565857],[-0.015222230926156044],[-0.2434636652469635],[-0.36093801259994507],[0.112964928150177],[0.11386390775442123],[0.13053062558174133],[-0.05246203392744064],[-0.2731761634349823],[0.17434749007225037],[0.02745555341243744],[-0.3039931356906891],[-0.04075491800904274],[0.08396868407726288],[-0.13126035034656525],[-0.20713379979133606],[-0.12559546530246735],[-0.07696172595024109],[0.15047354996204376],[0.05129919573664665],[0.18897370994091034],[-0.09634004533290863],[-0.047213781625032425],[0.054493989795446396],[0.3368423879146576],[-0.34106719493865967],[-0.33068278431892395],[-0.07342620193958282],[0.18093378841876984],[-0.1157507449388504],[-0.27692142128944397],[0.07596009969711304],[-0.48954546451568604],[-0.009931552223861217],[-0.26849037408828735],[0.13209637999534607],[0.08480758219957352],[-0.008247344754636288],[-0.08254878222942352],[-0.09482438117265701],[-0.297157347202301],[-0.24635696411132812],[-0.14769425988197327],[0.3895011246204376],[0.12464133650064468],[-0.1126624345779419],[0.017507173120975494],[-0.06458111852407455],[0.23278985917568207],[-0.044640544801950455],[0.09870807826519012],[-0.15797215700149536],[0.09415614604949951],[-0.018016597256064415],[-0.300304114818573],[-0.18040302395820618],[-0.0722489282488823],[-0.35610589385032654],[-0.2684405744075775],[0.032365620136260986],[0.34425756335258484],[-0.11408530920743942],[0.2403361201286316],[-0.2675967514514923],[0.1467473804950714],[-0.3110622465610504],[0.2774188220500946],[-0.1790250539779663],[-0.11420265585184097],[-0.07266729325056076],[-0.05846768245100975],[-0.37697768211364746],[0.13359540700912476],[-0.053295738995075226],[-0.021874122321605682],[0.1564759612083435],[-0.12101932615041733],[-0.29589375853538513],[0.12894314527511597],[-0.17925235629081726],[0.14855776727199554],[-0.12879018485546112],[0.10706612467765808],[0.005767236463725567],[-0.04762997105717659],[-0.052308518439531326],[0.4204803705215454],[-0.5147026777267456],[-0.04408514127135277],[-0.04314560815691948],[-0.2699096202850342],[0.33283531665802],[-0.1774117350578308],[-0.20112164318561554],[-0.41331854462623596],[0.2216612845659256],[-0.2551971971988678],[-0.12694482505321503],[-0.09234783053398132],[0.26098036766052246],[0.279758483171463],[0.0388074666261673],[0.04798419028520584],[-0.19235195219516754],[-0.2526259422302246],[-0.3535401523113251],[0.12208928167819977],[0.22562916576862335],[0.09325642883777618],[-0.07853584736585617],[0.19151674211025238],[-0.28424373269081116],[-0.1715879738330841],[-0.23452205955982208],[0.07472578436136246],[0.23284392058849335],[-0.17929066717624664],[0.01760835200548172],[-0.02428361028432846],[0.08252127468585968],[-0.06563830375671387],[-0.4648951292037964],[0.24126659333705902],[0.18110938370227814],[0.1324026733636856],[-0.30352669954299927],[-0.11344794183969498],[-0.18652059137821198],[0.14753781259059906],[0.19086657464504242],[-0.062338732182979584],[-0.10294149816036224],[0.09899734705686569],[-0.15411615371704102],[-0.03364049270749092],[0.22438380122184753],[-0.3630129396915436],[-0.20682202279567719],[-0.12645220756530762],[-0.18456341326236725],[-0.13227130472660065],[-0.4018924832344055],[0.11902182549238205],[-0.47577083110809326],[0.06814378499984741],[-0.3677944242954254],[0.11232826858758926],[0.04075001925230026],[-0.04032471776008606],[-0.06853920221328735],[0.2809811234474182],[-0.21847571432590485],[0.05288858711719513],[-0.2501814365386963],[0.019478408619761467],[0.08484360575675964],[-0.25656622648239136],[-0.35333919525146484],[-0.09054213017225266],[-0.015218585729598999],[-0.2716486155986786],[-0.23207354545593262],[0.07733547687530518],[-0.31191354990005493],[-0.19779843091964722],[-0.20698711276054382],[0.06456232815980911],[0.092926986515522],[-0.22570723295211792],[-0.04492725059390068],[0.13679511845111847],[0.08385937660932541],[-0.1794237494468689],[-0.10107167810201645],[-0.020314771682024002],[-0.26015710830688477],[-0.3445045053958893],[-0.16409312188625336],[0.07156993448734283],[-0.18992796540260315],[0.09094657003879547],[0.1392785906791687],[-0.05467545986175537],[-0.20559336245059967],[-0.06750128418207169],[-0.23464465141296387],[0.0007286613108590245]]