[[-0.4255884885787964],[-0.24893875420093536],[0.32313281297683716],[-0.16277176141738892],[0.25665608048439026],[-0.06256908923387527],[0.1915033459663391],[-0.12728022038936615],[-0.37137892842292786],[0.11395451426506042],[0.000822537811473012],[-0.24219727516174316],[0.348688542842865],[-0.2666189968585968],[-0.040884390473365784],[-0.30586642026901245],[-0.4410105347633362],[0.0370548777282238],[-0.006229233928024769],[-0.0762525275349617],[0.07075567543506622],[0.1337118297815323],[-0.08347824215888977],[-0.1711992472410202],[-0.019558195024728775],[-0.45001673698425293],[0.35161328315734863],[0.2655813992023468],[-0.046609148383140564],[-0.32093632221221924],[-0.028539063408970833],[0.01816183514893055],[0.5506983995437622],[-0.06528899818658829],[-0.004237835295498371],[-0.32193872332572937],[0.18587149679660797],[0.1044783890247345],[-0.13350318372249603],[-0.44704169034957886],[-0.34840038418769836],[-0.19607792794704437],[-0.3298055827617645],[-0.05810413882136345],[0.07537398487329483],[-0.21159251034259796],[-0.126071959733963],[-0.20981717109680176],[0.16665779054164886],[-0.2942608594894409],[-0.2771129608154297],[-0.05460992082953453],[-0.16258813440799713],[0.13533629477024078],[-0.08819613605737686],[0.04421348497271538],[-0.2860097289085388],[-0.206733837723732],[-0.42775994539260864],[0.18409442901611328],[0.03961292654275894],[-0.20556695759296417],[-0.47491222620010376],[-0.18663419783115387],[-0.5937083959579468],[-0.483195036649704],[-0.10478431731462479],[0.24329905211925507],[-0.16870468854904175],[-0.21689145267009735],[-0.1617179661989212],[-0.2668696343898773],[-0.3520728349685669],[0.15265588462352753],[0.20567846298217773],[0.05913134664297104],[-0.10538573563098907],[-0.4573497772216797],[0.23810872435569763],[0.20726493000984192],[-0.3199121356010437],[-0.15855127573013306],[-0.03194481134414673],[-0.13838277757167816],[-0.019872063770890236],[-0.1762997806072235],[-0.07837989926338196],[0.15897662937641144],[-0.05456070229411125],[0.14341329038143158],[0.03585756942629814],[-0.17479926347732544],[-0.05837937816977501],[0.3349626064300537],[-0.4598717987537384],[-0.22471745312213898],[-0.09423407912254333],[0.038821130990982056],[-0.1327955424785614],[-0.12077109515666962],[0.11643683165311813],[-0.3827776312828064],[-0.2620304226875305],[-0.27558693289756775],[-0.016203852370381355],[0.09055681526660919],[-0.21321846544742584],[-0.2159653902053833],[-0.08849964290857315],[-0.4708380699157715],[0.06662213802337646],[-0.29534614086151123],[0.5253334045410156],[0.11470673978328705],[-0.23566003143787384],[0.0030969243962317705],[0.05542479455471039],[0.26959091424942017],[-0.09203965961933136],[0.39328569173812866],[-0.3052190840244293],[-0.1422141194343567],[0.020981568843126297],[-0.1824374943971634],[-0.18029382824897766],[-0.09037885814905167],[-0.2162165343761444],[-0.05674029141664505],[0.13579335808753967],[0.12837079167366028],[-0.24702052772045135],[0.1585308462381363],[-0.3895443379878998],[0.1451893150806427],[-0.33930251002311707],[0.14551487565040588],[-0.263725608587265],[-0.1024787575006485],[-0.17804236710071564],[-0.07858885824680328],[-0.17051275074481964],[0.12405406683683395],[-0.03282320499420166],[-0.13464075326919556],[0.08787060528993607],[-0.08646924048662186],[-0.5207048058509827],[0.2386680245399475],[-0.011854768730700016],[0.14849893748760223],[-0.25475171208381653],[0.08175721764564514],[-0.0487738661468029],[0.04962939769029617],[-0.18482980132102966],[0.6992680430412292],[-0.47992953658103943],[0.0096893934533],[-0.08481314033269882],[-0.17742526531219482],[0.34849679470062256],[-0.27355408668518066],[-0.32370057702064514],[-0.5339642763137817],[0.19734306633472443],[-0.37472474575042725],[-0.138318732380867],[-0.059952400624752045],[0.2135072946548462],[0.22396670281887054],[0.26770615577697754],[-0.15598414838314056],[-0.021197181195020676],[-0.2691817581653595],[-0.2065652459859848],[0.126719132065773],[0.45229825377464294],[0.08443336933851242],[0.19440418481826782],[0.24364115297794342],[-0.33267542719841003],[-0.03273271024227142],[-0.5263006687164307],[-0.20021431148052216],[0.11844202876091003],[-0.2500647008419037],[-0.2836749255657196],[-0.14943811297416687],[0.140830397605896],[-0.1468825489282608],[-0.5081314444541931],[0.39906033873558044],[0.18542805314064026],[0.22330957651138306],[-0.44773247838020325],[-0.24549245834350586],[-0.014290356077253819],[0.4039355218410492],[0.280158132314682],[-0.16166044771671295],[-0.3069766163825989],[-0.24191713333129883],[-0.04740047827363014],[-0.047797802835702896],[0.0476573146879673],[-0.3033757507801056],[-0.3107382655143738],[0.010767810977995396],[-0.39782774448394775],[-0.26117682456970215],[-0.4987734854221344],[0.2450546771287918],[-0.4748665392398834],[-0.13430415093898773],[-0.4937363862991333],[0.09807594865560532],[0.16622261703014374],[-0.1551746129989624],[-0.21000467240810394],[0.2392047494649887],[-0.08790764957666397],[0.26536357402801514],[-0.22452323138713837],[0.04017775505781174],[0.13482685387134552],[-0.31396380066871643],[-0.1877724528312683],[-0.2158058136701584],[0.10165771842002869],[0.029256651178002357],[-0.5647875070571899],[0.15560592710971832],[-0.46476230025291443],[-0.2981509566307068],[-0.099093958735466],[0.0885864719748497],[-0.08276864141225815],[-0.3334314823150635],[0.06001947820186615],[0.20348335802555084],[0.15978501737117767],[-0.20500560104846954],[-0.25064176321029663],[-0.0491516999900341],[-0.5464206337928772],[-0.3403881788253784],[-0.14346925914287567],[0.025393866002559662],[-0.33308565616607666],[0.07424600422382355],[0.3470395803451538],[-0.08273372799158096],[-0.21211864054203033],[0.07983554899692535],[-0.2505469024181366],[-0.1351594775915146]]