[[-0.4255884885787964],[-0.2517417371273041],[0.33399027585983276],[-0.15259712934494019],[0.1081542894244194],[-0.21478530764579773],[0.0494881346821785],[-0.12728022038936615],[-0.3698299825191498],[-0.03351128101348877],[-0.003409208497032523],[-0.24219727516174316],[0.26781919598579407],[-0.16098633408546448],[-0.03941020369529724],[-0.30555862188339233],[-0.42842647433280945],[0.1344042867422104],[0.14674454927444458],[-0.07421822845935822],[-0.08247450739145279],[-0.01886443980038166],[-0.23811471462249756],[-0.03658970072865486],[-0.0168759748339653],[-0.44181686639785767],[0.37028539180755615],[0.28288570046424866],[-0.04730711504817009],[-0.4696364104747772],[-0.16582435369491577],[0.1238534078001976],[0.5506983995437622],[-0.06528899818658829],[-0.004036827944219112],[-0.4235900342464447],[0.09595239907503128],[0.15538397431373596],[-0.13363590836524963],[-0.44704169034957886],[-0.34840038418769836],[-0.19607792794704437],[-0.3717014193534851],[-0.06814804673194885],[0.0749969556927681],[-0.309556782245636],[-0.12406022846698761],[-0.20718097686767578],[0.016672203317284584],[-0.16763249039649963],[-0.2778151333332062],[0.02062869258224964],[-0.14286646246910095],[0.08074969798326492],[-0.22841757535934448],[0.04381345584988594],[-0.16690999269485474],[-0.2060283124446869],[-0.2922227382659912],[0.13659240305423737],[0.03961292654275894],[-0.11471530050039291],[-0.47491222620010376],[-0.17236389219760895],[-0.5478519797325134],[-0.48080387711524963],[-0.09340451657772064],[0.21743236482143402],[-0.1703624576330185],[-0.215833842754364],[-0.1617179661989212],[-0.2668696343898773],[-0.40873846411705017],[0.1811547428369522],[0.09199482202529907],[0.0053438772447407246],[-0.10290499031543732],[-0.4573497772216797],[0.26930490136146545],[0.2072799950838089],[-0.3199121356010437],[-0.15855127573013306],[0.07805254310369492],[-0.1375144124031067],[-0.08289553970098495],[-0.1776496320962906],[-0.07837989926338196],[0.040370531380176544],[-0.052896104753017426],[0.07076579332351685],[0.036157798022031784],[-0.031110767275094986],[-0.05837937816977501],[0.3344820439815521],[-0.4598717987537384],[-0.2233387976884842],[-0.08896471560001373],[0.12272127717733383],[-0.1310572624206543],[-0.25936219096183777],[0.14100325107574463],[-0.3882060945034027],[-0.2620304226875305],[-0.28116220235824585],[-0.011658244766294956],[0.09135264903306961],[-0.08564074337482452],[-0.2159653902053833],[-0.0874682143330574],[-0.4708380699157715],[-0.0858895406126976],[-0.3630504310131073],[0.5253334045410156],[0.12236904352903366],[-0.08472589403390884],[0.0023763091303408146],[0.05542479455471039],[0.26959091424942017],[-0.09203965961933136],[0.2392793893814087],[-0.3051430583000183],[0.013236518949270248],[-0.07328876107931137],[-0.3187422752380371],[-0.1804891675710678],[0.05646563321352005],[-0.21652697026729584],[-0.0892869383096695],[0.012042887508869171],[0.2430540919303894],[-0.2474127858877182],[0.22358481585979462],[-0.3783089220523834],[0.14042876660823822],[-0.3314846158027649],[0.12507571280002594],[-0.11911922693252563],[-0.1018131747841835],[-0.1065487265586853],[-0.07858885824680328],[-0.17051275074481964],[0.12405406683683395],[-0.07581204921007156],[-0.12964993715286255],[0.10318057239055634],[-0.09860727190971375],[-0.4744545817375183],[0.2173241525888443],[-0.011854768730700016],[0.14849893748760223],[-0.25475171208381653],[-0.06724585592746735],[-0.012414271011948586],[0.06236707419157028],[-0.18482980132102966],[0.6011466979980469],[-0.4874202311038971],[0.014961005188524723],[0.063910111784935],[-0.18272297084331512],[0.49885258078575134],[-0.2875865697860718],[-0.16892403364181519],[-0.5329504609107971],[0.20013053715229034],[-0.3766680359840393],[-0.12692302465438843],[0.03887404501438141],[0.14909996092319489],[0.23192748427391052],[0.12266737967729568],[-0.1541624665260315],[-0.17279452085494995],[-0.27110326290130615],[-0.34647849202156067],[0.1248105987906456],[0.45229825377464294],[0.07167455554008484],[0.19309628009796143],[0.0939239040017128],[-0.33267542719841003],[-0.14558306336402893],[-0.5228697657585144],[-0.19793222844600677],[0.1109919473528862],[-0.28213587403297424],[-0.1520618200302124],[-0.13857704401016235],[0.12311762571334839],[-0.1468825489282608],[-0.506214439868927],[0.49976491928100586],[0.18267448246479034],[0.18081025779247284],[-0.44773247838020325],[-0.24549245834350586],[-0.170721635222435],[0.2589772045612335],[0.34847885370254517],[-0.14476417005062103],[-0.19064171612262726],[-0.24191713333129883],[-0.05379922688007355],[-0.0381600446999073],[0.07180743664503098],[-0.30385899543762207],[-0.30658453702926636],[-0.13133582472801208],[-0.3970721364021301],[-0.2651030421257019],[-0.4987734854221344],[0.1189534068107605],[-0.5084561705589294],[-0.14286236464977264],[-0.37461042404174805],[0.09668140113353729],[0.022432511672377586],[-0.03302003815770149],[-0.2070360630750656],[0.3765842020511627],[-0.09033321589231491],[0.26536357402801514],[-0.22452323138713837],[0.04655022174119949],[0.15160907804965973],[-0.19813969731330872],[-0.18849271535873413],[-0.16819779574871063],[-0.05270984023809433],[0.010281480848789215],[-0.5527417659759521],[0.131351038813591],[-0.40942901372909546],[-0.2981509566307068],[-0.0937000960111618],[0.040297981351614],[-0.08276864141225815],[-0.33290377259254456],[-0.04532838985323906],[0.19783344864845276],[0.3119138479232788],[-0.20500560104846954],[-0.10380665212869644],[-0.0491516999900341],[-0.5464206337928772],[-0.3403881788253784],[-0.1523798555135727],[-0.032517243176698685],[-0.33308565616607666],[0.07424600422382355],[0.34703871607780457],[-0.08273372799158096],[-0.20777006447315216],[0.037611570209264755],[-0.2067570835351944],[-0.1349017471075058]]