[[0.057715438306331635],[0.36480778455734253],[0.2326274812221527],[-0.31828880310058594],[0.23257943987846375],[-0.27497902512550354],[-0.3164754807949066],[0.5721156597137451],[-0.17969302833080292],[0.1305205225944519],[0.012089860625565052],[0.02078111283481121],[-0.44331222772598267],[-0.23009106516838074],[-0.08939853310585022],[-0.13005073368549347],[-0.004372987896203995],[-0.4863359332084656],[-0.021266747266054153],[-0.007557151839137077],[-0.016205301508307457],[0.24312032759189606],[-0.15273386240005493],[-0.19562143087387085],[-0.12800033390522003],[-0.2313951551914215],[-0.08896981924772263],[-0.0773237869143486],[0.38963767886161804],[-0.0060830083675682545],[-0.1282835304737091],[-0.13195186853408813],[0.22423332929611206],[-0.15811169147491455],[0.14402896165847778],[0.3300771117210388],[-0.04781584069132805],[-0.13950760662555695],[0.23840580880641937],[-0.06461017578840256],[0.6497422456741333],[-0.2894149124622345],[-0.06158905848860741],[-0.08592122048139572],[0.7245414853096008],[0.2505868077278137],[-0.3187287151813507],[0.22148160636425018],[-0.1586976796388626],[-0.10861619561910629],[0.2397318184375763],[0.19778530299663544],[0.10018239915370941],[0.2116049975156784],[-0.3401297926902771],[-0.06318580359220505],[-0.1194843202829361],[0.01729537546634674],[-0.12915079295635223],[-0.20610982179641724],[0.06400123983621597],[0.3125024735927582],[-0.3273111879825592],[-0.06038516387343407],[0.26175662875175476],[0.04322054982185364],[-0.2262953668832779],[0.032420121133327484],[-0.0020302007906138897],[-0.22337637841701508],[0.202546164393425],[-0.015606770291924477],[-0.6441226005554199],[-0.0002500831615179777],[-0.20453257858753204],[0.20552869141101837],[0.16601359844207764],[-0.07400527596473694],[-0.23479901254177094],[-0.18030720949172974],[0.11915349960327148],[0.12293245643377304],[-0.030150847509503365],[0.10528112947940826],[-0.3135303556919098],[0.1367698609828949],[0.6106235980987549],[-0.02540809102356434],[0.03366156294941902],[-0.4403145909309387],[-0.12352515012025833],[-0.27321335673332214],[0.3385748863220215],[0.17977218329906464],[0.1277497112751007],[-0.21207505464553833],[-0.11820477992296219],[-0.34606340527534485],[-0.13987216353416443],[-0.23047858476638794],[0.0056397090665996075],[-0.2635240852832794],[0.11488845944404602],[0.14281536638736725],[0.26489633321762085],[-0.23727160692214966],[-0.5684336423873901],[0.3286033272743225],[-0.07786833494901657],[0.6440893411636353],[-0.16088880598545074],[-0.08261828869581223],[0.22479113936424255],[-0.29772573709487915],[-0.033866867423057556],[-0.1493551880121231],[-0.18291416764259338],[-0.14846603572368622],[-0.0653717964887619],[-0.06395592540502548],[0.3946567177772522],[-0.13721707463264465],[0.2548765540122986],[-0.04711100459098816],[-0.1510949283838272],[0.5833268761634827],[-0.10595586150884628],[-0.31174522638320923]]