[[-0.0257568396627903,-0.20172801613807678,0.23376956582069397,0.15705476701259613,0.022520558908581734,0.07989724725484848,-0.03170916810631752,-0.016754398122429848,-0.07221191376447678,-0.08387329429388046,0.20991164445877075,-0.1690802276134491,0.17349569499492645,-0.12955516576766968,-0.20176877081394196,0.22811780869960785,0.03169291466474533,-0.19904977083206177,-0.07861065864562988,-0.10160110145807266,-0.131765678524971,-0.117337666451931,0.05857476592063904,-0.03961432725191116,0.053654611110687256,-0.03283839672803879,0.041659798473119736,-0.07424145936965942,-0.19577649235725403,0.059447430074214935,-0.20501483976840973,-0.10268145799636841,-0.13515466451644897,0.01591634564101696,0.20919404923915863,-0.2736879587173462,0.09443049132823944,-0.053029488772153854,-0.0044196476228535175,0.08276809006929398,0.09460967779159546,-0.2265159636735916,0.15738436579704285,-0.08929860591888428,-0.15832893550395966,-0.20711371302604675,0.03870120644569397,0.10014332830905914,0.07501208782196045,0.11858206242322922,-0.2509916126728058,-0.0038844773080199957,0.03217169642448425,0.01977633498609066,0.13687731325626373,-0.1189105361700058,0.2240203320980072,0.09776460379362106,-0.10007713735103607,-0.16115157306194305,-0.09174667298793793,-0.027395764365792274,0.07619933784008026,-0.013976069167256355,-0.14641419053077698,0.10602204501628876,-0.06333393603563309,-0.1315048485994339,-0.033698514103889465,0.1341579705476761,-0.05623934417963028,-0.0016143517568707466,0.08002204447984695,-0.0069107785820961,-0.04104546457529068,0.15632961690425873,-0.2587345242500305,-0.10430297255516052,-0.1702071875333786,0.06286980211734772,-0.023418953642249107,-0.17288838326931,0.14658211171627045,0.22037434577941895,-0.014520227909088135,-0.10605262964963913,-0.13368606567382812,0.00638545909896493,-0.13439759612083435,0.08892051875591278,0.014475470408797264,-0.10003060847520828,0.09376544505357742,-0.11877360939979553,0.12763366103172302,-0.0027294419705867767,-0.038230929523706436,-0.0680323988199234,-0.13544633984565735,0.09720124304294586,0.055582862347364426,0.11494915187358856,-0.06336962431669235,-0.08953404426574707,-0.022670438513159752,-0.21961642801761627,-0.003751290263608098,0.13591744005680084,-0.09539637714624405,0.1578875035047531,0.058188069611787796,-0.01827842928469181,0.07030995190143585,0.03055158443748951,-0.036787234246730804,0.2512408494949341,0.24210458993911743,0.13920676708221436,-0.21170835196971893,-0.13881908357143402,0.004576260223984718,0.034713707864284515,0.08086974173784256,-0.07424000650644302,-0.044624585658311844,0.02529817819595337,-0.1617060899734497,0.07618442922830582,-0.05311824008822441,0.07061102986335754,-0.10516100376844406,-0.22791054844856262,0.05450812727212906,-0.01856089197099209,0.12202456593513489,0.026993995532393456,-0.018678689375519753,-0.14519433677196503],[0.09849899262189865,-0.24484512209892273,0.0044058444909751415,0.2154695689678192,0.19503112137317657,0.04523002356290817,-0.004155752249062061,-0.10468247532844543,0.04752747714519501,-0.12273824959993362,0.048852577805519104,-0.0162860956043005,0.18691927194595337,-0.03441367298364639,-0.1944279968738556,-0.11012787371873856,0.04660821706056595,0.07039346545934677,0.05518080294132233,0.0034809045027941465,0.2516951560974121,0.17145639657974243,-0.27342143654823303,-0.2986685335636139,-0.06960369646549225,-0.07608373463153839,0.018917160108685493,0.08820241689682007,-0.18799325823783875,-0.07502656430006027,0.09313613921403885,0.06953925639390945,0.19324101507663727,0.08701066672801971,-0.03361429646611214,-0.054418034851551056,0.10310088098049164,0.034644484519958496,0.10516650229692459,0.09376770257949829,0.060817938297986984,-0.12179124355316162,-0.15086214244365692,0.08780445903539658,-0.19399036467075348,-0.15697641670703888,0.008655565790832043,-0.25514477491378784,0.07587911188602448,-0.05039403587579727,-0.2937034070491791,0.07345352321863174,-0.07202011346817017,-0.21242092549800873,-0.06099630519747734,-0.021912788972258568,-0.075886569917202,0.023245900869369507,0.15613830089569092,-0.14081791043281555,0.12238988280296326,0.045845877379179,-0.024037063121795654,-0.04756295680999756,-0.08481422066688538,0.05324307829141617,-0.007052124477922916,-0.0884198546409607,0.08475366234779358,-0.16424325108528137,-0.009715930558741093,-0.02483854442834854,-0.11287187784910202,-0.14141011238098145,-0.099688321352005,0.30280378460884094,-0.16357271373271942,0.0304300244897604,-0.26424625515937805,-0.07378605008125305,-0.053261689841747284,-0.06754596531391144,-0.20295320451259613,0.0805884376168251,0.2534217834472656,-0.16941384971141815,0.135038360953331,-0.015647325664758682,0.06237519159913063,-0.1336124986410141,0.13550616800785065,0.18570278584957123,-0.1948942244052887,0.011522609740495682,0.10953743010759354,0.1374579221010208,0.12020640820264816,0.21154847741127014,0.07126936316490173,-0.017645427957177162,0.04138593375682831,-0.07903257012367249,0.10535243153572083,-0.05746493861079216,-0.17478929460048676,0.09430643171072006,0.2212873101234436,-0.21232549846172333,-0.11043953150510788,-0.01739298738539219,-0.12779878079891205,-0.16605079174041748,-0.017103079706430435,0.1310974359512329,-0.011379635892808437,0.03990453854203224,0.00841434858739376,-0.1436828374862671,0.051019273698329926,-0.0631067305803299,0.05668623372912407,0.13915541768074036,-0.1493007391691208,0.22377876937389374,-0.02383437007665634,-0.03326770290732384,-0.1010885238647461,0.12196586281061172,-0.04527759552001953,0.018792545422911644,-0.01388352271169424,0.17881374061107635,-0.04082564264535904,0.0023236898705363274,-0.294986367225647,0.06479869782924652,-0.13357190787792206,0.05934889242053032],[-0.05512908846139908,-0.07024133950471878,0.024597834795713425,0.09954115003347397,0.024485275149345398,0.274233341217041,0.01532068382948637,-0.061198119074106216,-0.0007090690778568387,-0.007567551452666521,0.03426029533147812,-0.014629383571445942,0.10289064794778824,0.11430390179157257,-0.01926034316420555,0.22107785940170288,-0.2242768555879593,-0.20343486964702606,-0.17685922980308533,0.09475066512823105,-0.03966357558965683,0.041819680482149124,0.3251519203186035,0.19340430200099945,-0.050547730177640915,-0.11555075645446777,-0.07638879120349884,-0.12182679027318954,0.011245646513998508,-0.06509484350681305,-0.0912620946764946,-0.0321015901863575,0.03783915936946869,-0.0904364213347435,0.0698888897895813,-0.005759811494499445,-0.10025099664926529,0.04305758699774742,-0.10218479484319687,-0.01675926148891449,0.19739310443401337,-0.06820812076330185,-0.1575596183538437,0.30030736327171326,0.040496062487363815,-0.06268914043903351,-0.13766634464263916,-0.08138337731361389,0.04054427891969681,-0.09436206519603729,0.07411430776119232,0.005513382144272327,0.10574855655431747,-0.29287955164909363,0.130508691072464,0.08583962917327881,0.24548785388469696,-0.0005648266524076462,-0.006875638850033283,-0.004431769251823425,-0.026556286960840225,0.01694975607097149,-0.02274220995604992,-0.20768915116786957,0.0981515422463417,0.19895274937152863,0.13375122845172882,-0.0366925373673439,0.21970437467098236,0.10139457136392593,0.0663997009396553,0.14585170149803162,-0.003107696305960417,-0.10437431186437607,-0.10211500525474548,-0.002353333169594407,-0.10746877640485764,0.04206805303692818,-0.10461493581533432,0.017734551802277565,0.20278111100196838,0.03271408751606941,-0.22736512124538422,0.17324212193489075,0.09067484736442566,-0.08243294060230255,-0.3160809576511383,0.002969724126160145,-0.12131788581609726,-0.23972293734550476,-0.1932717114686966,-0.17644144594669342,0.3043486773967743,-0.0326441265642643,0.015206167474389076,-0.08162287622690201,-0.18213121592998505,-0.15823717415332794,0.0006499063456431031,0.1649787873029709,-0.06655775010585785,-0.009975025430321693,-0.0004989897715859115,0.14671756327152252,0.22301436960697174,0.11593590676784515,-0.07815151661634445,-0.06881707161664963,-0.014100953936576843,0.04135492444038391,0.0961463674902916,-0.20608843863010406,0.05658780783414841,-0.07682415843009949,-0.24374110996723175,0.05300275236368179,-0.03536691516637802,-0.05915563553571701,0.07221239060163498,-0.2632647752761841,0.24670462310314178,-0.031176922842860222,-0.02171992138028145,-0.03212364390492439,0.008760068565607071,-0.10916122049093246,-0.049707818776369095,0.1319556087255478,-0.06399206817150116,-0.11715565621852875,0.27784696221351624,-0.03659866005182266,0.00956187304109335,0.037187810987234116,-0.17388683557510376,-0.21499334275722504,-0.038857702165842056,0.06790713965892792],[0.0639180839061737,-0.002258943859487772,-0.08997999876737595,0.05831848457455635,0.0466884970664978,0.05107361078262329,-0.02790995128452778,-0.01828702539205551,-0.1989048421382904,0.04253191500902176,-0.2347888946533203,0.21733981370925903,0.14331339299678802,-0.12143443524837494,0.06129753962159157,-0.03619210422039032,0.14566569030284882,0.19599482417106628,0.06736420840024948,-0.12442523241043091,-0.07657229155302048,0.07098712027072906,-0.06714985519647598,0.1051224023103714,0.06377915292978287,0.004894280806183815,-0.014428222551941872,0.04278761148452759,0.09592429548501968,0.16082070767879486,0.08536168932914734,0.08869460225105286,0.24590033292770386,-0.015781057998538017,0.209196075797081,0.15859851241111755,0.047686249017715454,0.03466060757637024,0.26693350076675415,0.17827418446540833,-0.1281547099351883,0.04811502993106842,-0.083177849650383,0.03525833040475845,0.1794113963842392,-0.12200115621089935,-0.010969125665724277,-0.1604022979736328,0.12306466698646545,0.22430764138698578,-0.4035238027572632,-0.12202101945877075,0.05365842953324318,-0.07267794013023376,-0.21070696413516998,-0.10723823308944702,0.07594947516918182,0.027360932901501656,0.1117338165640831,0.017854323610663414,0.31475186347961426,0.19794191420078278,0.02355194091796875,0.05820729583501816,-0.18091394007205963,-0.12259016931056976,-0.09683964401483536,0.18022732436656952,-0.19315558671951294,-0.0017584578599780798,0.01017215009778738,0.18729011714458466,-0.1954771727323532,-0.06502086669206619,-0.005044149234890938,-0.09080267697572708,-0.07766975462436676,-0.02390706166625023,0.09144283831119537,0.0015873857773840427,-0.09240759909152985,-0.033606965094804764,0.011705894023180008,0.2294131964445114,0.04882176220417023,-0.17287740111351013,-0.04220939800143242,0.00035676825791597366,-0.14557431638240814,0.06428609043359756,-0.29764053225517273,-0.04503102973103523,0.003591868095099926,-0.07812467962503433,-0.1410766988992691,0.011520796455442905,-0.1292470395565033,-0.16308510303497314,0.12333919107913971,0.23260919749736786,0.0029871086589992046,0.05814460292458534,0.17464177310466766,-0.18851353228092194,0.11599139124155045,0.35699334740638733,0.18269771337509155,0.024074429646134377,-0.06011321395635605,0.02467474341392517,0.11128390580415726,0.29031404852867126,0.12697221338748932,0.16706649959087372,-0.16843517124652863,-0.17344407737255096,-0.15048536658287048,-0.1448916792869568,0.16732154786586761,-0.13688310980796814,0.04536444693803787,0.12212075293064117,0.07543765753507614,0.0567973293364048,0.1426859349012375,0.16587276756763458,0.14610092341899872,-0.03174351155757904,0.005937886890023947,-0.035311706364154816,0.09073057025671005,0.18584375083446503,-0.01153749879449606,-0.052290771156549454,-0.10755482316017151,-0.11775754392147064,0.03724834695458412,-0.05850115418434143],[-0.06706514954566956,0.007407226134091616,0.1395946592092514,-0.08242596685886383,-0.03374246507883072,0.20851589739322662,0.04640597477555275,-0.27400827407836914,-0.056383468210697174,-0.055880989879369736,0.017490798607468605,0.04285459220409393,-0.01618824526667595,0.015352831222116947,0.19102783501148224,0.06941545009613037,0.026405997574329376,-0.08810316771268845,0.057293545454740524,-0.17460669577121735,-0.0331733264029026,-0.11048775911331177,-0.10178583860397339,0.11226382851600647,0.17021936178207397,0.18366439640522003,-0.1089610606431961,-0.15768638253211975,-0.005984885152429342,-0.22361207008361816,-0.09599646180868149,-0.062257278710603714,-0.0537441149353981,0.17144577205181122,0.009807594120502472,-0.05075269937515259,0.08334357291460037,0.21923258900642395,-0.008967006579041481,0.06530565023422241,-0.08899544924497604,-0.1760527640581131,-0.10598219186067581,0.005312011577188969,-0.1889311820268631,-0.12474110722541809,-0.1447441130876541,0.03215430676937103,0.010394308716058731,0.054672107100486755,-0.17269335687160492,-0.05423545464873314,0.1888098418712616,-0.30221402645111084,0.24519149959087372,-0.021521788090467453,0.028301935642957687,-0.08645085990428925,0.10940326750278473,-0.022750476375222206,0.06123478710651398,-0.19382213056087494,-0.028437506407499313,0.039216745644807816,-0.16030894219875336,0.06132655218243599,-0.22847706079483032,0.15380674600601196,0.11308587342500687,0.32069170475006104,-0.021505117416381836,0.08063332736492157,-0.08393491059541702,0.01315192598849535,-0.022780992090702057,-0.055551569908857346,0.15500332415103912,-0.011033283546566963,-0.02468942105770111,0.012826357036828995,-0.27869659662246704,0.1912578046321869,0.03230167180299759,0.106590136885643,-0.29511892795562744,-0.11316242069005966,-0.09472090750932693,-0.03374416381120682,-0.23303523659706116,0.08809560537338257,0.08189411461353302,-0.06275400519371033,0.04209617152810097,-0.16365616023540497,-0.10934878885746002,0.008590619079768658,-0.0529765710234642,-0.035402990877628326,-0.05057618021965027,-0.1410539150238037,0.003882013028487563,0.20608505606651306,-0.030508555471897125,-0.09951502084732056,0.06013994291424751,-0.0028704970609396696,-0.15615123510360718,0.0017256293212994933,0.18508519232273102,0.04176334664225578,0.06654231995344162,0.08992112427949905,0.05177202820777893,-0.17096412181854248,0.18984228372573853,0.005604011472314596,-0.022415051236748695,-0.27279213070869446,-0.06049630045890808,0.06753995269536972,-0.11989697068929672,0.11258900910615921,-0.026671558618545532,0.2045944631099701,-0.19593654572963715,-0.08966419100761414,-0.15627068281173706,-0.0526227131485939,0.0958600714802742,0.21285220980644226,-0.0005579679855145514,0.08789407461881638,0.04042619466781616,0.14506712555885315,-0.18156364560127258,0.04550276696681976,-0.009156271815299988,0.10690812021493912],[-0.19506126642227173,0.03933930769562721,0.1191985234618187,0.015223471447825432,-0.23443371057510376,0.0881492868065834,0.1787268966436386,0.08183738589286804,-0.01836998201906681,-0.09205038845539093,0.06667346507310867,-0.038203898817300797,0.004696466028690338,0.03642777353525162,-0.08135520666837692,-0.15925383567810059,0.1182236596941948,-0.15522630512714386,-0.050316423177719116,-0.0515807569026947,-0.01938020996749401,0.1752995252609253,0.10502105951309204,-0.20778292417526245,-0.16667388379573822,0.13547277450561523,0.09810248017311096,0.02327605150640011,0.13724558055400848,0.14420178532600403,0.006587023381143808,-0.020125389099121094,-0.033354759216308594,0.2115057110786438,-0.03907915577292442,-0.013455847278237343,-0.21604906022548676,-0.03037649393081665,-0.08445731550455093,-0.03407552093267441,-0.047157254070043564,-0.19167760014533997,0.08984284102916718,-0.21164438128471375,0.03124197944998741,-0.06094520539045334,-0.033433422446250916,-0.06932777166366577,-0.16574408113956451,-0.11432674527168274,-0.09576191753149033,0.1154995709657669,0.13163849711418152,-0.10286325961351395,-0.15725812315940857,0.020511679351329803,0.09402118623256683,-0.037018999457359314,0.24346189200878143,-0.11039288341999054,0.01153313647955656,-0.019356591627001762,0.06020592525601387,-0.03624032810330391,-0.06953050941228867,-0.30330538749694824,0.09040511399507523,0.1243928074836731,0.107302725315094,0.028015656396746635,0.10271651297807693,-0.14674142003059387,0.13951027393341064,0.10435624420642853,0.025714397430419922,0.006682635750621557,0.2412436604499817,0.15175706148147583,-0.14372311532497406,-0.12454932183027267,0.01637886092066765,-0.03887170925736427,0.30047234892845154,0.07433906942605972,-0.03291122615337372,0.12722274661064148,-0.02695322595536709,-0.002605112036690116,0.1113608255982399,0.0315970815718174,0.008247729390859604,0.024544041603803635,-0.047695331275463104,-0.026907512918114662,-0.17492662370204926,0.03312285244464874,0.10180895030498505,-0.07410700619220734,-0.30728089809417725,0.0165017768740654,0.03512423485517502,-0.16723600029945374,-0.2487218827009201,0.0364210270345211,0.2831251323223114,0.1838393658399582,-0.06100529059767723,0.07343122363090515,-0.16050711274147034,-0.03406072035431862,0.007121562957763672,-0.0320248156785965,0.07269517332315445,-0.10962395370006561,-0.15760213136672974,0.025542300194501877,-0.16935665905475616,-0.021840283647179604,-0.1551932692527771,0.06588593870401382,-0.22279340028762817,-0.12017645686864853,0.01430241297930479,-0.10788945853710175,-0.18507948517799377,-0.0737566202878952,-0.09855480492115021,-0.03300938755273819,-0.031260062009096146,-0.2733210623264313,0.043075066059827805,-0.17252761125564575,-0.26909756660461426,-0.19218190014362335,0.2920346260070801,0.04035003110766411,-0.06088937819004059,0.06010251119732857],[0.038006771355867386,-0.12737159430980682,-0.04331263527274132,-0.00813031941652298,-0.17136065661907196,0.07850398123264313,0.2673005759716034,-0.08506321161985397,0.02398049831390381,0.05116888880729675,-0.08959847688674927,0.11993566155433655,-0.051710013300180435,-0.02322993054986,0.13604766130447388,0.2399832159280777,0.09016413241624832,0.16293184459209442,0.25845056772232056,0.024104516953229904,0.1659708023071289,-0.16980327665805817,-0.23636920750141144,0.09410195797681808,-0.18782049417495728,-0.012133918702602386,-0.03785647824406624,0.12697994709014893,-0.036693960428237915,-0.12898792326450348,-0.09589703381061554,0.16703757643699646,0.06759320199489594,0.056984372437000275,-0.22780634462833405,0.08099405467510223,-0.05202484503388405,0.022958097979426384,-0.03788862004876137,0.07191988080739975,-0.07118380814790726,0.10711179673671722,-0.06156356632709503,-0.0027850305195897818,0.04036371409893036,-0.1011974960565567,-0.028023123741149902,0.09366360306739807,-0.06498977541923523,0.1247057318687439,0.1184372752904892,0.012931521981954575,0.10519614070653915,0.015214549377560616,0.10611232370138168,0.09845007210969925,0.14887888729572296,-0.05434894561767578,0.3052731454372406,0.04357213154435158,0.10707473009824753,0.15955257415771484,0.07605379074811935,-0.025303984060883522,-0.13449378311634064,0.128973126411438,-0.11093857139348984,-0.22611887753009796,0.032857440412044525,0.011738384142518044,0.0177950169891119,-0.20711545646190643,-0.10272081196308136,0.02874009869992733,-0.01380035001784563,-0.2776277959346771,0.07273824512958527,0.12721595168113708,0.3236938416957855,0.037643641233444214,0.12164482474327087,-0.4212142527103424,-0.16047979891300201,0.05259814113378525,-0.310649573802948,-0.12810896337032318,-0.0002380383957643062,0.20675916969776154,-0.02170109562575817,-0.26221558451652527,0.12031581252813339,0.1852339208126068,-0.015048998408019543,0.12446464598178864,0.25064343214035034,-0.128290057182312,0.14305084943771362,-0.06628260761499405,0.11392444372177124,0.19675269722938538,-0.03157339617609978,-0.15098631381988525,-0.09164964407682419,0.1922338604927063,-0.17541012167930603,0.17152756452560425,-0.36159804463386536,0.17572571337223053,0.14089033007621765,-0.06650175899267197,-0.10850608348846436,-0.3762966990470886,0.055736664682626724,0.17060762643814087,-0.04897136613726616,0.1804773211479187,-0.22508379817008972,-0.09200802445411682,-0.06880978494882584,0.06034098565578461,0.2942866384983063,-0.12372376769781113,0.13028520345687866,0.11398644745349884,-0.1810358464717865,0.23781034350395203,-0.23170173168182373,0.011856036260724068,-0.00881112925708294,0.021565845236182213,0.1895037144422531,0.038644175976514816,0.24046236276626587,-0.1362450271844864,0.03216738998889923,-0.12575286626815796,0.06880234181880951,-0.006914601661264896],[0.07565554231405258,0.12133090943098068,0.016443684697151184,0.2315445989370346,0.010704382322728634,0.09480613470077515,-0.07868080586194992,0.0036622858606278896,0.09941630065441132,-0.20163971185684204,-0.10408852994441986,-0.03523128852248192,-0.0005855034105479717,0.12043558806180954,-0.01681259460747242,0.04929741844534874,-0.026832982897758484,0.1067483127117157,-0.021915871649980545,0.08578047156333923,-0.04608732834458351,0.11645454913377762,0.004242936614900827,-0.09939799457788467,-0.13446566462516785,0.10595780611038208,-0.2815884053707123,0.09297125041484833,-0.022586330771446228,0.14261050522327423,0.011471065692603588,0.07814902067184448,0.06328164786100388,-0.03193837031722069,0.0102209048345685,-0.15317848324775696,-0.11686618626117706,0.025496017187833786,0.0698845162987709,-0.022421274334192276,0.15026116371154785,-0.20822419226169586,0.042039040476083755,-0.08560801297426224,-0.1580621898174286,0.06665579229593277,0.34057411551475525,0.12346815317869186,0.03503534197807312,-0.13393685221672058,0.3328854441642761,0.18215124309062958,0.009171629324555397,-0.0023102243430912495,-0.01124635711312294,0.22790904343128204,-0.017019545659422874,0.10221299529075623,-0.09144246578216553,0.09532437473535538,-0.15188539028167725,0.04927041381597519,-0.0666210949420929,0.21424268186092377,0.09955884516239166,-0.07311588525772095,0.09876594692468643,0.12670737504959106,0.16686934232711792,0.025048352777957916,0.058355383574962616,-0.08397584408521652,0.18610063195228577,-0.06308484077453613,-0.030039671808481216,-0.019698763266205788,0.10060781985521317,-0.1974390149116516,0.06251385062932968,-0.00988825410604477,-0.01851748116314411,-0.22706516087055206,-0.14711156487464905,0.1061173602938652,0.002006187569350004,-0.0369187667965889,0.024898553267121315,0.10787230730056763,-0.005745814181864262,0.005994378123432398,-0.12055853754281998,0.13763312995433807,0.11899969726800919,-0.06514924019575119,-0.026661477982997894,0.04129359871149063,0.03946038335561752,-0.11084828525781631,0.059849660843610764,-0.11519168317317963,0.03276226297020912,0.12043791264295578,-0.27489763498306274,-0.02351200021803379,-0.18873198330402374,-0.10703842341899872,-0.03402027115225792,0.08206649124622345,0.07889053970575333,0.028783489018678665,0.1557115912437439,0.09852603077888489,-0.11410446465015411,-0.06288208067417145,-0.005143239628523588,-0.32900145649909973,-0.1429223269224167,0.14677569270133972,-0.1580662727355957,0.1208476722240448,0.11500938981771469,0.21513789892196655,-0.23574715852737427,0.19184012711048126,0.09892915934324265,0.013087037019431591,0.09615270793437958,-0.05094415321946144,-0.029304329305887222,-0.07444018125534058,0.02946469560265541,-0.07851904630661011,0.11197365075349808,0.059771306812763214,-0.26275700330734253,-0.09542667865753174,0.16398483514785767,0.11120017617940903],[0.21165861189365387,-0.06662601977586746,-0.03785004839301109,-0.13401761651039124,0.17926093935966492,0.0005723971407860518,-0.2008885145187378,0.031755898147821426,-0.09043959528207779,-0.08791639655828476,-0.046349700540304184,0.17370884120464325,-0.053972940891981125,0.04397168010473251,-0.11254618316888809,0.30596724152565,0.12806692719459534,-0.034324534237384796,-0.15115711092948914,-0.10911062359809875,0.06462746858596802,0.1707468032836914,-0.044363293796777725,0.31032201647758484,0.1539032757282257,-0.13386781513690948,-0.09052430838346481,-0.11034846305847168,0.021881116554141045,-0.20736820995807648,-0.020343538373708725,-0.00039471540367230773,0.04691622778773308,-0.05275362357497215,-0.00008309348777402192,0.17064017057418823,0.13660147786140442,-0.0681387260556221,-0.16705024242401123,-0.2452126145362854,-0.13074715435504913,0.027008069679141045,-0.16131611168384552,-0.026854822412133217,0.12137582153081894,-0.07529355585575104,-0.05694909393787384,-0.04407595470547676,0.11046361178159714,0.1024014800786972,0.01868126168847084,0.09841523319482803,0.024086611345410347,-0.13202381134033203,-0.00105984543915838,0.035407599061727524,0.1963343769311905,0.01641741767525673,-0.10009991377592087,0.10864215344190598,0.20905233919620514,-0.03855443373322487,-0.1374272108078003,0.05169923976063728,0.014946728013455868,0.0066593363881111145,0.017640888690948486,-0.18694278597831726,-0.009481469169259071,-0.07205118983983994,-0.1864599883556366,-0.09619726240634918,0.14008593559265137,-0.04867418110370636,0.22291044890880585,0.05304717272520065,-0.06440257281064987,0.2029540240764618,-0.08693017810583115,0.020686710253357887,-0.13092701137065887,0.024269262328743935,-0.15672051906585693,-0.05723027139902115,0.16116058826446533,0.14191779494285583,-0.03959676995873451,-0.08842989802360535,0.1284549981355667,0.10617783665657043,-0.055941130965948105,-0.20378391444683075,0.017092613503336906,-0.19457125663757324,0.03371622413396835,0.09557764232158661,0.20875822007656097,-0.020399844273924828,-0.023458322510123253,0.08343254774808884,0.11932497471570969,0.09416714310646057,0.07991482317447662,-0.09613016247749329,-0.08247442543506622,0.024891119450330734,-0.000026508347218623385,0.2030935436487198,-0.039295222610235214,-0.321844220161438,0.2923155725002289,-0.0886349156498909,0.049774229526519775,0.06837796419858932,-0.037450335919857025,-0.07944691181182861,0.005699972156435251,-0.13773365318775177,0.06412944942712784,0.012856757268309593,-0.01993849314749241,0.03216002508997917,-0.08779458701610565,-0.032530371099710464,-0.14478719234466553,0.096650630235672,0.03427852690219879,0.11918671429157257,-0.0020902794785797596,-0.05570049211382866,-0.269841730594635,0.14089125394821167,-0.11132732033729553,-0.18325626850128174,0.012611734680831432,-0.08794373273849487,0.1713353842496872,-0.06995567679405212],[-0.03652501851320267,-0.08109463006258011,-0.047493524849414825,-0.0578647218644619,0.10673756897449493,0.12935568392276764,-0.04839504510164261,0.12350092828273773,0.24002604186534882,-0.016751619055867195,0.07132618874311447,-0.10963480174541473,-0.01077587902545929,-0.10186529159545898,0.060088131576776505,-0.15754905343055725,-0.0804685577750206,0.005928023252636194,0.15745632350444794,-0.03835698962211609,-0.008544789627194405,-0.12540021538734436,-0.36275744438171387,0.15174052119255066,0.021857429295778275,0.17631152272224426,-0.08293462544679642,0.004977594129741192,0.1252751499414444,-0.033397067338228226,-0.14572837948799133,0.01539476215839386,0.22370503842830658,0.11800967901945114,-0.04660030081868172,0.19095395505428314,0.08434958755970001,-0.11670234054327011,0.010591858997941017,-0.0771389827132225,-0.09062682092189789,-0.039828404784202576,0.1899254471063614,0.010882081463932991,-0.1440705507993698,0.0023036981001496315,-0.16060194373130798,-0.024755235761404037,-0.0835551768541336,-0.05533815920352936,0.007433686871081591,-0.09516861289739609,0.2010173797607422,0.00742056779563427,-0.08393733203411102,0.03715651482343674,0.033446602523326874,-0.1144934818148613,-0.06372685730457306,0.0534919910132885,0.18539080023765564,0.015530969016253948,0.2898041307926178,-0.05899706110358238,-0.043301332741975784,-0.05863526090979576,0.06451106071472168,-0.09808825701475143,0.1516558974981308,-0.0910453349351883,-0.1451118141412735,-0.12759986519813538,0.13209323585033417,0.03898981586098671,-0.09035133570432663,-0.08507581800222397,-0.2882080078125,0.04220838472247124,0.15698891878128052,0.06705724447965622,-0.2203546017408371,-0.13310253620147705,0.00885690562427044,-0.020931418985128403,-0.0013468875549733639,-0.08859024941921234,-0.09386247396469116,0.1005028560757637,-0.004115970339626074,0.033400777727365494,-0.3674112558364868,0.2486986368894577,0.012596706859767437,0.08153419941663742,-0.12036677449941635,-0.08617202192544937,0.07275283336639404,0.14006736874580383,-0.0509936697781086,0.11437725275754929,0.04643595591187477,-0.057845521718263626,-0.0926058441400528,0.3329472243785858,0.14371253550052643,0.08823111653327942,-0.1056465208530426,0.011339937336742878,0.04811269789934158,-0.15346659719944,-0.048823922872543335,-0.01702648587524891,0.18483595550060272,-0.08997147530317307,-0.11344470828771591,-0.0767282247543335,-0.1629457026720047,-0.14582329988479614,0.09796591103076935,0.09869762510061264,0.07980558276176453,0.05674098804593086,-0.05524294078350067,-0.17279578745365143,-0.0021581901237368584,0.04605311155319214,-0.05968596041202545,0.09396684914827347,-0.22285102307796478,-0.17867417633533478,0.1260647475719452,-0.14611954987049103,-0.1610356867313385,-0.36122626066207886,-0.062361590564250946,-0.1259608417749405,0.006847359240055084,-0.07765285670757294],[0.14177986979484558,0.07316213846206665,-0.06524519622325897,-0.07495264708995819,0.15065282583236694,-0.1830052137374878,-0.07073461264371872,0.05022826045751572,-0.09860096126794815,-0.010098828002810478,-0.14618699252605438,0.10322844982147217,-0.0028512668795883656,-0.0832061618566513,-0.20444606244564056,-0.042496100068092346,-0.09998384118080139,0.07884922623634338,0.06614328920841217,0.018306978046894073,-0.17394129931926727,-0.0991651639342308,0.03573136776685715,0.037578705698251724,0.2992212474346161,-0.043061140924692154,0.008326209150254726,-0.06572732329368591,0.1020667552947998,0.13792651891708374,0.06397859752178192,0.14173905551433563,0.08620540052652359,-0.2426801472902298,0.029772505164146423,-0.0767412856221199,-0.039299022406339645,-0.1443268060684204,-0.04543868079781532,0.03365161642432213,-0.04020930081605911,-0.039761919528245926,-0.0827815979719162,0.07319795340299606,0.0012696151388809085,0.05596311017870903,-0.058120276778936386,-0.03212210163474083,-0.08245515078306198,0.010662173852324486,-0.22176197171211243,0.05287620425224304,-0.08350589871406555,0.012351891957223415,0.11112381517887115,0.22244076430797577,-0.04348772019147873,-0.06664499640464783,0.08700776845216751,-0.04715335741639137,-0.07990612089633942,0.2800551652908325,0.015528295189142227,0.0843234732747078,-0.12332557141780853,0.017309077084064484,-0.05152535438537598,0.11328423023223877,-0.2043735682964325,-0.1351071000099182,0.013766184449195862,-0.0071874503046274185,-0.1041368916630745,-0.06367508322000504,0.050207965075969696,-0.10601852089166641,0.23163579404354095,-0.13217607140541077,0.08159135282039642,-0.0746304839849472,0.10265466570854187,0.10534048825502396,0.2493484765291214,0.15989777445793152,0.06784085929393768,-0.19569900631904602,-0.07533581554889679,0.038834743201732635,-0.35929417610168457,-0.042856615036726,0.03881277143955231,-0.17015822231769562,-0.024473510682582855,-0.024211708456277847,0.015635011717677116,-0.08090794831514359,0.048210594803094864,0.008563037030398846,0.1513003408908844,-0.026217114180326462,0.031791094690561295,0.044829558581113815,-0.11786124855279922,0.13093788921833038,-0.12421614676713943,0.16276687383651733,0.02062400057911873,0.05229300260543823,-0.06757580488920212,0.25495362281799316,-0.07997056841850281,-0.018309451639652252,-0.001877302536740899,0.12793554365634918,-0.09410690516233444,0.1134343221783638,-0.3265385627746582,-0.09369850158691406,-0.26261720061302185,0.05570884048938751,-0.04427332803606987,-0.14281167089939117,0.09511969238519669,0.07943590730428696,0.06373986601829529,0.020969869568943977,0.032175276428461075,0.16287292540073395,0.14130377769470215,-0.07835086435079575,0.15649935603141785,-0.003435300663113594,-0.005465684924274683,-0.19138376414775848,-0.019491294398903847,0.20770619809627533,-0.0708344578742981,-0.12807774543762207],[-0.1627882719039917,-0.10109056532382965,0.004045469686388969,-0.03317684307694435,-0.15472595393657684,0.15389740467071533,0.09183148294687271,0.05175745487213135,0.006986606400460005,-0.18023589253425598,-0.002263373229652643,0.13615061342716217,-0.1796969473361969,-0.1140853613615036,-0.09749788790941238,-0.12386587262153625,0.006865932606160641,-0.1572643369436264,-0.022138118743896484,-0.009044243022799492,0.17080329358577728,-0.03209497407078743,0.08553347736597061,-0.10532587766647339,0.001920313574373722,-0.009164400398731232,0.4444149136543274,0.14202184975147247,0.08510870486497879,-0.18417473137378693,0.09498526901006699,-0.13468752801418304,-0.20260655879974365,-0.07039574533700943,0.044465888291597366,0.025484293699264526,0.032406989485025406,0.07645503431558609,0.019099803641438484,-0.08128131926059723,0.12200463563203812,-0.008003675378859043,0.12505505979061127,-0.11402788758277893,0.253160297870636,-0.035212211310863495,-0.20629967749118805,-0.014199309051036835,0.05968274176120758,-0.12046199291944504,0.025475360453128815,0.0015908537898212671,-0.11837120354175568,-0.05657365545630455,0.014871173538267612,0.09462285041809082,0.040505316108465195,0.035729821771383286,-0.018125679343938828,0.05192592367529869,0.45687881112098694,0.0973341166973114,-0.03547719493508339,0.10575427114963531,0.09828215837478638,0.18168404698371887,0.07324209809303284,-0.08953136205673218,0.14779256284236908,0.030570585280656815,0.0051681105978786945,-0.04622882604598999,0.01059421245008707,0.08536969125270844,-0.017369136214256287,0.12573406100273132,0.19348375499248505,-0.01726110652089119,0.05778920650482178,-0.03302852809429169,0.2282753735780716,0.0854152962565422,0.10834937542676926,-0.11710243672132492,0.11655091494321823,0.030259504914283752,-0.07087068259716034,0.09396778792142868,0.1160924881696701,-0.008484460413455963,-0.035584576427936554,0.039863571524620056,0.21241402626037598,0.025682110339403152,0.15182164311408997,0.03724715858697891,0.22385209798812866,0.13635630905628204,-0.0044550527818500996,0.16784663498401642,0.030717473477125168,0.025377774611115456,0.1155661791563034,-0.18094192445278168,-0.032632362097501755,0.20012794435024261,0.03523192182183266,-0.008759373798966408,-0.020062902942299843,-0.060194678604602814,-0.12443378567695618,0.03667113929986954,0.17672808468341827,-0.0012992118718102574,-0.036845069378614426,0.18064965307712555,-0.043608732521533966,0.17014390230178833,0.13468870520591736,-0.09486594796180725,-0.05110640823841095,0.03965189680457115,-0.09031811356544495,0.03176916018128395,0.11294391006231308,-0.2255587875843048,-0.03465623781085014,0.08787664771080017,0.13809537887573242,-0.1210402101278305,-0.210541233420372,0.09022346884012222,0.17113997042179108,0.003186753485351801,-0.0019108919659629464,0.06561315804719925,-0.18775759637355804,-0.02478199079632759],[0.04534025117754936,-0.007882065139710903,-0.23544324934482574,-0.12111134082078934,-0.0702173113822937,-0.14249615371227264,-0.08808091282844543,0.08748269826173782,0.07157808542251587,-0.024993760511279106,-0.20697325468063354,0.11754124611616135,-0.03354933112859726,-0.044770240783691406,0.08750434964895248,0.1590229868888855,-0.09600933641195297,0.2130405157804489,0.08107894659042358,0.1173853650689125,-0.10303269326686859,0.10739532858133316,0.07864761352539062,0.2273399829864502,0.05018232390284538,-0.1779959797859192,0.020906783640384674,-0.001864622812718153,-0.06543184071779251,-0.01652606949210167,0.0011393381282687187,-0.003579123644158244,-0.0022055082954466343,0.08099836111068726,0.025293968617916107,-0.11144701391458511,0.13004329800605774,-0.12003342062234879,-0.03178303316235542,-0.18079480528831482,0.16572359204292297,0.04429120197892189,0.13915738463401794,0.013982558622956276,0.07964172214269638,0.045252978801727295,-0.2538336515426636,0.2663361728191376,-0.2526862323284149,-0.08512938022613525,0.032506369054317474,0.0019859825260937214,0.16749855875968933,-0.056435726583004,0.0530475415289402,-0.16363267600536346,0.06364835053682327,-0.014172415249049664,-0.12874077260494232,-0.158373162150383,-0.04698334261775017,0.04213138669729233,-0.05165493115782738,0.11389237642288208,0.25885581970214844,-0.11177703738212585,0.3107767105102539,-0.022979745641350746,-0.11388187855482101,-0.02830013632774353,0.21656206250190735,-0.1029992327094078,0.02364507131278515,0.04845269396901131,-0.25681719183921814,-0.04728405177593231,0.06236683949828148,-0.12675683200359344,0.2259487807750702,-0.07017310708761215,0.17592133581638336,-0.023931359872221947,-0.22595219314098358,0.17250864207744598,-0.2410680204629898,-0.10943251103162766,0.20234473049640656,0.022020248696208,-0.0555046908557415,-0.27210482954978943,-0.16180875897407532,-0.14074164628982544,0.29160076379776,0.13859553635120392,-0.04250958934426308,0.002686587627977133,-0.057855360209941864,-0.19574607908725739,0.1310664713382721,0.08706152439117432,0.0254515390843153,0.12242826819419861,-0.03991073742508888,0.066582590341568,-0.2409469336271286,0.29095718264579773,-0.14910708367824554,-0.03347108140587807,-0.06846502423286438,0.2394925355911255,-0.3109510540962219,-0.24366044998168945,0.13975748419761658,0.2125835120677948,0.030942900106310844,0.2010488212108612,-0.04654842987656593,0.047648560255765915,-0.15497136116027832,0.2763143479824066,-0.04237230494618416,-0.1291951984167099,0.058403126895427704,0.15118439495563507,-0.19286170601844788,-0.18747501075267792,0.012399573810398579,-0.12061836570501328,0.03973120450973511,0.12373393774032593,0.16308315098285675,-0.06726778298616409,0.06817843019962311,0.17465122044086456,-0.04377461597323418,0.08574245125055313,-0.01941409334540367,0.07130700349807739],[-0.031617406755685806,-0.12343569099903107,0.08063623309135437,-0.022214405238628387,0.0448797307908535,0.07203979790210724,0.05629853531718254,0.14267465472221375,0.05372701212763786,0.06057098135352135,0.0509137399494648,-0.08443449437618256,0.03268059343099594,-0.004194000270217657,-0.049309223890304565,-0.1993626058101654,-0.07948140799999237,0.08203522861003876,0.11990450322628021,-0.034256428480148315,-0.16048254072666168,0.06192005053162575,-0.18015769124031067,-0.06490301340818405,-0.28728777170181274,-0.024981684982776642,0.03153877705335617,0.05655902624130249,0.1785552203655243,0.0966123640537262,-0.13315258920192719,0.06376677006483078,-0.17379803955554962,-0.01787678152322769,-0.0633336529135704,0.28902965784072876,-0.004193693399429321,0.04047447815537453,0.05309649556875229,-0.023538708686828613,-0.17021149396896362,-0.005499360151588917,-0.14255239069461823,-0.10287946462631226,-0.11050669103860855,0.05728159472346306,0.09076805412769318,0.07614482939243317,0.11748833954334259,-0.07224617153406143,0.0669139102101326,-0.18059693276882172,0.010965879075229168,0.22701135277748108,-0.27446913719177246,0.22972513735294342,-0.08041590452194214,-0.05479541793465614,0.04943056032061577,0.1477576643228531,-0.14864015579223633,-0.11390320211648941,-0.01979600265622139,0.23229435086250305,0.06034846976399422,-0.10347999632358551,0.11518072336912155,-0.04157978296279907,-0.11471705138683319,-0.1678496152162552,0.014554189518094063,0.03623431921005249,-0.22502127289772034,-0.1881004273891449,0.08050753176212311,-0.13776546716690063,-0.19897641241550446,0.14740388095378876,-0.08076198399066925,-0.21094536781311035,0.1255696415901184,0.2302313596010208,0.11579587310552597,-0.18589478731155396,0.11493989825248718,-0.05928809195756912,-0.10581135004758835,-0.1858668476343155,-0.07540280371904373,0.08920715004205704,-0.13572776317596436,0.16716933250427246,0.1485147476196289,-0.12523755431175232,0.1411665976047516,0.023094577714800835,-0.05981191620230675,0.20749975740909576,0.2713835835456848,-0.08993295580148697,-0.21284423768520355,0.056417688727378845,-0.009591146372258663,-0.13750934600830078,0.03155098482966423,-0.1017969474196434,-0.17554433643817902,-0.04046889767050743,0.17693404853343964,0.14528629183769226,-0.007039670366793871,0.05689914524555206,-0.01136845164000988,0.02282891608774662,0.2948860228061676,0.013956636190414429,0.14907902479171753,0.22517995536327362,0.11004451662302017,0.22006171941757202,-0.2611273527145386,-0.11988718807697296,0.005745121277868748,0.01702253706753254,0.04732273146510124,-0.018610969185829163,0.14278879761695862,0.033080678433179855,-0.16086313128471375,-0.1843201220035553,0.2001878321170807,0.170442134141922,0.029563438147306442,0.07176274806261063,0.0747719407081604,0.09625109285116196,0.0555204376578331,0.04753706604242325],[0.07440505176782608,-0.05966313183307648,-0.2638939321041107,0.06386721879243851,0.023137982934713364,-0.0519179105758667,-0.015230203047394753,-0.1895037740468979,0.09070952236652374,-0.2804260849952698,-0.015747012570500374,0.14283829927444458,-0.05442722141742706,0.09053902328014374,-0.12303178012371063,-0.03554800897836685,0.11818158626556396,0.05392973870038986,0.19244562089443207,-0.10535968095064163,0.09100636094808578,0.11153710633516312,-0.13421890139579773,0.08354780822992325,0.03702124208211899,-0.0885692685842514,-0.07683753222227097,-0.09545764327049255,0.12828916311264038,0.004452695604413748,-0.04585573077201843,-0.0846887156367302,-0.16778399050235748,0.03464968875050545,-0.10215409100055695,0.004453001543879509,0.12063182890415192,-0.2155112326145172,-0.2331872582435608,0.08869804441928864,-0.10259529203176498,-0.02179097943007946,-0.06104520708322525,-0.03402352333068848,-0.07156763970851898,-0.04612410441040993,-0.26282039284706116,-0.002483150688931346,0.03220316767692566,-0.1073497012257576,-0.0186925008893013,0.18121357262134552,0.1257869154214859,-0.1749090999364853,0.08144671469926834,-0.10813727229833603,0.056807488203048706,-0.2555828094482422,-0.09327118843793869,-0.11738799512386322,-0.26076388359069824,0.015783371403813362,0.11154844611883163,-0.19577190279960632,-0.05136287212371826,-0.14608213305473328,0.09755916148424149,0.07479116320610046,-0.19321008026599884,-0.007090759463608265,-0.08654183149337769,-0.1264025866985321,-0.012036542408168316,-0.1728476583957672,-0.12223636358976364,0.0987163633108139,0.11660091578960419,-0.03614046424627304,-0.14695923030376434,0.006640084553509951,0.033637721091508865,0.11508899927139282,-0.24156427383422852,-0.05914260447025299,-0.05037960037589073,0.08937892317771912,-0.1331762969493866,0.01574036292731762,0.043700724840164185,0.05401602387428284,0.13954849541187286,-0.1415577083826065,-0.025882475078105927,0.015015451237559319,0.0506744459271431,-0.11970696598291397,0.053120311349630356,-0.07380802184343338,-0.13394390046596527,0.1204545870423317,0.04453162103891373,0.09541060030460358,-0.05805351957678795,0.12615711987018585,-0.14844688773155212,0.10696638375520706,0.05109747499227524,-0.09616667777299881,-0.0017438159557059407,0.10560066252946854,0.11033362150192261,-0.016750754788517952,-0.013834022916853428,-0.15827275812625885,0.020303139463067055,-0.1810348629951477,0.06399445980787277,0.0304887518286705,0.08314892649650574,0.049515195190906525,-0.002432227833196521,0.19290755689144135,-0.049844320863485336,-0.10692272335290909,-0.17228290438652039,0.027386236935853958,-0.11289549618959427,0.022637061774730682,0.10261992365121841,0.12583822011947632,-0.12616625428199768,-0.0725424736738205,0.00039469284820370376,-0.29164817929267883,0.06460361927747726,0.198129341006279,-0.05377982556819916,0.05393482744693756],[0.26157429814338684,0.017198458313941956,-0.03511211276054382,0.3414928913116455,-0.008898081257939339,0.024752965196967125,0.09122323244810104,-0.06976360082626343,0.1397864669561386,0.035298775881528854,-0.015584240667521954,-0.031939320266246796,0.08715086430311203,0.021933607757091522,-0.1660824418067932,-0.09982235729694366,-0.13205264508724213,0.024280589073896408,-0.1058417558670044,-0.27426326274871826,0.08389170467853546,-0.20685994625091553,-0.04396000877022743,0.3033267557621002,0.13899463415145874,-0.051699474453926086,-0.020683981478214264,-0.11526986211538315,-0.06072915717959404,-0.1486503928899765,-0.053247299045324326,0.19404105842113495,0.020404653623700142,-0.01921895332634449,-0.05432138219475746,0.0757913663983345,-0.1109449714422226,0.10847529768943787,0.11231613904237747,0.16729411482810974,-0.15868769586086273,-0.15223927795886993,-0.0944008156657219,0.09489766508340836,-0.0015216104220598936,-0.028421111404895782,-0.09472289681434631,-0.16063670814037323,0.019515367224812508,-0.09155545383691788,-0.043827082961797714,0.1251908838748932,0.033788155764341354,-0.021507833153009415,-0.24367336928844452,-0.027684230357408524,-0.12784406542778015,-0.32608360052108765,-0.023482730612158775,-0.10828007012605667,0.016378944739699364,0.03856148198246956,-0.01515238918364048,-0.2039227932691574,0.06261245906352997,0.08066467195749283,0.16214260458946228,-0.15030227601528168,0.11696314811706543,0.04919520393013954,-0.05743812769651413,-0.12641634047031403,0.06558458507061005,0.0014575646491721272,0.06907228380441666,-0.05241567641496658,0.09261290729045868,-0.034881144762039185,-0.02833312749862671,-0.040242552757263184,-0.03834085166454315,-0.09367962181568146,0.23976115882396698,0.07645060122013092,0.07108050584793091,-0.04439915344119072,0.2527274489402771,-0.15747399628162384,-0.017761800438165665,-0.12594284117221832,0.05843712389469147,0.127831369638443,0.09664622694253922,-0.026827434077858925,0.06291654706001282,0.12854619324207306,0.009781302884221077,-0.0022401900496333838,-0.07129615545272827,0.036000851541757584,-0.12618795037269592,0.17533835768699646,0.04927222058176994,0.038231343030929565,0.000577349797822535,0.20632167160511017,-0.10885361582040787,0.0013601862592622638,-0.00911592599004507,0.15250106155872345,-0.09548616409301758,-0.02666209451854229,0.029418500140309334,-0.1824902892112732,-0.14928674697875977,-0.12625445425510406,0.1122613325715065,-0.06587979942560196,-0.09198278188705444,0.017347009852528572,-0.05951610580086708,0.011813465505838394,0.02095734514296055,-0.12712964415550232,-0.1780083328485489,0.010153619572520256,-0.09675520658493042,-0.0016138112405315042,0.1098516583442688,0.12302332371473312,0.09697029739618301,-0.10799537599086761,-0.20627577602863312,-0.16534948348999023,-0.11765772849321365,0.04700780659914017,-0.13582268357276917,0.057858679443597794],[0.08199168741703033,-0.2947317957878113,0.28869572281837463,0.21424980461597443,0.061863094568252563,0.12405740469694138,-0.17270688712596893,-0.12744005024433136,0.0828864797949791,-0.12515507638454437,-0.01703186146914959,0.001491535920649767,0.01769080013036728,0.16698457300662994,-0.1803940236568451,0.20940014719963074,-0.00041159088141284883,-0.10780023783445358,0.07866360992193222,0.15981189906597137,-0.4044436514377594,0.03626719489693642,-0.04339113458991051,-0.08011269569396973,0.06721831113100052,-0.08892633020877838,-0.05900120735168457,-0.05767142400145531,-0.11006099730730057,-0.04283959046006203,-0.12847107648849487,-0.18716666102409363,0.1178135946393013,0.1708194762468338,-0.04667804390192032,0.04837465286254883,-0.09503470361232758,0.12081453949213028,0.2573007345199585,0.16007865965366364,0.016946909949183464,-0.25579723715782166,-0.011700671166181564,0.05563696101307869,0.12804007530212402,0.19819560647010803,-0.18578018248081207,-0.2566993236541748,0.2077169567346573,-0.028559468686580658,-0.15748535096645355,-0.05758287012577057,0.027511585503816605,-0.059897080063819885,0.08240505307912827,-0.12574461102485657,0.11836439371109009,-0.06194881349802017,-0.006168990861624479,0.1763067990541458,-0.2071644514799118,-0.09027989208698273,0.1554115116596222,0.2532616853713989,-0.05389535054564476,-0.1388183981180191,-0.03521779924631119,-0.06976982206106186,0.14653560519218445,0.08228858560323715,-0.11264269798994064,-0.010019064880907536,-0.01146598719060421,0.018541060388088226,0.07682454586029053,-0.070517398416996,-0.12354293465614319,0.0574994757771492,0.049987997859716415,0.19741399586200714,0.17311231791973114,0.0672077164053917,-0.13083958625793457,0.06271057575941086,0.03470136970281601,0.14396245777606964,0.09396224468946457,0.11494845151901245,0.076416015625,-0.004408748354762793,0.1285932958126068,0.14776162803173065,-0.11053117364645004,-0.08428256213665009,-0.017011307179927826,0.0231110118329525,0.009479609318077564,-0.09102831035852432,0.11044535040855408,-0.11002548784017563,-0.018363723531365395,-0.0265298280864954,-0.04798376187682152,-0.15990769863128662,0.008498776704072952,0.09613870084285736,-0.10659193247556686,-0.1177750900387764,-0.12459798902273178,-0.05319374054670334,-0.2769675850868225,0.0792340338230133,-0.05247725173830986,-0.30468514561653137,-0.20694905519485474,0.06787896156311035,0.07567961513996124,0.016119495034217834,-0.09290903806686401,0.07264479994773865,-0.20655427873134613,-0.07474340498447418,0.04175247624516487,-0.011762421578168869,0.161335289478302,-0.0516359880566597,-0.1251664012670517,0.02696124278008938,0.134672611951828,0.08763718605041504,-0.0026876216288655996,-0.08345289528369904,-0.056373175233602524,0.04566967487335205,0.19312070310115814,-0.03594836965203285,-0.09552992135286331,-0.18598833680152893],[-0.02111070603132248,-0.13445189595222473,-0.1829407811164856,0.05298271030187607,-0.08732723444700241,-0.0022094505839049816,0.033504419028759,-0.27250370383262634,-0.03655029088258743,0.01999613828957081,-0.18950210511684418,0.2773500978946686,0.06575857847929001,0.21182496845722198,-0.10325894504785538,-0.04546348378062248,0.00527701573446393,0.008779565803706646,-0.22703446447849274,0.006928381975740194,0.1851988136768341,0.2157977819442749,0.1801581233739853,-0.16908292472362518,-0.05857463926076889,-0.22216984629631042,0.08362694084644318,-0.008524041622877121,-0.0642399862408638,0.15566430985927582,0.016609635204076767,-0.10584595054388046,0.14682388305664062,-0.014457853510975838,-0.18150757253170013,0.14253410696983337,-0.049041859805583954,-0.1066453754901886,0.06421913951635361,0.1883649080991745,0.030744273215532303,0.030691897496581078,0.20064429938793182,0.0027685698587447405,0.01945878006517887,-0.10509809851646423,0.01440517883747816,-0.04353361576795578,-0.1119462251663208,0.13624829053878784,0.017618708312511444,0.06124560907483101,0.04227260500192642,0.018954498693346977,-0.27705350518226624,-0.03469701111316681,0.1896175742149353,0.036784712225198746,0.1197216659784317,0.19107326865196228,-0.06758158653974533,0.03858812525868416,0.07193167507648468,0.06955545395612717,0.03762906789779663,-0.0303738284856081,-0.07698474079370499,-0.24472132325172424,-0.003759731538593769,0.23161821067333221,-0.022723175585269928,-0.058352358639240265,0.07301432639360428,-0.02421601302921772,-0.17983366549015045,-0.1664656400680542,-0.12835457921028137,0.11353003978729248,0.11352331191301346,-0.08649981021881104,0.0762224793434143,-0.026611261069774628,-0.12237751483917236,0.0017887050053104758,-0.10442855209112167,-0.0987066775560379,0.011106804944574833,-0.1656084507703781,-0.03923347592353821,0.04780616611242294,-0.041741784662008286,-0.033536531031131744,0.18043284118175507,0.10911641269922256,0.1623813509941101,0.04459882900118828,0.02122744917869568,-0.19194087386131287,-0.18964643776416779,0.02516552433371544,-0.07926087081432343,-0.19748076796531677,-0.0719100758433342,0.11945931613445282,-0.15585444867610931,0.19114120304584503,-0.10975472629070282,0.19780448079109192,-0.1496833860874176,-0.12258162349462509,-0.13673047721385956,0.03382427617907524,-0.09426772594451904,-0.0031402232125401497,-0.013877366669476032,0.08354150503873825,-0.022183863446116447,-0.14708951115608215,0.0219690203666687,-0.034587178379297256,0.0378357470035553,0.04656337946653366,0.21622024476528168,-0.09130367636680603,-0.010215014219284058,-0.16084273159503937,-0.005694484803825617,0.06422506272792816,-0.14253203570842743,-0.11845821887254715,0.15855194628238678,0.05277591571211815,-0.13304805755615234,0.004590196534991264,0.12704993784427643,-0.132188081741333,0.04217682406306267,-0.03358146548271179],[0.04466240108013153,-0.040212202817201614,-0.09542688727378845,-0.06970023363828659,0.19044338166713715,0.002872548531740904,-0.12567812204360962,-0.23624373972415924,0.10242734849452972,-0.011698107235133648,0.09495209157466888,0.22030459344387054,0.2032080888748169,-0.08212269842624664,0.14621765911579132,-0.048238642513751984,0.2250278890132904,0.11036355048418045,-0.1482851356267929,-0.06858078390359879,-0.09340137243270874,0.06315300613641739,-0.1195092648267746,-0.1049734577536583,-0.10921835899353027,-0.033363066613674164,-0.0705893412232399,0.2242005318403244,0.10412959009408951,0.05858955904841423,-0.21601812541484833,-0.26419389247894287,-0.01250897441059351,-0.2417677789926529,0.04894455522298813,-0.01142051164060831,0.3798972964286804,-0.06710197776556015,-0.07201994955539703,-0.05272698029875755,0.015444386750459671,-0.05039626732468605,-0.18793365359306335,-0.10907778143882751,0.13313999772071838,0.2157418429851532,-0.15441730618476868,-0.054556094110012054,-0.24252288043498993,0.010986273176968098,-0.03735761716961861,0.02720615826547146,0.08129873871803284,-0.049518559128046036,-0.18809941411018372,0.14255975186824799,0.010402446612715721,0.0810491293668747,0.09898572415113449,0.041814226657152176,0.05414164438843727,0.058078914880752563,0.11706600338220596,-0.038539040833711624,-0.15107165277004242,-0.18408961594104767,0.13836093246936798,0.18036997318267822,-0.16959115862846375,0.010822002775967121,-0.012015828862786293,-0.016753720119595528,0.17222052812576294,-0.16114845871925354,-0.24176235496997833,-0.033690180629491806,0.053400930017232895,0.03426465392112732,-0.01762835681438446,0.03326824679970741,-0.15096794068813324,0.015547349117696285,-0.22260475158691406,-0.029456187039613724,0.11572869122028351,-0.16007336974143982,0.005643766839057207,0.17429356276988983,0.06398123502731323,0.09388307482004166,-0.09254396706819534,-0.04139205813407898,0.07506544142961502,-0.08377724140882492,-0.1868005096912384,0.06964689493179321,-0.15036611258983612,-0.2687280476093292,-0.2719808518886566,0.11109917610883713,-0.012557522393763065,0.13175828754901886,0.09799766540527344,-0.09450375288724899,0.005353188142180443,0.040985558182001114,-0.14883774518966675,0.19268569350242615,-0.07337422668933868,0.12184444069862366,0.021689947694540024,-0.2747778296470642,-0.23522982001304626,-0.13974212110042572,0.14505091309547424,0.018496572971343994,0.0002933815703727305,-0.14035888016223907,-0.03909249231219292,-0.05433400720357895,-0.05007065832614899,0.1375410407781601,-0.16663257777690887,0.006788051221519709,-0.12701646983623505,0.020398613065481186,-0.11665363609790802,-0.08914130181074142,0.16692619025707245,0.11141200363636017,-0.14910611510276794,0.021709270775318146,-0.1958659142255783,0.07471063733100891,-0.06063960865139961,-0.14731928706169128,0.1837802231311798,0.13369537889957428],[0.025078067556023598,0.05682658776640892,0.11338593065738678,0.0700376108288765,-0.03120623715221882,-0.24879182875156403,-0.020326342433691025,-0.02615235187113285,0.05123130604624748,0.02156994119286537,-0.10250286012887955,-0.13763858377933502,-0.06952034682035446,0.004254769068211317,0.19639712572097778,0.1180398017168045,-0.21837133169174194,-0.04175896942615509,0.17750678956508636,-0.028793053701519966,-0.1680711954832077,-0.1502862125635147,0.2929075062274933,0.08457383513450623,0.08062254637479782,0.08464027941226959,-0.02840190939605236,0.23381046950817108,-0.04474685341119766,-0.017209716141223907,-0.12680158019065857,0.1851324886083603,0.10728111118078232,0.03928759694099426,-0.12302546203136444,-0.0019839568994939327,-0.06577809900045395,0.07658794522285461,-0.08553844690322876,0.19859538972377777,0.15650321543216705,0.09847182035446167,0.031665850430727005,0.07327061891555786,0.08321605622768402,-0.31552430987358093,0.08429151773452759,-0.1067904531955719,-0.19285891950130463,-0.23569484055042267,-0.08844774961471558,-0.2869308590888977,-0.19347785413265228,0.11809004098176956,0.3112470805644989,-0.28948184847831726,0.016863958910107613,-0.17108853161334991,-0.045923296362161636,-0.13662637770175934,0.06872467696666718,0.35858219861984253,0.10725768655538559,-0.15504251420497894,-0.0067199524492025375,-0.08996421843767166,0.14449648559093475,0.17981509864330292,0.004584351554512978,0.043131619691848755,-0.0931229516863823,0.15579183399677277,-0.18666380643844604,0.12171794474124908,0.1463586390018463,-0.0807192400097847,0.03364529088139534,0.03396835923194885,0.030554309487342834,-0.09391599148511887,-0.07253092527389526,-0.15537689626216888,0.07402034848928452,0.24063636362552643,-0.15731912851333618,0.009620778262615204,0.04035426676273346,0.07659144699573517,0.061712197959423065,-0.23266805708408356,-0.09693273156881332,-0.06581404060125351,-0.03988887369632721,-0.19325686991214752,-0.024707233533263206,-0.1519128829240799,-0.08735553175210953,0.1869174689054489,0.30976560711860657,-0.00888405553996563,0.08410700410604477,-0.1283932775259018,0.19899702072143555,0.03573418781161308,-0.21937191486358643,-0.02123327925801277,-0.20635055005550385,-0.020734010264277458,0.02691129595041275,-0.0481058768928051,-0.028014173731207848,0.11985736340284348,-0.08056104183197021,0.27813437581062317,0.26777178049087524,0.028089601546525955,-0.22394321858882904,0.00007952727901283652,0.10053752362728119,-0.1965392380952835,0.013008647598326206,0.06603462249040604,0.00932656042277813,0.0061324480921030045,0.07885237038135529,-0.060572825372219086,0.2648994028568268,0.0022347019985318184,-0.015384106896817684,0.11664120107889175,0.06126567721366882,0.09565646946430206,0.2003704160451889,0.048741258680820465,-0.1546563059091568,0.09897831827402115,-0.16977070271968842,0.0003691742313094437],[0.04816121980547905,-0.06614334136247635,-0.17368002235889435,-0.04178875684738159,0.24923734366893768,-0.09494085609912872,0.06456170231103897,0.04868733510375023,0.02663673460483551,0.16184866428375244,0.23374508321285248,-0.0350937619805336,-0.022118860855698586,0.09603644907474518,-0.028738273307681084,0.0928121954202652,-0.12121047079563141,0.23367924988269806,0.011938209645450115,0.18512727320194244,-0.005734285339713097,0.06517129391431808,0.06213390827178955,0.15384377539157867,-0.09320160746574402,0.2368738204240799,0.07038690894842148,0.0453994981944561,0.07964262366294861,-0.21004346013069153,0.12902693450450897,-0.08695711195468903,0.06279058009386063,0.030627500265836716,-0.04158633574843407,0.09483590722084045,0.3613097667694092,0.008666660636663437,-0.11458948999643326,-0.0375802144408226,-0.11400976777076721,0.20957475900650024,0.05675923079252243,-0.02200612984597683,0.22924761474132538,-0.08360964804887772,0.013350619934499264,0.05488118529319763,-0.1601952314376831,0.08756328374147415,0.23528453707695007,-0.019738562405109406,-0.007943318225443363,0.09859389066696167,0.10779394209384918,-0.016616521403193474,-0.15411701798439026,0.047602638602256775,0.19684195518493652,0.02136044204235077,0.10440445691347122,0.2521378695964813,0.06622591614723206,-0.20308221876621246,-0.05345932021737099,-0.10831291228532791,-0.00492975814267993,0.023925883695483208,-0.2922571003437042,-0.3977615237236023,0.027828412130475044,0.14809277653694153,0.0962282121181488,-0.20620353519916534,0.06622331589460373,-0.033976055681705475,0.01903764344751835,0.1129993125796318,0.08670523017644882,-0.03451757878065109,0.1498255580663681,-0.13082537055015564,0.09009699523448944,0.05740299075841904,0.046648863703012466,-0.004079857841134071,-0.016140293329954147,0.19653718173503876,0.12439201027154922,0.045365143567323685,-0.0784982442855835,0.09377291798591614,-0.03434765711426735,0.1888667494058609,-0.32468900084495544,-0.1079907938838005,-0.12126079946756363,0.05467721074819565,0.26695945858955383,0.2259269654750824,-0.018180610612034798,-0.09090912342071533,-0.21361926198005676,-0.1392459273338318,0.026359204202890396,0.3507322371006012,-0.04919281229376793,0.04692724719643593,0.04054469242691994,-0.05780965834856033,0.13913080096244812,-0.04311610385775566,0.03180520236492157,0.2312328815460205,0.07041029632091522,0.03005293756723404,-0.45588022470474243,0.17123588919639587,-0.10729040950536728,0.00976497121155262,-0.1093011349439621,-0.0949864387512207,-0.002630108268931508,-0.14810314774513245,0.0362514927983284,0.003999139182269573,0.17248502373695374,-0.03305725008249283,0.10411965101957321,-0.017345691099762917,0.0843471959233284,0.025171548128128052,-0.02720159851014614,0.02650005742907524,-0.2077913135290146,-0.028761975467205048,-0.08975066244602203,0.0776444748044014],[0.10755502432584763,0.11284542828798294,-0.18316802382469177,-0.2100248634815216,-0.08879730850458145,-0.19668692350387573,-0.11051537841558456,-0.35343557596206665,-0.23931238055229187,0.03699561581015587,-0.030216937884688377,0.1245759055018425,-0.054823581129312515,0.02305322326719761,-0.1017179861664772,-0.1419553905725479,0.08244731277227402,0.1093122735619545,-0.14954803884029388,-0.20949967205524445,0.033292386680841446,0.020368944853544235,0.04156095162034035,-0.0847095176577568,0.16728579998016357,-0.0626310482621193,0.3481466472148895,0.13385634124279022,0.12374591827392578,0.07031694799661636,0.09938277304172516,-0.025055792182683945,-0.020147070288658142,0.05507109314203262,-0.21964780986309052,-0.1699812412261963,-0.08846451342105865,-0.24560876190662384,-0.1241670623421669,-0.17278993129730225,-0.00583803653717041,-0.010841770097613335,-0.020342733711004257,-0.20490197837352753,0.15008445084095,0.1091475710272789,-0.08975508064031601,-0.03195818141102791,-0.2120446264743805,0.01566704921424389,0.011770447716116905,-0.0034493517596274614,-0.14970460534095764,-0.10665155947208405,-0.015726998448371887,-0.005326184909790754,-0.09493198245763779,0.05485500395298004,0.03462875634431839,-0.03155728802084923,0.13346844911575317,0.18492411077022552,0.18290039896965027,-0.02516920678317547,-0.007602655328810215,-0.18037718534469604,-0.0032522687688469887,-0.2793097198009491,-0.03662054240703583,0.1530127078294754,0.18169428408145905,0.000291566364467144,0.19411101937294006,-0.07351160049438477,-0.2196931391954422,-0.068632110953331,0.11643455922603607,0.19882090389728546,-0.09162290394306183,-0.004536358639597893,-0.060318198055028915,0.17218011617660522,-0.15236061811447144,-0.03380049020051956,0.007671024184674025,0.1979409158229828,-0.040108777582645416,-0.08858538419008255,0.03590656816959381,0.13463272154331207,-0.07657958567142487,0.04695472866296768,0.07749626785516739,-0.04083758965134621,0.05190039053559303,-0.0706210806965828,0.1000964492559433,0.010231192223727703,-0.05540856719017029,-0.0024952006060630083,-0.013479799032211304,0.02739562839269638,0.049854978919029236,-0.04154178500175476,-0.06216663494706154,0.09861026704311371,-0.13945366442203522,-0.10388289391994476,-0.052260808646678925,-0.10343198478221893,0.19297362864017487,-0.022901393473148346,-0.16700901091098785,-0.12053757905960083,0.0828922763466835,0.07883851230144501,-0.08581529557704926,-0.0900268480181694,-0.020934762433171272,0.016522860154509544,-0.016874367371201515,0.1307530254125595,0.09857995808124542,-0.09253620356321335,-0.2138546258211136,0.08634234219789505,-0.30837151408195496,-0.08952034264802933,0.06398326903581619,0.0695682168006897,0.12384886294603348,-0.05021253228187561,0.16817469894886017,-0.14138853549957275,-0.0396805964410305,-0.10050183534622192,0.22813858091831207,-0.028413254767656326],[0.126907080411911,0.02456684410572052,-0.11068029701709747,0.12057904154062271,0.03300381451845169,-0.23528803884983063,0.053208209574222565,-0.2140592783689499,-0.22881166636943817,-0.013712656684219837,0.0012821886921301484,0.007029445376247168,0.13753697276115417,0.1088961809873581,-0.2414431869983673,0.028745952993631363,-0.004260628018528223,-0.08414439857006073,0.04759882763028145,0.0004381932958494872,-0.036009643226861954,-0.009614487178623676,-0.014358836226165295,-0.23050428926944733,-0.005307566374540329,0.05418890342116356,0.1142931580543518,0.1614452302455902,-0.005920772440731525,0.08299814164638519,0.011538141407072544,0.03427132964134216,-0.03141301870346069,-0.021784264594316483,0.06563423573970795,-0.049262404441833496,-0.24467600882053375,-0.001825893297791481,-0.11436253041028976,-0.15721537172794342,0.12275036424398422,-0.012306603603065014,0.1352989673614502,0.01482385490089655,-0.14084838330745697,-0.08904195576906204,-0.14567901194095612,0.03176043927669525,-0.07370863854885101,0.0020053694024682045,0.09986633062362671,-0.028095612302422523,0.17704780399799347,-0.2787005603313446,0.20843400061130524,0.1205902248620987,0.07639719545841217,0.03180675208568573,-0.03117801621556282,-0.3177688419818878,-0.1887691468000412,-0.18356460332870483,0.12261141836643219,-0.10743706673383713,0.10363779217004776,0.05829106271266937,0.03326896205544472,0.12124190479516983,0.03654201328754425,-0.12218868732452393,0.21481576561927795,-0.1109156534075737,0.11765346676111221,0.1245487853884697,0.000522142625413835,-0.05475383251905441,0.025469522923231125,-0.1342592090368271,-0.05621906742453575,0.10865606367588043,-0.2500346004962921,0.028347693383693695,-0.14153772592544556,0.20839285850524902,0.15943552553653717,-0.007987315766513348,-0.1606890857219696,0.06252150237560272,-0.0942024439573288,-0.07102598994970322,0.05288974195718765,-0.1479366421699524,0.09830709546804428,-0.010603168047964573,-0.09322012215852737,0.02223360538482666,-0.14614881575107574,0.09787305444478989,0.07588820904493332,-0.15910184383392334,-0.053154315799474716,-0.05296711623668671,-0.09783010929822922,0.11420517414808273,0.10416869819164276,0.03618037328124046,-0.13440664112567902,0.1008915826678276,0.12724953889846802,-0.0783894956111908,-0.16768233478069305,0.15312419831752777,-0.06641753017902374,-0.02393338456749916,0.056982602924108505,-0.1292090117931366,0.1798105537891388,0.01751326024532318,-0.08662416785955429,-0.13890621066093445,-0.15410356223583221,0.007917373441159725,0.07383537292480469,-0.03814149647951126,0.13968917727470398,0.167426198720932,-0.15833927690982819,0.0459829606115818,0.03337051346898079,0.07552646845579147,-0.044208824634552,-0.10563065856695175,0.04334079474210739,-0.14105923473834991,-0.3121054172515869,0.01841755397617817,-0.16992996633052826,-0.23198840022087097],[0.013713937252759933,0.062094949185848236,-0.04757482931017876,0.06310942023992538,0.07637669146060944,-0.32608211040496826,0.047905873507261276,0.039514292031526566,-0.11237891018390656,0.025869546458125114,0.2521974742412567,-0.1810547262430191,0.16087044775485992,-0.109701007604599,-0.01859944313764572,-0.1449965536594391,0.1067487969994545,0.1225181445479393,-0.150146946310997,0.1775413155555725,-0.151455357670784,-0.06812562048435211,-0.059402868151664734,0.041417159140110016,0.17404936254024506,-0.0412679985165596,-0.03527616336941719,0.033418215811252594,-0.32259702682495117,-0.25582292675971985,0.24348245561122894,-0.33025768399238586,0.00637153210118413,-0.1378191113471985,-0.10482867807149887,-0.05864933878183365,-0.08200690150260925,-0.17536453902721405,-0.009147902019321918,-0.06300581991672516,0.026248620823025703,0.020647816359996796,0.026505477726459503,0.14276723563671112,0.005488497205078602,0.07754592597484589,-0.0892283096909523,-0.22268220782279968,-0.23196949064731598,0.017437739297747612,-0.2967349886894226,-0.0918409675359726,-0.07915259897708893,-0.2980829179286957,-0.07789454609155655,0.18208925426006317,-0.14895428717136383,0.1354684978723526,0.07710223644971848,0.057895008474588394,0.05146617442369461,0.036407239735126495,0.07319895178079605,0.08805905282497406,-0.03386005014181137,-0.03439245745539665,-0.09156040102243423,0.1071801483631134,-0.19366547465324402,-0.0862700566649437,0.15273702144622803,0.09491989761590958,0.0012989623937755823,-0.23292501270771027,-0.1443522572517395,0.12627770006656647,0.2968548834323883,0.06874511390924454,0.2775668501853943,0.03204593434929848,-0.018785854801535606,0.013945277780294418,0.08932916074991226,-0.027730584144592285,-0.016313211992383003,-0.24177391827106476,-0.16423743963241577,0.2736680209636688,-0.10893673449754715,-0.14488807320594788,-0.11272451281547546,-0.0028473935090005398,-0.13777859508991241,-0.05972805991768837,0.00562699930742383,-0.09113385528326035,0.11299504339694977,0.20234675705432892,0.1915421187877655,-0.09822557121515274,-0.13760629296302795,-0.04533570259809494,-0.21071279048919678,-0.06922867894172668,0.17258833348751068,-0.0748581737279892,-0.0024949945509433746,0.05009603500366211,-0.19962498545646667,0.24827918410301208,-0.149717316031456,0.11343176662921906,-0.09799831360578537,0.18548567593097687,-0.143733412027359,-0.05150419846177101,-0.05937420576810837,-0.033055972307920456,-0.06201248988509178,0.09581483155488968,-0.22805187106132507,-0.05112827196717262,0.028910810127854347,0.08267693221569061,0.1077265813946724,-0.09866014122962952,-0.010215952061116695,-0.011276546865701675,0.32032886147499084,-0.17600412666797638,0.024042870849370956,0.27666208148002625,0.2730483114719391,-0.17760394513607025,-0.3424932658672333,0.27056366205215454,0.14159025251865387,-0.0502040758728981],[0.0060774520970880985,-0.20192934572696686,-0.13290226459503174,-0.1331331431865692,0.05137843266129494,0.053615689277648926,-0.1368504911661148,0.07511080056428909,-0.15660227835178375,-0.08767837285995483,0.10205142199993134,-0.11739934980869293,0.20387163758277893,-0.17882844805717468,0.024324150756001472,-0.2012711763381958,-0.06162629649043083,-0.11018170416355133,0.16141478717327118,-0.07963922619819641,0.060583971440792084,-0.001840198296122253,0.037261515855789185,-0.11819572746753693,0.010454827919602394,-0.12581640481948853,0.07779085636138916,-0.14087916910648346,-0.07324948161840439,0.19170540571212769,-0.17181642353534698,0.35432150959968567,-0.004968148656189442,-0.0017450221348553896,-0.13669444620609283,0.047671571373939514,-0.10941598564386368,-0.09987502545118332,0.09362384676933289,-0.0705588310956955,0.027805425226688385,0.12381312996149063,0.008291724137961864,-0.0014709843089804053,0.15230320394039154,0.1739392727613449,0.09122958034276962,-0.13251107931137085,0.11987840384244919,0.09840965270996094,-0.2148074060678482,-0.13609415292739868,-0.03888238966464996,-0.0033701176289469004,-0.039120178669691086,-0.14413534104824066,-0.05888676270842552,0.05758916959166527,-0.04408145695924759,0.08081900328397751,-0.06248193234205246,-0.18036098778247833,0.07602019608020782,-0.10485093295574188,0.01997438445687294,0.05958041921257973,0.03263606131076813,0.024723999202251434,-0.04977601394057274,0.001965549308806658,0.19610294699668884,-0.09383095800876617,0.1352495551109314,-0.00039927355828695,0.06800159066915512,-0.21293242275714874,-0.16452673077583313,-0.1801910251379013,0.03952811285853386,0.06857086718082428,-0.09059920161962509,0.0816420242190361,-0.1720937192440033,0.30202704668045044,0.05786651745438576,0.1321367472410202,0.32525622844696045,-0.02788226492702961,-0.06485553085803986,0.17857427895069122,0.15121594071388245,-0.04165073111653328,0.0878203883767128,-0.048179544508457184,-0.18224889039993286,-0.08003075420856476,-0.17802390456199646,0.04353443905711174,0.14224301278591156,-0.10344201326370239,-0.08981075137853622,0.18191133439540863,0.13645343482494354,-0.08517851680517197,-0.1623714566230774,0.10688424110412598,0.027331583201885223,-0.026979710906744003,-0.09147508442401886,0.017281893640756607,0.23313841223716736,0.07766496390104294,0.04960649460554123,-0.2655255198478699,-0.02451171725988388,-0.19624558091163635,-0.1945565640926361,-0.18698325753211975,0.015566098503768444,-0.27727457880973816,-0.1774747222661972,0.2237340658903122,-0.17399637401103973,-0.21258753538131714,-0.21524105966091156,0.0826825201511383,-0.024713192135095596,0.12931101024150848,-0.0392482727766037,0.027662355452775955,0.024558424949645996,0.04363204166293144,-0.16982051730155945,0.20141233503818512,0.13601307570934296,-0.033118512481451035,0.07869426906108856,0.17130857706069946],[-0.022901583462953568,-0.14898085594177246,0.1432434469461441,-0.09217856079339981,-0.09666402637958527,-0.06797531247138977,0.18776236474514008,0.17891564965248108,-0.048469092696905136,0.02552790753543377,0.04742135852575302,-0.11150094866752625,-0.19274209439754486,-0.009916718117892742,-0.13288624584674835,0.1152370348572731,0.10940732806921005,-0.05892275273799896,-0.018351156264543533,-0.02694823034107685,-0.048840802162885666,0.1464659869670868,0.16693110764026642,0.14931127429008484,0.020501630380749702,-0.10103046149015427,-0.030292242765426636,-0.1949024349451065,0.153733491897583,0.009001639671623707,0.13932818174362183,0.06653176993131638,0.2192932665348053,0.07280884683132172,0.18128930032253265,0.10725732147693634,-0.01424560509622097,-0.26412272453308105,0.014948693104088306,0.10217920690774918,-0.016015559434890747,-0.00638282485306263,-0.07929665595293045,0.024831557646393776,-0.040459517389535904,0.010053622536361217,-0.2045530378818512,0.1068231388926506,-0.04794692620635033,-0.10466406494379044,-0.1329323947429657,-0.1533709317445755,-0.03829559311270714,-0.26766929030418396,-0.05099935084581375,0.15294688940048218,0.05903659388422966,-0.0638279840350151,0.08619266748428345,-0.13867029547691345,-0.06773073971271515,0.3069729208946228,0.05750790983438492,0.10982012748718262,-0.012595483101904392,-0.024404730647802353,0.016278719529509544,-0.11220376193523407,0.10651993006467819,0.16886119544506073,0.10164575278759003,0.02464171126484871,-0.05843757092952728,-0.1414572298526764,0.23920920491218567,-0.012197112664580345,-0.05948050320148468,-0.10655805468559265,0.0027973565738648176,-0.28413325548171997,0.12051911652088165,0.17092420160770416,0.23822446167469025,-0.029432302340865135,-0.1991041898727417,-0.05519663915038109,-0.14445170760154724,-0.028553063049912453,0.18418894708156586,-0.12452882528305054,-0.00868837721645832,-0.019165990874171257,0.13263730704784393,-0.17388595640659332,-0.11294742673635483,0.01503601111471653,-0.02969858981668949,0.1286146491765976,0.2861280143260956,-0.19991447031497955,-0.16616004705429077,-0.16956956684589386,-0.13354316353797913,0.0062172445468604565,-0.19938930869102478,-0.30083465576171875,-0.17502984404563904,0.253963440656662,0.2770707607269287,0.2142622172832489,-0.019135162234306335,0.055449943989515305,-0.01956300623714924,0.19438672065734863,-0.0768558606505394,-0.02451098896563053,-0.3569287359714508,-0.10957764089107513,0.01409226655960083,0.019276604056358337,0.05213089659810066,0.025975219905376434,0.022951140999794006,0.21039551496505737,0.09225790947675705,0.09245966374874115,0.06624838709831238,-0.09063718467950821,0.07966314256191254,0.06781413406133652,0.07342225313186646,0.018075907602906227,0.3262973725795746,-0.002704508602619171,-0.12970486283302307,0.0782378539443016,-0.2351227104663849,-0.17107728123664856],[0.239478200674057,-0.06832914799451828,0.0901600793004036,0.09808490425348282,0.10443072766065598,0.22594499588012695,0.16882064938545227,0.18372467160224915,0.16767604649066925,-0.09317462146282196,-0.16932794451713562,-0.1590435802936554,-0.09034609794616699,-0.07054035365581512,-0.061953105032444,0.08035077154636383,0.03814110532402992,0.07043064385652542,0.2137363851070404,-0.16521315276622772,0.1670277714729309,-0.1515303999185562,-0.007767058908939362,0.1052391454577446,-0.06486273556947708,0.23017174005508423,0.10698739439249039,-0.12989073991775513,-0.03675276041030884,-0.024969885125756264,-0.07907604426145554,-0.10394458472728729,0.15342091023921967,-0.11131796985864639,0.21232827007770538,0.006784241180866957,-0.04519501328468323,0.09578187018632889,0.010160110890865326,-0.17649614810943604,-0.2867654263973236,0.18937307596206665,-0.011538445018231869,0.18472062051296234,0.08519364893436432,0.15619269013404846,-0.0038617318496108055,-0.08378337323665619,0.10624178498983383,0.1467021107673645,0.07204963266849518,-0.025273079052567482,0.05951991677284241,0.04114578291773796,-0.0657389760017395,0.021635396406054497,-0.019422762095928192,0.11253622174263,0.0008839061483740807,-0.008788488805294037,0.2705322802066803,0.04242894425988197,-0.14948508143424988,-0.02487245388329029,0.2242913395166397,0.25212764739990234,-0.12151212245225906,0.058207426220178604,0.21929098665714264,-0.07974223047494888,-0.1767466962337494,-0.018202610313892365,-0.038147859275341034,0.21770009398460388,-0.04732227325439453,-0.21762417256832123,-0.22009074687957764,-0.1130993515253067,0.1675473302602768,0.3054942786693573,-0.2287621945142746,-0.15750041604042053,0.04121406376361847,0.09574905037879944,0.0438435897231102,0.0527595654129982,0.420315146446228,-0.11782901734113693,-0.3098948895931244,0.24512022733688354,-0.024863574653863907,0.11412367224693298,-0.05606311559677124,0.17383691668510437,0.0248434916138649,0.208309605717659,-0.10681898891925812,0.31640321016311646,-0.0901583656668663,0.1776532083749771,-0.15676547586917877,-0.015644613653421402,0.10768984258174896,-0.01811671443283558,0.1883217692375183,-0.1891704499721527,0.12902387976646423,0.04029058292508125,-0.015109028667211533,0.129917174577713,0.08543594181537628,-0.004929825197905302,0.02821698598563671,-0.23035022616386414,-0.25536641478538513,0.0979173332452774,0.205267071723938,-0.19700339436531067,0.0774221196770668,-0.03753943368792534,0.011923417448997498,0.024626031517982483,0.023568984121084213,-0.018218688666820526,0.05006174370646477,-0.16485179960727692,-0.07695017755031586,-0.0031222759280353785,-0.22386054694652557,-0.025074459612369537,-0.018067985773086548,0.18354611098766327,-0.27601027488708496,0.162904754281044,0.07719572633504868,-0.06269343942403793,-0.08634855598211288,-0.03879835829138756],[0.07993283122777939,-0.005618557799607515,0.03341519460082054,0.07436828315258026,0.07435300201177597,-0.15842925012111664,-0.12183838337659836,-0.025330238044261932,0.022385505959391594,0.06698080152273178,-0.11702509969472885,0.20976310968399048,-0.12202902138233185,-0.03611195832490921,0.1878049373626709,0.1530267596244812,0.09844806790351868,-0.03585723787546158,-0.1002366840839386,-0.061171095818281174,-0.035526905208826065,0.113033726811409,0.1441512405872345,0.09053939580917358,0.1460479199886322,-0.07808272540569305,0.01501629501581192,0.13636408746242523,0.021053168922662735,-0.23347969353199005,-0.03041870705783367,-0.25265514850616455,0.04068629816174507,0.01857829838991165,0.11820205301046371,-0.11087683588266373,-0.11507569998502731,0.06468658149242401,0.04378295689821243,-0.29554545879364014,-0.08622653782367706,-0.12496230751276016,0.0524711012840271,-0.277946799993515,-0.16595080494880676,0.08327197283506393,-0.07487316429615021,-0.06553041934967041,0.24617674946784973,-0.10382138192653656,-0.07435023784637451,-0.010477423667907715,0.140691339969635,0.24778108298778534,0.019982604309916496,0.0743011012673378,-0.06318005919456482,0.11273375898599625,-0.09482933580875397,-0.07240135967731476,0.16673439741134644,0.034324172884225845,-0.2078714370727539,0.25151538848876953,0.0009312006295658648,0.07612726837396622,-0.11823773384094238,0.19075389206409454,-0.051246706396341324,0.04047885909676552,-0.043574102222919464,-0.1169440969824791,0.05091305822134018,0.15433110296726227,0.028428111225366592,0.08689867705106735,0.05722712352871895,-0.16692526638507843,-0.002662047278136015,0.21090956032276154,0.10472893714904785,0.20857468247413635,0.15755674242973328,0.028023075312376022,0.24240313470363617,-0.07221609354019165,-0.26703107357025146,-0.008094391785562038,-0.11666430532932281,-0.08276048302650452,-0.10734907537698746,-0.3211500644683838,-0.17720064520835876,0.04584447667002678,0.07924274355173111,-0.11209291964769363,0.18248018622398376,0.283509224653244,-0.166593998670578,0.013441190123558044,0.07394812256097794,-0.11871165037155151,-0.04026463255286217,-0.19833987951278687,0.04731262847781181,0.05313131958246231,0.13252262771129608,0.19928708672523499,-0.23673927783966064,-0.01799490675330162,0.17772738635540009,0.03256051242351532,0.029544390738010406,0.06727413833141327,-0.10926607251167297,0.13956023752689362,0.12211909145116806,-0.01754274219274521,-0.009046198800206184,-0.1410081535577774,0.017782993614673615,-0.05631422996520996,0.2615492343902588,-0.06439978629350662,0.07437802106142044,-0.25304192304611206,0.224689781665802,-0.018937064334750175,0.014309785328805447,0.0804496705532074,0.13870535790920258,-0.019242215901613235,-0.12539760768413544,0.09844695031642914,0.0017079238314181566,0.23879490792751312,-0.2565315365791321,0.07825183123350143],[0.0014807140687480569,0.04431801661849022,0.10327862203121185,0.01766936108469963,-0.09097109735012054,-0.019462058320641518,0.06161097064614296,0.19656427204608917,0.04566111043095589,0.10198161751031876,0.08477241545915604,0.046073541045188904,0.2586233913898468,-0.0502653568983078,0.1109856590628624,0.016528354957699776,0.12475214153528214,0.05013120546936989,-0.018030352890491486,-0.17803986370563507,-0.27410662174224854,-0.14123117923736572,0.20700082182884216,0.15272065997123718,0.17263124883174896,0.34379756450653076,0.05696052312850952,0.1300579458475113,0.19465473294258118,0.07813236862421036,-0.13852767646312714,-0.12135763466358185,-0.0030422601848840714,0.03498045727610588,0.13313110172748566,-0.10037290304899216,0.0970684289932251,-0.04096474125981331,0.09806421399116516,-0.07618965953588486,-0.16162815690040588,-0.14708389341831207,0.010515374131500721,0.029090270400047302,0.12330559641122818,-0.02829054929316044,0.16544868052005768,0.023105090484023094,0.013353527523577213,-0.02198793552815914,0.19421713054180145,-0.19824621081352234,0.17824898660182953,0.024306245148181915,-0.13989205658435822,0.06742160022258759,0.10261190682649612,-0.07458045333623886,0.17544667422771454,-0.0314665213227272,0.041613973677158356,0.2147761732339859,0.024440648034214973,-0.05448279157280922,-0.05354269593954086,0.02487848326563835,0.16879253089427948,-0.08375022560358047,-0.19137531518936157,0.13804017007350922,0.23095262050628662,0.04367358610033989,0.05283229425549507,-0.05492422729730606,0.1571214646100998,-0.048900503665208817,0.05669868364930153,0.01246671937406063,-0.23520886898040771,-0.1468369960784912,0.1252741664648056,0.05880623310804367,-0.03468248248100281,-0.20132924616336823,0.07844384759664536,-0.08211636543273926,-0.006738619413226843,-0.04059401527047157,-0.015139156021177769,0.04803471639752388,-0.06184053421020508,0.034075137227773666,0.32228660583496094,-0.08880718052387238,0.11550526320934296,-0.01598319225013256,-0.014989906921982765,0.12707248330116272,-0.11101675778627396,-0.08624576777219772,0.12236776947975159,0.2032783031463623,-0.0814758762717247,0.015633732080459595,0.09866819530725479,-0.06054781749844551,-0.129929319024086,-0.158225417137146,0.03331506997346878,0.15495964884757996,-0.06516283750534058,0.06757235527038574,0.048041682690382004,-0.03586312010884285,-0.06894387304782867,0.1187034621834755,0.45774388313293457,-0.09406614303588867,-0.06399796158075333,0.32183805108070374,0.01586398109793663,0.06255263090133667,-0.11466078460216522,0.055037859827280045,-0.050561659038066864,0.13600924611091614,-0.015637006610631943,0.11989453434944153,-0.10685910284519196,0.050471559166908264,-0.022936467081308365,0.0050127762369811535,-0.039962686598300934,0.015523264184594154,0.2279723584651947,0.014593577943742275,-0.10836239159107208,-0.014845781028270721],[-0.016600918024778366,-0.04019453004002571,-0.25011762976646423,0.1285487711429596,-0.34036359190940857,-0.07826017588376999,-0.11038943380117416,-0.07886414229869843,0.12481370568275452,0.05526643991470337,0.021762283518910408,-0.14992889761924744,0.10233736783266068,-0.19685588777065277,-0.0697038546204567,0.015191973187029362,-0.08331753313541412,0.1067771390080452,0.12497353553771973,0.0594739094376564,-0.01327330432832241,0.07991161197423935,0.07962384819984436,0.039417725056409836,-0.2413703054189682,0.3350456953048706,0.20294630527496338,-0.04126044735312462,0.024559060111641884,-0.15028910338878632,-0.1709304004907608,0.19225813448429108,-0.22125642001628876,0.04893387109041214,-0.07098839432001114,0.03564392775297165,-0.13426849246025085,0.35012659430503845,0.09988928586244583,-0.08863973617553711,0.13946329057216644,0.21358300745487213,0.09296762943267822,-0.01374000497162342,0.14335359632968903,-0.11024521291255951,-0.11194789409637451,0.04299337789416313,-0.19425463676452637,-0.10392439365386963,-0.20258213579654694,-0.09874100983142853,-0.030414672568440437,0.009111108258366585,-0.005435597151517868,-0.04075389727950096,0.07939910888671875,0.013592212460935116,-0.024538779631257057,-0.09367723762989044,0.08296479284763336,-0.3000536859035492,0.06237306445837021,0.2877561151981354,0.01046946831047535,-0.3155171871185303,-0.03527097776532173,0.1560528725385666,0.028262827545404434,0.19416317343711853,-0.09718459844589233,0.057669613510370255,-0.09231165796518326,0.014325289987027645,-0.00022460383479483426,0.048267390578985214,0.0357460118830204,-0.0702088326215744,0.15714511275291443,0.24785961210727692,0.05216730013489723,0.0902722179889679,-0.14244896173477173,0.07178701460361481,0.01618441753089428,-0.1923273652791977,-0.26861417293548584,0.010901505127549171,0.11520884186029434,0.02832966484129429,-0.09392537921667099,-0.031622204929590225,0.16298004984855652,0.17314951121807098,-0.06366004049777985,0.017943037673830986,0.1383659988641739,-0.06646378338336945,-0.21901020407676697,-0.2676740288734436,-0.05551937595009804,0.06616391986608505,-0.05892027169466019,0.3076134920120239,0.040044572204351425,-0.012903004884719849,-0.051623404026031494,0.07936117053031921,-0.11471731960773468,0.052341628819704056,0.05871937796473503,0.15577104687690735,-0.15940603613853455,0.10135433077812195,-0.07794198393821716,-0.007554476149380207,0.07983236014842987,-0.15212726593017578,-0.0658358633518219,-0.2003082036972046,0.03148210421204567,0.06824181973934174,0.06546134501695633,0.08504319190979004,0.1226302906870842,-0.01939108781516552,0.17001831531524658,-0.14843712747097015,0.16517941653728485,-0.06848941743373871,-0.041576776653528214,-0.08114706724882126,-0.1276768296957016,-0.017079956829547882,-0.0912320539355278,-0.19084596633911133,0.0035494675394147635,-0.05805067718029022],[0.07946164160966873,-0.10349562019109726,-0.016803331673145294,-0.06785818189382553,-0.09364846348762512,0.022713875398039818,-0.0931800976395607,-0.024842672049999237,0.13340075314044952,0.2082604169845581,-0.06544662266969681,0.44547441601753235,0.03444927930831909,-0.07325086742639542,-0.05890262499451637,0.10453345626592636,0.1356847733259201,0.012296145781874657,-0.17866151034832,0.01694980077445507,-0.0657770037651062,-0.1750403791666031,0.06174111366271973,0.06380518525838852,0.0009571886621415615,0.04294683039188385,0.23424744606018066,0.09534404426813126,-0.2001197785139084,0.008697111159563065,0.13128404319286346,-0.2270202785730362,-0.15232619643211365,-0.0359867699444294,-0.02200607769191265,-0.07277835160493851,-0.029029736295342445,0.06801944971084595,0.23968319594860077,0.15734782814979553,0.020816214382648468,-0.14035259187221527,0.21273867785930634,0.18966072797775269,-0.08746417611837387,-0.005919768009334803,0.18600960075855255,0.03539123386144638,0.27072739601135254,-0.10539744049310684,-0.014163639396429062,0.08996090292930603,-0.1217813491821289,0.04173998907208443,0.13692785799503326,0.07856853306293488,0.05242418870329857,-0.12124259769916534,0.004572892561554909,-0.04307215288281441,0.24279238283634186,-0.20520801842212677,0.19532808661460876,0.1560688018798828,0.16551174223423004,0.11619958281517029,0.16038784384727478,-0.04972974956035614,-0.1218799501657486,0.13684052228927612,0.023747876286506653,-0.24525094032287598,0.08487071096897125,0.07915373891592026,0.01941189356148243,-0.19989937543869019,-0.03261255845427513,0.20590035617351532,0.047121595591306686,0.07158699631690979,0.09704470634460449,-0.12207182496786118,-0.19998252391815186,0.16053718328475952,-0.14397607743740082,-0.14402642846107483,0.1259278804063797,-0.011831593699753284,0.05165207013487816,-0.26559603214263916,0.014083264395594597,-0.02612452395260334,0.09617384523153305,-0.08520478010177612,0.0992308109998703,0.04892433062195778,0.11649927496910095,-0.0247037373483181,0.11385698616504669,-0.03731868043541908,-0.057337116450071335,0.09042402356863022,-0.25917282700538635,-0.07860780507326126,-0.09536723792552948,0.18951797485351562,-0.1425071358680725,-0.03249664604663849,-0.05632363632321358,0.08241584897041321,0.0022461693733930588,-0.10245401412248611,0.162762850522995,-0.23620720207691193,0.036679718643426895,0.06438492983579636,-0.16272133588790894,0.06400919705629349,-0.17001973092556,-0.028174981474876404,0.14938096702098846,0.11940684914588928,0.2255774736404419,0.010596184991300106,0.011248362250626087,-0.18257975578308105,-0.07637248188257217,0.21635732054710388,-0.08610579371452332,-0.21891401708126068,0.03823309764266014,-0.22665074467658997,-0.058895010501146317,-0.10106834024190903,-0.054286058992147446,0.027598734945058823,0.03588627651333809,0.06483760476112366],[-0.2960679829120636,0.13385282456874847,0.32211634516716003,-0.13410678505897522,0.09728425741195679,-0.15330801904201508,0.11640821397304535,0.0012029758654534817,0.027285752817988396,-0.10446739941835403,-0.10615608096122742,0.23183968663215637,-0.021103575825691223,-0.015973547473549843,-0.24646292626857758,-0.18511024117469788,0.05590761825442314,-0.09745953232049942,0.04474760964512825,-0.023013757541775703,0.08836071193218231,0.0054237679578363895,-0.16161586344242096,0.15966953337192535,0.09715626388788223,-0.10240009427070618,0.07221659272909164,0.06304103136062622,0.058963146060705185,0.15737387537956238,0.061795029789209366,-0.03837386518716812,-0.04323799908161163,0.1727934330701828,0.04163727909326553,-0.20016053318977356,-0.022094160318374634,0.08602607250213623,0.06590814143419266,-0.03347676619887352,-0.08112704008817673,-0.0012611520942300558,0.08359494805335999,-0.2127685844898224,0.11434638500213623,-0.12827590107917786,-0.20493817329406738,0.29118573665618896,-0.16724586486816406,-0.2355634570121765,-0.10205157846212387,-0.014265958219766617,0.27966997027397156,0.022608863189816475,0.02408495359122753,-0.1835101842880249,0.1400137096643448,-0.004185291938483715,0.020504286512732506,-0.013417928479611874,-0.18114711344242096,-0.032760292291641235,0.055339258164167404,0.0877639427781105,0.09886490553617477,-0.14353160560131073,0.15129026770591736,-0.0359642431139946,0.06531714648008347,0.06300000846385956,0.026623889803886414,0.011504282243549824,0.09175629913806915,-0.056562040001153946,-0.07118366658687592,-0.21426953375339508,-0.17194829881191254,0.08109240978956223,0.1911061555147171,0.2374270260334015,0.05177838355302811,0.09678296744823456,0.10386286675930023,0.0489991195499897,-0.2422133982181549,0.14791443943977356,-0.13517700135707855,0.06568863242864609,-0.08289378136396408,-0.01719721592962742,0.22923806309700012,0.19089658558368683,0.0067538185976445675,0.05590303614735603,-0.043046124279499054,-0.08164025098085403,0.089653380215168,-0.004975909832865,-0.19022318720817566,0.16268840432167053,0.10419456660747528,0.10556390136480331,-0.07256748527288437,0.08610787987709045,-0.06742660701274872,-0.029312200844287872,-0.08436296135187149,0.07655241340398788,0.00962044671177864,-0.14019620418548584,-0.19096705317497253,0.06603490561246872,-0.08715103566646576,0.10088057816028595,0.1221073716878891,-0.08776091039180756,0.1374836564064026,-0.09304533898830414,-0.019217083230614662,0.09867676347494125,-0.019290689378976822,0.06002694368362427,-0.04643110930919647,-0.022035129368305206,0.04692431166768074,-0.16017508506774902,-0.19189143180847168,-0.000529981276486069,0.11830780655145645,0.0770307406783104,-0.10708305984735489,0.045513685792684555,-0.18065516650676727,-0.07474824041128159,-0.0034120725467801094,-0.188533216714859,-0.03310031816363335,-0.006559921894222498],[0.07147965580224991,-0.005159370135515928,-0.12994743883609772,-0.0489632748067379,-0.08723612874746323,-0.3433156907558441,-0.05852428823709488,0.22554545104503632,-0.02448420785367489,-0.12463799118995667,0.05766391381621361,-0.3523295223712921,-0.06905847042798996,0.0861625224351883,0.00817887019366026,0.20071399211883545,-0.04647694155573845,0.35345658659935,0.34790635108947754,-0.023181671276688576,0.017124367877840996,0.23269930481910706,-0.4560670554637909,0.13309398293495178,-0.04000883176922798,0.18659070134162903,-0.07412943989038467,-0.031292624771595,0.0036711094435304403,-0.11961783468723297,0.3482860028743744,0.021619023755192757,-0.23360255360603333,-0.23055197298526764,-0.06259812414646149,0.17911674082279205,0.09774542599916458,0.033868350088596344,-0.020808598026633263,-0.08515216410160065,0.16608060896396637,0.01081431470811367,-0.13331200182437897,-0.11057218909263611,-0.02951941452920437,-0.004630689509212971,0.03433667868375778,-0.16262315213680267,0.036026209592819214,0.0991891399025917,0.23620566725730896,0.0057164402678608894,0.21608223021030426,0.08689776808023453,-0.023867061361670494,-0.017401689663529396,0.05931280553340912,-0.2405477613210678,0.11760669201612473,-0.13752251863479614,0.17879077792167664,0.23746711015701294,0.3500230312347412,-0.38553133606910706,-0.07275238633155823,-0.034930162131786346,-0.023379093036055565,0.11712512373924255,-0.0843939483165741,-0.1726028472185135,-0.031381238251924515,0.18674175441265106,-0.15553583204746246,0.14172959327697754,0.004823609720915556,0.006859675049781799,0.1908467561006546,0.051322583109140396,0.09324201196432114,-0.1812266856431961,-0.010179905220866203,-0.4530286192893982,0.03934285417199135,0.3080449104309082,-0.212024986743927,0.09361649304628372,0.0004755795234814286,-0.031860142946243286,-0.0825478807091713,-0.01448231190443039,0.030469592660665512,0.3180609345436096,-0.12609389424324036,-0.005762405227869749,-0.06452266126871109,-0.2938176095485687,0.0735156238079071,0.23818466067314148,0.14281100034713745,0.1846316158771515,0.0019677281379699707,-0.070868119597435,0.0747891291975975,-0.02774127945303917,0.019841359928250313,-0.13229899108409882,-0.11410807073116302,0.14510487020015717,0.13191838562488556,0.13314129412174225,-0.20052766799926758,-0.2501838207244873,0.17117804288864136,0.3393170237541199,0.007530176546424627,0.034964706748723984,-0.023367321118712425,-0.007949494756758213,-0.03494998812675476,0.2086820751428604,0.07450117915868759,0.019364289939403534,0.11753229051828384,-0.05836797133088112,0.12969300150871277,0.036418262869119644,-0.08557943254709244,-0.009925304912030697,-0.25938451290130615,0.17273186147212982,0.14799398183822632,0.1542610079050064,0.07568490505218506,-0.24361807107925415,-0.27441972494125366,-0.08440645039081573,0.011886867694556713,-0.1717458814382553],[0.05852758139371872,-0.12907098233699799,-0.16200651228427887,-0.024890687316656113,-0.20819033682346344,0.06011663377285004,-0.15068720281124115,-0.15473897755146027,0.1419094353914261,-0.11919166892766953,-0.002529993886128068,0.1189611628651619,0.0364488884806633,-0.07779745757579803,-0.07062974572181702,-0.3093773424625397,0.056780774146318436,0.0793495923280716,-0.12319467961788177,0.023718249052762985,0.21309183537960052,0.1071404293179512,0.317182719707489,0.0041438923217356205,0.02523144520819187,-0.02767837792634964,0.17434430122375488,-0.0757296159863472,-0.06549104303121567,0.0872267484664917,-0.026418693363666534,0.07881201058626175,-0.12141653895378113,-0.09060363471508026,-0.08560629934072495,0.08746040612459183,0.05400644242763519,0.0064684986136853695,0.14159846305847168,-0.030327405780553818,-0.039937108755111694,0.07753349095582962,-0.026499127969145775,0.08610808104276657,-0.036695681512355804,0.2623084783554077,-0.10805467516183853,0.20658211410045624,-0.058445192873477936,-0.13528232276439667,0.03544636070728302,-0.047391049563884735,-0.05873347073793411,-0.010328060016036034,0.09184151887893677,-0.07495952397584915,0.10566830635070801,0.20198556780815125,-0.03227253630757332,-0.006796982139348984,-0.10527687519788742,-0.1245047003030777,-0.07544637471437454,-0.20799601078033447,-0.02185526117682457,-0.1428135633468628,-0.02869650349020958,-0.2303418517112732,0.1306193768978119,0.08446996659040451,0.1170303001999855,0.05310439318418503,0.17096632719039917,-0.11188818514347076,-0.3157089352607727,-0.0472329780459404,-0.009339322336018085,-0.05167017877101898,0.019361253827810287,-0.19756940007209778,-0.006497194059193134,0.07909758388996124,-0.04729631543159485,0.08581575006246567,-0.014156498946249485,0.22731779515743256,0.2506619095802307,0.08039925247430801,-0.0074690827168524265,0.026485979557037354,0.2808699309825897,-0.0432942658662796,0.0288945771753788,-0.12100774794816971,0.15576021373271942,0.07090926170349121,-0.016118599101901054,-0.21856924891471863,0.20192576944828033,0.26644468307495117,0.009671878069639206,0.3606754243373871,-0.017963670194149017,-0.027436118572950363,0.2321764975786209,-0.03960456699132919,0.057651083916425705,-0.13562069833278656,-0.15364597737789154,0.02451164834201336,0.04034516587853432,-0.16949377954006195,-0.04257290065288544,-0.10869410634040833,0.09909919649362564,-0.07887861132621765,0.03762891888618469,-0.15765035152435303,0.17748525738716125,-0.27041757106781006,-0.18650883436203003,0.11683111637830734,0.01773976720869541,-0.012840863317251205,-0.06381051987409592,-0.14371532201766968,-0.019189197570085526,-0.20305587351322174,0.06846404075622559,-0.075069859623909,-0.05865221470594406,0.1970745474100113,-0.07233810424804688,0.21730953454971313,0.06752306967973709,-0.2533915638923645,-0.019967282190918922,-0.03978484123945236],[-0.10433921962976456,0.125909224152565,0.04465066269040108,0.11418867111206055,0.11737820506095886,0.04783032089471817,0.04700618237257004,-0.16698668897151947,0.1808369755744934,0.13317610323429108,0.21788446605205536,0.02749815583229065,0.031228026375174522,-0.30867883563041687,0.01759209856390953,-0.06681492924690247,0.06021717190742493,0.30222901701927185,-0.13958649337291718,0.08365403860807419,0.022733192890882492,0.2274358719587326,0.0748828798532486,-0.128656804561615,-0.03181086853146553,0.10408608615398407,0.19362685084342957,0.11506126075983047,-0.26659417152404785,0.08919504284858704,0.07460247725248337,0.033893242478370667,-0.14526154100894928,-0.002991392742842436,-0.11644266545772552,-0.2548694312572479,-0.09877074509859085,-0.03912535682320595,0.07220403850078583,-0.19166427850723267,-0.042052846401929855,0.1323390007019043,0.04899325966835022,-0.056321676820516586,0.12531481683254242,-0.06419901549816132,-0.1387397050857544,0.043864745646715164,0.1045687198638916,-0.14350178837776184,-0.04141288250684738,0.16115304827690125,0.07393667846918106,0.023630809038877487,-0.14987701177597046,-0.1408236026763916,0.17484302818775177,0.039837416261434555,0.027673035860061646,0.07003848254680634,-0.03189618140459061,0.11908244341611862,-0.014187472872436047,-0.04281884804368019,-0.06679102778434753,0.09625200927257538,0.1297709047794342,-0.16031987965106964,0.00016263918951153755,0.05836177244782448,0.35759979486465454,-0.07602234929800034,0.27031558752059937,-0.08146016299724579,0.04091832414269447,0.08334295451641083,-0.06678589433431625,0.14240862429141998,-0.15894533693790436,-0.08412150293588638,0.05925260856747627,-0.01219910942018032,-0.09443429112434387,0.09386096894741058,-0.09318096190690994,0.274453729391098,-0.173714742064476,-0.13262569904327393,-0.020478850230574608,0.07631613314151764,-0.047572460025548935,0.09029481559991837,-0.11868178099393845,0.07830814272165298,-0.11687051504850388,0.05581219121813774,0.0606648251414299,-0.06882801651954651,-0.012144595384597778,0.040795501321554184,0.008406786248087883,0.21989353001117706,-0.14002253115177155,-0.061100393533706665,-0.053571831434965134,-0.21386513113975525,-0.0550696961581707,-0.18967708945274353,0.05784846842288971,-0.17030219733715057,-0.09344737976789474,-0.12067454308271408,-0.09187280386686325,-0.061690278351306915,-0.12686039507389069,0.03333032876253128,0.10523325949907303,0.035863276571035385,0.05780844762921333,0.0741519182920456,0.1088787242770195,-0.0702836811542511,0.23707042634487152,-0.3828928470611572,-0.07791397720575333,-0.0057491110637784,-0.18505994975566864,-0.0455300398170948,-0.13161590695381165,0.043009478598833084,0.12042425572872162,-0.1757698655128479,-0.1483854204416275,0.06162288039922714,-0.17299547791481018,0.018916966393589973,-0.18552179634571075,0.2170592099428177],[0.13494989275932312,-0.013838376849889755,-0.033404700458049774,0.18437159061431885,-0.13795523345470428,0.1292579025030136,0.22710466384887695,-0.02821396104991436,0.11735217273235321,0.1377566009759903,0.04765661433339119,0.07467988133430481,-0.043857600539922714,-0.3242053985595703,0.0815342515707016,-0.09787997603416443,0.08435516804456711,-0.09070413559675217,-0.47687384486198425,0.3454838991165161,0.1462189257144928,0.23831842839717865,-0.0268833190202713,-0.18805760145187378,-0.02796602062880993,0.28415971994400024,-0.004949227906763554,0.08100464195013046,-0.09761059284210205,-0.12539593875408173,-0.03814544901251793,-0.21138066053390503,0.11431577801704407,0.06661738455295563,