[[0.47121042013168335,1.7246049642562866,0.517755925655365,0.668243408203125,1.1621171236038208,-0.48150330781936646,0.6425560116767883,3.5768299102783203,-0.5093511939048767,-2.079561710357666,-0.3116723299026489,1.5909345149993896,1.3496110439300537,-0.5578498244285583,-0.5870437026023865,0.9495764970779419,-2.2393639087677,2.112541437149048,2.2945075035095215,-0.7417749166488647,3.111335039138794,-0.2837030291557312,-1.6413315534591675,-0.39827027916908264,-0.41296371817588806,2.473212242126465,-1.108042597770691,-1.3455560207366943,1.1073448657989502,0.9065373539924622,-0.7076181769371033,-1.4442718029022217,1.7918955087661743,-0.3958088755607605,-0.013153127394616604,-0.39148882031440735,0.336102157831192,-2.3108415603637695,0.9506912231445312,-0.2029716819524765,-0.3240436315536499,1.196231722831726,-0.9523487091064453,-0.0018362284172326326,1.395719289779663,1.1454983949661255,0.8375290632247925,1.07913339138031,-0.9274371862411499,-1.6805607080459595,-0.03383518382906914,-1.393481969833374,0.5432738065719604,0.029397718608379364,-0.0401223786175251,0.27846306562423706,-0.5016947984695435,-1.1527786254882812,2.228210687637329,-0.4362674057483673,-2.0584146976470947,-1.3455277681350708,-0.0036124105099588633,-0.7769140601158142]]