[[-0.14161629974842072],[-0.1284017562866211],[0.23954614996910095],[0.035072896629571915],[0.12471400946378708],[-0.20549504458904266],[0.22687622904777527],[0.029297009110450745],[-0.05321551486849785],[-0.15197227895259857],[-0.22779777646064758],[-0.07674936205148697],[0.3276565670967102],[0.03380037099123001],[-0.02531958371400833],[-0.06900870054960251],[-0.26783257722854614],[-0.015569444745779037],[0.06163693964481354],[0.1471346765756607],[0.21913446485996246],[-0.09749872982501984],[-0.15521182119846344],[-0.0073431627824902534],[0.05966196954250336],[-0.2314404994249344],[0.2057657688856125],[0.17486971616744995],[-0.20384642481803894],[-0.10864435881376266],[0.06066229194402695],[0.11472607403993607],[0.2548525333404541],[0.08160553127527237],[-0.05956755205988884],[-0.2583792805671692],[0.1443343311548233],[-0.0690859779715538],[-0.2561892569065094],[-0.22907747328281403],[-0.10871154814958572],[-0.039648015052080154],[-0.06888973712921143],[0.1280682533979416],[-0.036332134157419205],[-0.14813737571239471],[-0.04921611770987511],[0.04045026749372482],[0.09827870875597],[-0.058301184326410294],[-0.16967979073524475],[-0.14751937985420227],[-0.028465870767831802],[-0.02266848273575306],[-0.14465561509132385],[0.07255374640226364],[0.11006584018468857],[-0.09935497492551804],[-0.12520548701286316],[0.013133338652551174],[-0.024830352514982224],[-0.11070812493562698],[-0.2559048533439636],[-0.2349013239145279],[-0.2196342647075653],[-0.3871783912181854],[-0.3110657036304474],[0.3134048283100128],[-0.05682888254523277],[-0.2173137217760086],[-0.0495142936706543],[-0.06750962883234024],[-0.22025123238563538],[-0.03181749954819679],[-0.04767812415957451],[0.0042923749424517155],[-0.17321030795574188],[-0.2350551187992096],[0.0482136607170105],[-0.059442296624183655],[-0.2561338245868683],[0.00008017993241082877],[0.1528341919183731],[-0.11630303412675858],[-0.1427992880344391],[0.011736438609659672],[-0.10534846782684326],[0.048302724957466125],[0.09397850185632706],[0.08201581239700317],[0.023718828335404396],[-0.08080361038446426],[-0.13491714000701904],[0.22632476687431335],[-0.33450037240982056],[-0.1991063952445984],[-0.19978700578212738],[0.173904687166214],[0.021256377920508385],[-0.09994663298130035],[0.015281283296644688],[-0.3452815115451813],[-0.06294776499271393],[-0.15713681280612946],[-0.02006564848124981],[0.11373912543058395],[0.06532298028469086],[-0.19402021169662476],[-0.0984119102358818],[-0.2949848771095276],[-0.25794294476509094],[-0.039014268666505814],[0.28030407428741455],[0.0625208169221878],[-0.037784185260534286],[0.14897646009922028],[0.17786838114261627],[0.1235303208231926],[-0.1845351606607437],[0.08450328558683395],[-0.13765142858028412],[0.04408346116542816],[0.02360982820391655],[-0.17366161942481995],[-0.15142059326171875],[0.05177408084273338],[-0.32705822587013245],[-0.18897967040538788],[0.20033100247383118],[0.33691832423210144],[-0.23610369861125946],[0.18160134553909302],[-0.2642437517642975],[0.019902238622307777],[-0.12984852492809296],[0.2088584154844284],[-0.048959653824567795],[-0.027182286605238914],[0.026424815878272057],[-0.18428416550159454],[-0.17776383459568024],[0.11372705549001694],[-0.018730975687503815],[0.12772825360298157],[0.08665917813777924],[-0.2450382560491562],[-0.3267053961753845],[0.1334766000509262],[-0.12851494550704956],[0.02851620502769947],[0.00885942205786705],[0.2034137099981308],[-0.11635847389698029],[-0.1647896021604538],[-0.043710317462682724],[0.3304522633552551],[-0.3236139714717865],[-0.16364744305610657],[-0.03473064675927162],[-0.14738929271697998],[0.0329238660633564],[-0.028624091297388077],[-0.17144770920276642],[-0.1603890359401703],[0.09537570923566818],[-0.24391505122184753],[-0.0003465181216597557],[-0.06492432951927185],[0.1518728882074356],[0.1544308364391327],[0.16464896500110626],[0.08393310010433197],[-0.11775853484869003],[-0.12659873068332672],[-0.22929520905017853],[0.13094696402549744],[0.11944372206926346],[-0.02049313858151436],[-0.08922309428453445],[0.301069974899292],[-0.17035996913909912],[-0.158687561750412],[-0.19640302658081055],[0.04583635553717613],[0.09686843305826187],[-0.23328572511672974],[-0.1495056301355362],[0.12319803237915039],[0.03652307763695717],[0.04484780877828598],[-0.32808101177215576],[0.25966566801071167],[0.04863150045275688],[0.09824762493371964],[-0.15933266282081604],[-0.11344794183969498],[-0.05857716500759125],[0.10445503145456314],[0.13315479457378387],[-0.05992905795574188],[-0.25295311212539673],[0.027960240840911865],[0.09095820784568787],[-0.03368997201323509],[0.1460261195898056],[-0.23655085265636444],[-0.08011007308959961],[-0.012421512976288795],[-0.15929631888866425],[-0.05058415234088898],[-0.17363475263118744],[-0.00205198279581964],[-0.21975597739219666],[0.10147476941347122],[-0.32947418093681335],[-0.009747026488184929],[0.16405212879180908],[-0.06938666105270386],[-0.06376756727695465],[0.31870177388191223],[-0.116826131939888],[0.01808292791247368],[-0.10281962156295776],[-0.09532418847084045],[0.11057926714420319],[-0.25006020069122314],[-0.22070133686065674],[0.021621886640787125],[0.007315741386264563],[-0.32658013701438904],[-0.1793799102306366],[0.1947721242904663],[-0.07283388823270798],[-0.12071186304092407],[-0.11373722553253174],[0.22746463119983673],[0.04951051250100136],[-0.09146545082330704],[0.024096224457025528],[0.2513159513473511],[0.03919624537229538],[-0.2752312123775482],[-0.1601802557706833],[0.039140116423368454],[-0.14815877377986908],[-0.09721196442842484],[-0.06578042358160019],[0.13236507773399353],[-0.17317551374435425],[-0.04704577103257179],[0.1951756328344345],[0.028937192633748055],[-0.20560568571090698],[0.0932469591498375],[-0.14638592302799225],[-0.12558536231517792]]