[[-0.09162209182977676],[0.041041407734155655],[0.0834498479962349],[-0.1830601841211319],[-0.15710484981536865],[-0.14046157896518707],[-0.15816006064414978],[0.41297122836112976],[-0.17969302833080292],[0.0697777047753334],[-0.09153440594673157],[-0.15513469278812408],[-0.2719014585018158],[-0.23009106516838074],[-0.08939853310585022],[-0.1455840915441513],[0.1308552622795105],[-0.34056952595710754],[-0.05189386382699013],[0.05970507115125656],[-0.1399778127670288],[0.16224145889282227],[-0.15273386240005493],[-0.1628204733133316],[-0.121998630464077],[-0.09645543247461319],[-0.08896981924772263],[0.13048787415027618],[0.15668754279613495],[0.07248856872320175],[0.06592661887407303],[-0.042505115270614624],[0.3028397262096405],[-0.03232428431510925],[0.20652265846729279],[0.1025334969162941],[-0.04620227590203285],[-0.008140451274812222],[0.004603701643645763],[-0.047027915716171265],[0.40545454621315],[-0.02243916504085064],[-0.15914621949195862],[0.036294206976890564],[0.36642926931381226],[0.028424078598618507],[-0.3187287151813507],[0.3424462378025055],[-0.1586976796388626],[-0.0913127064704895],[0.1634133905172348],[0.05594391003251076],[0.13301464915275574],[0.11038804054260254],[-0.10182301700115204],[0.06690257042646408],[-0.1194843202829361],[0.028522582724690437],[-0.08275087177753448],[-0.20610982179641724],[0.05149756371974945],[-0.04163552075624466],[-0.15168693661689758],[0.07231756299734116],[-0.0774843692779541],[0.04322054982185364],[-0.09125115722417831],[0.07754459232091904],[0.026955513283610344],[-0.08819906413555145],[0.05235973000526428],[-0.26353058218955994],[-0.3395843207836151],[-0.13296592235565186],[-0.27628880739212036],[0.18063829839229584],[-0.07365889102220535],[-0.07400527596473694],[-0.17856670916080475],[-0.04760422930121422],[0.11678975075483322],[-0.0010137815261259675],[-0.06654375046491623],[0.09333417564630508],[-0.3135303556919098],[-0.23848600685596466],[0.4654565751552582],[0.11541858315467834],[0.03366156294941902],[-0.30763164162635803],[-0.0008893944323062897],[-0.27321335673332214],[0.1624341756105423],[0.0971214771270752],[0.06558352708816528],[-0.0829448476433754],[-0.24816663563251495],[-0.21379604935646057],[-0.010441816411912441],[-0.09643957018852234],[0.13790607452392578],[-0.1574784219264984],[0.11488845944404602],[-0.0722203180193901],[0.33574044704437256],[-0.14106188714504242],[-0.3164244294166565],[0.07942222058773041],[-0.2083558589220047],[0.4026191234588623],[-0.14690908789634705],[-0.03684280812740326],[0.23244616389274597],[-0.1855437457561493],[-0.12280084937810898],[-0.21132613718509674],[-0.05064614862203598],[-0.14846603572368622],[-0.11416579782962799],[0.13846684992313385],[0.03408230096101761],[-0.13075585663318634],[0.1363350749015808],[-0.20831002295017242],[-0.1510949283838272],[0.15014329552650452],[-0.10595586150884628],[-0.09680774062871933]]