[[-0.09449949860572815,-0.33457836508750916,0.35002630949020386,0.28975754976272583,-0.21201089024543762,0.046145301312208176,-0.10699605941772461,-0.14279216527938843,-0.06573814898729324,-0.1865609586238861,0.3426065444946289,-0.40905916690826416,0.2529207766056061,-0.0035174221266061068,-0.20780497789382935,0.460997611284256,0.1619974970817566,-0.4408385455608368,0.07169314473867416,-0.10160110145807266,-0.131765678524971,-0.09721856564283371,-0.09916214644908905,-0.03961432725191116,-0.04901782050728798,0.045733269304037094,0.03028264455497265,-0.07424145936965942,0.02484116330742836,0.010626976378262043,-0.21987460553646088,0.02637399733066559,-0.4073352515697479,0.14537671208381653,0.3468315005302429,-0.2736879587173462,0.10782982409000397,-0.17099228501319885,-0.21618150174617767,-0.033236317336559296,0.3183569312095642,-0.16741131246089935,0.23076538741588593,-0.20589926838874817,-0.13170377910137177,-0.23597702383995056,0.03196876868605614,0.17469251155853271,-0.03953457623720169,0.21880961954593658,-0.20035448670387268,0.1345929503440857,0.24740754067897797,-0.09992805868387222,0.13687731325626373,-0.26257291436195374,0.34155285358428955,0.18400424718856812,-0.2270953208208084,-0.08895692229270935,-0.2282998114824295,0.16105420887470245,-0.04971599951386452,-0.19678883254528046,-0.020376503467559814,-0.02620202861726284,0.03790098428726196,-0.26006510853767395,0.05967838689684868,-0.04370223730802536,-0.28123733401298523,0.019726622849702835,0.08002204447984695,-0.17424970865249634,-0.18274466693401337,0.1854362189769745,-0.1677248775959015,-0.09647662937641144,-0.2605530619621277,0.18890756368637085,-0.023418953642249107,-0.03575781732797623,-0.09713991731405258,0.11246276646852493,-0.215168759226799,0.1952802836894989,-0.13368606567382812,-0.004054184537380934,-0.3365306556224823,0.026250721886754036,0.05606938526034355,-0.3976074755191803,0.26221054792404175,-0.1342424601316452,0.2609318494796753,-0.008777099661529064,-0.07451540231704712,0.04616235941648483,-0.01883937604725361,-0.16991163790225983,0.09374963492155075,0.18250051140785217,-0.006547989789396524,-0.1859605461359024,-0.14650364220142365,0.011573907919228077,0.00859768409281969,0.14992789924144745,0.024710258468985558,0.26646924018859863,0.008963651023805141,0.13342571258544922,0.19787535071372986,-0.10645740479230881,0.10727820545434952,0.2817411720752716,0.2189824879169464,0.17253179848194122,-0.22678202390670776,-0.05566505342721939,-0.05057753250002861,-0.02894059382379055,-0.03501591831445694,-0.015395458787679672,-0.16455747187137604,0.08662339299917221,-0.281240314245224,0.12314526736736298,0.07332050055265427,0.025399398058652878,0.020930403843522072,-0.22791054844856262,0.1161678358912468,0.06510131806135178,0.09588080644607544,-0.051738373935222626,0.10735901445150375,0.050023917108774185],[-0.09510298073291779,-0.3798058331012726,-0.12221887707710266,0.08656295388936996,0.1482831984758377,0.1485082507133484,-0.19775143265724182,-0.22734147310256958,0.04889994114637375,0.000037783956940984353,0.048852577805519104,-0.1467081606388092,0.010242631658911705,0.02405804581940174,-0.31984061002731323,-0.19950295984745026,0.1526802033185959,-0.05483094975352287,0.19729731976985931,0.0034809045027941465,0.3655751049518585,0.03633487969636917,-0.466898649930954,-0.16231811046600342,-0.01707298494875431,0.117563895881176,-0.17455194890499115,-0.022993063554167747,-0.32333067059516907,-0.07536403834819794,0.12362010031938553,0.2035835087299347,0.2171071469783783,0.12548300623893738,0.020682889968156815,0.07179560512304306,0.20750121772289276,-0.03294849395751953,-0.02087121084332466,-0.04137137159705162,0.19602517783641815,-0.06251344829797745,-0.12616509199142456,0.2246295064687729,-0.09033703804016113,-0.10502322018146515,-0.17019346356391907,-0.04908420145511627,-0.11771602928638458,0.07564596086740494,-0.2938944697380066,0.19949091970920563,0.054689064621925354,-0.12700042128562927,-0.1696537435054779,-0.21403461694717407,0.07410863786935806,-0.07904002070426941,0.07992054522037506,-0.08235807716846466,0.02295934408903122,0.17188018560409546,-0.15001943707466125,-0.04756295680999756,0.03635937720537186,0.04243740811944008,0.22760090231895447,-0.2580104470252991,0.20669960975646973,-0.15228404104709625,-0.06762705743312836,0.034403007477521896,-0.3022524416446686,-0.07860337197780609,-0.02826509438455105,0.2324981391429901,-0.3053218722343445,-0.03530089557170868,-0.33181899785995483,0.052387986332178116,0.04431126266717911,-0.06754596531391144,-0.39657270908355713,0.03953234478831291,0.1858942061662674,-0.07755058258771896,0.0697496235370636,-0.14171521365642548,0.035291820764541626,-0.30921995639801025,0.07691420614719391,0.05966506898403168,-0.261244535446167,0.011535105295479298,0.11055559664964676,0.2840639352798462,0.07334800809621811,0.34560829401016235,-0.06510879844427109,0.006928741000592709,0.10895926505327225,0.052473463118076324,0.29895874857902527,-0.18854086101055145,-0.3057284355163574,0.2207236886024475,0.27941596508026123,-0.1536351889371872,0.023888999596238136,0.17531000077724457,-0.146739199757576,-0.1069071888923645,0.17576634883880615,0.005365925375372171,0.1979188621044159,0.136272132396698,0.05442694574594498,-0.35618850588798523,-0.052388064563274384,-0.1992790251970291,0.04426468536257744,0.13928449153900146,-0.025939637795090675,-0.003584429854527116,-0.15107540786266327,0.023026101291179657,-0.09363192319869995,0.039761848747730255,0.07811728119850159,0.08635970205068588,0.11215417832136154,0.31272414326667786,0.08521206676959991,-0.0666666105389595,-0.5202040076255798,-0.06342726200819016,-0.007899211719632149,0.18571268022060394],[-0.05834784358739853,-0.14878690242767334,-0.20107248425483704,0.06380567699670792,0.47272729873657227,0.33623942732810974,-0.28418368101119995,-0.17091836035251617,0.24653111398220062,-0.032700370997190475,-0.18693391978740692,0.24582339823246002,-0.2950934171676636,0.2896842956542969,0.09547026455402374,0.38380834460258484,-0.04974876716732979,-0.04083859920501709,-0.5051042437553406,0.24333207309246063,-0.16332589089870453,-0.03196340054273605,0.2635064423084259,0.4120021164417267,0.13047361373901367,-0.29226741194725037,0.14478248357772827,0.15420393645763397,0.10819242894649506,-0.2810783386230469,-0.24133573472499847,-0.2847908139228821,-0.10211782157421112,0.04667120426893234,0.11807416379451752,-0.005759811494499445,0.08554420620203018,-0.03969757258892059,-0.02439822070300579,-0.17642931640148163,-0.05234922841191292,-0.03809119388461113,-0.23828159272670746,0.06329110264778137,-0.0025606260169297457,-0.2789471447467804,0.05650043860077858,-0.1297873556613922,0.15092213451862335,-0.010047264397144318,0.1644340604543686,0.022468339651823044,-0.21182826161384583,-0.29128000140190125,0.2518070340156555,0.03453880548477173,0.22357574105262756,0.24335382878780365,0.3163517415523529,-0.14391487836837769,-0.27663081884384155,0.2838788330554962,-0.025691285729408264,0.1016373261809349,0.018504155799746513,0.10845676809549332,0.19312570989131927,0.09354984015226364,0.253856360912323,0.09324614703655243,-0.0862901508808136,0.4922276735305786,0.13079464435577393,-0.2410677969455719,0.0798889547586441,-0.35506731271743774,-0.01006186194717884,0.0036236648447811604,0.10968395322561264,-0.10244744271039963,0.06643027812242508,-0.23917628824710846,-0.1737600415945053,0.5107136964797974,0.22048412263393402,-0.29669657349586487,-0.32160478830337524,0.03341037407517433,0.189616397023201,-0.10970662534236908,-0.405731737613678,-0.17006264626979828,0.02338801510632038,-0.16546650230884552,0.1454392671585083,0.03871572017669678,-0.22729773819446564,-0.06525436043739319,0.0838795155286789,0.3770054280757904,-0.05514782294631004,-0.12921832501888275,0.15551775693893433,0.5119861960411072,0.035762280225753784,-0.028237145394086838,-0.021522490307688713,-0.030827336013317108,0.07169929146766663,0.08747508376836777,0.09553586691617966,-0.5381317138671875,-0.06352691352367401,-0.10938254743814468,-0.47636163234710693,-0.03298402577638626,-0.2522296905517578,0.09759964048862457,0.10961174964904785,-0.268511027097702,0.2485397905111313,0.05316729098558426,0.012724801898002625,0.09959753602743149,0.0015374552458524704,-0.05728898569941521,-0.12002161890268326,0.12190631031990051,-0.25832805037498474,0.18403133749961853,0.29420843720436096,-0.09297552704811096,0.18413379788398743,0.2504907250404358,-0.17398899793624878,-0.06268668174743652,0.0847882330417633,0.15730729699134827],[0.033022113144397736,-0.006638481747359037,0.2037104219198227,-0.1744154393672943,-0.26764875650405884,0.14735932648181915,-0.1541435271501541,-0.08280596882104874,-0.20426398515701294,-0.07644318789243698,-0.2484087496995926,0.054127227514982224,0.17701640725135803,-0.15661278367042542,0.23008640110492706,-0.14314089715480804,-0.0581398531794548,0.1548406034708023,0.37168049812316895,0.14390385150909424,-0.36940181255340576,0.11923496425151825,-0.2659611999988556,-0.030278505757451057,-0.20380398631095886,-0.02198139578104019,-0.20396165549755096,0.04498908668756485,0.13688679039478302,0.3750348389148712,-0.050151076167821884,0.22390355169773102,0.12509280443191528,-0.09348834306001663,0.3555300831794739,0.18194401264190674,0.3489929139614105,-0.1834421008825302,0.26693350076675415,0.3602798879146576,0.12500184774398804,-0.1884211003780365,-0.015744434669613838,0.03108062408864498,0.28153616189956665,-0.2398090809583664,0.026094581931829453,-0.3453833758831024,0.28256580233573914,0.07980160415172577,-0.42499110102653503,-0.010606651194393635,0.17534495890140533,-0.3642023801803589,-0.3695933222770691,-0.1282002478837967,0.07804612070322037,0.027360927313566208,-0.07293908298015594,-0.15735146403312683,0.4377106726169586,0.5092660188674927,0.17405064404010773,0.2067948579788208,0.07901746779680252,0.34854233264923096,0.025396054610610008,0.1781054437160492,-0.2757747173309326,0.06136765703558922,0.06834493577480316,-0.27035772800445557,-0.3191598653793335,-0.016172101721167564,0.15647009015083313,0.19546647369861603,-0.09587211906909943,0.007383952848613262,-0.3091058135032654,0.12412664294242859,0.15481694042682648,-0.19114822149276733,0.09551344066858292,0.18847523629665375,-0.013268813490867615,0.03708711639046669,0.01721971295773983,0.192768394947052,-0.6090107560157776,-0.06283298879861832,-0.0470699667930603,-0.08200279623270035,0.1355389505624771,-0.08616183698177338,-0.004713072907179594,-0.025826094672083855,-0.06460035592317581,-0.30656614899635315,0.16206221282482147,0.3392754793167114,0.19053171575069427,-0.06895565986633301,0.31451666355133057,-0.19632068276405334,0.28452572226524353,0.25968894362449646,-0.17422693967819214,-0.10594133287668228,-0.18674594163894653,0.11259806156158447,0.16930954158306122,-0.1023995503783226,0.26681822538375854,0.16701190173625946,-0.1592031568288803,-0.4030415415763855,0.007498122751712799,0.04130648076534271,-0.03166786581277847,-0.2879928648471832,-0.14725089073181152,0.18653467297554016,-0.13082189857959747,0.056389614939689636,0.2671670615673065,0.30535319447517395,0.20316049456596375,-0.05602877587080002,0.22633621096611023,0.1687418818473816,0.0907304510474205,0.29787296056747437,-0.2519194185733795,-0.030137013643980026,-0.07555533945560455,-0.5136055946350098,-0.17904727160930634,-0.028542520478367805],[-0.1760721504688263,0.14225763082504272,0.2664136290550232,0.047105640172958374,-0.01565767452120781,0.4011686146259308,0.03591834753751755,-0.3064882457256317,-0.23389501869678497,-0.21248571574687958,0.28484317660331726,-0.0922248363494873,0.2868213951587677,0.08100645989179611,-0.0046948655508458614,0.01130949892103672,-0.16538645327091217,-0.21722973883152008,0.14267049729824066,-0.27658358216285706,0.07834108918905258,-0.1399058848619461,-0.10094870626926422,0.11226382851600647,0.11519864946603775,0.322212278842926,-0.33752161264419556,-0.18289610743522644,-0.06974277645349503,-0.31735751032829285,-0.009473634883761406,0.09058850258588791,0.07309761643409729,0.15799061954021454,-0.1581152379512787,-0.2598137855529785,-0.042844176292419434,0.3712932765483856,-0.02589503303170204,0.07805133610963821,0.2127487063407898,0.15872417390346527,-0.0013571373419836164,0.13682971894741058,-0.3753025531768799,-0.017705166712403297,-0.1500297486782074,0.07811468094587326,0.004473317414522171,0.18875743448734283,-0.16220805048942566,-0.20590633153915405,0.3193446099758148,-0.33871403336524963,0.0017824037931859493,0.2086048275232315,-0.11642034351825714,-0.1808314025402069,-0.025764213874936104,0.0006496735149994493,0.18334384262561798,-0.07413499057292938,-0.16374565660953522,0.2059769332408905,-0.026191070675849915,0.3074328899383545,-0.48277896642684937,0.03112756833434105,-0.23699899017810822,0.3754952549934387,-0.027919840067625046,0.34442442655563354,-0.12003490328788757,-0.12831662595272064,0.07512467354536057,-0.052867818623781204,0.39441046118736267,0.11591967940330505,0.10467012226581573,0.14214284718036652,-0.13608820736408234,0.16461512446403503,-0.016406001523137093,-0.017241058871150017,-0.1687982678413391,-0.2284005880355835,-0.025465356186032295,-0.15978562831878662,-0.15665461122989655,0.21546295285224915,-0.061820656061172485,-0.07141721993684769,0.1467517763376236,0.04988966882228851,-0.22036004066467285,-0.09759652614593506,0.09256386011838913,0.13669048249721527,0.19267334043979645,-0.16758455336093903,0.13934588432312012,0.3835832178592682,-0.021741550415754318,-0.21314916014671326,0.027458755299448967,-0.13355803489685059,-0.1311497837305069,0.1301673948764801,0.13638897240161896,0.09359930455684662,-0.062233008444309235,0.34108373522758484,0.24936988949775696,-0.34054481983184814,0.11577372997999191,0.18274347484111786,0.12264019250869751,-0.029412023723125458,0.13324891030788422,0.07413429021835327,0.015946723520755768,0.08688826858997345,-0.12539492547512054,0.23897486925125122,-0.32195019721984863,-0.23939500749111176,-0.0458805188536644,-0.04307006672024727,0.3036077618598938,0.12716230750083923,0.11957922577857971,-0.010165599174797535,0.04802399128675461,0.04201079159975052,-0.054912857711315155,-0.2684427499771118,0.11639642715454102,0.2328149527311325],[-0.4338412284851074,0.29980596899986267,-0.1029476448893547,0.023690521717071533,0.13694699108600616,0.13238169252872467,0.23553064465522766,-0.006015097722411156,-0.3060012757778168,-0.18619641661643982,0.20140890777111053,0.0827096551656723,0.26798146963119507,0.2731081545352936,-0.450790137052536,-0.3877394199371338,-0.28477343916893005,-0.19164042174816132,0.011019816622138023,-0.19963516294956207,-0.02281499095261097,0.3349435329437256,0.06760495901107788,-0.3369402289390564,-0.036968037486076355,0.3649463653564453,-0.1197848841547966,-0.2282336950302124,0.01615322008728981,0.274244487285614,0.13989967107772827,0.11472204327583313,0.00005815302938572131,0.07412441819906235,-0.03682674840092659,-0.4210565984249115,-0.4208984673023224,0.15994618833065033,-0.21049509942531586,-0.1902720332145691,0.011075062677264214,0.0816211998462677,0.22487497329711914,0.19622595608234406,0.010445855557918549,0.2729536294937134,-0.30217838287353516,0.02790740691125393,-0.46772903203964233,0.11599501967430115,-0.13719592988491058,0.1636398434638977,0.3050297200679779,0.0004728991480078548,-0.14962585270404816,0.28278088569641113,-0.16568104922771454,-0.037018999457359314,0.1108294203877449,0.1341015249490738,0.28658172488212585,0.0959678366780281,-0.007705399300903082,-0.03206714987754822,-0.02948743849992752,-0.1447152942419052,-0.15247349441051483,-0.02985985577106476,-0.03808041661977768,0.18758408725261688,-0.04762032628059387,0.2023502141237259,0.017563166096806526,0.04182574898004532,0.13195250928401947,-0.11658253520727158,0.22784005105495453,0.02364729531109333,-0.14497010409832,0.16000328958034515,0.1624562293291092,0.07591468840837479,0.25296685099601746,-0.20275044441223145,-0.025587251409888268,0.2320815771818161,-0.15212859213352203,-0.17520080506801605,0.23320914804935455,0.06729008257389069,-0.26600268483161926,-0.07297181338071823,0.05869099125266075,-0.018210692331194878,-0.28039634227752686,0.1894780695438385,-0.001530331908725202,-0.19067546725273132,-0.38498905301094055,-0.07289281487464905,-0.23770777881145477,-0.17342086136341095,-0.12440724670886993,-0.21180278062820435,0.36769378185272217,0.11680110543966293,0.21799121797084808,0.26528796553611755,-0.1607418656349182,-0.2986728250980377,0.05118677020072937,0.1383570283651352,0.21661782264709473,-0.2356703281402588,-0.15969112515449524,0.42022979259490967,-0.047455623745918274,0.0028905514627695084,-0.023321302607655525,-0.03524705395102501,-0.07905340939760208,-0.26690852642059326,0.025737125426530838,0.07553543895483017,-0.3878450095653534,-0.3452107310295105,0.03734036907553673,-0.2406359165906906,0.09022487699985504,-0.27300146222114563,0.16907359659671783,-0.02966594696044922,-0.024313529953360558,-0.3048585057258606,0.3977833390235901,0.10524474084377289,0.02464532107114792,0.11865896731615067],[0.015199522487819195,-0.3873523473739624,0.09099976718425751,0.19257161021232605,-0.21369218826293945,0.04872536659240723,-0.11998946964740753,-0.24500349164009094,0.27862000465393066,0.2973424196243286,0.1140737310051918,0.26891955733299255,-0.2877327501773834,-0.06624938547611237,0.2639450430870056,0.22903218865394592,0.3665343225002289,0.10419682413339615,0.3447989821434021,-0.2527375817298889,0.2622428238391876,-0.23961743712425232,-0.4767216145992279,0.21880853176116943,0.09513133764266968,-0.1464569866657257,-0.10216356068849564,0.19828394055366516,0.10499819368124008,-0.14445188641548157,-0.2342645525932312,0.03392832353711128,0.06216932460665703,0.1710713654756546,-0.36329689621925354,-0.07303503900766373,-0.018705641850829124,0.0031852154061198235,-0.048166800290346146,0.07273505628108978,-0.2087772935628891,-0.14980608224868774,-0.20995907485485077,-0.3336104452610016,0.11933775246143341,-0.19530141353607178,0.0005199052393436432,0.04647620767354965,0.18783056735992432,0.0005461338441818953,0.0268770232796669,0.14403703808784485,-0.03406279534101486,-0.1385282576084137,0.40756961703300476,-0.021047251299023628,0.14543326199054718,-0.04961572587490082,0.3170236051082611,-0.08598421514034271,-0.11825590580701828,0.11772755533456802,-0.20281969010829926,-0.306338369846344,-0.1517767608165741,-0.09407126903533936,-0.0841408520936966,-0.09361568093299866,0.25196993350982666,-0.2743503451347351,0.1492759734392166,-0.3190298080444336,-0.09068533778190613,-0.05686822161078453,-0.14819014072418213,-0.2309930920600891,-0.056749261915683746,0.026915377005934715,0.30757442116737366,-0.0634317621588707,0.09860323369503021,-0.11627206206321716,-0.3321908414363861,0.2960849702358246,-0.416233092546463,-0.06416012346744537,0.024523986503481865,0.15182077884674072,-0.08928555995225906,-0.19064553081989288,0.32472941279411316,0.1776011884212494,-0.047588594257831573,0.11631949990987778,0.3835402727127075,-0.2597910165786743,0.1429501622915268,-0.11537907272577286,0.11586989462375641,0.1954437494277954,-0.11133043467998505,-0.25860336422920227,-0.38983675837516785,0.4385640621185303,-0.35121089220046997,0.27615272998809814,-0.2925780415534973,0.2654704749584198,0.16051794588565826,0.013533538207411766,-0.00035176932578906417,-0.3627726137638092,0.03876079246401787,0.1746751070022583,-0.042246319353580475,0.045994844287633896,-0.402743399143219,0.1825270801782608,-0.20251624286174774,0.1931648552417755,0.15351150929927826,-0.2120463103055954,0.09046535938978195,0.12529434263706207,0.058425016701221466,0.4153236746788025,-0.2681240439414978,0.12330465018749237,-0.006824942771345377,-0.10363772511482239,0.05409998819231987,0.10072370618581772,0.16099147498607635,-0.13617239892482758,0.02360980212688446,-0.1993020623922348,0.2740902006626129,-0.054570361971855164],[-0.05905021354556084,0.09375309199094772,0.21334823966026306,0.18883466720581055,-0.07493264973163605,0.0645461454987526,-0.13374193012714386,0.05500336363911629,0.1840278059244156,-0.33622342348098755,0.04449897259473801,-0.15394043922424316,-0.14674332737922668,0.06860986351966858,-0.111976258456707,-0.07871436327695847,-0.017260514199733734,-0.18334904313087463,0.12247510254383087,-0.16634446382522583,-0.05926113948225975,0.03798244521021843,-0.03475797921419144,-0.08944579213857651,0.08545302599668503,0.0626293495297432,-0.11426887661218643,0.22504906356334686,-0.07134535908699036,0.12300873547792435,0.23024417459964752,0.20874352753162384,0.12236768752336502,-0.14465217292308807,-0.07134175300598145,0.0431547574698925,-0.01004386879503727,-0.028747253119945526,0.039787352085113525,-0.011347921565175056,0.2879868447780609,-0.12490012496709824,0.13131210207939148,0.11056596040725708,-0.1519562005996704,-0.09005492180585861,0.30884256958961487,0.2729966938495636,-0.2697436511516571,-0.2386179268360138,0.34273990988731384,-0.01813547872006893,0.2878314256668091,-0.14994482696056366,-0.2280610352754593,0.26782435178756714,-0.07095253467559814,0.11545770615339279,-0.1409716159105301,0.040954481810331345,-0.06400740891695023,-0.050322454422712326,-0.15604400634765625,0.25123167037963867,0.11180160194635391,-0.058850452303886414,0.21239705383777618,-0.01719272881746292,-0.03545864671468735,0.11343124508857727,0.09951695799827576,-0.005455931648612022,0.06043258681893349,0.08535394817590714,-0.16674843430519104,0.1628703474998474,-0.08069481700658798,-0.10856986790895462,0.26062121987342834,-0.1369694173336029,0.088840052485466,-0.09922690689563751,-0.05658850818872452,0.07530049979686737,0.1261681169271469,0.10002326220273972,0.03233690932393074,0.01971728727221489,-0.09104577451944351,-0.020266663283109665,-0.06901854276657104,0.2756575644016266,0.024964215233922005,-0.20150572061538696,0.04192584007978439,0.13206107914447784,-0.028305819258093834,0.08205729722976685,0.1908029466867447,-0.11249852925539017,0.16276788711547852,0.17545175552368164,-0.17588426172733307,0.13271301984786987,-0.21466486155986786,-0.014123381115496159,-0.2601492702960968,-0.18470655381679535,0.15197937190532684,0.18325388431549072,0.133992537856102,0.19260938465595245,-0.3688569962978363,-0.1570747345685959,0.27031460404396057,-0.2000507116317749,-0.13942430913448334,0.26387718319892883,-0.29407310485839844,-0.01676972582936287,0.0954570472240448,0.2367759495973587,-0.2290797084569931,0.15340958535671234,0.02702675759792328,-0.28180602192878723,0.25053319334983826,-0.09784939140081406,-0.08636664599180222,-0.18057045340538025,-0.006444710306823254,0.08482984453439713,0.1003243625164032,0.058903999626636505,-0.2902345657348633,-0.09295155853033066,0.32593807578086853,0.16349045932292938],[-0.0299180019646883,-0.19638581573963165,0.06048932299017906,-0.1360519528388977,-0.13885866105556488,-0.11269047111272812,-0.26397907733917236,0.0889681950211525,0.0426032692193985,0.028575550764799118,0.09438826143741608,0.30820029973983765,-0.39105224609375,0.044846680015325546,-0.08446474373340607,-0.04224560037255287,-0.050787895917892456,-0.05382372438907623,-0.12863388657569885,-0.10911062359809875,-0.06893885135650635,0.05826041102409363,-0.07571274042129517,0.4403247833251953,0.23544134199619293,-0.18394450843334198,-0.29864588379859924,-0.10542654246091843,-0.06265489012002945,-0.1962803453207016,0.029631473124027252,-0.09975171089172363,0.15541456639766693,-0.05275362730026245,-0.0595395602285862,0.02332860231399536,0.2481926679611206,0.07159829884767532,-0.40949758887290955,-0.12696300446987152,-0.24151116609573364,-0.011814280413091183,-0.0585770457983017,-0.04074232652783394,0.2786508798599243,-0.24966871738433838,-0.07095075398683548,-0.0329861044883728,-0.01072231400758028,0.1024014800786972,-0.06177100911736488,0.09811916202306747,-0.10504207760095596,-0.35914039611816406,0.17318907380104065,-0.05725514143705368,0.06172119081020355,0.02044736221432686,-0.1853485405445099,0.1926918625831604,0.22691115736961365,-0.06588012725114822,-0.34291917085647583,0.052528806030750275,0.07864505797624588,0.14865820109844208,0.03717629238963127,-0.19123081862926483,0.1433732658624649,-0.21435989439487457,-0.08455280214548111,0.007525998167693615,0.10704567283391953,0.1988646388053894,0.28162795305252075,0.24010156095027924,-0.23228490352630615,0.01799534633755684,-0.19152714312076569,-0.1111927404999733,0.003793188836425543,-0.06263694912195206,-0.26464614272117615,0.08967865258455276,0.28860631585121155,0.2730424404144287,-0.0954810157418251,-0.15575215220451355,0.1560947448015213,0.057238005101680756,0.26155588030815125,-0.18902955949306488,-0.27869564294815063,-0.19499826431274414,0.17015999555587769,0.008781684562563896,-0.04074231907725334,0.003900716546922922,-0.16534049808979034,0.0765594094991684,0.13282865285873413,0.2288568913936615,-0.004357699304819107,0.04955946281552315,-0.35970422625541687,0.4520304501056671,-0.03237522020936012,0.44746485352516174,-0.12380214780569077,0.06889042258262634,0.421265572309494,0.30859264731407166,-0.08535262942314148,0.06909049302339554,-0.037450335919857025,0.04446745663881302,-0.11335044354200363,-0.09185648709535599,-0.07104784995317459,0.11294352263212204,-0.02020474337041378,-0.05170326307415962,0.08910758048295975,-0.04028203338384628,-0.03595859557390213,0.096650630235672,-0.004935611039400101,-0.03574641793966293,0.21271225810050964,-0.17662900686264038,-0.27514591813087463,0.20710116624832153,0.013631511479616165,-0.2615458369255066,0.24636851251125336,0.1646585762500763,0.458170086145401,-0.3087981641292572],[-0.0808890238404274,-0.08202669769525528,-0.19608010351657867,-0.23679395020008087,-0.042395275086164474,0.277943879365921,-0.20196430385112762,0.2987902760505676,0.23005448281764984,0.12642350792884827,-0.10169848054647446,-0.10775598138570786,-0.08171750605106354,-0.1521815061569214,0.2717185914516449,-0.15818148851394653,0.0061600846238434315,0.153649240732193,0.2218787968158722,0.2200942188501358,-0.27521300315856934,-0.050726622343063354,-0.4282885193824768,0.015957260504364967,-0.05821326747536659,0.109659843146801,-0.3454032242298126,0.19824984669685364,0.2585733234882355,0.09659941494464874,-0.19489477574825287,0.015568560920655727,0.21618741750717163,0.08026253432035446,-0.0774654895067215,0.3390081524848938,0.11654908955097198,-0.33664536476135254,0.010616148822009563,0.21630823612213135,-0.023748626932501793,-0.10895092040300369,0.12256382405757904,0.03326128423213959,-0.010066228918731213,-0.0006387619650922716,-0.012548753060400486,-0.09104205667972565,0.1100526750087738,-0.1874457448720932,0.028042098507285118,0.04736369848251343,0.2193097174167633,-0.18908362090587616,-0.36520397663116455,-0.09624884277582169,0.053849708288908005,-0.1144934818148613,-0.1313004493713379,-0.14633025228977203,0.30832427740097046,0.1769384741783142,0.4383917450904846,0.08959054946899414,0.2339591681957245,0.08983273059129715,0.19751833379268646,-0.22811172902584076,0.16163693368434906,0.03895548731088638,0.055751729756593704,-0.5460073351860046,0.2683326303958893,0.18702638149261475,0.09600089490413666,0.04613699018955231,-0.4189382791519165,-0.025388455018401146,-0.24175935983657837,0.06661860644817352,-0.11733094602823257,-0.39858588576316833,0.03744405508041382,-0.08753245323896408,-0.1895018219947815,-0.021509839221835136,-0.02335667796432972,0.23703601956367493,-0.39248067140579224,-0.206797257065773,-0.2071470320224762,0.24066798388957977,0.11596003919839859,0.07315151393413544,0.011929653584957123,-0.08670519292354584,0.006472067441791296,0.004638755694031715,0.01837238110601902,0.11541973799467087,0.236265167593956,-0.18235167860984802,0.12184847146272659,0.45812109112739563,0.14395755529403687,-0.03085012175142765,-0.2847006916999817,0.0898127406835556,-0.08838064968585968,-0.13979309797286987,0.0830761194229126,-0.348671555519104,0.22760368883609772,-0.09004970639944077,-0.10571009665727615,-0.3676660358905792,-0.09011942893266678,-0.13926805555820465,-0.09402069449424744,-0.09387201070785522,-0.10603532195091248,0.20479503273963928,-0.19043724238872528,-0.16913704574108124,-0.0475204735994339,0.23670202493667603,-0.18363623321056366,0.17299149930477142,-0.29150721430778503,0.020902493968605995,0.1260647475719452,-0.163132905960083,-0.4248194396495819,-0.36710086464881897,0.08561641722917557,-0.5249592065811157,-0.12315180897712708,-0.06514303386211395],[0.141830176115036,0.07285506278276443,-0.06435886770486832,-0.0748765617609024,0.1833227276802063,-0.1833459883928299,0.059531111270189285,0.17553871870040894,-0.09945851564407349,-0.010021044872701168,-0.1339278370141983,0.10236535221338272,-0.23200592398643494,-0.08033506572246552,-0.1288232058286667,0.10123933106660843,-0.10099747031927109,0.0816931501030922,0.07553797215223312,0.018306978046894073,-0.1767595261335373,-0.0991651639342308,0.2600872814655304,0.037578705698251724,0.3737543821334839,-0.043099094182252884,-0.08856536448001862,-0.06555552035570145,0.10199884325265884,0.13504040241241455,-0.07271306216716766,0.14173422753810883,0.08617576956748962,-0.2426801472902298,0.028813453391194344,-0.20462748408317566,0.19667591154575348,-0.14542049169540405,-0.045441240072250366,0.036556441336870193,-0.04020930081605911,0.07109463959932327,-0.11685647815465927,0.07279059290885925,0.010340292006731033,0.053205084055662155,0.06857355684041977,-0.09319417178630829,-0.08242536336183548,0.010662173852324486,-0.22183893620967865,0.170638769865036,-0.08221729099750519,0.134856715798378,0.11162763088941574,0.15432529151439667,-0.04355217143893242,-0.08500023931264877,0.08999829739332199,-0.2387508749961853,0.002105221152305603,0.2829177677631378,0.015528295189142227,0.0843234732747078,0.14920608699321747,0.016441265121102333,0.04090535640716553,0.0716436356306076,-0.34382569789886475,-0.10336857289075851,0.018083427101373672,0.18517115712165833,-0.10705112665891647,-0.09690836817026138,0.17230646312236786,-0.27448663115501404,0.2344885766506195,-0.028407588601112366,0.08490386605262756,-0.07753164321184158,0.1055477038025856,0.10379458218812943,0.5107365846633911,0.1113496944308281,0.06496554613113403,-0.19740962982177734,-0.0783475860953331,0.04158254712820053,-0.2255096435546875,-0.04054316133260727,0.009388144128024578,-0.1706937998533249,-0.03602387756109238,-0.024211708456277847,0.015635011717677116,-0.09478471428155899,0.06498294323682785,0.00942696537822485,0.15420536696910858,-0.09220799803733826,0.03366309031844139,0.1805923879146576,-0.11800063401460648,0.26765915751457214,-0.1458284705877304,0.2894512116909027,-0.039164554327726364,-0.06165659800171852,-0.06938929110765457,0.25592240691185,0.02545216493308544,-0.026111923158168793,0.2729497253894806,0.13083089888095856,-0.09410690516233444,-0.02100086584687233,-0.42856931686401367,-0.19292351603507996,-0.2655249536037445,0.05857165902853012,-0.04427332803606987,-0.14277005195617676,0.09510388225317001,0.10459629446268082,-0.07292132824659348,0.030588436871767044,0.03487721085548401,0.09701049327850342,0.14420875906944275,-0.08115267753601074,0.15649935603141785,-0.003435300663113594,-0.002581467153504491,-0.19791674613952637,0.02446822077035904,0.23266878724098206,-0.07005377113819122,-0.1309628188610077],[-0.1358044594526291,-0.19379082322120667,0.008977437391877174,-0.30954450368881226,-0.31313493847846985,0.04590730741620064,0.002223338931798935,0.42603200674057007,0.10244126617908478,-0.17675386369228363,-0.2748212516307831,0.1811353713274002,-0.2048996537923813,0.08221869170665741,0.13882607221603394,-0.06913750618696213,-0.2187463343143463,-0.11700353771448135,-0.03921462967991829,0.25082463026046753,0.0405924953520298,-0.06273351609706879,0.006045565474778414,-0.17327602207660675,-0.34152695536613464,-0.08400336652994156,0.40335744619369507,0.08835750818252563,0.057914771139621735,-0.12230808287858963,-0.07453054189682007,-0.12297876179218292,-0.2492901086807251,-0.2722758948802948,0.17169103026390076,0.03452274203300476,0.1838197261095047,0.05461617931723595,0.08828140050172806,0.04560209438204765,0.05406126007437706,0.006287558004260063,0.144878551363945,0.15845787525177002,0.2871866226196289,-0.10104987025260925,-0.11030209064483643,-0.03477977216243744,-0.025132937356829643,-0.2217353880405426,0.2775985896587372,0.26997110247612,0.026815110817551613,0.03136416897177696,-0.025970913469791412,0.06147570163011551,0.18893587589263916,0.24885691702365875,0.172703355550766,0.16969960927963257,0.5839187502861023,0.29783743619918823,0.24556520581245422,0.40963906049728394,0.35198280215263367,0.3610943853855133,0.41606736183166504,-0.2769466042518616,0.28378453850746155,0.15750807523727417,-0.1330159455537796,-0.10418751835823059,-0.12074221670627594,0.21047522127628326,-0.16866904497146606,0.08474457263946533,-0.18506371974945068,0.07538159191608429,-0.02086205594241619,0.01689709909260273,0.3621625602245331,-0.4590314030647278,0.17999669909477234,-0.25418832898139954,0.1805732101202011,0.03702262043952942,-0.03674248978495598,0.21782687306404114,-0.08348815143108368,-0.21237394213676453,-0.19590993225574493,-0.09318003803491592,0.1845017671585083,-0.21891018748283386,0.2851731479167938,0.2897583544254303,0.07336705178022385,0.17680519819259644,0.11138646304607391,0.30603790283203125,0.056359898298978806,0.025068126618862152,0.2442348450422287,-0.14238561689853668,-0.02680576778948307,0.344811350107193,-0.15123724937438965,0.014112215489149094,-0.15879060328006744,-0.053598735481500626,-0.07198270410299301,-0.0744127556681633,-0.06312354654073715,-0.036526136100292206,0.06778816133737564,-0.18641862273216248,-0.14210571348667145,0.19852162897586823,-0.101170614361763,-0.22400958836078644,-0.0025851924438029528,0.18389025330543518,-0.0903451219201088,0.03339160606265068,-0.1589963287115097,-0.25986844301223755,-0.009413888677954674,-0.22582250833511353,0.0001836516457842663,0.004143384750932455,-0.2036156803369522,0.18600666522979736,0.20603054761886597,0.13726387917995453,0.07918820530176163,0.07270161807537079,-0.2820773720741272,0.12160801142454147],[-0.08075180649757385,-0.13783080875873566,-0.4236658811569214,-0.06015409156680107,-0.29124560952186584,-0.06235044449567795,-0.1778659075498581,-0.03867923468351364,0.07742483168840408,-0.1373545080423355,0.07196391373872757,-0.07759366929531097,-0.1490071713924408,-0.029330477118492126,-0.04362000152468681,0.03456524759531021,0.06927303224802017,0.08948639780282974,0.13682320713996887,-0.03115568496286869,0.017930861562490463,0.09070172160863876,0.10941223800182343,0.29466888308525085,0.11288044601678848,-0.1363004893064499,0.042182449251413345,-0.26856088638305664,0.06146831810474396,-0.06998149305582047,0.24222537875175476,-0.05311707407236099,-0.09411418437957764,0.2162255197763443,-0.14926069974899292,0.01477534044533968,-0.20322494208812714,0.10193490236997604,-0.0743044912815094,-0.18045777082443237,0.28977304697036743,0.3859163224697113,0.4115346670150757,-0.12576285004615784,0.0470837727189064,0.12175875902175903,-0.27288389205932617,0.4131135642528534,-0.25624802708625793,-0.07884722948074341,0.05757785961031914,0.010428201407194138,0.22287824749946594,-0.07143349945545197,-0.1186709776520729,-0.3139350414276123,0.030015187337994576,-0.13571995496749878,-0.20302264392375946,-0.19137710332870483,-0.172888845205307,0.16999946534633636,-0.17934317886829376,0.0399424210190773,0.2953173518180847,-0.3430546820163727,0.4622439742088318,-0.21396540105342865,0.1155518889427185,-0.1668137013912201,0.21118886768817902,0.09883260726928711,0.01828949712216854,0.20142912864685059,-0.25243207812309265,0.017160486429929733,-0.06755618005990982,-0.09984976798295975,0.39783143997192383,0.04573081433773041,0.17703057825565338,0.2365158200263977,-0.36752113699913025,0.30439984798431396,-0.24456322193145752,-0.2275848388671875,0.19501103460788727,-0.16649764776229858,-0.029132695868611336,-0.259715735912323,-0.37101641297340393,-0.26679712533950806,0.41858971118927,0.2709800601005554,-0.04272252693772316,0.0044913142919540405,-0.024486152455210686,-0.08228519558906555,0.13616032898426056,-0.05379344895482063,0.028525983914732933,-0.02138124220073223,0.06461621820926666,-0.19295556843280792,-0.41945695877075195,0.43901705741882324,0.1809094250202179,-0.018132468685507774,0.02613002061843872,0.4668036699295044,-0.31355398893356323,0.016157833859324455,0.2927127480506897,0.09000173956155777,0.24719806015491486,0.440864622592926,-0.18657667934894562,-0.006121477112174034,-0.16705156862735748,0.4111020267009735,-0.19449973106384277,-0.07192301005125046,0.19893494248390198,0.14270958304405212,-0.2784191071987152,-0.3842064440250397,0.062429312616586685,-0.20975245535373688,0.110362209379673,-0.005298732314258814,0.28912073373794556,0.13838860392570496,0.1326032131910324,0.05283259227871895,-0.15086762607097626,-0.1335376352071762,0.18995222449302673,0.1943216323852539],[-0.04571305215358734,-0.31701090931892395,0.025594573467969894,0.12500157952308655,0.13330775499343872,0.08452498912811279,-0.15353310108184814,0.019986286759376526,0.10362176597118378,0.5038467049598694,0.0509137399494648,0.10472746193408966,0.38592931628227234,0.18190672993659973,-0.15589484572410583,-0.12020639330148697,-0.0012248167768120766,-0.06063280254602432,0.18197792768478394,-0.15582074224948883,-0.13825203478336334,0.020807836204767227,-0.4358873665332794,-0.07543151080608368,-0.3875053822994232,-0.031934596598148346,-0.005780200008302927,0.11126283556222916,0.27252987027168274,-0.09830448031425476,-0.09653418511152267,0.16469275951385498,-0.03977971896529198,-0.2083464413881302,-0.1436873823404312,0.1409752368927002,-0.34124305844306946,-0.10498571395874023,-0.18003696203231812,-0.021080631762742996,-0.17739860713481903,-0.04954972490668297,-0.22242102026939392,-0.20706807076931,-0.02329717017710209,-0.03343242034316063,0.07187514752149582,0.14426766335964203,0.12265025079250336,0.06240110844373703,-0.10861844569444656,0.06880433857440948,0.23488475382328033,0.28679177165031433,0.08476841449737549,0.21108105778694153,-0.014695573598146439,-0.0004203359130769968,0.18994532525539398,0.2589799165725708,0.0339261032640934,0.009437885135412216,-0.14639343321323395,-0.10269753634929657,0.0817146748304367,-0.10241083055734634,0.11565974354743958,-0.1243554949760437,0.21719832718372345,-0.22325338423252106,-0.1918778419494629,-0.057411421090364456,-0.3541868329048157,-0.18807530403137207,-0.027404962107539177,-0.221971794962883,-0.33406856656074524,0.4078782796859741,0.11952940374612808,-0.18967248499393463,0.12557262182235718,0.5300420522689819,0.03348619118332863,0.05941950902342796,0.17933447659015656,-0.06571929156780243,0.08351507037878036,-0.39645111560821533,-0.06608404219150543,0.2784886360168457,-0.48129111528396606,0.15261699259281158,0.34004658460617065,0.00878329947590828,-0.00031873254920355976,0.03663412109017372,0.07002744823694229,0.1472429782152176,0.31343919038772583,-0.04309887811541557,-0.3746899366378784,0.004224915988743305,0.1609104573726654,-0.18042278289794922,-0.03792006894946098,-0.3518483638763428,0.04366893321275711,0.16480380296707153,0.2825404405593872,0.16629783809185028,-0.006960517726838589,0.2052442729473114,-0.011173677630722523,-0.10983484238386154,0.169599711894989,-0.039359815418720245,0.047287508845329285,0.39327532052993774,0.31245318055152893,0.3038311004638672,-0.058689285069704056,-0.1936381757259369,0.005745121277868748,0.05221983417868614,0.06315550208091736,0.18734847009181976,0.2702776789665222,0.03310961648821831,-0.32623910903930664,-0.3288324177265167,0.3258107602596283,0.49031874537467957,0.13717757165431976,0.1639072448015213,-0.061546120792627335,0.1454501897096634,0.22140899300575256,0.17063918709754944],[-0.05116991698741913,-0.0600973479449749,-0.2638939321041107,-0.2969030737876892,0.15997472405433655,-0.051743052899837494,-0.261818528175354,-0.3172622323036194,0.24038268625736237,-0.2804260849952698,0.09151919931173325,0.239577516913414,-0.05596858635544777,0.2179112583398819,-0.2542276084423065,-0.02437552437186241,-0.17791083455085754,-0.08692138642072678,0.328255832195282,0.04269465431571007,-0.1902482509613037,0.09257449209690094,-0.22868870198726654,0.08354780822992325,-0.12489445507526398,0.034614332020282745,-0.20961087942123413,-0.23693129420280457,0.0676608458161354,0.1359054297208786,-0.18408453464508057,0.0503321997821331,0.09062431007623672,-0.2276911586523056,-0.12274102121591568,0.10324173420667648,0.2555314004421234,-0.3635653257369995,-0.238712877035141,0.32895171642303467,0.10536149889230728,0.05406218022108078,0.07418274879455566,0.10120522230863571,-0.07226728647947311,-0.0461248978972435,-0.24202580749988556,0.1664724200963974,-0.09396931529045105,0.01835833117365837,0.12104476988315582,0.1923888921737671,0.255794882774353,-0.043003953993320465,-0.19534149765968323,0.02632049098610878,-0.1668798178434372,-0.13516072928905487,-0.33774611353874207,0.008649763651192188,-0.3966999650001526,0.14214110374450684,-0.13420778512954712,0.05693070590496063,0.2098301500082016,0.13444511592388153,0.3966379463672638,-0.051486410200595856,-0.26684334874153137,-0.007090759463608265,-0.10949267446994781,0.1117769256234169,-0.15728959441184998,-0.30474168062210083,0.01448481623083353,-0.23810416460037231,-0.25779715180397034,-0.034190528094768524,-0.29505491256713867,0.1410319209098816,0.23532506823539734,-0.06858327239751816,-0.23649786412715912,-0.3393591642379761,-0.04531996324658394,0.2245786190032959,-0.1331762969493866,-0.11029735207557678,0.0020337700843811035,-0.09936565905809402,0.011981571093201637,-0.2675952613353729,-0.025161588564515114,-0.0416104681789875,0.18713131546974182,0.019327489659190178,0.05436952784657478,-0.0720733255147934,-0.13394390046596527,0.11981162428855896,0.07397092133760452,0.23506861925125122,0.0694245770573616,0.3275601267814636,-0.2695881128311157,0.0935872495174408,0.034897591918706894,0.02853616327047348,0.0012683209497481585,0.3198554813861847,0.11033513396978378,0.016045445576310158,0.11998225003480911,-0.2839999496936798,0.28767114877700806,-0.18958483636379242,0.1496366560459137,0.043578267097473145,-0.05207083374261856,0.049515195190906525,-0.1160564199090004,0.34058985114097595,-0.049844320863485336,0.006291311699897051,-0.40396153926849365,-0.2028794288635254,0.022333212196826935,-0.10522997379302979,0.11927015334367752,0.004677910357713699,-0.004229511134326458,-0.07897843420505524,0.127798929810524,-0.2907307744026184,0.2118849903345108,0.07277422398328781,-0.048489492386579514,0.1868831217288971],[0.1355367749929428,0.25726908445358276,0.09056950360536575,0.33911821246147156,-0.27512532472610474,0.001741102896630764,0.0738152489066124,-0.19997842609882355,-0.0205314252525568,-0.20571021735668182,0.11711874604225159,-0.1645737886428833,0.3374987244606018,0.2549956738948822,-0.3364120125770569,-0.045511141419410706,-0.33744966983795166,-0.1146283969283104,-0.07325252890586853,-0.12620945274829865,-0.06415974348783493,0.04820520430803299,-0.13392262160778046,0.17333213984966278,0.044955965131521225,0.07418740540742874,-0.05115572363138199,-0.24055634438991547,0.07254425436258316,-0.01874679885804653,0.0748947411775589,0.32672223448753357,-0.10467267781496048,-0.01921895332634449,-0.16887253522872925,0.11357440799474716,-0.14388392865657806,0.20378218591213226,-0.01392651628702879,0.18740446865558624,-0.031063176691532135,-0.01497042365372181,-0.08184324204921722,0.29541897773742676,0.1341191828250885,-0.013343953527510166,0.057831279933452606,-0.28684133291244507,-0.2164837121963501,0.03502596542239189,0.19050167500972748,0.18202535808086395,0.16030573844909668,-0.14354656636714935,-0.5274052023887634,0.059519894421100616,-0.2552086114883423,-0.32608360052108765,-0.023962147533893585,0.12385901808738708,0.1418360471725464,0.16459910571575165,-0.14119017124176025,-0.2877975404262543,0.0961226299405098,0.1987888365983963,0.1486571878194809,-0.269766628742218,0.0059083267115056515,0.19836078584194183,-0.17956581711769104,0.11449149996042252,0.067562036216259,0.14941103756427765,-0.060135409235954285,-0.06561999022960663,0.22539909183979034,0.21857768297195435,-0.42440465092658997,0.2140728235244751,-0.03834085166454315,-0.10955199599266052,0.012236748822033405,-0.2034650295972824,-0.060381319373846054,0.08467245101928711,0.12756864726543427,-0.2841165363788605,-0.11057230085134506,-0.08712389320135117,-0.08050884306430817,-0.10832671821117401,0.2724405527114868,-0.11026730388402939,0.06291654706001282,0.0027608301024883986,-0.12870296835899353,-0.0022401900496333838,-0.07129615545272827,-0.010066132992506027,0.021774129942059517,0.4204972982406616,0.16501739621162415,-0.09798388928174973,-0.09999804198741913,0.17588095366954803,0.16009005904197693,0.12498357146978378,-0.00911592599004507,0.18856178224086761,-0.09805438667535782,0.09704655408859253,0.043861664831638336,-0.3090590536594391,0.08276338875293732,0.10226332396268845,0.37444597482681274,-0.08926381170749664,0.04071421176195145,0.10279897600412369,-0.15250718593597412,0.15950451791286469,0.02095734514296055,-0.19636259973049164,-0.29993078112602234,-0.11021993309259415,-0.2459050714969635,0.23146477341651917,0.1098516583442688,0.05457886680960655,0.22300806641578674,-0.37636664509773254,-0.08040545880794525,-0.20655351877212524,0.03401754051446915,0.039003126323223114,0.039301902055740356,0.18718092143535614],[-0.12074816972017288,-0.42516690492630005,0.28869572281837463,0.09667423367500305,-0.07185918092727661,0.1464756727218628,-0.24025334417819977,-0.1183142140507698,0.05800097808241844,-0.26269182562828064,-0.01703186146914959,-0.2053202986717224,-0.1850065290927887,0.09972205013036728,-0.3091931939125061,0.07511462271213531,-0.13564033806324005,-0.10695227235555649,0.28108060359954834,0.05762983113527298,-0.37810808420181274,-0.09896035492420197,-0.0747344121336937,0.0565309002995491,0.26945871114730835,0.09498099237680435,-0.00997929461300373,0.0016055417945608497,-0.24528610706329346,-0.04979487881064415,0.07385831326246262,-0.052802011370658875,0.19251154363155365,0.11595002561807632,0.08113981783390045,0.04837465286254883,0.14030525088310242,0.053945399820804596,0.20711809396743774,0.02550741285085678,0.1521756649017334,-0.3230125308036804,0.055343564599752426,0.20630308985710144,0.11131986975669861,0.13699054718017578,-0.32099923491477966,-0.06747289001941681,0.018778905272483826,-0.13374628126621246,-0.15117403864860535,-0.1919543594121933,0.1637885719537735,-0.24903544783592224,-0.04683797433972359,0.021272098645567894,0.25485286116600037,0.04190275818109512,-0.16852885484695435,0.10901179164648056,-0.07193748652935028,-0.162763312458992,0.29063880443573,0.35714244842529297,0.08228231221437454,-0.003632649313658476,0.10165450721979141,-0.20468036830425262,0.00018859033298213035,0.08248850703239441,-0.04527099058032036,0.05761495977640152,-0.16208229959011078,0.15371839702129364,0.009438500739634037,0.06458567082881927,-0.26597633957862854,-0.14522305130958557,-0.016981985419988632,0.06223030760884285,0.29929041862487793,0.06811947375535965,-0.1984580010175705,-0.07252126932144165,-0.03281671553850174,0.3384579122066498,0.033823784440755844,-0.021173322573304176,-0.05978832393884659,-0.07197905331850052,0.3287026882171631,0.14776162803173065,-0.31183624267578125,-0.08419720083475113,-0.015628978610038757,0.1583879441022873,-0.1921507567167282,0.04396089166402817,0.013380968011915684,-0.11005160957574844,0.04668830707669258,0.005503278225660324,0.01980709470808506,-0.027997231110930443,-0.1266430765390396,0.23120848834514618,-0.3012554347515106,-0.29536622762680054,0.014091701246798038,0.14918504655361176,-0.2780243456363678,0.15820281207561493,0.014905211515724659,-0.31389448046684265,-0.05232619866728783,0.20654553174972534,0.052981842309236526,-0.014439782127737999,-0.29717838764190674,-0.06314757466316223,-0.1400306224822998,-0.07474340498447418,0.16384191811084747,-0.057333916425704956,0.161335289478302,-0.09044567495584488,-0.017718307673931122,-0.10841399431228638,0.2704083025455475,0.1304883509874344,-0.0026881799567490816,0.04673032462596893,-0.05672476440668106,-0.0030550039373338223,0.328297883272171,-0.17667482793331146,0.03957875818014145,-0.04935739189386368],[-0.16350972652435303,0.12626972794532776,-0.058749720454216,0.03491552546620369,0.060254160314798355,-0.052116185426712036,0.2640876770019531,0.01933877356350422,-0.07120004296302795,0.0486198291182518,-0.18064574897289276,0.4644835889339447,0.2685387134552002,-0.02043217420578003,-0.1876741349697113,-0.15928928554058075,0.17887750267982483,0.10743477940559387,-0.5961450934410095,-0.2605011463165283,0.3334766626358032,0.3369700312614441,0.3313489258289337,-0.24491377174854279,0.11902809888124466,-0.21290656924247742,0.04806794598698616,0.2910763919353485,-0.15382833778858185,0.19781866669654846,0.31565526127815247,-0.23860135674476624,0.4609288275241852,-0.0730193704366684,-0.253109872341156,-0.025663604959845543,-0.12908698618412018,-0.15244033932685852,-0.07128609716892242,0.22449618577957153,-0.21121077239513397,0.32909446954727173,0.10409197211265564,0.10842859745025635,-0.20014390349388123,-0.09065171331167221,0.04969307407736778,0.16615957021713257,-0.11920089274644852,0.2660130560398102,-0.08837694674730301,-0.19758135080337524,0.2588323950767517,0.03165639191865921,-0.2038862705230713,0.08644130080938339,-0.13351163268089294,0.03129272535443306,0.23768721520900726,0.20713156461715698,0.36974674463272095,-0.021599112078547478,-0.07639799267053604,-0.029143087565898895,0.42774105072021484,-0.18003156781196594,-0.18067720532417297,-0.5772427320480347,-0.38733434677124023,0.3889492154121399,-0.15077030658721924,0.12933622300624847,0.07285751402378082,0.13921914994716644,-0.2013903707265854,-0.33822178840637207,-0.11470064520835876,0.07630147784948349,0.33103567361831665,-0.08162553608417511,0.0762224793434143,0.007267186883836985,0.2848373055458069,0.011497320607304573,0.2458977848291397,-0.3154156506061554,0.14460933208465576,-0.23760445415973663,-0.05444871634244919,-0.14473718404769897,-0.1667032688856125,0.2276952862739563,0.2448323518037796,0.30832090973854065,0.02997085265815258,0.046521302312612534,-0.029117438942193985,0.02541123330593109,-0.10894067585468292,0.1998843103647232,-0.16925446689128876,-0.03665801137685776,-0.035897813737392426,0.3773016035556793,0.0017667094944044948,0.09792467206716537,-0.35695430636405945,0.17022578418254852,-0.06514198333024979,0.07083195447921753,-0.27205970883369446,0.23113730549812317,0.11182308942079544,-0.11702948063611984,-0.38135620951652527,0.22937624156475067,0.1323648989200592,0.016120797023177147,-0.026356881484389305,-0.33654454350471497,0.1836082935333252,0.0036522240843623877,0.2843642234802246,-0.092230424284935,-0.3340422213077545,-0.04906037822365761,0.1205810084939003,-0.12872347235679626,-0.22726069390773773,-0.1921161413192749,0.15859538316726685,0.39690300822257996,-0.20562787353992462,-0.001042243791744113,0.2578449547290802,-0.23181094229221344,0.12917649745941162,-0.20550283789634705],[-0.011333469301462173,-0.03124384954571724,-0.13750045001506805,0.13953734934329987,0.5107643604278564,0.004061672370880842,-0.0010904427617788315,-0.23796327412128448,-0.15523841977119446,-0.15435470640659332,0.22968092560768127,0.2940431237220764,-0.023371119052171707,-0.06142042204737663,0.196648508310318,-0.03981833904981613,0.24916012585163116,0.19149473309516907,-0.29888495802879333,-0.21663497388362885,0.0062020947225391865,0.17189815640449524,-0.2512310743331909,-0.0066895210184156895,0.25387564301490784,-0.1262495070695877,-0.07089343667030334,0.28147685527801514,0.16477054357528687,0.06232788413763046,-0.2711976170539856,-0.40886324644088745,-0.15159641206264496,-0.004168039187788963,0.15435580909252167,-0.20649315416812897,0.5232616066932678,-0.10821504145860672,-0.08027322590351105,-0.16238252818584442,-0.23432950675487518,0.1230546310544014,-0.28150704503059387,0.021611301228404045,0.13197919726371765,0.21891839802265167,-0.13642100989818573,-0.05428968742489815,-0.29520684480667114,0.11489256471395493,-0.06324009597301483,-0.2602621614933014,-0.05299949645996094,-0.3195965588092804,-0.04910831153392792,0.10385362803936005,-0.3602813482284546,0.0840495377779007,0.09989161789417267,-0.021691109985113144,-0.2756669819355011,0.05369534343481064,-0.03146050125360489,-0.05092044174671173,-0.3191525340080261,-0.1740659922361374,0.08154807239770889,0.18245384097099304,-0.14081935584545135,0.23767222464084625,0.07597571611404419,0.046865832060575485,0.18616466224193573,-0.27799513936042786,-0.22312718629837036,-0.19735640287399292,0.21782226860523224,-0.05642959102988243,0.12370532006025314,0.06583321839570999,-0.15436697006225586,0.10520327836275101,-0.3467647433280945,0.09868567436933517,0.11761964112520218,-0.28329554200172424,-0.027329223230481148,0.19018356502056122,-0.03762982040643692,0.11717280000448227,-0.19912727177143097,-0.14441952109336853,-0.11952932924032211,-0.2182571440935135,-0.05204635486006737,0.008641167543828487,-0.1610763818025589,-0.20623475313186646,-0.2781541645526886,0.11048664152622223,-0.020654743537306786,-0.0012172739952802658,0.01712353155016899,-0.06526216119527817,0.004170599859207869,-0.05553315207362175,0.05054616183042526,0.20249836146831512,0.07852117717266083,0.09172731637954712,0.027329569682478905,-0.357954740524292,-0.41206908226013184,-0.14263464510440826,0.20567207038402557,0.11274659633636475,-0.0005927290767431259,-0.15326254069805145,-0.022742316126823425,-0.15769541263580322,-0.07512009143829346,0.0044979979284107685,0.0002119793207384646,0.011356237344443798,-0.1117134690284729,-0.016148101538419724,-0.15589824318885803,-0.058116305619478226,0.17899495363235474,0.23852618038654327,-0.11602697521448135,-0.09376826137304306,-0.2028714418411255,0.0719393938779831,-0.06868459284305573,-0.15047574043273926,0.04131684824824333,0.07139807194471359],[-0.09984814375638962,0.05691302567720413,0.10827837139368057,0.26514896750450134,-0.30053821206092834,-0.274597704410553,-0.12404787540435791,-0.14569991827011108,0.19915986061096191,0.2972300350666046,0.19268165528774261,-0.22046193480491638,0.10877138376235962,0.1329418420791626,0.03314736858010292,0.023984260857105255,-0.17042158544063568,-0.18603022396564484,0.3251536190509796,-0.1773691475391388,-0.26026642322540283,-0.1765085905790329,0.1690797507762909,0.08457383513450623,-0.0033076682593673468,0.2901321351528168,-0.26877373456954956,0.08143444359302521,-0.09086009860038757,-0.021718546748161316,-0.2143908590078354,0.43500006198883057,0.10728111118078232,0.03928759694099426,-0.1806408017873764,0.07936728745698929,-0.10247879475355148,0.12623320519924164,-0.24041444063186646,0.20204682648181915,0.2887935936450958,0.170359805226326,-0.07199808210134506,-0.072980135679245,0.08740287274122238,-0.2855726480484009,-0.04298483952879906,-0.04876619204878807,-0.3187553286552429,-0.06480307132005692,-0.15636488795280457,-0.18064381182193756,-0.045025769621133804,0.06310568749904633,0.525474488735199,-0.4239997863769531,0.2805817425251007,-0.17425471544265747,-0.047146450728178024,0.07285040616989136,-0.04818332940340042,0.47931429743766785,-0.025899449363350868,-0.423597127199173,0.1165008619427681,-0.20301581919193268,0.33872443437576294,0.04939759522676468,0.11582733690738678,-0.05370938777923584,-0.2150694876909256,0.2703608572483063,-0.1880941540002823,0.12171794474124908,-0.08755131810903549,0.09079190343618393,-0.2168506383895874,0.047528885304927826,-0.20024928450584412,0.028363201767206192,-0.00045813940232619643,0.015733374282717705,-0.13626396656036377,0.20335951447486877,-0.16354458034038544,0.14181005954742432,0.04449901357293129,0.03296654298901558,0.0631285309791565,-0.2626406252384186,-0.05810405686497688,-0.1918516904115677,-0.03051943890750408,-0.06144304573535919,0.11002815514802933,-0.03691855072975159,-0.09789551794528961,0.10255349427461624,0.2975047826766968,-0.03374010697007179,0.0868840143084526,0.044865094125270844,0.2400914430618286,0.036964092403650284,-0.32934650778770447,0.3128369152545929,-0.2055148333311081,0.13569748401641846,-0.0576254203915596,0.005773935467004776,-0.06388132274150848,0.2527786195278168,0.07567411661148071,0.15519948303699493,0.4004743695259094,0.12379573285579681,-0.17926092445850372,-0.033239491283893585,0.09684029221534729,-0.04779498651623726,-0.13574574887752533,-0.01849941536784172,-0.11822125315666199,-0.022554172202944756,-0.04990362003445625,-0.027951957657933235,0.2319091111421585,0.21390242874622345,0.03700197860598564,-0.02976897917687893,0.1866651475429535,-0.11462371051311493,0.3396802544593811,0.032504044473171234,-0.1944429874420166,-0.023498468101024628,-0.11705327033996582,0.12333624809980392],[0.10567989200353622,-0.19463621079921722,-0.12222647666931152,0.11702035367488861,0.14366845786571503,-0.1673823595046997,-0.14127343893051147,-0.07286325097084045,0.15847310423851013,0.40418827533721924,-0.006404666230082512,0.17254048585891724,0.03154712915420532,0.19805289804935455,0.0857047364115715,0.03502829000353813,-0.06372804194688797,0.11341476440429688,0.12655828893184662,0.3337092995643616,-0.13252140581607819,0.1543886810541153,-0.047551047056913376,0.017205264419317245,-0.03689402714371681,-0.02005065232515335,-0.007266731467097998,0.1716039627790451,0.31802183389663696,-0.21615660190582275,0.022760020568966866,-0.22078660130500793,0.0529186949133873,0.06699877232313156,-0.2609921991825104,-0.07991109788417816,0.353131502866745,-0.015013156458735466,-0.15300247073173523,0.03237392008304596,-0.2647647559642792,-0.04169466346502304,-0.02733682096004486,-0.2566229999065399,0.32022684812545776,-0.19734111428260803,0.21479807794094086,-0.18715344369411469,0.02785935252904892,-0.022606177255511284,0.15445995330810547,0.29977327585220337,-0.15420423448085785,-0.12043560296297073,0.3267495632171631,-0.0641046091914177,-0.12632045149803162,0.16040156781673431,0.2982156276702881,-0.007608949672430754,0.3597448766231537,0.25839561223983765,-0.01897244155406952,-0.4152062237262726,0.1645088493824005,-0.1338934600353241,0.000023841605070629157,0.14968319237232208,-0.11681145429611206,-0.5326699018478394,-0.04696052521467209,-0.11337563395500183,0.12880726158618927,-0.1455552726984024,-0.1144072487950325,0.2199276089668274,-0.0288377795368433,0.20166602730751038,-0.0771985873579979,-0.028713408857584,0.10276561230421066,-0.139163538813591,0.10841597616672516,0.3101949393749237,-0.039830442517995834,0.17989496886730194,0.04795750975608826,0.03585898503661156,0.005604173988103867,0.10198564827442169,0.060291141271591187,0.08888252824544907,0.10145219415426254,0.18318989872932434,-0.19324633479118347,-0.230323925614357,-0.139651358127594,0.059769321233034134,0.2756660282611847,0.3463977575302124,-0.08624987304210663,-0.10796735435724258,-0.10650089383125305,-0.007865773513913155,-0.08340930193662643,0.25334247946739197,0.025405587628483772,0.2920825779438019,0.12160487473011017,-0.0585365891456604,0.24016208946704865,-0.22955159842967987,-0.23567232489585876,0.23542755842208862,0.07400880753993988,-0.19007503986358643,-0.5826932787895203,0.42185547947883606,-0.2192307561635971,0.13669723272323608,-0.17741447687149048,-0.03603830188512802,-0.13878707587718964,-0.13516943156719208,0.26121053099632263,0.07209444791078568,0.10142318904399872,0.10228364914655685,0.045605264604091644,-0.12233579158782959,-0.02014431357383728,0.10909226536750793,-0.1130906194448471,0.1628894805908203,-0.17336565256118774,-0.1559986025094986,0.13078652322292328,0.05036526545882225],[0.08670420944690704,0.37425845861434937,-0.15068888664245605,-0.6073017716407776,0.1275530904531479,-0.1122107207775116,0.1856248676776886,-0.43858760595321655,-0.4832269251346588,-0.19125521183013916,-0.027651319280266762,0.0850427970290184,0.3044666349887848,0.06480592489242554,-0.2217046320438385,-0.1945098340511322,-0.3005191683769226,-0.024202225729823112,0.05643076449632645,-0.06144535169005394,-0.1930968165397644,0.19174963235855103,0.3653941750526428,-0.22601699829101562,0.16471096873283386,0.005866087041795254,0.22651435434818268,-0.1675359159708023,0.06954699009656906,0.10483542084693909,0.36240455508232117,0.059676237404346466,-0.010998285375535488,-0.03166196867823601,-0.30718404054641724,-0.35690271854400635,-0.31206414103507996,-0.2118019163608551,-0.1257421374320984,-0.12494289129972458,0.018692268058657646,0.02036893181502819,0.00442966353148222,0.11983068287372589,-0.08300469070672989,0.09237481653690338,0.12925714254379272,0.2248132824897766,-0.5092437863349915,0.14362838864326477,0.16997680068016052,-0.25052377581596375,0.06669502705335617,-0.17629557847976685,-0.3717351257801056,0.23350346088409424,-0.35398241877555847,0.05485500395298004,-0.08162785321474075,-0.03580838814377785,0.6748617887496948,0.145318865776062,0.06474079191684723,-0.02987200953066349,0.031147928908467293,0.09196265786886215,-0.25243666768074036,-0.2365810126066208,-0.3718397915363312,0.28759410977363586,-0.008980578742921352,0.02689739316701889,0.0867074653506279,0.07072623074054718,-0.19767281413078308,-0.19846242666244507,0.34640318155288696,0.17716695368289948,-0.22183077037334442,0.3440290093421936,0.08601077646017075,-0.09384208917617798,0.09472925215959549,-0.6205938458442688,-0.03226755931973457,0.36523422598838806,-0.2188144028186798,-0.16648435592651367,0.16834789514541626,0.08381372690200806,-0.2504161596298218,0.05499366298317909,0.2495126873254776,-0.03432166576385498,-0.04685124754905701,-0.09930327534675598,0.07670822739601135,0.07035805284976959,0.034030731767416,-0.057082511484622955,0.13295309245586395,0.16608896851539612,0.23023894429206848,-0.3019786477088928,0.2904733717441559,-0.029227865859866142,-0.07915148138999939,-0.2845463752746582,0.028183383867144585,-0.2980809211730957,0.2503058910369873,-0.1340886652469635,0.07396068423986435,-0.12472967058420181,0.06880532950162888,0.20651419460773468,-0.005885282531380653,0.1746971756219864,0.03265528753399849,-0.024780649691820145,0.044067032635211945,0.3159623146057129,-0.03316839411854744,0.19171468913555145,-0.28731539845466614,0.008199370466172695,-0.18640495836734772,-0.2903768718242645,0.11278528720140457,0.07469967752695084,0.12384872138500214,-0.08946648240089417,0.09007793664932251,-0.16733267903327942,0.17650055885314941,0.05089753493666649,0.10598021745681763,-0.12206631898880005],[0.000013351054803933948,0.15832598507404327,-0.11068029701709747,0.30089449882507324,0.14539487659931183,-0.3495159447193146,-0.1074250265955925,-0.3384456932544708,-0.22523082792758942,0.12295088171958923,0.1865088790655136,0.07510536909103394,0.4937039613723755,0.2198117971420288,-0.4499320685863495,0.0911572054028511,-0.018978483974933624,-0.2309519648551941,0.10290064662694931,0.0004381932958494872,-0.1675345003604889,0.24145925045013428,-0.13473962247371674,-0.3671456575393677,0.18513377010822296,0.19551150500774384,-0.03666403517127037,0.29666954278945923,0.008799400180578232,-0.058488763868808746,0.2704293429851532,0.09017704427242279,0.10234563052654266,0.0009862595470622182,-0.03696056827902794,-0.1839974820613861,-0.4816579520702362,0.1396622359752655,-0.2441214919090271,-0.02058056741952896,0.14709678292274475,0.0764886662364006,0.12619681656360626,-0.09260829538106918,-0.2521098554134369,-0.08904431760311127,0.03271286562085152,0.2611016035079956,-0.2053779810667038,0.13904166221618652,0.08618615567684174,0.09337110072374344,0.30068832635879517,-0.22016629576683044,0.3368529677391052,0.173243910074234,-0.06453115493059158,0.26682010293006897,0.09491954743862152,-0.05826520919799805,-0.15001972019672394,-0.05915045365691185,-0.006615959573537111,-0.2538077235221863,0.2290540188550949,0.14551930129528046,-0.3162647485733032,0.004657129757106304,-0.08023782819509506,-0.10612265020608902,0.08202625066041946,0.027452701702713966,0.3186891973018646,0.19985736906528473,-0.11267025023698807,-0.23445825278759003,0.27662932872772217,-0.10756783932447433,-0.1665542870759964,0.25980931520462036,-0.136943057179451,0.2927992641925812,-0.17475944757461548,0.23775659501552582,0.1728990525007248,0.07898176461458206,-0.06407593935728073,-0.06842981278896332,-0.08730156719684601,-0.24669502675533295,-0.11532913893461227,-0.15181568264961243,0.22934012115001678,0.24040479958057404,-0.19147485494613647,-0.10599386692047119,-0.405707448720932,-0.05239613354206085,0.08168371021747589,-0.2871589958667755,-0.08396153151988983,0.08009564131498337,0.018473057076334953,0.27032148838043213,0.0755532905459404,0.14926859736442566,0.09421368688344955,0.16649550199508667,0.10565529018640518,0.15129870176315308,-0.3313150405883789,0.2827354073524475,0.0472571924328804,-0.14930717647075653,0.03893733024597168,0.15372566878795624,0.3402310311794281,0.12278088182210922,0.16996082663536072,0.056402742862701416,-0.022892434149980545,0.01292902510613203,-0.06178285554051399,-0.00448229443281889,0.011386203579604626,0.505704402923584,-0.28806614875793457,0.22887468338012695,0.15632151067256927,-0.06501616537570953,0.08053446561098099,-0.2395232617855072,0.1958903819322586,-0.13896511495113373,-0.2918962836265564,-0.020424243062734604,-0.04445439204573631,-0.10693702101707458],[-0.044811829924583435,-0.06510874629020691,-0.17339636385440826,0.3189438283443451,-0.038876019418239594,-0.26651430130004883,0.09758888185024261,-0.07347996532917023,-0.23626260459423065,-0.13204896450042725,0.3849002420902252,-0.08943921327590942,-0.04464220628142357,-0.06546421349048615,-0.11598027497529984,-0.09269417077302933,0.3218240737915039,0.0032012055162340403,-0.28469139337539673,0.1775413155555725,-0.03027397021651268,0.04455137997865677,0.04338458925485611,0.17806072533130646,0.19913963973522186,0.011979876086115837,-0.0739518478512764,0.31183111667633057,0.06189705803990364,-0.2587941586971283,0.14301300048828125,-0.32802918553352356,-0.13457529246807098,-0.038076002150774,0.030427005141973495,0.0709519162774086,0.005022306460887194,-0.01703725755214691,-0.014071671292185783,-0.06897943466901779,0.028899723663926125,0.37051376700401306,0.23657912015914917,0.00771747250109911,0.01972593553364277,0.24118268489837646,-0.09700042754411697,-0.30364805459976196,-0.17392347753047943,0.08584627509117126,-0.06530467420816422,-0.08751480281352997,0.0012052867095917463,-0.26817330718040466,-0.08892685174942017,0.007268069311976433,-0.1509522944688797,0.030229121446609497,0.05012230947613716,0.1612107753753662,-0.42549097537994385,0.16526223719120026,-0.053332578390836716,0.20898310840129852,0.0768347829580307,-0.29260286688804626,0.05485249683260918,-0.0009381594136357307,-0.0407816544175148,0.10629014670848846,0.045361217111349106,0.2854921221733093,0.011463470757007599,-0.26132145524024963,-0.08517090976238251,0.0013912473805248737,0.1714203655719757,0.19508664309978485,0.5109075903892517,0.154184952378273,-0.05167504772543907,0.06760703772306442,-0.0013338451972231269,0.15270964801311493,-0.06799621880054474,-0.4693164527416229,-0.1661875694990158,0.15079693496227264,-0.30730608105659485,-0.22874192893505096,-0.31597644090652466,-0.19808267056941986,-0.045505017042160034,-0.07915188372135162,0.13892531394958496,-0.14047852158546448,0.124064140021801,0.3346574306488037,0.19340473413467407,-0.2865777611732483,-0.199405238032341,-0.41678446531295776,-0.2470562756061554,-0.16188359260559082,-0.0013955098111182451,0.05410681292414665,0.20806477963924408,0.2242194563150406,-0.06298168748617172,0.3466340899467468,-0.10503335297107697,0.42080408334732056,0.06102575361728668,0.06274868547916412,0.10491117089986801,0.07104456424713135,-0.13720650970935822,-0.06673622876405716,-0.15933793783187866,-0.008462337777018547,-0.3001479506492615,-0.05102095380425453,0.1641295701265335,0.042725130915641785,-0.021745584905147552,-0.347832590341568,-0.024272751063108444,0.2737170457839966,0.3632420599460602,-0.10015937685966492,0.1500806361436844,0.14145775139331818,0.36004164814949036,-0.2928084433078766,-0.43980732560157776,0.08031018823385239,0.26548880338668823,0.07320386916399002],[0.16789589822292328,-0.16791768372058868,0.024527590721845627,0.015035300515592098,0.012846965342760086,0.06018573045730591,-0.0341409295797348,-0.047475408762693405,-0.33525240421295166,-0.1563553363084793,0.18172506988048553,0.017095474526286125,0.6508963108062744,-0.17875076830387115,0.03398074954748154,-0.23284345865249634,-0.39049479365348816,-0.11598585546016693,0.1659604161977768,-0.20975974202156067,0.10371743887662888,0.16589665412902832,0.03223609924316406,-0.20426034927368164,-0.22111625969409943,-0.25626763701438904,0.15921424329280853,-0.2753891348838806,-0.07837215065956116,0.19684924185276031,-0.17091739177703857,0.35432177782058716,-0.09020983427762985,-0.0017450806917622685,-0.017897700890898705,-0.4157087802886963,-0.4687339961528778,-0.03523522987961769,0.20138031244277954,-0.13042396306991577,0.14549978077411652,-0.1349383443593979,-0.09254937618970871,0.01043310109525919,0.1487666666507721,0.18703830242156982,0.06448784470558167,-0.041149262338876724,0.31608691811561584,0.06982450932264328,-0.3585284948348999,-0.28605955839157104,0.03617123141884804,-0.22358356416225433,0.2002265304327011,0.0012256760383024812,-0.1229778602719307,0.06020075082778931,-0.04712832719087601,-0.14831382036209106,0.3619951009750366,-0.18119780719280243,-0.004627573769539595,-0.022250670939683914,-0.1057298332452774,0.285650372505188,0.12213832139968872,0.2246152013540268,0.20112735033035278,0.09089910238981247,-0.02772308699786663,-0.3840026557445526,0.13815316557884216,-0.1038251593708992,0.04218975082039833,-0.1632155328989029,-0.14454151690006256,-0.1732046902179718,0.09750336408615112,0.11269314587116241,-0.033952295780181885,0.28486746549606323,-0.33496126532554626,0.34189727902412415,0.05586852878332138,0.13773030042648315,0.3281647562980652,-0.00577734736725688,-0.13618212938308716,0.23346951603889465,0.1321650594472885,-0.045973047614097595,0.4587850272655487,-0.04817958176136017,-0.047516923397779465,-0.20602312684059143,-0.041124287992715836,-0.034399330615997314,0.14087578654289246,-0.14840812981128693,-0.2234308272600174,0.046194735914468765,-0.07853260636329651,-0.35547730326652527,-0.07860615104436874,-0.1358833909034729,0.16403897106647491,-0.06795478612184525,-0.09147508442401886,-0.1612522155046463,0.2560897767543793,-0.10342627763748169,0.011481569148600101,-0.26852530241012573,-0.02451171725988388,-0.17876753211021423,-0.1942703127861023,0.09765148162841797,0.15307272970676422,-0.161789208650589,-0.009108167141675949,0.07405320554971695,-0.2645874619483948,-0.11722815781831741,-0.036623697727918625,0.10423959046602249,-0.02797340601682663,0.0850868970155716,-0.013541108928620815,0.033780232071876526,0.024558424949645996,0.1916406750679016,-0.1846008449792862,0.21073539555072784,0.03230145201086998,-0.12118835747241974,-0.2169015109539032,0.09882419556379318],[-0.15064387023448944,-0.2822423279285431,0.35253873467445374,0.031446099281311035,-0.3239605724811554,-0.07517555356025696,-0.07758315652608871,0.05545438453555107,0.09299290180206299,0.146961510181427,0.050522226840257645,-0.11291595548391342,-0.1950429528951645,0.09932821244001389,-0.15390801429748535,0.0801173597574234,0.061874620616436005,-0.185178741812706,0.10143876075744629,-0.02694823034107685,-0.05176817253232002,0.07619912177324295,0.03304830193519592,0.14931127429008484,-0.06427709013223648,0.07956543564796448,-0.259045273065567,-0.20830093324184418,0.20246121287345886,0.005321624223142862,-0.0778188556432724,0.17231236398220062,0.21130724251270294,0.07280859351158142,0.12939943373203278,-0.018965044990181923,0.19514323770999908,-0.28080469369888306,-0.11036307364702225,0.1285606324672699,-0.016015559434890747,0.17131491005420685,-0.20119786262512207,-0.07205670326948166,0.04749605432152748,-0.0416950024664402,-0.27695322036743164,-0.1821160614490509,-0.05897260829806328,0.003491890849545598,-0.18874521553516388,-0.028177127242088318,0.08512510359287262,-0.5486559271812439,0.15214650332927704,0.14374671876430511,0.18683449923992157,-0.06673602014780045,0.08674244582653046,0.049733974039554596,-0.14375294744968414,0.43512704968452454,-0.06852978467941284,0.10982012748718262,0.19606991112232208,0.05952301248908043,0.03215166926383972,-0.23484793305397034,0.14900395274162292,0.043136660009622574,-0.077859066426754,0.11072322726249695,-0.06052279844880104,-0.1414572298526764,0.17566773295402527,0.35797053575515747,-0.07754108309745789,-0.13788536190986633,-0.15688778460025787,-0.1701877862215042,0.1234271451830864,0.170948788523674,-0.0406823605298996,0.09585393965244293,-0.31325387954711914,0.03406703844666481,-0.1185528114438057,-0.07055094838142395,-0.0061502172611653805,-0.09016471356153488,-0.00589348329231143,-0.16400471329689026,0.09325475990772247,-0.18282011151313782,0.01889423467218876,-0.08848322927951813,-0.02676117792725563,0.044888630509376526,0.28005772829055786,-0.19231103360652924,-0.1632539927959442,-0.1821313500404358,-0.09199292957782745,0.1316487193107605,-0.4257132112979889,-0.31462016701698303,-0.16634118556976318,0.40540650486946106,0.1925448477268219,0.3020370900630951,0.09135355800390244,0.17459233105182648,0.14767974615097046,0.07128392904996872,-0.06884545832872391,0.011440674774348736,-0.46637237071990967,-0.07807771861553192,-0.12025640904903412,0.10397829115390778,-0.08116739988327026,-0.05854496359825134,-0.1048421561717987,0.19911722838878632,-0.02786443941295147,0.20009352266788483,0.04778362810611725,-0.03113624081015587,0.09195598214864731,-0.046898532658815384,0.19946008920669556,-0.02619745209813118,0.4179873764514923,-0.0077294763177633286,-0.09166478365659714,-0.09621132165193558,-0.1910875141620636,-0.047967102378606796],[0.43171149492263794,0.056703127920627594,-0.001421166816726327,0.016018563881516457,0.33334988355636597,-0.006707856897264719,0.36056727170944214,0.19515451788902283,0.39520397782325745,0.21510107815265656,0.11397724598646164,0.059142883867025375,0.2428850531578064,-0.15758618712425232,-0.22597427666187286,-0.0766100063920021,0.2219366431236267,-0.09579431265592575,0.29628974199295044,-0.210247203707695,0.13395939767360687,0.13099262118339539,0.2358061671257019,0.10559241473674774,-0.26762494444847107,0.2973426878452301,-0.04392430931329727,-0.3470301926136017,-0.1703607738018036,-0.08418450504541397,0.01483922265470028,-0.1196289211511612,0.3010495603084564,-0.3138408660888672,0.2497764229774475,0.06805499643087387,-0.5938911437988281,0.32805272936820984,-0.0769362524151802,-0.08040516823530197,-0.43385159969329834,0.37433353066444397,0.18120387196540833,0.10861232876777649,-0.00596722261980176,0.3769531548023224,-0.035861216485500336,0.11475866287946701,-0.09806040674448013,0.2862955927848816,0.025285866111516953,-0.1582498699426651,0.20173364877700806,0.36283737421035767,0.2480711191892624,0.04254266619682312,-0.023269830271601677,0.19896911084651947,0.06334171444177628,0.187520369887352,0.4782058894634247,-0.33204907178878784,-0.4321776330471039,-0.34385621547698975,-0.15904127061367035,0.11276564747095108,-0.1395959109067917,0.001465721521526575,0.4647791385650635,-0.21929509937763214,-0.2497381716966629,0.07571785897016525,-0.11829792708158493,0.21952266991138458,-0.024818144738674164,-0.44182088971138,-0.2534352242946625,-0.05867231637239456,0.1500028371810913,0.18282154202461243,-0.10327550023794174,0.1163061335682869,-0.005430346354842186,-0.17416542768478394,0.08991995453834534,0.17443087697029114,0.449651837348938,-0.25348564982414246,-0.08546792715787888,0.2751052975654602,-0.21782271564006805,0.248479425907135,0.3257129490375519,0.3072064518928528,-0.10664933919906616,0.3302818536758423,0.05054156482219696,0.1723688840866089,-0.2163366675376892,-0.033904314041137695,-0.29651376605033875,-0.019467554986476898,-0.07853952795267105,-0.2897161543369293,0.1980694681406021,-0.10771444439888,0.5183184742927551,0.1422242522239685,0.12118740379810333,-0.16790230572223663,0.02898295596241951,0.36124029755592346,-0.1519935429096222,-0.10421451926231384,-0.3886646032333374,0.20941193401813507,0.12219786643981934,-0.19675427675247192,0.3684067130088806,0.21549765765666962,0.15964294970035553,0.09566053003072739,0.1357087343931198,0.13005003333091736,-0.025418682023882866,-0.08833406865596771,0.03400745615363121,-0.1862981766462326,-0.19282272458076477,-0.25000396370887756,-0.1585962325334549,0.3282262086868286,-0.24805797636508942,0.20435597002506256,-0.13096916675567627,0.1092519462108612,-0.10177478194236755,-0.04862808808684349],[0.1426536738872528,0.0351841002702713,0.06536799669265747,0.10629633069038391,-0.18777517974376678,-0.14100761711597443,-0.06285185366868973,0.10332955420017242,-0.10761737823486328,-0.1555285006761551,0.04663221538066864,-0.10335525125265121,0.04308445379137993,-0.2297239899635315,0.31402480602264404,0.21955382823944092,-0.03678065538406372,-0.021870706230401993,0.24237391352653503,-0.061171095818281174,-0.034848518669605255,0.12388759106397629,0.23670955002307892,-0.03896035626530647,0.09351436048746109,-0.1349658966064453,0.08255589753389359,-0.06349211186170578,0.021296069025993347,-0.10510791838169098,0.1647290289402008,0.002385136904194951,0.1198096051812172,-0.04694076627492905,0.2636812627315521,-0.23851284384727478,-0.05087960883975029,-0.0029146047309041023,0.16977325081825256,-0.4740029573440552,0.27621617913246155,-0.3170064687728882,0.23376628756523132,-0.13210250437259674,-0.02801290713250637,0.14979684352874756,-0.0797206312417984,0.10146558284759521,0.30577969551086426,-0.23340371251106262,-0.07437878847122192,-0.13647599518299103,0.022875765338540077,0.32492363452911377,-0.11428938060998917,0.03017088957130909,-0.006591614801436663,0.008827464655041695,-0.25708264112472534,-0.2656504213809967,0.5408684611320496,-0.08436314761638641,-0.07953397929668427,0.25151538848876953,-0.12214035540819168,0.2113008350133896,-0.03978995978832245,0.3055711090564728,-0.2533106207847595,0.17491814494132996,0.14858020842075348,-0.3110409677028656,-0.08460859954357147,0.16312716901302338,-0.005274597555398941,-0.04604919254779816,0.06169576570391655,-0.1322832703590393,-0.24215950071811676,0.08750422298908234,0.23905804753303528,0.4504604637622833,0.22527483105659485,-0.21301689743995667,0.0715903639793396,0.21970924735069275,-0.3342195451259613,0.22313237190246582,-0.38316816091537476,-0.2615373730659485,0.08453210443258286,-0.20252393186092377,-0.0430159717798233,0.17854277789592743,0.07924274355173111,0.023087235167622566,0.0729106143116951,0.3812163472175598,-0.05841318517923355,-0.11602757126092911,0.13954482972621918,-0.08267243951559067,-0.09880372136831284,-0.333290159702301,0.19433484971523285,0.12106181681156158,-0.06736735999584198,-0.011514225974678993,-0.18059052526950836,-0.1699790507555008,0.23336221277713776,-0.1486266553401947,-0.02863006293773651,0.193548783659935,0.1301826685667038,0.009036182425916195,0.20711344480514526,-0.24140019714832306,-0.07346007227897644,-0.2009178251028061,0.08406375348567963,-0.05607854574918747,0.19988685846328735,-0.1746615618467331,0.19849620759487152,-0.2913331687450409,0.3148592710494995,-0.04505065456032753,0.10043918341398239,0.0171558428555727,0.012667933478951454,0.11598631739616394,-0.25210994482040405,0.08055616170167923,0.009134701453149319,0.36209237575531006,-0.385243684053421,-0.03986936807632446],[-0.11985140293836594,0.12228649109601974,0.2295134961605072,0.18757584691047668,-0.0409029945731163,0.26256701350212097,0.15345506370067596,0.11116483062505722,-0.10267189145088196,-0.06365405023097992,0.1822441667318344,-0.317853718996048,0.2738878130912781,0.04635416343808174,-0.1223682090640068,0.08091671019792557,0.07790403813123703,-0.021682094782590866,0.26565709710121155,-0.28192129731178284,-0.15071415901184082,-0.4775886535644531,0.4009886085987091,0.2827232778072357,-0.05945940688252449,0.4407356381416321,-0.1245718002319336,-0.005170727614313364,0.15308566391468048,-0.1976848840713501,-0.15254946053028107,0.21244406700134277,0.025797706097364426,-0.04160589724779129,-0.05149039626121521,-0.20083796977996826,0.25859007239341736,0.1822361946105957,0.08323828130960464,-0.07618965953588486,0.15161339938640594,0.37730857729911804,0.03981901705265045,0.09810446202754974,-0.0080759571865201,0.053346265107393265,0.1653544008731842,-0.07150590419769287,-0.0023378285113722086,0.12958157062530518,0.2764691710472107,-0.2966502904891968,0.34352102875709534,0.10865644365549088,-0.37339597940444946,0.24345876276493073,0.17890208959579468,-0.19224813580513,0.12411804497241974,0.00896446406841278,-0.016645057126879692,0.2498972862958908,-0.09558624029159546,0.19155806303024292,0.18776512145996094,0.11171852052211761,0.014678451232612133,-0.1846240758895874,-0.6966096758842468,0.06624139845371246,0.19517673552036285,0.48412734270095825,-0.04323357343673706,-0.111213319003582,0.36856961250305176,-0.0685560554265976,0.26030877232551575,0.27679207921028137,-0.0433320589363575,-0.05152880772948265,0.09357118606567383,0.14106178283691406,0.08146259188652039,0.014141551218926907,0.21421591937541962,-0.2089102417230606,0.21320953965187073,-0.16557878255844116,0.20972281694412231,0.32831358909606934,-0.31953832507133484,0.0345720611512661,0.38032129406929016,0.16191676259040833,-0.026842566207051277,-0.22574977576732635,0.20267492532730103,0.2190130650997162,0.13015809655189514,-0.13469330966472626,0.39513832330703735,0.5733965635299683,0.06968457996845245,0.019113760441541672,0.1583278328180313,-0.20416207611560822,-0.3353676199913025,0.059538744390010834,-0.012443176470696926,0.26220962405204773,-0.18329761922359467,0.22851072251796722,0.35632723569869995,-0.2601062059402466,-0.15223044157028198,0.16886208951473236,0.5691503286361694,-0.14762692153453827,0.18013575673103333,0.458534300327301,0.2581438720226288,-0.0841478705406189,-0.24260975420475006,-0.20020152628421783,-0.27296000719070435,-0.045432016253471375,0.26010146737098694,0.3083397448062897,0.004404281731694937,-0.09257287532091141,0.10884369909763336,-0.1254192441701889,-0.05644189193844795,-0.14545658230781555,0.249665766954422,-0.32349780201911926,0.06949397921562195,0.11127500981092453],[-0.01347302831709385,0.02970993146300316,-0.09009353071451187,0.08291087299585342,-0.4794638156890869,-0.19423338770866394,-0.34133318066596985,0.2175903022289276,0.056537430733442307,0.12487035989761353,-0.05476398020982742,-0.07087544351816177,0.16732220351696014,-0.03414960578083992,0.1315343677997589,-0.10268077999353409,-0.08664406836032867,-0.035213060677051544,0.0709601640701294,-0.1921817660331726,-0.13728390634059906,0.04972148686647415,-0.19335712492465973,-0.09058517217636108,-0.540797770023346,0.20317363739013672,0.09213238954544067,-0.28713423013687134,0.051466602832078934,-0.24433261156082153,-0.4585074484348297,0.16657669842243195,-0.40630796551704407,-0.08628621697425842,-0.10898717492818832,0.17600677907466888,0.2247442901134491,0.3707927167415619,0.25648969411849976,0.05225135385990143,0.059922415763139725,0.23626944422721863,-0.06910132616758347,0.24992425739765167,0.19012752175331116,-0.1953108161687851,-0.26073288917541504,-0.08225053548812866,-0.1771766096353531,-0.34085917472839355,-0.08525199443101883,0.058341700583696365,0.22580558061599731,-0.21575722098350525,-0.013787562027573586,-0.13801471889019012,0.051765937358140945,0.2481408268213272,0.14799518883228302,-0.031218215823173523,0.0500837080180645,-0.3898415267467499,0.04823420196771622,0.247219979763031,-0.021083246916532516,-0.42502981424331665,0.18833626806735992,-0.05697932466864586,0.061003755778074265,0.3170011043548584,-0.08404921740293503,-0.2610662877559662,-0.23173022270202637,0.014325289987027645,-0.054122745990753174,0.288546085357666,-0.22348108887672424,0.01478187832981348,0.30092138051986694,0.36064547300338745,0.18085744976997375,0.19457606971263885,-0.16319887340068817,0.09344764053821564,0.07419705390930176,-0.21892321109771729,-0.20994196832180023,0.14466646313667297,-0.19542424380779266,-0.16813863813877106,-0.04494522884488106,-0.16483506560325623,0.17447271943092346,-0.08023357391357422,0.06963824480772018,0.2452685683965683,0.00036399485543370247,-0.05106166750192642,-0.115696020424366,0.07595457136631012,0.07239490002393723,-0.30568617582321167,0.2273191660642624,0.40345299243927,0.12695342302322388,-0.35663220286369324,-0.21624183654785156,-0.23009000718593597,-0.03136376664042473,-0.05924637243151665,-0.08422428369522095,-0.2487434595823288,-0.583675742149353,-0.11349276453256607,-0.06249840930104256,-0.0949326679110527,0.25978338718414307,-0.07710013538599014,-0.32319769263267517,-0.4395889341831207,-0.053866565227508545,0.06817968189716339,-0.05140426382422447,-0.009077719412744045,-0.029790980741381645,-0.018189264461398125,0.4078638553619385,-0.13884517550468445,0.04129820317029953,0.11951475590467453,-0.04346264898777008,-0.137311190366745,-0.27060049772262573,0.16845685243606567,-0.2170187532901764,-0.44743481278419495,-0.1569104790687561,-0.05809538811445236],[-0.045973967760801315,0.017021039500832558,-0.0985829159617424,-0.3538282811641693,0.10623502731323242,-0.018747780472040176,-0.25637081265449524,-0.24809491634368896,0.3440127968788147,0.3786401152610779,-0.22776208817958832,0.5364153981208801,0.06392322480678558,0.09454365819692612,-0.1919117122888565,0.059478774666786194,0.17212776839733124,-0.10311565548181534,-0.3784799873828888,0.2682994306087494,-0.20020143687725067,-0.17427965998649597,-0.18800930678844452,0.1503363400697708,0.007654526736587286,0.08376403152942657,0.1949096918106079,0.08175930380821228,-0.3083725869655609,0.023092439398169518,0.18660899996757507,-0.36219510436058044,-0.07475577294826508,0.10544750094413757,-0.11011943221092224,0.07527592033147812,-0.23843973875045776,-0.16017760336399078,0.0052319238893687725,0.17891736328601837,-0.11555879563093185,-0.2811708450317383,0.12571299076080322,0.11641114205121994,-0.02855926938354969,-0.12579968571662903,0.3411688208580017,0.16129924356937408,0.01719466596841812,0.09553774446249008,0.05097155645489693,0.33946654200553894,-0.0030349220614880323,0.14715169370174408,0.03419168293476105,0.2765697240829468,-0.00017934595234692097,-0.10817541182041168,0.20823946595191956,0.09992114454507828,0.5700873136520386,-0.055504895746707916,0.07324055582284927,0.18969416618347168,0.19128477573394775,0.1165059357881546,0.15348221361637115,-0.17681832611560822,0.004041220527142286,0.13191887736320496,-0.22572162747383118,-0.2122620940208435,0.25768980383872986,0.11641073226928711,-0.08572794497013092,-0.5068237781524658,-0.06367652118206024,0.18073083460330963,0.010206829756498337,0.3072492778301239,0.0980011373758316,-0.25548192858695984,-0.25604555010795593,-0.12639379501342773,0.07025347650051117,-0.0009218040504492819,-0.06239108368754387,-0.22175703942775726,0.3539617359638214,-0.3139667809009552,-0.19524000585079193,-0.24960735440254211,0.013619272969663143,-0.19221845269203186,-0.020541923120617867,0.10662589967250824,0.13070280849933624,0.09854310750961304,0.22040188312530518,0.03942105546593666,0.08786407113075256,0.3221098780632019,0.05461348220705986,0.04205985367298126,-0.21349501609802246,0.041834961622953415,0.003410745644941926,0.08314590156078339,0.014675963670015335,0.3280739188194275,-0.011272314935922623,-0.10243336856365204,0.27995505928993225,-0.3119507133960724,-0.08073397725820541,0.18081870675086975,-0.1517433226108551,0.2177126556634903,-0.19826577603816986,-0.012624304741621017,0.12728694081306458,0.2876780033111572,0.22561892867088318,0.053355101495981216,-0.15356267988681793,0.022651130333542824,-0.10505697131156921,0.14711962640285492,-0.2904698848724365,-0.06805960834026337,0.16481155157089233,-0.3903895616531372,0.13610489666461945,0.013073456473648548,0.07789445668458939,0.14522334933280945,0.2463037371635437,0.21503135561943054],[-0.39384257793426514,0.0016126723494380713,0.19589410722255707,-0.13864463567733765,0.45452526211738586,-0.13269421458244324,0.1190594956278801,-0.12501077353954315,0.031249625608325005,-0.11765016615390778,-0.10615608096122742,0.3853149712085724,-0.11245381087064743,-0.003994222264736891,-0.4798237681388855,0.284689337015152,0.08051566034555435,-0.2187894880771637,-0.0880146473646164,-0.023013757541775703,0.21317026019096375,0.0945834368467331,-0.16378164291381836,0.289672315120697,-0.11488763242959976,0.02370546944439411,0.05766681581735611,-0.09213905036449432,0.1861027330160141,0.14815720915794373,0.017501749098300934,-0.12694638967514038,-0.1671006679534912,0.03759090602397919,0.2987578809261322,-0.09610969573259354,-0.1427077203989029,0.21077516674995422,-0.06428037583827972,-0.16386662423610687,-0.08260755985975266,0.2554539740085602,0.21967945992946625,-0.21430425345897675,-0.0963909924030304,-0.07767970114946365,-0.2985572814941406,0.5221496820449829,-0.19129818677902222,-0.1094636544585228,-0.04711568355560303,-0.010954555124044418,0.40292391180992126,0.33214375376701355,-0.07313059270381927,-0.22930309176445007,0.033803168684244156,-0.03615882992744446,-0.10139854997396469,-0.013595285825431347,-0.8034157156944275,0.08927963674068451,-0.06868153065443039,-0.0497741624712944,0.06943301111459732,-0.255808562040329,0.17413382232189178,-0.09291159361600876,0.3024132549762726,-0.05794296786189079,0.007453999947756529,0.24909311532974243,-0.11647513508796692,-0.2474672794342041,0.23555290699005127,-0.6967124342918396,-0.26402413845062256,-0.012050040066242218,0.40903374552726746,0.4669758975505829,0.05177838355302811,0.22658877074718475,-0.13601285219192505,-0.042572420090436935,-0.24529926478862762,-0.013503238558769226,-0.2776884436607361,-0.06013447791337967,0.3786638379096985,-0.10372079163789749,0.060859713703393936,-0.044961169362068176,0.13110926747322083,-0.04755368083715439,-0.18452991545200348,-0.09054269641637802,0.24455444514751434,-0.15137943625450134,-0.3263395428657532,-0.021357553079724312,-0.019983381032943726,-0.11132385581731796,-0.06903295964002609,-0.1834390014410019,-0.20538194477558136,0.13174369931221008,0.14334270358085632,0.20362959802150726,0.030602918937802315,-0.07109207659959793,-0.3080301582813263,0.31160464882850647,0.16173696517944336,-0.027314573526382446,0.2482409030199051,0.07554320245981216,-0.015764685347676277,-0.2366141676902771,0.11595670878887177,0.46808797121047974,-0.02153792977333069,0.12646278738975525,0.08056019246578217,0.12452821433544159,-0.07740438729524612,-0.2861723303794861,-0.0598904974758625,-0.22232650220394135,0.2372795194387436,0.07519853860139847,0.020923040807247162,0.02243243344128132,-0.17749005556106567,-0.11165831238031387,-0.16963504254817963,-0.4080260396003723,0.07999053597450256,0.119477778673172],[0.20561040937900543,-0.16041776537895203,-0.2513847351074219,0.1058870255947113,-0.09501220285892487,-0.33682718873023987,-0.02975419908761978,0.354046106338501,-0.31548020243644714,0.08459437638521194,0.1132553443312645,-0.38969865441322327,0.11263357847929001,0.12747441232204437,-0.08889932930469513,0.5564026236534119,-0.06346341222524643,0.2422063648700714,0.541390597820282,-0.1177249625325203,0.20465189218521118,0.10561046749353409,-0.05859135463833809,0.13178418576717377,-0.1100306436419487,0.338515967130661,0.04229113832116127,-0.4074041545391083,0.17289526760578156,-0.1359717696905136,0.22556234896183014,0.16080766916275024,-0.3494098484516144,-0.37361088395118713,-0.27371251583099365,0.328938752412796,-0.0999031737446785,0.3172360062599182,0.13499245047569275,-0.1610260158777237,0.2984161972999573,0.23121453821659088,-0.006207305006682873,0.09964759647846222,0.0023229720536619425,0.11480872333049774,-0.14576728641986847,-0.14865031838417053,0.13948774337768555,0.16017509996891022,0.14031143486499786,-0.002055294346064329,0.09272120147943497,0.5317123532295227,0.35723841190338135,-0.2044219970703125,0.39608410000801086,-0.18647673726081848,0.1205059289932251,-0.0027685808017849922,-0.1893874555826187,0.22300593554973602,0.37387698888778687,-0.4957202970981598,-0.3241977095603943,-0.2847869098186493,0.022094685584306717,0.12195871770381927,0.015474092215299606,-0.18689745664596558,0.12385573238134384,0.2059851884841919,-0.16312584280967712,-0.11499528586864471,0.1307011842727661,-0.24476967751979828,0.04346059635281563,0.31778964400291443,-0.1467735320329666,-0.26726096868515015,-0.1324780434370041,-0.15325181186199188,0.1943913996219635,0.34402352571487427,-0.23083744943141937,0.31483280658721924,-0.032250288873910904,-0.2568426728248596,0.17107845842838287,-0.12366984784603119,0.017489174380898476,0.15731319785118103,0.25823143124580383,-0.002968813292682171,-0.2029067873954773,-0.15867522358894348,0.15192851424217224,0.10850715637207031,0.13445554673671722,0.04733480513095856,-0.1782837212085724,0.06509683281183243,-0.25118935108184814,-0.14927993714809418,0.04761362075805664,0.09450192004442215,0.034821223467588425,0.3325600028038025,0.2739916443824768,-0.006974540650844574,-0.22067320346832275,-0.33562931418418884,0.0440894290804863,0.3733097016811371,0.27195680141448975,-0.3313402831554413,-0.03563063219189644,-0.4039294123649597,0.14122536778450012,0.5398502349853516,0.2877027094364166,-0.06386224925518036,0.11753229051828384,-0.28296759724617004,-0.12970393896102905,0.06842160224914551,-0.08121735602617264,0.12130357325077057,-0.36250340938568115,-0.03316090255975723,-0.0005404130206443369,0.13250431418418884,0.06312568485736847,-0.25218498706817627,-0.5274220705032349,-0.11839831620454788,0.011376521550118923,-0.22694694995880127],[-0.0721757560968399,-0.006232109386473894,-0.017994217574596405,-0.3660757839679718,-0.3202628195285797,0.06298179924488068,-0.1562012881040573,-0.29657548666000366,-0.1061253696680069,-0.2444041222333908,-0.13523295521736145,0.0534730963408947,0.23148778080940247,0.058374274522066116,-0.2004893720149994,-0.3503306806087494,-0.2659127116203308,-0.04935584217309952,-0.0654376745223999,0.17177267372608185,0.07049895823001862,0.32284462451934814,0.024062469601631165,-0.12585905194282532,-0.0863756537437439,0.16682644188404083,-0.08236540853977203,-0.4020611643791199,-0.4196174740791321,0.1381872147321701,-0.11045663058757782,0.07210475951433182,-0.13560901582241058,-0.1588558703660965,-0.010625568218529224,0.13005974888801575,0.12914060056209564,-0.06469056010246277,-0.10478569567203522,0.06632906943559647,-0.048375193029642105,0.03288760036230087,-0.21474996209144592,0.40796107053756714,-0.048796772956848145,0.29960355162620544,0.014302216470241547,0.26282164454460144,-0.3609170615673065,0.10865532606840134,0.19798292219638824,0.07928039878606796,0.20188188552856445,-0.021137410774827003,-0.14918816089630127,0.18170079588890076,-0.024194346740841866,0.20390348136425018,-0.060054127126932144,-0.055514682084321976,-0.013728571124374866,-0.002295765560120344,-0.198717400431633,-0.32912176847457886,0.030118083581328392,0.11679090559482574,-0.14610201120376587,-0.3710232675075531,-0.09192698448896408,0.21514472365379333,0.055522117763757706,0.16684985160827637,0.13467270135879517,0.03538557142019272,-0.20278023183345795,-0.09600967913866043,0.017080646008253098,-0.10073521733283997,-0.1372550129890442,-0.04140648618340492,0.055205363780260086,-0.20596428215503693,-0.2144070714712143,-0.30594173073768616,0.0007969866856001318,0.2500384747982025,0.23582789301872253,-0.04751376435160637,-0.10302745550870895,-0.0685809925198555,0.2153603434562683,-0.2813573479652405,0.008422990329563618,-0.33488863706588745,0.15576021373271942,0.05423477664589882,0.00611336063593626,-0.21848832070827484,0.1990172117948532,0.4762757420539856,0.21754588186740875,0.7496344447135925,0.07649469375610352,-0.28892460465431213,0.23878709971904755,-0.24260224401950836,0.11061901599168777,0.017914634197950363,-0.15364597737789154,-0.0033180671744048595,0.02308942936360836,-0.054988794028759,0.12938641011714935,-0.23811498284339905,0.20811891555786133,0.031523264944553375,0.17644746601581573,-0.10199571400880814,0.12414475530385971,-0.40588653087615967,-0.2588552236557007,0.26221963763237,0.01773976720869541,0.004065363202244043,-0.19705188274383545,-0.19132736325263977,0.06442733854055405,-0.4154894948005676,0.06555600464344025,-0.04272539168596268,0.0673854872584343,0.10154497623443604,0.04763688147068024,0.2173546701669693,0.16466625034809113,-0.3569974899291992,0.16223664581775665,0.0960429459810257],[0.030834997072815895,0.12452356517314911,0.16699761152267456,0.027361707761883736,0.445016473531723,0.19444748759269714,-0.09242292493581772,-0.2941959500312805,0.24563448131084442,0.05159909278154373,0.01645829528570175,0.33370473980903625,0.09519172459840775,-0.06693445146083832,-0.017333418130874634,0.11009319871664047,-0.18061785399913788,0.17707829177379608,-0.1501709222793579,0.23220117390155792,0.022733192890882492,0.25001776218414307,0.3053262531757355,-0.006087162531912327,-0.16622944176197052,-0.03062167949974537,0.1989297717809677,-0.08039477467536926,-0.2861548364162445,-0.03490141034126282,-0.32919779419898987,-0.17241056263446808,-0.34148338437080383,0.0037102364003658295,-0.38544487953186035,-0.3810912072658539,-0.2194448560476303,0.20923566818237305,0.20733757317066193,-0.3229244351387024,-0.24512851238250732,0.11325610429048538,-0.14903832972049713,-0.13878172636032104,0.09636019915342331,-0.1651688665151596,0.09764067083597183,-0.16404755413532257,0.2514682114124298,-0.021116595715284348,-0.03732171654701233,0.028450120240449905,-0.2741827666759491,0.16579023003578186,0.10382241010665894,-0.0014753310242667794,0.30076873302459717,0.039837416261434555,0.16004586219787598,-0.06284909695386887,-0.2463291585445404,0.26478999853134155,-0.07364089787006378,0.1276967078447342,-0.048659369349479675,0.17400388419628143,0.019905202090740204,0.09307368844747543,-0.11169809848070145,-0.21597592532634735,0.2313772290945053,-0.2352990210056305,0.40686526894569397,-0.35296404361724854,0.3522331714630127,0.05668674036860466,0.013633458875119686,0.14520539343357086,-0.05429710075259209,0.10818113386631012,-0.07559854537248611,-0.11193707585334778,-0.31143075227737427,0.27587825059890747,0.03857248276472092,0.24861778318881989,-0.29764485359191895,-0.07155461609363556,0.5818081498146057,0.23068730533123016,-0.052824247628450394,-0.033538561314344406,-0.09389664977788925,-0.16487206518650055,-0.11687051504850388,-0.09384773671627045,0.328419953584671,-0.20398017764091492,-0.03100706823170185,0.06888587772846222,-0.02415393851697445,0.36370834708213806,-0.0077738710679113865,-0.14636172354221344,0.1409953534603119,-0.3259066045284271,-0.1464681476354599,0.0181726086884737,0.05784846842288971,-0.2250862419605255,-0.08548790961503983,-0.4613471031188965,0.046315837651491165,-0.19339628517627716,-0.17007119953632355,-0.31874170899391174,0.08458878099918365,0.08742731064558029,0.0649263933300972,0.3596278727054596,0.10890659689903259,-0.04599310830235481,0.23707042634487152,-0.33438640832901,-0.06490951031446457,-0.07445723563432693,-0.27368345856666565,-0.0657951608300209,-0.13756141066551208,-0.0018303049728274345,0.11312537640333176,-0.43234527111053467,0.05322250351309776,0.061598386615514755,-0.17906588315963745,0.12014475464820862,-0.07254327833652496,0.21581482887268066],[-0.018185945227742195,0.11994792520999908,-0.0002909510221797973,0.03696450591087341,0.12571610510349274,0.09380947798490524,-0.017326081171631813,-0.15941211581230164,0.2442721426486969,0.24314510822296143,0.0016969097778201103,0.14844949543476105,0.14241810142993927,-0.12467172741889954,-0.08883903920650482,-0.23918022215366364,-0.10396777093410492,-0.2173159420490265,-0.5125623941421509,0.3454838991165161,-0.03377009555697441,0.18085971474647522,-0.27202266454696655,-0.18805760145187378,0.013713600113987923,0.41709235310554504,-0.24691340327262878,-0.012594236992299557,-0.3515861928462982,-0.11962445080280304,-0.06995482742786407,-0.1994282603263855,0.2914990484714508,0.03842392563819885,-0.24726106226444244,-0.3782055974006653,-0.022329512983560562,0.18002119660377502,-0.10362787544727325,-0.16426514089107513,-0.3421385884284973,-0.04021124169230461,-0.37094733119010925,0.313404381275177,-0.06245385482907295,-0.14761295914649963,0.22196321189403534,0.2001114785671234,-0.09434136748313904,0.13339290022850037,-0.19005948305130005,0.1856895536184311,0.1488543003797531,0.05564974620938301,-0.09262355417013168,0.3296598792076111,-0.4433469772338867,0.16344501078128815,0.15155074000358582,0.4326187074184418,0.2600468099117279,0.010752854868769646,-0.1326054334640503,0.17776155471801758,0.004528737161308527,0.18223737180233002,-0.437622994184494,-0.42663973569869995,-0.25450241565704346,0.19987760484218597,0.02536112070083618,0.21187596023082733,0.18379469215869904,0.0723591223359108,-0.21682769060134888,0.09578385949134827,