[[-0.15987880527973175],[-0.05887039005756378],[0.15518347918987274],[0.09769490361213684],[0.12449946254491806],[-0.2059510201215744],[0.22331778705120087],[0.016118045896291733],[0.014431682415306568],[-0.112955741584301],[-0.2240297496318817],[-0.08581190556287766],[0.3155430257320404],[-0.06612376123666763],[-0.02536110207438469],[-0.06900808215141296],[-0.22569964826107025],[-0.10179123282432556],[0.06447696685791016],[0.19373588263988495],[0.17977915704250336],[-0.16138841211795807],[-0.16347873210906982],[-0.014227536506950855],[0.06250247359275818],[-0.2046739161014557],[0.17198508977890015],[0.21702449023723602],[-0.14443477988243103],[-0.1532743275165558],[0.03293289244174957],[0.07073914259672165],[0.25207018852233887],[0.0849137008190155],[-0.059551533311605453],[-0.25584402680397034],[0.19076628983020782],[-0.06608126312494278],[-0.24763453006744385],[-0.19132231175899506],[-0.021988797932863235],[-0.03605624660849571],[-0.04245395213365555],[0.16298268735408783],[-0.03442412614822388],[-0.15494835376739502],[-0.07012347877025604],[0.04863825440406799],[0.07668904215097427],[-0.038183439522981644],[-0.05631231516599655],[-0.16871879994869232],[-0.02200060710310936],[-0.021747229620814323],[-0.14464904367923737],[0.07131532579660416],[0.10722222924232483],[-0.09929417073726654],[-0.12081612646579742],[0.01326565071940422],[-0.012922079302370548],[-0.11083488911390305],[-0.21242964267730713],[-0.23004727065563202],[-0.2196258306503296],[-0.38564348220825195],[-0.3067528009414673],[0.3179454505443573],[-0.08542826771736145],[-0.21533800661563873],[-0.09748584777116776],[-0.07355692982673645],[-0.2200033813714981],[0.022389957681298256],[0.03556225448846817],[0.007682953029870987],[-0.17012904584407806],[-0.22907961905002594],[0.0479649193584919],[-0.07958975434303284],[-0.2494008094072342],[-0.007712023798376322],[0.17340904474258423],[-0.11579307168722153],[-0.14371025562286377],[0.039111874997615814],[-0.09348165988922119],[0.06611455976963043],[0.16520707309246063],[0.05630294233560562],[0.05640412122011185],[-0.08074887841939926],[-0.04776285961270332],[0.19217117130756378],[-0.36369794607162476],[-0.19468724727630615],[-0.20106817781925201],[0.08882677555084229],[0.01769479364156723],[-0.09628117829561234],[0.012224840931594372],[-0.21563100814819336],[-0.002492779865860939],[-0.19913798570632935],[-0.017368588596582413],[0.11649519205093384],[0.06414492428302765],[-0.10846138000488281],[-0.07003816962242126],[-0.2077614665031433],[-0.2648986279964447],[-0.039843976497650146],[0.2799171507358551],[0.06276368349790573],[0.044501617550849915],[0.15045808255672455],[0.1804705411195755],[0.1575029194355011],[-0.187358558177948],[0.08448370546102524],[-0.13606415688991547],[0.025929493829607964],[-0.02194284461438656],[-0.17323844134807587],[-0.15140093863010406],[0.08495579659938812],[-0.3310568630695343],[-0.23359741270542145],[0.12974397838115692],[0.35848021507263184],[-0.13797014951705933],[0.18764393031597137],[-0.26230987906455994],[0.09621553868055344],[-0.12984098494052887],[0.12282608449459076],[-0.051928676664829254],[-0.02087881788611412],[0.026424841955304146],[-0.1821214258670807],[-0.11098672449588776],[0.19332821667194366],[-0.02529585175216198],[0.12781304121017456],[0.018941817805171013],[-0.24521619081497192],[-0.31348228454589844],[0.16995729506015778],[-0.12081491202116013],[0.11477145552635193],[-0.08848532289266586],[0.23657763004302979],[-0.11103148013353348],[-0.16261981427669525],[-0.04654451832175255],[0.34745559096336365],[-0.2690357565879822],[-0.09589175134897232],[-0.05675496906042099],[-0.1502111852169037],[0.03352418914437294],[-0.0530162937939167],[-0.11293855309486389],[-0.1468997746706009],[0.09922248870134354],[-0.2513001561164856],[-0.0036457772366702557],[0.013860826380550861],[0.1543353646993637],[0.15443368256092072],[0.22983616590499878],[0.06959764659404755],[-0.11493749916553497],[-0.042098019272089005],[-0.23220409452915192],[0.12786923348903656],[0.118679940700531],[-0.023592423647642136],[-0.006993305403739214],[0.24440941214561462],[-0.08709204196929932],[-0.16045689582824707],[-0.1936619132757187],[-0.03898877277970314],[0.09508141875267029],[-0.23330876231193542],[-0.07190683484077454],[0.04180451110005379],[0.11976239085197449],[0.07394805550575256],[-0.32641473412513733],[0.29068446159362793],[0.049234285950660706],[0.05649774894118309],[-0.07497432082891464],[-0.11992832273244858],[-0.06977064162492752],[0.11628087610006332],[0.13950371742248535],[-0.012978644110262394],[-0.1892596185207367],[0.027913857251405716],[0.09390875697135925],[-0.1170288473367691],[0.13442398607730865],[-0.19777128100395203],[-0.032629113644361496],[0.060190871357917786],[-0.15486310422420502],[-0.0543813481926918],[-0.21038410067558289],[-0.004935055505484343],[-0.22496247291564941],[0.13443024456501007],[-0.275299072265625],[0.06548931449651718],[0.16239632666110992],[-0.07282070070505142],[-0.06575027108192444],[0.23555809259414673],[-0.10578808188438416],[0.018407512456178665],[-0.01795572228729725],[-0.16248583793640137],[0.12428182363510132],[-0.23472701013088226],[-0.15131953358650208],[0.04740731045603752],[-0.034096814692020416],[-0.3236716091632843],[-0.17658446729183197],[0.22408510744571686],[-0.15490686893463135],[-0.10417203605175018],[-0.1394049972295761],[0.2942776381969452],[0.06756729632616043],[-0.09146559983491898],[0.0217178575694561],[0.24807611107826233],[0.036213330924510956],[-0.19295138120651245],[-0.1579325944185257],[0.03138694539666176],[-0.18822705745697021],[-0.006743669044226408],[-0.12120819091796875],[0.13914163410663605],[-0.10242150723934174],[-0.016178561374545097],[0.18891660869121552],[-0.03133304417133331],[-0.13928444683551788],[0.09537585824728012],[-0.07150306552648544],[-0.12558536231517792]]