[[-0.08884342014789581],[-0.014204311184585094],[0.06497174501419067],[-0.1830601841211319],[-0.22249957919120789],[-0.14046157896518707],[-0.07747282832860947],[0.4316064715385437],[-0.17969302833080292],[0.06980451941490173],[-0.12412796914577484],[-0.11086147278547287],[-0.2719101309776306],[-0.20530958473682404],[-0.15696829557418823],[-0.20689232647418976],[0.1308552622795105],[-0.34055331349372864],[0.0701393261551857],[0.07742853462696075],[-0.13998594880104065],[0.15242138504981995],[-0.15273386240005493],[-0.10955826193094254],[-0.12217223644256592],[-0.09645543247461319],[-0.08896981924772263],[0.11297925561666489],[0.13267579674720764],[0.014570442028343678],[0.11653906852006912],[-0.0821412056684494],[0.30003178119659424],[-0.03231378272175789],[0.20940616726875305],[0.11881299316883087],[-0.03533434495329857],[-0.0750785544514656],[0.007498186081647873],[-0.04712720960378647],[0.33895155787467957],[-0.02243916504085064],[-0.15902747213840485],[0.0361703559756279],[0.3651399612426758],[0.11355426162481308],[-0.3158494830131531],[0.3574296534061432],[-0.1586976796388626],[-0.0913127064704895],[0.16073258221149445],[0.061994120478630066],[0.1314181238412857],[0.11039064824581146],[-0.10182301700115204],[0.0691656544804573],[-0.1194843202829361],[0.02777210809290409],[-0.019841259345412254],[-0.20610982179641724],[0.11264397203922272],[0.029607221484184265],[-0.16170258820056915],[0.07185401022434235],[-0.07750201225280762],[0.04322054982185364],[-0.09125115722417831],[0.1054426059126854],[0.04116171970963478],[-0.08819906413555145],[0.05235973000526428],[-0.24950604140758514],[-0.3483915627002716],[-0.13073472678661346],[-0.27642822265625],[0.14636394381523132],[-0.07369941473007202],[-0.07400527596473694],[-0.16449083387851715],[-0.04760422930121422],[0.11678977310657501],[0.01522531732916832],[-0.0666142925620079],[0.041080884635448456],[-0.24702508747577667],[-0.23848600685596466],[0.37854060530662537],[0.1086168959736824],[0.03366156294941902],[-0.30765020847320557],[-0.0030660382471978664],[-0.2732064723968506],[0.12914103269577026],[0.07120208442211151],[0.06555303931236267],[-0.07830990105867386],[-0.2481183260679245],[-0.21379604935646057],[0.03862965106964111],[-0.0970698818564415],[0.13790607452392578],[-0.1565098613500595],[0.11489502340555191],[-0.061664801090955734],[0.26249057054519653],[-0.14106188714504242],[-0.3164244294166565],[0.02680358663201332],[-0.2083558589220047],[0.40354466438293457],[-0.2377920299768448],[-0.02141905203461647],[0.1862710565328598],[-0.1821201890707016],[-0.09939804673194885],[-0.1472928673028946],[-0.05064614862203598],[-0.14846603572368622],[-0.16932180523872375],[0.2007463574409485],[0.021201588213443756],[-0.13119164109230042],[0.08873815834522247],[-0.20831002295017242],[-0.0835162103176117],[0.17751510441303253],[-0.10595586150884628],[-0.02923402190208435]]