[[-0.09424017369747162],[-0.09945860505104065],[0.19293496012687683],[0.07752642035484314],[0.17351731657981873],[-0.16910727322101593],[0.06840551644563675],[0.004595491103827953],[0.13286076486110687],[-0.11467353999614716],[-0.19113431870937347],[-0.009225760586559772],[0.08405888080596924],[-0.095810666680336],[0.032278694212436676],[0.017807520925998688],[-0.11555708944797516],[-0.07620163261890411],[0.03594885393977165],[0.03031279146671295],[0.07088679820299149],[-0.09905906766653061],[-0.018713239580392838],[-0.09653580188751221],[0.13109195232391357],[-0.19891515374183655],[0.08138320595026016],[0.18999706208705902],[-0.04533904418349266],[-0.07000887393951416],[-0.09981009364128113],[0.14371809363365173],[0.0006865333998575807],[0.14409887790679932],[-0.03067621774971485],[-0.048469360917806625],[0.052001070231199265],[-0.051528964191675186],[-0.18705761432647705],[-0.10461289435625076],[-0.017839040607213974],[-0.12106356024742126],[-0.07061471790075302],[0.0989057645201683],[-0.04374263808131218],[-0.14839626848697662],[-0.16669771075248718],[0.09168455004692078],[0.02425968088209629],[-0.036174532026052475],[-0.08660586178302765],[-0.11062625050544739],[0.10724359005689621],[0.02784787490963936],[-0.07793687283992767],[0.024818986654281616],[0.04099764674901962],[-0.08709699660539627],[0.03005944937467575],[-0.03590330854058266],[0.021899394690990448],[-0.09832606464624405],[-0.04658273980021477],[-0.07936706393957138],[-0.14828260242938995],[-0.12011364102363586],[-0.15827521681785583],[0.23781900107860565],[-0.2367345243692398],[-0.030731359496712685],[-0.1336897313594818],[0.027130696922540665],[-0.036289457231760025],[0.09913714975118637],[0.07070863246917725],[-0.044864337891340256],[0.016954485327005386],[-0.12956388294696808],[0.051466889679431915],[-0.04538785666227341],[-0.023373447358608246],[-0.04376731440424919],[0.14405155181884766],[0.09392495453357697],[0.018823111429810524],[-0.018830373883247375],[-0.17809826135635376],[0.05512683093547821],[0.07903013378381729],[0.008295580744743347],[0.1476280391216278],[-0.013470569625496864],[-0.05591129511594772],[0.12106890231370926],[-0.13118089735507965],[-0.17926926910877228],[-0.1675506979227066],[0.09153284132480621],[-0.09821948409080505],[0.018898725509643555],[-0.012745903804898262],[-0.02260950580239296],[-0.059629783034324646],[-0.15707185864448547],[0.13748516142368317],[0.05287371948361397],[-0.010099433362483978],[-0.0788697749376297],[-0.014937748201191425],[-0.1791701316833496],[-0.23543241620063782],[-0.047182295471429825],[0.1940155029296875],[0.014165275730192661],[-0.023246675729751587],[0.06540680676698685],[0.006967268884181976],[0.0606500506401062],[0.03632444515824318],[-0.004738607909530401],[-0.0743374153971672],[0.035833727568387985],[-0.088316410779953],[-0.11591427028179169],[-0.1427563577890396],[0.017765507102012634],[-0.05028580129146576],[-0.1955997347831726],[-0.004152812995016575],[-0.0007975037442520261],[-0.07112637907266617],[0.057390373200178146],[0.04051148518919945],[0.19192439317703247],[-0.09191817790269852],[-0.02187184989452362],[-0.0049413093365728855],[0.01979183219373226],[-0.056775931268930435],[-0.0633816048502922],[-0.029593883082270622],[0.07521849125623703],[-0.14372453093528748],[0.10935153067111969],[0.00910781230777502],[-0.08319444954395294],[-0.09432610869407654],[0.10598285496234894],[-0.04074754938483238],[-0.03225542977452278],[-0.053351547569036484],[0.12201376259326935],[-0.023309633135795593],[0.01122822891920805],[-0.020755324512720108],[0.12916512787342072],[-0.09023702144622803],[-0.023616790771484375],[-0.11249830573797226],[-0.1702330857515335],[0.005285714752972126],[0.07078303396701813],[0.014097669161856174],[-0.0693841427564621],[0.0464489683508873],[-0.13663773238658905],[0.08971469104290009],[-0.13234993815422058],[0.09889458119869232],[0.12352041900157928],[0.09713602811098099],[0.012201659381389618],[0.05481978878378868],[-0.01547316089272499],[-0.29223009943962097],[0.08920786529779434],[0.0682653859257698],[-0.023836912587285042],[-0.11188037693500519],[0.09318824112415314],[-0.10194367915391922],[-0.062021929770708084],[-0.09588617831468582],[-0.03286086767911911],[0.017687134444713593],[-0.05123794451355934],[-0.047189753502607346],[0.11119275540113449],[0.01008700579404831],[-0.07956508547067642],[-0.21754799783229828],[0.038517627865076065],[0.03925253078341484],[-0.10337044298648834],[-0.13596433401107788],[-0.06679312884807587],[-0.24274687469005585],[-0.0016477094031870365],[0.10027170181274414],[-0.0341397300362587],[-0.26264044642448425],[-0.1215842142701149],[0.06719717383384705],[-0.1369132548570633],[0.052729569375514984],[-0.24440491199493408],[0.06398137658834457],[0.08268146216869354],[-0.06334513425827026],[-0.16512954235076904],[-0.11362247169017792],[0.08199409395456314],[-0.10653506964445114],[-0.05083581060171127],[-0.2134469747543335],[-0.021290890872478485],[0.10736699402332306],[-0.07946596294641495],[-0.0689573660492897],[0.0655299574136734],[-0.038791123777627945],[-0.0064428700134158134],[-0.03061571903526783],[-0.1405077427625656],[-0.039914365857839584],[-0.1657518744468689],[-0.03589915111660957],[0.05934308096766472],[0.05428042635321617],[-0.21810071170330048],[-0.03653843700885773],[0.03460538387298584],[-0.11381593346595764],[-0.0636100322008133],[-0.11281649768352509],[0.10742001235485077],[0.08063160628080368],[-0.06929078698158264],[0.07598354667425156],[0.06627241522073746],[-0.015782009810209274],[-0.23373474180698395],[-0.07364755868911743],[0.10235525667667389],[-0.13839559257030487],[-0.09881940484046936],[0.04489227384328842],[0.11714569479227066],[-0.06986988335847855],[0.06496740877628326],[0.09348795562982559],[-0.07006130367517471],[-0.14009487628936768],[0.10225234180688858],[-0.08066872507333755],[-0.01705814339220524]]