[[-0.026397746056318283],[-0.1208474338054657],[-0.00156324019189924],[-0.21583884954452515],[0.01462897565215826],[-0.10871230810880661],[0.1370675265789032],[0.048511967062950134],[0.04744888097047806],[-0.17527422308921814],[-0.13646893203258514],[-0.3438721299171448],[-0.06800854951143265],[-0.05096497759222984],[-0.09708467125892639],[-0.25623971223831177],[-0.02185233123600483],[-0.0648791640996933],[0.12924441695213318],[0.06680134683847427],[0.11306563764810562],[0.06757310032844543],[-0.3688257336616516],[-0.25069719552993774],[-0.019872890785336494],[0.3156032860279083],[-0.3177751302719116],[0.271682471036911],[0.21932797133922577],[0.08515637367963791],[-0.48407599329948425],[-0.2040444314479828],[0.12657730281352997],[-0.12232407927513123],[-0.2722399830818176],[-0.12331880629062653],[-0.18802595138549805],[0.19714941084384918],[0.09421616792678833],[-0.20222385227680206],[0.16919316351413727],[-0.0028304466977715492],[0.30999135971069336],[-0.07637287676334381],[0.12614072859287262],[-0.242433100938797],[-0.07572439312934875],[-0.15111224353313446],[-0.3008854389190674],[-0.03412023186683655],[0.024756649509072304],[-0.07018396258354187],[-0.041116274893283844],[0.22173039615154266],[-0.23201492428779602],[-0.03291025012731552],[-0.08754939585924149],[0.19648057222366333],[0.21600644290447235],[-0.40244489908218384],[-0.18127328157424927],[-0.0692133679986],[-0.3314063847064972],[0.0403628945350647]]