[[0.031240830197930336],[-0.09164783358573914],[-0.051703114062547684],[-0.18248888850212097],[-0.17063768208026886],[-0.14643670618534088],[-0.05874603986740112],[0.1758241504430771],[-0.06939852982759476],[0.05366306006908417],[-0.12208286672830582],[-0.15670457482337952],[-0.1302478015422821],[-0.2581233084201813],[-0.05115365982055664],[-0.11600448191165924],[0.23647311329841614],[-0.29650476574897766],[0.023933986201882362],[-0.12653064727783203],[-0.10726818442344666],[-0.018130984157323837],[-0.03816843777894974],[-0.005299038719385862],[-0.0018933770479634404],[-0.05518951267004013],[-0.11096513271331787],[-0.05578915402293205],[-0.005224794149398804],[0.0722309798002243],[0.10991198569536209],[-0.08536742627620697],[0.20672093331813812],[-0.0725383386015892],[0.12239676713943481],[0.02345687337219715],[-0.002635648939758539],[0.02088790014386177],[0.08396537601947784],[-0.07578764110803604],[0.17570462822914124],[0.09542037546634674],[-0.14347046613693237],[0.018955131992697716],[0.23033884167671204],[0.12071870267391205],[-0.1027781218290329],[0.21259525418281555],[-0.07658052444458008],[0.004491446539759636],[0.04657818749547005],[0.013424518518149853],[-0.03756615146994591],[0.029935983940958977],[-0.19663463532924652],[-0.033273328095674515],[-0.037053391337394714],[-0.08876272290945053],[0.054173920303583145],[-0.0844888985157013],[0.07789525389671326],[-0.017821410670876503],[-0.12104925513267517],[0.0378156341612339],[-0.19635827839374542],[0.13286419212818146],[-0.05631386116147041],[0.07149723172187805],[0.03152996674180031],[-0.05229046940803528],[0.0312008336186409],[-0.19369953870773315],[-0.2317781001329422],[-0.02186809852719307],[-0.31596314907073975],[0.005073830019682646],[-0.09691628813743591],[-0.051868733018636703],[-0.20562957227230072],[-0.04940514266490936],[0.12231037020683289],[0.02394895814359188],[-0.061778198927640915],[-0.028895802795886993],[-0.030548278242349625],[-0.1898966282606125],[0.2558183968067169],[0.07416733354330063],[0.10371746867895126],[-0.23973943293094635],[-0.0031829411163926125],[-0.20302630960941315],[-0.04942241683602333],[-0.010058075189590454],[0.07687761634588242],[0.07688117027282715],[-0.23214581608772278],[-0.13977646827697754],[0.002486402401700616],[-0.07519616186618805],[0.15585045516490936],[-0.16965611279010773],[0.09346116334199905],[-0.04319749400019646],[0.20236451923847198],[-0.05867771431803703],[-0.21575652062892914],[-0.032483261078596115],[-0.09616706520318985],[0.21512764692306519],[-0.22295497357845306],[-0.06284477561712265],[0.12823708355426788],[-0.14615608751773834],[-0.15821875631809235],[-0.030483901500701904],[-0.03921011835336685],[-0.047752514481544495],[-0.10951320081949234],[0.09890633076429367],[-0.09506753832101822],[-0.11849237233400345],[0.01002135407179594],[-0.2053946852684021],[-0.07170383632183075],[0.10359177738428116],[-0.12516970932483673],[-0.1218719556927681]]