[[-0.24462679028511047],[0.1240360215306282],[-0.11218445003032684],[-0.43367892503738403],[-0.0489795096218586],[0.07430791109800339],[-0.17516067624092102],[0.06643834710121155],[-0.035330723971128464],[0.27346158027648926],[-0.3425390124320984],[-0.27148324251174927],[0.06749089062213898],[-0.22205868363380432],[-0.0501919724047184],[0.11663948744535446],[-0.24519787728786469],[-0.21490171551704407],[-0.19282576441764832],[0.12175167351961136],[-0.12342753261327744],[0.09404260665178299],[-0.5007033348083496],[-0.2298881709575653],[0.18198087811470032],[-0.0552264004945755],[0.026400599628686905],[-0.3818763196468353],[-0.04619041830301285],[0.14857898652553558],[-0.41390082240104675],[-0.1918361634016037],[-0.27787357568740845],[-0.23303751647472382],[-0.34707704186439514],[-0.27816280722618103],[-0.05815451219677925],[0.17493610084056854],[0.007488085888326168],[0.10414335876703262],[-0.12132274359464645],[-0.3677840530872345],[0.096417136490345],[-0.0656978040933609],[0.17791038751602173],[-0.0774192288517952],[-0.12881068885326385],[-0.09820712357759476],[-0.236678346991539],[-0.26060622930526733],[0.11857302486896515],[-0.025423338636755943],[-0.15876027941703796],[0.1623540222644806],[-0.17979539930820465],[-0.08447094261646271],[-0.0029853724408894777],[0.18408143520355225],[0.09493730217218399],[-0.3089134395122528],[0.17673487961292267],[-0.17758706212043762],[0.10217706859111786],[-0.1922055184841156]]