[[-0.4255884885787964],[-0.2517417371273041],[0.33333882689476013],[-0.16434410214424133],[0.1081542894244194],[-0.21178099513053894],[0.056729137897491455],[-0.1227390468120575],[-0.3698299825191498],[-0.053257789462804794],[-0.003409208497032523],[-0.2567179501056671],[0.26866427063941956],[-0.1607908010482788],[-0.040999867022037506],[-0.3074882924556732],[-0.42842647433280945],[0.1489109843969345],[0.1510135382413864],[-0.07115986943244934],[-0.08328206837177277],[-0.020371994003653526],[-0.23811471462249756],[-0.03658970072865486],[-0.016686223447322845],[-0.44181686639785767],[0.3713338077068329],[0.28288570046424866],[-0.04730711504817009],[-0.46285659074783325],[-0.16638986766338348],[0.1238534078001976],[0.5505231618881226],[-0.0691266804933548],[-0.004790498409420252],[-0.4235900342464447],[0.09595239907503128],[0.15506868064403534],[-0.13335385918617249],[-0.4426270127296448],[-0.33987951278686523],[-0.1921173632144928],[-0.36963266134262085],[-0.06913291662931442],[0.07389039546251297],[-0.309556782245636],[-0.12430329620838165],[-0.20710711181163788],[0.016672203317284584],[-0.16648751497268677],[-0.279961496591568],[0.02043461985886097],[-0.14286646246910095],[0.08029279857873917],[-0.22841757535934448],[0.04319773614406586],[-0.16690999269485474],[-0.2060283124446869],[-0.2922227382659912],[0.1383463740348816],[0.038523804396390915],[-0.13932810723781586],[-0.47552168369293213],[-0.17280106246471405],[-0.5514636039733887],[-0.48080387711524963],[-0.1008908674120903],[0.21743236482143402],[-0.16408611834049225],[-0.215833842754364],[-0.1614190936088562],[-0.2716061472892761],[-0.4238935112953186],[0.1811547428369522],[0.10336025804281235],[0.0053438772447407246],[-0.1019367128610611],[-0.44853174686431885],[0.26985183358192444],[0.20696108043193817],[-0.3199121356010437],[-0.15855127573013306],[0.07805254310369492],[-0.13962312042713165],[-0.08289553970098495],[-0.17919638752937317],[-0.07837989926338196],[0.040370531380176544],[-0.052896104753017426],[0.0824570506811142],[0.03596924617886543],[-0.031110767275094986],[-0.03495645150542259],[0.3344820439815521],[-0.4598717987537384],[-0.22654424607753754],[-0.08604646474123001],[0.12559308111667633],[-0.1310572624206543],[-0.25936219096183777],[0.13944394886493683],[-0.39228615164756775],[-0.2626276910305023],[-0.27924731373786926],[-0.011617021635174751],[0.09135264903306961],[-0.08564074337482452],[-0.2159653902053833],[-0.08658955246210098],[-0.4708380699157715],[-0.0858895406126976],[-0.3630504310131073],[0.5224004983901978],[0.1287660151720047],[-0.08724983036518097],[0.0023763091303408146],[0.05493614822626114],[0.27551335096359253],[-0.07278306782245636],[0.2392793893814087],[-0.3051430583000183],[0.0331580825150013],[-0.07328876107931137],[-0.3187422752380371],[-0.1804891675710678],[0.06559759378433228],[-0.21652697026729584],[-0.0892869383096695],[0.012042887508869171],[0.24403783679008484],[-0.2474127858877182],[0.22358481585979462],[-0.3783089220523834],[0.14042876660823822],[-0.355558842420578],[0.17300698161125183],[-0.11783576011657715],[-0.11514017730951309],[-0.13989010453224182],[-0.07573740929365158],[-0.17051275074481964],[0.12155486643314362],[-0.07581204921007156],[-0.15136365592479706],[0.10318057239055634],[-0.10275141894817352],[-0.47551703453063965],[0.21728301048278809],[-0.006767876446247101],[0.14849893748760223],[-0.26099956035614014],[-0.0723666101694107],[-0.007351135369390249],[0.06236707419157028],[-0.18482980132102966],[0.6011466979980469],[-0.4874202311038971],[0.026257000863552094],[0.063910111784935],[-0.18421465158462524],[0.5044159293174744],[-0.2875865697860718],[0.03575892746448517],[-0.5326836109161377],[0.19911199808120728],[-0.3814280331134796],[-0.12692302465438843],[0.03887404501438141],[0.14909996092319489],[0.2359328716993332],[0.12266737967729568],[-0.15911760926246643],[-0.19086787104606628],[-0.27110326290130615],[-0.3483092188835144],[0.1248105987906456],[0.4499562680721283],[0.07167455554008484],[0.19309628009796143],[0.0939239040017128],[-0.33447471261024475],[-0.14558306336402893],[-0.5228697657585144],[-0.19746586680412292],[0.1109919473528862],[-0.28213587403297424],[-0.1520618200302124],[-0.11980816721916199],[0.12570782005786896],[-0.1468825489282608],[-0.5066890716552734],[0.49976491928100586],[0.18491815030574799],[0.18081025779247284],[-0.43770986795425415],[-0.24365711212158203],[-0.170721635222435],[0.2589772045612335],[0.34784337878227234],[-0.1586845964193344],[-0.19064171612262726],[-0.24285969138145447],[-0.05379922688007355],[-0.0381600446999073],[0.07180743664503098],[-0.3043757975101471],[-0.30658453702926636],[-0.12999080121517181],[-0.3970721364021301],[-0.2651030421257019],[-0.501114010810852],[0.1189534068107605],[-0.5167108178138733],[-0.14590181410312653],[-0.36998727917671204],[0.10270513594150543],[0.022432511672377586],[-0.03302003815770149],[-0.20613645017147064],[0.3765842020511627],[-0.09074000269174576],[0.2633880078792572],[-0.2259623259305954],[0.05671263858675957],[0.15160907804965973],[-0.2084932029247284],[-0.18849271535873413],[-0.16819779574871063],[-0.05270984023809433],[0.011241469532251358],[-0.5565792918205261],[0.1503235399723053],[-0.4080226719379425],[-0.29207247495651245],[-0.09471184760332108],[0.03966684639453888],[-0.08276864141225815],[-0.3568028509616852],[-0.04532838985323906],[0.19740848243236542],[0.3086439073085785],[-0.20359019935131073],[-0.09701744467020035],[-0.0491516999900341],[-0.5351281762123108],[-0.3401721715927124],[-0.1523798555135727],[-0.032517243176698685],[-0.33221304416656494],[0.07550695538520813],[0.34703871607780457],[-0.08068989217281342],[-0.20751577615737915],[0.037611570209264755],[-0.21106579899787903],[-0.13467666506767273]]