[[-0.41523367166519165],[0.025348009541630745],[-0.1910393238067627],[-0.5159555077552795],[-0.1141909509897232],[0.026925697922706604],[-0.3996017873287201],[0.06643757224082947],[-0.1102173924446106],[0.25091931223869324],[-0.35837629437446594],[-0.32208284735679626],[-0.10996079444885254],[-0.3046192526817322],[-0.10421762615442276],[-0.06892555207014084],[-0.42029017210006714],[-0.20024709403514862],[-0.3772190809249878],[0.11730114370584488],[-0.1536071002483368],[0.046171218156814575],[-0.6599932312965393],[-0.3051316440105438],[-0.037603382021188736],[-0.20733438432216644],[-0.07014010846614838],[-0.5234677195549011],[-0.10083052515983582],[0.06836117058992386],[-0.45604345202445984],[-0.24122044444084167],[-0.28424572944641113],[-0.3580191135406494],[-0.5320523381233215],[-0.2781645357608795],[-0.10835281759500504],[0.017985207960009575],[-0.027457566931843758],[0.03543373942375183],[-0.2727760076522827],[-0.5247047543525696],[0.016958247870206833],[-0.22612853348255157],[0.04877391457557678],[-0.19736766815185547],[-0.22006049752235413],[-0.23166361451148987],[-0.46627122163772583],[-0.36750417947769165],[-0.05468492954969406],[-0.20006699860095978],[-0.21744275093078613],[0.18062570691108704],[-0.43945443630218506],[-0.0880293995141983],[-0.06466592848300934],[0.16919636726379395],[-0.04226347431540489],[-0.3518940210342407],[0.11371967196464539],[-0.25310444831848145],[0.1209072694182396],[-0.3051895797252655]]