[[0.47122111916542053,1.7246142625808716,0.5714985728263855,0.6705748438835144,1.1855449676513672,-0.48150768876075745,0.6826690435409546,3.5768299102783203,-0.616229772567749,-2.079561710357666,-0.3148629665374756,1.5911922454833984,1.3496122360229492,-0.6016958355903625,-0.5961595177650452,0.9507112503051758,-2.25319504737854,2.116823196411133,2.298884153366089,-0.7417749166488647,3.1113948822021484,-0.28370392322540283,-1.6955493688583374,-0.4443424344062805,-0.41297391057014465,2.473222255706787,-1.172019124031067,-1.3455560207366943,1.1621772050857544,0.9065722823143005,-0.7076308131217957,-1.445959210395813,1.7918955087661743,-0.3985602557659149,-0.02085118368268013,-0.39148882031440735,0.3427586257457733,-2.3108460903167725,1.0061284303665161,-0.21130698919296265,-0.3246639370918274,1.196232795715332,-0.9801429510116577,-0.07460787892341614,1.395764708518982,1.1610509157180786,0.8375880122184753,1.07913339138031,-0.9723060727119446,-1.7047799825668335,0.013960168696939945,-1.3934903144836426,0.595598578453064,0.002719401614740491,0.025471661239862442,0.3044010400772095,-0.5017057061195374,-1.1528066396713257,2.228210687637329,-0.4362989366054535,-2.069845676422119,-1.4052501916885376,0.03445218876004219,-0.7769216895103455]]