[[0.003848177148029208,-0.21229368448257446,0.2162284255027771,0.1387656033039093,0.08145494014024734,0.1074666827917099,0.003906050929799676,-0.0186929889023304,-0.07339615374803543,-0.13193032145500183,0.162327378988266,-0.15952955186367035,0.14379890263080597,-0.09746944159269333,-0.16887465119361877,0.15113265812397003,0.054556287825107574,-0.11078383773565292,-0.057405076920986176,-0.12390641123056412,-0.0932614728808403,-0.11731012165546417,0.03373023867607117,-0.02265757881104946,0.032299451529979706,-0.05716591700911522,0.04256100207567215,-0.05059478431940079,-0.12879449129104614,-0.000695530790835619,-0.1727696806192398,-0.08079776912927628,-0.15068992972373962,0.054839614778757095,0.21006596088409424,-0.26943567395210266,0.05538993701338768,-0.02894025854766369,-0.060153041034936905,0.11322516202926636,0.007300728000700474,-0.1561100035905838,0.17545323073863983,-0.08825589716434479,-0.13474765419960022,-0.1458391696214676,0.05851065367460251,0.05722758546471596,0.09046470373868942,0.14600005745887756,-0.17942050099372864,-0.00782848708331585,0.0880812481045723,0.04953506588935852,0.05346330627799034,-0.1321793645620346,0.19680306315422058,0.06387094408273697,-0.05578568950295448,-0.13510608673095703,-0.05106981843709946,0.015331394970417023,0.052987128496170044,0.021171579137444496,-0.11506307125091553,0.1472652703523636,-0.11849314719438553,-0.1082032322883606,-0.06442691385746002,0.1085217148065567,-0.061480164527893066,0.06057123839855194,0.024354109540581703,0.04541954770684242,-0.04571223258972168,0.19882017374038696,-0.23162324726581573,-0.005378889851272106,-0.19149602949619293,0.026572655886411667,-0.010788978077471256,-0.1728367805480957,0.18623510003089905,0.1633201390504837,0.01802961900830269,-0.13910511136054993,-0.02769792079925537,-0.010891017504036427,-0.12163939327001572,0.076308473944664,0.02761266380548477,-0.06012500077486038,0.04533051699399948,-0.05778089910745621,0.16218550503253937,-0.01881503500044346,-0.0919535905122757,-0.06901253014802933,-0.1156526654958725,0.13478219509124756,0.018714427947998047,0.12220913916826248,-0.14134180545806885,-0.10280843824148178,0.04822626709938049,-0.1527262032032013,0.004174975678324699,0.14997750520706177,-0.10410182923078537,0.12336686998605728,0.05656377971172333,-0.03813068941235542,0.01781487837433815,0.04811934009194374,-0.008236974477767944,0.18754127621650696,0.21419426798820496,0.169572114944458,-0.18519993126392365,-0.11180929094552994,-0.012537896633148193,-0.01290220208466053,0.06743419915437698,-0.11326351761817932,0.013469363562762737,0.0206076018512249,-0.15075388550758362,0.02418544515967369,0.007611241191625595,0.09067554771900177,-0.07038749009370804,-0.1515415608882904,0.042950648814439774,0.02073393017053604,0.0974159762263298,0.09287558495998383,0.021003708243370056,-0.12137279659509659],[0.09246113896369934,-0.11671771854162216,0.01851806603372097,0.19720038771629333,0.10274636745452881,0.028618985787034035,0.04380316287279129,-0.08637556433677673,0.019918056204915047,-0.08161356300115585,0.10962573438882828,-0.1146911010146141,0.21932904422283173,-0.08360838145017624,-0.08401816338300705,-0.1768973171710968,0.028534894809126854,0.04856209456920624,-0.06351972371339798,-0.02703917771577835,0.2610808312892914,0.15322895348072052,-0.21921858191490173,-0.3051932752132416,-0.11944198608398438,-0.10869217664003372,0.09619209915399551,0.0964011624455452,-0.24039825797080994,-0.08102812618017197,0.16144810616970062,0.11127257347106934,0.180540531873703,0.11720392107963562,-0.051074471324682236,0.0352579690515995,0.032789263874292374,0.04070509225130081,0.04928538203239441,0.10404134541749954,0.12436603009700775,-0.08406911045312881,-0.14659716188907623,0.1163984015583992,-0.17849835753440857,-0.092527836561203,0.012473165057599545,-0.14187496900558472,0.05458075925707817,-0.14484000205993652,-0.19897979497909546,0.03394172340631485,-0.11355944722890854,-0.09215425699949265,-0.13996101915836334,-0.038062501698732376,-0.17539414763450623,-0.024073855951428413,0.15834738314151764,-0.07997813820838928,0.14987830817699432,-0.01373828761279583,0.013631136156618595,0.024576209485530853,-0.08429073542356491,0.0826382115483284,-0.05348615720868111,-0.1010512262582779,0.004539474844932556,-0.2053903192281723,-0.0912151113152504,0.018198862671852112,-0.11098440736532211,-0.19894683361053467,-0.02605474554002285,0.256738543510437,-0.09163471311330795,-0.034290656447410583,-0.2226993292570114,-0.09752266854047775,-0.08603111654520035,-0.010377931408584118,-0.07304798066616058,-0.009297801181674004,0.21149329841136932,-0.24041689932346344,0.1574145406484604,0.09500133246183395,0.13877654075622559,-0.1800655722618103,0.031424667686223984,0.2478868067264557,-0.08294902741909027,0.029809921979904175,0.06588498502969742,0.13038957118988037,0.12327805161476135,0.250658243894577,0.049830060452222824,-0.082335464656353,0.030346913263201714,-0.12989579141139984,-0.020689357072114944,-0.002396109513938427,-0.11049976199865341,-0.006341865286231041,0.2292574793100357,-0.1845223605632782,-0.11958444863557816,-0.02545139007270336,-0.09710930287837982,0.07252120226621628,-0.010974999517202377,0.06816210597753525,0.018322622403502464,0.09796558320522308,0.12042208760976791,-0.0713910460472107,-0.0088595449924469,-0.07666214555501938,0.05418812111020088,0.13780167698860168,-0.06439391523599625,0.20929862558841705,-0.05975223332643509,-0.1133989617228508,-0.02086615189909935,0.036886248737573624,-0.018488239496946335,-0.09466233849525452,-0.02567189931869507,0.24580493569374084,0.04971417784690857,0.025426527485251427,-0.1760396510362625,0.06372267752885818,-0.14942100644111633,0.12270668148994446],[-0.018866248428821564,-0.11860120296478271,-0.01006268709897995,-0.015987316146492958,0.006480348762124777,0.22476936876773834,0.05156046897172928,-0.050574891269207,-0.0005590903456322849,-0.0766708105802536,0.053649626672267914,-0.05704519525170326,0.13462239503860474,0.132054403424263,-0.02468712441623211,0.08693289756774902,-0.20096942782402039,-0.19629095494747162,-0.13592036068439484,0.08327490091323853,-0.051851943135261536,0.05745578184723854,0.19534601271152496,0.14957456290721893,-0.0002726615930441767,-0.14173194766044617,-0.0032067587599158287,-0.17452847957611084,-0.01514421682804823,-0.00012620336201507598,-0.06546574831008911,-0.08629709482192993,0.03851062431931496,-0.0268552266061306,-0.00849846750497818,-0.026337413117289543,-0.05948759242892265,0.0304928757250309,-0.130905881524086,0.015214785002171993,0.20429638028144836,-0.09753280133008957,-0.06031179428100586,0.1862954944372177,0.03113466314971447,-0.01887078955769539,-0.10605538636445999,-0.07238589972257614,0.07687699049711227,-0.15079398453235626,0.09531915932893753,0.04170035570859909,0.18038247525691986,-0.2293108105659485,0.1675623059272766,0.12248773872852325,0.20355717837810516,-0.02758949249982834,0.026463240385055542,0.08656596392393112,0.03520829603075981,0.040048275142908096,-0.04322174936532974,-0.19863463938236237,0.10772895812988281,0.16872352361679077,0.11335738003253937,-0.032285675406455994,0.1129445880651474,0.0798528641462326,0.06718757003545761,0.14580893516540527,0.00017665312043391168,-0.02691490948200226,-0.02491731196641922,-0.008416117168962955,-0.07567386329174042,0.02138664200901985,-0.0894056186079979,-0.012757157906889915,0.14482387900352478,0.005623879376798868,-0.22168758511543274,0.09473424404859543,0.06138509511947632,-0.06885559111833572,-0.3907507658004761,-0.001279524527490139,-0.1320374310016632,-0.19586491584777832,-0.120468869805336,-0.17360639572143555,0.23841127753257751,0.032580289989709854,-0.014582098461687565,-0.13499735295772552,-0.20576809346675873,-0.11761754751205444,-0.06852322816848755,0.1082317978143692,-0.09099370241165161,-0.034700289368629456,-0.007827339693903923,0.13128598034381866,0.26628977060317993,0.14518386125564575,-0.02974751777946949,-0.00893828272819519,0.02710508182644844,0.09818516671657562,0.13036797940731049,-0.15198537707328796,0.0851886197924614,-0.12427297234535217,-0.19209599494934082,0.002145512728020549,-0.06059098243713379,-0.004991107154637575,0.11083623021841049,-0.2960323989391327,0.244705468416214,-0.06613165140151978,0.020191453397274017,-0.08466454595327377,-0.0758410394191742,-0.13322807848453522,-0.06784681230783463,0.11021427065134048,-0.08050406724214554,-0.15110264718532562,0.19658227264881134,-0.1348458081483841,0.07643824815750122,0.015083079226315022,-0.11749546229839325,-0.1744130551815033,-0.08132918924093246,0.0369856022298336],[0.044697247445583344,0.018315590918064117,0.04592376947402954,0.08816856890916824,0.007120018359273672,0.026882342994213104,-0.04680836573243141,-0.005098508670926094,-0.13470041751861572,0.029052773490548134,-0.1986335664987564,0.2538691759109497,0.14677123725414276,-0.17874979972839355,0.0584723986685276,-0.0066505675204098225,0.19898000359535217,0.0789460614323616,-0.015232601203024387,-0.0813482254743576,-0.06086678430438042,0.08415380865335464,-0.03377856686711311,0.05452636629343033,0.1293809711933136,-0.08769113570451736,0.003327126381918788,0.018849309533834457,0.019845353439450264,0.1246730238199234,0.07081937044858932,0.04183567315340042,0.25608354806900024,0.02035168930888176,0.13422375917434692,0.14582182466983795,0.13195832073688507,0.11087550967931747,0.30001768469810486,0.11812668293714523,-0.010827590711414814,0.03728668764233589,-0.15384139120578766,0.03538725525140762,0.0476723313331604,-0.03153405711054802,-0.013299171812832355,-0.11081763356924057,0.10830174386501312,0.16476579010486603,-0.34834790229797363,-0.12904341518878937,0.13181249797344208,-0.1330735683441162,-0.14417622983455658,-0.09935492277145386,0.09582319110631943,0.03273893892765045,0.07372075319290161,0.004205809906125069,0.3433597981929779,0.15152601897716522,0.07612701505422592,0.061149366199970245,-0.19383376836776733,-0.11582092195749283,-0.028269508853554726,0.09208570420742035,-0.25968673825263977,-0.08129044622182846,0.018611779436469078,0.2139727622270584,-0.24183866381645203,-0.10987211763858795,0.00825478881597519,-0.0901673212647438,-0.054933782666921616,-0.022081637755036354,0.12299161404371262,0.036057934165000916,-0.07756993919610977,-0.019231393933296204,-0.03428375720977783,0.1399248242378235,0.04138660803437233,-0.2685033977031708,-0.10643060505390167,0.04761325195431709,-0.12165503948926926,-0.019257033243775368,-0.24546146392822266,-0.04556000232696533,0.04527439549565315,-0.08816644549369812,-0.0374261774122715,0.0655757263302803,-0.1323755532503128,-0.16845229268074036,0.06032233312726021,0.15207161009311676,0.007748142350465059,-0.008495934307575226,0.16405202448368073,-0.15469245612621307,0.15592248737812042,0.1677205115556717,0.16727781295776367,-0.010653294622898102,-0.02468334697186947,0.045104850083589554,0.09772421419620514,0.27854979038238525,0.10125460475683212,0.1587173193693161,-0.015810789540410042,-0.17544154822826385,-0.02780025638639927,-0.0727078914642334,0.10993151366710663,-0.10485272854566574,-0.00894614215940237,0.07287734746932983,0.09548360854387283,0.11388383060693741,0.037066150456666946,0.043857842683792114,0.055080801248550415,-0.06114303693175316,0.01630323752760887,-0.08309244364500046,0.032971419394016266,0.1690540462732315,0.07159627228975296,-0.0395687110722065,-0.01874246820807457,-0.08593491464853287,-0.046767961233854294,-0.08492764830589294],[-0.11776573956012726,0.03416448459029198,0.08953328430652618,-0.0583156943321228,0.025889206677675247,0.25066789984703064,0.06671543419361115,-0.26173582673072815,-0.03739522024989128,-0.04315948113799095,0.0329965315759182,-0.009055128321051598,-0.0011993668740615249,0.021880820393562317,0.2147374153137207,-0.04002890735864639,0.054952479898929596,-0.04657633230090141,0.14736483991146088,-0.17766326665878296,0.0146101713180542,-0.10315360873937607,-0.01239358726888895,0.12757723033428192,0.07449588924646378,0.20477117598056793,-0.0415392741560936,-0.05850779637694359,-0.017903277650475502,-0.20274236798286438,-0.10595744103193283,-0.06671573221683502,-0.07359158992767334,0.1018492579460144,0.06087297573685646,-0.04906238615512848,0.08294805139303207,0.0938212051987648,0.019573241472244263,-0.0011120076524093747,-0.07290181517601013,-0.12929117679595947,-0.19258108735084534,-0.04874246567487717,-0.10206787288188934,-0.05472950264811516,-0.1379818469285965,0.1405174434185028,0.05456496402621269,0.12215407192707062,-0.1310453861951828,-0.02973131462931633,0.15201939642429352,-0.198566272854805,0.22635145485401154,-0.022074226289987564,0.024663129821419716,-0.12385419011116028,0.07597064971923828,-0.09613730758428574,0.05848399177193642,-0.09335184842348099,-0.007653333712369204,-0.05532534047961235,-0.1270638406276703,0.12657827138900757,-0.13703803718090057,0.08490356057882309,0.016834614798426628,0.23923563957214355,-0.04041396081447601,0.08685216307640076,-0.14851215481758118,0.015065839514136314,0.05050017312169075,-0.05236272141337395,0.08536101877689362,0.07688833773136139,0.028500951826572418,0.050916749984025955,-0.197736456990242,0.08886852115392685,-0.011597644537687302,-0.010589279234409332,-0.2067040354013443,-0.05211491510272026,-0.06287945806980133,-0.04995281994342804,-0.2437618225812912,0.1370268613100052,0.028402799740433693,-0.041693735867738724,-0.01576782949268818,-0.1016363725066185,-0.042610593140125275,-0.012347590178251266,-0.08263307809829712,-0.03506459295749664,-0.03991322219371796,-0.02944083698093891,0.06640031188726425,0.16463200747966766,0.018158957362174988,-0.09072130173444748,0.10664129257202148,0.04266849905252457,-0.18306459486484528,-0.028663188219070435,0.15572088956832886,-0.043544236570596695,0.12041610479354858,0.05031222105026245,0.08483754843473434,-0.08568762987852097,0.14719080924987793,0.04456448554992676,0.04156601428985596,-0.2768056392669678,0.015436484478414059,0.043104179203510284,-0.029578786343336105,0.0395653210580349,0.05882377177476883,0.14563113451004028,-0.20251457393169403,-0.10188160836696625,-0.12344247102737427,0.029868319630622864,0.06493700295686722,0.18673859536647797,-0.024279821664094925,0.11739373207092285,0.07519509643316269,0.18666420876979828,-0.09338738769292831,0.05122989043593407,0.04464319348335266,0.1388985514640808],[-0.20949687063694,0.06895308941602707,0.1186630055308342,0.11119458079338074,-0.1459733098745346,0.05076679214835167,0.014654543250799179,0.04754028841853142,-0.08940856903791428,0.0008779281051829457,0.07163512706756592,0.028116367757320404,-0.03777603805065155,0.0030970857478678226,-0.1236681193113327,-0.07028859853744507,0.1821799874305725,-0.09601142257452011,0.04664287716150284,-0.020785203203558922,-0.051283687353134155,0.18084599077701569,0.1908787488937378,-0.17438320815563202,-0.13959702849388123,0.11167582869529724,0.04708731174468994,-0.061815958470106125,0.059846051037311554,0.03522544726729393,0.02781940996646881,-0.08447913080453873,-0.0998280942440033,0.17102958261966705,0.05077998712658882,-0.01609325222671032,-0.22778986394405365,-0.0866306945681572,-0.05759977176785469,-0.02798566408455372,0.009131782688200474,-0.10653702914714813,-0.0029879698995500803,-0.10634880512952805,0.017677227035164833,0.01184840314090252,0.014258756302297115,-0.1133081391453743,-0.06432828307151794,-0.002282993635162711,0.0402962788939476,0.07952269166707993,0.0487203411757946,-0.04123324528336525,-0.18334542214870453,0.06763491034507751,0.0742349773645401,-0.11742688715457916,0.1608702838420868,-0.20336003601551056,0.036127809435129166,0.09973611682653427,0.04345566779375076,-0.11894110590219498,0.06761384755373001,-0.26282694935798645,0.07846831530332565,0.09589973837137222,0.12405984103679657,0.03528696671128273,0.07837668806314468,-0.08731219172477722,0.04356658458709717,0.028964437544345856,-0.07618599385023117,0.03965751826763153,0.21732008457183838,0.13204632699489594,-0.09617125988006592,-0.15431596338748932,0.1401575207710266,-0.03138258680701256,0.28387677669525146,0.08080781251192093,0.052924979478120804,0.14666050672531128,0.04767804592847824,-0.11100172996520996,0.022690005600452423,0.07427798211574554,0.006814958993345499,-0.07855850458145142,-0.13919700682163239,-0.10588265210390091,-0.09191587567329407,-0.026008067652583122,0.09856773167848587,-0.06373048573732376,-0.2228529006242752,-0.017130600288510323,0.08454278111457825,-0.19988350570201874,-0.15557612478733063,0.04078095778822899,0.23195311427116394,0.15914355218410492,-0.03447464108467102,-0.05767323449254036,-0.09929395467042923,-0.0716627910733223,0.020919518545269966,-0.007022762205451727,0.1208328977227211,-0.15993236005306244,-0.17817959189414978,0.03640631213784218,-0.15306568145751953,-0.014590326696634293,-0.11379348486661911,0.01638086698949337,-0.11387406289577484,-0.14502756297588348,0.09061373025178909,-0.032424941658973694,-0.05480903759598732,-0.10088465362787247,-0.026460083201527596,-0.13566669821739197,0.07335741817951202,-0.16322404146194458,-0.041266944259405136,-0.16679254174232483,-0.25606855750083923,-0.03625401481986046,0.1467408686876297,0.14985908567905426,-0.03351328894495964,0.030721541494131088],[0.014700829982757568,-0.059125252068042755,0.07237734645605087,0.06075695902109146,-0.13855181634426117,0.13101494312286377,0.24583753943443298,-0.1618759036064148,0.020862968638539314,0.0914594978094101,-0.06189725175499916,0.05694812536239624,-0.014689527451992035,-0.11306223273277283,0.244588702917099,0.20783603191375732,0.06638302654027939,0.03595777228474617,-0.03674355894327164,-0.014163888059556484,0.12328073382377625,-0.15331143140792847,-0.15804681181907654,-0.029377542436122894,-0.126881405711174,-0.07882657647132874,-0.06759757548570633,0.05631996691226959,-0.07427685707807541,-0.0892961174249649,-0.1323370635509491,0.17093847692012787,0.04931388422846794,0.017873186618089676,-0.16261538863182068,0.08242063969373703,0.031043143942952156,0.0664917454123497,-0.06472641229629517,0.047376878559589386,-0.000532778212800622,0.08621063083410263,0.06999003142118454,-0.0006679481011815369,-0.09717316180467606,0.03150172904133797,-0.038896337151527405,0.02817120961844921,0.046174731105566025,0.106346994638443,0.0521770678460598,-0.08896873891353607,0.1016029492020607,-0.08712397515773773,0.03171870857477188,0.04400427266955376,0.08824972808361053,0.09142044186592102,0.2515186071395874,0.06440148502588272,0.06231563538312912,0.007541767321527004,0.05397533252835274,0.054830148816108704,-0.15935736894607544,0.1871095895767212,-0.03597263991832733,-0.19853229820728302,0.1231725662946701,0.006363417487591505,-0.03867501765489578,-0.2520494759082794,0.004774633329361677,0.03472089394927025,0.08157012611627579,-0.2016344964504242,0.03821840137243271,0.09492995589971542,0.1257217824459076,0.08136574923992157,-0.017982959747314453,-0.2235235720872879,-0.09133536368608475,0.11020851135253906,-0.2038360834121704,-0.11229381710290909,0.11030209064483643,0.10193540900945663,0.0046348716132342815,-0.1698588877916336,0.027179617434740067,0.12867380678653717,0.1309526413679123,-0.025095390155911446,0.1874886006116867,-0.10606422275304794,0.14946313202381134,0.007535283453762531,0.09018943458795547,0.07621941715478897,-0.14453467726707458,-0.1360023468732834,-0.20349563658237457,0.14815810322761536,-0.014193895272910595,0.11764734983444214,-0.33326488733291626,0.13107140362262726,0.04272959753870964,-0.04282978177070618,0.0046327668242156506,-0.2755868434906006,0.060352616012096405,-0.0003826140600722283,0.0200872290879488,0.031445737928152084,-0.14600640535354614,-0.059643346816301346,-0.10701416432857513,0.021100293844938278,0.15992559492588043,-0.13300016522407532,0.09749463200569153,0.06833743304014206,-0.12180807441473007,0.23822489380836487,-0.20297110080718994,-0.02284003421664238,-0.029302481561899185,0.15528514981269836,0.0831136554479599,0.061427317559719086,0.2487768679857254,-0.08642996847629547,0.11441503465175629,-0.13043133914470673,0.10277894139289856,0.030879909172654152],[0.0049649253487586975,0.1751592606306076,0.003786004614084959,0.22135071456432343,-0.023261994123458862,0.04048723354935646,-0.052025262266397476,-0.028065292164683342,0.0840730145573616,-0.1779918521642685,-0.10645698755979538,-0.0807286947965622,0.04880298674106598,0.09024086594581604,-0.003693785984069109,-0.10749034583568573,0.004469241946935654,0.16201923787593842,0.14027313888072968,0.0877404734492302,0.037558574229478836,0.09614904224872589,-0.08708501607179642,0.02100321650505066,-0.14644812047481537,0.07947521656751633,-0.22298014163970947,0.1528061330318451,-0.04581344127655029,0.05412963777780533,-0.013487391173839569,0.012546799145638943,0.05867666378617287,0.005981196649372578,-0.0684075653553009,-0.027883628383278847,-0.11645247787237167,-0.08979356288909912,0.05603314936161041,0.029654834419488907,0.03635608032345772,-0.16866959631443024,0.019063258543610573,-0.04982805997133255,-0.11748965084552765,0.09836682677268982,0.40839627385139465,0.12040553987026215,0.0663795992732048,-0.032294753938913345,0.2885468304157257,0.12969382107257843,-0.09532633423805237,0.04390273988246918,-0.07569153606891632,0.14149357378482819,-0.014470749534666538,0.0712009146809578,-0.06941908597946167,0.04223623499274254,-0.0086156465113163,0.07218366861343384,-0.08625628054141998,0.07476837188005447,0.03422906994819641,0.043791405856609344,0.15462058782577515,0.06887494772672653,-0.0053069330751895905,0.03371613100171089,-0.009499020874500275,-0.11040773242712021,0.051384225487709045,0.031806278973817825,-0.04036684334278107,-0.06160746142268181,0.11054010689258575,-0.16404840350151062,0.10490603744983673,-0.026057742536067963,-0.06969142705202103,-0.3108319938182831,-0.12750694155693054,0.03591114655137062,0.027381449937820435,0.03175073117017746,0.190227672457695,0.0259286779910326,-0.06618698686361313,0.03833029791712761,-0.10890218615531921,0.1714085042476654,-0.0384843535721302,-0.010684343986213207,-0.027952183037996292,0.12074943631887436,-0.05959046632051468,-0.05255059897899628,0.02205553464591503,-0.08878319710493088,0.11819302290678024,0.1303711235523224,-0.15325619280338287,0.017203809693455696,-0.0872931256890297,-0.14227524399757385,-0.024427108466625214,-0.000960910227149725,0.16249039769172668,-0.08199140429496765,0.08696502447128296,0.14915159344673157,-0.04809221252799034,-0.05845249071717262,-0.001765162916854024,-0.3213126063346863,-0.10263652354478836,0.06104552373290062,-0.09259502589702606,0.07438212633132935,0.27378207445144653,0.16722756624221802,-0.22534538805484772,0.09631583839654922,0.06547550857067108,0.09696080535650253,0.05121713504195213,-0.014831711538136005,-0.006367748137563467,-0.0995166078209877,0.14345620572566986,0.022147299721837044,0.1709597110748291,-0.03515180945396423,-0.30129292607307434,-0.09881347417831421,0.20107431709766388,0.15006062388420105],[0.14655883610248566,-0.1323281228542328,-0.08716966211795807,-0.14352841675281525,0.057839807122945786,0.013819348067045212,-0.16230526566505432,0.060738008469343185,-0.12604929506778717,-0.11249012500047684,-0.005706102587282658,0.11208287626504898,-0.08839106559753418,0.06284298002719879,-0.17360849678516388,0.21638555824756622,0.092355877161026,-0.05913756787776947,-0.13589970767498016,-0.10185878723859787,0.022195518016815186,0.17438915371894836,0.04769565910100937,0.301914244890213,0.15036699175834656,0.0046478151343762875,-0.02385110594332218,-0.1293690800666809,0.0009627857943996787,-0.11061040312051773,0.03853316232562065,0.004629357717931271,0.0276732686907053,0.034630581736564636,-0.025884192436933517,0.23292936384677887,0.1305355429649353,-0.00687794666737318,-0.15713591873645782,-0.2208794802427292,-0.16963234543800354,-0.021176699548959732,-0.17803601920604706,-0.05553469806909561,0.12031198292970657,-0.01330526266247034,-0.016175150871276855,-0.0192901361733675,0.01941060647368431,0.048910509794950485,0.00809371005743742,0.12941482663154602,-0.031346626579761505,-0.030511412769556046,0.031176961958408356,0.028453722596168518,0.14689375460147858,-0.005384320393204689,-0.09387554973363876,0.17010870575904846,0.2617453634738922,-0.02323022112250328,-0.20116636157035828,0.06014667823910713,0.050343774259090424,-0.005243157967925072,-0.07780823856592178,-0.15226677060127258,0.036191150546073914,-0.10243144631385803,-0.3154633343219757,-0.027926629409193993,0.13115668296813965,0.01716373674571514,0.1615893542766571,0.0032722726464271545,0.052416592836380005,0.19598902761936188,0.003972431179136038,-0.0329400971531868,-0.11527469009160995,0.047244179993867874,-0.1690864861011505,-0.06317921727895737,0.03473944216966629,0.11966448277235031,-0.065329410135746,-0.07253648340702057,0.04730859026312828,0.024572469294071198,-0.03130853548645973,-0.19727779924869537,0.00001856861126725562,-0.07523364573717117,-0.02638075314462185,0.065647654235363,0.13098424673080444,0.05970865488052368,-0.0592554472386837,-0.03263714164495468,0.06124189868569374,0.1300521045923233,0.12658384442329407,-0.059088487178087234,-0.1338086724281311,0.06814481317996979,-0.03481774032115936,0.20382003486156464,0.03926192969083786,-0.31221264600753784,0.2135903388261795,-0.04456975683569908,0.03313923999667168,0.006104629021137953,0.004991321824491024,-0.0508992001414299,0.04758930206298828,-0.12644299864768982,0.08586596697568893,0.03710261732339859,0.008476520888507366,0.04921074956655502,-0.06532929837703705,-0.06993168592453003,-0.15061978995800018,0.12164652347564697,0.09606339782476425,-0.01704467087984085,-0.07150408625602722,0.03370033949613571,-0.1830410659313202,0.08466178178787231,-0.18316051363945007,-0.04060003161430359,-0.020809724926948547,-0.1967611461877823,0.09559285640716553,-0.1318599283695221],[0.005496346391737461,-0.056412529200315475,-0.09393000602722168,-0.022538479417562485,0.12401288747787476,0.16067218780517578,-0.060034919530153275,-0.02809715084731579,0.2340288758277893,0.08589795976877213,0.04132977873086929,-0.0908958911895752,0.0006380779668688774,-0.09339899569749832,0.12029288709163666,-0.03135824203491211,-0.01590806245803833,-0.08733375370502472,0.12822650372982025,-0.0010785014601424336,-0.10265039652585983,-0.09988983720541,-0.24873237311840057,0.11505856364965439,0.00484889280050993,0.06376327574253082,-0.11397568136453629,0.03812225162982941,0.016712743788957596,-0.059736669063568115,-0.1985526978969574,0.016742302104830742,0.1488131880760193,0.1286877542734146,-0.007671089377254248,0.23682622611522675,0.12874294817447662,-0.12660865485668182,-0.016850847750902176,-0.04525589942932129,-0.025283604860305786,0.03829333186149597,0.16809779405593872,0.07492262125015259,-0.160579115152359,0.06998606771230698,-0.10858052223920822,-0.03857382759451866,-0.03177789971232414,-0.057618338614702225,0.018697552382946014,-0.12732936441898346,0.15015634894371033,0.09970584511756897,-0.17842252552509308,0.07765479385852814,-0.07126870006322861,-0.0733749121427536,-0.09399031102657318,0.039685722440481186,0.1734851896762848,0.03558783233165741,0.255535751581192,0.01045969221740961,0.003693238366395235,-0.0015802101697772741,0.14041492342948914,-0.03833892196416855,0.039027225226163864,-0.1603672206401825,-0.12574118375778198,-0.1022549644112587,0.1241193488240242,-0.01354356948286295,-0.04576028138399124,-0.0763944685459137,-0.2382463812828064,0.1820191890001297,0.10412994027137756,0.028845518827438354,-0.1145625188946724,-0.016402246430516243,0.057053424417972565,-0.037052202969789505,0.05549195781350136,-0.09455661475658417,-0.06052736937999725,0.11614082008600235,0.03410180285573006,0.03605818375945091,-0.3849606215953827,0.19788777828216553,0.03136713057756424,-0.046594470739364624,-0.061520300805568695,-0.04425736516714096,0.14172449707984924,0.07340242713689804,-0.05060137063264847,0.028198013082146645,0.11116502434015274,0.02362455427646637,-0.10079094767570496,0.35263997316360474,0.1215648204088211,-0.028200162574648857,-0.0983717069029808,-0.045187219977378845,0.05073679983615875,-0.162471204996109,0.07689615339040756,0.003351049730554223,0.17511102557182312,-0.05055490508675575,-0.04129530489444733,-0.030684782192111015,-0.090732142329216,-0.04267770051956177,0.0009990492835640907,0.13694459199905396,0.1044909730553627,-0.011074239388108253,-0.014234653674066067,-0.14024603366851807,-0.04174899682402611,-0.04242999106645584,-0.001001408789306879,0.08531037718057632,-0.09492333978414536,-0.04987949877977371,0.10053751617670059,-0.06205865368247032,-0.09385264664888382,-0.26871734857559204,-0.06080162897706032,-0.12144021689891815,0.03491819649934769,0.006875066552311182],[0.1137385442852974,0.15404948592185974,-0.06323796510696411,-0.070461206138134,0.13114814460277557,-0.15465642511844635,-0.04349464550614357,0.05762104690074921,-0.0671139508485794,0.030738169327378273,-0.13064245879650116,0.11760450899600983,0.10368163138628006,-0.1891118735074997,-0.11845247447490692,-0.10577566921710968,-0.12800998985767365,0.013582964427769184,-0.004555075895041227,0.0341668501496315,-0.011538220569491386,-0.08236677944660187,0.01202794723212719,0.07245354354381561,0.3226753771305084,-0.002845506649464369,-0.02739120088517666,-0.09765942394733429,0.03283936157822609,0.21790266036987305,0.04326596111059189,0.15085124969482422,0.03861004114151001,-0.22916799783706665,-0.01783195696771145,-0.010697119869291782,0.01422096136957407,-0.09753738343715668,-0.02645038813352585,-0.05785113945603371,-0.016784602776169777,-0.02260667271912098,-0.09061195701360703,0.13429474830627441,-0.14412830770015717,0.13191697001457214,-0.06731820106506348,0.08272234350442886,-0.05009350925683975,0.03563470020890236,-0.19126692414283752,0.09478554874658585,-0.11291780322790146,-0.027709104120731354,0.10116075724363327,0.15886805951595306,-0.04889608174562454,-0.034201934933662415,-0.0349937342107296,-0.051078055053949356,-0.05781390517950058,0.16334334015846252,0.040971510112285614,0.10414192825555801,-0.11460348218679428,0.11234286427497864,0.0029716810677200556,-0.03663022071123123,-0.17070923745632172,-0.14640450477600098,-0.004648909438401461,-0.055906977504491806,-0.10565853863954544,-0.05740261450409889,0.08138592541217804,-0.07407238334417343,0.16249042749404907,-0.1036735251545906,-0.0006465373444370925,-0.008974216878414154,0.08795053511857986,0.14991417527198792,0.1451473832130432,0.11043614894151688,0.07537317276000977,-0.14891234040260315,0.030116908252239227,0.03044884093105793,-0.1416577398777008,-0.03213346004486084,0.025766698643565178,-0.18713943660259247,-0.009298807941377163,-0.054930318146944046,0.024886174127459526,-0.03425798937678337,-0.08875026553869247,-0.023058006539940834,0.10119928419589996,-0.021855484694242477,0.048905517905950546,-0.023941608145833015,-0.0653945654630661,0.1457410603761673,-0.005663423798978329,0.06047049164772034,-0.025556305423378944,0.03883194178342819,0.011434310115873814,0.20442040264606476,0.010481531731784344,-0.022258030250668526,-0.041294652968645096,0.06015555560588837,-0.09105795621871948,0.009220913983881474,-0.14044921100139618,-0.06461361050605774,-0.2150353044271469,0.08499536663293839,-0.02205057069659233,-0.08560457080602646,0.1554705649614334,0.10271263122558594,0.09184708446264267,0.008823527954518795,-0.062167149037122726,0.05336621031165123,0.052748244255781174,-0.08669896423816681,0.1644814908504486,-0.043534740805625916,-0.08560126274824142,-0.08324635028839111,0.06205902248620987,0.08136153221130371,-0.13100335001945496,-0.0009207538678310812],[-0.13829714059829712,-0.14584115147590637,-0.01747824065387249,-0.04373416677117348,-0.0826614648103714,0.18484286963939667,0.01761731132864952,-0.040058434009552,0.012920376844704151,-0.17179515957832336,-0.008617104962468147,0.1455468237400055,-0.19153037667274475,-0.03564498946070671,-0.05843895301222801,-0.031684886664152145,0.01606404408812523,-0.1412929892539978,0.08711959421634674,-0.011626251973211765,0.058166250586509705,-0.008273166604340076,0.11543887853622437,-0.03034237213432789,0.01445284578949213,-0.00947135966271162,0.36987268924713135,0.1491299867630005,0.16345097124576569,-0.19071000814437866,0.008846125565469265,-0.11608726531267166,-0.11101546883583069,0.02082301490008831,0.05554851144552231,0.0028536508325487375,0.0849151760339737,-0.03548640012741089,0.023492060601711273,-0.02881374955177307,0.055102694779634476,-0.006933267693966627,0.03558455407619476,-0.10623876005411148,0.22407643496990204,-0.028523337095975876,-0.21913482248783112,-0.12974673509597778,0.08254840970039368,-0.04183240979909897,-0.006286542396992445,0.053419455885887146,-0.1268269121646881,-0.016007933765649796,0.03985898569226265,0.057836733758449554,0.05175948515534401,0.07398337125778198,-0.009461111389100552,0.06339555233716965,0.349028617143631,0.12965169548988342,-0.06256768852472305,0.07597365230321884,0.10450974106788635,0.08906685560941696,0.16374607384204865,-0.07043486833572388,0.12114361673593521,0.04979424923658371,0.006447747815400362,-0.05092678964138031,0.007997489534318447,0.10947949439287186,0.09235497564077377,-0.0020531434565782547,0.09377451241016388,0.06539641320705414,0.03372658044099808,-0.049405135214328766,0.24870792031288147,0.02175363153219223,0.11077678203582764,-0.057182781398296356,0.11172633618116379,0.06924799829721451,-0.07112705707550049,0.05712151527404785,0.12260645627975464,0.012078278698027134,0.03846902772784233,0.059551041573286057,0.11284281313419342,-0.1010550931096077,0.17804205417633057,-0.008188515901565552,0.20003320276737213,0.05996910110116005,-0.032509684562683105,0.10467396676540375,0.014613521285355091,0.07267951965332031,0.07433047145605087,-0.14092232286930084,-0.12276610732078552,0.2439681589603424,0.04909082129597664,-0.05881500244140625,-0.059557393193244934,-0.10461785644292831,-0.14650987088680267,0.043766215443611145,0.1671038717031479,0.03155817463994026,-0.09443430602550507,0.1731726974248886,-0.03974143788218498,0.08011946082115173,0.08946437388658524,-0.08284389972686768,-0.07761164754629135,0.0743500292301178,-0.1318236142396927,0.012635692954063416,0.038738664239645004,-0.17381639778614044,-0.020948946475982666,0.08203620463609695,0.11620945483446121,-0.09785632789134979,-0.14076459407806396,0.025804024189710617,0.16648904979228973,0.027220794931054115,-0.0039120507426559925,0.04969114065170288,-0.20219720900058746,-0.0018009511986747384],[0.05029785633087158,0.10315126180648804,-0.1969558298587799,-0.12269804626703262,-0.07845521718263626,-0.07461389899253845,-0.10200858116149902,0.08996368944644928,0.07122272253036499,-0.04136006534099579,-0.16161657869815826,0.10669352859258652,0.01962023414671421,-0.09153798222541809,0.14293172955513,0.05591144040226936,-0.08369167894124985,0.13734467327594757,-0.012692675925791264,0.10402382165193558,0.00737551087513566,0.029285889118909836,0.017020530998706818,0.22779572010040283,0.04668477177619934,-0.2043260633945465,0.03956737369298935,-0.012836390174925327,-0.08076807111501694,-0.010798199102282524,0.05577520653605461,0.015757817775011063,-0.00201642164029181,0.07188855111598969,0.014753542840480804,-0.018991155549883842,0.08424359560012817,-0.1338140368461609,-0.06520023941993713,-0.22501197457313538,0.17190982401371002,0.031901489943265915,0.1848774552345276,0.017340518534183502,0.048720583319664,0.11448825895786285,-0.20070694386959076,0.24140630662441254,-0.1544128656387329,-0.05093387886881828,-0.009628416039049625,-0.04088299348950386,0.16134780645370483,-0.017618689686059952,0.0030163147021085024,-0.17386490106582642,0.031698282808065414,0.019042756408452988,-0.1916118711233139,-0.1320420503616333,0.014150130562484264,-0.078189916908741,-0.05256078764796257,0.11293455213308334,0.20120134949684143,-0.00751836271956563,0.2324337661266327,-0.010487025603652,-0.024239342659711838,0.03581786900758743,0.17295323312282562,-0.23058202862739563,0.13816171884536743,0.11824941635131836,-0.17618690431118011,-0.06128688156604767,0.014723757281899452,-0.07090375572443008,0.10959123075008392,-0.049619950354099274,-0.036485910415649414,-0.027766982093453407,-0.10822873562574387,0.1484077423810959,-0.1869809627532959,-0.02771891839802265,0.31117621064186096,-0.07610995322465897,0.0026012067683041096,-0.20489518344402313,-0.11998889595270157,-0.12750831246376038,0.28044530749320984,0.1025800108909607,-0.006789752282202244,0.035265352576971054,-0.12440258264541626,-0.12511701881885529,0.0586145743727684,0.09157977253198624,-0.048855625092983246,0.08127861469984055,-0.04560689628124237,0.04403926804661751,-0.06600590795278549,0.33126482367515564,-0.11720634251832962,-0.06855232268571854,-0.032878533005714417,0.14533284306526184,-0.16024066507816315,-0.21025268733501434,0.21611550450325012,0.030340028926730156,0.04334067553281784,0.12125775218009949,-0.01690572500228882,0.061809007078409195,-0.06412500143051147,0.12747620046138763,-0.0665997788310051,-0.11608482152223587,0.0752309113740921,-0.00399568397551775,-0.12764424085617065,-0.16450130939483643,-0.016060005873441696,-0.08189597725868225,-0.04134526476264,0.10101112723350525,0.102989561855793,-0.11806236952543259,-0.009036712348461151,0.12312820553779602,-0.048582930117845535,0.053637292236089706,-0.017968276515603065,0.11303174495697021],[0.013197474181652069,-0.14117810130119324,0.08896932750940323,-0.030938657000660896,-0.0012366280425339937,0.0930107906460762,-0.04159506410360336,0.16000224649906158,-0.018882837146520615,0.0790058821439743,0.021969616413116455,-0.0551149845123291,0.008809824474155903,-0.032523781061172485,-0.05473768711090088,-0.18427130579948425,-0.0836460068821907,-0.00792277604341507,0.11409424245357513,-0.11357272416353226,-0.11305437237024307,0.03996017202734947,-0.1502278745174408,-0.02809985913336277,-0.17784328758716583,-0.10498008877038956,-0.06439034640789032,0.06225406378507614,0.13338446617126465,0.07927711308002472,-0.06889435648918152,0.054400328546762466,-0.14885523915290833,0.041407253593206406,-0.07843684405088425,0.31505459547042847,-0.04597095772624016,0.0368967205286026,0.004330625291913748,-0.059815727174282074,-0.12260562181472778,-0.014499090611934662,-0.09837149828672409,-0.03998326510190964,-0.033652570098638535,0.019395384937524796,0.015801003202795982,0.05178704112768173,0.11952260881662369,-0.03569428250193596,0.05959279462695122,-0.16728375852108002,-0.06546337157487869,0.22805306315422058,-0.2953667640686035,0.22277672588825226,-0.09111277759075165,-0.08657870441675186,-0.014888176694512367,0.13220715522766113,-0.16782988607883453,-0.05410407483577728,0.013725205324590206,0.20901185274124146,0.1074034720659256,-0.10550680756568909,0.010213874280452728,-0.10062477737665176,-0.08041368424892426,-0.08516593277454376,-0.02363247610628605,-0.05116284266114235,-0.12529976665973663,-0.1499527543783188,0.03925958648324013,-0.16736853122711182,-0.2031540870666504,0.07543233782052994,-0.1437591016292572,-0.23149104416370392,0.1483830213546753,0.2088920772075653,0.13676737248897552,-0.08840420842170715,0.15642182528972626,-0.07322045415639877,-0.12451356649398804,-0.14091627299785614,-0.014245838858187199,-0.01819855161011219,-0.0888906791806221,0.13205604255199432,0.10382010042667389,-0.20805752277374268,0.20007388293743134,0.00023293937556445599,-0.031183775514364243,0.159232497215271,0.271042138338089,-0.05087009444832802,-0.16600598394870758,0.04280858859419823,0.041076138615608215,-0.1505199372768402,-0.0015366575680673122,-0.05245399847626686,-0.20381174981594086,-0.002763854805380106,0.18405582010746002,0.11015434563159943,0.050231315195560455,-0.04983851686120033,0.07569611072540283,0.048779718577861786,0.2799970507621765,-0.004151101224124432,0.04178570583462715,0.20718689262866974,0.029381807893514633,0.18231719732284546,-0.19325150549411774,-0.06061222776770592,0.0070440457202494144,-0.059221625328063965,0.05811481177806854,-0.011298858560621738,0.09620768576860428,0.017947062849998474,-0.12699086964130402,-0.18248584866523743,0.22894059121608734,0.12433985620737076,0.009778276085853577,0.04956769198179245,-0.004774242173880339,0.06908439844846725,-0.015455489046871662,0.06252675503492355],[0.0650695413351059,-0.05388350412249565,-0.2148679792881012,0.1171649694442749,-0.0626315325498581,-0.01901749148964882,-0.018492603674530983,-0.08033891767263412,0.0417679138481617,-0.3008091449737549,-0.02571091055870056,0.022152870893478394,-0.06454872339963913,0.009885828010737896,-0.055162426084280014,-0.0012362891575321555,0.10934710502624512,0.0039984239265322685,0.1126483678817749,-0.0728549137711525,0.0021247516851872206,0.14468204975128174,-0.07060225307941437,0.11373148113489151,0.0367920957505703,0.04871997609734535,-0.04216448962688446,-0.06337876617908478,0.12318222224712372,0.006675299257040024,0.05437144637107849,-0.011427775956690311,-0.060267116874456406,-0.03674383461475372,-0.05489024147391319,0.03437144681811333,0.05683666840195656,-0.190044566988945,-0.27302584052085876,0.06388738006353378,-0.16441303491592407,-0.002340742852538824,-0.05358218029141426,0.008428158238530159,-0.1082037016749382,0.07920445501804352,-0.24703337252140045,0.06143078953027725,0.033697616308927536,-0.0745094045996666,-0.08145102113485336,0.15288592875003815,0.10901924967765808,-0.19457900524139404,0.11965282261371613,-0.17379818856716156,0.033095791935920715,-0.26780569553375244,-0.16909807920455933,-0.11718994379043579,-0.27647829055786133,0.013065801002085209,0.12615269422531128,-0.22388584911823273,-0.06023022532463074,-0.10551729798316956,0.042690012603998184,0.05955936387181282,-0.21305127441883087,0.02848638966679573,-0.12969467043876648,-0.10963743180036545,0.030174173414707184,-0.10191495716571808,-0.05967114865779877,0.05824468657374382,0.14820809662342072,-0.11068905144929886,-0.17730514705181122,-0.012599465437233448,0.03353532776236534,0.1732592135667801,-0.18244805932044983,-0.07023822516202927,-0.024974312633275986,0.028614606708288193,-0.09507589787244797,0.028132764622569084,0.03446444496512413,0.0759841799736023,0.13197104632854462,-0.11530087888240814,0.028704866766929626,0.025408189743757248,0.029736097902059555,-0.05340541899204254,0.06568006426095963,-0.044800639152526855,-0.09736505895853043,0.06641916930675507,-0.03342745080590248,0.06620827317237854,-0.1398361176252365,0.14117185771465302,-0.07963743805885315,0.10687929391860962,-0.008935809135437012,-0.01699809357523918,0.0040653543546795845,0.07271116226911545,0.058854129165410995,0.009438098408281803,-0.07850901782512665,-0.16377077996730804,-0.033081162720918655,-0.22139649093151093,0.1139359101653099,0.0012150212423875928,0.0936412662267685,0.08591121435165405,-0.10238068550825119,0.10619457066059113,-0.0734630674123764,-0.17971020936965942,-0.10898394882678986,-0.01892881654202938,-0.11294153332710266,0.03085067868232727,0.08315541595220566,0.07712674885988235,-0.1045282632112503,-0.025495169684290886,-0.061640653759241104,-0.29232144355773926,0.0011914868373423815,0.18450526893138885,-0.025050081312656403,0.07408760488033295],[0.277263879776001,0.04984450712800026,-0.0676773265004158,0.3143124580383301,-0.06512001156806946,0.04959625378251076,0.15165676176548004,-0.09051866829395294,0.1738920509815216,0.04366019740700722,0.006552343722432852,-0.034003354609012604,0.14274875819683075,-0.004800356924533844,-0.16979078948497772,-0.03510603681206703,-0.1263485699892044,0.011859502643346786,-0.08365126699209213,-0.20607168972492218,0.04265367612242699,-0.15609392523765564,-0.1052519902586937,0.2123456597328186,0.04731712490320206,-0.01087121106684208,-0.04216919094324112,-0.06803231686353683,-0.11583283543586731,-0.08483217656612396,-0.059953268617391586,0.18077073991298676,-0.04592899605631828,-0.049188192933797836,-0.07220486551523209,0.020439649000763893,-0.150222048163414,-0.010637763887643814,0.14760783314704895,0.15887296199798584,-0.05619039386510849,-0.12050741910934448,0.030420878902077675,0.016660889610648155,-0.02797826938331127,-0.03083677403628826,-0.07038955390453339,-0.09922117739915848,0.06817932426929474,-0.12640489637851715,0.0940369963645935,0.16778157651424408,0.02837836742401123,0.033741872757673264,-0.23330993950366974,0.042637381702661514,-0.13714812695980072,-0.2630547881126404,-0.04297466576099396,-0.08172678202390671,0.005521805956959724,0.04394913464784622,0.006444803439080715,-0.11533264815807343,0.12335052341222763,0.04243052005767822,0.12315975874662399,-0.10322843492031097,-0.0015786932781338692,0.03932640701532364,-0.014001277275383472,-0.09243150055408478,0.10067613422870636,-0.01827828213572502,0.05212562531232834,-0.007085402961820364,0.12777265906333923,-0.037319693714380264,0.0051530469208955765,-0.005926824640482664,0.03398697450757027,-0.028745289891958237,0.15429970622062683,0.02420431561768055,-0.0029096424113959074,-0.040240414440631866,0.22469991445541382,-0.07117325812578201,-0.015755033120512962,-0.13338275253772736,0.01274631917476654,0.09017303586006165,0.084136001765728,0.0038762176409363747,0.028372017666697502,0.07119769603013992,0.010378661565482616,-0.0644172802567482,-0.10845234990119934,0.041791316121816635,-0.053615689277648926,0.20605584979057312,0.047844529151916504,0.1116863489151001,-0.04204301908612251,0.1748563051223755,-0.04663638025522232,-0.026950988918542862,-0.04250631853938103,0.15734156966209412,-0.04755915701389313,-0.09186998009681702,-0.005612680222839117,-0.09383178502321243,-0.1088552251458168,-0.07425598800182343,0.08477791398763657,-0.04400463402271271,-0.09244424104690552,0.04518953338265419,-0.036967914551496506,-0.0005684191128239036,0.070785291492939,-0.04274977743625641,-0.19044530391693115,-0.05943357199430466,-0.07226436585187912,0.008621937595307827,0.0772222951054573,0.05558789148926735,0.08284009248018265,-0.09867694228887558,-0.17596925795078278,-0.07683120667934418,-0.048432134091854095,0.010286250151693821,-0.06207115948200226,0.08318157494068146],[0.02804899401962757,-0.25500062108039856,0.26112574338912964,0.27699097990989685,-0.012535512447357178,0.1325492411851883,-0.11982361227273941,-0.04795963689684868,0.01880556158721447,-0.05098035931587219,0.03608972206711769,-0.10795685648918152,0.0332447774708271,0.07393164932727814,-0.2060263454914093,0.11106549203395844,0.028389975428581238,-0.06297457963228226,-0.020972559228539467,0.11890620738267899,-0.3152047395706177,-0.012177247554063797,-0.11587996035814285,-0.08045487105846405,-0.024563899263739586,-0.1381489634513855,-0.018334323540329933,-0.10364177078008652,-0.13131389021873474,-0.06982462108135223,-0.10067911446094513,-0.09452595561742783,0.08421280980110168,0.12221723794937134,-0.10174552351236343,0.06935254484415054,-0.05300486087799072,0.13153964281082153,0.25971606373786926,0.11678792536258698,0.02685835212469101,-0.1128908097743988,0.0209664274007082,0.050389718264341354,0.06680130958557129,0.1477246880531311,-0.0850791186094284,-0.15225037932395935,0.18375803530216217,-0.02767801657319069,-0.044587068259716034,-0.10664160549640656,0.02987946942448616,0.004763475153595209,0.03887537494301796,-0.04383433237671852,0.068605937063694,-0.08133188635110855,-0.04888829588890076,0.23146574199199677,-0.1641758233308792,-0.08942488580942154,0.1880992203950882,0.2518984377384186,-0.04119708761572838,-0.13520751893520355,-0.1375758945941925,-0.029491394758224487,0.11062481999397278,0.068928062915802,-0.08108317852020264,0.02797611430287361,-0.05386725440621376,0.004648130387067795,0.042359258979558945,0.021864252164959908,-0.05930511653423309,0.08938977867364883,0.031132109463214874,0.20740240812301636,0.17330455780029297,0.05985088646411896,-0.07884477078914642,-0.020545177161693573,0.040135759860277176,0.16068492829799652,0.12516705691814423,0.13709597289562225,0.18853729963302612,-0.027736838907003403,0.0654560998082161,0.169255331158638,-0.09522947669029236,-0.03098588064312935,-0.04795689880847931,0.00130933104082942,-0.0842534750699997,-0.0005749301053583622,0.11511323601007462,-0.02989770472049713,0.05590454861521721,-0.11082525551319122,-0.025660572573542595,-0.1784805804491043,0.03988610580563545,0.11980916559696198,-0.033044300973415375,-0.01682758331298828,-0.07556823641061783,-0.1182786375284195,-0.11204039305448532,0.05365076661109924,-0.030247846618294716,-0.2952204942703247,-0.19902504980564117,0.05233996361494064,0.1057242602109909,0.036551203578710556,0.011263194493949413,0.019286982715129852,-0.1643867790699005,0.011118643917143345,0.02421623468399048,0.04106893762946129,0.13511642813682556,-0.09241983294487,-0.1794690638780594,-0.1193382516503334,0.16809536516666412,0.013039122335612774,-0.04843584820628166,0.012028248980641365,-0.07573364675045013,0.127853661775589,0.19214536249637604,-0.046791646629571915,-0.0990452915430069,-0.09694235026836395],[-0.02855747751891613,-0.17427022755146027,-0.15178556740283966,0.2052851915359497,-0.07972307503223419,0.01176561787724495,0.01326739601790905,-0.25372740626335144,-0.0790095254778862,-0.0023758704774081707,-0.12311026453971863,0.15585586428642273,0.028583062812685966,0.2125002145767212,-0.0020114246290177107,-0.13726386427879333,0.027579916641116142,-0.013179339468479156,-0.3094838559627533,-0.024426935240626335,0.1000484898686409,0.28212523460388184,0.18747209012508392,-0.21826909482479095,-0.010561518371105194,-0.23167933523654938,-0.011046492494642735,-0.014058111235499382,-0.05413767695426941,0.11004012823104858,0.02702392265200615,-0.05405256524682045,0.15702730417251587,-0.10496202111244202,-0.1246756762266159,0.08747196942567825,0.029204867780208588,-0.10581362247467041,0.02801518701016903,0.20434661209583282,0.05863333120942116,-0.03844278305768967,0.06377693265676498,0.013829066418111324,0.04644659161567688,-0.030631214380264282,0.06847048550844193,-0.0141785629093647,-0.10410580039024353,0.15730920433998108,0.0021364553831517696,-0.04285448417067528,0.014982473105192184,-0.016176622360944748,-0.2611788809299469,-0.16881240904331207,0.15049253404140472,-0.012707150541245937,0.10987702012062073,0.07010874897241592,-0.13969777524471283,0.04510115832090378,0.04812493547797203,-0.008920025080442429,0.031067125499248505,-0.02973487414419651,0.0550181120634079,-0.2847070097923279,-0.05136023461818695,0.12026788294315338,0.002695370465517044,-0.0986454039812088,-0.028444187715649605,0.016188886016607285,-0.03479993715882301,-0.1281406134366989,-0.06665919721126556,0.07116705179214478,0.06320995092391968,-0.10499817878007889,0.11128303408622742,0.029572224244475365,-0.08300480991601944,-0.044441331177949905,-0.06828363984823227,-0.05799758806824684,-0.029304374009370804,-0.17089015245437622,-0.027291756123304367,-0.029381511732935905,-0.0633116140961647,-0.018006203696131706,0.12977337837219238,0.03215856850147247,0.1598549485206604,0.04125582054257393,0.016467435285449028,-0.13232792913913727,-0.12703098356723785,-0.007200168911367655,-0.053340356796979904,-0.24557442963123322,-0.02978796325623989,0.0764678344130516,-0.15209947526454926,0.17034317553043365,-0.051445912569761276,0.18835307657718658,-0.10894826054573059,-0.13998909294605255,-0.1489972323179245,0.08741572499275208,-0.027624337002635002,0.04438401758670807,-0.01341558899730444,0.0002613198885228485,0.08442511409521103,-0.008387722074985504,0.03272107243537903,0.03634563833475113,-0.002711537526920438,0.07343234121799469,0.23186427354812622,-0.0799473226070404,-0.053502682596445084,-0.12604451179504395,-0.04330102354288101,0.02692742645740509,-0.10723455250263214,-0.057010069489479065,0.18823139369487762,-0.005030052736401558,-0.1656963974237442,0.06289765238761902,0.14174745976924896,-0.07857967913150787,-0.05909145623445511,-0.021113112568855286],[0.048699114471673965,-0.036452941596508026,-0.025037160143256187,-0.09537361562252045,0.15614467859268188,-0.1259605586528778,-0.04363733530044556,-0.18636919558048248,0.0591852068901062,-0.1499280333518982,0.12012653052806854,0.1635269969701767,0.147149458527565,-0.034083057194948196,0.17628133296966553,-0.028336599469184875,0.1964024305343628,0.23011407256126404,-0.052698519080877304,-0.014187547378242016,-0.1514255702495575,0.09527898579835892,-0.04842372611165047,-0.0785384476184845,-0.11490222066640854,0.08489187061786652,0.0023288442753255367,0.14230413734912872,0.06464523077011108,-0.06819406151771545,-0.08960895240306854,-0.1794898509979248,-0.08450093120336533,-0.21699486672878265,0.00023731327382847667,0.022948887199163437,0.27484753727912903,-0.10208451747894287,-0.09810831397771835,0.012990938499569893,-0.04890875518321991,-0.057022400200366974,-0.22154122591018677,-0.08450954407453537,0.11417056620121002,0.07769783586263657,-0.12861061096191406,-0.06415807455778122,-0.2640649080276489,-0.07771331816911697,-0.048311058431863785,0.06575311720371246,-0.009597077034413815,-0.06832780689001083,-0.18576942384243011,0.16782808303833008,0.04413911700248718,-0.07881435751914978,0.10696268081665039,0.028565295040607452,0.12014545500278473,0.09870327264070511,0.1003216952085495,-0.06476093083620071,-0.1526240110397339,-0.055349260568618774,0.043938495218753815,0.1679466962814331,-0.04112471640110016,0.06731284409761429,-0.05875895172357559,0.1574169397354126,-0.002065372886136174,-0.15955324470996857,-0.1372581273317337,0.045271649956703186,0.1937754899263382,-0.031108584254980087,0.10016784816980362,-0.03166339918971062,-0.16532868146896362,0.08267418295145035,-0.16826850175857544,0.020399177446961403,0.08270328491926193,-0.21138106286525726,-0.07637094706296921,0.19994431734085083,0.029039066284894943,-0.0033283426892012358,-0.23450683057308197,-0.05615875869989395,-0.018023429438471794,-0.033109065145254135,-0.09608331322669983,0.04137121140956879,-0.021513672545552254,-0.21699322760105133,-0.19847071170806885,0.030516570433974266,0.10642939060926437,0.04310080036520958,0.18849435448646545,-0.04776426777243614,0.018984952941536903,0.07125112414360046,-0.0799904465675354,0.08924894034862518,-0.0333734005689621,0.1888822317123413,-0.014632679522037506,-0.1788816601037979,-0.29969802498817444,-0.13817761838436127,0.17623679339885712,0.06258935481309891,-0.11076924949884415,-0.17433743178844452,-0.09969079494476318,-0.06456267833709717,0.025378739461302757,0.12757940590381622,-0.08646859973669052,0.019473377615213394,-0.09067730605602264,-0.02088652178645134,-0.010575718246400356,-0.12592875957489014,0.2204178124666214,0.08252610266208649,-0.11599865555763245,0.04667554795742035,-0.09464207291603088,0.11001473665237427,-0.232971653342247,-0.0783483013510704,0.21709787845611572,0.03603171929717064],[0.00902564451098442,0.07250616699457169,0.11101575940847397,0.05305977165699005,-0.04117905721068382,-0.1537584364414215,0.009070753119885921,-0.04625243693590164,0.1016085147857666,0.0300245713442564,-0.1613924503326416,-0.14251071214675903,0.023366954177618027,-0.05601347237825394,0.17895857989788055,0.002794818952679634,-0.1687495857477188,-0.030403124168515205,0.12335925549268723,0.001703395857475698,-0.06112207472324371,-0.19903568923473358,0.3176001012325287,0.061238180845975876,0.03615642338991165,0.14082936942577362,0.05828188359737396,0.27151942253112793,-0.04392275959253311,0.10595221817493439,-0.12442582845687866,0.09119225293397903,0.08829212188720703,0.020656315609812737,-0.1599440723657608,-0.005857916548848152,-0.00933826994150877,0.03189360350370407,-0.04022729769349098,0.09363014996051788,0.07789847999811172,0.16267400979995728,0.07552984356880188,0.06450861692428589,0.007381775416433811,-0.16741567850112915,0.0706421434879303,-0.06568343192338943,-0.2667536735534668,-0.26669007539749146,-0.1129172146320343,-0.18235844373703003,-0.1720615029335022,0.16289560496807098,0.28988853096961975,-0.27370357513427734,0.05523505061864853,-0.018138399347662926,-0.1481093019247055,-0.11086314171552658,0.08481841534376144,0.2503843605518341,0.10451123863458633,-0.10769283026456833,-0.02394568920135498,-0.15748587250709534,0.14368854463100433,0.09897442907094955,-0.003691605292260647,-0.0020335339941084385,-0.05794064328074455,0.07921397686004639,-0.15774117410182953,0.11307386308908463,0.010992243885993958,-0.06973844021558762,0.0016614834312349558,0.10976400971412659,0.034430257976055145,-0.044839031994342804,-0.05238088592886925,-0.17731861770153046,-0.04392838105559349,0.19716766476631165,-0.15296614170074463,0.03918725624680519,0.12711326777935028,0.0021219721529632807,0.06988724321126938,-0.09393901377916336,-0.03210575133562088,-0.07170300930738449,-0.0031288443133234978,-0.16203580796718597,-0.04489321634173393,-0.08580981194972992,-0.2025115042924881,0.14289748668670654,0.20568698644638062,0.08662841469049454,-0.025605056434869766,-0.03258988633751869,0.1676165610551834,0.05586633086204529,-0.15837392210960388,-0.026798317208886147,-0.18087634444236755,-0.06907486170530319,0.016571953892707825,-0.09677588194608688,-0.05821346119046211,0.09155037254095078,-0.1330460011959076,0.20869310200214386,0.26208749413490295,0.027254803106188774,-0.0650666281580925,-0.01206270232796669,0.1898762434720993,-0.16355611383914948,0.041389044374227524,0.03632540628314018,0.001965038012713194,-0.07153833657503128,0.06850386410951614,-0.09867160022258759,0.19070908427238464,0.05591963231563568,-0.13521510362625122,0.19911105930805206,0.07816476374864578,0.1591041386127472,0.10021062940359116,0.08089978992938995,-0.015422754921019077,0.02233065478503704,-0.10421172529459,0.08308066427707672],[-0.020324012264609337,-0.024378938600420952,-0.0769505724310875,-0.03177129849791527,0.25765323638916016,-0.05961128696799278,-0.04392567276954651,-0.08439464867115021,0.07765208184719086,0.2073514610528946,0.23379193246364594,-0.06710121780633926,-0.019230354577302933,-0.040154363960027695,0.04003848135471344,-0.02894938364624977,-0.08124546706676483,0.10832194983959198,-0.014965133741497993,0.21110273897647858,0.04415464773774147,0.044198520481586456,0.13244560360908508,0.10546024143695831,-0.06478657573461533,0.09706778824329376,-0.019308244809508324,-0.0024527739733457565,0.06913621723651886,-0.047271955758333206,0.05694083496928215,-0.13400956988334656,0.02211849018931389,0.07720136642456055,-0.08956289291381836,0.1455680876970291,0.3294591009616852,-0.04948301613330841,-0.13365618884563446,-0.05204597860574722,-0.07844655215740204,0.13014821708202362,0.00871974416077137,-0.02159782685339451,0.1425400823354721,0.03839242085814476,-0.021642928943037987,-0.05840245634317398,-0.17836038768291473,0.03125986084342003,0.17397600412368774,-0.04807605594396591,-0.06495223939418793,0.06023786589503288,0.15720325708389282,-0.031087726354599,-0.1403246968984604,0.10329408943653107,0.04557539522647858,-0.01916019432246685,0.06385696679353714,0.1009792611002922,0.024242395535111427,-0.1700659841299057,-0.10110984742641449,-0.10515019297599792,0.07197146117687225,0.04148266091942787,-0.21884925663471222,-0.37024572491645813,-0.01287963055074215,0.040904656052589417,0.13722454011440277,-0.24005328118801117,0.12233929336071014,-0.058125946670770645,0.01962427981197834,0.07852337509393692,0.038048624992370605,0.07724004983901978,0.008902360685169697,-0.03497523441910744,0.055693015456199646,0.055036451667547226,0.08093161880970001,0.08044571429491043,0.0015579499304294586,0.13197897374629974,0.15596650540828705,0.017018530517816544,0.10918176919221878,0.035232026129961014,-0.035150542855262756,0.07868948578834534,-0.25322994589805603,-0.1020059734582901,-0.16256597638130188,0.05980130285024643,0.11332753300666809,0.0961601734161377,-0.0986536517739296,-0.06624332070350647,-0.13281111419200897,-0.15597926080226898,0.12590552866458893,0.29662883281707764,0.0116406986489892,-0.007086035329848528,0.08866693079471588,-0.08941473811864853,0.16078220307826996,0.015446491539478302,0.1490192413330078,0.09581329673528671,0.12304987013339996,0.020409027114510536,-0.26433709263801575,0.1518920212984085,-0.14165116846561432,-0.08236895501613617,-0.006326986476778984,-0.1735648214817047,0.06655029207468033,-0.20289601385593414,-0.042882345616817474,0.023404061794281006,0.08213716745376587,0.05082299932837486,0.028710203245282173,0.050194304436445236,0.023800941184163094,-0.13132140040397644,-0.12729813158512115,0.06827614456415176,-0.1328917294740677,-0.10293512791395187,-0.1538330614566803,0.1423473060131073],[0.10209017246961594,0.10794060677289963,-0.17242315411567688,-0.1683308631181717,-0.08912599831819534,-0.17313382029533386,-0.21213868260383606,-0.313614159822464,-0.23789745569229126,0.05608558654785156,0.013311859220266342,0.10409225523471832,0.014255819842219353,0.042312610894441605,-0.032084349542856216,-0.22546443343162537,0.05256415531039238,0.07486576586961746,-0.15939514338970184,-0.1707092970609665,-0.055414896458387375,0.08013113588094711,0.017108021304011345,-0.05841662362217903,0.24198006093502045,-0.10033156722784042,0.30283358693122864,0.16412921249866486,0.09471278637647629,0.025798359885811806,0.024846212938427925,0.029913663864135742,-0.028735727071762085,-0.004676118493080139,-0.1789436787366867,-0.06206719949841499,-0.0629994124174118,-0.11174895614385605,-0.05484495684504509,-0.12385962903499603,0.027123501524329185,-0.04824409261345863,-0.05279985070228577,-0.15706700086593628,0.05802105739712715,0.045167069882154465,-0.06044517457485199,-0.022598430514335632,-0.16764339804649353,0.10519808530807495,-0.017208663746714592,-0.02078588679432869,-0.165522500872612,-0.09990940243005753,0.06845874339342117,-0.085809625685215,-0.08019804954528809,0.033004265278577805,0.060692816972732544,-0.04403072968125343,0.12844152748584747,0.1707996428012848,0.14300227165222168,-0.020521102473139763,-0.02670813724398613,-0.12182238698005676,-0.017563100904226303,-0.23523476719856262,-0.012096377089619637,0.09932685643434525,0.11625445634126663,-0.02343505620956421,0.19140195846557617,-0.00015832320787012577,-0.14888732135295868,-0.039199065417051315,0.1470841020345688,0.18390683829784393,-0.12313517928123474,-0.027995498850941658,-0.06513255834579468,0.14722786843776703,-0.06930191069841385,-0.018405701965093613,0.06310292333364487,0.21016272902488708,-0.05036861076951027,-0.10319777578115463,-0.007337366230785847,0.10987674444913864,-0.025994855910539627,0.0015658475458621979,0.015240735374391079,-0.05570690706372261,0.08033846318721771,-0.06551136821508408,0.16734059154987335,0.023317880928516388,-0.07814021408557892,-0.02821900136768818,0.015875985845923424,0.02292785234749317,0.10664959996938705,-0.045866310596466064,-0.07313680648803711,0.10068579763174057,-0.08839800208806992,-0.11178379505872726,-0.012247451581060886,-0.14934313297271729,0.14520177245140076,-0.006257328670471907,-0.1490715891122818,-0.11545126140117645,0.04085699841380119,0.09020383656024933,-0.10082823783159256,-0.03593333065509796,0.04505608230829239,0.05963222682476044,-0.0008758159237913787,0.10218363255262375,0.12363803386688232,-0.19528892636299133,-0.2111893892288208,0.09802523255348206,-0.33106234669685364,-0.05619470402598381,0.02965964749455452,0.07921313494443893,0.15487301349639893,-0.1087595745921135,0.15049390494823456,-0.14565306901931763,-0.11758239567279816,-0.13022808730602264,0.1675778329372406,-0.008033082820475101],[0.1326165348291397,-0.07620099186897278,-0.1897955685853958,0.1340417116880417,0.07950704544782639,-0.20760342478752136,0.13251323997974396,-0.3207300305366516,-0.18477311730384827,0.01181348878890276,-0.007116920780390501,-0.030695324763655663,0.12573528289794922,0.17564688622951508,-0.19453144073486328,0.08614693582057953,-0.029788818210363388,-0.02876763977110386,0.14212597906589508,-0.03449539467692375,-0.057447806000709534,-0.02871667966246605,-0.015191295184195042,-0.21120351552963257,-0.12084285169839859,0.014270405285060406,0.035815879702568054,0.2051309496164322,-0.05112726241350174,0.13764265179634094,-0.11740829050540924,0.04427590221166611,-0.039680514484643936,-0.02300356887280941,0.10898163169622421,-0.02899313159286976,-0.23844954371452332,0.056843359023332596,-0.11601287126541138,-0.17253465950489044,0.0675983726978302,0.03536267578601837,0.04481437802314758,-0.015946557745337486,-0.06970947235822678,-0.07880739867687225,-0.06793501228094101,0.07432795315980911,0.007220338564366102,0.03061370737850666,0.1601315140724182,0.005515601485967636,0.1418001502752304,-0.18173496425151825,0.06654508411884308,0.1789521425962448,0.013650339096784592,0.0556347481906414,-0.04275214299559593,-0.26453492045402527,-0.18557614088058472,-0.13507182896137238,0.13900406658649445,-0.1650465428829193,0.11925645172595978,0.02621043100953102,0.10782305151224136,0.15824677050113678,-0.09679015725851059,-0.172556072473526,0.1934535652399063,-0.07885432243347168,0.02801135554909706,0.05859091505408287,0.061466071754693985,-0.11109339445829391,-0.07273183017969131,-0.05904693901538849,-0.012700891122221947,0.08924006670713425,-0.1936923712491989,0.09678898751735687,-0.15887218713760376,0.1931939572095871,0.14355291426181793,-0.04101356863975525,-0.08869781345129013,0.11449418216943741,0.00017697781731840223,0.01246182806789875,0.10877632349729538,-0.09573636949062347,0.07608889788389206,0.07329919189214706,-0.05846423655748367,-0.04116329923272133,-0.08557789772748947,0.0384989008307457,-0.02720724046230316,-0.08808491379022598,-0.031518176198005676,0.010977414436638355,-0.11042193323373795,0.1184447780251503,0.0020069158636033535,0.06961087137460709,-0.13246838748455048,0.04424483701586723,0.15402249991893768,-0.08346232026815414,-0.034066539257764816,0.17938685417175293,0.012456835247576237,0.01603679731488228,0.008273014798760414,-0.052789296954870224,0.1920536756515503,0.08299829810857773,-0.041445065289735794,-0.12055402994155884,-0.0654655173420906,0.011246168985962868,0.16269847750663757,0.08242420107126236,0.05215361714363098,0.16945117712020874,-0.10495620965957642,0.012529195286333561,-0.02951609529554844,0.1740599125623703,-0.04703214019536972,-0.15102483332157135,-0.05035453662276268,-0.02292635105550289,-0.21633166074752808,0.0668497383594513,-0.10621155053377151,-0.11101385205984116],[-0.01625354401767254,0.035544805228710175,0.010399071499705315,0.056473784148693085,0.09996217489242554,-0.19534631073474884,0.05858311429619789,0.1116715520620346,-0.03260689601302147,0.05329827591776848,0.2560062110424042,-0.2436985969543457,0.20574769377708435,-0.14186891913414001,0.033424559980630875,-0.2144138216972351,0.03566192463040352,0.09519316256046295,-0.16836580634117126,0.19249361753463745,0.051320143043994904,-0.05974256247282028,-0.19226936995983124,0.0620952770113945,0.196474090218544,-0.11982730031013489,-0.00937147717922926,-0.00623669708147645,-0.2105913609266281,-0.10845005512237549,0.20707912743091583,-0.2961084246635437,0.029478050768375397,-0.08690114319324493,-0.12008916586637497,-0.05624574050307274,-0.08013375103473663,-0.026879681274294853,-0.024069935083389282,-0.07652226090431213,-0.025700384750962257,-0.06906692683696747,0.00045164895709604025,0.11549349874258041,-0.07185693085193634,0.14051975309848785,0.01916568912565708,-0.07988573610782623,-0.2180667668581009,-0.019275711849331856,-0.2555684745311737,0.017087247222661972,-0.006061517633497715,-0.27730655670166016,0.08146864175796509,0.17709729075431824,-0.1176791712641716,0.20556430518627167,0.01590709760785103,0.08073389530181885,0.03405526280403137,-0.010345994494855404,-0.02833688259124756,0.04468834400177002,-0.06939905881881714,-0.08151233196258545,-0.07875040173530579,0.12019652128219604,-0.10255618393421173,-0.10868183523416519,0.22114332020282745,-0.07954074442386627,0.06461086869239807,-0.17547963559627533,-0.03008074127137661,0.08046966046094894,0.20104394853115082,-0.0009435976389795542,0.18784311413764954,0.13775254786014557,-0.12848539650440216,0.012693610042333603,0.1221308782696724,0.013809348456561565,-0.03021722100675106,-0.11358197033405304,-0.14706404507160187,0.15719804167747498,-0.06085339933633804,0.012673730030655861,-0.033314332365989685,0.02721145749092102,-0.2553183436393738,-0.04513604938983917,-0.02442169561982155,-0.06584001332521439,0.0721142590045929,0.17529700696468353,0.06610719859600067,-0.08787885308265686,-0.16842204332351685,-0.01866595633327961,-0.16451868414878845,-0.004284817725419998,0.1759360283613205,-0.1081155389547348,0.04864993691444397,0.10118266195058823,-0.1928633600473404,0.19638843834400177,0.010538061149418354,0.1300726681947708,-0.03291963413357735,0.023029154166579247,-0.19679893553256989,-0.08196737617254257,0.08427660912275314,-0.0037247659638524055,0.04906894639134407,0.01955176331102848,-0.14798641204833984,-0.03770672157406807,0.07443056255578995,0.0768028274178505,0.04703705385327339,-0.06047143042087555,-0.14466293156147003,0.05820498988032341,0.06932992488145828,-0.14533357322216034,0.0938936099410057,0.17506825923919678,0.07536374032497406,-0.13118325173854828,-0.17947696149349213,0.141116201877594,0.04615426063537598,0.08928417414426804],[-0.02559775859117508,-0.1867862194776535,-0.06223304197192192,-0.10804171860218048,0.041945479810237885,-0.051750581711530685,-0.11083098500967026,0.06725481152534485,-0.14383751153945923,-0.07662850618362427,0.08246231824159622,-0.044057294726371765,0.16366860270500183,-0.12578217685222626,-0.03913411125540733,-0.13494238257408142,-0.057678792625665665,-0.013779140077531338,0.16430772840976715,-0.05239862948656082,0.07439389824867249,0.012257849797606468,0.0208979994058609,-0.13414178788661957,-0.04449326917529106,-0.08583749085664749,0.1099114865064621,-0.1691121757030487,-0.08602166920900345,0.1351545751094818,-0.16814656555652618,0.3206935524940491,-0.018408188596367836,-0.025408335030078888,-0.1844618171453476,0.05104811489582062,-0.08687319606542587,-0.05100520700216293,0.11703848093748093,-0.030055053532123566,0.032396238297224045,0.14196136593818665,-0.009366849437355995,0.028033439069986343,0.16378416121006012,0.04433945193886757,0.033707305788993835,-0.017779449000954628,0.06731472164392471,0.06824837625026703,-0.12235280126333237,-0.09706222265958786,0.004634989891201258,-0.08663038164377213,0.001133549609221518,-0.1517135500907898,-0.028614547103643417,-0.048398811370134354,0.011481137946248055,0.08151176571846008,-0.07951158285140991,-0.12615300714969635,0.0898684486746788,-0.06926078349351883,-0.004533838946372271,0.10180190950632095,0.0900559052824974,-0.04732895269989967,-0.14294597506523132,-0.06369663774967194,0.3271811604499817,-0.016046874225139618,0.04638135805726051,-0.05279548466205597,0.06722195446491241,-0.14442022144794464,-0.10000450909137726,-0.09010523557662964,0.13364562392234802,0.02982163056731224,-0.0097078001126647,0.0945843830704689,-0.24123609066009521,0.24143418669700623,-0.028822852298617363,0.020619206130504608,0.22086390852928162,0.10911410301923752,-0.09019067138433456,0.08961547911167145,0.12123594433069229,-0.02893626131117344,0.11435922980308533,-0.008865626528859138,-0.1463635414838791,-0.040176454931497574,-0.09668359905481339,-0.004629810340702534,0.19083596765995026,-0.08133479207754135,0.013161559589207172,0.12549269199371338,0.13869322836399078,-0.07252474874258041,-0.2152462750673294,-0.012548542581498623,-0.006192040164023638,-0.04167724773287773,-0.10561279952526093,0.10879355669021606,0.12199202179908752,0.03130241110920906,-0.012849362567067146,-0.1776980310678482,-0.0507793128490448,-0.14613233506679535,-0.12402136623859406,-0.1590479016304016,-0.09860216826200485,-0.1602240651845932,-0.1505124866962433,0.11880896985530853,-0.18105457723140717,-0.07173571735620499,-0.24525012075901031,0.05132996663451195,-0.02583630010485649,0.08443630486726761,0.05072295665740967,-0.019638629630208015,0.009151607751846313,0.05585827678442001,-0.07099208235740662,0.15403495728969574,0.11962175369262695,0.0004974440671503544,0.1270141750574112,0.0882502943277359],[0.13073036074638367,-0.03503682091832161,0.1804950088262558,-0.015196653082966805,-0.09602565318346024,-0.002831311896443367,0.2240237146615982,0.14250771701335907,0.03752649948000908,0.037294380366802216,0.042750317603349686,-0.04358702525496483,-0.13363906741142273,-0.05181847885251045,-0.04474055394530296,0.06521867960691452,0.16320525109767914,-0.06797470897436142,-0.052209608256816864,-0.026770219206809998,0.10498231649398804,0.0642775222659111,0.13485491275787354,0.18351295590400696,0.009996607899665833,-0.17850647866725922,-0.028809593990445137,-0.08510547131299973,0.13544781506061554,0.05640193447470665,0.08671452850103378,0.038311466574668884,0.13650476932525635,0.09971141070127487,0.14131280779838562,0.1020854115486145,0.006555579602718353,-0.2776767909526825,-0.011602102778851986,0.06813693046569824,0.01935930736362934,0.03315027058124542,-0.03604912385344505,0.052958086133003235,-0.022999335080385208,0.047948747873306274,-0.1721583902835846,0.07402979582548141,0.08893968164920807,-0.06786371022462845,-0.16264523565769196,-0.1816493719816208,-0.031309038400650024,-0.3018229007720947,-0.07252109050750732,0.10637570172548294,0.058921221643686295,-0.012134564109146595,-0.04135555401444435,-0.1126476526260376,-0.055383581668138504,0.1798902451992035,0.05744675174355507,0.08361697942018509,-0.027064796537160873,0.04123281314969063,0.07366956770420074,-0.16027408838272095,0.05362534895539284,0.21444089710712433,0.06558667868375778,-0.08791636675596237,0.05438462644815445,-0.1666652411222458,0.18241652846336365,-0.02105044014751911,-0.14758022129535675,-0.015262730419635773,-0.035423245280981064,-0.2527604401111603,0.06486266851425171,0.14589622616767883,0.13690713047981262,-0.03136960417032242,-0.15959186851978302,-0.012183637358248234,-0.05631273612380028,-0.11434915661811829,0.1902456283569336,-0.08856761455535889,0.047444093972444534,0.001627590972930193,0.10919702798128128,-0.15382784605026245,-0.03352997079491615,0.050822801887989044,-0.12713105976581573,0.029046913608908653,0.21226070821285248,-0.1874087154865265,-0.1888483613729477,-0.11868348717689514,-0.14565984904766083,0.038456305861473083,-0.18537627160549164,-0.2440454512834549,-0.10936524718999863,0.13833670318126678,0.2162945717573166,0.14306429028511047,-0.016934899613261223,-0.013821078464388847,-0.030308585613965988,0.12984305620193481,-0.07214442640542984,-0.010393761098384857,-0.2221021205186844,-0.1132826879620552,-0.016077980399131775,-0.05636749044060707,0.0961318165063858,-0.04831751808524132,0.04650745913386345,0.05560510233044624,0.10673373937606812,0.06447447091341019,-0.053345851600170135,0.05201778560876846,-0.010256174020469189,0.050968240946531296,0.04269207641482353,-0.04233677685260773,0.1586221605539322,-0.0012310623424127698,-0.11576446145772934,0.0032666106708347797,-0.2483384609222412,-0.0949254259467125],[0.26640522480010986,-0.10898188501596451,0.075694240629673,0.19126355648040771,0.16005714237689972,0.18451982736587524,0.0950479730963707,0.058258797973394394,0.1858629733324051,-0.04365158826112747,-0.15535372495651245,-0.07264678180217743,-0.13316412270069122,0.0027876754757016897,-0.06461668014526367,0.10866475850343704,0.07680721580982208,0.0498737208545208,0.21447795629501343,-0.1273144781589508,0.14516884088516235,-0.1222003772854805,0.005966224707663059,-0.044523172080516815,-0.061280690133571625,0.12647990882396698,0.012524524703621864,-0.13014473021030426,-0.07606380432844162,-0.11549024283885956,-0.05399768799543381,-0.062093622982501984,0.08480016142129898,-0.17442306876182556,0.2012123167514801,-0.017665226012468338,0.027230314910411835,0.06369218230247498,0.016499603167176247,-0.10248591005802155,-0.19250522553920746,0.1652410477399826,0.02227156236767769,0.16297142207622528,0.1420595794916153,0.09842941910028458,-0.001470103277824819,-0.11077693849802017,0.15410710871219635,0.14148060977458954,-0.04789331182837486,-0.10243819653987885,0.05334683507680893,0.048125699162483215,-0.06796369701623917,-0.05946717783808708,-0.05511457100510597,0.1005246713757515,-0.029102951288223267,0.03660060465335846,0.16844536364078522,0.08276640623807907,-0.18598514795303345,0.030420901253819466,0.19771653413772583,0.16894109547138214,-0.07795561850070953,0.09638245403766632,0.09524903446435928,-0.004903570748865604,-0.12963241338729858,-0.01152375340461731,-0.056482989341020584,0.2534247040748596,0.06942164897918701,-0.1403815895318985,-0.15755656361579895,-0.08396124094724655,0.13461712002754211,0.20227469503879547,-0.13282908499240875,-0.03651822730898857,0.024881787598133087,0.04362834244966507,0.002960755955427885,0.03858613595366478,0.2374645322561264,-0.031048379838466644,-0.3069590628147125,0.11417850852012634,0.05663494020700455,0.015828093513846397,-0.01487375982105732,0.06784075498580933,0.009581733494997025,0.1910199373960495,0.006828512996435165,0.2629374563694,0.019297871738672256,0.15166272222995758,-0.039029937237501144,-0.00512162409722805,0.15809659659862518,-0.02337414212524891,0.10484214127063751,-0.08720634877681732,0.20904026925563812,0.023577338084578514,-0.04287341609597206,0.14991410076618195,0.1211121678352356,-0.008527047000825405,0.06673258543014526,-0.12195023149251938,-0.24716436862945557,0.1356506496667862,0.14967168867588043,-0.14413075149059296,-0.10643865913152695,0.05351657792925835,-0.011136899702250957,0.017505308613181114,0.07462398707866669,-0.03432623669505119,0.11064929515123367,-0.18253082036972046,-0.02281346544623375,0.052321091294288635,-0.14037074148654938,-0.15890388190746307,0.0010893503203988075,0.06794681400060654,-0.2784218490123749,0.16874726116657257,-0.047689568251371384,0.06478798389434814,-0.14057917892932892,-0.06589068472385406],[0.07107021659612656,0.02714952453970909,0.10790810734033585,0.0932723805308342,0.10539847612380981,-0.1955670863389969,-0.054487504065036774,0.03040424734354019,0.04207893833518028,-0.05585441738367081,-0.08607440441846848,0.20997083187103271,-0.06220513582229614,0.037350378930568695,0.20540282130241394,0.14972825348377228,0.07282814383506775,0.050407905131578445,-0.08661927282810211,-0.04985915496945381,0.03339165821671486,0.11742541939020157,0.08626112341880798,0.2316250205039978,0.106679268181324,-0.005029583815485239,0.06169972941279411,0.125956192612648,0.05370001867413521,-0.2567121982574463,-0.13807229697704315,-0.28053897619247437,0.02786802127957344,0.011720416136085987,0.059195566922426224,-0.12940382957458496,-0.07000406086444855,0.03898657485842705,0.09672035276889801,-0.24409981071949005,-0.14317871630191803,-0.05394890531897545,0.1478266566991806,-0.19005103409290314,-0.14698036015033722,0.10473765432834625,-0.06810977309942245,-0.011153951287269592,0.23170340061187744,-0.0882887914776802,-0.008347521536052227,0.018673157319426537,0.2089017778635025,0.16093111038208008,-0.06637729704380035,0.06801513582468033,-0.00996983703225851,0.14689776301383972,-0.08120168745517731,-0.11295536905527115,0.2209111452102661,0.025662021711468697,-0.18926528096199036,0.23046670854091644,-0.022920960560441017,0.16625434160232544,0.002836958272382617,0.09283389896154404,-0.00982910580933094,-0.055810168385505676,-0.017539912834763527,-0.09453966468572617,-0.021832315251231194,0.14152361452579498,-0.0001573268964421004,0.07665602117776871,-0.06380008906126022,-0.07229086011648178,0.02565992809832096,0.22691862285137177,0.12230177968740463,0.15936145186424255,0.10262394696474075,-0.013688993640244007,0.2141406536102295,-0.12170758098363876,-0.19723059237003326,-0.01319864857941866,-0.0857555940747261,-0.08295668661594391,-0.12873893976211548,-0.1948336362838745,-0.2532980740070343,0.09096851944923401,0.13976219296455383,0.0005588526837527752,0.01645767129957676,0.24875111877918243,-0.20322228968143463,0.07835918664932251,0.16134923696517944,-0.15174557268619537,-0.09718707948923111,-0.26480281352996826,0.02077871933579445,-0.017235346138477325,0.1802658885717392,0.06310981512069702,-0.20765627920627594,-0.007328605744987726,0.0725545585155487,-0.022104257717728615,-0.010812649503350258,0.0846894159913063,-0.09969532489776611,0.13333313167095184,0.1038295179605484,-0.039151303470134735,0.018476413562893867,-0.1223202496767044,0.020944679155945778,-0.12118703126907349,0.09531506896018982,-0.021177716553211212,0.0022350812796503305,-0.21984684467315674,0.16366323828697205,-0.03270009160041809,0.012473809532821178,0.06044585257768631,0.1317053735256195,0.07962968200445175,-0.07580137997865677,0.09809327870607376,0.08679419755935669,0.18336640298366547,-0.21541063487529755,0.01497943326830864],[-0.027727266773581505,0.05970866605639458,0.06996488571166992,-0.0019573941826820374,-0.09327931702136993,0.003955593332648277,0.03265634551644325,0.1548989713191986,0.016089707612991333,0.07091853022575378,0.06614116579294205,0.12299468368291855,0.21914303302764893,-0.0360923707485199,0.015690572559833527,-0.011214283294975758,0.12483839690685272,0.052286434918642044,-0.09007251262664795,-0.17195849120616913,-0.24291597306728363,-0.1400444209575653,0.04592562094330788,0.14092016220092773,0.1362459808588028,0.29828062653541565,0.0074081444181501865,0.15043145418167114,0.18473605811595917,0.10367339104413986,-0.11701816320419312,-0.07678612321615219,0.006702027283608913,0.06383270770311356,0.06908167153596878,-0.06609474867582321,0.00828222930431366,-0.033620625734329224,0.12753233313560486,-0.027278123423457146,-0.13331201672554016,-0.18072214722633362,0.06398837268352509,-0.006714644376188517,0.17468014359474182,-0.12080669403076172,0.12188905477523804,-0.06904610246419907,-0.01896621659398079,-0.04724043980240822,0.13993047177791595,-0.18547840416431427,0.10503879189491272,0.0379524827003479,-0.08825355768203735,-0.005686551332473755,0.17755404114723206,-0.03077925555408001,0.18427781760692596,-0.09347156435251236,0.0366552360355854,0.2080461084842682,0.0493050180375576,-0.019839907065033913,-0.03405022993683815,0.03284908086061478,0.11853569000959396,-0.015574556775391102,-0.10013105720281601,0.19145210087299347,0.2110607624053955,0.02119075506925583,0.10049832612276077,0.049138668924570084,0.04747125506401062,-0.023989910259842873,0.07757669687271118,0.07740767300128937,-0.16736876964569092,-0.1713109314441681,-0.029881607741117477,0.07986011356115341,-0.05510885268449783,-0.16439875960350037,0.09156271070241928,-0.058216217905282974,0.09061040729284286,0.034057922661304474,-0.06479299068450928,0.07816028594970703,-0.16440707445144653,0.04994795843958855,0.3077008128166199,0.005492096301168203,0.14957278966903687,0.008923925459384918,0.04460948705673218,0.12074720859527588,-0.11114253103733063,0.007712095510214567,0.16985253989696503,0.23171870410442352,-0.0644470602273941,0.006737947463989258,0.1155872493982315,-0.017902007326483727,-0.1539076268672943,-0.17733429372310638,0.007777572143822908,0.174279123544693,-0.06861450523138046,-0.05536079779267311,-0.05443482846021652,-0.061919812113046646,-0.032546717673540115,0.026085617020726204,0.2804984748363495,-0.18334537744522095,-0.038292378187179565,0.26766228675842285,-0.030486777424812317,0.04858281835913658,-0.13601143658161163,-0.03233509883284569,0.02245272696018219,0.10620786994695663,-0.04719356819987297,0.14217707514762878,-0.13091550767421722,0.05558549240231514,-0.01888374239206314,0.06817486882209778,0.03312581777572632,-0.10618855059146881,0.1561833620071411,-0.06266071647405624,-0.0819145143032074,-0.09813938289880753],[-0.010372147895395756,-0.09895659983158112,-0.23488588631153107,0.11346709728240967,-0.2637730836868286,-0.02470439113676548,-0.17524069547653198,-0.08288133144378662,0.0958016961812973,0.07308097928762436,0.00008973156218416989,-0.15828604996204376,0.0641985684633255,-0.12707673013210297,0.020706433802843094,-0.0004830624093301594,-0.08011449873447418,0.10001464188098907,0.19446459412574768,0.027814790606498718,0.0009853200754150748,0.13058045506477356,0.1223798394203186,0.08836890757083893,-0.22481001913547516,0.27256351709365845,0.18666474521160126,-0.020078027620911598,0.055900607258081436,-0.18165168166160583,-0.1623949408531189,0.23032590746879578,-0.14855778217315674,0.07088911533355713,-0.021342478692531586,0.030231283977627754,-0.08042280375957489,0.3055470287799835,0.10088541358709335,-0.05724485218524933,0.050602566450834274,0.24426311254501343,0.10091254115104675,-0.01288624294102192,0.20039775967597961,-0.11909137666225433,-0.06704685091972351,-0.022765561938285828,-0.14055539667606354,0.012318097054958344,-0.17642958462238312,-0.10064683109521866,-0.01180899515748024,0.001534556387923658,-0.06381020694971085,-0.11704807728528976,0.09180624037981033,0.03575005382299423,-0.010941916145384312,-0.11924063414335251,-0.024347834289073944,-0.2164687216281891,0.0202254056930542,0.23161445558071136,0.014682757668197155,-0.24682477116584778,-0.023273808881640434,0.10794904828071594,0.03427520766854286,0.1378667950630188,0.007189847528934479,-0.007364933378994465,-0.171627014875412,0.06436670571565628,0.14701834321022034,0.07710691541433334,-0.013407919555902481,-0.08688956499099731,0.09045050293207169,0.23405678570270538,0.11586431413888931,-0.009270772337913513,-0.061514463275671005,0.16895687580108643,0.0717906728386879,-0.1812608242034912,-0.17411048710346222,-0.09735870361328125,0.0444059818983078,-0.0277445949614048,-0.05217955633997917,0.048063356429338455,0.06244085729122162,0.18932676315307617,-0.15208718180656433,0.05208415165543556,0.10133720189332962,-0.03652119264006615,-0.11884230375289917,-0.15090854465961456,-0.038640476763248444,0.06292612105607986,-0.06260749697685242,0.2529602646827698,-0.006151248700916767,-0.03353862836956978,-0.020760316401720047,0.10088382661342621,-0.05889301002025604,0.032228466123342514,0.07202088087797165,0.07594616711139679,-0.05865269526839256,0.08281182497739792,-0.11242160201072693,-0.03187905624508858,0.014391227625310421,-0.06746578961610794,0.04544137418270111,-0.17401200532913208,0.0431000255048275,0.10194329172372818,-0.014358652755618095,-0.016135329380631447,0.12859556078910828,0.05786844715476036,0.06940961629152298,-0.15288127958774567,0.2307266891002655,-0.08735895901918411,-0.058908309787511826,-0.03562559187412262,-0.11557534337043762,0.02524944581091404,-0.08693166822195053,-0.19060947000980377,-0.008959194645285606,-0.09632393717765808],[0.05662987753748894,-0.06777250021696091,0.013439388945698738,-0.04515795782208443,-0.09084171801805496,0.060276854783296585,-0.12424378842115402,0.08410472422838211,0.07794279605150223,0.1851871907711029,-0.08041377365589142,0.33724454045295715,0.0033996712882071733,-0.057478222995996475,-0.025032011792063713,0.05593079328536987,0.07906271517276764,-0.05748986452817917,-0.15300093591213226,-0.027995875105261803,-0.1298968493938446,-0.15146370232105255,0.10763924568891525,0.08920203149318695,0.02649650350213051,0.07425564527511597,0.1720702201128006,0.08558350801467896,-0.15258115530014038,-0.01376078836619854,0.16728566586971283,-0.0896064043045044,-0.12936119735240936,-0.03365958854556084,-0.04238002002239227,-0.10987792909145355,0.02081437036395073,0.05543159693479538,0.1936292201280594,0.114870585501194,-0.055656567215919495,-0.1202182024717331,0.12520095705986023,0.1308756172657013,-0.09402868896722794,-0.033247679471969604,0.20869818329811096,0.03681929036974907,0.2545152008533478,-0.12623456120491028,-0.05647853761911392,0.10493103414773941,-0.031822964549064636,-0.04559199884533882,0.12511785328388214,0.11362016946077347,0.05458676442503929,-0.10723469406366348,0.03987589851021767,-0.06913704425096512,0.17813533544540405,-0.17699092626571655,0.18030962347984314,0.1351844221353531,0.07901269942522049,0.1788480579853058,0.09269902110099792,-0.0507863350212574,0.0132393604144454,0.03324810415506363,0.10024338215589523,-0.22198298573493958,0.10081342607736588,0.08493918925523758,0.07428792864084244,-0.1368330717086792,-0.00774491298943758,0.08953417092561722,-0.04625185206532478,0.07255320996046066,0.054914750158786774,-0.12841027975082397,-0.04916354641318321,0.19106365740299225,-0.08670495450496674,-0.12964025139808655,0.11032441258430481,-0.0623149611055851,-0.011593827046453953,-0.21547436714172363,0.06992926448583603,-0.01831151731312275,0.053787752985954285,-0.12416288256645203,0.02063489891588688,0.0037391295190900564,0.10017170757055283,0.061191681772470474,0.057155635207891464,-0.09991046786308289,-0.06548155099153519,0.005949744954705238,-0.2680157721042633,-0.15383276343345642,0.0025811076629906893,0.14190523326396942,-0.1322537511587143,0.04793812707066536,-0.007235706318169832,0.04288860410451889,0.10240153223276138,-0.08039583265781403,0.1725439727306366,-0.281891793012619,0.0314328670501709,-0.07852762192487717,-0.1404264122247696,0.06726735085248947,-0.13698038458824158,-0.12325910478830338,0.17583690583705902,0.07134959101676941,0.16990341246128082,0.0822191908955574,0.01819794625043869,-0.1315038651227951,-0.06299044191837311,0.22513172030448914,-0.026447338983416557,-0.1168695017695427,0.001537283998914063,-0.15732261538505554,0.03365244343876839,-0.16877968609333038,-0.042142171412706375,0.09476681053638458,0.028979452326893806,0.05537094920873642],[-0.23266130685806274,0.2918224334716797,0.293344110250473,-0.03433094918727875,0.042815130203962326,-0.1779702752828598,0.14330458641052246,0.05838174372911453,-0.04640493541955948,-0.06977318227291107,-0.053874459117650986,0.18080706894397736,-0.06691592186689377,-0.02291681431233883,-0.1686273217201233,-0.06561430543661118,0.08910675346851349,-0.055104274302721024,0.022135477513074875,0.0113473916426301,0.020906612277030945,-0.033696241676807404,-0.10207787901163101,0.1288483887910843,0.04133887216448784,-0.155922532081604,-0.012869133614003658,0.03413241356611252,0.05995412543416023,0.0969134122133255,0.06113164499402046,-0.06381071358919144,-0.09653623402118683,0.10179327428340912,0.013899954035878181,-0.11380287259817123,-0.027868548408150673,0.008680377155542374,0.047153305262327194,0.003674930427223444,-0.008657364174723625,0.015464391559362411,0.05033933371305466,-0.14826488494873047,0.14113512635231018,-0.08926452696323395,-0.10566738247871399,0.33135175704956055,-0.04407006502151489,-0.1800450086593628,-0.04077599570155144,-0.151992067694664,0.1669968068599701,0.10357123613357544,-0.12671653926372528,-0.10836216807365417,0.03178424388170242,-0.021738391369581223,0.02713088132441044,-0.0009912624955177307,-0.1141599491238594,-0.06874267756938934,0.05058989301323891,0.10982143878936768,0.10046709328889847,-0.10216637700796127,0.10991611331701279,0.03544072434306145,-0.03491977974772453,0.032519854605197906,-0.026361312717199326,0.0339895598590374,0.07892801612615585,-0.17795726656913757,0.022029686719179153,-0.15779344737529755,-0.14381685853004456,0.09853304922580719,0.11962294578552246,0.21010127663612366,0.06843367964029312,0.15965943038463593,0.09223666042089462,-0.05970306694507599,-0.2735382318496704,0.17296065390110016,-0.08889363706111908,0.03673182800412178,0.03505660966038704,-0.048700038343667984,0.10589887201786041,0.20351138710975647,0.025446686893701553,-0.06293898820877075,-0.013110704720020294,-0.07113704085350037,-0.007070137187838554,-0.003647636156529188,-0.12144142389297485,0.15505783259868622,0.16214491426944733,0.10274095833301544,-0.06176530197262764,0.05736745893955231,-0.06068917736411095,0.042388029396533966,-0.06724369525909424,-0.0140222841873765,0.0014012007741257548,-0.12835994362831116,-0.15430183708667755,0.1034097969532013,-0.004336016718298197,0.13398495316505432,0.1750384122133255,-0.05159824341535568,0.19031457602977753,-0.038691725581884384,-0.0026948675513267517,0.08346458524465561,-0.07377980649471283,0.13124214112758636,-0.05872686207294464,0.134388267993927,0.052218690514564514,-0.15732242166996002,-0.13364048302173615,-0.05933168902993202,0.21228551864624023,0.002799717243760824,-0.09773219376802444,0.0957811027765274,-0.17212535440921783,0.07290615141391754,0.03171999007463455,-0.17055726051330566,-0.036272212862968445,0.003969187382608652],[0.059506915509700775,0.014503472484648228,-0.16168110072612762,-0.03211740031838417,0.01198016107082367,-0.2858033776283264,-0.08524186909198761,0.10692479461431503,0.04699141904711723,-0.03695540130138397,0.016780173406004906,-0.30538344383239746,0.02957404963672161,-0.1429091840982437,0.057010892778635025,0.1234242245554924,0.016842827200889587,0.14062273502349854,0.16954511404037476,0.051500409841537476,0.029508359730243683,0.2006004899740219,-0.33310914039611816,0.04378841444849968,-0.043331924825906754,0.08462086319923401,-0.2097260057926178,-0.06948915868997574,-0.004008105956017971,-0.0638994351029396,0.37651702761650085,0.0011168606579303741,-0.2656726837158203,-0.2514432966709137,-0.07174219191074371,0.16031065583229065,0.08861725777387619,-0.009775550104677677,-0.02112920582294464,-0.10087046027183533,0.3275597393512726,-0.06694333255290985,-0.0015084227779880166,-0.031651612371206284,-0.11621958017349243,0.036421455442905426,-0.007571160327643156,-0.14389151334762573,0.04414261505007744,0.06779493391513824,0.14748302102088928,-0.026726311072707176,0.127539724111557,0.0594782792031765,0.000279730127658695,-0.04895344376564026,0.06562591344118118,-0.09474033117294312,-0.0009690016158856452,-0.08817990869283676,0.12839969992637634,0.08653371036052704,0.2802354693412781,-0.23838087916374207,-0.14221978187561035,-0.1325036585330963,0.011119493283331394,0.2093522697687149,-0.05157830938696861,-0.07573094218969345,-0.030502406880259514,-0.017801938578486443,0.005455100443214178,0.04758362099528313,0.06050765514373779,0.04270005226135254,0.08482559025287628,0.06113307178020477,-0.00946345180273056,-0.06540320813655853,-0.04932154715061188,-0.2563524842262268,-0.00512351980432868,0.2893331050872803,-0.14167901873588562,0.11635258793830872,0.05933675542473793,-0.09537780284881592,0.002382956212386489,0.07550173252820969,-0.015270479954779148,0.23555052280426025,-0.0018725490663200617,-0.10181602090597153,-0.12717875838279724,-0.1680455356836319,0.0352507047355175,0.13887399435043335,0.23967596888542175,0.1469365656375885,-0.0676901713013649,0.002375951735302806,0.009754198603332043,0.012299727648496628,0.07011610269546509,-0.08545445650815964,-0.11266853660345078,0.20733730494976044,0.055191874504089355,0.082357257604599,-0.08130219578742981,-0.2747573256492615,0.19062967598438263,0.24350300431251526,0.05885062366724014,-0.026309102773666382,0.05192989856004715,-0.010536346584558487,-0.05348625034093857,0.14555279910564423,0.012994070537388325,0.04105304181575775,0.08052533119916916,-0.0769389271736145,0.1344103068113327,-0.07032419741153717,-0.05852598696947098,0.07205451279878616,-0.24974551796913147,0.14958558976650238,0.09922388941049576,0.16613921523094177,-0.023463502526283264,-0.17098960280418396,-0.20375114679336548,-0.07021912187337875,-0.04318578168749809,-0.12874682247638702],[-0.015838561579585075,-0.1134793683886528,-0.09153660386800766,-0.019660595804452896,-0.16671103239059448,-0.0009366224985569715,-0.14352518320083618,-0.16448770463466644,0.13514834642410278,-0.1260780394077301,0.0017508456949144602,0.13839326798915863,-0.00003418732376303524,0.004327688366174698,-0.14356574416160583,-0.24115321040153503,0.024219539016485214,0.14794884622097015,-0.07337547093629837,0.039462774991989136,0.12836456298828125,0.12445414066314697,0.24074508249759674,-0.009273998439311981,0.04537893831729889,-0.007111598737537861,0.12682855129241943,-0.0006894590333104134,-0.06102239713072777,0.04772595316171646,-0.07693611085414886,0.12337994575500488,-0.13578708469867706,-0.13737852871418,-0.01760036125779152,0.07487736642360687,0.026590101420879364,-0.0009180687484331429,0.16358155012130737,0.018113968893885612,-0.061480823904275894,0.04686504229903221,-0.07075955718755722,0.07495494931936264,0.02905670925974846,0.07489443570375443,-0.13773243129253387,0.17331978678703308,-0.12168597429990768,-0.11962947249412537,-0.05126127228140831,-0.008163005113601685,-0.026996059343218803,-0.07573115825653076,0.12453529238700867,-0.16760241985321045,0.16241717338562012,0.14379321038722992,0.059118401259183884,-0.011168758384883404,-0.1704559475183487,-0.046498216688632965,-0.062601238489151,-0.1811986118555069,-0.05698684975504875,-0.08465881645679474,0.023158269003033638,-0.18632197380065918,0.1281808763742447,0.04250781610608101,0.06590718775987625,0.06125934422016144,0.06159238889813423,-0.08020730316638947,-0.2191823422908783,-0.010634741745889187,0.026343949139118195,0.0036079322453588247,0.06261859834194183,-0.23241573572158813,0.01476387307047844,0.07220957428216934,0.041611332446336746,0.1486354023218155,-0.05213093012571335,0.19956552982330322,0.12498635053634644,0.17622730135917664,-0.10722561925649643,0.002273675985634327,0.25157541036605835,-0.07634314149618149,0.043890777975320816,-0.1543036252260208,0.15461808443069458,0.14503823220729828,0.012233651243150234,-0.15759098529815674,0.14406831562519073,0.22960059344768524,0.04494771733880043,0.3040386438369751,-0.015731656923890114,-0.03218249976634979,0.14361165463924408,-0.007964777760207653,0.07929731905460358,-0.05403907969594002,-0.13895723223686218,0.08688214421272278,-0.0821601003408432,-0.1278693974018097,-0.04987282678484917,-0.04230951890349388,0.07168711721897125,0.05266546830534935,0.01855613850057125,-0.11142383515834808,0.08557470142841339,-0.10842946916818619,-0.17298941314220428,0.10849602520465851,-0.007962447591125965,0.02326517179608345,-0.08548950403928757,-0.13351307809352875,0.01176538784056902,-0.143081933259964,0.09597641229629517,-0.08087190985679626,-0.04418293386697769,0.14603687822818756,0.015808144584298134,0.055416155606508255,-0.042131245136260986,-0.1776091605424881,0.0060860756784677505,-0.08065163344144821],[-0.10528001934289932,0.09462660551071167,0.03757891431450844,0.08762999624013901,0.056310489773750305,0.010500069707632065,-0.015168493613600731,-0.14774489402770996,0.16195067763328552,0.10140737891197205,0.21087908744812012,0.036751650273799896,0.013217817060649395,-0.2962687015533447,0.03784947097301483,-0.049648549407720566,0.031721193343400955,0.3016835153102875,-0.082115039229393,0.08384786546230316,-0.07571697235107422,0.25837695598602295,0.09286616742610931,-0.06379830837249756,0.0080269081518054,0.06250666826963425,0.20686796307563782,0.03771967440843582,-0.21249844133853912,0.024313755333423615,0.11913451552391052,0.03990846872329712,-0.11196314543485641,-0.02377120964229107,-0.10321902483701706,-0.2175447940826416,-0.1284530758857727,-0.10578031092882156,0.046703990548849106,-0.16591516137123108,-0.07908068597316742,0.12925872206687927,0.06381477415561676,-0.020849503576755524,0.06148456409573555,-0.06048961356282234,-0.11292076110839844,0.017929494380950928,0.0787343978881836,-0.15288090705871582,-0.0057183741591870785,0.13982681930065155,0.08303169161081314,0.006851202342659235,-0.14299017190933228,-0.10260189324617386,0.16971050202846527,0.0022434277925640345,0.06284617632627487,0.040371015667915344,-0.004609100986272097,0.09336093068122864,-0.03314322978258133,-0.05663401633501053,-0.08522108942270279,0.1793176680803299,0.0797947570681572,-0.06287708133459091,0.09437746554613113,0.053543370217084885,0.21546538174152374,-0.013818255625665188,0.19620978832244873,-0.10429366677999496,0.06946631520986557,0.08425777405500412,-0.024688035249710083,0.04813327640295029,-0.15720805525779724,-0.06742862612009048,0.017344821244478226,-0.01499067060649395,-0.11382555216550827,0.08064699918031693,-0.10766597837209702,0.30177798867225647,-0.15471261739730835,-0.18364840745925903,0.012638017535209656,0.08404867351055145,-0.058628082275390625,0.13306504487991333,-0.168300062417984,0.014625038020312786,-0.03529444336891174,-0.007431658450514078,0.03569866716861725,-0.019471583887934685,-0.02433905564248562,-0.016602739691734314,-0.0162810068577528,0.2078281193971634,-0.1333274245262146,-0.0741972029209137,-0.023432139307260513,-0.13083289563655853,-0.039476048201322556,-0.24889537692070007,0.09355637431144714,-0.16005803644657135,-0.029810529202222824,-0.03771032765507698,-0.055753063410520554,-0.08272488415241241,-0.0899549126625061,-0.007753817364573479,-0.017385561019182205,0.025684282183647156,0.08286809176206589,0.040421683341264725,0.09326554089784622,-0.0756574347615242,0.16918325424194336,-0.29992425441741943,-0.02735341526567936,0.0443703718483448,-0.1340605914592743,-0.09789934754371643,-0.11897632479667664,0.04993180185556412,0.08326312899589539,-0.1833885759115219,-0.11114253848791122,0.08751723915338516,-0.15812672674655914,0.05418066307902336,-0.10347658395767212,0.16624164581298828],[0.16541336476802826,-0.06285321712493896,-0.0026336582377552986,0.1162005364894867,-0.0726514384150505,0.08060819655656815,0.1360289305448532,-0.053293466567993164,0.026858435943722725,0.09927752614021301,0.046890318393707275,0.05141036957502365,-0.12946975231170654,-0.11773640662431717,0.10909397155046463,0.046516552567481995,0.01182591449469328,0.08806150406599045,-0.2606336176395416,0.29639920592308044,0.03431535139679909,0.3126083016395569,-0.009287923574447632,