[[0.05678541958332062],[0.36480778455734253],[0.2325393110513687],[-0.31828880310058594],[0.2326025664806366],[-0.2749684751033783],[-0.3164754807949066],[0.5720813274383545],[-0.17969302833080292],[0.1305205225944519],[0.012406918220221996],[0.020751086995005608],[-0.44331222772598267],[-0.23009106516838074],[-0.08939853310585022],[-0.13005073368549347],[-0.004372987896203995],[-0.4863359332084656],[-0.021288711577653885],[-0.007557151839137077],[-0.01620526798069477],[0.24311184883117676],[-0.15273386240005493],[-0.19562143087387085],[-0.12800033390522003],[-0.2313951551914215],[-0.08896981924772263],[-0.0773237869143486],[0.38971319794654846],[-0.0060830083675682545],[-0.1282835304737091],[-0.13195258378982544],[0.2242313027381897],[-0.15815536677837372],[0.14402896165847778],[0.3300771117210388],[-0.04781584069132805],[-0.13950760662555695],[0.23840588331222534],[-0.06461017578840256],[0.6497422456741333],[-0.2894149124622345],[-0.06158905848860741],[-0.08592122048139572],[0.7245414853096008],[0.2505868077278137],[-0.3187287151813507],[0.22148215770721436],[-0.1586976796388626],[-0.10861619561910629],[0.2397073209285736],[0.19778519868850708],[0.10018239915370941],[0.21172404289245605],[-0.3401297926902771],[-0.06318580359220505],[-0.1194843202829361],[0.01729537546634674],[-0.12915079295635223],[-0.20610982179641724],[0.06400123983621597],[0.3125024735927582],[-0.32729458808898926],[-0.06038516387343407],[0.261756032705307],[0.04322054982185364],[-0.2262953668832779],[0.032420121133327484],[-0.0020302007906138897],[-0.22337637841701508],[0.202546164393425],[-0.015588629059493542],[-0.6441226005554199],[-0.0002500831615179777],[-0.20452047884464264],[0.20552869141101837],[0.16601359844207764],[-0.07400527596473694],[-0.23479901254177094],[-0.18030720949172974],[0.11915349960327148],[0.12293245643377304],[-0.030393509194254875],[0.10541694611310959],[-0.3135303556919098],[0.1367982029914856],[0.610620379447937],[-0.02540809102356434],[0.03366156294941902],[-0.4403145909309387],[-0.12352515012025833],[-0.27321335673332214],[0.3385748863220215],[0.17966361343860626],[0.1277497112751007],[-0.21207505464553833],[-0.11820477992296219],[-0.34606340527534485],[-0.13987216353416443],[-0.23047858476638794],[0.0056397090665996075],[-0.26352718472480774],[0.11488845944404602],[0.14219065010547638],[0.26490527391433716],[-0.23727160692214966],[-0.5684336423873901],[0.3286033272743225],[-0.07786833494901657],[0.6440893411636353],[-0.16088616847991943],[-0.08266641199588776],[0.22467491030693054],[-0.29770371317863464],[-0.03335411474108696],[-0.1493551880121231],[-0.18291416764259338],[-0.14846603572368622],[-0.0653717964887619],[-0.06395592540502548],[0.3946567177772522],[-0.13721707463264465],[0.25469547510147095],[-0.047385480254888535],[-0.1510949283838272],[0.5833268761634827],[-0.10595586150884628],[-0.31174522638320923]]