[[-0.032717879861593246],[-0.12094736844301224],[-0.05592658743262291],[-0.3745657205581665],[0.014263518154621124],[0.04471723362803459],[0.11976394802331924],[0.028330449014902115],[-0.008598536252975464],[-0.20211292803287506],[-0.17497755587100983],[-0.3860343098640442],[-0.06846780329942703],[-0.12050092220306396],[-0.02089242823421955],[-0.31573188304901123],[-0.05915907025337219],[-0.16589993238449097],[0.06698586046695709],[0.03221571072936058],[0.09029287844896317],[0.016024312004446983],[-0.4676932692527771],[-0.2843201756477356],[-0.08579442650079727],[0.31558576226234436],[-0.31777557730674744],[0.1761355996131897],[0.09843027591705322],[0.09494838118553162],[-0.41103050112724304],[-0.23841235041618347],[0.07335931062698364],[-0.12428963929414749],[-0.30051153898239136],[-0.12332410365343094],[-0.09107621014118195],[0.2989480793476105],[0.0588347390294075],[-0.19348736107349396],[0.23026980459690094],[-0.0555015429854393],[0.28828123211860657],[-0.07976537942886353],[0.08590570837259293],[-0.4023960530757904],[-0.13082371652126312],[-0.20362482964992523],[-0.33972612023353577],[-0.07260608673095703],[-0.10413715988397598],[-0.1959999054670334],[-0.04657110571861267],[0.4894621670246124],[-0.2795654535293579],[-0.18500886857509613],[-0.11622751504182816],[0.1593080759048462],[0.14618752896785736],[-0.4407399594783783],[-0.19459757208824158],[-0.14610394835472107],[-0.33142295479774475],[0.04032668471336365]]